531 16
</s> 0.046974 0.64392 0.017446 -0.23878 0.18655 -0.45419 -0.013844 -0.096475 0.22633 0.41661 -0.35942 0.080278 0.019482 -0.0019444 -0.054983 -0.20382 
UNK 0.18263 0.59394 0.042353 -0.29219 0.12805 -0.43217 0.022362 -0.11219 0.24746 0.39862 -0.28744 0.14725 0.093285 0.03159 -0.081077 -0.17849 
1(N01) 0.10269 0.82048 -0.06496 -0.30947 0.26972 -0.39297 -0.22242 0.042552 0.2703 0.45211 -0.25962 0.15007 -0.0105 0.031014 -0.060779 -0.54854 
2(N01) 0.079246 0.73837 -0.044776 -0.26916 0.15896 -0.43633 -0.11191 -0.037385 0.1625 0.42648 -0.41145 0.14387 -0.058325 0.020921 0.012259 -0.2713 
1(N14) -0.0081195 0.63163 0.02044 -0.3838 0.10429 -0.4972 0.048067 -0.051151 0.15358 0.47621 -0.4161 0.037156 -0.012872 -0.021046 -0.031641 -0.10436 
M288 0.14108 0.50473 0.1712 -0.42983 0.19918 -0.53562 0.22844 -0.367 0.15974 0.29044 -0.25621 0.28252 0.14259 0.089585 -0.15734 -0.033247 
3(N01) 0.030614 0.66001 -0.10338 -0.42998 0.36265 -0.56784 -0.025994 -0.11007 0.20368 0.37082 -0.4676 0.16493 -0.017208 0.058668 0.024183 -0.13927 
M388 0.47104 0.77234 0.059421 -0.54001 0.041109 -0.47938 -0.1404 0.15734 0.00091996 0.51424 -0.11926 0.4245 0.043332 0.11655 0.050377 -0.22932 
1(N24) 0.10916 0.79305 0.020939 -0.10207 0.42347 -0.68491 0.59422 -0.85804 0.35132 0.38779 0.29375 -0.31692 0.23732 -0.2259 -0.39492 -0.024707 
M218 0.62057 0.8647 -0.062358 -0.49748 0.14392 -0.11516 -0.15349 0.12444 0.22105 0.23756 0.0069327 0.58285 0.22714 0.2097 -0.12794 -0.40457 
M387 0.32575 0.95536 -0.0017973 -0.14123 0.025648 -0.4066 0.080105 0.0053494 -0.027275 0.47097 -0.044472 -0.020994 -0.093771 -0.15093 -0.024017 -0.20558 
4(N01) -0.00011284 0.59598 -0.0415 -0.22394 0.22602 -0.50406 -0.0040464 -0.10099 0.19941 0.55809 -0.53498 0.43444 -0.13413 -0.0042146 -0.11358 0.1379 
1(N39B) 0.075455 0.99786 0.21903 -0.37716 0.32914 -0.53278 0.31276 -0.53734 0.41583 0.15746 0.0443 -0.23667 0.22144 -0.10446 -0.42563 0.034149 
2(N39B) 0.24204 0.55885 0.092466 -0.31165 0.28583 -0.63105 0.54607 -0.72013 0.36233 0.38999 0.047925 -0.1747 0.30335 -0.13567 -0.43266 -0.064435 
5(N01) -0.20219 0.64647 0.073622 -0.52575 -0.16307 -0.5572 0.11535 -0.18718 0.20734 0.58801 -0.53338 -0.16213 0.024607 -0.0048668 0.070053 -0.15161 
M297 0.39639 0.70271 0.4551 -0.053854 0.40906 -0.24657 0.31846 -0.45577 0.23104 0.50906 0.058351 -0.040939 0.28477 -0.049007 -0.1871 -0.17352 
M263 0.47442 0.93706 -0.25594 -0.44531 0.078073 -0.19856 -0.036792 0.36177 0.26469 0.31308 0.12096 0.66777 0.11665 -0.031075 0.040233 -0.56257 
2(N14) 0.058893 0.5761 0.0079194 -0.26196 0.18159 -0.61101 0.091905 -0.40894 0.19653 0.46098 -0.73044 0.22187 0.043716 -0.033124 0.076064 -0.010827 
M157 -0.21432 0.43923 0.32281 -0.088007 0.28454 0.28542 0.21653 -0.21763 0.23236 0.47716 -0.37175 0.90328 0.16846 0.13617 -0.29053 -0.2724 
M371 0.10757 0.9592 0.066269 -0.67703 0.45574 -0.18468 -0.28298 0.26908 -0.3241 0.51365 0.23646 0.36277 0.081404 0.14151 0.16038 -0.2938 
1(N30C) -0.036999 1.0103 0.013855 -0.053895 0.48364 -0.71772 0.61164 -0.98816 0.55056 0.3929 0.24889 -0.37276 -0.018834 -0.21308 -0.59811 -0.13286 
M124 0.057422 1.0202 -0.05118 -0.40861 0.59675 0.13071 -0.49235 -0.018611 0.36544 0.30589 0.13233 0.3771 0.12321 0.13661 0.083736 -0.4938 
M054 -0.10562 0.39624 -0.12583 -0.36464 0.018807 -0.54275 0.11255 0.044299 -0.30309 0.8916 -0.40948 -0.044803 0.031057 0.33237 0.3744 -0.55264 
M346 0.32177 0.74014 -0.5101 -0.08242 0.4383 -0.18609 -0.012162 0.12816 0.086302 0.33514 -0.53453 0.37226 0.096734 0.10966 0.30624 0.076645 
M066 0.79703 0.82595 -0.017789 -0.49929 -0.13661 -0.25345 -0.14863 0.12498 0.37015 0.48092 0.19498 0.56565 0.21974 0.22053 -0.1292 -0.43265 
2(N30C) -0.0018678 1.0571 -0.17245 -0.062663 0.33721 -0.79878 0.66523 -0.91193 0.51192 0.40087 0.24831 -0.38794 -0.061321 -0.37883 -0.39586 0.012481 
M009 -0.37806 0.95912 -0.22291 -0.31225 0.33753 0.0070554 -0.29028 0.23455 -0.18185 0.58656 0.14053 0.49743 -0.20068 -0.091093 -0.035446 -0.015996 
3(N39B) 0.15043 0.76534 0.17188 -0.16155 0.30302 -0.58847 0.4696 -0.48949 0.34862 0.36223 0.22279 -0.09132 0.19893 -0.16274 -0.1587 0.12533 
M096 0.37517 0.70136 -0.12144 -0.80113 0.066109 -0.46919 -0.051852 -0.010445 0.094748 0.32151 0.47488 0.60223 0.17338 0.44183 -0.068125 -0.65846 
6(N01) -0.21866 0.74315 -0.056859 -0.4536 -0.14314 -0.74136 -0.043824 0.17906 -0.14452 0.9824 -0.68358 0.17581 -0.096793 -0.13556 0.25657 0.10434 
M376 -0.89073 0.77812 -0.11851 -0.42306 0.74445 0.009818 -0.59075 0.14808 -0.37033 0.99027 0.017043 0.65655 1.1161 0.042992 0.57992 0.15365 
1(N34) 0.069317 0.6918 0.52807 -0.24713 0.085232 -0.65488 0.40163 -0.66522 0.023319 0.46712 -0.7844 0.27142 0.1625 0.044341 0.27024 0.2872 
1(N30D) -0.27721 1.0524 -0.1343 -0.039294 0.60611 -0.8582 0.76725 -1.1397 0.35954 0.40407 0.32319 -0.60727 -0.16756 -0.051216 -0.53234 -0.29817 
3(N14) -0.14158 0.69544 -0.072483 -0.16506 0.31314 -0.655 0.12375 -0.13734 -0.057696 0.33075 -0.61774 0.16287 0.068966 0.26469 -0.063058 0.0051181 
M057 0.77922 1.031 -0.092007 -0.40665 -0.23971 -0.27134 -0.03059 0.169 0.10893 0.34206 -0.13436 0.21624 0.12599 0.14222 0.29872 -0.31839 
4(N14) -0.21298 0.55531 -0.084932 -0.53418 -0.14463 -0.45979 -0.017854 -0.85416 0.076989 0.59759 -0.93992 0.14721 -0.26544 0.18755 0.25967 0.42545 
M367 0.27259 0.51856 -2.5482 0.10155 -0.094496 -0.45432 0.35354 0.61298 0.4358 0.78435 -0.37989 0.48954 -0.14362 1.4169 0.35985 0.39358 
M001 0.24429 0.76249 -0.2961 0.018048 0.16298 -0.44413 -0.066959 -0.39758 -0.12223 0.68336 -0.16084 0.5314 -0.22106 -0.33057 0.11809 0.14335 
M305 0.32041 0.87752 -0.26466 -0.084451 -0.024105 -0.50788 0.048916 -0.29571 -0.14577 0.033943 -0.12905 0.29125 0.38425 0.2502 -0.085461 -0.57113 
M036 0.78547 1.2959 0.37489 0.24026 0.62963 0.86757 1.7625 -0.016086 -0.84525 0.74852 -1.0656 -0.71516 0.38382 -0.24938 -0.94571 -0.32767 
M032 -0.16518 0.56834 -0.015283 -0.63107 -0.14275 -0.17214 -0.19778 -0.11079 0.085065 0.41106 -0.36686 1.257 0.26277 0.074729 -0.30775 -0.28974 
M370 -0.12717 0.85751 -0.15029 -0.18961 0.70675 1.0251 -0.92383 -0.26693 -0.34896 1.2117 -0.36617 -0.40369 0.11965 0.70385 0.60886 -0.93261 
1(N45) -0.34952 0.22714 0.3812 -0.49279 0.72951 -0.96505 0.92209 -0.82663 -0.15604 0.56542 -0.22533 0.45093 0.12997 0.544 0.018888 0.42497 
8(N01) -0.34874 0.53997 -0.22851 0.021154 0.53075 -0.4239 0.19169 -0.072982 -0.074794 0.65052 -0.85548 0.5768 -0.29306 0.18313 -0.018444 -0.13405 
7(N01) -0.29188 0.61881 -0.60468 -0.61748 0.47883 -0.52702 -0.5821 -0.026726 -0.18003 0.9264 -0.41129 0.089169 0.66526 0.11085 0.44731 -0.0083925 
M004 0.65554 1.3203 -0.060733 -0.17456 0.4494 0.19031 -0.2092 0.51288 -0.094556 0.17852 0.14022 1.083 0.17019 0.65885 0.4756 -0.14798 
M003 0.27429 0.81722 -1.1468 -0.3775 -0.072444 0.060043 -0.007048 0.16165 0.2496 0.44208 -0.23203 0.12605 0.17459 -0.25511 0.62539 -0.71753 
M377 0.11219 0.97588 0.20119 -0.84915 -0.1521 -0.13391 -0.074476 -0.077552 0.12529 0.21392 0.28795 0.29767 -0.21498 0.49938 -0.2883 -0.47502 
M354 0.45278 1.7223 -1.2749 -0.72325 -0.89086 -0.11947 1.2028 0.36696 -0.54406 0.37041 -1.0077 -1.5455 0.68147 0.60442 0.51394 1.5082 
4(N39B) 0.18075 0.72915 0.16754 -0.1065 0.14886 -0.55669 0.56732 -1.1712 0.21097 0.2502 -0.0054757 -0.15017 0.23862 -0.18002 -0.0039081 -0.52701 
5(N14) 0.15868 0.23624 0.042571 -0.7801 0.14375 -0.45381 0.45111 -0.71341 -0.15 0.40187 -1.0027 -0.17118 0.71761 0.49868 0.59002 -0.13799 
M352 0.54145 1.012 -0.046726 -0.11263 -0.13239 -0.53477 0.23661 0.025929 0.15633 0.089448 0.43769 0.74132 0.32971 0.35425 0.35174 -0.41483 
M072 -0.83114 1.0958 0.58672 0.38317 -0.046464 -0.080913 0.081299 0.64621 -0.61178 1.3598 -0.25855 -0.10611 -0.13127 1.176 1.0609 -0.043868 
M036+1(N30D) 0.43052 1.2347 -0.77288 -0.52636 -0.55678 -0.54086 0.82657 0.197 -0.1159 0.77408 -0.071161 -1.209 -0.36624 1.0751 -0.43952 1.149 
M269 -0.29673 0.60498 -0.17654 0.39007 3.2513 2.8839 0.88678 -2.4646 -1.9913 1.9997 -1.1281 -0.0094422 -0.6055 -0.014109 0.97623 -1.6732 
M136 -0.076848 0.83732 -0.73212 -0.71716 -0.13605 0.34994 0.51941 -0.39951 -0.12116 0.14836 -0.52198 0.53491 -0.52382 -0.44548 -0.86014 -0.030833 
M206 -0.030916 0.2174 -0.10922 -0.91487 -0.28201 -0.32021 -0.45417 -0.75832 -0.12916 1.3589 -0.044006 0.36242 0.41087 0.33708 0.1281 1.0892 
M219 0.34548 0.87266 -0.65755 -0.19369 -0.22594 -0.064585 -0.12858 -0.19952 0.53328 0.27896 0.53914 0.73748 0.48562 -0.16001 0.10897 -0.3462 
M056 -0.66252 -0.11995 -0.3975 -0.52993 -1.4561 -1.0081 0.52949 -2.3953 -0.35004 0.73633 -0.74923 1.14 1.1127 0.67995 0.29895 0.15123 
M347 0.1318 0.99827 0.57091 -1.4836 -0.50978 0.26817 0.36194 -0.023118 -0.38815 0.27597 0.35536 0.30096 0.076223 0.47469 -0.21903 -0.80851 
M048 0.0022172 0.67966 -0.13778 -0.34327 -0.36095 -0.12991 0.89111 0.24809 0.23016 0.58457 0.80977 0.67767 0.23491 -0.070304 -0.011538 -1.6855 
M038 -0.48508 1.2087 -0.29284 0.052311 0.21978 0.011175 0.071619 -0.88626 -0.10097 0.29555 -0.1034 1.3074 -0.25479 -0.54502 -0.34894 0.35507 
M059 -1.0365 0.43487 -0.48795 -0.5404 0.74088 -0.41166 -0.084367 -0.85313 0.23142 0.40115 -0.29314 0.4229 0.0013641 0.472 0.025983 0.2907 
6(N14) 0.037599 0.31589 -0.16806 -0.12933 0.44525 -0.5076 -0.01415 -0.79698 -0.27389 0.63961 -0.89261 0.43867 0.32982 1.1032 -0.77182 0.18535 
M010 0.35276 0.65562 0.60504 0.53737 0.10568 -0.12284 0.70718 -0.66435 0.64798 0.66865 0.42128 0.078153 0.10168 1.1513 -0.28551 0.065649 
M386 0.10711 0.90488 0.090464 -0.74267 -0.02493 0.10263 0.095643 0.21552 0.32153 0.4014 0.68983 0.32939 0.71402 0.33904 -0.62298 -1.2281 
M373 -0.58115 -0.060548 -0.076649 -2.0606 0.27527 2.9217 -0.26039 0.61678 0.77994 2.5153 -0.17972 0.97355 -0.92871 1.9101 -0.38966 -0.80267 
9(N01) -0.39232 0.50117 -0.85298 -1.4928 0.18394 0.08292 0.18673 -0.35433 -0.040799 0.93437 -0.66327 -0.080425 -0.20526 -0.41544 0.94636 0.75856 
M262 0.6693 0.6485 0.0055878 -0.92143 -0.050887 -0.0066703 0.94559 0.54569 -0.0098602 0.76617 0.87247 0.60143 -0.3881 0.33258 0.38063 0.065052 
M102 0.44763 1.9377 0.30997 0.87065 -0.058378 2.1327 -0.32342 0.79471 -0.29382 0.59154 -0.4128 1.5426 1.0242 1.7935 -0.48813 0.63231 
M203 -0.66162 1.1042 -0.88967 -0.59836 0.8155 0.36619 -0.18914 0.28438 -0.084764 0.069683 -0.073094 1.1731 -0.19791 0.56507 0.28525 0.89478 
M259 0.95486 0.91952 -0.30885 0.088093 0.27486 0.8826 0.37418 0.24342 0.2243 0.21325 -0.22693 1.1682 0.66454 0.29082 -0.79383 -0.77625 
M106 0.0082801 0.3926 -2.1051 -0.88751 0.94836 0.52869 1.7447 -1.7958 -1.5277 0.44438 0.092948 -0.24485 -0.0049024 -0.52676 -0.095851 0.079583 
M260 0.40544 1.0057 -1.4787 0.38739 0.70065 -0.37415 0.9791 0.14366 -0.60687 -0.13135 0.43392 0.76634 -0.16082 0.57501 0.15053 -0.38183 
1(N08A) -0.86521 0.47087 -1.1507 -0.62259 1.2812 -0.17682 -0.78268 -0.38163 0.098812 1.4291 1.4779 1.371 1.7588 -0.18373 0.57539 0.51985 
M240 -0.10071 0.95456 -0.010635 -1.0896 -0.10767 0.65485 0.11583 -0.042016 0.00259 0.17864 0.47655 0.62451 0.76249 0.40729 -0.56659 -1.5186 
M005 -0.41028 0.19444 0.4617 -0.80507 -0.15053 0.13585 0.7123 0.074909 0.13254 0.49554 -0.55927 1.0069 0.47151 0.11601 0.57602 -0.19634 
M149 -0.25297 0.53891 -0.16141 -0.43115 0.27776 0.83083 -0.45773 0.19467 -0.43165 1.5111 -0.4247 0.70617 0.27471 -0.19613 -0.76253 0.27674 
M024 0.43797 1.271 -0.2955 -0.20818 1.3254 -0.25322 -0.11809 -0.048871 -0.20596 0.90395 1.9317 0.60069 0.36854 0.089101 0.7696 -0.0047024 
2(N45) -0.40959 -0.050132 0.41552 -0.71355 -0.91945 -1.0485 1.126 -1.662 0.00089406 0.74564 -0.41071 0.6449 0.75713 0.34186 -0.067135 -0.016433 
M317 0.18449 0.90189 -0.72142 -0.21017 0.3631 -0.35511 0.21524 0.94147 -0.79769 1.1125 0.33024 0.19012 0.083695 0.29982 -0.3753 0.46418 
M295 1.0485 0.75437 -0.43614 -0.82499 0.58193 -0.086378 -0.1428 -0.79882 -1.0004 0.59303 0.48452 0.46286 0.95051 -0.14544 0.46297 -0.5579 
M111 0.93642 1.4376 -0.19608 -0.85346 -0.28676 0.31805 0.60011 0.37396 -0.21659 0.037189 -0.021889 -0.86712 0.39449 0.82641 -0.26843 0.30363 
M243 -0.29142 1.0783 0.50007 -0.13742 -0.068677 -0.43767 0.27851 -0.66545 0.13712 0.17032 0.72653 0.50368 0.45474 0.1987 -0.6862 -0.84498 
M153 0.36719 -0.21854 -0.34177 -0.73718 -0.37413 -0.14332 0.29938 0.027258 0.27542 1.3559 -0.329 0.49556 -0.013735 0.24064 -0.22743 -0.16791 
M365 -0.8788 1.1478 -0.42759 -0.32837 0.11411 0.29601 -0.023183 -0.56442 0.32132 -0.092415 -0.42519 -0.34611 0.4977 0.29379 -0.27908 -0.44092 
M304 0.44877 0.57323 -0.31683 -0.0040977 -0.0039739 -0.43935 0.32966 -0.33111 0.34335 0.37111 -0.33542 0.21265 0.39391 -0.088218 -0.44335 -0.35105 
M264 0.52042 2.5202 -0.51338 1.1886 -0.12469 0.97958 0.12573 -0.22538 -1.3771 0.93085 -0.69731 0.26416 -0.13233 -0.68258 0.59512 0.15759 
M309 -2.7568 1.6819 0.34987 -0.035662 -2.4286 1.1509 0.87562 0.31167 -1.4691 0.58024 0.52209 2.1042 1.0443 1.2627 0.45723 -1.544 
M292 0.16653 0.30751 -0.056966 -2.3391 0.042352 0.93688 2.3666 0.76965 -0.62643 0.52653 -0.19385 1.5337 0.57469 -0.77576 0.94213 -0.58485 
2(N34) -0.17121 0.012492 0.4633 0.017464 0.1212 -1.2495 1.8254 -1.3292 -0.76364 0.4873 -0.7729 1.2106 0.47072 1.1878 1.0627 -0.12134 
M101 0.88726 0.54526 -1.5264 -1.0485 -0.79111 0.84349 1.4234 1.1404 0.49798 0.15475 -0.27843 1.3257 1.9275 0.27869 -0.34766 -0.48958 
M146 0.90388 0.76463 -0.86808 -0.57841 0.11652 -0.21924 0.047255 0.11918 -0.44301 0.22897 0.16651 0.43165 0.74815 0.2575 0.32972 0.12047 
M320 0.49143 1.0461 -0.53818 -0.39806 -0.72002 -0.40529 -0.21929 -1.0081 -0.9762 1.0916 0.74825 0.41622 0.69853 -0.80743 -0.36358 -0.046983 
M145 0.62898 1.1007 0.08856 -1.224 -0.59199 0.47149 -0.2359 -1.0805 -0.75367 0.80488 0.70691 0.30006 0.81963 0.34121 -0.83205 1.5249 
M242 0.5196 0.55762 -0.27712 -1.0207 1.0904 -0.47529 0.20704 -0.13944 -0.44026 0.67698 1.1685 0.64685 -0.021886 0.80681 0.69629 -0.55625 
M362 -1.597 1.0186 -4.1712 0.3624 -0.78052 -0.92468 1.2222 -0.93747 0.03112 0.47675 -1.3927 0.57112 -0.70885 2.8869 1.3061 0.78825 
M318 -0.84566 1.1669 -0.84739 -1.2814 0.71377 1.2988 0.36788 0.17221 -0.64649 0.24632 0.036083 1.0928 -0.32898 -0.31272 -1.5669 -0.76562 
M380 0.60988 1.1774 0.70888 -0.594 -0.12452 0.35218 0.8538 -0.50616 -0.79612 0.35803 0.28752 0.45569 -0.33486 0.032632 0.58421 -1.1288 
M097 1.3674 1.4915 -0.76986 -0.28136 -0.14596 0.41028 -0.01223 -0.35318 -0.82537 -0.40547 -0.049845 0.45297 0.55541 1.3149 -0.48047 -0.43265 
M131 0.63927 1.7094 1.2223 -0.056692 -0.45516 0.98045 -0.47653 -1.5961 -1.5309 -0.058041 -0.22573 1.076 0.19528 1.9679 1.094 -0.16632 
M338 0.2067 1.3215 1.0572 -0.0066711 -0.76341 0.79116 -0.36455 0.11385 0.38114 1.1357 0.74754 1.4901 0.38431 0.65151 -0.054289 0.3538 
M006 -0.99782 1.2109 0.64687 1.8786 -1.036 0.55762 0.1385 -1.2692 -0.87654 1.6051 -0.37161 0.69788 -0.53703 3.1895 1.9825 -0.37335 
M002 0.53094 2.0383 -0.99112 2.3602 -1.4665 0.91179 6.7916 -0.15067 1.7084 -0.77556 -0.49806 1.9226 1.4078 1.9528 -0.40151 -0.32495 
M223 0.95178 0.78918 -0.088765 -1.2875 0.84477 0.13521 0.22087 -0.39742 0.23756 0.22904 0.94069 0.76538 0.10239 0.81908 -0.32212 0.33312 
M327 -0.40966 0.57497 -0.75751 -1.1446 -0.96534 0.57947 2.9518 0.98227 0.53491 0.29143 -1.6752 0.25448 1.934 -0.24521 0.36194 -0.027075 
M254 1.3582 0.78629 -0.32743 -0.23367 -0.065231 -0.095239 0.33193 -0.66948 0.80727 2.0743 2.9149 0.21654 1.4256 0.9754 2.3248 1.1494 
M210 -1.1719 1.1224 -2.0646 -1.8474 0.82155 0.394 1.4471 -0.26271 -0.40785 -0.52957 -0.15211 -0.52411 -1.4176 1.5419 -0.13031 0.05993 
M325 0.89434 0.89224 0.73878 0.13772 -0.27377 1.086 0.34883 -1.956 -1.6788 0.46063 -0.20717 0.61823 0.20319 1.0977 0.39 -1.1152 
M075 0.19893 1.5294 -1.1368 -0.20462 0.16229 2.0741 -0.18557 -2.5982 -1.1191 0.059228 -1.2425 0.12747 1.0418 1.4478 -1.7136 0.95747 
M348 0.56122 -0.0048625 -1.2047 -1.5292 -0.44728 -0.19416 1.4588 -1.1943 -0.75458 -0.36966 -0.38633 1.5117 0.84317 0.85573 -0.27196 -0.064566 
M341 -1.0573 0.99344 -0.38817 0.99845 -0.57324 0.48028 1.5647 -0.50466 0.52946 0.35574 -0.43367 0.96715 -0.52619 0.11281 1.3779 -0.88133 
M384 -2.0385 0.37955 -2.0554 -0.16659 -0.73292 0.17292 1.0984 0.079054 0.39689 2.2015 0.6112 -0.36406 1.6905 -0.58568 -0.1627 -0.065703 
M314 0.50213 0.35195 -0.12463 -0.68653 -0.78143 0.22413 0.69414 0.30153 0.66499 0.60183 0.66942 0.66812 1.2228 1.255 -1.5604 -0.69115 
M099 0.85074 1.3264 -0.10824 -0.2085 -0.58436 0.01423 0.18139 0.57449 0.061587 0.87535 1.3299 0.078103 -0.19173 0.76551 0.082344 -0.27652 
M136+M365 -2.7164 2.0347 -3.6991 -0.8512 -2.8262 0.54036 -0.40084 -2.4659 -1.2704 0.54425 0.075646 1.2145 -0.88851 -0.18103 -2.089 0.086178 
M081 1.249 1.9549 -1.55 1.1605 0.26859 1.0895 1.9152 -0.41528 -1.173 1.2829 -1.0274 -1.0182 -0.70754 -1.0664 -0.11811 -0.1333 
M033 0.66222 1.3075 -1.2759 -0.16686 2.0132 1.8577 0.83899 -1.0941 -0.20875 1.3777 1.3813 -0.10684 -0.98641 -0.66178 1.1935 -2.1642 
1(N39C) -0.46164 0.86085 -0.76689 0.1698 0.62091 -1.5448 2.9961 -1.7396 -0.6297 0.43731 0.10937 -0.83899 -0.1784 0.97798 0.45309 -0.16658 
7(N14) -0.43854 -0.14856 -0.16634 -0.043754 1.0519 -0.39425 0.35121 -0.50205 0.28548 1.0459 -0.71861 0.79367 -0.26666 1.0595 0.21282 -0.24346 
M217 -0.63368 1.2058 -0.18086 -1.3732 0.18674 0.71095 -0.70736 -1.0797 -0.27125 -0.040711 0.44784 1.3677 -0.71636 1.3414 -0.41583 0.1965 
M329 0.5474 0.89224 -0.46582 -0.92174 -0.48552 0.43447 0.0024283 0.47862 0.66681 0.4188 0.15732 0.94107 1.3768 0.31849 -0.93548 -0.08733 
N -1.3034 1.3253 0.50142 0.61105 -0.81756 -0.20676 1.4379 0.42955 0.62444 0.47838 0.25495 -0.27843 1.2131 0.62564 -0.045575 -0.019537 
M128 -0.80481 0.56705 0.38059 -2.0461 -2.7268 -0.010286 0.8506 -1.3664 -1.2891 0.76883 0.92062 0.53314 1.1044 1.4124 0.59488 -1.1927 
M139 0.68507 1.2156 -0.11203 -1.6654 0.309 0.60129 1.3599 0.072114 -0.97788 0.0040409 -0.1559 1.6224 1.1912 -0.99967 0.14025 0.84314 
1(N23) -0.97454 1.885 -3.8233 -1.8624 0.050069 0.63539 1.4894 1.3804 0.30085 -0.64266 -1.1256 -0.80942 1.7838 0.78856 2.0299 1.0843 
M301 2.1397 0.38758 -0.25091 -0.0017243 -0.3604 0.55608 0.6232 -0.47526 0.15175 0.70321 -0.66697 1.0338 0.13597 2.2704 -0.59543 0.51596 
M029 0.11233 0.72431 -0.80008 -0.73466 0.52251 -0.43264 -0.59771 -0.2023 -0.184 0.77334 1.0067 0.30274 0.28521 0.79519 0.037684 -0.0015965 
8(N14) 0.22541 -0.70555 -0.36044 -0.29764 0.23194 -0.26418 0.97007 -1.4218 -1.2325 1.9043 -1.2642 0.46445 0.82542 0.5479 -0.45771 0.29848 
M265 -1.0275 1.6188 -0.60462 0.42872 -0.44569 1.5613 0.85845 0.78831 0.24486 3.2321 1.0669 -2.615 4.0144 -0.53409 0.50894 0.076993 
M372 0.062406 -0.069651 0.33954 -2.1292 -0.71115 0.42547 0.23039 0.27276 0.12608 1.6376 0.38869 0.18493 -0.040557 1.7588 -0.073898 -0.87234 
M332 -0.18762 0.90264 0.30035 -1.8503 -0.24705 1.2679 0.49205 0.63215 -0.70594 0.56937 -0.13179 2.4143 -0.49837 0.59948 0.049483 0.34402 
M041 -0.56996 1.4507 -1.2828 -0.217 2.0786 0.3857 1.2063 -0.83644 0.038786 -1.709 -0.84519 0.75405 3.2032 2.34 0.87536 -0.48591 
M218+M288 0.99738 0.61715 0.012189 -0.38075 -0.25028 -0.21038 0.66274 -1.2492 -0.092904 -0.1197 -0.27662 1.3133 0.97738 0.27812 0.82688 -0.18671 
M046 -0.13295 -0.4336 -0.94692 1.1265 -2.8363 2.7777 3.6722 0.0069884 2.2953 3.1838 -1.3586 0.61373 2.2516 2.3978 3.3906 -3.6032 
M327+M342 0.5367 0.064316 -3.6931 1.4891 0.0053367 1.3454 -0.30542 -2.1508 1.9664 1.8587 1.6027 3.3589 1.5631 1.6979 -0.93596 -0.048091 
M175 0.032565 1.6275 -0.62661 0.30902 -0.073592 0.34228 0.42996 -0.55718 0.019021 -0.56272 -0.27097 0.61929 0.2783 0.16223 0.5652 -1.0587 
M266 -1.0604 2.7482 -1.1826 1.091 0.077612 1.3845 3.146 1.0323 -0.093118 0.052007 0.93609 0.69221 -0.15049 -0.6434 -0.32547 -1.6963 
M051 -0.94707 0.8226 -1.9303 0.043653 -0.12032 1.0602 0.80265 -0.90389 -1.3138 2.0169 0.40302 0.18743 -0.073934 -1.678 -0.47064 -1.8952 
1(N30C@B) 0.91225 4.028 0.1343 1.7366 -0.68771 2.4733 2.055 -2.0639 1.3626 1.4376 0.91575 -0.39834 -1.7479 0.28147 -2.1204 1.042 
M195+M057 0.23303 -0.072096 0.051611 -1.9653 -0.58907 0.26078 1.6782 0.13454 -0.59914 1.6582 -0.3979 1.2747 0.62768 -1.2993 0.33796 0.00062518 
M296 -1.1501 1.4331 0.43586 1.0901 -1.2402 -0.32296 1.5921 0.17284 -0.54637 0.48485 0.34362 0.90653 0.72052 0.2773 0.68484 -0.86331 
M391 -0.78237 0.14504 -0.19645 -0.39405 1.4125 0.69899 1.2367 -1.1481 -2.6485 0.74164 0.16402 1.9941 0.64685 1.3007 0.30488 0.19321 
M390 0.47509 0.76256 -0.58113 -1.2412 -0.53446 0.17194 -0.059787 0.59469 0.052529 0.39161 -0.14882 0.48258 0.44146 0.60761 0.23358 -0.33417 
M281 0.46983 0.11076 -0.51155 -1.3499 -0.60872 0.47922 -0.029675 -0.20013 -0.00023735 1.4219 0.72229 1.021 0.94306 -0.17687 -0.76373 -0.8419 
M195 -0.21689 0.63767 0.3725 -3.143 -0.57653 0.57019 0.26312 -1.2144 1.0603 0.93645 0.68643 -0.043475 -0.088809 0.58675 0.94546 1.3811 
M106+M288 2.2864 0.44835 -2.5789 -0.69698 1.8997 0.80798 1.3061 -1.5798 -0.39409 -0.18238 0.70507 -0.14646 0.54838 2.6892 1.3474 -1.0408 
M246 -0.8575 1.6967 0.29249 -0.19421 -1.2528 0.67189 0.055365 -1.4928 -1.8426 0.26841 0.35218 0.74142 -0.091159 0.42834 -0.16947 -0.41506 
M147 0.8407 1.0307 -0.7189 -0.95233 0.28786 0.054178 0.1302 0.44578 -0.93391 1.0528 0.23843 1.2478 0.14287 -0.39292 0.28274 0.54522 
M207 -0.38905 0.84838 -0.38639 -1.054 1.1858 -0.59703 0.55472 -0.19858 -1.1927 -0.099958 0.31578 0.85389 -0.078508 0.99317 0.75202 0.092913 
M247 -2.4743 1.5442 1.8018 -1.7455 0.076434 1.6196 0.88033 -0.9533 0.12788 0.049703 1.129 0.80619 0.0039276 1.9999 0.16752 0.52708 
M105 0.6457 -0.15542 -3.8135 1.4879 0.74605 -0.445 1.8186 -0.14747 0.60614 1.5306 0.81364 0.012542 1.8458 2.5214 -0.57917 0.17794 
9(N14) -0.088247 0.58623 0.026697 -0.73128 1.7518 -0.84985 1.7338 -0.18419 -1.3229 0.30842 0.20684 0.74554 0.80336 1.0751 0.41643 1.1847 
M351+1(N14) 0.18975 1.3741 0.71303 1.0718 -0.45126 2.0836 1.2025 0.77001 -0.07649 1.9757 -0.40259 -0.97393 1.93 0.14622 0.67152 -0.90975 
M250 0.89408 1.5076 0.15986 0.2278 -0.8318 -0.085247 0.95251 0.44786 -0.21615 0.47011 1.2113 0.94278 0.17753 0.75675 0.57467 -0.98409 
M383 -0.64586 0.29185 -1.9155 -0.74751 -1.232 -0.33044 1.0634 -1.2656 -0.032122 0.96591 -0.42871 0.86286 0.11216 -1.1686 -0.65072 0.23204 
M122 -0.09587 0.5874 -1.6276 -3.1016 -0.94 0.68801 1.5971 -2.0472 -0.76223 1.0484 1.5022 -1.7673 -1.4128 2.3337 0.3799 1.2312 
M296+M296 1.4405 1.4615 -1.2277 -2.8137 -1.5505 1.4345 0.59384 -0.59757 1.1505 1.0022 0.75328 -1.4918 0.10792 0.91884 1.3916 1.9577 
M321 -0.97932 1.2665 -0.021487 -1.455 0.077618 2.8507 3.5132 1.3127 -0.52167 -0.13887 -0.93312 2.0636 1.8665 -0.99424 0.1765 -0.75137 
M374 -3.2224 1.1756 -0.1855 0.1416 1.6075 -0.22525 0.67615 -0.38599 -1.3836 1.5008 1.4379 1.2943 -0.069032 0.89399 -0.44511 0.39374 
M340 -0.076128 0.07333 -1.4486 -2.9853 -1.6012 0.33836 1.6096 -2.1305 -3.1122 2.2067 1.585 -1.6639 0.58186 1.1964 -0.28821 0.046165 
M112 1.5522 1.7066 -1.5014 1.0223 0.80819 2.0648 0.95129 -0.37502 -2.0207 1.3571 0.032523 -1.3248 -0.051011 1.8711 -2.1047 -1.2127 
M103 0.68914 1.1077 0.34666 -0.38245 -0.33907 1.3248 -1.3714 -1.4149 -0.53304 1.0075 -0.06249 0.39711 -0.11878 1.8775 -0.19691 0.0037984 
M251 0.18234 0.061954 -1.8122 -0.65584 -0.026756 0.39448 -0.21711 -0.27554 -0.33114 1.6168 0.48555 1.5077 0.21568 -0.41371 0.69062 -0.32555 
M110 -0.034976 0.78845 0.67758 -1.8017 0.27781 1.1342 1.929 -0.57126 -2.1359 0.66244 0.88038 1.0476 -0.56142 -0.06601 0.16054 -1.3434 
M228 0.66391 1.6703 0.60754 0.18506 0.05573 2.1498 -0.60926 -0.38775 0.40915 1.1318 -0.50644 0.39356 -0.59706 0.36097 0.56962 0.15677 
M230 0.57163 -0.12308 -0.22039 -1.157 0.67889 0.90121 0.74123 -0.092011 -1.4617 1.842 0.75316 0.66903 0.32227 1.0953 -1.6889 -1.4527 
M417 0.80657 0.58374 -2.2131 -0.070688 0.82138 1.8688 -0.65733 0.80669 -0.88468 2.9911 -0.24316 0.8295 0.31367 1.0496 -0.66802 1.5295 
M131+M388 -0.62895 0.053192 -0.93828 -3.2063 -0.85187 1.0826 1.0691 -0.27269 -0.65625 0.59627 0.90177 2.7472 -0.18234 0.62038 0.41619 -1.4165 
M049 0.75939 1.0891 -0.80376 -0.52322 0.092602 -0.17758 -0.2184 -0.05111 0.33761 0.89832 1.7986 1.7069 0.43839 0.21672 1.1103 0.28312 
1(N24@B) 0.15584 1.1208 0.43262 1.433 1.9972 0.57278 4.8832 -1.2159 1.6194 4.0076 1.4013 0.59865 -2.8561 1.6521 -1.7404 0.59458 
M248 0.41109 2.4847 -0.21074 0.66994 0.15487 -0.0014559 2.2717 -0.57381 0.1959 -0.91248 0.83303 0.62791 0.10792 0.0098691 1.0893 -0.37708 
M039 -2.3006 1.8492 0.48485 0.94651 1.0044 -0.76776 2.9481 -0.67891 0.3832 -0.79063 1.3039 2.3197 4.5257 2.1678 2.3708 0.97918 
2(N30C@B) -1.0175 2.9363 1.1918 0.048205 1.4669 4.1975 2.5249 -3.424 4.0221 1.2708 1.1624 -0.012708 -0.6939 -0.83788 0.8017 -0.80673 
M305+M342 1.4238 2.7214 -1.6212 0.39125 0.080665 1.9702 0.60632 -0.15037 -1.8622 0.95421 -0.18543 -0.43549 0.52663 -1.2375 0.66224 0.51616 
M305+UNK -1.3526 1.5986 -0.65725 2.0387 -1.3541 -0.044515 3.7686 0.76937 0.4611 2.2479 3.3926 2.5497 -1.7533 0.95467 3.5538 -1.6103 
M125 -1.7493 2.5882 -1.8003 -0.63371 -0.25081 2.3137 -1.3207 -0.85659 0.71237 0.94889 0.23737 -0.13459 -0.88278 -0.4143 -0.99176 -0.55123 
M302 -0.76142 2.5971 -0.89141 1.0533 -0.90801 0.09367 0.59158 0.84184 -1.3832 0.85736 0.51731 -0.87459 -0.42938 0.61059 0.86199 0.057957 
M050 -0.22405 3.0629 -2.5867 2.4984 0.62377 3.1205 0.11581 -3.585 2.1181 3.5066 2.6282 -0.62358 3.9015 -1.0109 0.33893 -0.85542 
M319 0.27869 1.061 -1.4005 -0.42227 2.1964 0.11113 2.8706 -0.63467 -0.11873 -1.8443 -0.29886 2.1018 1.6676 1.9137 0.91119 -0.67688 
M220 1.577 -0.74729 -1.0943 0.23362 0.71728 0.40179 1.533 -0.35628 0.56642 1.2707 0.77145 1.7602 1.136 1.8016 -0.63271 -0.8199 
M069 -0.9245 0.70611 -0.69634 -0.47584 1.6959 6.1393 2.1194 -1.4362 -2.5889 6.4616 0.76097 -3.082 3.2176 -0.97251 -2.5516 -2.2904 
M323 -0.92707 1.6876 0.53459 -1.9101 -0.68604 1.1527 -0.050428 -0.42348 -0.52739 1.1298 1.1065 -1.2997 0.21344 1.4441 -0.70578 0.73808 
M379 -1.2108 2.3316 -0.52106 0.92837 0.33206 2.3028 1.6922 -2.4447 1.9943 0.64281 0.23661 -1.4697 -1.6188 1.4616 0.20949 -2.0077 
1(N14@B) 1.2513 3.1885 -1.3404 0.060964 -1.2129 -0.78571 2.7001 0.84975 -1.8851 1.0025 0.95534 -2.4602 -1.1157 3.7705 0.050677 2.2963 
M261 -3.1283 4.8851 1.7984 1.0403 -1.5176 5.3691 2.2675 -2.0702 -4.0466 1.3211 -1.1763 2.7111 4.5961 -2.0084 -1.4208 0.5239 
M073 1.1967 0.017473 0.77048 -0.76439 1.8618 3.3336 0.84093 -0.1409 0.65057 4.3619 1.4044 -0.090627 -1.6116 1.3923 0.37606 -0.68872 
M418 -4.0013 2.1691 -5.9741 0.84459 -0.3476 -0.51541 2.0254 -2.5478 -4.3212 1.3333 0.16248 1.2575 0.59704 2.3014 0.76524 0.94668 
M153+M342 0.75947 1.6116 -0.40163 -2.9618 -2.0565 0.39008 1.8657 -0.81785 -2.1572 0.43 1.1342 0.12473 0.032944 2.2518 -0.518 2.6225 
M286 -1.9278 2.628 -2.1556 -0.22377 -1.2177 2.9805 -0.60406 -2.6835 2.3192 1.5044 0.6873 -1.4919 1.084 -1.1657 -0.59998 0.19864 
M260+1(N24) 0.70287 1.9987 -2.6089 0.41444 0.77388 1.119 2.2724 1.1559 -1.7652 0.11893 1.8259 1.4555 -0.46889 2.5468 -2.4019 -1.0038 
M080 1.2714 -0.13709 -2.6429 0.14205 -0.88061 0.56404 0.076709 -1.4962 -0.28311 2.6729 0.11093 2.3684 0.40268 -0.18853 -2.5937 0.6162 
M278 0.8788 1.196 -1.5196 -0.10241 0.36939 4.634 2.9629 -2.8739 0.82616 1.583 -2.7601 -0.055265 -0.57056 -2.0714 2.2673 -1.1102 
M205 -1.7114 1.5873 -1.1523 0.81987 2.0973 2.9322 -0.55865 -1.8741 -2.9179 2.9274 -0.72093 -0.88541 1.0867 0.36061 -0.61478 -2.5988 
4(N34) -2.0454 0.9963 -2.0825 -0.67177 -3.0356 -0.85717 0.6649 -4.2777 -1.5197 0.076113 -1.4682 2.5208 0.73843 1.894 -0.20395 1.1525 
M036+1(N14) -3.7733 2.3839 1.0223 -1.368 -1.7763 3.0241 3.7687 2.0041 0.41875 1.7201 0.0804 0.54049 2.6858 -1.2771 -0.94471 0.45992 
M327+UNK -0.46953 -0.28367 -0.49286 -2.3387 1.1136 1.6637 4.4174 0.79036 -2.9597 2.4823 0.21031 1.5135 3.1571 -0.84152 1.4787 -0.5995 
1(N51) -1.261 0.55886 -0.9556 0.68714 -1.1063 0.58911 -0.52371 -1.611 -1.7684 4.1529 -3.5086 -0.10187 0.43323 4.9948 1.9106 0.79137 
M044 -1.4336 0.86379 1.3057 -1.4605 0.84563 1.7116 -0.41913 -2.7549 3.3787 2.5635 2.5922 -1.929 1.799 2.8465 -1.543 0.5682 
M291 0.079876 0.058509 -0.24114 -0.94033 0.95167 -0.38084 2.1967 -0.37217 -0.57591 3.8865 3.7407 0.45877 0.10443 -0.58849 1.9566 1.4081 
M316 -1.4461 0.40311 -1.815 -0.41016 -4.5945 -0.010757 1.2792 -3.6045 0.18563 2.8291 1.6402 1.3953 0.6622 -0.51919 -0.32295 1.1853 
M109 0.54639 1.8556 0.080695 1.3351 -2.2809 3.0922 -1.5965 -2.2087 -2.1785 1.3946 -1.1749 3.8801 3.0367 4.9072 1.278 -1.7716 
M136+UNK -0.27309 2.3453 -3.9716 -0.87604 -1.021 1.4534 3.3865 -0.9439 0.28472 -1.453 -0.12042 -0.31459 0.16377 -0.0021113 1.47 0.77733 
M249 1.0909 2.2011 0.27208 -0.34821 1.4054 1.3548 1.4135 0.60573 -0.11781 1.3392 1.9321 1.3696 2.6861 1.4715 -0.54956 4.3804 
M158 -0.36708 1.8946 -2.8976 1.6871 -5.1356 1.0768 3.238 -1.5849 1.647 1.163 0.76264 3.3422 -0.80156 0.5911 2.5682 -0.56722 
M285 1.0986 1.2428 -1.5432 -0.59016 -0.23272 1.2311 0.54335 -1.3305 -4.1419 1.4339 1.2325 -1.3464 2.348 1.841 -0.67439 -1.32 
2(N23) -1.7571 1.6267 -3.9336 -2.191 0.1774 1.4487 0.86744 -2.4387 1.6801 -0.11921 -1.6681 0.52265 -1.9887 1.0171 1.779 1.6659 
M370+M072 -1.2254 0.62096 -2.6422 2.7736 3.378 4.1678 0.73696 -0.013822 -0.0096888 3.997 -1.9537 1.4788 3.1357 5.7663 -0.88911 1.2445 
M193 -3.0297 1.4074 -4.5436 -0.71013 -0.20476 2.5254 -0.88503 -2.0913 -1.1961 2.0549 1.8091 1.5734 2.9181 -0.12427 -5.1863 -1.3298 
M328 -1.5826 1.7155 -1.3375 1.9906 1.1387 0.00050492 0.74833 -2.2996 1.4524 -0.03534 1.1526 3.0826 2.5767 0.95635 1.8146 1.6795 
M369 -0.64838 0.75848 -2.9951 0.37125 -1.3462 0.27771 0.62626 0.77407 0.78308 0.93427 0.43472 0.58304 0.52014 2.1481 1.5295 -1.2087 
M209 1.8431 -0.69687 -3.5045 -0.0056249 -1.1417 0.22179 -0.15955 -3.8702 -3.0491 3.9649 1.1208 -0.18472 3.0786 1.4307 0.27872 0.26292 
M221 1.6942 2.8645 -0.2562 0.62481 0.72729 2.0554 -0.31965 -0.85986 -4.6739 2.7656 2.255 -2.2458 2.0122 2.8897 -0.0043839 -0.94086 
M377+M320+M377 -1.8046 -0.17209 -0.16796 1.2554 0.93477 2.8503 2.7433 -3.6791 0.97321 1.938 -0.49233 6.0486 6.3066 0.2026 1.9499 0.15354 
M252 -2.2125 1.5398 -2.4845 -1.5013 -1.1959 0.72218 1.1999 0.10209 -0.27743 -0.022841 -0.68607 -0.40402 1.4702 0.7207 0.46681 1.7027 
1(N8B) -4.3793 1.7158 -3.1768 -2.8866 3.2119 2.7901 2.516 -2.1349 1.4783 -1.9638 -1.2266 0.87854 4.7884 1.1136 3.4467 -0.73115 
M195+M038 1.903 0.68055 1.5698 -3.1331 0.62516 3.0341 3.666 -2.1111 0.398 1.1705 0.17083 2.8895 -0.37657 2.2527 1.1627 3.7087 
M315 2.7756 3.2431 0.10061 -0.88669 -2.5187 2.0306 0.84504 -3.4214 -1.4819 2.2298 3.5071 0.43808 0.38189 -1.1382 0.29452 2.7378 
M293 -0.86344 -0.18562 -1.3535 0.65833 3.6862 1.476 0.35201 -3.1038 1.2921 2.2963 1.0437 0.86819 0.84846 1.1092 -1.1131 0.62366 
1(N01@B) 1.6351 1.7452 -0.81469 0.76492 -1.7879 1.6326 6.2184 0.028605 0.80833 3.1919 1.3448 0.83132 -4.4871 3.3727 -2.0929 1.216 
M157+M131 -1.9105 1.6136 3.2566 -0.58242 1.8157 5.0421 1.3137 -1.1592 2.1874 3.7101 1.828 -0.45156 -0.32943 2.1894 0.97037 0.41701 
3(N34) -1.2608 1.7318 -1.8963 -1.024 -0.61278 0.13619 2.5102 -3.2104 -3.0673 -0.2126 -0.45824 1.3494 -1.5005 4.024 -1.9177 2.8575 
M006@G -2.4477 0.475 -5.1274 -0.60773 0.78222 5.0596 0.17091 -2.5686 0.1221 4.1229 -0.58904 0.99297 -0.34944 2.8166 -0.64082 0.86856 
M370+M388 -1.2188 0.4786 -2.2461 1.2511 0.47333 5.2865 2.4118 -2.1608 -0.027356 3.473 0.22855 0.97461 0.61972 4.308 -0.46258 -1.1507 
1(N39B@B) -0.085766 0.89994 -0.89668 -1.7796 -2.4069 0.28349 4.8099 -1.3151 2.7401 2.7528 4.1746 0.76353 0.8216 0.50156 -3.3193 0.23079 
M381 -0.44812 4.0452 1.9248 0.23303 0.17551 4.1602 -0.013467 -1.9567 0.063396 1.1297 1.5936 1.4845 0.43309 -0.73506 -0.93865 2.5316 
1(N08) 0.45158 2.7739 -1.3172 2.2248 2.3908 1.3964 -0.22259 -0.64328 -4.589 4.9339 3.1491 -0.015545 6.0927 0.4709 2.1057 1.8657 
M324 -4.3316 2.9155 2.9192 -2.5804 0.66079 2.3907 2.768 1.3599 -2.7112 1.4025 0.47515 2.3955 0.53522 1.202 0.18831 3.5177 
M036+1(N30C) -1.6125 2.4652 -1.7589 0.95107 0.17824 2.7102 1.6666 -3.6028 2.5298 1.7393 -1.4003 -0.82762 -0.5562 -2.1985 1.5319 0.87425 
M180 1.9996 0.48195 -0.85587 -0.70517 0.25568 5.155 5.2055 -2.2999 -1.9563 4.0393 -3.1319 1.3766 -0.62374 -3.9819 -1.6666 0.45953 
2(N1@B) -2.8614 1.1593 -0.060851 -0.93077 1.692 2.3844 5.7361 2.4069 -1.7288 3.3761 -2.1586 -0.10235 -1.309 1.9845 -4.4466 0.79156 
M277 -1.0629 2.8258 -5.8234 0.23707 -1.1309 1.6389 0.75323 1.3747 0.76194 0.36244 0.21673 -0.13141 1.0299 1.8326 -0.93096 1.289 
M362+UNK -4.644 2.1268 -5.0763 0.36727 -0.83132 1.6811 2.7422 -4.6358 0.17738 2.3578 -1.1917 0.47999 -1.8041 0.35991 4.1429 -0.34011 
M222 0.20499 0.84972 -2.1458 -2.561 3.3772 3.2231 3.2769 -1.9114 -1.293 0.0022655 0.098134 2.1501 1.3458 -2.1156 1.663 0.29681 
M217+M388 1.2982 1.9764 -1.867 0.27782 -0.54025 0.47416 0.78507 1.5102 -0.034443 2.0627 3.6017 0.7994 2.2187 2.8335 2.7326 -0.30226 
2(N51) -0.56328 2.081 -0.75765 -2.0264 0.1794 2.5927 6.2682 2.6838 -1.1894 1.1152 -3.8495 -1.5758 4.8868 0.75008 -0.68477 2.2377 
M218+M320 0.39042 3.4744 3.0754 -2.5386 0.091715 3.8216 2.5595 -4.4725 -4.3547 0.0046124 3.2747 2.2996 -0.76092 1.7316 1.8091 0.17623 
M144 -1.1119 2.3633 -2.7167 -5.0535 -1.0976 2.4252 1.8096 -4.7899 2.5339 -1.4202 1.7105 -3.3988 -1.2924 3.0609 2.2419 -0.19192 
M311 -2.0032 0.068193 2.2459 -1.0115 -1.8695 2.4309 1.6661 -4.0428 -1.1449 3.1484 1.3808 -0.31568 5.5204 1.1699 1.3971 -2.601 
M053 -0.59973 -0.18333 -1.084 0.68064 1.3475 2.8091 2.2032 0.26605 0.66044 5.3602 -1.4222 1.2137 -0.038376 4.5888 3.865 1.4898 
1(N48) -0.17293 0.45874 0.1404 0.20907 1.1179 -1.0065 3.1804 -2.7498 -3.3581 0.82971 -1.3159 0.98 1.5238 1.9116 -1.0929 0.13037 
M361 -0.14033 1.5609 -4.1412 -1.7082 -2.093 3.3132 -0.44922 -4.7232 -2.6844 0.50578 0.37082 2.6186 1.0704 4.212 -5.8083 1.2123 
M134 -3.5871 2.4034 1.7605 -3.0921 -1.4636 4.1956 2.6468 -3.4822 -2.1575 0.65281 0.90503 -1.5583 0.46605 1.9186 1.7242 -2.4035 
M377+M377 1.8008 -0.66402 -2.0841 -4.7327 1.5042 3.053 1.244 -0.8314 0.49637 2.7499 0.50431 0.6646 -1.3363 4.0816 3.6419 1.388 
M152 1.7437 1.3116 -3.8954 -0.70218 1.6532 2.2699 2.3714 0.82111 -1.4192 -0.015573 0.82043 1.2602 -0.080698 2.5723 -2.7511 -0.013071 
M061 -0.20349 1.7652 -4.429 1.1434 3.0611 -0.68131 3.4046 -0.2872 -2.5083 2.5939 5.1983 -0.51418 1.7146 2.1509 3.1562 2.4153 
M370+M072+M370 -1.7634 1.3165 -2.42 1.8349 -0.78032 4.4871 2.9613 -0.47497 0.45433 3.6748 1.1698 0.67107 -0.36295 4.1438 -0.4808 -0.58988 
M310 -3.2978 1.6065 -5.0732 3.0007 -2.2677 -0.57954 1.4154 2.1309 -1.1112 4.0439 1.8387 2.2469 3.5641 3.2935 3.8298 -2.013 
M175+M288 -1.9769 1.3839 0.16739 -3.8161 2.9028 4.1042 3.8007 -2.0654 -0.73266 -0.69375 0.49213 0.74603 -1.2372 -0.003277 1.8276 -3.1827 
M382 1.5005 4.0423 -0.95837 3.3243 0.35501 4.6518 2.5466 -1.3705 -3.2686 1.278 0.19023 2.114 -1.9677 1.7854 0.69014 0.50196 
M035 -0.83038 2.9983 -2.3541 -0.10646 -2.8497 2.0515 -0.18825 -0.38033 -0.34976 1.2532 2.1417 2.042 0.75653 0.17524 -3.6243 0.94354 
M312 -2.2035 2.7031 1.8718 -0.14433 -0.60558 2.2741 4.3703 0.31781 -3.4554 4.1127 1.6558 0.1684 0.046288 0.046871 -3.0683 3.5524 
5(N34) -3.9272 0.35024 0.15475 -3.3723 -1.2595 0.84347 0.83926 -1.9572 0.36007 1.7842 0.76276 -1.2738 2.8154 3.5119 -1.2299 1.081 
N(N01) -0.58109 0.33783 -1.8414 0.80696 -0.20619 0.69908 -0.21491 -0.58209 1.7476 1.9524 0.35256 1.0489 1.7362 0.27485 0.80487 0.010391 
M151 0.59448 1.6712 -4.4551 -1.1029 1.2202 1.0884 0.42535 -2.6169 -3.3844 -0.10493 1.0358 0.25785 3.0463 0.24308 -0.016465 0.60037 
1(N02) 0.93278 1.2964 -2.1916 -3.5656 -0.063557 4.995 3.7418 -0.83267 2.8946 1.5945 -0.55649 -3.2202 2.2831 1.3685 4.4615 -2.6983 
M036+1(N24) 2.098 3.6334 -0.32326 3.1902 1.3947 5.5986 1.1576 -3.2652 -1.1538 2.8827 -4.198 3.6771 -2.4027 3.4581 0.0015799 3.9401 
4(N1@B) 1.4006 -0.50457 -2.0507 -0.38568 -1.2674 1.928 4.9891 -2.5278 2.3258 5.9072 1.7201 1.6838 -3.5287 0.32775 -2.5098 1.9306 
M123 -4.0943 0.72635 -2.7811 -5.5664 -0.082099 2.3461 5.031 0.99696 -1.5117 -0.62557 -2.1641 0.27749 3.0437 2.6035 -0.699 -1.5429 
M375 -5.5008 1.1515 -3.0992 -0.16937 -2.382 0.83951 1.2848 1.1421 -0.59213 4.1863 2.8793 2.7345 4.0292 1.3176 1.2543 0.94702 
1(N) -5.6274 2.1591 -0.29708 -0.31381 1.3852 0.69389 2.5168 0.25236 -2.2366 2.4339 1.39 0.20816 2.9823 -0.35569 -1.1587 1.4088 
1(N30D@B) 4.3054 2.8806 -2.8614 1.8805 0.43797 2.9404 5.3834 -1.7327 2.8417 1.2964 -0.83003 0.43842 1.8718 -1.0518 0.82429 2.1999 
M305+M136 -2.5206 3.312 1.2554 -0.90074 -1.7521 5.0259 3.3255 -1.1749 1.8777 0.30519 -1.6213 -0.44716 1.3602 -0.29391 2.2422 -0.12201 
M058 1.4432 4.7622 1.6989 1.0332 -3.2536 4.2878 2.5645 -1.6459 2.0622 0.85904 1.5864 0.1509 0.33495 3.9244 5.4807 0.23586 
M327+M059 3.0746 0.67725 -3.9672 0.80411 2.7686 2.6459 3.2395 -2.858 1.8094 0.98565 1.0547 1.778 2.0014 -0.10317 0.77888 2.3675 
M288+1(N01) -0.25417 0.87437 0.72257 -1.0161 0.49912 1.4594 2.418 -1.2029 -0.55877 0.7173 2.5095 4.22 -1.5229 3.3653 -1.0759 -3.3637 
M026 1.7497 0.66007 -4.6197 -1.0414 1.1216 3.2326 4.3865 -2.1697 -0.4752 2.5348 -0.28644 -1.7187 -1.7096 -0.87429 3.363 -0.4065 
M064 -0.15049 0.085827 -2.6782 -0.26878 -1.2927 1.1525 0.64264 -3.9664 -4.3849 2.1359 0.23757 1.1758 2.1256 -0.17124 0.40163 -2.0547 
M370+M388+M370 -1.0017 2.0161 -3.2732 1.1968 -0.50629 4.9117 2.8601 0.37949 -1.7754 4.1705 0.90431 -2.5219 0.96083 2.8196 0.74667 -2.6235 
M115 1.2861 0.25229 -0.17855 -0.15707 -1.0061 2.9297 -0.76311 -2.9758 0.099334 3.3958 1.2206 -1.0747 3.8741 1.9521 -0.61533 -1.6805 
M214 3.2398 1.5056 -2.2679 -1.0595 2.6102 4.4935 0.72122 -2.9786 1.9964 -0.44558 -0.29985 -1.0079 3.7096 8.5531 -1.2662 1.4062 
M370+M046+M370 -1.7261 1.1437 -2.3455 2.1421 -0.075381 5.1356 2.3057 -1.317 0.17718 3.8395 0.78004 0.8829 0.54585 4.3737 -0.49814 -1.5326 
M461 1.7903 1.966 -1.9312 -0.31443 -0.0025181 0.88151 2.1292 2.9513 -0.60382 2.0187 2.1108 0.80391 2.0862 0.62553 1.6092 1.3472 
M175+M136 -1.3852 4.0847 2.8654 -0.27981 -1.4975 4.9168 2.5772 -1.1221 -0.02638 1.3966 1.3107 1.518 1.5755 -1.2919 -1.1674 -0.28711 
M226 -1.4612 2.2241 -4.5018 -1.4349 -0.54614 1.2748 0.59751 -3.0565 -0.45066 0.29867 3.923 4.4227 -1.2722 -0.0087073 0.5285 -0.39519 
M298 -1.9453 3.0615 -1.7079 1.5867 -0.1483 2.3726 0.28506 -0.78013 0.16396 0.49913 0.72485 -0.58754 0.97 0.29284 -0.74644 -0.37099 
M143 -1.2996 3.3218 1.6354 0.54169 -5.2963 2.1609 -1.0296 -3.9516 -1.6318 2.7257 0.68105 2.0268 -1.3929 3.7802 3.3352 1.3503 
M047 3.8183 0.73829 -1.225 1.5498 1.9058 4.4441 5.9635 1.3232 -1.8723 1.9173 -1.0726 1.5596 1.6948 2.9104 -2.4081 -2.6701 
6(N34) -3.2048 2.1603 -2.7266 1.125 -0.82232 0.12736 3.8606 -1.5215 0.92917 -0.6061 -1.7385 0.67325 1.1348 4.112 -3.214 1.2567 
M208 -3.3266 -1.2429 -2.7797 0.17207 -1.9669 0.11803 1.5005 -4.6781 -0.7183 3.6582 0.8672 1.5497 3.4077 0.06718 1.3678 -1.3622 
2(N39B@B) 0.20578 1.1037 2.2025 2.2543 0.47105 1.5706 4.1804 -0.63892 0.54284 3.6283 0.71754 -0.14291 1.4454 1.4042 0.31335 -0.7005 
2(N02) 3.0471 0.50319 -2.7578 -2.5928 2.5767 5.0233 2.64 -3.1259 0.1528 2.7126 1.6644 -1.3786 -1.5017 2.4789 5.5337 -3.4498 
3(N23) -1.3194 1.334 -4.4143 -2.7717 -1.0494 2.5231 2.3901 -2.4791 2.5734 -0.36303 -2.5805 0.45216 2.295 0.71084 5.6734 0.62701 
M218+M101 -1.0548 4.086 -1.119 0.20493 3.0799 0.69366 4.1214 2.197 -1.8193 0.41853 5.101 3.1744 -0.048256 3.6158 3.3613 4.3086 
M351 -1.4937 0.099432 -4.6704 -1.1238 0.98065 2.4802 3.1545 -4.3558 -0.75164 0.6365 -2.2331 2.365 4.0282 1.22 -4.2224 0.709 
M356 -1.1422 1.489 -1.5928 -2.533 -2.5885 2.7962 4.2209 2.7116 1.6874 2.2234 1.5429 -0.58409 4.4703 1.695 -5.6104 1.7801 
2(N30D) -0.47245 0.65429 -1.4728 0.55746 2.6451 0.82514 2.0924 -1.64 5.4545 4.1161 4.2017 -0.85491 4.5074 1.2533 1.228 3.5771 
7(N34) -3.4904 2.4938 -1.0836 -1.163 1.1322 -1.0617 2.911 -0.97786 -0.732 1.0186 1.4198 -1.2349 0.80919 2.9342 0.70544 4.1377 
M270 -3.6789 1.1877 -0.36833 1.7738 -1.2391 -0.06516 3.5251 -0.22467 -1.2016 2.3151 2.174 1.5409 1.3964 0.60175 0.73206 -3.8626 
M268 -3.604 2.1383 -2.1944 3.4146 -1.0146 0.15648 1.2457 -2.1138 -4.9651 5.1189 -0.10496 -1.2015 -0.19839 3.9346 1.9971 -1.2168 
M153+UNK -1.1212 0.65906 -0.26596 -2.5478 0.84418 4.9803 2.1309 1.3758 -1.142 4.4854 1.9688 1.5047 0.82213 0.89594 -3.2062 2.1633 
M290 -4.3267 2.3374 -3.6292 -2.516 -0.87639 1.0413 1.6363 1.3005 -0.8404 0.19278 1.8979 -0.84884 0.83748 4.5565 -0.5636 0.033012 
M393 -1.6925 -1.8597 0.007648 -3.3064 1.9538 1.5161 4.2565 0.0056195 -2.9064 4.2312 0.77299 1.134 -0.42515 0.40408 0.14905 -3.2145 
M037 -1.841 4.2139 -1.6923 -1.0521 -1.6951 3.2222 0.70885 -4.1432 -1.5021 -1.2224 1.2254 2.2 -2.342 0.3508 -1.591 1.3019 
2(N14@B) -0.4033 0.91781 -1.0891 1.2774 -2.3928 0.5745 1.8669 -0.83019 1.6089 3.5849 -1.0533 0.078774 0.3358 -0.16283 -0.18346 0.56715 
M176 -3.6785 2.9579 -0.074934 1.667 -2.1896 -0.21006 3.1494 1.0604 -0.69517 2.0753 3.0106 -0.64604 0.2556 1.2573 0.59625 0.69008 
5(N23) -1.7297 -1.9252 -2.3176 -5.9998 -3.8177 2.0054 2.3371 -2.8908 0.48895 2.7014 -0.80952 2.4243 -2.0779 4.9055 2.0775 -1.5118 
M351+UNK -1.8591 4.3179 0.048015 0.6128 -3.073 0.99586 4.1393 -0.33255 -0.044551 -0.07022 -2.1623 0.41894 -0.19131 5.4917 2.5629 3.0647 
M036+1(N39C) 0.053012 4.1065 2.7041 1.6107 0.031909 3.661 3.0226 -0.99412 1.1936 2.0428 1.1959 -2.1331 2.4389 0.85947 2.4245 0.37335 
M294 -2.4122 4.5165 -4.0564 1.3926 -0.90275 2.7874 2.6458 -2.8554 3.2903 3.4598 1.8019 -1.0775 3.2 -3.0397 -0.91693 0.99791 
M188 -4.9841 1.6532 -1.6214 -0.66028 -1.1326 2.6922 3.7404 -0.95829 -0.28958 0.87218 -0.87352 -0.29119 0.054999 4.5699 -0.17533 -1.0585 
M076 0.82015 -1.3664 -2.5741 2.5849 2.0924 0.44795 0.8386 -3.29 2.7472 4.2761 3.0009 2.3586 3.1419 1.1659 0.51044 -0.13152 
1(N39B@C) -1.3315 3.5243 0.62752 0.00462 -1.2609 2.3242 1.8239 -3.4435 -6.7429 0.048866 0.68102 1.7094 7.5586 1.3614 -0.83056 -0.082297 
M052 -2.8844 3.0946 -5.6196 1.6751 0.94156 3.371 -0.63299 -4.5514 -0.38616 4.0272 2.6545 -3.2517 0.0029437 3.587 1.2811 -0.92292 
M342 -2.4531 0.18275 0.28962 0.6534 -2.6801 0.6837 0.27597 -4.9166 1.1891 3.2191 1.1677 0.20083 2.8335 2.2735 0.55719 -1.86 
M175+M175 -1.0766 -0.027865 -0.032611 -2.1386 4.2226 4.3314 4.4179 -2.228 1.1828 0.55569 -0.10377 0.90149 1.1201 3.567 -0.95641 0.65006 
M224 2.2622 -2.3123 -1.2051 -1.5932 1.41 2.6756 5.5396 -1.614 -1.0142 4.2017 0.77337 3.1985 1.1744 -1.6637 0.71666 -1.6597 
M126 -2.9071 4.3583 0.127 0.47613 0.30672 5.4247 -0.84112 -3.515 1.6573 2.9401 2.668 -0.45339 -1.8146 1.4309 0.80096 2.6486 
M218+UNK 3.0932 -1.2964 -2.9604 -2.8408 0.67487 2.2332 4.2108 -1.6617 -0.71012 0.60625 -0.37917 -0.48089 0.029357 5.9598 -0.13002 -1.9796 
M244 -5.7223 1.7184 -0.19142 -1.903 0.30394 2.7444 5.9445 -0.39531 -1.8192 1.8332 -1.8275 -0.18401 1.6824 0.38952 0.11196 -1.5168 
M150 -1.2609 2.9606 0.12418 -1.7774 2.4893 4.3837 1.5694 -0.509 1.4876 0.38733 2.7625 2.7593 -1.3644 0.53447 -1.0531 -0.32447 
M305+M320 -0.74296 1.4696 -2.4347 -1.0406 3.1327 1.9991 3.2145 -1.8373 0.7716 -0.39437 3.2767 4.9202 -2.1224 2.5474 -0.74128 2.4996 
M175+M153 -1.968 0.67736 -2.1552 0.77666 -0.17686 0.41222 1.5728 -2.6746 -1.3988 2.8366 0.44705 -0.92749 0.70757 0.97321 0.1166 -3.7948 
M007 -0.049916 0.077955 -2.5088 -3.7441 -1.3424 2.0567 1.5714 -0.82444 -3.9933 3.101 1.0021 0.29153 9.3895 2.1892 -0.55479 0.63702 
M305+M009 0.47982 2.9283 -2.1748 1.5419 1.0333 0.99347 1.0266 -2.264 -2.939 -0.81153 -0.015971 0.94691 1.3628 0.34158 0.65447 -1.5187 
M016 -1.2667 0.4515 -5.0957 -0.96759 0.87015 1.5014 3.2142 -4.2666 -2.1242 2.1973 1.7543 0.72198 -0.33025 -2.4265 1.3631 -2.0026 
M271 1.8893 1.8521 -5.9183 2.626 -0.49402 1.9651 0.67772 -0.7687 -0.65204 4.3056 2.5295 -0.17898 -1.1326 1.6572 1.2932 -2.178 
M385 -1.3701 1.7396 -1.0381 2.1927 0.85339 3.4995 1.9191 -2.1742 -0.91678 3.6373 -2.2848 1.6013 1.9926 2.5019 1.2236 3.6771 
M228+M320 -1.5703 0.74906 0.68031 -4.9474 2.3258 3.9505 1.4422 0.53233 -0.94834 2.7367 0.502 4.5841 -2.2977 1.0447 2.6824 2.3831 
M228+M101 0.30614 3.3337 0.4034 0.76072 3.0966 1.3045 2.5386 1.0279 -0.63868 1.3492 4.9767 2.7805 1.8564 3.1295 3.3411 4.0132 
M014 0.90417 4.3134 -1.115 2.0415 -2.7116 -0.8714 6.3086 -0.44333 -0.21529 -0.32362 2.342 -0.42375 0.48562 2.0233 2.2729 -0.032161 
M359 -0.44057 -0.031034 -3.7545 2.5633 2.7687 3.8047 -0.84195 -2.463 -0.22175 6.2849 -2.0484 3.2911 -0.29424 0.24594 1.9037 0.25558 
M141 0.079934 4.7953 1.3224 1.8383 -2.3438 3.9109 1.0793 -1.9237 0.56948 0.042821 0.77578 5.6243 2.492 0.047315 -0.057502 2.0624 
M157+M288 -2.2714 3.2405 -2.0989 3.0121 -2.71 1.9635 2.2733 -1.098 0.64604 4.025 4.2384 3.39 -0.30623 -1.2201 0.52215 1.3064 
M368 -2.3054 1.6443 -2.0242 2.8023 0.81016 0.11785 2.0061 -2.748 -2.0986 2.4611 2.3749 2.8057 -1.6414 1.2491 0.24515 0.86008 
M153+M106 1.7405 1.8013 -2.5815 -2.0316 3.3859 0.85005 2.4533 -1.3148 0.47603 -0.5604 3.1317 0.88079 0.72675 2.9699 1.2487 4.2761 
M157+UNK 1.1996 -1.057 0.21048 -1.861 0.27305 5.1697 3.2223 0.11889 -0.39748 8.1647 0.092116 -0.70069 0.2624 -0.33623 -1.5042 -1.3005 
N(N@B) 1.0609 3.311 -2.5719 0.91528 -1.4043 3.5241 1.1647 -2.4456 0.92032 1.8824 1.5762 -0.91323 -1.6765 -0.23906 -1.9006 1.836 
M074 -1.3506 -1.8346 -2.794 -0.77773 -1.2605 1.3485 0.7249 -3.1864 0.35871 8.2338 4.4878 -1.2926 4.9589 2.7093 -3.193 0.87628 
M358 1.1115 0.54762 -0.92715 0.032432 1.1179 4.6463 3.1209 -1.6616 -1.7894 5.8044 0.85982 -2.5621 1.0399 -0.81852 3.0911 -1.9359 
4(N39B@B) 1.7278 -0.81782 -0.35824 1.3305 2.6542 2.9574 5.7736 -1.5798 1.5231 8.8218 1.5249 -1.1471 -3.499 1.9793 -0.67919 0.094499 
M054+M365+M054 -3.473 -0.11818 -2.3818 0.65581 0.99599 3.7859 4.5668 -0.81995 -1.8823 5.1099 -2.0657 0.80589 -1.037 1.2006 -1.0408 -6.5498 
2(N48) -0.3175 0.45756 -1.4587 -1.1112 2.1611 -0.99959 2.61 -4.3095 -3.9817 -0.25462 0.91466 1.2448 1.8039 2.6878 -0.17524 -0.28919 
M351+3(N01) 0.67685 2.5578 -1.2774 -0.39428 0.24177 2.3636 2.2503 -0.89362 -0.53029 0.71942 0.40378 1.3677 1.5743 -0.23274 -4.5016 3.429 
6(N23) -1.4648 -0.18517 -4.2414 0.028035 -1.6548 0.20623 1.9471 -0.20466 3.1829 2.8947 0.69249 -0.52959 3.866 3.1959 -2.514 0.73376 
M317+UNK -3.9856 3.8365 -2.8329 -0.68853 2.4286 2.9197 1.5987 -3.9841 1.4025 -1.7186 2.8918 2.8317 -0.99381 1.7826 -1.0969 2.6537 
M362+M059 -2.7527 1.9967 -1.7377 0.10268 -1.0064 1.1896 2.8005 0.3563 -0.7334 6.9348 -0.8198 -2.7706 4.5916 -0.76012 -0.74983 3.1231 
M449 -4.1458 2.5974 -2.5539 2.8887 -2.5877 -0.39086 2.1093 -2.9546 -1.0689 3.0567 1.7838 1.7685 -0.098249 3.4014 3.3811 1.4147 
M034 -2.0534 3.5805 -3.5089 2.2341 1.134 3.0245 0.92059 -3.4788 2.2943 0.25424 1.2106 4.5865 0.55198 -0.9309 2.5752 1.0756 
M086 0.98944 3.1653 0.87154 3.0853 -0.77736 3.8191 0.31731 -2.1216 3.2368 1.751 0.13503 5.5832 1.0912 2.6632 1.672 2.8889 
M039+1(N30D) -0.01312 1.3061 -1.675 -2.0834 -2.9377 2.8206 5.6748 -0.6408 0.88153 3.8808 0.82535 -0.39766 5.7648 -2.5546 5.7054 1.1304 
1(N34@B) -2.3124 2.0821 -0.96017 0.51928 -0.7215 0.74757 3.689 0.95382 1.3117 4.9605 -0.922 -2.0804 -0.88262 2.4774 -1.8928 2.0799 
3(N39B@B) 0.3826 0.79234 2.7431 1.8887 3.2128 2.5528 3.046 -3.6073 2.9024 5.4282 0.86261 0.3559 -1.3935 3.0704 0.068125 1.3744 
M447 -0.43747 1.326 -4.404 -0.014457 -0.77097 3.5581 1.5062 -1.4292 3.48 1.6123 0.20122 2.1825 4.4782 -0.90864 4.4986 1.7086 
M063 -0.2604 3.237 -1.4547 2.1587 -1.7566 -0.2753 3.3126 -2.6792 0.91931 3.3115 4.4673 0.93897 1.7952 0.54445 4.5675 4.6039 
4(N23) 0.078467 1.9243 -3.7383 0.1527 -1.6587 0.1979 2.8192 -0.39066 -2.0586 1.5202 -0.74845 -0.73117 -1.6844 6.3177 2.7584 0.65021 
M343 0.59669 3.5868 -0.83768 -3.4705 -2.0892 4.5849 2.7779 -2.4848 2.5708 0.50252 0.78557 -2.3638 -2.1652 1.3687 3.6867 2.0752 
M289 1.9981 0.87145 0.85224 0.060548 -1.842 2.6421 4.9809 -1.0419 -1.649 1.6201 0.3657 1.152 1.2541 5.1073 -2.3119 2.5855 
5(N1@B) -6.8759 3.5621 -0.76719 0.90334 -2.6535 0.18129 4.3593 -0.93165 1.2943 3.005 1.8532 -0.88776 -1.9045 3.576 -2.681 1.7051 
M011 0.35319 1.0245 -2.2896 -2.3947 -1.8172 1.1839 1.006 -4.0852 -3.703 0.79717 1.5525 -1.2846 4.3072 1.9034 -0.95692 -0.38278 
M098 -1.3191 2.1771 -2.2154 1.3823 1.3959 -0.57972 5.8505 0.53357 1.2253 0.29704 1.4607 1.8794 2.7192 3.9859 -2.3968 4.1649 
3(N1@B) 1.486 -1.6569 -1.662 1.0748 -4.2853 1.3997 8.832 -1.8013 -0.041346 5.1514 -0.21811 2.37 -0.27242 2.5777 -0.79519 -3.5711 
1(N54) -0.99768 1.2752 -0.64191 0.92118 -1.3016 3.4318 2.4662 -0.04629 2.3219 4.2892 -3.8355 0.3572 -0.10846 3.8606 -0.60752 1.7459 
M036+M343 1.8058 2.0768 -1.6295 1.7383 0.7783 1.4313 3.2746 -1.0985 1.0197 -0.1462 -0.54327 0.52932 1.8931 1.0321 -0.88802 0.49425 
M001+M379 -5.6936 3.5574 0.63532 0.42349 -1.2536 2.6093 4.4678 -1.3145 1.1011 6.1867 -0.42896 -3.4478 4.7684 -0.63929 -0.25615 2.2204 
M217+M124 -1.1988 3.0015 -3.0303 -2.1773 -3.7045 4.7541 -0.87712 0.20581 1.8127 2.5747 2.1049 0.45274 -1.2104 3.3961 1.4725 -0.43612 
M177 -0.31113 0.53272 -1.6542 -0.21117 0.88617 1.4425 6.639 -1.0805 -1.2582 0.75016 3.6061 4.0056 1.5397 2.0905 0.53155 0.98501 
2(N51G) 0.82358 -1.114 -2.5914 -1.6107 -1.7761 0.9495 0.027932 -0.82219 1.6869 3.2344 -0.47339 2.2063 1.6392 5.3118 -0.41199 -0.70482 
M284 -3.1532 -1.0743 -1.327 0.14232 5.6349 2.3954 1.937 -3.6294 -0.074914 2.8804 -0.8557 2.9919 2.3799 3.8465 -1.2599 -0.54146 
M283 -4.3591 0.81537 -3.1211 -2.9292 1.5194 3.3504 3.267 -1.7939 -1.6415 3.5832 0.35477 -2.089 3.1324 2.2763 1.461 1.2808 
M062 -0.35761 0.058647 -0.68351 2.3346 0.09367 1.1486 2.8556 -1.6389 -0.25133 2.948 0.26779 -0.43422 2.3398 3.4201 -0.96816 -0.83105 
M107 -0.54239 3.6136 -1.7213 3.3479 -3.7233 3.955 0.73956 -2.5294 0.43622 3.5642 -0.76744 2.4068 -2.9105 1.6548 1.5192 -0.17798 
M276 -3.5303 1.0189 -1.0264 0.068638 -0.50309 3.0435 3.4097 0.31508 -1.3305 3.7704 0.60601 -1.4026 3.7692 3.6759 0.38737 -0.60213 
M012 0.078435 2.4981 -3.3891 1.2077 1.8464 4.6219 4.7389 0.36959 -3.6255 2.4598 -2.1011 0.62811 2.1688 -1.5009 0.98969 -0.17132 
M030 -1.0925 0.92484 -0.1811 -0.18957 -0.12246 2.5837 6.0295 -2.0163 -2.7181 2.6663 0.96764 0.92055 -2.0292 0.19921 1.529 0.30712 
M104 3.6192 -0.42278 -4.4975 1.883 3.2635 2.0556 3.8758 -0.22863 1.9115 2.7033 0.98386 6.4798 2.9854 1.6882 1.5488 1.8677 
M175+M131 -0.65206 0.49284 -2.6461 -1.292 -2.8551 2.0828 2.6184 -1.7463 -3.3453 1.9735 0.64545 0.92856 1.3021 1.4744 2.382 -1.9726 
M357 2.0436 2.3778 -0.8539 -0.77208 -0.84469 3.3954 2.5639 1.8772 -4.3878 3.6463 2.8474 -0.74914 0.8008 5.0252 1.6517 -1.1513 
M482 -3.1033 2.2954 -0.33942 -2.0628 -1.8332 2.6119 4.4495 -2.7006 -2.889 1.5272 -0.80791 -0.18556 -0.28675 0.70071 1.5882 2.0599 
1(N46) -2.7514 2.082 -0.074107 -0.39145 -0.2691 -1.7112 3.4493 -2.9133 -1.5832 1.1128 0.95263 -0.32297 -0.48859 2.002 -0.27709 1.8035 
M129 -2.8705 1.9033 0.039315 -2.383 -1.0322 4.2573 0.80942 0.61672 0.25791 0.38991 -0.4426 1.9153 1.7883 1.2406 -0.30988 1.0882 
3(N14@B) 0.58827 1.1708 0.22432 2.2163 1.1775 1.9915 2.8475 -3.0744 -0.35793 5.765 -1.3224 -3.0834 -1.4744 5.3462 -0.30593 -0.47888 
M308 -2.4227 0.62713 -1.7061 -2.4526 -0.72189 2.7556 2.8121 -0.68149 -0.8467 2.2713 4.0472 0.54551 0.1362 2.8752 -0.23955 -0.79859 
M201+M377+M377 -1.1484 0.59929 -1.1734 0.70959 0.010813 2.54 1.7372 -1.0311 -0.0098505 1.9114 -0.069795 0.29308 0.56061 1.7189 -0.020291 0.24678 
M175+UNK -1.306 -0.10634 -2.1197 -1.3409 -3.4147 1.4329 0.7989 -2.1704 1.4699 5.7114 1.6012 -2.0138 3.0328 -1.0426 0.50064 -0.029549 
7(N23) -0.74998 -2.4853 -2.5316 -1.1513 -1.7215 2.4157 1.9909 0.13476 1.6065 8.4805 -2.014 2.6543 -2.0352 4.4734 1.5547 -0.21775 
M068 5.4146 1.492 -3.019 -1.0101 0.36596 4.052 2.632 -0.86714 0.13671 3.2195 0.60371 -0.96933 -0.95865 5.977 -1.2105 3.5258 
M025 1.755 1.536 -0.13169 -0.0064826 -1.8104 2.3411 5.843 -0.2016 -1.6653 1.1565 2.5001 2.0815 5.1786 3.1031 4.3493 -0.0020133 
M260+M266 0.65905 3.5753 -1.5802 1.1633 -1.9772 6.0132 3.6472 1.5574 0.70884 2.6782 1.3379 -0.99933 1.8443 1.5339 0.19942 -1.0129 
M175+M286 -1.7078 0.24465 -2.3475 -1.5402 0.16794 3.5189 3.3969 -2.5968 -3.6128 2.4884 -2.2307 -0.56928 -0.286 2.9978 1.349 -2.8085 
M362+M099 -1.616 0.50521 -2.6349 -0.031542 0.82762 3.9384 2.9927 -4.1596 -0.69067 1.4851 -1.0457 1.9092 1.5178 2.4076 1.3873 0.44426 
M195+UNK -2.0535 -0.4325 -3.4691 -3.8079 -0.068308 2.6946 -0.11657 -0.49778 3.5698 4.716 0.97466 1.1946 1.8886 1.8931 0.80304 2.9118 
M175+M038 -2.3552 1.5475 -0.35734 -2.3941 -1.1412 5.1711 -0.80146 -2.4622 -3.1367 5.0489 2.007 0.68013 -0.18393 2.9826 -0.77845 0.1118 
M036+1(N30C)+1(N39C) 1.8223 1.3204 -2.1193 0.16919 -1.284 2.0507 5.6034 0.060524 -1.4749 3.3978 -2.5755 0.16349 -1.0307 3.065 1.4881 1.3168 
M370+UNK+M370 -0.57497 0.94978 -0.83222 1.8671 0.20287 3.566 1.7564 -0.66486 -0.042945 2.7075 -0.29166 0.79316 0.63017 3.1557 0.35881 0.53312 
M175+M387 -3.7296 4.0955 -3.3191 -0.42857 0.28537 0.83163 4.1697 -0.71797 -2.0661 1.8219 5.0623 0.078627 -3.8131 3.2835 -3.5777 0.97297 
M327+M365 0.11884 4.6709 -2.3597 1.5418 -2.2748 1.6983 5.3288 -0.14432 -2.436 0.43993 -3.1888 0.0063609 0.89412 2.6091 -0.85649 3.6611 
M362+M244 -4.7927 1.3238 -3.7076 -3.351 -0.89243 3.6958 2.4095 -3.5828 -2.1825 1.6819 -0.30553 0.20302 -1.0871 1.1983 0.53174 -0.26989 
M362+M026 -2.7207 1.0353 -0.58861 0.38821 -0.13879 2.5151 3.9022 0.5535 -1.2384 3.7184 -0.40451 -1.5216 3.3733 3.0427 0.93861 0.55094 
M348+M004 3.053 1.7239 -2.3594 -1.6725 1.525 3.2043 2.7768 -4.8029 -0.073321 0.6855 0.92557 4.9991 4.4124 -0.13574 0.37874 5.6432 
M351+M342 -2.5249 1.554 -4.2066 -2.6569 0.14027 3.3732 4.3263 -0.5687 -0.26691 -0.25916 -1.8708 2.1035 -0.8048 1.987 -0.89956 1.7078 
M157+M153 -1.764 4.3091 -0.69928 1.1656 -3.7781 0.10859 4.3072 0.67385 1.1879 2.086 3.9911 -2.7224 -0.16196 4.0586 2.3895 -1.871 
M370+UNK -1.4596 0.74816 -1.8079 1.1774 -0.25672 3.8146 1.8796 -1.0535 0.18635 2.7936 1.0322 0.90755 0.40853 3.1595 -0.51206 -1.1774 
M362+M383 -1.2156 1.6567 -3.1181 1.2547 -2.0638 2.1839 2.8803 -0.95971 -1.2614 4.051 -0.13453 1.3252 -0.83902 1.4838 -0.29193 3.2595 
M264+1(N24) -1.6676 1.3371 -3.4984 4.0809 -3.4615 1.5479 1.4586 -2.6895 2.4173 2.3238 0.19792 3.3441 3.2826 5.6534 -1.756 -3.4647 
M362+M158 -3.1222 0.82926 -1.2119 -0.83202 -1.4581 1.5832 4.7856 0.74557 -0.48818 3.5325 0.85486 -1.2878 2.0613 2.2598 0.37861 1.2644 
M157+M381 -0.816 1.9084 0.077533 0.71536 -0.053028 3.2125 1.9997 -1.5043 0.13704 1.5297 1.2886 -0.22201 0.58646 3.4395 -1.8543 1.3531 
M157+M367 -1.835 2.2885 -3.1698 0.24096 -2.5751 1.4766 4.0444 0.85663 -1.747 3.4019 0.98984 -0.11674 -0.60874 1.7805 0.211 2.6373 
M157+M111 4.0226 2.3595 -2.9827 0.8816 1.3886 3.2635 2.0679 -0.95107 -2.3862 1.6813 0.44027 1.0198 -0.006419 1.395 2.9847 1.451 
M054+M393+M054 -0.8739 0.53542 -0.90026 0.47799 -0.1077 1.8957 1.4341 -0.66575 -0.071721 1.4563 0.060724 0.15122 0.51514 1.3242 0.045043 0.32852 
M260+UNK 1.434 1.2923 -3.0688 0.033278 1.5296 4.3435 2.83 -0.53676 2.1185 0.44508 -0.097512 2.3101 0.86585 1.6311 -0.68736 0.49838 
M305+M038 -0.66148 2.3457 -0.16725 1.5444 -2.9292 0.93985 1.4776 -2.0838 -0.50362 4.8447 0.40889 0.092183 3.3172 0.36428 3.5204 2.357 
M348+M288 -2.0655 1.1571 -2.1573 0.34935 -1.1895 2.2042 2.5747 0.26728 -0.45174 2.2915 1.1087 0.45854 -0.35312 2.1928 -0.18159 0.19294 
M305+M209 -0.76636 0.57443 -0.96927 0.51451 -0.028589 1.9488 1.445 -0.74676 -0.013118 1.4287 0.085792 0.18179 0.39585 1.2844 -0.0039072 0.13017 
M278+1(N24) -0.6396 0.29235 -2.1061 -0.91036 1.6728 3.8392 2.3404 -3.3198 -2.2114 1.2845 -1.5537 1.0471 1.3463 2.7901 0.25099 0.2884 
M153+M205 0.6873 1.0212 -4.5974 0.85304 0.76613 3.8522 0.81878 -3.0358 1.8404 3.7738 1.2092 -0.55856 -1.1042 1.9615 -0.19051 -1.5805 
M153+M377+M153 -2.0956 1.3342 -0.30928 -2.9036 -1.4893 2.9468 3.1895 -4.1225 2.2662 -0.11205 -0.35957 2.4805 2.4597 2.3932 -0.21233 1.7463 
M362+M317 -2.7706 1.0741 -3.5311 -2.3632 -1.0926 2.8064 2.4066 -1.2976 2.2301 0.25667 0.87865 1.766 1.0107 2.7071 -2.1525 1.0804 
M029+1(N08A) 0.98839 1.4966 -1.1052 3.2617 0.92221 2.0768 3.2273 -4.2454 3.6174 -0.14845 2.7077 5.6081 3.4939 4.4755 0.52666 -1.7388 
M305+M365 -2.4891 1.7426 -1.2099 0.099473 -2.471 1.1082 4.1095 -0.30951 2.1026 2.7743 2.8127 -0.91451 -1.1166 4.6122 0.39194 1.9469 
M096+M029 0.59254 3.5804 -1.1911 -1.6115 -2.7159 4.1826 3.0313 0.41008 -2.0285 -0.030981 1.8582 1.1839 2.1985 4.8428 -2.1914 -0.19324 
M057+UNK 2.5504 2.6019 -2.0331 -0.58233 -1.2103 3.5604 0.68381 0.154 -0.42595 4.0888 1.9034 -0.19503 0.39419 -0.13178 1.1167 0.52489 
M175+M388 -1.3615 0.85467 -1.3672 0.55166 -1.1325 2.6262 2.7998 0.097617 0.30028 2.5961 0.53894 0.59988 -0.49372 2.2537 0.038898 1.0858 
M175+M203 -0.98506 -0.43859 0.8314 -2.256 -1.8833 3.1047 5.4558 -1.7324 -3.7536 2.7507 -2.8549 2.5719 3.5225 0.21211 0.54062 -1.5303 
M260+1(N30C) -1.4236 1.2585 -1.917 1.2293 0.061739 3.5414 1.3665 -0.75927 -0.55228 2.2881 0.75884 0.7183 0.68112 2.7616 -0.30339 -1.3156 
M201 -0.11367 0.13305 -1.7049 -1.8427 -0.39477 2.7606 0.83627 -2.4429 1.4076 2.508 2.1828 2.1904 -0.40403 3.6949 2.55 -1.8469 
M218+M218 -2.4673 0.64829 -0.80353 -0.25112 -0.32166 1.5563 3.1758 0.034041 -0.81528 3.1163 -0.13449 -1.4885 2.5118 2.217 0.72157 0.626 
M325+M342 -0.76607 0.53558 -0.95253 0.51118 -0.035294 1.7955 1.3677 -0.76163 -0.14881 1.4866 0.13516 0.13598 0.4433 1.3362 0.043767 0.2966 
M347+1(N14) -0.22582 3.9657 -1.0905 -1.755 -1.0643 4.9876 1.5736 -1.8319 -2.2344 4.9952 4.8223 0.044435 -0.42361 -0.62705 3.7324 2.7043 
M157+M136 -0.82116 0.5387 -0.95678 0.4861 -0.032711 1.8886 1.4304 -0.71476 -0.11114 1.4922 0.062369 0.1901 0.51153 1.3416 0.082042 0.22638 
M218+M099 -2.3284 0.79531 -0.87641 -1.5299 1.5231 0.13645 0.4633 0.34875 0.079887 2.2572 4.0984 2.6517 2.4712 2.1315 1.649 -0.23722 
M297+M296 -0.29327 0.66021 -1.8415 -3.0176 -2.0577 2.9072 -0.33531 2.0486 -1.0393 4.5864 -0.1594 2.4023 -0.69491 3.0344 -1.6557 2.3125 
M305+M324 -2.0223 4.3845 0.27902 2.6205 -0.7577 4.7275 0.8244 -2.2424 -0.32366 3.9134 -0.079835 0.64504 -0.96292 0.22083 3.366 -0.90161 
M304+M342 0.7816 1.8186 -5.1505 0.39639 0.22982 4.046 0.40471 -1.3097 0.99596 2.1694 -2.0925 -0.28613 0.40332 2.1866 2.296 1.0547 
M036+1(N39B) 1.4384 1.3093 -0.043633 2.6484 -0.45814 1.3753 3.2143 -2.5293 0.36818 4.2313 -0.064846 0.38972 3.1536 2.1593 -2.9828 0.61599 
M036+1(N24)+M343 0.40252 1.9179 -3.082 2.3771 1.448 2.9667 3.5112 -0.92507 0.097736 0.51982 -2.338 2.5619 -1.6549 3.1411 -0.0081051 -0.13871 
M175+M381 0.18104 2.012 -0.24609 2.9236 -0.84837 0.89951 3.3393 -2.937 2.6842 -0.31241 0.15364 3.0379 1.984 6.3798 -1.4904 -0.63746 
M305+M288 -1.0193 0.72671 0.63196 -2.9512 -2.1992 3.8415 1.6125 -3.3582 2.0187 1.2512 0.46927 0.85968 2.6573 2.5942 1.9347 1.4088 
M305+M111 -1.5131 2.9198 -0.66677 0.85965 -0.84498 4.3839 2.2223 -2.3641 0.66523 1.4335 -1.3901 1.4069 -0.45102 -1.1582 1.5144 0.67659 
M362+M384 -3.8785 2.2337 -4.0417 -1.7719 -0.03365 2.602 0.94757 0.42806 -0.11741 4.8805 -0.79601 -0.45902 1.8528 1.5703 2.2092 4.7878 
M325+UNK -4.6005 2.7828 -1.081 -0.87554 1.2612 2.7837 2.6578 0.31234 -1.5076 2.109 2.3644 2.0626 -1.94 -0.16222 0.55895 1.6308 
M362+M312 -0.56507 0.3881 -2.0101 -0.76607 1.6617 3.9728 2.3704 -3.4324 -2.1353 1.3247 -1.5638 1.111 1.4579 2.8527 0.27042 0.47237 
M297+UNK -2.0466 1.3734 -0.29082 -1.7444 -0.092115 3.8478 2.0673 -0.21339 0.014434 2.5484 3.0125 0.19713 -0.62089 1.9491 0.1895 0.48773 
M362+M123 -0.58576 0.64501 -2.3045 0.69878 0.55265 3.3993 1.7237 -3.2452 -1.1123 2.2838 -1.8557 2.4158 0.078866 1.7093 -0.6165 2.1734 
M327+M367 -1.04 0.93458 -1.4498 0.7226 -0.075781 2.6967 0.95407 -0.60093 -0.31711 1.6879 0.60711 0.64472 0.5465 2.0514 -0.13548 -0.79233 
M157+M029 -1.522 0.14895 -0.43036 -1.2881 -1.3723 1.4176 3.6389 -1.4526 -0.40142 1.5956 0.85368 1.6208 -0.5848 1.4843 -0.54302 1.3352 
M327+M348 -0.74397 2.4733 0.32545 -1.3535 -2.5858 1.181 4.5738 -1.602 -1.4681 2.0121 -1.3689 -3.1669 2.4439 4.6979 2.508 1.9476 
M054+M384+M054 -4.9905 2.6065 -1.0246 -0.4284 0.50029 1.7662 3.5238 -0.1461 -0.41085 1.2499 -1.2549 -2.3298 2.1785 5.7758 0.2112 -0.50709 
M362+M367 -2.1682 2.1365 -2.2928 0.14654 1.4986 2.1592 3.0633 0.14431 -1.3804 1.1847 -2.4338 2.2377 -0.4924 1.4924 1.1864 0.19504 
M278+M124 -1.0368 1.4714 -1.5627 0.85016 0.84888 1.1555 3.0079 -1.9911 0.32571 1.471 1.0925 -0.42861 1.5227 0.34621 -1.6378 -0.75143 
M327+M320 -0.55197 0.41072 -0.66228 0.33792 -0.10978 1.1615 0.9888 -0.55477 -0.052745 1.0841 0.11388 0.23012 0.4403 0.82775 0.033476 0.21453 
M218+M388 0.41381 0.67218 -2.0171 -1.1238 -1.6734 3.4361 1.1834 -1.6811 -0.56026 2.9444 0.20109 3.1353 -0.29187 0.70143 0.66139 2.8043 
UNK+UNK -0.6759 0.46492 -0.62391 0.32467 -0.069859 1.1713 1.0159 -0.54478 -0.11916 1.0014 0.077344 0.18958 0.41259 0.93199 0.098742 0.25501 
M377+M377+M377 -0.6023 0.50895 -0.78333 0.33073 -0.055637 1.377 1.1263 -0.6068 -0.07962 1.0559 0.020069 0.17938 0.37102 0.89027 0.088837 0.19135 
M157+M377+M377 3.6885 3.2294 -3.1665 0.094977 0.097295 3.7398 4.6466 2.531 -0.92822 1.4238 0.47709 -0.47931 2.4868 1.0932 1.7644 -1.0025 
M387+M340+M387 -0.64977 0.35723 -0.75107 0.27944 0.019792 1.2333 0.98145 -0.49913 -0.047977 0.97911 0.069698 0.22363 0.36026 0.90184 0.054393 0.20497 
M305+M075 -0.56964 0.33287 -0.61227 0.32201 -0.28537 1.8607 1.4159 -0.81215 0.42892 1.5135 0.2123 0.34498 0.39767 1.2976 0.090974 0.36963 
M362+M365 -2.5991 1.389 -4.5175 2.0647 -0.5425 2.4391 0.16901 -1.7503 -1.5266 5.2268 0.48263 2.0108 -1.1153 -0.47013 0.34518 -2.8583 
M387+M387 -0.53517 0.44789 -0.65905 0.28406 -0.074362 1.22 1.0861 -0.57337 -0.084935 1.0027 0.021973 0.044069 0.32133 0.88267 0.07407 0.17959 
M157+M066 -0.52882 0.43664 -0.68331 0.25839 -0.0028842 1.2817 1.0517 -0.44951 -0.10555 1.0551 0.089827 0.17165 0.38265 0.90548 0.066565 0.22417 
M057+M291 -0.62487 3.3555 -1.5359 -2.0724 -3.2367 3.9891 2.2685 -5.1445 -2.1322 -1.3942 -1.0206 3.2939 -1.9404 4.632 2.8774 0.23903 
M362+M247 -0.56472 0.35252 -0.71358 0.25106 -0.28644 1.7755 1.3545 -0.68377 0.28301 1.3258 0.27766 0.38104 0.36307 1.3135 0.127 0.3367 
M106+UNK -1.2339 2.6591 0.20034 0.30072 -0.10644 1.2631 0.41014 -2.6217 -0.8305 3.7743 0.18806 -0.46313 1.2894 -0.0049097 2.0546 -0.89371 
M127+M127 -0.12127 4.0003 1.2399 -1.4968 -0.75412 4.756 -0.314 -1.3156 -1.4136 0.22955 0.059819 2.0774 0.15305 0.70366 -0.37878 2.6665 
M136+M071 0.64776 1.8635 -2.8325 -2.4311 -1.3641 4.1367 -0.45514 -0.99849 2.3378 4.8181 0.038554 -1.8808 1.6815 1.4011 5.3308 3.6604 
M009+M140 -1.0243 3.7543 -2.4214 1.7124 1.5512 2.9761 2.1435 -4.9314 -1.0313 -0.42476 0.44275 2.0109 -0.16839 0.055004 0.47198 2.3123 
M327+M324 -0.65984 0.49328 -0.60977 0.32973 -0.040391 1.2266 0.98722 -0.53161 -0.073157 1.0318 0.13232 0.11145 0.32985 0.96759 0.15629 0.30609 
M362+M600 -2.1976 1.1105 -1.8223 1.0155 -0.75305 1.2964 3.2411 -2.8325 0.60803 1.7807 -0.82809 1.6119 0.62242 0.37472 2.0876 1.664 
M105+UNK 0.41254 2.2746 -3.7698 1.1239 0.33215 3.2851 0.53706 -1.5926 0.20628 1.2962 -0.024722 0.21041 -0.15945 1.5649 2.5823 0.72048 
M136+M353 -0.58274 0.23994 -0.62547 0.26483 -0.26711 1.8663 1.4137 -0.85798 0.30879 1.5249 0.17386 0.38023 0.358 1.2152 0.055425 0.29817 
M297+M388 -0.74184 1.1442 -1.2076 1.2704 0.33487 2.6843 1.3266 -0.3678 -0.65217 1.7668 -0.28889 0.61609 0.7075 2.1099 0.39374 0.21677 
M175+M377+M377 -1.1982 0.68405 0.034514 -2.518 -3.084 3.4761 4.92 -3.5684 -1.5895 1.3292 -0.56724 2.1605 0.85578 -1.1845 -0.83329 0.19559 
UNK+M383+UNK -0.62061 0.54242 -0.77932 0.40292 -0.020767 1.2644 1.0908 -0.67007 -0.17883 1.0013 0.024496 0.11843 0.37536 0.85288 0.11877 0.19002 
M002+M379 0.17911 1.7695 -0.033782 1.2395 2.0835 2.5399 2.8704 -4.8356 -0.64071 3.0627 1.4517 -0.22988 -0.72872 -0.64686 0.8405 -0.736 
M136+M153 0.6684 0.91512 -1.0505 0.78813 -0.59269 4.6038 1.7464 -0.66186 -1.4423 2.593 -0.86093 2.3453 0.34413 1.098 -0.28885 -1.9014 
M325+M044 -4.6243 1.8948 -0.54045 0.027232 0.92297 1.5378 0.44086 -0.46723 0.72241 2.9527 -0.21443 1.4259 3.8533 0.76451 2.2304 2.4345 
M003+M379 -0.52408 2.6058 0.067005 0.15715 0.54859 1.818 1.9284 -2.7247 -0.37208 1.0361 1.3591 -1.2406 1.928 1.4394 -2.2236 0.91141 
M175+M376 -0.58735 0.45678 -0.72867 0.35974 -0.039261 1.3714 1.0646 -0.61526 -0.014771 1.0776 0.021495 0.1173 0.41245 1.0258 0.040081 0.21608 
M009+M346+M009 0.098575 0.5779 0.83799 -0.21759 -1.5877 3.9793 0.97717 -3.3555 1.4729 4.0348 1.1483 6.027 -0.051855 2.3153 2.7788 0.74227 
M153+M075+M153 -0.91414 0.66401 -1.2684 0.72847 -0.14412 2.7883 1.3266 -0.68909 0.034323 1.8706 0.67918 0.72546 0.51768 2.2269 -0.16156 -0.59623 
M343+1(N30C) -1.2268 4.0186 -0.062092 1.099 -0.18026 1.6934 2.4415 -2.217 -1.1704 -0.31697 1.0356 2.0393 0.43134 3.136 -2.2685 1.8194 
M153+M320+M153 -0.91841 0.23885 -1.5198 -1.4338 -1.6761 2.3669 0.38002 -1.2006 -1.6934 6.382 -1.0621 1.3822 3.1238 1.7262 -0.24157 4.3787 
M327+M044 -1.5013 0.23156 -0.46099 -1.1147 -1.3126 1.4055 3.5465 -1.3492 -0.3245 1.5752 0.87518 1.6692 -0.5608 1.2746 -0.38682 1.3442 
M288+1(N39B) 0.12915 0.050252 -0.96215 1.4486 -0.38865 1.387 2.3823 -1.161 0.24463 2.1513 1.263 0.66788 3.1158 2.6247 -1.9298 -0.30194 
UNK+M131 -1.7593 1.0385 -1.8532 -0.14866 -1.3298 1.1963 2.8053 0.13397 -0.50198 1.9642 0.79271 0.17937 -0.45666 1.1385 0.11219 1.2868 
M153+M029 -0.5941 0.43631 -0.63582 0.33913 -0.06717 1.222 1.0514 -0.60789 -0.11458 1.0102 0.046767 0.19108 0.34736 0.92704 0.092045 0.28174 
M348+M346 0.13686 1.0439 0.40569 0.54661 2.1599 2.449 3.0556 -4.0603 -1.1916 2.6279 1.2953 0.50809 -1.5915 0.2833 1.1977 -0.61012 
M228+M288 0.20076 -0.067062 -0.46472 0.37584 -1.3465 4.2308 2.3035 -1.2579 0.41625 2.9953 0.33338 2.1837 0.1757 1.2627 -0.65769 -1.7843 
M260+1(N14) 0.39682 2.2091 -0.11096 1.9252 0.38792 1.003 2.6762 0.49587 0.56981 3.846 -0.34165 -0.1028 0.89283 2.8623 -0.94708 0.5133 
M327+M057 -2.8252 2.5767 -1.7994 1.5415 -0.80814 0.79346 2.2234 -1.9372 -1.4424 2.3302 1.3711 2.8567 -1.4453 0.14089 -0.73379 1.996 
M036+1(N30D)+M343 -0.75131 0.96955 -0.96788 1.2088 0.24182 2.5574 1.3913 -0.27939 -0.57501 1.8382 -0.41353 0.57954 0.46467 2.1192 0.41835 0.32937 
M157+M059 0.080701 3.3766 -1.3933 0.4198 0.62801 2.6684 2.9805 0.8532 0.5702 2.4896 -0.71517 1.4976 -1.365 -0.015241 1.1742 0.94481 
M370+M373+M370 -1.0873 0.98841 -1.3193 0.77736 -0.022164 2.6039 1.0056 -0.44148 -0.41259 1.6811 0.5576 0.69694 0.54726 1.9926 -0.071255 -0.84478 
M304+M041 -2.4945 4.0431 -0.11 0.071972 -2.2407 2.2742 4.0453 -0.48042 -1.3979 0.59784 -0.050256 -1.4267 -0.23944 3.2339 -1.8537 1.8501 
M327+M074 -2.3449 1.9944 -4.2078 -0.1636 1.0467 0.27078 0.79901 -1.4607 1.0061 2.3497 1.4261 0.29325 -0.80965 2.646 -0.93971 -1.0995 
M009+M320 -0.6131 0.68755 -2.1945 -2.1191 -0.84203 0.91353 2.4926 0.34558 0.045485 0.38812 1.3575 0.48883 5.5416 2.3359 0.49138 -1.8157 
M175+M325 -0.61086 0.39113 -0.72812 0.25172 -0.11595 1.3564 1.1133 -0.62972 -0.16604 1.0957 -0.01097 0.1157 0.38529 0.95458 0.085873 0.18641 
M096+M139 0.62663 3.3119 -1.7485 0.66989 -4.8405 2.7024 0.062527 -3.2612 0.68553 1.6624 1.4445 2.3611 1.323 5.4569 3.9105 -1.9243 
M377+M383+M377 -0.41127 -2.1893 -2.4851 -5.4724 -4.5942 0.26013 3.0406 -3.772 -1.9422 2.8061 0.78457 0.54697 2.4916 5.9593 0.2642 -1.9341 
M305+M332 0.26472 1.3391 -0.19431 0.50157 -0.0069053 1.9072 5.3929 0.8761 0.66688 2.7691 -0.56672 0.26557 -0.19156 0.37972 -0.47109 -0.77557 
M175+M380 1.0521 1.8072 -2.3051 0.083108 -0.24651 4.9067 1.9241 -0.62244 -1.2217 1.33 0.4963 3.4605 0.9309 1.2614 -0.91585 -2.0656 
M351+M380 -0.64115 1.6423 1.1206 -0.43967 0.18848 2.2497 2.8761 -3.0982 -0.82534 0.34925 1.1812 1.4048 0.95562 3.1206 -2.2198 1.6118 
M036+1(N39B)+M343 -1.0803 0.95357 -1.3755 0.89447 0.044226 2.5827 1.0403 -0.44581 -0.39038 1.6469 0.63155 0.64062 0.63061 2.096 -0.093244 -0.87197 
M106+M096 -1.3725 0.49573 -1.0023 -2.2273 -1.7989 0.82832 3.4393 -1.3858 -0.64662 2.7491 3.1297 0.8819 -1.228 4.2612 -0.30437 1.7019 
M136+M387 -0.62553 0.78297 -1.9039 1.3536 -0.45838 2.199 1.3425 -1.9788 0.033351 2.7251 -1.3157 2.3675 -0.52014 0.92982 -0.62374 2.4381 
M386+M111 -0.58606 0.32627 -1.5347 -0.37353 1.0484 2.8562 1.8507 -2.3486 -1.4427 1.1115 -1.191 0.97767 0.95699 2.0864 0.34044 0.44967 
M305+M029 -0.59765 0.43035 -0.71491 0.32466 -0.1588 1.2803 1.0089 -0.56143 -0.11911 1.084 0.043118 0.19275 0.41324 0.85169 0.096938 0.20977 
M036+M010 0.46136 1.7822 -0.20316 0.58051 0.11546 1.5655 5.5188 0.79997 0.36156 2.7867 -0.79773 0.048922 -0.068466 0.19226 -0.62749 -1.0438 
M317+M269 -0.80586 1.1453 -1.0036 0.068562 -0.11388 1.4328 4.9121 -0.11206 0.54666 2.3187 3.6073 1.3839 -0.97397 0.97688 0.85429 1.5277 
M362+M041 -1.6096 2.2662 -2.5636 -1.848 2.0618 1.2665 2.859 -3.5154 -4.7754 -0.33727 0.4521 1.4507 0.61796 2.7553 2.0038 0.23511 
M291+UNK -2.1669 1.0829 -2.0119 0.76073 -0.83156 1.3075 3.277 -2.7052 0.58328 1.6285 -0.78463 1.5188 0.62183 0.39865 1.965 1.5105 
M167+M131 -1.6635 0.90747 0.72901 -1.2187 -0.98537 2.5973 1.4964 -3.1078 2.2571 1.0516 -0.81672 0.8222 2.8876 2.4932 0.87638 0.69979 
M260+M265 -0.93352 2.6122 -2.7704 0.22303 0.36374 3.7501 0.59353 -0.58571 2.0517 3.6357 1.2847 -0.16126 -2.3568 3.0177 0.61532 0.28788 
M157+M340 0.17524 0.8141 -0.58257 -1.5668 1.5832 4.0354 0.63967 -0.65797 -0.95371 3.6301 0.48414 0.16906 2.184 3.85 -3.2775 2.3242 
M362+M005 -1.6011 2.1966 -2.5397 -1.8146 1.9573 1.212 2.8741 -3.4873 -4.7111 -0.36255 0.41022 1.4952 0.63802 2.6717 1.9316 0.24471 
M362+M207 -3.2522 -0.29737 -0.2755 0.31625 -2.6358 0.27986 5.7429 0.27051 -2.3434 3.9641 -1.5305 1.1398 3.9455 2.8521 0.66314 -1.7497 
M347+M038 1.9791 1.705 0.99459 -0.82853 -3.5227 4.3801 5.9516 0.63051 -1.3368 2.7062 -0.25955 1.8781 0.69053 0.84315 1.8559 -1.9425 
M305+M153 -2.3069 1.2839 -2.326 -0.7288 2.5559 4.3752 1.8411 -1.1178 0.10296 2.8019 -0.76221 0.53321 1.9365 0.49349 -1.4935 -2.6281 
M317+M260 -1.096 0.89799 -0.89873 -1.1678 1.4988 3.3432 0.86155 -0.82765 -1.0204 2.6768 1.6359 -1.6599 3.2648 4.2619 1.7685 -2.4576 
M157+M057 -2.1275 1.557 1.6847 -0.91375 0.54018 1.842 4.2082 -0.98388 1.7513 3.501 4.6107 -0.25785 -0.64486 1.6409 3.0785 0.07983 
M036+UNK -1.8048 1.6353 -1.2139 1.0739 0.62034 0.24427 2.2299 -2.3812 -0.31501 2.0943 0.50376 -1.7208 0.68289 1.7664 -0.30627 -1.6823 
M305+M041 -0.62336 0.46199 -0.66037 0.3091 -0.030155 1.1748 1.0989 -0.59677 -0.10343 0.99569 0.057138 0.14658 0.31157 0.8669 -0.0073595 0.30935 
M348+UNK 0.97347 2.756 -2.0267 -1.6501 1.7109 6.3529 -1.4549 -2.8944 1.476 1.4303 -0.20907 -0.30679 1.8275 3.3 2.6204 1.4258 
M305+M180 -2.3874 0.99792 -3.6117 0.78895 -0.21342 1.2109 2.1452 -0.46806 -1.296 1.0024 1.4717 4.7847 1.0183 3.2094 -0.32341 -1.1745 
M343+M354 -0.39734 5.0572 -1.6811 -3.053 -2.9511 4.8796 3.337 -0.69054 -2.2787 -1.0728 1.6641 2.2634 0.87603 1.2329 1.594 -0.8967 
M059+M038 2.5932 0.73549 -1.8358 1.7844 -0.54102 1.1528 6.5557 -0.44104 1.6939 0.4223 -1.2251 2.4871 1.3184 4.0688 -2.1753 -0.097138 
M305+M340 -0.95526 0.89887 0.93379 -5.1655 0.37209 1.7245 5.2598 0.74857 -2.0134 2.5175 4.2789 1.533 0.21126 4.6624 -0.13872 1.7511 
M377+UNK+M377 -0.57883 0.4609 -0.70943 0.31206 -0.083379 1.2495 1.0514 -0.59939 -0.067146 1.0303 0.077435 0.18046 0.3966 0.86466 0.098076 0.24518 
M136+M195 -1.6416 0.94704 -1.9247 -0.14576 -1.4028 1.13 2.7713 0.33125 -0.42041 2.0207 0.66333 0.25373 -0.44561 1.1883 0.17599 1.2338 
M304+M304 -0.5569 1.7677 -0.58724 1.8947 0.10866 3.9521 0.56059 -2.532 0.33387 3.5755 -1.3275 0.40009 1.7822 2.1028 -0.25273 -2.7606 
M305+M157 -0.324 3.5193 1.6283 1.8568 -0.95703 4.5407 3.2572 -1.4559 2.3898 1.7226 -0.64901 4.2629 1.0114 0.099624 4.7404 -0.056039 
M036+M035 -1.5018 4.0835 -0.80944 -4.5167 -1.1936 4.117 3.7541 -0.24789 -5.5054 1.6077 1.798 -1.9818 1.8715 2.1275 -1.1819 1.1496 
M175+M157 -2.854 0.99103 -1.4389 -0.77475 -1.5206 0.92458 4.1809 0.75738 -1.0129 3.0032 0.67886 -1.0464 1.4326 1.7888 0.50209 1.3452 
M347+UNK -2.0095 2.2987 1.2452 -2.3086 -0.30715 2.9646 3.6758 2.2707 1.6937 0.89066 1.3652 -0.56905 2.2296 2.9894 0.1269 -0.020052 
M036+1(N) -0.64866 0.81678 -0.82898 1.1058 0.084839 2.7584 1.5504 -0.39229 -0.13841 1.9573 -0.1702 0.62602 0.46666 2.2994 0.30486 0.37855 
M370+M046 -0.64503 1.089 -0.99503 1.3 0.25242 2.7111 1.3967 -0.20893 -0.64901 1.8461 -0.45541 0.47534 0.5208 2.1631 0.43104 0.30458 
M305+M387 -2.759 2.9861 -4.1978 0.079682 -3.1508 1.609 2.9001 -1.5068 -0.44065 -0.034231 2.44 0.56421 0.44107 2.0332 1.8941 -1.1759 
M157+M080 -0.66836 0.35966 -0.28104 -2.7732 -0.078264 2.4448 1.13 -3.8506 -0.32791 1.6827 -1.0579 -0.023003 -0.38552 2.278 0.99658 -0.29449 
M288+M376 -1.8535 -0.11342 -0.26733 -1.7771 1.847 0.53723 3.1232 -2.1256 -0.77465 1.8638 0.62252 1.5723 -0.095528 2.1759 -0.90372 1.2205 
M157+M348 -4.2224 0.73102 -2.6502 -0.4062 -0.84798 -0.28972 4.0937 -0.043945 -2.3866 1.0835 1.5668 2.9292 3.1777 3.0534 1.2691 -0.36348 
M157+M342 -1.8171 1.1118 -2.8114 1.214 0.14444 1.2363 2.4335 -0.37359 -1.3876 0.8484 0.87789 4.4 1.2194 3.3625 0.26563 -0.13825 
