531 32
</s> 0.25647 0.3183 -0.51507 -0.20099 0.74483 0.36095 0.21648 -0.24272 0.018744 -0.04969 -0.20515 -0.18713 0.1865 0.60427 0.20569 -0.46521 0.42939 0.093129 0.044076 0.34739 0.22389 0.073273 0.59936 0.11644 0.33446 -0.42041 0.29128 0.049629 0.29822 0.19461 -0.18986 0.22142 
UNK 0.71114 0.58537 -0.73094 -0.034419 0.55401 0.11534 0.64911 -0.63458 -0.21782 -0.11815 0.24011 -0.31838 -0.062289 0.20008 0.25392 -0.53726 0.45016 -0.056734 0.07431 1.1303 0.19716 -0.24108 0.76694 0.62008 0.1921 -0.44742 0.070851 0.29905 0.26669 0.05771 0.012575 0.43257 
1(N01) 0.52997 1.2863 -0.7459 0.45924 1.9072 -0.39117 1.1085 -0.30529 -0.68802 -0.10359 0.37446 -0.60607 0.54547 1.1157 0.62895 0.010864 0.25716 -0.042747 -0.29906 -0.17842 0.22569 0.71364 1.1672 0.62156 0.25922 -0.48596 0.6426 -0.64371 0.59864 1.4729 0.80275 1.2669 
2(N01) 0.28271 0.45901 -0.80769 -0.090217 1.1488 -0.22894 -0.33456 -0.31893 -0.37582 0.20001 0.048629 -0.06045 0.093452 1.0126 0.30859 -0.17051 -0.22631 0.34628 -0.7406 0.015297 0.7625 0.61289 0.70722 -0.00056098 0.72727 -0.61149 0.32046 -0.79241 0.35829 0.45246 0.31717 1.0927 
1(N14) 0.54184 0.011405 -0.043302 0.0067 1.2948 0.53189 -0.51369 -0.66314 -1.098 -1.0933 -0.81605 -0.64758 -0.47524 1.4344 -0.88893 -1.0243 1.4098 0.21057 0.81275 0.47472 -0.30162 -0.067449 0.44449 0.6555 0.47912 -0.47546 -0.29988 0.68775 -0.37807 -0.076933 0.30847 0.35058 
M288 1.0706 0.5906 -2.3912 -0.77806 -0.59043 0.86191 0.78181 -1.124 0.25834 0.32634 0.4611 -0.27605 -1.6601 -0.33255 0.41805 -1.4669 -0.10983 0.80138 -0.10338 2.4358 -0.54336 -1.8548 0.99947 0.73694 0.31018 -0.62856 -0.51827 0.96088 0.12173 0.10735 -0.068621 1.5636 
3(N01) 0.69544 0.67428 -1.0897 -0.57493 0.52803 0.47472 -0.43969 0.66497 -0.18873 0.96333 0.09061 0.043175 0.068749 1.2729 0.097951 -0.75785 0.087883 0.36193 -0.81151 -0.36753 0.49752 0.67067 1.3685 -0.050012 0.15096 -0.00043438 0.23463 -0.00606 -0.20113 0.43251 0.19048 1.3277 
M388 1.877 2.3451 0.028983 0.48352 2.3751 -0.27459 0.96781 -0.99154 -0.91847 -1.1577 1.5455 -1.2238 -0.58098 0.64429 1.4336 -1.7745 0.48904 0.80063 -0.41286 1.8012 0.90822 -1.0135 2.3108 1.961 0.73544 0.65363 -0.23821 0.95552 1.167 -1.1083 2.0057 1.5726 
1(N24) 0.28781 0.50999 -2.8789 -1.2115 -2.4436 1.6582 1.4306 -0.043828 -1.2792 0.18614 -0.10078 -0.12563 -0.048843 -1.0318 -0.59907 -0.69648 -0.54477 0.63759 -1.7838 2.3353 -1.7076 0.080622 -0.85718 -1.1602 -0.85016 -1.0564 1.0381 0.92182 0.87484 0.37962 -0.26343 -0.61738 
M218 1.5025 1.1186 -0.56076 1.0812 2.5003 -0.1296 1.1525 -0.48185 -1.9934 -1.5864 1.4162 -0.21182 0.08031 0.1469 0.75329 -0.18889 -0.29245 -1.4146 -0.17727 2.4693 0.7561 -0.10677 2.4087 2.2067 -1.0116 0.12463 -0.85214 0.29028 -0.52983 1.0431 1.6157 1.9961 
M387 0.65377 1.4196 0.018941 1.2875 1.3177 1.0937 -0.70554 -0.81747 -1.3897 -1.2177 0.94216 -0.22702 -0.13246 -0.71303 -0.0602 -1.8463 -0.70506 0.44098 -0.94001 1.587 0.40966 0.5633 0.50645 0.15523 0.91324 -0.14284 1.2295 -0.0094348 1.001 -0.52913 0.98454 -0.04789 
4(N01) -0.016295 -0.20383 -0.60054 -1.6449 -0.051079 0.59961 -0.69847 0.047777 -0.16758 0.49212 -0.53382 -0.082014 -0.31069 1.4423 1.15 -0.71003 -0.11171 0.72975 -0.97589 -0.50911 1.1139 -0.10324 0.55296 0.27722 -0.12511 0.85357 0.63723 0.35878 1.1438 1.1355 -0.17461 0.91342 
1(N39B) 0.35378 -0.31084 -2.23 0.321 -1.3195 1.7371 1.3694 -1.6174 -0.47739 0.79434 -1.7264 -0.8357 -0.03794 -0.051451 1.6694 0.59041 -1.418 -1.2353 -2.3114 2.0305 -0.92383 -0.22884 0.34213 -0.41022 -0.3921 -0.69827 0.97636 0.23042 0.67003 1.3491 -0.74414 -0.17641 
2(N39B) -0.54231 -0.3275 -2.3169 -0.58443 -1.6248 1.9675 0.56095 -0.47592 -0.76551 1.4384 0.87214 -0.26219 -0.75684 0.47152 0.67005 -0.03931 -0.10813 -0.82445 -1.27 2.4757 -0.95607 -0.68486 0.022684 0.25757 -2.1501 -1.2536 1.08 1.2657 0.78278 -0.22502 -0.53963 -0.72624 
5(N01) -0.52881 -1.2656 -1.4736 -0.10703 -0.55509 -0.45278 -2.1161 0.16767 -0.94556 0.6131 -0.94099 0.48251 2.1721 1.4839 0.45402 -0.51019 -0.48023 1.264 -0.8639 0.077755 -0.44299 -0.85593 0.32104 -0.34912 1.6053 -0.83174 1.802 0.3638 -0.84204 -1.6827 0.55351 1.0256 
M297 0.41796 0.79583 -0.94649 -0.99147 -0.64769 1.7657 2.8969 -2.0006 0.36367 -1.1585 1.4872 -0.012395 -1.0161 0.39027 0.64217 -0.30441 -0.40075 1.2047 -0.93711 1.8394 -1.2253 -1.6742 0.91542 1.541 -1.5104 -0.11254 0.79077 1.5271 1.6571 -0.19948 -0.38012 0.34886 
M263 2.3149 3.7141 0.2204 1.8131 1.0183 0.31 1.0555 -1.5488 -2.4224 -0.45193 1.3774 -0.15894 -0.6644 -1.0141 -0.42832 0.22226 -1.2773 -1.8842 0.83307 2.1262 1.1239 0.52517 3.1819 1.7248 0.73773 -0.50114 -0.97285 1.1434 0.35779 1.0222 0.99554 1.7173 
2(N14) 0.14191 -0.13197 -1.6062 -1.4039 1.587 0.9479 -0.33361 0.83376 -1.4006 -1.7236 -0.72147 1.1463 -1.6422 1.2128 -0.7754 -0.30087 1.4713 -0.20327 1.0501 0.16297 0.43669 0.58131 -0.47661 -0.14442 -0.56084 -1.8174 -1.3777 1.8506 -0.68866 -0.38865 0.72937 -0.46667 
M157 0.35364 0.62031 -0.92627 -1.71 0.45263 1.8051 1.3778 -0.41086 1.5006 -0.88799 -0.73727 0.021251 0.86887 1.1677 0.96382 1.1437 -0.5946 0.3388 0.8306 -0.2881 -1.4561 -0.90173 1.0924 0.49289 0.13815 1.9413 -1.6734 0.57329 -1.1956 0.47324 -0.38155 0.45207 
M371 2.6776 0.8307 0.82603 2.6529 1.476 -1.7497 1.6683 -0.64494 -1.4058 -2.7926 -0.22284 -2.4615 1.069 0.37229 -0.25436 -1.696 0.33944 0.22735 0.62908 2.0054 -0.16626 -0.13229 1.5611 1.776 0.63108 1.4649 -1.6067 0.71214 1.262 -0.17857 1.5001 1.6558 
1(N30C) 0.07866 -0.16096 -2.679 -1.3039 -2.1527 2.2119 2.2043 0.018494 -0.27885 -0.24349 -0.40776 -1.551 0.1833 -0.60289 -0.21387 -1.0933 0.0053177 0.87301 -1.6921 1.1176 -2.4209 2.872 -2.202 -0.93866 -0.49974 -0.78691 1.6094 1.9703 0.70826 1.6598 -0.12858 -0.43668 
M124 -0.26054 1.6035 -1.0212 0.2574 2.0279 -2.6067 2.2067 -1.2228 0.35605 -0.86239 -0.93166 -1.0019 0.57155 -0.17488 0.84747 1.3109 -0.91637 -1.6425 0.35965 2.7442 1.4915 0.1581 1.8032 1.5337 -1.7758 -0.34917 -0.40312 -0.40105 0.66108 0.63141 1.7679 2.0962 
M054 -0.72233 1.7242 1.069 0.0042009 -0.11106 -1.0794 -0.081446 -1.0248 1.0607 0.075342 0.96207 0.026906 0.66492 2.5575 1.0817 -1.4394 0.0021163 -0.76305 1.1894 -0.79804 -0.35136 -1.5363 -0.41433 1.2148 2.7183 0.35038 -0.25869 0.97317 1.9897 -2.3574 1.6668 1.0174 
M346 -0.066235 0.51524 0.56811 -1.9772 0.20405 -0.46727 0.74277 -0.71132 -0.57734 -0.88899 1.0116 2.0507 -0.69792 0.20461 1.9997 -2.7399 0.64037 -0.7269 0.085941 0.9168 0.55998 -2.0905 0.91429 2.1886 -0.46476 1.1666 -0.15302 0.19542 2.4433 -0.66613 1.5823 -0.56356 
M066 1.0417 0.99105 -0.027615 0.5792 2.9992 -0.37328 1.4802 -1.0912 -2.7517 -1.6088 3.2302 0.24164 -0.073813 0.43903 2.0431 -0.46934 1.0102 -0.98481 -0.42013 2.0329 0.43999 -0.34982 2.0169 2.9175 -0.24898 0.094943 -0.86102 -2.3023 0.2479 -0.65742 2.4159 0.93711 
2(N30C) -0.036642 0.53381 -1.3156 -2.0779 -3.0958 1.495 2.2545 0.091421 -1.4659 0.82126 -1.0138 -1.033 0.57691 -0.36536 -0.17708 -0.88273 -1.7973 0.71232 -3.2783 2.0342 -1.9705 2.1615 -1.9985 -2.0401 0.28569 -0.70149 0.76687 1.6901 0.28921 -0.27519 1.2602 -0.77043 
M009 1.837 0.63107 1.7715 0.95075 0.95577 -1.5619 -0.66551 0.58099 -2.2984 -1.07 -1.7446 -0.87738 0.65988 -1.6349 0.491 -1.2606 -1.2254 0.46661 1.8661 1.5512 1.2063 1.5084 1.3769 2.4598 -0.5291 1.8385 -1.5164 0.20205 0.45462 0.96136 1.1362 -0.047149 
3(N39B) 2.627 0.0027775 -2.1522 -0.70628 -2.2941 0.80319 1.0975 -0.19466 -0.07177 0.28666 0.40128 -1.4254 -0.93522 -0.48055 0.35206 -0.88691 -2.4059 0.44668 -2.9989 1.6509 -0.051293 0.043586 -1.3565 0.10588 -0.52231 -1.255 -0.38608 1.9392 0.20076 -0.34337 -0.20219 -0.10955 
M096 1.4124 1.9825 -0.30951 1.9439 1.197 -2.3579 2.4675 -0.88738 -2.3059 0.45539 1.0868 -0.13375 0.65796 -1.4943 0.4216 -1.6033 1.2318 0.26653 -1.0003 2.0079 -0.69687 0.7343 2.9447 2.296 1.2416 -0.74076 0.29097 0.28117 -0.87884 0.11157 2.0523 2.5342 
6(N01) 0.95246 0.49104 3.1176 -2.5104 -0.078759 0.2584 -3.8137 0.07165 -1.7229 1.5475 -0.83291 0.27913 -0.032726 2.8232 2.2137 1.7934 -0.32 1.1982 -1.0609 -2.0017 1.9718 0.714 3.1556 0.21121 1.3475 2.2071 0.7522 -0.00169 0.18305 -2.5681 -0.14072 -0.85419 
M376 2.6263 3.847 0.27409 -0.40094 -0.29347 -3.2536 -0.9316 0.16813 1.4831 -2.2483 -1.6982 -0.69914 0.24062 -0.43342 -0.68791 0.31555 0.49388 -0.0091996 2.0162 1.2607 -0.3349 0.10384 2.766 2.1883 -1.588 0.61135 -1.6302 0.33335 0.51786 -1.721 -0.20551 2.3374 
1(N34) 2.4237 -0.81117 -3.1796 -0.20871 1.2211 1.4017 -2.3782 1.983 2.9488 0.49393 -0.91962 0.52151 -0.83981 0.51226 -2.1187 -2.4248 -0.94638 0.03296 -2.7299 0.9571 0.55463 -1.3638 -0.39324 -2.3835 0.0089131 0.84303 0.1341 -0.11618 -1.4193 -3.1196 -0.46313 -0.0051518 
1(N30D) -1.2898 0.23665 -3.8401 0.040608 -1.8289 0.69585 2.1646 1.7682 0.81943 1.8074 0.39973 -1.1341 -0.30477 -2.1769 0.62899 -1.2424 -0.83646 0.73813 -3.548 1.8568 -1.5813 0.24843 -2.6822 -1.8876 -0.36376 -3.801 1.901 1.6701 1.4494 -0.4031 -1.0708 -2.8811 
3(N14) 1.7038 -0.80216 -2.3955 1.6018 -0.26305 -1.3892 -0.23866 1.2841 -0.53894 -3.2551 -0.4329 0.45993 -1.9891 2.1624 -0.54037 -0.93755 1.4365 -0.20167 -0.21319 -0.75099 -0.51695 -1.6012 0.23466 -2.2186 0.88758 -1.3234 -2.226 -1.1125 -0.3974 -0.30475 0.13409 1.4825 
M057 -0.5321 0.52679 1.2108 1.0586 2.7905 -0.24366 0.52157 -1.4671 -1.2043 0.40593 1.0869 -0.75721 -0.16967 -0.079533 0.74091 1.1424 -0.19899 -0.011133 0.57552 2.9808 0.74605 1.815 2.5888 0.8233 1.0199 -0.5085 -1.9092 1.1188 0.29611 -3.0429 1.8668 0.69136 
4(N14) 1.6537 -2.0176 -0.75304 -1.1271 2.1285 0.64849 -2.0382 1.5276 -0.5041 -2.1821 -2.0819 0.31282 -2.6274 1.2795 -2.5332 -0.82176 1.0526 0.46889 1.5068 1.3378 -0.76959 -0.57528 -1.3546 -3.3914 -0.75513 -2.6488 0.57165 0.77065 -1.6861 -1.4666 0.52517 -0.5429 
M367 -0.64773 -1.0199 2.1819 -3.2514 0.81547 -1.3908 -0.45707 0.1995 1.7319 2.4619 0.14354 1.2607 0.094522 -1.7874 -1.4663 -3.2391 2.9766 -3.4138 -0.75029 0.042685 0.55103 0.37256 0.77595 -0.1976 0.58646 1.059 -0.46598 -2.5875 1.5226 -2.7094 0.92323 0.62641 
M001 1.0155 1.7372 -0.42669 -0.82246 3.3183 -2.0055 1.6337 -0.5731 2.2258 0.40469 1.3297 -0.26085 -0.12806 -1.3686 -0.9343 -2.8968 -0.89491 2.7653 -1.0601 1.3187 -0.98514 -1.5919 0.38431 0.2197 0.96131 -0.68884 -0.55248 -1.0367 -0.062229 -0.5564 1.1248 -1.2914 
M305 0.99188 -0.54786 0.0012611 0.98562 1.6548 1.803 1.1956 1.8227 -1.7334 -1.362 3.2049 1.9304 -3.1901 0.75112 0.71238 -1.3591 -1.4086 -0.49168 2.1233 1.8154 -4.5204 -0.66328 0.40005 0.88671 0.22444 -0.23259 1.2946 -2.0523 3.1894 1.9422 1.905 2.2888 
M036 -1.0595 -3.722 1.6237 2.5963 -0.24039 2.7001 3.2666 0.22095 1.8884 -2.6926 -0.86428 0.2434 1.3853 -2.1862 0.79087 -1.1371 -1.5088 1.7567 -2.1313 0.67164 -2.0068 3.6947 0.16613 0.48458 -0.42768 0.98616 0.56778 5.3114 2.5799 -0.30465 -2.2755 -1.5065 
M032 -0.63166 1.9792 0.1117 -0.71603 2.3485 0.15868 0.20534 0.49274 -0.6885 -1.5849 -0.037572 0.26348 -0.36151 0.56558 1.974 0.7926 0.72835 -1.5163 -1.011 0.2514 -0.40896 -2.3656 1.7705 4.7793 0.12845 -0.37671 -1.6218 2.408 -1.9816 1.597 -0.54543 2.5805 
M370 1.3575 1.0534 3.1002 2.171 1.3566 -3.5346 -0.14664 -0.045198 -0.18143 -3.7012 1.3187 0.83138 0.52729 0.91384 -0.8489 4.9697 -1.9292 -2.9954 -0.39297 -0.65515 -0.99581 -0.77042 -0.4267 -1.1222 -1.2776 -2.0632 -0.030878 0.22532 2.3776 1.972 -1.6518 2.1673 
1(N45) 0.67941 0.50206 -4.1238 -3.6302 -2.402 3.0081 -0.70287 -2.2544 1.0571 2.2001 -2.9967 0.61552 -1.407 -0.23361 0.45251 -1.013 0.52032 1.0916 -0.77241 1.1172 0.33614 -2.9754 -1.5776 0.33118 -0.28965 -0.27227 -2.8721 1.7277 0.61565 -2.3987 -1.5445 1.2919 
8(N01) 3.4092 -1.7478 -0.48242 -2.2546 2.6135 0.50217 -2.4505 1.1497 0.69379 1.7876 0.051787 -0.67039 -0.89286 1.1581 -0.23698 -0.2823 -2.0706 1.2923 -0.42947 -4.6443 1.6878 -1.0306 1.7173 2.0126 1.2529 1.3696 -0.3241 -0.4452 0.82921 1.0233 -0.16137 1.089 
7(N01) 3.9427 0.23628 0.77405 -1.206 -0.60677 -4.3382 -2.6301 0.58598 -2.1897 2.078 -2.114 3.1161 -0.59573 1.1958 -2.0947 -0.68331 -0.80783 2.0465 0.75774 -1.7641 -0.77492 0.63794 1.5673 -0.52632 0.40273 0.15901 0.98966 -0.3725 -0.18504 -1.8968 2.4691 1.2831 
M004 2.6402 -1.046 2.6402 1.4112 5.4564 0.47914 3.016 -0.97865 -1.8964 -2.4862 -0.49858 1.8375 -0.89004 -0.48054 3.1352 0.93393 -2.0686 -1.2952 1.6674 1.1953 -0.89255 0.11199 0.70433 2.8179 0.52788 0.80458 -3.1916 -1.1179 1.9741 0.84559 2.5797 3.0459 
M003 0.10437 0.078913 1.1097 0.4394 -0.086649 -3.2514 0.058647 -0.89641 -1.8695 0.41221 3.2172 -1.4025 1.2945 -0.27756 -4.8887 1.1593 -1.0051 -2.4495 2.2615 1.3519 0.53318 -2.5139 3.1401 2.1887 1.5064 -2.2282 2.5618 -0.32607 1.1455 -0.64857 0.68241 1.7376 
M377 3.2793 1.2508 -3.631 1.3894 -0.55193 -0.33624 1.0963 -0.35228 -2.7705 -0.73547 -2.359 -2.7359 -0.52405 -1.5147 0.9128 -0.49118 0.81341 0.0049488 0.057847 1.3311 1.929 1.194 0.2684 -0.20896 0.78078 2.9109 0.61511 0.034668 1.2339 -1.4782 3.7128 4.1036 
M354 1.2121 -1.4733 1.7321 -1.816 -2.3067 0.36169 -2.1249 0.78743 1.6276 -0.070169 -0.38008 -0.36349 -0.72027 -1.7912 1.0242 -0.59888 0.87332 -5.5277 -3.2249 2.0564 1.8338 -1.5454 1.9413 -1.5098 2.1734 -0.825 2.3086 2.5325 -1.0159 -4.8504 -1.277 -0.21135 
4(N39B) 0.0040005 -1.3204 -2.9734 0.49727 0.24643 1.248 1.7828 -0.72417 0.17092 0.43144 0.68433 -1.6713 -2.6135 2.0685 -0.0055437 0.18063 -2.5577 -1.0843 -2.9989 0.93976 -1.062 -1.1098 -3.3706 0.063641 -0.56407 -1.8795 -2.7032 1.8707 0.94731 1.3848 0.011145 -2.0426 
5(N14) 1.6362 -2.5715 -2.7999 -1.6979 -0.58972 0.093706 -1.9179 -0.0093743 0.69467 -2.7823 1.1265 2.5469 -1.3094 2.8391 -1.0528 -0.19081 2.6108 -0.29457 0.93623 -0.36841 -1.7686 -0.98433 -1.8049 2.7171 0.14419 -1.6413 -2.4276 1.499 -0.77959 -2.4966 -1.5986 1.1449 
M352 1.9743 1.7252 -0.82743 1.7778 -0.26023 -1.7627 1.2706 2.2774 -1.8408 0.4221 2.1671 -1.334 -1.2442 -0.22087 2.0156 -1.4724 -0.49247 -0.18011 2.2027 3.4874 0.36535 0.30076 -0.46241 2.2763 2.1419 -0.0029621 -2.7296 -1.6109 1.1342 0.3418 1.1318 2.1549 
M072 -0.10236 -0.14353 1.7753 0.33285 0.92201 -2.1378 -0.85722 0.24031 5.1678 -0.50773 -1.3873 0.86779 0.67 -1.6127 2.2567 1.8861 -0.80971 0.47419 2.8287 1.5977 1.5586 1.5551 -0.82413 0.49166 -0.50259 0.30371 1.0093 2.5243 3.3033 -3.7466 -1.9931 0.94384 
M036+1(N30D) 0.63823 -0.50012 0.45087 2.6356 -1.5582 0.89698 -0.93831 -2.5311 -0.37443 -0.062421 -0.73261 -0.93663 -0.15622 -2.3543 2.4818 -4.003 3.2683 -2.4133 -2.7502 1.8164 0.44372 0.57315 0.45407 0.097908 1.4102 2.1798 -0.056635 3.4911 1.9496 -1.0651 -1.0923 -2.2894 
M269 0.86213 0.42438 -2.856 -0.24262 -0.20029 3.1255 -3.7513 -4.9515 2.7191 -3.0776 2.3341 2.0708 0.98466 -1.4564 -1.3439 0.067631 0.50938 -1.2598 2.8281 -3.5127 -0.48567 0.73238 0.61051 -1.3619 -3.1691 0.49423 1.1787 -1.1895 -0.46898 -0.2483 -1.1612 -1.9658 
M136 -0.57922 -2.1323 1.7309 -3.9752 1.5207 -0.60156 -0.11223 2.0677 0.43813 -0.040916 0.73374 -0.67823 1.0154 0.15938 -0.69884 -2.0595 -0.16136 -1.1018 -3.1896 1.0317 -1.1178 -1.2799 0.4829 0.59951 -1.6002 1.9784 3.4103 1.7403 -3.11 1.5404 1.9109 1.3868 
M206 2.7962 3.5225 1.2932 -2.0577 1.681 0.7499 -2.4662 0.67343 2.6283 1.741 1.4665 0.3602 0.6243 -1.4028 -0.21116 -0.32893 2.3998 -0.67887 1.4337 3.8939 -1.8471 -1.2193 0.85908 -0.98298 0.40197 0.9748 -0.76663 1.7785 -2.0051 -1.3751 -2.5208 1.5178 
M219 -0.84586 1.7555 -1.8001 1.2723 1.6369 -1.4342 0.39235 0.39764 -1.9947 -1.3729 2.4461 1.7296 0.54583 -3.1766 -2.122 -0.026483 0.21689 -0.74025 -2.9952 3.3672 1.4883 0.11911 1.459 3.1404 0.36047 1.2618 -0.38096 -0.7914 2.0054 0.63956 -0.82839 1.3396 
M056 -1.729 2.488 -1.7955 -1.9746 -0.8636 1.5699 1.5357 3.369 2.4065 3.414 -2.095 1.872 -4.4992 2.7049 -2.2642 -0.57267 0.51932 0.62098 -0.76423 2.9097 -0.12082 -4.4382 -1.3518 -1.1034 -0.1202 0.73036 -0.80284 0.6925 -0.92565 -3.1421 -2.1429 -1.4889 
M347 3.1937 0.82093 0.12226 6.0169 3.2267 -1.1941 0.97101 -1.2396 -2.2645 -1.5385 -0.01325 -2.4125 1.5615 -0.85036 1.6531 -0.88631 -1.1273 -0.021059 -1.9702 2.7525 -0.70682 -3.3331 -1.3416 -0.31009 4.7528 1.2817 0.74159 0.11453 -0.73543 -0.7322 2.0208 2.8669 
M048 -0.17533 1.2536 -1.1606 2.5519 -0.64374 -0.58614 2.6519 -1.7897 -4.7612 -2.974 1.7084 0.46906 2.9128 -1.7811 -2.0867 -0.77676 0.076623 -0.39383 -0.25589 0.85165 0.78361 -0.32113 1.0729 4.1307 1.3378 -1.1262 -0.75014 0.46999 0.14173 0.39711 0.83475 1.7053 
M038 -0.37858 2.2824 -1.5825 0.72373 3.5583 2.6812 -1.8158 1.0403 -0.018919 -1.3882 -2.7147 0.16293 -1.8339 -1.3538 -0.92975 -2.6394 -2.9819 1.8659 -0.20421 0.13395 -1.1211 -0.39931 -1.1812 2.6352 -3.0558 -1.2818 0.25522 -1.7675 -2.2673 2.7098 0.20651 0.3467 
M059 -2.4712 -1.8292 0.44207 -0.70375 -0.1704 0.52203 -0.57472 1.3383 3.6707 1.1043 -3.3006 2.7599 -0.97602 1.2347 -0.95026 -2.4065 -2.1363 -1.4205 -1.4098 -1.4384 -2.1349 0.20445 0.65233 -0.40477 -2.4424 0.53368 -1.9068 -1.3132 1.8445 -2.9541 1.1643 2.2701 
6(N14) 2.8858 -1.6443 0.68293 -3.443 1.7479 2.0553 1.3093 1.7021 -1.6952 -0.79714 -2.3332 0.57938 -3.2538 -0.35045 -0.16729 -1.4587 6.8845 -0.032659 0.78575 0.18557 -2.7568 -2.264 -3.2384 -2.2807 -2.2486 -0.39788 -1.5725 -0.1078 2.3994 0.63822 -1.9368 0.16207 
M010 -0.33903 -0.7061 -0.38373 -0.89837 -1.6894 -1.2972 0.39285 -2.4962 0.58899 2.1562 0.67715 -0.42682 -3.251 -2.4544 1.9616 -1.4032 0.32048 3.4479 -0.76489 3.7984 0.097145 1.4484 -1.2529 1.7755 -1.4905 -0.93256 1.4088 -0.32639 -0.61457 0.40101 -1.5442 -2.1026 
M386 0.68142 1.583 -0.65543 4.6452 0.99394 -3.8649 5.2844 -0.90986 -0.47584 -1.3581 2.2984 0.85564 0.7741 -0.51202 2.9069 3.3098 -0.22662 -0.54791 -0.75672 0.63011 -0.79565 0.53828 3.8784 4.8444 -1.5154 -2.5233 0.50214 -2.2912 -1.709 -2.106 0.677 1.3933 
M373 1.0222 1.3537 1.6248 1.8098 -1.1423 -2.6781 -0.77064 -1.1029 -2.1068 -2.3514 1.9551 -0.13611 2.5234 0.85998 -0.19624 2.7776 1.1225 -6.2708 1.0949 0.15499 -2.1272 -2.9256 3.0902 -0.3616 0.52616 4.1115 2.1646 -2.1928 2.2903 2.1959 0.38628 1.2332 
9(N01) 0.3371 -0.29993 2.2581 -3.0484 0.8225 1.1186 -6.7693 -1.1762 0.31497 0.92385 -1.2028 -0.9899 0.85232 2.475 -1.8808 1.1808 -2.684 0.022521 -2.8129 -1.606 -1.6019 -3.2881 -1.1396 -0.32919 0.48534 1.0435 -0.72479 0.32686 0.82898 -1.6419 -0.83486 2.8595 
M262 1.8925 -1.3163 -0.43474 1.2223 0.79236 -0.21877 0.82681 0.83654 -1.3841 -0.14251 4.4227 -3.3236 0.12003 0.80565 -2.066 -3.6256 0.070361 -0.41429 -0.8766 3.0446 3.5351 -1.815 0.23359 2.1793 -1.938 2.5914 -1.6857 -0.35881 0.050131 -4.1659 2.6566 0.23537 
M102 -1.0807 -0.11956 0.89806 -1.5574 1.5391 -2.0489 2.0005 -1.2949 1.1481 -2.7663 -0.49322 -4.0369 -1.7261 -3.2679 3.6753 0.31676 0.3651 -1.1385 2.1088 3.2946 4.0966 -1.7758 1.9681 0.95948 -0.60021 2.676 1.1273 -1.063 -0.97603 1.1421 2.1346 2.8576 
M203 1.4127 -0.3315 0.37303 -2.5185 1.3369 -0.8521 -0.8695 0.9873 4.5598 -0.47274 -0.25352 -0.26738 -0.53191 -1.5638 0.73984 -1.204 -1.4045 -0.054087 0.19229 -1.2288 0.88586 1.6951 2.0389 1.3147 -0.40276 1.6121 -0.60705 -2.7867 -1.6789 -3.3314 1.7709 3.7908 
M259 0.78269 -0.6378 -2.3737 1.1971 0.91472 -0.43509 1.6127 -4.608 -2.5557 -1.4835 2.1372 1.678 2.18 -2.6418 2.7396 2.5759 -1.6569 -0.4236 -0.47968 -1.4594 2.3669 0.50373 2.2355 -2.7654 1.0667 2.151 -3.4566 -0.31312 0.47284 4.4572 1.4569 1.875 
M106 -3.0416 -3.2912 -1.474 0.37538 -1.4607 -0.95654 -0.85453 -1.0398 0.413 -0.60074 0.82573 1.4936 0.6995 -0.65076 -1.6715 -1.8537 -1.4957 0.88226 -2.0388 -1.2327 -3.2246 -3.2773 -0.90903 0.71209 -1.1045 -0.39324 -0.60919 2.143 1.6314 0.62846 0.11681 1.0322 
M260 1.3313 1.8048 0.68255 -1.2503 -1.041 1.4058 1.6391 -1.0189 -4.5156 1.1884 2.3106 0.71768 -2.5471 -4.4309 -3.4007 -5.1504 0.035183 -1.8204 -2.2888 -2.0935 2.4864 -0.23088 0.58587 1.0708 0.9054 -1.3876 -3.0644 0.22151 -0.56111 1.8635 1.8172 -0.5208 
1(N08A) 1.1291 4.8852 -0.34329 3.8058 1.9816 -4.659 -2.096 0.50804 -0.47654 -1.1223 -3.034 -0.3604 1.0765 -0.63918 0.32104 0.3753 0.79253 -0.52486 -0.64089 2.6687 -0.31445 -1.3396 0.052185 1.1075 -2.9737 0.85994 -4.9273 -0.23279 0.37642 1.5217 -1.9284 -0.86122 
M240 -3.2148 3.0326 -0.16645 1.7274 1.0262 -2.7678 4.1627 0.44384 -2.2821 -1.6421 1.0297 0.507 2.3522 -0.90471 3.5799 2.5081 -0.60283 -2.0192 -1.807 1.7329 0.40065 -0.83747 2.3927 3.6278 -3.8918 1.4673 1.9843 2.6968 0.76177 1.8707 2.9619 3.5723 
M005 -0.57765 1.2094 -2.8417 -1.4065 3.1667 1.515 -1.0857 3.7099 0.38174 -0.7084 0.42067 -3.0686 2.6808 -1.874 2.3051 3.3583 0.14592 1.2058 1.4822 1.5316 -1.1416 -3.7774 -1.1089 1.6409 1.0712 2.3166 -0.95334 1.5262 0.60026 -1.2852 -0.6929 1.9548 
M149 2.9229 2.3247 1.5106 5.164 1.6981 -1.683 -1.285 3.0965 -0.20922 -0.12494 -2.6776 0.45474 -1.4858 -1.039 2.1718 -3.6792 -1.2001 2.1372 2.0249 -0.46255 0.907 0.20544 2.3988 0.23309 -1.5371 2.8022 -1.4445 1.3461 -0.83625 -0.23662 1.3662 -0.68908 
M024 0.88395 0.99606 -1.0014 2.5178 -1.0897 -1.9657 -1.3993 -5.9716 -0.43605 -1.6576 0.81824 -0.42167 1.2571 -0.48524 -0.32118 -2.397 -3.6903 1.1486 0.090803 2.4602 1.0676 0.16748 2.0621 1.1076 -3.0278 0.11793 -3.3673 -3.4386 0.35839 2.9462 0.40728 1.9942 
2(N45) -2.3425 0.59291 -3.26 -5.3899 -3.0338 2.2222 -0.44286 0.66629 -0.97438 4.1324 -2.1988 0.078465 -1.8114 -0.92386 1.7777 0.14755 0.35736 0.91851 1.031 2.5433 0.53855 -3.8626 -5.3548 0.16692 3.6103 -2.7098 -2.797 1.1927 0.025598 -1.3818 -1.355 2.6849 
M317 -1.3528 3.4462 5.0123 1.5299 -1.4374 -0.9613 -0.95883 -1.2346 1.4441 0.2756 1.7719 -3.0031 0.20197 -1.373 1.4913 -4.8469 -0.13868 2.1086 -0.53318 -2.2375 0.39386 -0.78341 3.9206 -1.5997 -1.9565 -0.88836 -4.0873 -0.79268 1.6224 0.24433 -0.21967 3.0047 
M295 2.7385 4.3802 2.7172 1.083 1.3549 -1.6788 3.0075 -3.2907 -3.0128 1.9074 4.0592 -0.92613 3.2023 -2.0943 -0.38443 3.0812 -1.0991 0.52176 -2.4652 -0.29181 -4.6957 -2.7135 1.5857 -1.3732 0.061067 -4.1527 -3.3145 -1.0383 -1.7039 -0.57996 1.0221 3.6225 
M111 2.6507 -3.0375 -0.63909 2.2369 -3.1447 2.4008 -2.1509 -0.27659 -1.18 -3.3182 -0.22876 -1.2066 1.6879 -0.76252 2.4806 -2.4843 -3.2732 -1.6174 -0.20655 0.40839 -2.2567 1.8129 1.6373 -1.5683 1.9215 1.8459 0.72346 0.16134 -1.7485 -3.0393 4.0445 4.1466 
M243 4.585 2.7104 -3.1884 3.0082 -1.8899 -0.50113 3.5397 -0.92197 -2.8994 -4.8298 -2.6571 3.2212 -1.0628 -4.1901 -1.3268 0.49717 1.2237 1.2032 -3.2912 1.4375 0.44663 0.022912 -0.19398 2.0103 0.9073 2.0013 1.2818 -1.0471 -0.27374 2.3896 -3.4042 0.5466 
M153 -0.48256 0.63707 2.1489 0.78021 1.0468 1.0654 -2.2773 -1.0968 -0.89343 0.91857 3.8621 0.25394 2.7694 1.458 1.9559 -1.07 -0.0089186 -0.33221 0.42361 1.1122 -3.9108 -1.4114 2.214 1.0918 0.58156 1.7883 -2.3134 1.3304 -0.72922 0.91327 0.060733 0.33069 
M365 -3.2889 -2.7219 1.3777 -0.89597 -5.5362 -2.8027 -0.15445 -0.49914 0.65566 -0.6873 -0.3793 -3.4266 0.53936 0.78809 0.75983 -0.47716 -0.38063 -0.67117 3.5461 -0.36076 1.4595 -0.7414 -2.4692 -1.5159 2.7659 -2.3681 0.079439 -1.0122 1.3208 1.1869 -0.74182 3.3987 
M304 -1.8422 0.12379 -4.2294 -1.2531 -2.862 -0.6689 0.94569 3.0643 0.75876 -3.5752 3.5208 -1.5816 -0.87325 1.1862 1.2512 -0.76857 -0.36271 -0.80436 -0.31461 -0.11512 -1.7314 -0.7354 -1.1525 1.3837 0.39406 -2.4856 -1.4346 -2.7107 -0.12833 -2.1987 1.4293 0.54116 
M264 5.2854 2.9614 2.5014 -2.1822 3.1254 -0.98505 0.38947 -2.5202 -0.21779 -2.1802 -0.23534 0.39607 -2.4119 -2.53 -0.427 2.0766 -5.6906 -1.9849 -1.2262 -2.4951 4.9573 0.55754 -0.51426 0.44216 -0.32076 -2.8417 0.70092 4.968 -0.61131 -0.86795 2.4659 -2.6842 
M309 -2.5321 1.9429 4.1775 0.031904 -1.2082 -1.2959 4.4133 1.2058 0.78133 0.013246 -2.7105 -4.1111 -0.75296 -1.0402 -0.8546 3.7437 0.031958 -1.1753 1.132 0.64234 2.9842 -0.043678 2.9112 1.1728 3.6298 2.1477 0.99741 0.82245 -2.667 0.12263 -1.8494 1.7272 
M292 -0.83195 2.1824 -0.28817 3.2701 4.4054 3.1587 -3.0471 1.2439 -0.90798 0.20845 4.2822 -3.9285 0.36081 1.9617 -1.1869 1.7328 -2.7761 2.0714 1.4126 0.74735 1.7662 -4.9336 3.2669 1.908 0.1209 3.2132 -3.8131 3.9927 0.49338 -1.5035 -0.54483 0.21859 
2(N34) 1.0387 -4.4755 -4.3006 -2.5392 1.5483 2.1183 0.21353 1.4971 3.8275 3.6767 -0.088267 4.2244 -1.9773 -1.2691 -2.0349 -0.56099 -0.4131 4.5063 0.61331 -1.6764 -0.95053 -3.1241 -0.52207 0.33135 1.9604 -0.65747 -0.5694 2.0268 0.52038 -3.5634 -2.4719 1.4253 
M101 0.71325 -0.99778 -1.0105 3.1979 1.2559 -1.1941 -0.88467 4.8139 -3.9938 1.5439 2.4774 3.9605 1.1313 -0.39996 0.062935 1.317 -0.77388 -4.0639 0.95422 2.8409 -3.0086 -2.7968 5.318 0.092812 3.6683 3.6937 -3.1881 0.89974 -0.84266 1.1159 1.1682 2.7782 
M146 1.4819 1.0506 3.6576 -2.1977 1.954 0.27787 1.5487 -0.75105 -0.41504 -0.66017 2.0206 0.073406 -0.081315 -3.1358 -0.76349 0.12123 -3.0267 -1.1566 -3.8108 -0.40548 0.3151 -1.634 0.70665 1.381 2.8479 -1.6612 -2.1024 -2.0617 2.3327 -2.2201 1.1736 6.582 
M320 0.92644 1.9566 2.4811 0.73421 -3.0397 -2.9861 -2.2966 -0.30359 -3.9469 -1.8324 1.5503 -2.1437 -4.0798 0.2715 0.032607 -1.1704 -0.9542 3.0939 -3.675 3.2481 -1.0055 0.84499 0.52285 3.8044 0.69913 -0.13212 0.89252 -1.8037 -1.4609 1.1232 -0.76555 0.90623 
M145 0.26346 -0.12967 3.2498 0.93873 0.60355 -0.24706 -2.5613 -3.4783 -1.6768 0.4537 -0.76461 -2.4313 1.5764 -2.2481 2.4847 -0.85271 1.1045 1.3565 -1.5549 5.0156 -1.8961 -3.2768 1.8428 -3.7857 -1.8918 0.54452 -2.2861 -1.0809 -0.84236 -1.4339 -0.63643 -0.032093 
M242 0.30797 4.0369 1.4837 3.1287 0.68774 -0.75171 2.0277 -0.64703 -0.53134 -1.129 1.9632 -2.1935 1.7333 0.15868 -0.19594 -3.7201 2.8628 -1.8386 -1.5859 -0.50337 -0.27837 3.5343 0.49657 1.8835 -0.96164 1.1678 -5.9352 2.5676 -1.0841 0.84189 1.7787 4.8202 
M362 -0.88745 -1.3794 0.052966 -4.4245 -0.55101 -2.2858 -2.1495 1.5877 3.0226 1.5034 -3.6174 1.0054 0.072338 -0.4203 -0.34613 -2.7781 0.82273 -2.5775 -1.4329 -1.8724 -2.9537 -1.487 -0.20389 -2.1908 3.8717 3.539 -0.79213 0.79154 1.9883 -2.8099 2.0886 -2.2147 
M318 -0.60856 -2.3841 3.1022 1.9627 1.529 -1.8036 5.2641 0.074359 0.13514 -1.0281 -3.0887 -3.1905 3.1566 -0.76123 -2.6756 -3.0559 -4.9282 0.83932 -4.081 -0.075747 0.18646 -1.6932 2.1695 0.79202 -0.42862 3.2932 -0.61757 -0.53314 -0.94698 2.4137 2.6914 3.4431 
M380 2.3019 0.93175 -1.7633 2.1759 1.1305 -2.5379 -1.5885 -2.0722 -0.58824 -2.6585 2.9539 0.16269 1.4034 -0.13225 -1.8366 -0.71142 -4.3017 2.9974 -1.6613 1.2613 0.66326 1.9731 0.014558 3.8794 3.645 3.4977 2.1165 0.41853 -1.7259 2.0576 1.4593 2.2128 
M097 2.2512 -0.35486 0.93821 1.3851 3.8822 -2.1567 0.96208 -0.92384 -3.1143 -0.47791 0.80896 4.1792 -2.0644 -3.8473 2.4342 -0.18338 -2.3504 -1.4056 -4.5728 1.4558 -3.1784 2.4973 -2.07 0.89779 2.7394 1.3499 -0.94759 2.3851 1.8801 4.8216 3.1638 4.3268 
M131 0.40676 2.3192 -0.045107 -0.85191 3.75 0.48827 -2.0749 -1.9142 -1.3955 -4.2073 2.2754 -0.85716 -2.6872 -1.7375 2.6339 2.3439 2.1478 1.2382 1.4958 2.6326 -0.24006 2.9753 -3.9021 -0.53845 1.9517 2.7633 0.94668 -1.3894 1.1483 1.1301 1.5468 2.6673 
M338 1.1721 2.6255 2.5 0.98479 1.6783 -3.3678 0.79268 -0.22907 -2.613 -2.8625 0.51015 -0.13954 0.70526 0.24143 3.8002 0.28073 3.4261 1.3991 4.513 4.0917 2.3181 2.9926 -0.61351 1.506 0.40418 4.7184 -1.7647 -3.3815 -0.79165 1.9006 0.68137 0.41167 
M006 -1.2906 0.65094 -2.1073 -0.60971 -1.079 -5.0477 2.0374 -1.3586 1.5155 -0.40453 -1.6584 -1.9671 -2.4881 -0.75415 1.5679 0.39923 0.69337 1.9154 1.1887 -1.1241 2.7868 -3.3065 -3.2262 1.2098 4.0079 -0.74322 2.6355 -1.0233 -0.9669 -4.2425 2.1647 -2.4109 
M002 -4.7162 -3.2744 -0.98748 -2.7574 -1.9203 6.7949 2.2941 -0.76648 2.1496 3.8769 2.4807 5.2576 -2.3839 -2.4645 0.19161 -1.4156 -1.8615 1.6224 0.68476 -0.34875 1.1257 3.1229 0.55983 0.94452 -0.43828 2.6146 2.3995 -1.5162 0.84731 -0.35075 -1.9445 -1.8672 
M223 2.7232 3.5759 -2.2734 -0.78512 -0.43005 -1.5235 3.6327 0.53707 -0.90727 -1.3095 1.5791 -3.5355 1.905 -1.8022 0.91517 -2.5084 -0.59682 1.5116 -2.7157 3.6385 1.3165 -2.625 2.2722 2.16 -4.4676 3.9854 -2.4298 0.98265 -3.2845 -0.27168 3.4365 4.178 
M327 1.0368 -3.6078 -2.1136 -0.44149 -1.1198 -1.0955 -3.5992 6.0621 -0.35891 3.3041 2.4094 0.5431 -0.38664 3.5208 -2.9063 1.5863 -0.5359 -0.35386 2.6366 -0.63176 -2.3608 -1.2368 -0.096072 4.3711 1.8012 2.7164 0.17038 3.2927 -1.9292 -1.4151 -1.5338 -1.5262 
M254 2.517 3.0461 3.3797 3.3208 -1.5782 -3.7094 0.85315 -1.5683 1.0447 0.4971 5.0121 2.6114 -1.503 2.4573 2.0478 -0.72212 -0.45056 1.3709 -0.42575 3.0269 0.90057 -0.78715 -2.3505 -0.42806 0.22862 -0.70625 -4.1042 -1.6484 1.2788 -2.5436 -2.2033 0.12348 
M210 -2.5328 -2.3973 0.69992 3.8874 2.3197 -0.54165 0.023086 1.9957 3.4999 -0.92353 -1.7959 1.3516 -0.93511 -1.2777 -2.8878 -4.183 -2.5557 -2.6782 -5.9284 -1.3028 -1.3233 -0.81618 0.34251 -1.0661 3.2739 3.2193 -0.45564 0.73163 2.7941 0.71511 0.29308 2.9632 
M325 -1.0627 4.6259 0.16854 -3.3943 0.81898 -0.02403 2.8264 -0.33651 -2.2129 -1.2979 3.576 0.22418 -2.1731 -0.15786 -0.84144 3.4593 -0.49545 0.27958 -1.58 0.76748 -0.65102 -2.7258 -2.8974 -2.9101 1.4902 -0.19615 0.68853 1.887 0.5517 0.74494 2.5553 3.1982 
M075 -4.284 -2.4699 1.3495 -5.4699 -2.3843 -3.7185 -1.3453 0.9431 -0.056102 -0.77975 0.7928 0.054766 -4.8319 -0.20818 3.3317 2.1039 -0.12685 -1.3777 -2.9999 2.5276 -1.578 -1.9708 2.0957 -3.1339 -1.0734 0.5157 1.8699 -1.2611 -0.80581 0.67057 2.3386 2.037 
M348 -2.6894 0.78479 -1.0389 -1.8968 3.7136 0.86342 -0.87772 0.43604 -1.16 4.2065 1.0245 -0.55906 -3.1723 0.73699 -5.9304 1.8466 2.4067 -1.53 -1.9973 0.63317 -2.5709 -4.4918 2.5989 2.4119 -2.3201 2.1469 -2.5426 -0.33177 0.71724 1.8418 -1.4734 1.5612 
M341 -1.1128 -0.14794 0.31515 -3.3784 -1.5862 -3.5345 3.366 5.0714 0.54641 -1.2155 -2.6074 -1.6431 -2.2979 0.10427 -3.3569 2.7607 -1.5685 0.85045 0.21578 -0.92226 3.2651 2.7011 -1.6218 -2.1313 -0.47209 1.1611 2.3913 4.1658 -3.7339 0.566 1.781 -0.41995 
M384 -2.921 1.9384 -0.82744 -0.88879 -2.4104 1.706 -2.315 4.1314 -2.7876 2.1279 0.49304 4.606 1.2797 -2.3215 0.40786 -0.057062 -0.7368 -1.0411 -0.64087 -3.1449 -2.1361 -1.0287 -0.86861 1.1821 -2.839 0.020566 -3.1341 0.59076 3.77 -0.067625 -1.2813 -0.94755 
M314 1.6821 1.1624 -1.0897 5.3098 2.1224 -0.57409 1.1624 2.0439 -3.6575 1.4705 0.00721 -2.4407 -2.0811 -0.33655 2.1496 6.333 3.1924 0.20441 -1.14 -0.35293 -2.5748 0.73113 2.7524 2.9133 0.2884 2.4451 -1.2461 -3.0899 -1.1438 -4.3538 -0.068132 1.278 
M099 1.4238 -0.17772 0.76447 1.7635 -1.3431 -2.4522 0.19883 -3.3777 -5.3134 0.86359 3.0396 -3.9407 -1.2421 -0.67176 1.5079 1.5694 0.92822 -2.0463 -1.9308 2.3344 4.5956 1.7073 -2.7011 6.1828 1.3556 -0.53555 -0.39096 -0.96545 -0.90555 -3.7112 1.4067 -2.2034 
M136+M365 0.53598 -2.1932 3.3357 -2.954 0.26734 -0.30685 0.29456 -2.6318 1.7341 4.459 -4.4237 2.3884 -0.95482 1.8733 -0.8947 -3.3391 -1.6931 -4.0899 -0.41892 -1.6314 -2.0946 0.12791 -2.5849 2.1754 1.1156 -3.4877 -2.0543 -2.1773 -7.1879 1.9657 0.41623 0.73684 
M081 -3.7698 -4.9117 0.4454 -0.64766 -0.92996 1.1999 2.4525 -1.7106 1.1627 -2.5499 0.026312 -1.5654 5.6605 0.23744 -1.4599 -2.7145 -0.58765 -2.9863 -1.4509 -1.5869 0.27265 2.7289 -3.043 -4.1824 2.5686 0.011001 -2.7481 -2.071 -0.90069 -2.4998 2.5141 -1.9636 
M033 -0.19766 0.69331 -1.8956 5.2383 0.68092 -1.9586 3.8311 -2.2534 -1.3752 -0.11894 2.2219 -2.0229 -1.3793 0.4763 -2.5483 1.0154 -6.6386 -0.17769 -2.6154 -3.864 2.047 3.5668 1.6406 1.4781 -2.4337 -1.7696 0.12869 -2.2603 -2.541 1.565 4.1111 -2.4726 
1(N39C) -0.0029025 0.48567 -5.3669 2.8721 -7.709 3.1513 1.2258 0.81148 4.3322 2.7478 -1.7731 -0.31564 -1.4405 -0.68832 -1.427 -3.7899 -0.52474 2.2076 -2.3276 -0.66176 -4.9244 0.33799 -5.332 -2.2979 1.6661 -1.2577 -0.96076 -0.78257 -1.4463 -3.5856 -3.9319 -1.9448 
7(N14) 0.042335 -3.7977 -2.7615 -1.2495 2.9081 -0.55231 0.84276 2.0892 1.374 -1.6267 -1.7744 -0.71615 -2.7575 0.8281 -0.84623 0.016491 4.1002 4.0711 1.9365 -3.4443 0.33391 -2.4547 -4.9021 0.69446 -5.4666 -2.8467 -1.2272 1.7461 3.2956 -2.3482 -1.2901 0.064114 
M217 1.9614 1.1781 2.5428 0.64789 -0.088311 -3.1904 2.4771 -0.62716 -1.1031 2.0434 -2.4137 -4.6521 -3.0447 0.85656 3.0951 1.9112 -1.7068 -1.0078 0.43519 2.2373 -3.2287 1.2733 2.2103 -0.27245 -1.3538 -0.021024 -0.80651 0.075789 -4.323 1.9301 4.2175 4.758 
M329 1.2291 -0.73734 -1.3743 3.3277 0.25824 -1.8526 1.2169 2.967 -2.7721 -3.7658 2.2247 -0.26816 4.0929 -2.2313 1.2066 1.4623 4.4331 -2.7941 1.8962 2.8395 0.87189 -0.57428 4.7923 -2.4702 1.5242 1.8611 -2.0687 -3.6869 -1.5123 -0.42989 -0.85485 3.2779 
N 0.74448 -3.595 -2.0699 1.8899 -4.0035 1.2437 -1.4442 2.3713 2.2773 0.15391 -1.1257 -1.9049 -1.9404 -0.38081 -1.1256 -1.4777 -0.99992 2.2314 1.1205 -1.4466 0.83464 2.0821 -2.277 2.5659 0.68231 1.6183 1.4615 -3.8486 0.51385 -1.0014 -3.8373 0.099119 
M128 -4.9734 3.0266 -0.15235 1.7329 1.679 -2.3687 0.99373 2.2061 0.31223 0.41297 -0.3867 0.96314 -0.16887 3.3039 -2.2218 -0.53224 1.6777 -0.31051 0.93519 6.0728 0.51884 1.1737 -3.5891 2.6334 5.0585 6.8759 3.2592 -2.196 -0.86938 -2.7383 2.7605 4.8105 
M139 -0.41389 0.84182 -1.0313 1.1095 1.278 4.0126 -5.573 0.18821 -3.264 -4.1267 3.1953 -1.4476 -0.55847 -1.4728 -1.9203 1.338 -3.967 3.934 3.2354 4.3901 -2.7197 -2.2663 5.4012 0.85374 -4.1205 -0.47977 -3.9466 0.48776 0.069862 -3.2673 0.98606 5.0711 
1(N23) 0.74392 -1.2628 0.098328 0.40846 -2.4032 -1.7033 -5.1386 3.174 -1.03 3.9622 0.72089 -3.1914 -2.8714 1.2804 -1.8281 -2.403 -2.1322 -4.868 1.2792 -3.3978 -1.2261 -1.3274 1.1399 2.5976 1.4748 -1.0704 -6.0145 0.1433 3.935 -2.7862 2.6222 3.7983 
M301 5.1721 -0.49682 3.0153 -1.6098 3.3131 -0.59676 -0.53742 -0.82311 -0.64949 0.13155 6.3685 2.0738 -3.9596 -1.6698 3.0569 -0.17844 3.9374 0.76689 -5.2922 2.5598 -2.5277 -1.4279 0.91906 -0.97798 2.4873 2.6763 -0.2407 -0.20068 -3.2274 -0.85653 -0.75297 1.0543 
M029 -0.24135 2.8493 -0.6761 1.4178 -1.0427 -2.9366 -0.11492 0.88675 -2.0501 -2.6506 0.77981 -3.1604 -1.9697 -0.53653 -0.30665 -2.298 0.93428 -0.39484 1.6294 1.447 -0.018962 -1.7741 1.2897 -0.90318 -1.8806 -3.5558 2.5774 -1.3808 -1.9325 1.3671 2.8274 3.6419 
8(N14) 2.8377 -5.5063 -0.94572 -3.2812 -2.8821 -0.88082 -2.082 -1.2723 -3.0177 -2.3591 1.4006 1.1284 -5.019 1.0459 -5.0589 1.5803 4.8774 1.6792 1.6644 -1.3335 -0.87962 -2.494 -2.8812 -1.5116 -0.45847 -2.2498 -1.9181 3.9739 2.6698 0.54017 -4.0034 -0.087545 
M265 1.0309 1.9576 2.2128 0.22711 -3.9462 1.3209 2.7574 1.0388 1.0957 -0.51131 -2.1459 1.1735 4.5781 -3.003 2.0419 -2.8968 0.64122 1.9712 2.465 -3.2355 -1.8001 0.40944 -2.3441 -0.28255 -1.917 -1.5043 3.5083 -2.8109 -1.2872 -2.3382 -1.2821 -0.76109 
M372 4.6249 2.0595 2.0339 4.4073 1.7526 0.33817 -0.12477 0.44966 -1.4359 2.2741 1.461 -2.6716 2.5026 3.3101 2.507 -0.55297 4.5053 -1.3391 1.1037 -1.0369 -3.0992 -0.050539 -2.7383 3.2802 -3.1896 5.5135 0.96976 1.4212 -0.024412 -0.76676 0.54393 0.95523 
M332 1.6769 -1.0462 1.917 1.3461 5.5749 -2.0148 1.7695 -2.2111 1.9964 0.3836 1.6377 -0.32172 0.19393 0.4154 -3.3752 3.0917 -2.4344 1.7213 0.66206 1.3833 1.19 -0.91086 4.6503 0.79763 1.3971 6.1162 1.845 0.66304 -2.1862 -1.5492 2.0288 2.0279 
M041 0.042988 1.1538 -5.2367 -7.1427 -4.6746 -1.6043 5.5473 1.219 0.63423 -1.1973 1.7339 -0.21671 -1.6335 -1.0802 4.1777 1.6907 1.5762 -0.29737 0.33222 -1.4396 -2.711 3.3426 -0.85629 2.5359 0.4207 2.221 -3.7775 1.3246 3.0899 0.41955 3.348 2.8501 
M218+M288 4.9934 2.3899 -3.9851 0.32417 0.46812 -0.25026 2.8603 2.4996 0.12948 2.3622 4.7614 -1.6426 -3.2455 -1.5151 -1.4647 2.6772 0.56383 -2.8906 2.2572 1.6655 2.5877 -0.12181 -1.379 -2.5922 -0.3531 -1.0194 -0.91024 3.765 1.2018 2.1308 -0.38474 3.1215 
M046 1.6014 -0.37369 -0.8573 -1.9483 -2.7114 -4.5972 2.6951 0.36912 -0.34633 0.8742 2.8232 1.9486 3.7748 1.1397 -2.2673 2.9586 0.78033 -6.6242 0.057553 -0.23875 -1.4289 -1.8641 -2.0959 2.227 0.36713 4.9726 0.72303 -0.62674 3.1114 -2.3973 1.5504 -2.3124 
M327+M342 -0.74669 1.3472 -1.5427 -0.074346 0.32924 4.0797 -2.7261 0.37624 -6.1483 2.5472 0.96561 -1.9289 -5.5729 -1.2648 -1.9706 3.365 -0.24441 0.51789 0.36595 -0.65781 -5.8945 1.579 0.44035 0.8223 -1.2215 3.5064 -1.8858 1.4226 -1.1771 1.986 1.9456 -2.8219 
M175 -2.3711 -1.0761 -2.3539 0.49556 2.6863 -0.17851 4.1963 7.8091 -0.21806 -2.5593 2.8354 -0.16394 -0.34494 -5.8795 0.67341 1.4191 -3.1581 -0.54956 -1.307 0.35404 2.967 -1.6692 -0.11437 0.6238 3.3688 -3.1692 0.57071 2.2457 1.6813 -0.22212 0.23905 2.7477 
M266 -3.9768 1.0205 -0.67273 -0.22755 0.067431 3.7799 6.4198 0.73121 -1.1671 -1.8061 -1.3393 0.39979 0.59651 -3.3981 -4.528 0.56069 -2.5059 -2.2038 0.055369 -1.2836 5.5121 2.279 0.94065 -1.6197 0.43835 2.1771 3.7893 -2.3735 2.7846 0.71342 1.4734 0.26278 
M051 -4.5857 0.38449 -1.1683 4.305 1.0697 -1.6044 -0.42992 1.0556 1.1163 0.035053 1.8103 1.503 -0.49786 2.3209 -6.0929 -1.6293 -4.4827 0.74582 0.081149 -2.5527 -1.0366 3.0977 -1.7328 4.7599 -2.0809 -0.18015 -2.7037 2.326 2.4981 0.66448 0.69343 -1.997 
1(N30C@B) -0.26559 -2.6086 1.0909 1.6888 -6.9202 2.9862 2.3845 -1.6756 -2.3318 -2.584 0.65949 0.78779 -0.52005 -0.84385 -1.0725 1.9784 -3.5856 3.4803 -1.9648 -0.75974 2.8506 4.9762 0.3812 -4.8167 0.14113 -2.975 4.645 -0.79326 -2.4206 1.8265 -4.8068 -4.0314 
M195+M057 0.41015 -1.0771 -0.017712 1.6741 -0.18497 0.6613 -1.5933 4.1915 -2.6286 -2.386 4.9062 -0.4323 0.88271 6.6884 -0.75532 -2.3823 -3.597 3.5582 2.1752 4.4118 -0.044238 -6.2659 3.1295 6.4943 -2.9791 1.8671 -4.2606 4.0559 -1.8222 -2.1075 -0.080229 1.6259 
M296 0.61228 -2.6093 -0.18023 -0.47083 -0.97098 -1.0433 1.5064 1.9005 -4.7281 -4.1486 -2.8051 2.9497 0.086466 -3.1804 -3.4734 0.93014 -3.9683 3.8143 0.942 1.7329 1.991 -1.2984 -0.82873 2.0911 3.7748 1.1316 0.74995 -1.531 1.9566 0.67094 -1.1796 -0.70065 
M391 -2.9906 2.9663 -0.96309 -2.9934 -0.50057 -2.1835 0.31538 3.2027 0.92852 -2.6297 0.017965 -0.47686 -3.2004 -1.1082 -1.507 -0.30099 -1.5404 5.1341 0.20503 -0.23915 0.74032 -1.8838 -0.10371 0.040773 -3.035 1.4844 -2.3188 1.7208 0.20165 -1.0822 1.5616 0.68856 
M390 1.7918 -1.0794 -0.69197 2.3074 3.7107 -5.8964 -0.36597 3.8773 -2.5478 -1.2398 3.9503 -2.5501 0.13478 -3.1438 0.66851 0.53735 2.3439 0.49944 -1.635 2.8649 -0.6548 -3.3689 2.582 -0.20535 0.4069 2.031 2.8973 -1.9053 1.9434 -0.18063 1.7001 0.24894 
M281 2.1028 4.4912 -0.6232 4.2367 4.1665 -0.08441 2.4013 0.29736 -5.8626 -1.8099 0.20279 1.521 3.3079 -1.7204 -5.3048 2.5225 3.0086 -4.0937 -2.3712 2.2418 0.67092 0.17685 1.1133 0.76258 -2.4933 1.9786 -1.9329 -4.4629 -1.4341 -1.4701 0.76858 2.0194 
M195 -1.22 0.36735 0.28648 3.1965 -0.92693 -3.5377 -7.3286 0.46021 1.2994 0.90475 1.5429 -2.2807 -0.19349 4.4736 0.33292 -0.13951 0.1084 0.52991 -1.1641 4.217 -1.1481 -2.9839 -1.0278 -0.96466 -1.7502 2.4789 3.6682 3.6034 -3.0656 0.12888 -0.86579 3.5099 
M106+M288 -2.5546 1.0024 -0.70273 -2.2429 -1.2303 -3.0051 2.7684 1.5445 -0.63456 3.1626 6.4289 -0.27546 1.6998 -1.8468 -2.0656 0.52673 0.48243 -1.3348 1.2065 2.6832 -0.092732 0.62334 -0.1365 -1.9167 -1.1956 -2.2907 -0.26801 2.8947 -0.46122 -0.32045 2.7119 3.1994 
M246 -4.2687 -1.6958 0.40125 2.9524 -1.1546 -3.1085 -0.15114 0.29168 0.9118 -0.69578 -0.27578 -1.3049 0.30225 -2.8782 2.6464 -0.40534 -1.9503 0.20059 3.5693 4.2335 2.6614 1.4792 -1.2876 -2.2235 2.2195 -0.7279 -0.85413 3.6277 -1.0964 3.6 -0.24981 2.406 
M147 2.6362 0.36638 0.60889 0.30522 4.8604 -1.8231 -3.7279 -1.158 -0.88295 -3.6352 6.0056 -0.13701 3.0037 -3.4362 -3.5324 -3.6575 2.847 6.3054 -3.9615 -0.64713 0.25147 -0.55609 1.5649 2.8057 -3.4574 3.0827 -4.0259 6.0563 1.4681 -1.0869 -0.74306 2.0331 
M207 6.0458 0.67769 -0.26032 1.5896 2.8156 2.0476 -1.3058 1.3105 -0.17927 -1.1806 -0.39891 2.7681 1.4029 0.43483 -0.63391 -2.2506 -0.90535 -3.4218 1.7305 -1.0758 2.5328 -6.2751 -3.6635 3.4942 -3.6151 0.023817 1.4455 1.2329 0.099917 1.4622 -2.0465 2.4118 
M247 -2.3669 -0.43295 -2.5435 1.746 0.27356 -3.0332 -1.6939 0.40103 3.1429 0.14956 -3.8519 -4.0891 -1.5046 -1.3686 2.8367 2.553 0.0679 -1.2491 2.1077 4.3054 -1.8896 -0.27582 -4.4558 2.7938 1.724 1.0412 1.5927 -4.4683 -1.7225 2.4326 -1.8974 4.2126 
M105 1.9705 -2.4119 0.19481 0.33419 -2.7846 -2.1179 1.0474 0.0057463 -0.61957 0.63732 3.094 3.8535 0.2449 -2.4413 0.097261 0.42456 -1.2061 0.86298 -1.7734 -1.9441 -3.9474 -1.1157 -0.095289 2.4122 3.7573 0.16742 -2.5142 -3.0518 2.8567 -0.85581 -2.9636 -3.2856 
9(N14) 4.421 -3.5018 -2.181 -3.1452 -3.2648 -1.6189 -1.3431 1.9485 0.3268 -4.2411 -0.37601 0.48619 -5.0714 1.2434 -3.0004 -2.8505 1.8822 4.637 0.78643 -0.067247 -1.8169 -1.8919 -1.729 0.77215 -0.83259 -2.3648 -3.6261 -0.55264 -2.2733 -4.5631 -0.76131 2.639 
M351+1(N14) 1.4394 -1.3063 0.32725 0.81464 -0.032977 2.1209 0.54095 2.0217 0.95992 -1.3753 3.78 0.024282 4.0422 -2.192 2.5624 2.7666 -0.25019 -2.8083 -1.1421 -3.1687 0.51989 1.2978 -2.4739 0.34255 1.1376 0.54744 -1.4879 -2.559 -0.95362 -1.632 -2.523 -0.32439 
M250 0.46937 2.9542 -1.946 5.8278 2.0205 1.9842 3.6527 0.80592 -2.5122 -2.4771 3.9319 -2.975 -1.8626 -0.54342 -0.70971 -1.4322 -0.23355 -0.46262 1.2246 2.5194 2.3988 -0.97629 -0.76943 0.96362 3.4246 -0.12354 -0.14634 -1.2025 0.85769 -2.7713 2.3465 1.159 
M383 -3.2743 -0.23882 -0.24476 -2.6322 -2.7001 4.4557 0.76374 1.6693 0.68806 -1.0315 1.4913 1.0714 -0.089608 3.1813 -3.8655 -4.5008 1.2904 -2.5381 -1.3844 -1.0117 -2.9407 -0.57618 -0.00057325 2.1465 -0.49824 1.3232 -0.47804 -1.7912 -2.5245 -1.2675 0.25607 1.7002 
M122 -2.5127 0.14782 2.5691 2.4915 -1.7477 -1.8167 -2.6092 -1.4107 0.63513 4.5128 -0.51662 -2.9633 -1.3837 1.7134 -1.0042 -3.4832 2.805 -0.87156 -2.2699 -2.4254 -0.014833 -3.9361 -2.9192 -4.0629 -2.0678 -0.26573 5.2461 -1.0583 0.27546 -3.6733 1.7114 -0.060779 
M296+M296 -1.9444 -0.98127 0.17821 0.54257 1.2491 1.7638 -2.216 -2.4254 -2.9656 3.3488 2.7894 -0.24017 -0.062411 3.6886 -2.3555 3.175 1.774 -7.3507 -0.65164 3.0119 1.7453 -1.0572 0.8291 -1.7872 -3.6065 1.2137 0.72305 -2.8257 -1.4977 -8.2161 3.9044 -1.6197 
M321 -0.34706 -2.4642 0.80217 -1.8022 0.81693 2.3601 2.7498 1.5889 -2.6179 -3.7187 -0.84979 -2.5097 -0.8566 0.22695 -2.5854 5.8579 -1.1604 -1.2079 3.6369 -1.9047 0.27325 -5.4547 4.9987 3.2656 -1.4143 3.2108 -0.58705 1.5561 0.6439 0.96881 -0.90654 1.9386 
M374 -0.097997 2.3116 1.1047 1.7897 -2.7374 -5.0271 0.87687 0.65572 1.4858 -0.40987 -7.2262 2.3521 -6.2265 -1.1925 0.063076 -1.8045 -1.6851 6.1901 3.3451 -1.8704 0.054508 -3.4289 2.8466 -1.6976 -1.9858 0.13061 -0.97045 -3.7374 0.097923 2.6438 -1.7447 0.81973 
M340 -4.1953 0.44386 2.228 5.8555 -2.7317 -2.5639 0.62968 -2.1019 -0.31458 0.19195 4.6188 -1.3028 -0.76789 1.7949 -2.2209 0.75824 4.6591 1.9512 -3.3072 -2.5555 -3.7144 -1.7593 -0.22355 -3.2968 2.4102 -0.32217 3.9568 1.1271 2.206 -4.8894 -1.3078 -2.1111 
M112 -2.2398 -3.4293 3.0112 3.3136 1.3896 1.8478 -1.8502 -3.2118 -1.0526 -2.6134 2.7556 -1.7791 -1.4433 -2.9436 0.48274 0.14729 2.5376 -1.8734 -2.8884 -1.0267 -2.7618 5.1495 -0.24409 0.00087055 -3.851 0.29529 0.80478 -1.6491 4.1363 -0.68342 -0.34668 0.031486 
M103 -3.0689 2.6843 -0.034571 1.165 7.1067 -2.7347 -2.1565 -1.6967 0.011885 -1.1174 -1.0531 -1.8929 -2.6983 0.5066 -0.93551 -0.79934 3.6321 -0.54769 -4.6214 2.3746 1.3441 2.3658 -0.27501 -0.33454 -5.1867 4.4747 0.94048 -3.7042 -1.1867 -1.8426 4.5181 -0.31003 
M251 -2.9093 1.6685 -2.3104 -1.2348 -0.28982 -5.4584 -4.9812 -3.2692 -1.8484 0.54971 2.5994 0.78551 1.4176 -2.0928 -5.1821 -0.5887 -2.6434 4.644 -0.057451 0.44782 -0.52428 -2.9596 0.98123 -1.4052 -3.6663 -1.1051 0.18567 0.85138 0.099546 -0.54361 3.9036 4.2469 
M110 -1.0693 4.2543 1.4209 5.5194 0.19032 -6.1558 3.6248 -0.46991 2.5932 -4.2614 1.7225 2.6426 0.36525 1.4376 -2.5683 0.016724 -3.0648 1.6132 -2.0765 -0.28626 4.817 0.10222 0.76906 -5.4322 1.0875 2.347 -3.2325 2.8599 0.70144 -3.8625 3.4314 5.3972 
M228 1.8536 1.2459 -2.3946 -1.8762 -1.0057 -1.3876 -3.9533 0.85158 -2.9931 -5.893 3.9182 -0.0054683 0.18143 -3.6877 1.7658 0.59603 -1.7284 -1.5755 1.0835 3.7174 2.9809 -2.1192 3.0771 -6.1271 -1.0672 2.906 5.0953 -1.4166 -0.2085 -0.38347 4.726 1.7795 
M230 1.237 1.6907 3.7369 3.1099 -1.692 -3.0041 3.5119 -5.0735 -4.8853 -1.6027 0.81325 -0.38813 2.2114 1.1943 -0.56674 1.936 3.8782 2.0214 0.080398 -2.7197 -2.5106 -0.24595 1.0629 0.20369 -3.986 0.65182 -1.5737 3.7573 1.5206 0.73031 1.1199 4.1215 
M417 2.5373 -0.96006 3.1269 -1.5914 0.78737 -3.6573 2.3003 -0.41322 2.4033 -1.6397 3.2126 0.1958 1.648 0.59379 1.7192 -2.6746 2.9262 3.2698 4.3636 -4.2756 -1.8851 1.2924 -1.0218 -1.4826 -2.7714 1.1423 2.834 -0.39094 -2.233 0.74358 2.4739 -1.1953 
M131+M388 -2.3771 3.9888 4.1541 5.5414 4.6284 -1.6283 0.74944 -1.3706 -3.1499 0.78232 4.4429 -3.0605 2.3933 -1.4786 -6.7389 1.2358 3.0608 1.2053 1.536 1.8804 -3.1884 -2.7839 4.8453 -2.6535 1.9592 1.8245 -1.6329 2.9749 -0.040081 4.927 -1.8116 3.284 
M049 2.9797 5.282 2.6638 2.596 1.2879 -0.57031 -0.8776 -1.6941 -3.3562 2.4201 1.3556 3.6719 1.1231 -1.8718 -1.2742 3.187 -3.0915 -0.54304 -0.054155 3.9476 -1.4592 2.8764 1.7397 4.0426 -1.4366 -1.7634 -0.7815 -2.3655 -1.1147 -4.0421 0.29571 3.0437 
1(N24@B) -3.0138 -0.54699 -3.1732 -0.57971 -4.3981 6.4481 3.2023 -2.5929 2.7541 0.67708 0.53954 -0.88532 2.2132 -0.68372 -0.40326 -2.0919 1.826 6.7889 0.24289 0.98719 0.49778 2.5411 -0.31594 -5.2518 2.1317 2.1987 -0.06767 2.9387 -0.28269 0.36629 -5.9177 -4.7919 
M248 -1.0816 -0.56386 2.2942 -0.31742 0.31075 4.7418 3.9818 0.52596 -1.7922 -2.7773 -0.27711 -3.0364 -0.73069 0.57415 -4.9628 -0.19801 -3.2059 -1.6912 3.8299 5.1881 1.36 3.9221 -5.5974 -1.7297 3.8805 -1.0084 0.76242 -0.36089 -0.0031937 0.61898 0.81234 1.5953 
M039 -0.65176 -3.0242 -3.2361 -1.7238 -2.8946 -1.2523 3.252 1.2535 0.91233 0.72425 -2.1183 0.8652 1.4706 0.80222 1.3296 1.4251 0.28378 1.4591 1.1548 2.8828 -4.0656 -3.8571 -1.6457 0.50281 6.828 1.5317 -5.758 -1.3151 -2.2271 -1.9362 -2.1558 -0.19727 
2(N30C@B) -0.6322 -1.7215 -3.2573 -0.70956 -0.94067 7.9772 2.5624 0.21413 0.99569 -1.8476 0.203 -1.0564 -0.0063335 -0.085195 1.3877 2.1367 -6.5461 2.1581 -2.1071 0.31064 0.29132 5.3952 -1.6108 -1.2912 -5.6962 0.63449 2.3227 3.465 -3.5468 0.48438 -0.0031027 -4.545 
M305+M342 1.3054 -2.5687 1.6913 1.6634 0.58856 -2.503 -1.9382 2.0182 0.32499 -3.0674 3.6724 -0.4546 0.13731 -1.4643 3.0473 1.2817 -5.0176 0.58413 0.38693 -0.99949 1.4412 0.72754 -0.2618 -0.6152 -2.2725 -5.9394 -1.9801 -0.48453 -2.1397 -4.6451 1.69 -0.71446 
M305+UNK -3.4582 -0.22729 1.3727 -2.9638 -0.6558 -0.4936 1.6841 4.9552 -2.3068 2.4821 -0.37287 -1.3854 -2.2074 -1.3585 -3.4779 3.0773 -5.2071 4.4558 4.7591 3.6713 2.697 1.193 0.81043 -1.035 0.26507 2.2089 1.7154 -2.5074 4.4755 -2.5264 1.755 -1.1281 
M125 1.3636 -1.863 -0.45576 0.59998 3.5523 -0.44777 -3.0473 0.99854 -3.8894 -1.2235 -3.3515 -4.3483 2.2114 -3.1959 1.2446 0.18529 -1.3471 -4.7065 0.33081 0.20373 -0.21019 2.1079 -4.7433 3.1675 -3.4819 -2.1789 2.6232 -1.138 -1.7973 2.7575 2.7063 -1.8963 
M302 1.245 -1.4596 1.9735 0.30727 -3.6605 -2.716 -0.10329 3.3759 0.20996 -4.7326 1.1165 -4.6927 -2.6357 0.74155 -0.99295 -2.642 -1.9655 -1.2326 -2.5723 -3.3595 6.283 -3.2835 -2.4611 -0.13013 -0.68081 -2.0726 0.84675 -1.7987 -0.57333 1.1114 -1.1387 2.4909 
M050 -0.93368 -1.0273 -1.5911 0.61424 -0.55613 -3.8722 1.5504 -1.6143 -3.6803 -1.4875 0.33826 5.1812 0.92562 -3.1596 -2.0726 1.0183 -3.9077 3.1467 -1.7103 2.8037 -3.6714 0.76551 -3.2429 -1.795 -4.7294 -2.8437 4.2161 1.8262 0.28763 0.94242 2.0608 -5.9733 
M319 -6.73 0.13117 -3.5811 -1.8104 1.7941 1.2006 6.085 -0.66073 3.3305 4.4056 0.67923 -3.0702 0.88784 -1.8412 1.8274 2.642 0.40615 0.39841 1.6176 2.1558 -2.4056 -3.8779 0.89995 1.9518 1.6868 -4.4023 -7.6048 1.0034 -1.3814 1.3895 -2.7192 1.4846 
M220 -0.10545 1.338 -6.6958 3.6239 2.4825 0.67331 2.1379 0.47586 -0.53289 -0.45984 4.5247 4.2352 -1.1313 -2.7465 -0.44214 0.53787 -1.004 3.4267 0.70169 -0.94174 -1.5162 -0.13015 2.5299 3.2132 -0.023516 3.257 -1.7742 -3.6036 1.8277 -3.7934 1.9499 -2.8064 
M069 -0.2573 3.7514 3.7199 0.92646 -6.11 0.55648 5.2541 -0.96514 -1.8625 0.25497 -3.1751 2.7585 0.83419 1.466 -2.3146 -0.77326 -4.0353 -2.769 1.8571 -1.5795 -2.4461 0.016448 -0.93258 -2.6161 -3.4354 -0.37229 1.4976 0.3773 -0.78572 0.28687 2.1632 -2.1027 
M323 -2.0723 -0.76594 2.3887 3.3011 -0.5766 -1.0339 -2.5708 -1.5341 -4.2367 -0.18666 -4.7021 -2.4404 1.3614 0.084009 2.8536 4.7672 0.55552 -1.8927 -0.23622 0.96977 -3.0106 1.1992 0.90147 -3.9244 0.082707 4.235 -0.44651 -2.3232 2.8914 -5.3024 3.8673 1.4645 
M379 -3.7282 -5.7676 -1.6034 0.65312 0.27696 -0.33576 4.9491 2.5581 1.3778 -0.56005 -0.8861 3.5008 0.33239 -0.15449 -0.40954 -0.36666 -1.856 0.98936 0.21664 -2.3356 1.4111 4.1628 -4.0844 0.39729 -3.45 1.6979 4.182 -0.55101 3.5319 0.11477 1.2266 -3.6833 
1(N14@B) 0.60574 -2.3563 -1.6306 4.2488 -4.2802 -0.28773 -5.0739 -5.4585 -1.4173 -1.6803 -2.4598 0.26511 -1.45 -1.2291 2.0419 -0.89167 4.459 3.2477 -5.536 -5.1993 4.0374 3.6057 -0.99632 -1.8939 5.5235 3.7993 -0.38088 -1.3746 3.6847 -4.5483 -3.45 -1.1542 
M261 1.2346 3.9686 3.8834 1.2761 -3.2174 0.072271 5.6307 -0.059723 2.2506 -5.1542 -2.1528 -1.3223 1.6547 -4.3237 1.1039 0.75592 -8.0355 1.9643 2.4763 -0.14304 2.0206 -1.7034 1.6011 -3.1011 4.3898 -5.4284 -0.35736 1.9777 -2.8551 -2.7148 -0.93076 -1.5219 
M073 0.16175 -1.7917 -0.56089 5.4073 5.3304 -2.4073 -2.5761 -5.3252 5.192 0.6476 2.9007 -0.29162 4.9824 -3.0191 4.6201 -0.054699 -2.3154 1.5963 -1.6572 -3.175 1.9561 1.6553 -1.8021 0.21415 -4.2689 -0.43749 -0.63289 2.4784 0.50854 -5.3927 2.0507 -1.7341 
M418 0.25163 0.39355 2.3236 -1.1921 0.27588 -3.0946 -2.7282 0.0016905 2.998 1.0653 -0.83062 -1.4931 0.60717 -2.5371 -1.7823 -3.965 -0.81816 -0.44124 0.58681 -1.6676 -4.9201 -2.5663 -0.58362 -2.6682 4.8601 -0.74149 -4.1489 3.3064 -1.1011 -0.19987 0.93404 -0.092578 
M153+M342 3.5977 -2.4801 4.6909 1.56 0.73705 -1.949 1.5111 0.27834 -2.8354 5.4652 0.46248 -0.28769 -3.7386 1.5096 1.3932 1.2421 1.1194 2.1012 -0.29101 2.9011 -2.2411 -2.9014 2.5935 -3.735 1.726 4.5194 2.7936 1.4545 -0.45474 -4.8782 2.8111 -1.0636 
M286 -2.98 -0.60673 -3.7622 -0.29708 -3.2483 -3.8235 -3.0807 0.48114 0.12394 -1.4902 -0.46813 2.6718 0.8948 0.2096 0.82098 -0.25597 -3.5696 -4.1308 -0.67751 2.9117 -3.5134 3.4209 -4.8474 1.5727 -2.3494 -5.1727 -0.26702 -2.265 -3.3202 0.72696 1.8564 -0.78375 
M260+1(N24) -1.7963 3.8052 1.4321 3.1294 1.0917 2.4581 0.68476 -3.8574 -3.2122 1.2018 1.3449 -2.4144 0.33856 -5.9426 2.6425 -3.7897 0.54165 -2.543 -1.6263 -2.4221 0.55232 -2.2235 0.72708 0.64694 -2.8917 1.3819 0.26838 -3.2091 4.1197 5.0756 1.327 1.5322 
M080 -1.8723 1.3737 4.9928 -3.8138 -0.78859 -2.7084 0.2492 1.0236 -4.1149 -2.9883 6.3613 -0.036092 -1.4183 1.4036 1.6487 -2.0157 4.5897 2.7912 -1.4938 -2.075 3.7743 -0.61883 5.849 1.0631 -4.2934 2.6282 -5.7418 -1.1791 -2.8418 6.5078 -2.5656 -3.1681 
M278 2.0817 3.4007 -3.0678 -0.70081 -1.522 1.6923 3.1302 0.27587 3.6282 -0.37485 2.8053 2.9546 -1.6696 -1.2779 -4.3946 1.2881 -4.3939 -2.0245 1.0191 0.0334 1.2885 1.9535 0.095885 -2.4661 -0.14267 -1.4966 -0.52749 4.1535 -2.7146 -2.8194 0.56522 -1.9648 
M205 -1.3538 2.6283 -3.5915 1.0768 2.2049 0.53071 0.080877 4.775 -2.2975 -2.9838 -3.419 1.1249 3.7918 -5.1553 -2.5325 3.1893 -2.612 1.1161 1.1174 -1.9992 -4.4166 -1.7288 -0.46571 -4.2799 -1.826 0.48959 -0.56232 -1.6173 3.0933 0.67075 1.1425 -0.28003 
4(N34) -1.7999 -3.4107 -6.6953 -4.206 0.48643 -0.86244 0.90451 0.13334 4.7535 3.958 -1.0083 1.3435 -0.10374 -1.9522 0.23195 -0.116 3.8984 0.025079 -0.61748 0.062583 -3.649 -2.6895 0.92417 -0.59686 2.8748 0.40219 -0.71071 4.5197 -4.2649 0.22467 -1.5837 -1.1919 
M036+1(N14) -2.8046 -0.18212 2.9583 1.6612 -2.9718 4.3479 -0.37754 -2.5783 -2.2033 0.90379 -3.8342 -1.7052 3.3989 -5.9599 -3.8431 -3.5703 -3.308 -1.9465 2.8206 4.3765 1.935 -3.0199 0.25219 -1.1517 8.325 1.2618 0.83029 -1.6161 0.21716 0.96791 -2.6481 2.0218 
M327+UNK 2.9578 3.9974 4.9975 1.5256 2.5005 2.1131 -0.33275 1.0942 -0.49657 1.7527 3.3885 -3.659 0.054233 -1.1765 -2.278 3.8421 0.34494 2.635 -0.028779 -4.3225 1.7484 -6.0457 -1.0745 4.0196 3.7624 2.1421 -4.281 3.0425 -0.24988 -1.432 -6.5556 -0.28805 
1(N51) -0.26145 -6.4086 4.2291 -4.1266 -2.9644 -0.44058 -4.569 -0.33581 3.4084 -1.3862 1.4022 0.36953 -2.2575 5.7822 4.1765 -1.3436 1.0649 0.72551 4.1469 -5.541 3.166 -5.2123 0.0028834 -3.0477 4.7296 -0.16939 3.8626 -2.1595 -1.2587 -4.9068 -0.32063 1.9281 
M044 0.90226 -1.457 -3.8684 0.97417 -1.9197 0.49422 -3.3799 -4.6202 0.98838 -0.75647 -0.16229 7.6128 1.5882 -4.1943 5.1767 -0.46771 3.3411 2.0085 2.5514 -0.81634 -0.22756 3.86 -6.5417 0.37358 -3.2267 -4.2775 1.7251 0.47928 -2.698 -0.2342 -3.4815 0.025357 
M291 4.8949 0.86356 2.3173 1.0018 -1.4539 1.7622 1.132 -4.0272 1.1113 0.64603 3.0875 -1.5683 3.1759 3.7184 -7.5374 -4.6179 -1.8939 0.12069 0.72613 -4.3846 2.2773 -8.3427 -1.3143 1.132 -3.6197 4.0243 1.2176 -4.1919 1.5365 -5.807 1.002 0.32371 
M316 -3.9334 1.4824 2.2756 -2.4977 0.56712 -0.18926 2.6688 1.0214 1.9634 1.3075 -0.99899 0.58564 0.8142 1.0922 1.8327 -2.4524 2.7709 2.1227 1.1373 1.8665 -1.4222 -0.084879 -4.7289 -4.169 0.65763 4.0787 1.7947 -2.1259 -1.8699 -0.19688 0.8066 -5.446 
M109 -1.7943 5.1883 2.8503 -1.439 4.0916 -2.5214 4.5346 5.3141 -2.3166 3.1273 5.4972 0.62309 2.1451 -4.0831 7.5292 3.423 2.2817 1.9862 5.4102 -0.46941 1.4272 0.37756 -4.3116 2.7378 -1.8402 -0.13704 -1.5336 0.95568 0.12022 1.7505 1.6787 2.7701 
M136+UNK -4.9698 -0.49949 -0.05004 -3.6397 -0.4734 3.8138 -1.3759 1.8193 -3.2009 1.6493 -0.31627 -0.58056 -2.2622 -1.5343 0.47711 -0.69472 -3.8593 -2.0815 -2.0719 -1.7988 0.57825 -2.4267 -3.9834 -0.34921 1.6066 1.0034 1.3872 -2.4868 1.732 -1.2137 4.4283 0.88275 
M249 5.411 -1.496 3.3438 1.0226 2.2268 3.4988 -3.1438 2.5539 -0.036489 -0.65592 0.12609 2.1308 -0.62048 -3.8828 3.5518 1.312 -0.38697 -0.38642 -3.5064 4.7803 -0.26428 1.1949 -0.29442 1.2407 -1.1267 4.3426 -6.8062 -4.298 0.65567 -2.2999 -6.6022 -0.72137 
M158 -0.90489 2.0668 0.63294 -0.81725 -1.7778 0.15865 2.5885 3.5857 0.46579 -1.7942 3.9235 5.6301 -3.8488 1.4465 0.14522 -1.6584 -0.58221 2.7157 4.2382 -3.2398 3.0463 4.9112 -0.351 0.52484 2.7402 1.541 1.3875 0.07289 -4.3172 -0.88543 2.304 1.537 
M285 -3.1713 0.078211 1.3461 1.6565 -4.9958 -1.3771 0.20868 -4.0578 -1.7912 -2.9103 2.9033 -3.7285 -1.9952 2.1769 -0.47838 -1.1978 -1.3153 -2.4788 -5.8399 -0.38663 -2.9494 0.34444 -1.9072 4.1646 2.6926 1.6831 -2.9328 0.72004 1.135 0.48306 1.6324 3.4262 
2(N23) -2.3749 -2.9853 1.2994 -4.668 0.95728 1.7243 -1.887 4.4395 5.5682 3.998 -1.6846 -2.6794 -1.6284 2.0218 2.4904 -1.9033 -1.9051 -5.9201 0.092531 -3.5998 -1.8378 1.082 -2.6432 2.3693 0.21042 -1.4174 -0.3427 0.4476 0.032741 -0.78477 1.4499 2.3687 
M370+M072 3.2422 -1.1956 0.44064 -2.7563 -4.1028 -3.2141 0.84579 -1.5479 6.0735 -0.45413 3.001 1.8168 -1.9596 -2.0121 2.6955 -1.3761 -0.98877 -1.0814 1.7048 -0.95013 -2.2509 -0.022998 -0.47553 0.99537 -1.1762 4.9206 3.9496 -1.586 2.9186 -2.3961 1.3048 1.1647 
M193 -3.2389 3.451 0.82401 3.3413 0.30158 -3.8742 -0.19066 -7.9916 -2.2155 0.13748 -3.5056 3.3119 0.53568 -1.4771 -0.67813 -2.4572 1.5861 -1.0654 1.1657 -2.4418 -1.9581 -1.5565 -2.7987 2.1092 -0.80356 -3.6254 3.2077 0.37244 -3.8166 10.567 -1.3016 -0.76013 
M328 -3.274 -2.1296 2.197 -3.7438 -3.0256 -1.6527 0.27192 -1.0807 -1.0346 0.57321 -0.33311 3.6036 -0.64249 -3.1678 0.9465 0.032048 -3.5476 4.4597 -1.6383 -1.3765 -1.1575 1.8381 1.3636 -7.0089 0.54779 -0.72977 -7.0926 2.7304 0.074251 -0.9389 2.0737 -0.92537 
M369 -3.9968 -2.0681 2.1339 2.9535 -2.5166 -4.3566 -1.7941 4.4083 2.6 3.6504 0.49046 -0.86626 -3.1568 -0.90167 -1.015 0.027166 -0.37265 -3.5773 2.9886 -0.41901 2.0431 4.7119 0.97691 2.0772 -0.719 -1.1964 -0.36012 0.26502 2.4565 -0.5642 -1.1028 3.3369 
M209 -1.556 3.6182 -1.1062 -2.3638 2.3752 -0.24307 -3.4366 -2.117 -0.39088 0.16929 4.1834 -0.85337 0.097307 -1.9534 -1.8271 -1.4198 1.8338 -0.71707 -4.681 0.32872 -6.593 -2.1528 -4.6097 1.3262 0.059467 0.44416 -0.73803 -2.1015 0.36662 -1.9859 2.2333 0.10437 
M221 -0.23383 3.7964 2.9093 5.4517 -1.5078 4.0169 0.19339 0.06667 -0.87684 -5.6957 1.141 -4.9895 -3.0505 -0.063934 3.2906 -2.707 0.39885 -0.50851 -2.3092 -0.21492 -4.5522 6.0172 -1.8881 2.5832 -6.4699 1.4128 -0.96905 -1.8138 0.21414 -1.0209 1.764 2.6958 
M377+M320+M377 -0.040826 -2.8677 -1.6852 -5.2124 -1.3853 0.14805 -2.1828 -0.9195 0.30289 -0.43901 1.1669 3.666 -1.264 -1.8414 -0.27039 2.3895 -2.7703 2.4915 0.85641 0.19616 -2.5423 -4.1354 3.8616 1.6147 -0.59298 -0.2043 0.49911 -3.185 -5.928 0.6801 -1.7704 0.047991 
M252 0.4815 -0.73227 0.80168 -1.5966 -1.191 2.3449 -2.9778 3.3232 -0.74822 0.91666 -0.16108 1.5737 0.7489 -0.53597 2.8968 0.10715 -0.87919 -3.3246 3.4766 -0.68275 -2.6646 -3.3648 0.45226 0.38386 -0.36483 0.81438 3.6812 1.9384 -1.0971 0.46541 0.059964 -0.85326 
1(N8B) -2.7078 0.20992 -2.1402 -3.601 -0.29528 -7.0645 1.3151 5.1669 4.7788 1.3395 -0.078485 -1.9434 0.79292 2.7635 2.5285 2.3909 -4.6103 -2.058 2.7461 3.1834 -1.0485 -3.6689 -0.94048 -1.4203 -3.1876 0.12452 -5.4151 1.5816 -1.9113 3.9402 0.62753 -2.8915 
M195+M038 1.9388 -3.5986 -4.0186 -0.88006 1.5181 2.7766 0.50834 -1.9242 1.1718 3.2075 0.66396 1.6244 -2.5858 5.6751 4.4845 -1.0565 0.10798 2.3494 4.3008 1.1305 -0.1776 -7.7662 -2.6469 -2.739 -4.2638 5.6545 -1.8756 1.5618 -4.5161 0.75138 2.5517 1.1325 
M315 -2.6092 2.0559 5.0379 0.71398 4.0618 -5.5077 -0.20352 -3.3242 -3.4005 -0.98047 3.3267 -2.7928 -7.7664 4.3981 -3.588 3.841 1.0534 4.2295 -5.2136 6.0479 0.13383 1.2719 -3.6861 -3.0577 -0.86379 3.198 -0.55494 2.0729 -2.2728 0.38203 1.7204 -4.9814 
M293 -3.6604 -0.29046 -0.46779 -0.27987 -1.9858 0.22285 -1.311 -3.7939 5.789 0.098226 1.1738 2.2664 -1.5839 -1.8004 1.3536 -1.9904 -3.7578 2.3623 -0.41735 -0.051464 -2.9689 -1.139 -1.3175 -3.3751 -3.6782 -2.9935 2.4016 2.7483 -0.49659 0.99012 0.033557 3.8484 
1(N01@B) -0.093229 -7.9957 1.0542 5.9811 -1.9839 1.8107 1.9687 -2.8216 2.7535 2.0829 2.2312 -1.1505 2.2003 3.7944 -2.5818 -0.46116 1.1294 -1.1814 1.5931 1.0664 -0.4121 5.0689 0.18489 -3.4819 -0.97053 3.7767 1.1508 4.5963 -3.3836 -0.84176 -2.6617 -5.1884 
M157+M131 -0.33353 -1.2711 2.6842 2.5277 -3.2026 0.9565 -2.6625 0.42964 2.257 -0.18261 -3.5073 0.62223 0.30043 0.075322 1.6794 6.5907 -4.509 -2.0726 3.2938 0.78618 -1.1295 4.4668 1.0105 1.5575 -2.1177 1.9544 1.1408 -0.46295 0.82845 -3.4121 -2.5871 3.3551 
3(N34) -1.6479 -3.0128 -5.3509 1.4495 1.2388 -2.5436 -3.4038 0.8114 4.1381 2.8636 -2.8336 1.8132 -3.6946 -3.3353 0.66424 -3.5743 3.9351 1.5997 -6.5116 -3.225 -6.6491 -3.1315 -0.1353 -1.8279 0.40275 -0.0764 -0.12355 1.5035 -4.5809 -1.1029 -0.44967 -0.1381 
M006@G -2.0809 -2.2753 -0.45836 -2.2558 -1.3166 -1.8687 -1.8518 -1.1661 0.59327 2.3447 1.9037 -1.3293 0.59715 -1.8258 -0.45563 -1.2704 2.4882 -3.2655 1.1862 -3.3598 -4.3057 -0.71733 -2.0034 1.1669 -2.7711 0.026379 0.0078708 0.31443 -0.35358 0.023514 1.9076 -2.5269 
M370+M388 -1.1181 0.56741 -0.71016 -0.32554 -2.0129 -1.1605 0.68931 -0.98272 1.6059 2.3336 1.6372 0.3731 0.55399 -2.6014 0.44991 3.3047 0.098108 -0.80833 2.5548 -2.0301 -3.4815 0.41482 -1.8607 -1.0239 -1.3074 1.5885 1.1327 1.2364 -1.445 -0.30983 0.47768 -0.81447 
1(N39B@B) -0.61279 -0.31742 -4.3329 -0.84857 -3.0815 4.0996 -2.3726 -2.3274 -3.2514 3.8227 2.2348 0.26236 5.0216 -4.3269 -4.2931 1.2557 -0.50412 3.4542 -1.8315 1.4135 -3.9665 0.68449 -2.0079 1.3608 -0.26697 2.099 4.5403 0.4364 -0.0017228 7.0371 -6.5035 -1.8557 
M381 0.83753 0.81286 6.8195 1.1765 0.28375 4.5159 2.0535 -4.0306 0.085638 -1.5816 -0.96718 -1.6435 -0.46945 -2.0676 -0.85153 1.2799 -7.8054 3.0571 4.0077 1.8079 -0.21412 -0.0777 3.339 -5.3924 -0.69395 -2.9405 0.15975 -5.1955 -2.9186 1.9701 -1.6894 -1.0052 
1(N08) 0.24473 5.5992 1.9757 4.3557 0.4577 -4.5764 -0.68671 1.3696 0.72051 -6.0123 0.7065 -1.3246 2.1149 1.757 1.1898 0.71541 -0.62109 3.1206 1.4755 0.1669 4.4319 -2.0666 -3.6183 -0.77905 -6.1005 -0.46861 -6.2583 -2.3463 -0.43194 -2.0732 -3.4464 -6.8852 
M324 3.7046 4.1605 -2.2435 2.4202 -0.066119 -0.010105 -2.9999 2.6229 -1.1289 -4.3307 -4.2482 1.5285 3.545 -2.503 3.0466 -1.6153 -0.69455 5.3319 3.0097 -1.8498 2.2526 -6.1373 -5.371 -6.2069 -0.37622 5.7992 -2.8288 1.2021 4.4307 0.69778 -0.55918 3.6149 
M036+1(N30C) -2.4476 -0.52804 -0.65375 0.511 -7.0413 0.74355 -2.1114 1.1802 1.1324 -5.631 2.4199 -0.66272 -3.4903 -1.1141 3.7402 -1.6211 -5.5766 0.90989 -5.4906 3.4816 3.4654 -1.5027 0.27714 -0.81783 -0.85687 -1.0584 0.30638 3.1121 -0.55037 -0.57592 -3.7547 -5.1206 
M180 -0.4689 -3.3416 1.9072 0.8018 4.3736 2.7754 -0.96553 -2.951 -1.0213 -2.993 -1.9679 7.9545 4.0016 1.2776 3.292 1.0734 -1.2318 -3.9813 -0.31839 1.3999 0.74264 -2.0812 -4.3998 -2.9775 -1.7247 3.703 2.7922 4.9712 -5.6028 5.0258 -1.0931 -6.059 
2(N1@B) -2.6906 -7.676 0.37142 4.1108 -3.4339 5.249 0.90593 2.0333 1.6546 0.61377 -3.3325 -1.1953 0.90546 2.8366 3.9823 -0.031139 -1.1618 -0.87049 2.7967 -3.1905 -0.07335 -4.8514 4.6341 -5.2251 1.5959 6.1126 2.4289 3.4786 2.2012 1.0731 -3.2758 -4.1332 
M277 -3.8993 -2.8673 2.9756 -4.0719 -3.9057 -2.5966 -0.23161 -2.1323 0.0014761 -0.66717 0.83912 2.4202 -0.14747 -3.6867 3.8002 -2.6652 4.0235 -2.8473 2.0292 -2.4237 1.5436 2.5149 1.5428 0.30803 -1.3475 -1.5878 0.53791 1.5513 -0.75123 0.77758 1.3526 2.1077 
M362+UNK -3.3831 -0.92828 -3.8484 -0.24664 -0.24621 -2.8208 -3.8505 -1.1313 2.2945 1.607 0.3161 0.049824 -0.3593 -1.2035 -2.8676 -0.81643 -2.8112 -1.1653 2.106 0.025631 1.1648 -3.9887 0.62848 -2.6703 2.317 0.57287 0.82668 1.531 -0.89594 0.41618 1.1795 -2.2402 
M222 -3.0676 3.8086 -4.1951 -0.56432 3.7738 3.3283 4.0333 -1.4047 1.5922 1.2442 2.6591 -2.0181 2.9038 0.8309 -3.1519 -0.38408 -3.4507 3.0224 0.74425 -1.4552 3.0074 -3.3334 -0.98615 -2.1662 -5.4 5.2982 -4.2884 0.34495 -2.1424 -0.56969 4.029 -2.5226 
M217+M388 -1.0726 1.1459 -1.5448 2.6895 -0.071593 -5.7432 3.1475 -1.857 -2.8338 1.887 0.32722 -1.4146 -5.5961 -0.82638 -2.1457 2.6236 5.3661 -3.9769 6.4034 3.8715 -2.1976 2.6796 2.1865 2.8557 0.66917 2.5846 -1.1214 -2.4477 5.9487 -0.79606 3.9279 5.079 
2(N51) -1.0568 -2.0501 -3.3585 -5.1472 -5.2634 3.8001 -8.0585 2.2851 -0.013092 -3.3836 1.26 -0.77745 -0.13823 -0.75618 4.6932 2.2992 3.2097 -2.5844 2.4658 -0.73832 2.6798 -5.0518 1.7824 -0.83984 2.5911 2.0687 4.5886 0.28442 -0.40383 -8.601 -1.3183 0.33994 
M218+M320 4.2269 1.1598 0.91064 -1.0693 -0.66101 2.1182 6.5599 1.8664 -3.3798 -1.4363 6.1464 -6.5846 2.3404 -2.6606 1.0755 0.17573 -0.52779 0.17474 -0.064935 1.7762 4.5085 -2.2431 -8.2259 -7.2258 2.366 5.3476 0.96181 1.5254 1.8496 4.0439 2.409 4.1004 
M144 -6.2547 0.9309 -0.48959 2.5074 -3.3593 -3.6424 -0.18778 4.7187 0.07193 2.6528 3.7246 0.050434 -2.4899 3.7629 -0.84791 -4.28 2.0497 -0.97681 -2.0125 -0.17972 -1.191 -1.2406 -6.3089 -6.1461 -4.6685 2.1218 -1.2022 1.6286 5.4475 4.4144 0.84632 -0.17836 
M311 -3.3251 3.6082 -2.3003 -1.9513 -3.4585 -0.24397 0.39535 -7.097 0.89 0.98336 -1.574 1.2563 2.7822 -0.59102 -1.279 4.6039 -0.36953 0.68066 -0.40293 1.8562 -1.9597 -1.3189 -1.4294 -0.62078 -0.091119 0.44288 -3.3637 -2.5827 -3.7796 -0.92386 -2.5532 -0.61602 
M053 0.49709 -5.8446 4.1408 0.37533 -1.4195 1.5724 0.19613 1.3644 8.7874 2.0272 -1.3378 -0.28353 -0.83824 2.6896 7.0095 -0.19924 -2.9216 -4.0155 5.748 -3.2631 -0.60202 1.3122 -1.9511 5.9114 -0.27674 1.2377 0.95583 2.871 2.8462 -8.1974 0.41747 3.0237 
1(N48) 5.9444 -0.21963 -3.1798 -7.7744 -5.5336 2.7751 2.5635 -3.2518 -3.1421 5.2601 -1.4418 4.5932 -3.4984 -1.4868 -0.62394 1.1518 1.7498 4.0021 -1.2762 -2.0074 -5.6033 -10.908 -2.3711 -1.9422 -2.3042 -5.1265 3.8306 2.3795 -2.4733 3.519 -5.2665 -2.2874 
M361 0.21612 -0.70795 -4.1966 2.3697 2.3397 1.5388 -0.21507 -3.2408 -1.6961 -0.99494 -4.3477 -1.7469 0.82503 -3.8427 0.026482 -2.1937 6.3047 -2.4299 -4.012 -4.8308 -1.4647 -2.4378 -0.52334 1.3513 -0.029863 5.0751 0.22095 -6.6684 -7.8774 2.289 1.1313 3.7768 
M134 1.8717 2.9486 3.5585 4.4106 -5.2779 1.1213 3.948 0.36964 2.9312 -0.27548 -2.2555 -2.2049 -3.0531 4.7524 -0.80183 -0.26664 -5.0197 -2.4875 1.7218 0.06859 -2.0401 -0.86397 -3.7056 -1.8669 1.2952 3.7025 1.5378 2.4491 0.30079 -0.77217 0.89214 2.9601 
M377+M377 3.9977 -0.62699 0.44738 3.5922 3.5997 0.99524 -4.3761 2.1056 2.1127 6.2142 2.8188 -0.044333 -3.246 6.0095 -5.2866 2.6105 -2.3283 -5.2438 4.427 -4.0287 1.6475 -0.3653 1.7783 -3.3387 -8.7414 0.97909 2.1284 -0.95324 0.88273 -4.9949 3.1495 1.3129 
M152 -2.7949 -0.041087 1.3696 6.1254 -0.19666 0.50275 -1.9836 3.6893 -1.6412 -0.92356 3.7586 -3.5416 -1.3826 -5.4988 6.7883 -5.353 0.53227 -2.8596 -1.2837 -1.9267 1.8502 1.2438 2.0206 3.1424 -6.3098 -3.7609 -0.016388 -1.5241 -4.0266 -1.6736 2.9181 2.4351 
M061 0.81459 -1.5944 0.65789 1.5042 -0.98829 -2.7996 -0.1532 4.7128 2.5438 1.8652 0.65207 -1.7913 2.9238 -2.2619 -4.9392 -1.7406 0.9072 0.71947 -1.4208 -1.1293 -2.7886 -2.1219 -3.4797 -3.1608 -2.0946 0.11519 0.54252 -0.4061 3.2867 -2.6852 -3.2391 -4.6509 
M370+M072+M370 -0.92119 0.19258 1.0696 -0.58461 -2.8825 -2.0597 0.77013 -0.058131 1.1982 2.704 1.1358 -0.20369 1.3034 -2.6405 -0.10499 2.7497 -0.47711 -0.60117 1.2409 -1.5324 -2.2756 0.44662 -1.522 0.33951 -1.1528 2.6817 1.8939 2.18 -1.686 -0.17971 -0.1642 -0.73227 
M310 0.23257 2.4951 3.1039 -0.89553 3.1872 -5.0352 -0.90591 2.2607 2.6735 3.1935 -2.539 1.9452 2.3222 -5.9727 -2.5338 2.9761 1.0663 1.3513 3.8217 -2.5626 -2.4897 0.067864 4.7159 2.3051 2.9446 0.92215 2.0607 0.8838 4.3072 -0.86765 -2.974 0.78063 
M175+M288 -4.0922 2.487 -0.8771 -1.4261 -0.8441 0.74942 3.1657 4.2773 2.9642 -1.3152 2.5934 -7.8202 -2.6497 2.9607 -5.6359 5.7221 -1.2234 -1.5418 -0.95101 -5.2995 -4.85 4.6409 3.9639 0.013704 -4.8403 0.93858 3.2575 2.9985 -3.2291 9.2517 -0.38745 7.6222 
M382 -1.2956 -1.9661 4.7194 -2.345 3.9452 -1.1379 1.2546 2.0733 -3.8791 -2.274 0.25985 2.3682 -1.9567 -5.566 1.1601 0.27422 -0.23377 2.5716 0.6486 -1.0766 1.5868 -0.55669 -2.9941 -2.3834 0.14422 -0.16002 2.5236 -2.3605 -0.38842 3.9327 0.42246 -4.2861 
M035 -2.2418 1.2696 4.1647 -0.19109 5.9082 -4.4451 6.2815 -1.7888 0.26764 4.9025 1.4596 1.0206 4.2361 -6.94 4.3454 -5.1887 3.6245 3.0977 1.2841 3.5062 -0.24696 1.5484 -0.85568 0.59939 4.5682 0.24835 -0.51571 -12.287 -3.8873 0.91913 1.9486 -1.0057 
M312 -4.6326 2.5887 3.5588 -1.2744 -0.99883 3.4631 -2.7036 2.4429 -4.2812 2.7296 -3.6946 -4.1181 0.80702 -4.8375 -2.0985 3.501 1.1543 2.8228 -1.4552 2.4074 -0.15411 -4.8823 -0.74894 -6.2447 -1.6003 1.6179 0.84293 -3.5418 2.5098 -2.8997 -4.0549 -3.5994 
5(N34) 1.0087 -1.2011 -1.4061 -2.5808 0.16684 0.57355 -1.0207 3.9229 0.97933 1.3911 -2.8989 -2.4071 -2.1497 -1.1784 4.6377 0.072524 2.3348 4.8012 -0.90691 -0.35799 -6.4396 -1.8455 -4.1059 -0.82756 -1.3409 1.1633 5.7435 2.0383 -3.1421 -1.2939 0.67171 -0.1869 
N(N01) 2.9667 0.17239 2.5471 0.82317 -4.794 -5.7722 0.14494 6.0724 -1.7173 1.7614 1.607 3.0461 0.28936 1.2342 -0.29281 -0.3937 -1.3658 0.60566 -0.45611 -2.6685 5.1486 1.6426 -3.344 0.60803 -4.3818 2.0021 2.3375 0.55131 0.80019 0.39634 -1.3463 -1.338 
M151 0.94244 2.6381 -0.30874 -4.1129 2.2985 -4.4777 0.4199 -7.0333 -1.8236 0.66032 0.26998 -0.8142 -6.0866 -0.89592 -0.15606 2.6006 -1.3923 1.1653 -5.499 -1.8126 -1.8925 -0.56638 -5.4483 1.924 -0.76597 -0.8162 -4.5772 3.8107 1.4207 0.021476 5.5326 2.9566 
1(N02) -0.75175 -0.29713 2.4312 -0.51191 -0.028334 1.7654 2.0983 0.48077 -4.3341 4.4117 4.3881 0.71189 -1.0363 1.9549 6.396 6.5309 -4.1489 -2.2311 -1.5752 -6.6403 -0.78129 0.29885 -0.14772 5.2471 -2.2433 1.0176 1.4408 -0.3355 5.0399 -3.0522 3.9304 0.046038 
M036+1(N24) -2.1423 -2.7102 8.0125 -5.1657 2.042 1.0372 -0.6423 -0.89893 3.7559 -1.5299 0.37913 0.20925 -9.0309 -0.35169 0.49014 3.6801 -2.1069 -0.23578 1.6381 2.3267 0.85608 2.3731 2.0176 -2.9135 -0.2417 -4.8555 -1.1428 4.2837 -4.6489 0.98174 -3.3746 -0.53211 
4(N1@B) -1.5179 -1.9665 -1.2223 4.3419 -0.91355 2.4247 -1.4004 -0.89073 -0.42143 6.3683 -1.3911 -2.1877 -4.5195 -1.9203 0.030855 1.6191 0.52042 5.1934 -2.4965 -2.0353 4.3851 -0.94431 4.9348 -4.6983 -5.975 -0.36431 3.9314 5.9006 -5.3857 1.7629 -6.0804 -11.454 
M123 -2.5592 3.1494 -1.2319 -3.5718 -4.728 4.251 -3.5715 1.3863 -0.7066 3.5766 -1.7657 -2.2573 -2.7085 0.81135 -4.4357 -3.4899 4.1205 -2.7804 6.7866 -3.3719 -1.1456 -1.4714 -2.6076 3.9785 2.8306 -1.3884 2.0134 -2.888 -2.9864 -0.58773 -0.85315 5.9542 
M375 -2.391 1.2332 0.10207 -1.309 1.58 -1.6416 -0.69569 0.53031 -0.73168 1.3245 -5.1958 2.8424 3.4892 -3.0043 -2.0196 1.5566 -0.66885 2.3386 4.76 -0.49342 0.24648 -3.6945 0.55322 0.25426 1.3939 2.6255 0.55994 -1.5528 -1.6739 -4.7376 1.4186 -1.6919 
1(N) -2.9363 -4.3985 -1.0091 -0.054105 -6.2895 -3.6559 -1.6559 -0.56253 -0.5297 -0.92425 -7.705 1.5023 0.46874 0.14492 -2.7131 -0.84537 -0.77976 1.1085 2.7251 1.3916 2.8378 -4.5828 -0.1303 2.428 -3.2298 2.3564 2.9162 -5.4331 -1.0089 -1.0521 -2.8411 -0.36428 
1(N30D@B) 1.0921 -4.6597 -1.4882 0.11176 -1.964 4.207 0.92755 -3.8756 -0.79874 1.2989 4.8776 -3.0926 -2.1613 -2.8068 -4.1404 0.56223 -4.3757 -0.64915 -4.8181 1.0012 0.85359 3.1101 1.9048 -2.393 1.1611 2.2247 -0.81455 4.564 1.7422 1.0418 -1.3091 -5.6299 
M305+M136 -3.7753 -1.8484 -0.60666 -1.3559 -1.7392 -1.7464 -5.4414 6.669 -2.2573 -3.9239 -0.9328 3.8326 1.4239 -2.3396 1.57 1.7473 -4.1085 0.19255 -1.1271 1.1747 2.4039 1.5875 -1.5806 -1.5493 -1.1698 2.3854 2.8593 4.6941 0.066345 -2.0188 1.9534 0.23647 
M058 3.6871 -1.2079 2.6315 -0.7721 5.8571 -1.9728 0.047705 1.2106 0.11591 3.4411 9.3167 5.1887 -2.0823 1.9234 3.2677 7.5351 -0.92995 -5.9552 -0.9226 4.571 4.0322 1.6406 -7.2646 -0.80977 -0.53187 4.3143 5.4221 0.29717 1.8644 -0.70894 -0.17815 -3.5707 
M327+M059 2.4832 -3.237 1.1287 -2.1988 -1.1667 1.5405 2.4363 4.5247 0.29042 2.0165 4.3441 1.3246 2.7867 -4.6318 -4.1979 0.10639 -4.9048 -0.9874 -4.9483 0.4719 -5.731 1.3253 0.84857 -2.4795 0.12624 -0.026303 -1.3027 0.15028 -2.7291 -1.0554 -0.068755 -0.017949 
M288+1(N01) -2.5752 -0.35094 -7.9671 6.195 4.1451 -3.7234 5.542 -6.7129 6.3101 -0.89465 2.4416 6.5726 0.36582 -0.9615 0.24063 2.0459 2.2425 1.0756 7.3669 -0.25572 -1.5505 4.6023 2.9976 7.7802 0.98941 -0.00040505 4.4156 -1.8734 -0.9475 4.1373 -0.37061 8.7061 
M026 -5.5553 -0.043135 0.43001 -0.72363 0.49893 -1.5141 -3.8184 3.9291 -0.9311 0.12831 5.5781 0.04388 3.4997 -1.503 -1.4407 -1.4768 -0.89664 -3.1267 -3.1454 0.23605 -1.1817 0.056793 -4.9981 2.0188 -0.91566 -0.29554 1.7731 2.6978 1.6917 -1.291 1.3227 -2.6673 
M064 -5.6222 2.4615 1.7613 -1.5995 0.60392 -2.7891 1.8586 0.56788 -3.4119 -2.7121 -0.48981 7.0252 2.9469 -2.0756 -0.80207 -0.72933 1.5703 -0.20055 -4.2467 0.47609 0.54127 -1.8426 -2.2105 -0.0036696 1.3529 4.8141 -1.2047 -3.4067 1.4505 -2.5667 2.1772 -1.3961 
M370+M388+M370 -0.34943 3.1347 1.806 0.47431 -3.731 -0.35357 1.9057 1.8288 -0.53536 0.97853 2.8246 0.80703 0.21097 -3.0481 0.016575 1.2767 -1.7131 -0.87175 0.66657 -2.6491 -3.3381 1.1638 -1.2347 0.62551 -0.89456 0.48637 4.0171 1.5042 -0.28125 -2.1672 1.6157 -1.2584 
M115 1.182 -0.31363 -3.3691 -0.23011 -1.5768 -6.2323 0.39189 -3.0321 -0.69182 0.020816 5.7444 4.5945 5.4953 -4.0664 1.6995 1.415 0.73616 0.34362 -5.4581 2.0353 -3.4088 2.0129 -1.1477 3.9499 -0.63237 0.4462 2.2048 5.2069 -4.1525 -3.6032 2.8559 1.7715 
M214 0.98706 -1.0617 -6.1227 0.76067 -2.128 -8.0993 3.0401 2.0201 0.93318 2.4125 -2.2373 0.57742 -6.3973 -1.6252 0.6584 3.095 -0.20165 -2.4898 -7.4952 1.415 -0.5091 1.0305 6.6005 -0.96134 -7.7028 6.1265 -1.5777 -2.7939 -2.0219 -3.1153 5.149 0.19398 
M370+M046+M370 -1.0467 0.96944 -0.067203 -0.50228 -2.501 -1.4748 0.72916 -0.093117 1.8512 2.5609 2.1316 -0.13773 0.91871 -2.9026 0.020187 3.1118 -0.56673 -0.71252 2.08 -1.5315 -3.3639 1.0549 -1.7108 -0.17238 -1.2563 1.6239 2.0712 1.667 -1.3298 0.098397 0.022644 -0.19584 
M461 -2.7795 -1.4633 7.5274 0.37162 -3.0091 -4.9382 0.46602 0.7362 0.0032096 1.1988 7.8008 0.48603 6.6161 -2.3208 -3.8186 -0.15154 -1.4619 3.5209 3.3621 9.0556 7.7032 -0.81004 6.0677 5.2361 -1.4999 1.4655 -2.0382 0.3801 -3.236 -3.7585 -6.2347 0.93432 
M175+M136 3.7379 -0.54985 2.4279 5.0102 -1.3064 2.0507 1.7379 6.4593 -5.3554 -10.113 -0.41204 -1.3144 7.0057 -2.0435 1.6159 1.2712 -3.3127 -3.6529 0.53783 4.3435 2.9218 -0.10143 -5.4995 -2.4407 -0.76006 2.9353 1.7023 3.6155 -1.4147 6.0156 -3.0695 1.034 
M226 -2.0437 4.3403 0.41476 6.4426 5.9581 -3.2335 2.2733 0.64053 -3.9101 2.3766 -3.0197 1.8846 -1.9832 -3.17 -8.1699 -8.3532 -3.7912 0.44689 -4.0632 0.38424 -2.6985 3.4126 0.3851 -1.753 2.2665 0.50877 -4.2886 -6.8719 -5.2931 6.8655 6.4078 3.6291 
M298 1.0739 -1.8267 2.0499 -4.1087 -3.4439 -1.1572 1.1095 -2.4128 -1.9901 -0.78694 1.5886 -2.5177 0.57112 -3.5277 -0.33635 -1.1357 -2.6645 -1.1327 1.2267 1.4048 -1.2216 0.91607 -5.6784 1.4599 -0.25638 -1.9446 0.82179 -1.6522 -0.1516 0.29401 2.3848 -0.53036 
M143 3.299 2.6321 -2.4976 -0.78505 -5.4456 -4.8715 -2.7464 -7.0685 -1.6497 -1.0235 -1.2108 0.76292 -7.014 0.57673 1.4353 -4.2572 4.1957 0.14662 6.5145 4.8239 2.7116 8.4998 -1.0595 7.6047 -1.2118 0.87958 -2.9183 0.020503 -8.898 0.022258 1.7381 -5.0233 
M047 -0.90457 -0.75376 -0.86967 1.8344 -0.10544 3.7389 2.1229 1.1695 -0.36931 -2.575 5.6217 6.704 3.6964 -2.5796 -0.44812 4.2054 0.78561 -0.47414 5.8608 -1.9103 -0.30321 1.9805 2.433 -2.7184 -5.4939 1.2113 0.35316 3.4505 3.3631 0.98663 -2.4962 2.3668 
6(N34) 1.6826 -3.307 -6.099 0.035342 -7.0689 3.2899 0.038901 2.4269 0.44547 2.3669 -4.3865 -0.54858 -5.4529 -3.1579 -0.10261 -4.8866 -1.3675 1.0057 -3.6626 -2.6522 -3.4743 2.0038 -1.3189 1.1675 2.8847 2.2751 1.0582 2.2736 -1.8519 3.7086 -1.7393 -0.0097476 
M208 -5.3189 0.30376 -1.4577 -1.7783 -1.467 -0.3951 -1.7258 -1.2379 2.1615 2.5599 -1.8919 3.035 0.81569 -0.7132 -3.4806 2.2434 -0.89399 -0.64301 -1.0248 -0.010339 -2.3932 -1.9655 0.86488 -1.7816 -0.27414 -0.6693 -0.77037 -0.36982 -3.8046 -1.0371 -1.905 -0.78381 
2(N39B@B) -2.0485 -3.0785 1.2556 -3.6492 -1.3972 3.8597 0.83725 -5.7981 0.37175 0.48743 1.1097 3.7622 0.5171 -3.2315 0.82282 5.2045 -0.48472 0.70522 -0.59794 -0.33033 -0.32083 1.9853 -5.2395 0.54121 0.85369 -0.71445 0.79297 5.0788 3.3975 1.7289 -5.251 0.45276 
2(N02) -0.91901 3.2236 -3.3338 3.8429 2.977 0.36341 -4.6506 1.6488 -5.4806 0.61954 5.3157 -0.3725 -2.9499 0.38261 5.2661 4.3882 -3.2148 -0.87131 -2.5814 -4.6685 4.7552 -0.73582 -3.589 2.461 -2.5947 -4.5289 0.60234 -1.7961 2.7243 -3.6994 3.4108 0.76726 
3(N23) -3.8893 -1.6335 -3.1891 -1.1966 1.9731 -3.7107 -5.6644 2.5292 2.3864 4.3882 3.7054 -0.60738 -1.1903 -1.0232 0.56978 1.365 2.0822 -0.19143 1.2385 -3.2799 -0.36719 -1.2691 -3.2948 0.9239 4.8644 0.95762 -4.2677 -1.7966 6.8832 -3.0583 -1.0445 -1.5018 
M218+M101 7.2249 -3.62 7.6265 1.9683 7.4906 1.6458 3.9119 2.9903 0.078918 8.3339 -4.1986 0.042314 -1.4709 -4.2401 -1.945 0.54168 -8.5605 4.2256 6.874 -0.36385 0.48679 -1.6239 -3.3399 -2.0924 5.5509 2.5739 -0.42576 -0.30444 5.525 -0.096621 0.13214 -1.7796 
M351 -4.5383 -4.0861 -4.6586 -3.5379 -4.5121 -0.13194 2.8686 2.6516 0.87104 3.5616 -0.67794 4.2697 -1.1563 1.5456 5.6017 -0.21743 2.07 -0.61344 6.6096 -2.4906 -9.903 -8.9539 -0.46993 2.4054 -0.51508 -5.6198 -0.0034718 -9.249 -1.3975 3.9022 -2.8722 -0.14196 
M356 -0.68438 -3.036 2.8669 -0.69732 -5.456 2.4136 0.081213 -1.7887 -3.8858 0.78184 -2.5894 -0.52795 1.5823 -0.1676 2.5723 -3.0782 2.5196 0.11002 -1.7385 1.9305 -1.0152 0.87847 4.4615 2.9136 -3.1336 6.9016 3.3342 -0.61441 -1.2947 -4.3539 1.8213 0.022437 
2(N30D) -1.7116 -2.6391 2.5212 -1.2428 -3.1416 2.7476 3.9239 2.8893 2.7934 -0.58556 -0.034241 4.6491 2.9064 -0.28899 2.4356 2.0745 -2.4279 1.3543 -3.8957 -1.4376 -1.6499 3.4395 0.4135 -0.50307 -4.6698 -1.1446 -1.3503 -2.5314 1.3373 -5.3227 -4.3746 -3.9107 
7(N34) -1.0661 -6.6421 -0.011144 1.0627 -3.7498 -1.838 -6.0321 0.78626 4.4562 3.1279 -3.9839 -1.2148 0.78407 -2.0978 1.571 1.4452 -0.41183 0.44353 -2.1688 1.5924 -5.5209 -3.8828 -0.39747 -2.2293 1.0532 -1.8613 -0.50418 4.5697 -0.32259 -3.1779 -5.7115 2.9622 
M270 -5.0258 2.0489 1.8128 -2.0801 -3.6212 -1.3427 3.9232 -1.6232 -1.6983 2.5981 -1.4498 -0.12731 -0.1261 -2.607 2.6631 3.8357 -1.4654 -1.4827 0.39089 -2.1551 3.6166 -1.7505 -5.1409 1.9696 0.47077 -2.4056 -3.4561 -0.47232 9.0719 1.225 -2.7188 0.053381 
M268 0.54503 -3.3993 1.7052 1.4996 -3.272 -0.26838 -2.2325 1.2325 -2.6835 0.4227 -0.25136 -0.49884 -3.5041 -2.4719 -2.1031 -2.2314 -1.2523 0.36079 2.5028 -2.053 -4.7884 0.59441 -0.32239 1.6049 4.1509 -1.3442 3.6191 4.897 0.74354 -0.87344 0.87446 -2.6397 
M153+UNK -0.19686 -1.7995 2.4594 2.3081 0.89378 -0.50395 -1.7968 -2.1974 -4.1868 1.2479 -2.9078 -1.402 2.4748 0.44741 1.2195 2.4863 -2.0437 2.8568 1.0562 -1.2465 -3.0655 -1.0301 -3.7971 0.33031 -2.7624 6.3458 -0.63295 -0.57905 0.18088 0.97114 2.072 -1.5218 
M290 1.9455 -1.1757 -1.105 5.0356 -2.019 -3.3848 1.8125 2.1592 -2.035 3.5166 -4.1743 -2.2434 -1.5652 -1.0865 -1.3546 -1.8157 1.7438 -1.9517 3.1448 -0.14774 1.3028 -1.847 -0.67493 1.4318 -1.9227 2.7781 4.6789 0.37192 1.427 -0.35215 1.5186 -0.24053 
M393 -0.28152 -1.0066 -4.908 10.663 -1.2561 8.0413 -2.6884 1.0266 0.37562 -0.50294 -3.1977 0.1942 3.879 2.9964 -1.1628 1.7066 -1.7183 0.23607 5.6498 -9.1318 -5.5682 -4.4959 4.8954 5.007 -5.2202 -0.0065055 0.76597 1.7604 -0.98409 -3.5035 -3.1362 3.3817 
M037 -2.0023 -1.3095 4.1368 1.8939 2.643 -2.3343 0.80241 1.0921 1.2487 0.24348 -1.7516 -1.9765 -1.9607 -1.1319 -1.2959 -0.95474 -3.0316 -4.8434 -2.8212 3.3466 4.0489 3.3389 -5.7499 -4.0463 -0.36383 -2.1434 -3.9812 -0.015793 -5.6024 3.4997 0.4193 1.3013 
2(N14@B) -0.80475 -5.2831 -0.96362 3.1466 -7.3593 2.7863 -8.1672 -3.599 -2.3812 -2.0758 1.5116 2.2329 2.8406 3.0159 1.3161 -1.7808 -3.9285 0.92533 1.0254 -4.4523 5.1647 4.2046 -3.3805 -3.7171 1.2292 8.418 0.10648 2.1846 -0.74986 3.758 -0.90923 0.23196 
M176 -2.6922 -2.091 3.1262 -1.8888 -2.6691 0.042086 3.4427 -0.045388 -2.2379 0.33812 -3.6657 0.29173 1.2624 -0.42208 0.53752 1.7157 -1.406 1.4019 2.1954 1.217 -4.4893 0.78513 -2.0234 2.2543 1.4301 0.00098457 3.0819 -3.2721 -1.2334 -1.3428 0.23627 -3.455 
5(N23) -7.7966 0.50362 6.635 -1.8196 0.95162 4.3947 -1.7521 -2.5044 5.4435 9.468 1.928 -1.2265 1.106 8.1575 -3.672 2.2893 1.8279 -4.4636 3.3332 -2.9689 -2.6653 1.0391 -2.0607 5.7288 1.4859 1.9525 7.4903 0.11749 -1.8665 -3.5934 -1.6977 4.6879 
M351+UNK 6.2699 -7.0206 -1.5975 0.51577 -1.8375 -1.0428 -5.5158 3.7422 1.7491 3.2635 -0.13296 -1.872 -0.88024 1.0469 -1.414 2.6756 -1.7966 -5.3647 -0.87143 0.51561 1.9395 -1.3774 0.073077 -1.6286 3.1299 2.9714 3.4117 4.267 -0.10973 -6.6272 -1.2169 -2.096 
M036+1(N39C) 4.1295 -3.0343 0.18382 -0.40047 -4.5633 3.6615 2.1254 0.48896 -4.4943 -1.4213 2.1769 1.9122 4.2592 -6.5824 3.3598 2.8675 -3.5745 0.41678 -2.855 1.8823 -0.54386 1.3993 -1.2716 -1.3424 -1.5152 0.072765 0.75779 2.694 1.3885 -1.5534 -2.7806 -4.7755 
M294 -2.7601 2.0118 1.187 -1.159 -3.3684 -0.50061 -0.19151 -1.2432 0.30991 -1.0021 -0.54966 2.1756 3.5445 -2.3848 -0.94397 0.28837 -3.1103 -3.7076 -3.6325 3.9937 2.0796 2.4627 -4.668 1.9812 -1.5947 -3.1066 5.2839 -1.9611 -0.81965 -0.27037 -3.7822 -4.4557 
M188 0.016791 0.024656 -1.7575 0.40595 -2.7414 -1.7035 0.087711 -0.37959 1.7175 1.4277 -2.9996 0.016365 -2.0969 -0.82262 -1.7412 1.5839 0.74586 -1.4199 -1.0818 -1.808 0.85638 0.51855 -0.95974 1.8886 0.26539 5.0488 1.8125 3.0558 0.051276 -2.0786 -0.54643 -1.5337 
M076 -1.6074 4.2262 -2.9637 1.4309 -9.275 -3.9504 1.2753 -1.5572 1.3119 5.8219 2.8644 0.81086 0.14731 -3.7992 -0.88331 -3.9796 -0.086956 1.6398 0.15006 0.73639 0.52349 2.3704 -1.2987 -2.2401 -1.7273 -3.5722 -0.85245 -1.2159 -1.3232 1.9344 -2.9305 -3.1956 
1(N39B@C) -4.972 1.954 -3.4282 -1.8311 -4.0133 0.48052 -0.45282 1.4787 -1.8581 -1.9118 -1.8039 -5.0203 -1.6593 -3.9221 0.38777 3.8791 3.3907 -0.8992 -0.51011 5.1347 -2.008 -1.4547 -0.34604 -3.7285 2.6155 1.642 -0.8559 -4.7345 1.7206 1.539 -3.6794 -0.082464 
M052 -2.3224 1.5836 -2.9556 -1.0278 -2.5586 -4.5032 -0.70075 -1.7307 2.521 1.6243 -0.61331 3.0274 0.30535 -3.0159 -3.3256 -2.1148 0.15653 -1.2421 -0.33732 -0.23567 -3.6392 3.5184 -2.0723 -1.656 -3.2951 0.92235 0.57047 0.97888 2.4284 0.12228 2.22 -1.8762 
M342 -6.4892 3.4274 -2.212 3.9026 -5.8954 -1.8805 -0.74872 0.90058 2.8671 -0.81518 -2.9315 7.2219 -2.5779 3.0963 0.75799 0.89318 -2.0473 0.83064 2.2488 0.28158 -0.72563 3.1191 -6.2925 4.0061 0.63081 -1.7378 -0.3319 1.8423 -0.83209 1.6517 -4.8075 1.4873 
M175+M175 -1.7397 0.28863 -2.4442 -1.5258 -4.1469 1.1341 -2.0644 1.2908 1.6078 1.5257 -0.75856 -2.7062 -2.2452 -0.14016 1.9986 5.6752 0.7758 0.50046 1.3252 -2.449 -1.6496 0.33424 1.131 -4.9065 -4.7477 -0.51187 0.52653 0.26108 -4.0228 -0.62178 -1.5332 1.1851 
M224 1.9232 -7.5741 0.95708 1.385 1.6096 2.3683 4.2951 1.3978 -2.8569 -0.90814 7.5747 -0.97319 4.6087 -2.7905 -1.0844 1.2081 -1.3319 1.5904 1.5613 -4.6401 1.9559 -5.302 2.1588 -3.2068 0.9729 -1.608 -2.5319 -0.31221 -1.4841 -2.039 -0.15578 -0.28383 
M126 0.47862 -0.0045523 -0.51417 -2.8096 -2.2525 -1.4098 -4.1986 -0.58927 1.8121 -2.2945 1.4429 -4.0931 0.58325 -3.0533 1.3601 0.15016 -0.67116 -0.92552 1.6065 1.6156 -1.2055 4.0958 -4.3207 -1.8034 -5.5077 0.99188 1.773 -1.7963 -0.85589 0.25996 1.3862 -1.0004 
M218+UNK -3.9153 -3.9586 -2.637 -1.3409 0.13119 -6.2274 -2.2389 -2.7503 -1.7817 2.4193 3.3133 0.45663 -2.3836 1.3475 0.66539 4.4258 5.1198 -0.091769 -1.4258 -3.2233 1.994 -7.3033 0.75906 -0.29997 -4.9433 -1.7177 2.5605 -1.6393 0.82938 -2.0394 0.61953 1.3786 
M244 -2.0383 0.077763 -1.3468 2.4077 -4.2935 -1.5969 -2.139 -2.231 -0.49266 2.4579 -2.7608 3.1215 0.9283 0.95857 -2.3208 1.1077 2.9215 -3.0276 1.2329 -4.0527 2.4229 -2.3627 0.96852 -3.0244 1.9033 1.136 -0.83522 3.1471 -3.6181 -2.9735 -1.4196 -0.93343 
M150 1.6254 -1.3964 -1.822 5.9219 6.0428 -1.4498 0.44704 -0.032567 3.6418 -2.004 -0.69537 -8.5841 2.0301 -4.4472 -1.6339 2.7588 -1.9135 -1.4036 -0.47197 3.9086 0.63529 7.516 -2.9181 -0.3022 -5.7223 5.4466 -2.1773 2.7694 -0.25308 5.3563 -0.58317 1.6107 
M305+M320 2.8958 -5.452 -0.12266 3.3017 3.1965 -1.4018 0.11516 4.3712 3.2328 9.4023 0.34727 -2.2903 -1.1024 -2.2906 -1.2582 -2.3853 -1.3411 0.81505 3.387 -0.16971 -2.8592 0.020903 -2.3331 -5.6318 -7.605 1.0257 -1.1092 -1.5722 -0.5589 7.818 -2.3776 -2.3627 
M175+M153 -3.3211 -0.49341 -3.6818 -1.0391 -2.1616 -0.39444 0.88809 -0.33666 0.068915 3.8721 0.33075 0.78062 1.4493 -4.7647 -5.5754 0.79051 -2.5423 2.9078 3.0368 -0.41367 -6.0117 3.1839 0.69994 -1.5872 1.2868 -2.9357 3.3808 -0.098539 -1.039 0.93537 0.20552 -3.7467 
M007 -0.42089 3.9071 0.92737 2.4288 -0.0057828 1.7011 -0.9856 0.96786 -4.639 -5.0586 -1.1753 -1.6255 -4.1236 6.9375 -1.7024 3.5064 7.2401 -8.9313 0.011869 4.4988 0.4004 -0.30515 -5.7904 7.2775 0.28176 2.3492 -2.6701 -0.81283 -4.8755 -6.9347 0.024892 3.2891 
M305+M009 -6.9391 1.0368 -2.5956 -4.0059 -0.082577 0.97813 2.9472 -1.8034 -3.509 0.15262 -1.1281 0.94835 0.65807 -5.9265 -0.3945 5.2629 -7.6667 -3.7982 -4.4217 -2.48 1.2961 4.8328 -5.164 3.1777 3.4696 -8.0954 -5.2252 -1.4486 -2.2559 5.5618 1.3778 4.6879 
M016 -8.1363 0.35572 -3.4619 2.6816 -2.8641 3.063 1.5538 1.7834 0.079145 -0.76729 1.9202 2.694 1.6611 0.25677 -0.17639 -3.4672 -3.885 -0.56456 -2.5702 -2.5903 -1.2134 -2.7347 -0.17052 -3.1129 -0.6203 -1.1502 0.46678 0.49018 -0.31709 -1.0735 2.5626 -1.7895 
M271 -2.8187 2.3971 0.82548 2.3978 -3.6059 0.034215 -2.3816 -3.3624 -4.0404 -0.018428 4.2794 -0.29465 -6.6174 -0.16917 -2.6121 -0.93103 -2.2025 -0.58252 -0.57788 -1.4652 -2.0015 1.4584 6.0859 -0.4716 -4.9642 -0.69127 1.2902 -0.065165 -1.3928 3.1852 2.741 -0.92368 
M385 1.21 -2.1032 1.1351 -2.1438 -2.3046 -0.90169 -2.2242 0.76367 1.9407 2.1165 1.7945 0.21934 -0.70875 -1.9968 2.3795 -0.91796 -1.7185 -1.1836 1.993 2.1464 -1.4461 -4.2286 -1.9251 -0.33898 0.36909 -1.4983 0.4401 0.45837 -3.2752 -2.5335 -1.0518 -2.8123 
M228+M320 -2.7959 3.9996 7.7034 1.7708 7.0404 5.5577 -6.7711 -7.3705 4.4863 0.1717 -4.3844 -7.1339 -6.3379 6.2297 -2.3956 -5.7139 -5.2981 1.796 3.3861 -6.598 6.6702 -6.6498 -1.9244 -2.5776 -1.4428 -1.5255 1.7014 -3.732 -2.4791 -0.10541 2.8842 5.6689 
M228+M101 4.6348 -2.5458 3.4226 -0.43241 4.6391 0.54271 0.75627 -0.30934 -0.67159 -2.4991 -0.59468 2.0411 -0.34745 -2.3896 -3.9487 4.237 2.3732 0.98318 6.6349 3.9806 -0.70516 2.3543 -2.6761 0.39817 -4.6767 6.1303 -1.5055 -1.8694 5.4795 -0.70498 -2.5614 2.1034 
M014 -1.6026 -3.8999 0.62826 -0.3497 1.0048 2.4162 7.2419 -2.2426 -2.1035 2.6646 1.5108 5.4772 -4.0236 -1.4491 3.5578 1.2374 -0.032809 0.72488 1.0602 -0.31857 1.6663 -0.34316 -4.0457 1.0072 3.4476 -0.94165 5.5623 -2.0534 2.8151 0.68245 -0.90471 -6.1513 
M359 -3.3474 -0.89375 3.4377 -10.097 0.73141 -2.1055 -0.42022 -2.8196 0.41967 2.6043 0.27319 0.7606 -2.5238 -1.6608 -0.46623 -0.2671 -3.8009 1.6335 4.388 -2.8464 1.6487 0.067871 -2.5779 3.1488 -0.97834 -5.3602 -3.3116 0.40171 -0.66104 1.6902 2.4177 -0.75458 
M141 -3.1519 4.2104 6.6818 -2.9036 -1.132 4.5819 3.2285 6.9941 -0.11563 -0.040533 2.0927 -3.1369 -1.1026 -6.0713 6.0899 -2.3963 -2.8414 6.7107 6.7138 4.4155 1.2099 -1.4415 3.2466 -3.2402 -7.7247 -2.1778 1.2456 -2.5169 2.4108 -0.014995 -1.1038 2.4491 
M157+M288 -2.8962 3.7559 3.0322 -6.0505 -2.8218 0.26749 0.68216 2.5935 -1.4517 -1.1238 -0.87255 -0.46898 4.3194 -3.133 -2.972 0.026862 -2.6307 3.7145 1.9716 0.38914 0.2429 1.4087 -3.0855 -2.2875 -1.3587 3.0136 -2.8274 -2.7543 -0.00045387 1.9796 -0.2967 1.4358 
M368 -9.1031 -0.21429 1.6539 -1.3944 -0.13756 -1.142 0.1495 -1.8223 1.8915 -0.39071 -2.4348 -3.2806 -0.68029 -0.90391 -1.5295 -2.1114 -0.24685 5.2752 -0.34625 -0.85494 -1.1967 -0.76791 -1.6618 -1.351 -2.0329 -3.0707 3.0356 -1.797 -2.0152 -0.42769 0.51878 -2.261 
M153+M106 0.29764 -3.4434 1.5807 1.061 -0.08792 2.3487 -7.2533 1.4347 0.5979 1.8216 3.1114 -6.3269 -4.0576 -1.2402 -5.081 0.618 0.16474 -1.7552 0.35304 -0.64527 2.4429 0.59559 0.48853 -6.2839 -7.4949 -3.7239 2.0919 -3.7175 1.9091 -4.276 -1.0109 3.7419 
M157+UNK 4.1639 -2.8611 3.1979 -0.46572 -0.60393 -1.0415 -3.4365 -0.76347 -3.2584 -6.2884 7.0503 0.40067 11.038 2.1602 2.2767 2.0308 0.94741 -0.63153 3.4657 -2.0273 -5.3778 5.8738 2.9199 -1.7352 -2.3862 1.9839 -4.4287 6.9064 -7.7243 -0.51836 2.4408 -1.6532 
N(N@B) -3.7898 -1.7786 0.26018 -0.3788 -0.36139 -0.59315 0.17094 -4.2334 -1.9683 -1.1332 -0.71851 3.0376 3.1304 -2.6657 -2.7727 -0.013125 -0.16052 1.5634 -5.8587 -4.2541 3.625 2.4995 -0.88591 -4.9389 -3.1687 4.9611 4.216 -3.3002 -2.6642 -0.90981 2.2712 -6.0912 
M074 0.068599 2.9103 4.7881 3.1145 5.5485 1.0345 0.79226 -2.156 5.4234 6.4924 -3.7067 13.891 -0.42758 -0.95032 -2.8552 -0.68505 1.6129 2.8115 -1.093 -4.2723 -2.1986 3.6301 -3.981 -0.055764 -3.2404 3.5075 0.18694 0.39985 2.8444 -4.0086 -4.8733 -4.8666 
M358 -1.2229 2.0329 4.2956 1.9187 -2.0335 -3.7603 -0.28746 0.25248 0.72366 -2.0217 1.34 1.1119 3.7742 -1.6234 1.6775 0.84665 -2.0864 3.1342 -3.5517 -3.052 -1.8806 3.0112 -6.4068 1.3902 1.4384 -0.40378 0.79712 2.9113 -0.86823 -3.3952 -0.36214 -1.0051 
4(N39B@B) -1.1952 -6.7896 -1.445 1.0888 2.6425 3.8382 -1.931 -9.495 4.3724 -7.781 6.8809 0.18874 4.0462 0.99375 2.1415 5.8829 0.15169 1.4519 -8.106 -2.7657 -3.426 -0.46699 -2.3395 4.4913 0.06679 0.78021 0.75654 6.6351 -3.373 2.5154 -9.103 -5.7673 
M054+M365+M054 -0.88171 -0.60751 -3.6994 0.79765 -2.7206 -4.8247 3.112 0.48591 1.5909 0.51937 0.68708 4.035 6.4278 -1.5897 -1.968 2.01 -0.5298 -3.6454 -1.3957 -7.152 -1.3446 0.48741 2.2072 1.0819 -1.7591 0.95114 1.2901 4.1563 1.5827 0.48422 1.0422 0.99631 
2(N48) 0.48364 4.167 -3.8669 -0.087248 -2.2345 0.95385 -0.88212 -6.1506 2.3154 2.4444 2.3435 -1.1294 -8.5772 -0.28853 1.121 0.2669 1.6088 6.4643 1.3586 -1.6603 -5.2703 -6.0825 -7.3212 -4.7828 -1.4126 -6.3435 0.59295 -0.17901 -0.52435 4.5678 -4.0048 0.3493 
M351+3(N01) -0.57695 -4.5621 -0.44113 -3.9301 2.2884 4.1785 5.088 -6.7563 -3.9907 4.0088 -8.2006 -2.398 -2.2708 -3.4126 4.4712 4.4417 -2.3352 2.9137 -4.2869 2.4361 -6.3814 -3.3775 1.8332 0.97713 -3.67 -2.0049 -1.553 0.15441 -2.7816 -2.2949 1.6558 -7.4349 
6(N23) 0.89733 -2.5205 4.1456 -3.0543 -3.7293 1.0152 -4.1736 -0.63218 0.57215 8.7693 0.63208 1.3106 -1.1477 -2.4314 -1.844 1.2236 0.7828 -2.8371 1.3854 -1.6723 -0.8466 1.4577 -1.9709 3.1212 -2.1056 -2.4633 2.3833 -1.3474 2.9839 0.043924 -6.5144 -0.79247 
M317+UNK -3.3638 0.56326 -1.611 -1.9176 -2.7047 -1.5139 -0.88501 2.9584 3.8477 1.0076 -0.95754 -3.4984 1.7801 -1.9462 -0.56984 -1.0481 -0.13286 2.2122 -2.035 -0.80461 -1.0316 2.145 -1.3411 -5.7024 0.48351 4.2125 -1.0654 -0.84727 -3.4323 4.8361 -1.5072 1.9132 
M362+M059 -0.71408 -4.292 3.6028 0.67475 -7.026 -2.7458 -3.7264 6.3619 -1.092 3.3909 -3.54 2.6836 -0.35171 0.11925 1.1779 -2.3071 -2.0638 -1.6117 2.7008 5.5559 -2.9499 2.1934 -1.3007 3.8077 -1.8145 -0.10194 1.466 6.1923 -0.0046147 -3.9228 -1.9957 -1.2043 
M449 -2.5801 -2.3636 0.95849 1.6838 -0.77987 -6.725 -1.6936 1.3015 -0.57251 1.6638 0.57771 0.2365 -0.6382 -1.5052 2.6928 -0.85226 -1.0198 2.0455 -0.66879 0.0015406 -1.64 -3.2035 -0.4027 -2.3106 3.284 -0.36433 1.731 -0.57099 -2.5189 0.12215 1.3148 -4.1184 
M034 -0.83325 -2.4778 1.1938 -8.3318 1.0907 1.9482 0.46437 10.858 -4.6423 -0.57403 1.2107 -0.69592 -1.3101 -5.1996 -3.2816 -0.66165 -1.6726 1.2524 0.41837 -2.7691 2.2035 1.6861 -3.5861 -0.92231 -7.7261 -2.6141 -2.7739 -2.6099 -2.1896 3.0508 1.1307 1.2383 
M086 0.25353 -3.2023 1.1187 -2.3542 1.4694 1.3006 -1.8765 3.0168 -2.6993 -0.13423 -3.0088 3.0297 -4.9044 -3.158 3.2869 3.2255 -6.1177 3.1483 0.80962 1.4072 2.6692 2.491 1.4873 3.028 -3.4202 -0.24241 1.4812 -4.2382 -5.0032 -1.35 1.2324 1.2001 
M039+1(N30D) -1.2178 0.085108 2.0619 -1.4058 -2.3044 -0.80572 -7.0212 -0.44932 -7.1215 2.2373 -0.35138 1.6794 -3.1319 2.3575 -2.9693 2.8321 -0.14209 -2.2086 4.4813 5.5264 0.84242 -3.9326 -4.4769 1.8111 -0.833 -0.86986 4.0726 9.1441 -1.5021 -0.63852 -0.70758 -4.7203 
1(N34@B) 3.1681 -7.3501 -3.0043 2.1693 -5.0233 0.065471 -3.4052 0.4926 2.8591 -2.3387 1.508 -4.0401 3.6558 0.82239 6.3874 -1.7389 2.5862 -2.3339 -3.3797 -1.4929 1.1647 -2.085 -1.4884 -0.28288 4.2629 5.7012 5.4023 -2.1865 -2.4804 -1.4048 -4.5318 -5.0841 
3(N39B@B) -3.6384 0.85525 3.8303 -3.8595 -5.0246 3.0652 -0.047188 -8.6465 3.5269 4.8677 -3.03 -3.7942 2.2571 -1.1722 -1.5067 2.9918 1.3362 -0.70059 -1.0426 -2.7028 2.8743 5.0998 -1.2374 -0.81452 -1.3211 -3.5936 -1.7274 5.176 -3.615 1.649 -7.3282 -1.4125 
M447 0.66342 -0.97605 -2.8223 0.0060507 -0.73437 -3.4562 -2.6569 4.0142 -4.3672 2.5565 3.9646 1.8265 2.0929 -1.8852 -0.37549 1.9396 -4.8815 -1.0011 0.028551 -0.71503 -1.1887 -1.6963 -5.299 1.8033 0.41945 0.80427 -3.3559 -0.20724 0.9696 0.67453 2.816 0.65782 
M063 -0.34783 0.91587 0.84886 -5.8953 -3.4454 0.32625 -3.7632 5.0468 -1.8802 -1.5488 2.9332 5.356 4.0349 -1.7882 -4.5632 1.9866 2.2329 0.89825 1.0303 4.2167 -1.1676 1.6942 -5.4736 -0.46577 2.3511 1.2561 -3.1671 0.0062742 -4.5155 -1.0164 -6.1194 -0.38149 
4(N23) 2.2338 -3.9076 1.6335 1.1153 2.7853 -1.9406 -0.55648 3.9278 2.1458 3.9086 2.1228 -2.5628 0.82035 0.60662 -0.72149 1.7569 2.7181 -3.5089 -2.1907 -4.2327 -3.7439 -3.1397 -0.99471 1.6187 4.5135 2.6706 -0.58884 0.80429 0.75526 -8.0673 0.53248 -1.2425 
M343 -2.2445 -4.9788 5.8724 2.1835 0.12901 5.2754 -5.4479 -3.4368 -0.5551 2.5666 -1.1314 -6.7327 4.9294 2.1991 -2.8226 4.1136 -5.1839 -9.77 1.3558 -0.82005 0.18513 -2.2912 -4.6365 -3.321 0.7536 -2.185 0.90825 0.58592 -1.3772 0.11553 -1.4555 2.9242 
M289 -3.4015 -1.0052 0.894 -0.77215 -1.3702 0.45419 -3.0904 3.7442 -1.76 0.65523 1.7259 2.1893 -2.3817 -2.1247 1.1416 1.8011 4.5636 2.8805 1.2517 2.2975 -3.1067 -0.13534 -0.65841 0.04433 -2.3799 3.0647 5.5083 0.22414 -3.4618 -0.60878 -2.5677 -1.2334 
5(N1@B) 2.0952 -2.8402 3.2726 0.020174 -6.5724 -0.86667 1.1491 -0.15808 -0.45551 5.818 -5.4912 0.12265 1.3699 0.88008 3.5243 -0.7348 -0.31444 -4.4671 -0.12986 -0.86953 1.1452 2.4128 -5.7576 -1.1794 -0.75996 0.55876 1.0128 0.51422 1.6215 0.68014 -2.4908 -3.1581 
M011 -3.3187 3.0555 -1.0863 3.4658 -0.14761 2.7552 4.4334 3.5874 0.034811 2.0906 0.32899 0.81871 -2.5414 0.91104 1.4154 1.1512 -2.0299 -3.4228 -2.8613 3.0655 -3.7659 2.1105 -7.3428 2.0491 -3.2071 0.096673 4.9138 4.1591 -0.90296 -2.9647 3.0827 0.04089 
M098 2.1938 -5.8509 -3.1867 -3.3756 -1.7075 3.3399 2.4191 0.54996 2.3548 4.9061 -5.1035 -2.9683 -0.05062 -5.474 0.61627 -0.43646 2.8451 3.8172 2.5715 3.618 -5.3748 -2.5558 -0.57058 -1.9218 1.9736 1.5285 -0.44073 -4.6591 1.9709 -5.1804 -3.824 -3.6755 
3(N1@B) -1.7256 -1.4697 2.368 1.2233 -3.1012 -2.4341 0.34642 1.1116 -3.6889 2.7964 -1.1178 -0.48294 -0.24357 -0.93298 0.97271 8.1181 0.094719 2.1058 -2.752 -3.0446 1.0785 0.35378 4.0093 -0.10827 -1.2498 0.23361 0.99613 6.0095 -0.98941 1.2742 -4.575 -1.1335 
1(N54) 2.2306 -7.9214 -3.2196 -1.0085 -1.5561 3.0706 -4.8256 1.7516 2.287 -0.9363 -1.1929 0.56175 1.5486 -0.28371 0.58745 -2.565 0.6829 -3.6053 -0.34458 -2.0812 1.8573 0.85037 -2.0622 1.1548 1.2892 4.1744 3.4472 -1.3677 -3.3277 -5.0044 -0.40179 -1.9741 
M036+M343 -2.2017 -1.9158 4.0876 -1.9554 -2.5141 2.1658 3.0486 -3.5731 -0.61717 1.4253 2.8112 -0.52285 -1.6979 -4.7625 -0.81594 0.078133 -0.93904 -1.3352 -0.48432 5.1343 -1.3459 1.972 -0.606 -2.2209 1.8632 -4.7919 0.65209 2.5881 1.2459 -1.8081 -1.4559 -0.99456 
M001+M379 -1.7444 -1.6715 0.79358 -0.86798 -1.8078 1.0644 -4.5199 0.1231 0.85463 2.034 -4.3947 5.4213 4.8766 -4.7392 1.5356 2.0043 -1.2021 -1.5163 -1.5047 1.1115 1.9805 -2.4541 -2.9672 -0.86368 -2.237 -3.9142 3.1531 2.0532 2.4383 -3.9967 -6.1771 -0.099888 
M217+M124 -0.86306 -3.1778 2.9515 3.3925 5.1748 -6.7992 -0.26947 3.5083 -0.25998 4.6598 1.8634 2.0733 2.7058 -0.90294 2.0234 0.47665 2.0357 -3.0744 3.7992 4.1724 3.3497 1.7654 -0.76783 3.1433 -5.0061 3.2832 2.3285 3.9972 -3.6606 0.31456 1.9799 -1.0709 
M177 -4.8889 -3.1813 0.80163 -1.0017 -0.017665 0.264 1.9696 0.53696 0.45264 2.4177 0.047226 0.36017 1.3067 -1.0473 -0.75813 4.1468 -0.26742 2.7876 -0.28456 -1.7263 -3.4866 0.97472 -1.1136 -2.3193 0.97503 2.2976 -4.1917 2.2516 -0.33531 -3.8872 0.83672 0.81545 
2(N51G) -1.6403 1.7937 2.3333 -3.9867 -1.1785 -2.2457 -4.2792 -6.5966 -2.9454 2.6026 6.9185 2.8183 2.288 6.0408 4.6014 2.6588 19.127 -1.1732 12.044 -3.7694 -3.0745 3.6809 2.4865 -2.9912 -0.50527 5.7933 -0.31218 -6.0505 0.35478 -3.9836 1.5132 2.9283 
M284 3.0444 -5.3007 -0.96943 -2.6834 -5.0867 -0.40311 0.10103 0.22045 4.1319 5.013 -0.2804 2.2593 -4.4935 1.2311 1.2599 3.1884 -2.0304 2.0921 5.0362 -5.2484 -4.7303 2.0259 3.5748 -0.41696 -4.1318 -1.4166 3.3108 4.0838 -3.301 1.9335 -1.5421 2.5467 
M283 -1.8927 -0.3022 -1.0695 0.21485 -2.0919 -1.4847 -1.7117 -1.2548 0.44678 2.2576 -1.1948 2.8134 -0.24871 -0.90139 -0.53527 0.36755 1.8464 -2.076 2.0575 -0.044566 -2.0553 -0.98162 -1.1445 -1.1471 -0.92582 -1.0943 0.52127 3.69 1.1267 -3.9105 0.49745 -1.4953 
M062 -1.4669 -0.96122 -0.67345 -2.7005 -3.8673 -0.51602 1.4033 -1.6657 -0.061501 2.2871 -0.23431 1.7872 -0.21862 -1.6197 -0.036047 1.9942 0.85532 0.6429 0.035911 -0.7595 -3.9422 2.4869 -1.8556 -0.75128 0.52302 0.44082 -0.39167 -0.18681 0.23268 -1.055 -0.12399 -0.69755 
M107 -2.1757 -2.1205 0.66963 -2.7401 2.5307 3.6807 -5.2298 -0.16574 1.6125 -1.9967 2.1312 -2.0481 -1.9674 -3.2712 -2.7267 -1.1513 -5.9221 -0.75816 1.2732 0.5658 0.4489 4.1838 -1.9887 1.0243 3.7431 -0.78883 3.5694 -5.2526 -5.3595 1.1067 1.1718 0.097166 
M276 -1.3708 0.95989 1.155 -0.21734 -2.6992 -1.7891 -1.5208 -0.32931 0.46046 2.4131 -0.25445 2.3102 0.32122 -2.8477 -1.6483 1.9031 0.95209 -1.5873 1.9158 0.12976 -1.8674 1.0158 -0.65831 -0.07814 -0.60119 -0.19137 1.6761 3.313 1.2365 -2.4074 -1.0197 0.57946 
M012 -2.8882 0.91869 0.92391 -1.1033 -2.6715 -0.84998 3.2222 2.185 -0.17174 -2.1085 0.58024 0.78537 2.3257 -0.74012 -2.2191 -1.6088 -0.62076 -0.82091 2.6495 -2.5579 -1.2077 -0.90898 -0.99819 0.60423 2.9994 -1.0695 -2.3122 0.94162 -2.6212 -2.1561 0.73324 -4.6546 
M030 -4.5311 0.84648 -1.4821 0.26696 -1.0108 -0.63298 -2.4156 1.3705 5.0806 -1.6304 1.4698 -0.79419 0.88178 0.55998 -1.1902 3.2618 -0.33564 0.85079 -0.38448 1.5443 -1.1301 -0.35526 -4.5185 -0.75197 2.9497 2.2305 0.75942 1.5215 -2.4907 -1.9334 -3.7211 -0.38349 
M104 2.8263 -0.055168 -4.6879 0.67487 0.34693 0.98193 5.8104 3.2634 1.1911 3.5965 4.6203 0.15367 -2.5535 -1.6789 -3.2204 -2.1832 3.5711 3.5716 2.1025 -5.4439 -1.6956 3.1583 8.6914 1.2878 -2.8387 4.3827 -10.953 -1.3117 -3.762 -2.6757 0.94985 -2.3223 
M175+M131 -3.9265 1.3942 3.014 1.8325 1.2004 1.9477 1.2426 5.8158 0.16349 0.39692 1.9263 1.1809 -0.4597 -0.33872 2.8429 1.1941 -0.56572 -0.13157 0.3288 -2.4263 -1.8117 -0.19116 -2.3544 1.1747 1.5609 2.1966 1.3497 0.25478 -0.44489 -1.0322 -0.20484 -0.011062 
M357 -0.60768 1.6957 1.7078 3.9408 -4.592 -2.7901 -2.4648 -0.023098 -2.4325 0.25744 9.2683 -5.3019 -0.12282 -1.7011 -0.67436 0.1265 3.0623 1.4563 4.4041 -0.020152 -1.2364 4.1799 -0.53302 -1.7369 3.1558 4.8672 3.6534 1.1059 3.1869 0.057655 1.6813 3.4924 
M482 1.2364 1.151 -0.4513 -1.3483 -3.6677 -0.68678 -1.1766 -1.1222 -1.0955 2.4404 -0.91663 0.60002 0.85851 -0.895 -0.043621 1.6608 -0.54206 -1.8932 0.12708 -0.24046 2.224 -2.5291 -1.6344 -1.5798 1.3122 3.1982 -1.7311 3.2867 -3.0545 -0.92821 -0.54515 -1.193 
1(N46) 0.59368 -0.072459 -7.3762 3.1679 -4.9864 3.9363 -1.6849 3.6751 0.64064 2.7726 -4.5164 6.2728 -3.0153 -4.1689 -4.964 -3.0409 0.56821 -1.0885 -1.2792 1.4382 -1.2447 0.4158 -4.2388 -7.7851 1.4212 -2.3601 3.39 3.6119 -0.24135 -0.6448 -4.2249 -0.71719 
M129 1.7923 -0.23219 -0.42876 3.0583 1.8921 -2.0325 1.5433 1.0082 0.36275 1.5522 1.5697 0.2817 3.8325 -5.2302 2.7417 0.039553 -2.468 1.051 3.4447 -1.2163 -0.78679 -4.7814 -3.4456 0.5011 0.72224 0.56609 2.1774 -0.82786 -0.6308 2.5041 0.4491 3.0973 
3(N14@B) 1.7425 -1.6521 0.012576 0.8047 -3.6418 2.0514 -1.9091 -9.2214 -1.5078 -2.3273 -1.8354 3.7655 0.10651 0.62892 2.3906 3.1251 5.859 -5.4438 -4.2889 -6.1279 1.393 5.0226 -3.9888 -4.9519 2.4295 2.8246 2.2813 -5.4758 -1.4573 -0.71144 -1.9917 -0.089236 
M308 -2.6246 1.3815 0.088471 2.1921 -1.3673 -2.35 -1.3534 -1.4681 -0.38797 1.9404 -0.96121 -1.8979 2.1972 -1.2009 0.20931 1.9174 1.9595 -0.28511 1.3993 -2.846 1.644 0.0070668 -4.0324 0.044348 -1.4275 2.6991 0.59749 0.63715 0.28019 1.1346 -0.59218 1.4808 
M201+M377+M377 -0.60597 -0.34847 -0.30286 -0.41806 -1.4946 -0.7749 -0.27598 -0.26748 0.24434 1.5941 0.12565 0.36964 0.57867 -1.0834 0.36469 1.8397 -0.5849 0.054954 0.41486 -0.69416 -1.5278 0.23659 -0.96088 -0.44956 -0.18704 0.78026 0.87536 0.74985 -1.044 -0.44162 0.050812 -0.25956 
M175+UNK -3.5273 0.97534 3.9851 -1.2522 -1.8291 -0.015824 2.823 0.51295 -3.7693 -0.9012 -0.027869 3.6129 2.7966 2.39 0.22505 3.258 1.2613 -2.2322 -5.3105 -5.4876 -0.48325 0.6264 -3.3139 1.2019 -0.52997 -1.5734 2.2557 -2.7341 -3.5579 -3.2657 0.10769 -1.965 
7(N23) 4.7555 -8.1547 7.4358 -5.6333 6.9957 4.6952 -0.58703 -2.6596 6.256 10.589 -2.2099 -3.2394 0.12285 1.6477 0.017009 5.046 -3.0355 3.5938 6.2971 -11.113 1.4394 1.2856 -1.3194 3.4574 3.006 -4.9938 1.0494 0.88487 0.97552 -11.903 -1.9691 -5.7798 
M068 0.20809 -1.5381 2.8645 2.7308 2.5233 -2.3549 -3.0888 -1.0854 1.4168 1.4783 4.8139 1.6091 -0.51145 -2.2219 2.3852 1.9599 2.3311 -1.7174 -3.418 1.4191 -0.59889 2.7593 5.0091 -5.9661 -1.0547 2.9116 -1.2988 1.1119 -0.011101 -3.9166 0.25683 -0.71468 
M025 -0.33935 -1.508 4.176 -0.06505 -2.8105 -1.6336 2.5729 0.90864 -2.0585 4.0614 5.5156 -0.66115 0.015366 1.5947 1.7924 6.1486 1.6393 -3.1629 1.7567 -1.5109 2.7026 -4.4874 -0.0019642 -2.2842 -2.4133 1.2424 0.24012 -0.21016 1.6553 -3.7973 -0.56838 1.8491 
M260+M266 -1.2945 2.0651 3.7102 -0.18015 -2.566 0.45959 1.4592 0.22732 -1.9865 1.0468 2.2253 2.6782 0.84977 -1.9182 1.2036 2.2116 -0.99188 -1.8813 2.2821 -0.1143 1.0257 1.9227 -0.33011 1.3163 -2.5057 0.60436 4.28 1.4547 -0.52759 -0.22957 0.20832 -0.061137 
M175+M286 -0.60458 0.019619 -0.67946 -1.2016 0.43171 -4.0985 -1.8691 0.23377 2.5097 -1.1144 1.4424 6.486 -1.8965 1.0409 -1.0402 -0.13119 1.4834 -2.9913 -1.789 -4.6485 -0.87876 -4.8859 -3.3816 1.5633 1.174 2.2942 4.6049 0.3605 -0.41712 -1.179 0.76924 1.2372 
M362+M099 -1.5114 -0.65631 -0.96945 0.67944 -0.69175 -1.2954 -0.0786 -1.8212 1.8228 4.1152 1.6685 1.862 -0.53185 -2.1408 1.6305 1.1847 -0.81126 -1.1117 1.6283 -1.4049 -1.8016 -3.2808 -1.0804 -2.2746 -0.13633 -1.4006 0.83271 -0.037357 -1.0588 -1.461 0.57765 -1.3688 
M195+UNK 0.38291 -3.672 0.6267 0.44869 -0.84671 -0.66485 -3.1781 6.6645 1.3934 4.7835 -1.5029 3.0332 6.4895 2.5427 3.335 -2.3941 -0.70013 -2.1214 -0.09637 -2.2757 -3.4001 -2.6153 -5.4943 4.1493 -9.0361 2.2643 0.28192 1.9583 1.0434 -0.9815 -1.2262 1.5942 
M175+M038 0.91458 4.2562 4.9005 2.3336 2.1276 -0.78678 3.42 -1.845 -1.7587 2.1898 -5.4773 1.793 -0.32037 1.4514 -0.40644 -2.6976 -1.4774 0.30475 3.3225 -3.0234 -0.22721 -4.6335 -5.4135 -0.48854 -1.1744 1.6701 0.48188 -0.2295 -0.074679 1.0582 3.3302 0.29458 
M036+1(N30C)+1(N39C) 0.4854 -3.6056 0.24271 0.3044 1.827 0.53878 -3.7453 2.4737 2.3564 0.80959 0.076162 -0.13078 1.6473 -0.28201 -1.5835 2.7023 -0.12798 -4.1297 -0.2269 0.05643 -2.4645 1.9018 0.31059 4.2679 3.0852 0.89259 0.91721 3.0573 -2.0205 -4.6348 -2.8437 -3.438 
M370+UNK+M370 -0.48344 -1.047 0.49045 -0.55592 -2.4328 -1.0727 0.93736 -0.16493 0.90379 1.8934 1.7859 0.1779 -0.35184 -0.39335 0.85083 2.0541 -0.24372 -0.05803 1.5775 -0.49303 -2.1743 0.15985 -1.3174 0.30065 -1.2092 0.99304 0.9636 2.0333 -1.4251 -0.86412 0.023746 -1.1336 
M175+M387 -0.40452 -3.1175 4.0883 5.6486 -1.0842 -3.6929 0.08104 -0.69382 2.6159 1.7767 -2.0085 1.3602 2.2401 -1.4865 -0.44382 0.32286 -2.1311 -2.408 -7.9665 -0.80369 -7.1468 5.113 0.3619 -3.6303 0.14993 2.8524 3.1253 -1.8576 0.35657 1.19 -1.2744 0.28811 
M327+M365 -0.53837 -5.7484 -0.83151 1.3552 -0.78355 0.048253 -7.0124 3.6932 -0.6303 -0.23537 0.36239 -2.721 -0.58443 -3.2798 -0.037528 2.1254 -2.7507 -0.79132 -3.3412 0.48117 -2.9835 -1.2051 3.2452 1.0939 5.7291 -1.4035 5.4911 -0.88589 -4.1142 -4.9791 -1.6053 -0.98823 
M362+M244 -2.2855 2.0107 -2.0498 1.5144 -2.1103 -1.7349 -0.71468 -1.0172 2.3009 3.061 -0.72392 1.2878 0.63182 -0.44038 -0.040579 -0.89025 0.9682 -2.6902 1.0073 -1.3528 -0.35652 -2.3409 -1.7085 -0.94094 0.25912 1.9442 -0.08544 3.1943 -1.2995 -1.5196 0.57974 -1.4095 
M362+M026 -1.0131 -0.87493 1.416 -0.49896 -3.0537 -1.5997 -1.2092 -0.49878 0.098954 2.0953 -0.25077 2.2442 -0.57542 -1.296 -0.93965 1.755 0.72711 -1.306 1.6589 0.65803 -1.5308 0.22996 -0.48906 0.47387 -0.62774 -0.45999 1.4961 3.9412 1.0096 -3.2936 -0.93512 -0.53625 
