531 128
</s> -0.21235 0.26958 -0.092259 -0.090524 -0.098317 -0.006069 -0.11697 -0.035095 -0.26232 -0.37014 0.1229 0.060838 -0.08041 -0.21712 0.091645 0.16364 0.40894 0.23183 -0.33774 0.25187 0.21901 -0.079693 -0.079641 -0.026652 -0.094478 -0.075981 0.042758 -0.094497 0.32367 0.12809 -0.38469 -0.21226 -0.37163 -0.086762 0.17445 -0.078151 -0.32174 -0.050473 0.28008 0.09912 0.032821 0.37709 -0.064205 -0.17296 0.0065291 -0.010505 0.21628 -0.015047 -0.10791 -0.18102 0.15506 0.1865 -0.20421 -0.25245 0.08822 -0.20415 -0.11389 -0.067848 -0.1079 0.16513 0.020408 -0.057531 0.32022 0.16815 -0.094113 0.13434 0.14498 -0.11978 0.099358 0.19635 -0.037649 0.056658 0.065657 0.089792 0.10473 -0.36819 0.059667 0.36018 0.43648 0.10966 -0.20209 0.29812 0.39032 -0.078208 -0.22527 -0.089253 -0.1063 -0.11132 -0.279 -0.010354 0.37115 0.3953 -0.044609 0.15824 -0.032963 0.01588 0.44972 0.18075 0.027681 -0.27405 0.1607 -0.0011879 0.18304 -0.012609 0.1524 -0.079726 -0.44287 0.13696 -0.44495 0.23681 0.18202 -0.31524 -0.041548 -0.14467 -0.20436 -0.27413 0.35178 0.22811 0.11147 0.074269 0.06866 0.18959 0.30759 0.33262 0.38667 0.016932 -0.35048 0.00036114 
UNK -0.094029 -0.0029678 -0.11528 0.021733 0.045192 -0.39812 0.16997 0.021523 -0.17352 0.056414 0.36328 -0.00082872 -0.19269 0.20302 0.079037 -0.14988 0.12593 -0.16888 -0.034903 -0.2919 -0.22524 -0.21621 0.067335 0.2325 -0.0044377 0.20619 0.022641 -0.2346 -0.040655 0.015495 0.13554 0.067619 -0.2355 -0.17795 0.032412 0.0775 0.067492 -0.12155 -0.048901 0.057776 0.20873 -0.036726 0.014203 -0.0018969 0.114 -0.027456 -0.063272 -0.039321 0.054839 0.13808 -0.18063 0.23196 -0.2057 -0.14104 0.083709 -0.20019 -0.048592 0.21601 -0.062685 0.20146 -0.25982 0.039814 0.32019 0.013698 0.0036089 0.078854 -0.11713 0.011853 0.24414 -0.091611 -0.12285 0.10078 -0.1917 -0.0070145 -0.13018 -0.13713 -0.030431 0.069968 0.25595 -0.025249 -0.030915 0.19647 -0.018096 0.09343 0.04586 -0.22312 -0.21177 -0.024724 0.003284 -0.0090167 0.12339 0.14146 0.29225 0.026989 -0.22729 0.00089534 0.33164 0.17207 0.04747 -0.26551 -0.06983 -0.060463 0.13388 -0.076786 0.23032 -0.011164 -0.071118 0.18543 -0.10661 0.26164 0.12568 -0.050745 -0.27614 0.053491 0.21774 -0.18114 -0.35413 0.37177 0.15259 0.042452 -0.1663 0.12778 0.1429 0.074643 -0.11203 0.060706 -0.30269 0.14864 
1(N01) 0.32457 -0.23451 -0.026471 -0.31616 0.17578 -0.02317 -0.028728 0.27015 -0.5151 0.093177 0.25197 -0.045133 0.097893 0.0043708 -0.10323 0.085742 -0.24976 0.00058085 -0.26132 0.012287 0.19653 -0.17489 0.21844 -0.043058 0.42536 -0.072369 -0.06295 -0.39009 -0.026929 -0.45153 -0.22735 0.27783 0.15701 -0.18686 -0.45599 0.042113 -0.0046593 0.10165 0.1086 0.2621 -0.11821 0.57042 -0.016592 0.093706 -0.43575 0.13925 -0.10574 -0.0048567 -0.52427 0.18359 -0.26053 -0.42904 -0.1865 -0.053218 0.1176 0.31578 -0.13146 0.25936 0.10878 0.58924 0.14986 -0.39714 0.61869 0.15587 0.00047911 0.010272 -0.029756 0.54069 0.22304 0.20483 0.015051 0.27864 -0.65843 -0.029667 0.17762 -0.027818 0.065038 0.62783 0.30541 0.19463 0.40226 -0.0056174 -0.20676 0.24822 0.053157 -0.065145 -0.16366 -0.22721 0.011117 -0.18563 -0.23969 -0.14647 0.17523 -0.012579 -0.34661 -0.2126 0.57663 -0.035278 -0.093249 -0.028912 -0.34046 0.089585 0.32169 0.071996 -0.46752 0.31105 0.14796 -0.13052 -0.44131 -0.18798 0.4058 -0.53604 -0.22906 -0.19401 0.29167 -0.45784 0.046676 0.19795 0.31085 0.2764 -0.17317 0.70663 -0.13495 0.089976 0.10351 -0.10342 -0.028143 0.26747 
2(N01) 0.16543 0.043499 -0.33529 0.13323 -0.36901 -0.33802 0.71336 0.35955 -0.59548 -0.097316 -0.13907 -0.33132 0.24793 0.28963 -0.26878 0.23195 -0.38743 0.1246 -0.34881 0.12155 -0.053634 0.27713 0.55304 0.24139 0.082445 -0.21408 0.2451 0.3668 -0.11424 -0.27926 -0.090291 0.28638 0.27277 0.29848 -0.036197 0.4153 0.31712 0.34079 -0.42437 -0.25666 0.41046 0.56597 0.21008 0.109 -0.050242 -0.05812 0.14746 -0.51232 -0.22858 0.082267 -0.05369 0.27526 -0.78171 0.020663 -0.12928 0.51755 0.052905 0.12191 0.13475 0.26712 0.32404 -0.37637 0.2274 0.15004 0.24826 0.23069 -0.23879 0.45772 0.39406 -0.20946 -0.16202 0.33558 -0.15946 -0.24517 -0.0078306 0.15437 0.069078 0.3469 0.13311 0.50942 0.04425 -0.054841 -0.12197 -0.29074 0.11364 -0.12458 -0.09015 -0.054261 -0.66474 -0.33589 0.12974 -0.30291 0.047706 -0.40065 -0.34395 0.076929 0.65677 0.17263 0.16543 -0.52098 -0.51783 -0.12139 0.27897 -0.3433 -0.41208 0.30424 0.094726 0.28228 -0.21039 0.13465 -0.11919 0.19663 -0.060603 -0.63347 -0.038102 -0.41705 -0.075001 0.054035 0.36295 -0.11465 -0.19433 0.25124 0.1109 0.32443 0.20974 0.39481 -0.37421 0.12103 
1(N14) -0.73698 0.34031 0.018192 0.36328 -0.10692 0.01835 0.52469 0.048724 0.53405 0.31572 0.73359 0.14883 0.21563 0.20265 -0.35841 -0.55007 0.13942 -0.40739 -0.20747 0.62161 -0.20308 0.23869 0.083931 0.52417 -0.0026425 -0.040866 -0.2022 0.44176 0.094698 -0.037331 -0.32108 -0.34204 -0.098511 -0.22833 -0.27773 -0.72977 -0.50528 0.16554 -0.68588 -0.47451 0.059305 0.20334 0.0352 -0.034128 -0.10359 0.09254 -0.16459 -0.26571 -0.30741 0.016683 0.11482 -0.069906 0.026633 -0.50541 -0.065541 -0.96255 0.078835 0.19863 -0.053166 -0.040511 0.32565 -0.079308 0.15514 0.14603 0.1998 0.29579 -0.47321 0.32508 0.26224 -0.31471 -0.042876 0.23993 -0.55406 -0.11181 -0.11234 0.20179 -0.46754 0.38349 -0.027476 -0.017631 0.054285 0.26326 0.051451 0.3131 0.10345 -0.020941 0.16012 0.14709 0.13262 0.21723 0.079391 0.0037264 -0.21864 0.01499 -0.30205 0.20357 -0.28952 -0.46408 0.022106 -0.51499 -0.040019 -0.10739 0.17746 -0.2359 -0.22395 0.29348 -0.16669 0.23418 -0.31142 -0.072692 0.24456 0.19173 -0.49234 0.62875 -0.55176 -0.52679 0.23077 0.20319 -0.27359 0.17238 -0.23609 0.44085 -0.0077257 -0.010301 0.22463 0.058556 -0.42345 0.27021 
M288 0.16994 0.095105 0.017553 -0.30402 0.35526 -0.32617 0.1702 -0.057179 -0.46334 -0.11421 0.061704 0.36272 -0.53246 0.21432 0.36091 -0.14944 -0.34241 0.26767 0.23096 -0.8048 -0.29494 -0.014058 -0.2542 -0.14814 -0.16192 0.032741 -0.059807 -0.039653 -0.29111 0.0046026 -0.50448 0.43957 -0.14213 -0.16618 -0.044339 -0.041814 0.16439 0.016967 -0.77724 0.14146 -0.29813 0.047773 0.13177 -0.61475 0.24229 -0.21438 0.40849 0.15162 0.039328 -0.24401 0.14073 -0.029393 0.022498 0.011039 -0.49219 -0.094196 0.59209 0.32591 0.028194 -0.11095 0.036772 -0.35176 0.078885 0.041706 0.27366 -0.12218 0.050654 -0.27793 0.19868 0.15726 0.022862 -0.030408 0.15853 -0.1619 -0.20084 0.043366 -0.35348 0.047777 -0.16673 0.21971 0.39272 -0.2561 0.20165 0.36108 0.18096 0.17529 -0.48098 0.16669 -0.14349 0.16277 -0.11336 0.53913 0.010016 -0.22351 -0.48713 0.15179 0.71369 -0.32603 -0.10668 0.06418 -0.027777 -0.42981 0.39062 -0.094944 0.45875 0.57614 0.3257 0.45387 -0.05055 0.44783 0.097566 0.29116 -0.095731 0.58587 -0.65283 -0.60875 0.012108 0.34794 0.18827 0.37259 -0.045995 0.53405 0.078631 0.13581 0.15414 -0.12076 -0.36396 -0.42061 
3(N01) 0.30607 -0.088555 -0.010772 -0.16516 -0.11979 -0.33886 -0.29821 0.1756 0.035398 0.18507 0.45049 -0.14312 0.019272 -0.2334 0.22691 0.63987 0.047772 0.34744 -0.21962 0.058068 0.19287 0.071316 0.68617 0.17999 -0.08007 0.00067053 0.54863 -0.10584 0.11376 -0.4591 0.47056 0.30751 0.3599 0.10773 -0.31437 0.46605 -0.26292 -0.2157 0.14724 -0.12752 -0.20797 0.30351 0.20836 0.21872 -0.58561 0.14076 -0.13189 -0.20233 0.12408 0.093445 0.090757 0.093286 -0.44949 0.24558 0.0022883 -0.31841 0.090078 0.40159 0.38297 -0.23078 -0.31421 0.29781 0.97577 0.52112 0.54578 -0.22085 -0.3672 0.33199 0.56802 0.75555 0.34508 0.91509 -0.2748 -0.48731 0.36511 0.85965 -0.17891 0.058555 -0.19012 -0.085674 0.31996 0.12249 -0.12612 0.20712 -0.54077 0.17178 -0.3655 0.26098 -0.60193 -0.48508 -0.026547 0.14749 0.015871 -0.37441 -0.12632 0.23569 0.45705 -0.46906 -0.65221 -0.20081 -0.10709 0.027727 0.62501 0.011595 -0.48151 0.39171 0.20477 -0.0072529 -0.1093 0.40308 0.17034 0.10398 0.4337 0.0027554 -0.24857 -0.61897 -0.055554 0.41342 0.26111 0.11264 -0.36762 0.39481 0.44314 -0.48928 -0.14881 0.18377 -0.44869 0.22294 
M388 0.083115 -0.0057892 0.15116 0.24819 0.0026822 -0.079779 0.23788 -0.14277 -0.49092 0.26265 0.3627 -0.37097 -0.014683 -0.056688 -0.076056 -0.086021 0.32707 -0.54698 0.24987 -0.37212 0.038926 -0.28905 0.46478 -0.16438 0.33016 0.6631 0.12013 -0.37104 -0.4198 0.085177 -0.41969 -0.21599 0.028865 0.13411 -0.099875 -0.16741 0.39928 -0.035526 -0.39147 -0.073423 -0.31336 0.40073 0.013589 0.54099 -0.31005 -0.02526 0.0369 0.017168 -0.11939 -0.44015 -0.067025 -0.42764 0.18256 -0.12339 -0.048209 -0.17732 0.032532 0.034633 -0.1893 0.0056696 0.38147 0.18953 0.058317 0.17689 0.039583 0.31554 0.25322 0.21057 0.30055 -0.054844 -0.13545 0.31282 -0.037521 -0.32868 0.32553 -0.12959 -0.16161 0.19794 -0.14395 -0.21542 -0.020401 0.18307 -0.021768 -0.65622 0.57448 -0.14102 0.0056521 0.046689 -0.37529 -0.04998 -0.20836 0.39225 0.035116 -0.32446 -0.15841 0.34486 0.5162 0.34826 -0.3699 -0.2109 0.28584 -0.08351 -0.0050708 0.022734 0.05263 -0.1028 -0.4088 0.04432 0.09807 0.79119 0.3228 -0.30721 -0.21017 0.14783 -0.1481 -0.36677 0.017012 0.25313 0.3942 -0.10544 0.043612 0.0557 0.50258 -0.07357 0.2188 -0.062844 0.17265 -0.32393 
1(N24) -0.06075 -0.17229 0.11322 0.24632 -0.28762 0.10621 -0.29716 -0.25121 0.056789 0.30931 0.46606 0.016221 -0.48551 0.43565 -0.18934 0.0060895 -0.25419 -0.65789 -0.076509 -0.39718 -0.30667 0.72585 -0.17032 -0.3753 0.0026088 -0.37348 -0.12347 -0.085063 0.075981 -0.036946 -0.063307 -0.52461 -0.37319 -0.20398 0.61191 0.2238 0.32888 -0.036218 -0.24727 -0.22072 -0.0043523 0.13507 0.30219 0.51068 -0.019779 0.19206 0.60609 -0.28463 0.090709 -0.18449 0.16649 0.16313 -0.20372 0.75856 0.00082472 -0.19428 0.3545 0.62577 -0.060715 -0.56365 0.2661 0.10253 0.30218 0.40017 -0.26358 -0.39377 -0.20269 0.61034 0.59658 0.58006 -0.40374 -0.34434 0.25778 0.20321 0.14042 0.088563 -0.027847 0.89046 -0.010931 0.44368 -0.044111 0.97323 0.47004 0.23703 -0.013854 -0.27202 -0.44795 0.28662 0.42006 -0.60486 0.56838 0.091452 0.56018 -0.34742 0.18674 -0.16255 0.62242 0.18027 -0.22202 0.13059 -0.28298 -0.2271 -0.092372 0.014698 -0.25413 0.63938 0.267 0.11529 -0.56794 -0.3826 0.017388 0.35201 0.0070019 0.20662 -0.61516 -0.12123 -0.028077 0.022011 0.16082 0.056907 0.21945 0.27095 -0.11866 0.33896 -0.42266 -0.022154 0.070453 -0.30629 
M218 0.15315 0.30922 0.49565 0.096137 0.13952 0.049113 0.58862 -0.33515 0.26962 0.71475 0.22894 0.16455 0.2365 -0.082118 -0.37429 0.24802 -0.22125 0.1977 -0.21009 -0.095173 -0.30897 -0.048697 0.17996 0.18245 0.30032 0.089678 0.09056 -0.99123 0.11964 -0.028593 -0.38739 -0.0070501 0.18015 0.25751 0.14069 0.40392 0.28477 -0.41508 -0.10251 0.59851 -0.082863 0.14416 0.38296 -0.13639 -0.65801 -0.10395 -0.32573 -0.0065155 0.28927 -0.72111 0.051968 -0.32917 -0.192 -0.07232 -0.29731 0.079572 0.039131 -0.017178 0.08721 0.29553 0.32869 0.38604 0.13603 -0.17053 -0.036342 -0.18397 0.29162 -0.10609 0.48599 -0.29308 -0.034788 -0.1425 0.11524 0.41674 0.18752 0.30142 0.29229 0.25743 0.067077 0.011968 0.45302 0.26372 -0.21172 0.13231 0.44834 -0.36598 -0.016082 0.29201 -0.19098 0.51458 0.09379 0.33252 0.38507 -0.10261 -0.18244 0.38274 0.3869 -0.45739 0.051859 -0.24835 0.030096 -0.29961 -0.019773 -0.17166 -0.071864 0.19078 -0.35678 0.32594 -0.23797 -0.17269 -0.32686 -0.31017 -0.044342 0.1914 -0.33505 0.091096 0.024635 0.49281 0.51754 0.41869 0.0074839 -0.073956 0.066662 0.23327 0.4305 -0.025616 -0.25886 0.22613 
M387 0.39031 -0.092507 -0.19389 0.08883 0.15877 -0.029287 0.20361 -0.74106 -0.23919 -0.14447 -0.25539 0.29114 -0.19592 -0.066113 -0.071919 -0.018473 -0.037425 -0.37317 0.14471 0.013561 -0.26958 0.62202 0.10469 0.23899 -0.16154 0.59578 -0.18663 -0.45688 0.61338 0.095925 0.0086353 -0.2265 -0.3711 0.37987 -0.93274 0.034617 -0.38202 -0.020304 -0.11252 -0.25349 0.013918 -0.22882 0.25856 0.17054 -0.16715 -0.14922 -0.31057 0.24256 0.023822 0.0016201 0.33048 -0.44038 -0.039762 -0.52325 -0.3093 0.083856 -0.58749 -0.021536 0.36137 -0.0013483 0.34346 0.084503 -0.099406 0.50466 0.31063 -0.040163 -0.44623 0.46268 -0.091785 0.02641 0.2917 0.26799 0.30615 -0.0084396 -0.60686 0.063141 0.060733 0.79235 -0.20242 0.097304 -0.44719 -0.035361 0.035395 -0.10769 0.41388 -0.59094 -0.060309 -0.079212 -0.27607 -0.67439 0.30875 0.4055 0.46733 -0.035147 -0.1346 0.40587 0.31573 -0.36689 -0.12056 -0.26282 -0.32337 0.44525 -0.16155 0.11983 -0.1609 0.17667 0.057993 -0.38283 -0.13165 0.33658 -0.42158 -0.116 -0.39297 -0.10679 -0.52028 0.067201 0.42089 0.19738 -0.043223 -0.29678 -0.15831 -0.060495 0.40274 0.54489 -0.18885 -0.41492 -0.30989 -0.065203 
4(N01) 0.16251 0.030048 -0.80258 -0.11963 -0.45785 -0.15951 -0.25206 0.0029857 0.15235 0.46856 0.42359 -0.49613 0.19056 -0.23213 -0.32844 -0.26427 0.11696 0.53116 0.1311 -0.050829 0.0776 0.87357 0.68948 -0.14599 0.073081 -0.23646 -0.053245 -0.89041 -0.83661 -0.08421 -0.22302 -0.28312 0.52908 0.30358 -0.83047 0.51557 -0.030335 0.10762 0.5219 -0.0059433 0.47216 0.60471 0.34178 -0.07285 -0.45378 -0.26587 -0.27844 -0.28623 -0.38096 0.039749 0.80002 0.17829 -0.41049 0.032194 -0.059201 -0.076196 0.21401 0.35075 -0.3593 0.19453 0.22877 -0.76685 0.11196 0.077779 0.1632 -0.39388 -0.73711 0.53916 0.17867 0.12974 0.34914 0.65256 0.47795 -0.40153 0.18904 0.39382 -0.24028 0.12762 -0.11794 0.26855 0.25677 -0.12927 0.34525 -0.48925 -0.14837 0.59608 -0.63242 -0.37385 0.10516 0.2022 0.17797 0.20099 0.38751 0.46808 -0.80664 -0.26603 0.18837 0.39658 0.093062 -0.043953 -0.42757 0.15399 0.64665 0.19607 -0.24798 -0.1003 0.39492 0.87434 -0.28622 0.46159 -0.024427 -0.46939 -0.10217 0.32156 -0.20161 -0.17741 -0.27277 0.32841 0.31328 0.81958 0.25468 -0.065745 -0.073457 -0.30596 -0.13253 -0.12022 -0.030121 0.049393 
1(N39B) -0.65086 0.12394 0.39191 0.19159 -0.25743 -0.013548 0.3286 -0.55695 0.33699 -0.034707 0.092177 0.19865 -0.032129 0.62835 -0.2538 0.48743 -0.39544 -0.2384 0.055527 -0.07168 -0.086172 -0.2519 0.094639 -0.41978 0.33089 -0.47042 -0.31961 -0.033819 -0.47721 0.10986 0.064168 -0.040218 -0.97602 -0.45304 0.041007 0.49055 -0.37397 -0.74834 -0.07166 0.37646 -0.43091 0.14608 0.13809 0.71569 0.75972 -0.013088 0.017869 0.15137 -0.38256 0.18638 0.12542 -0.16225 -0.36086 -0.1753 -0.72452 0.61302 -0.018456 0.24903 -0.12546 0.032567 -0.44332 -0.42931 0.11982 0.076641 0.20975 -0.12658 -0.35398 0.47314 0.92364 0.60156 -0.17561 -0.26944 0.55141 -0.30158 -0.034153 -0.24632 -0.25043 -0.47717 0.31183 -0.32263 0.2956 -0.038718 -0.097433 -0.19017 -0.23976 -0.40402 -0.056449 -0.35159 -0.014227 -0.38409 -0.19548 0.17278 0.014639 -0.004037 0.30242 -0.36132 0.082753 -0.72312 -0.64096 -0.4933 -0.75705 0.16293 0.20706 -0.34354 -0.10137 0.47736 0.10134 0.259 -0.16617 0.4405 0.099249 -0.56189 0.66439 0.73287 -0.2454 -0.19115 0.024706 0.15344 0.20463 0.62649 0.7144 0.07071 0.16586 0.55738 0.69131 0.181 -0.015827 0.28727 
2(N39B) -0.13088 -0.42308 0.076044 0.34662 0.13559 -0.11455 0.44326 0.50941 0.31364 0.73895 -0.056617 0.36584 0.28192 0.035406 0.33269 0.35816 0.042702 -0.37189 0.41941 0.03542 -0.30127 0.35815 0.22417 -0.34972 0.16567 -0.32606 -0.47182 0.12933 0.55557 -0.079605 -0.44297 -0.45718 -0.34532 -0.49394 -0.19439 0.4234 -0.015498 -0.84591 -0.77393 0.36126 0.20596 -0.68943 -0.1646 0.47705 0.201 -0.12209 0.076292 -0.062105 -0.72601 0.77602 0.45611 0.65467 0.037267 -0.34648 -0.0040016 0.012915 0.27836 0.18611 -0.014013 0.067134 -0.31413 0.17459 0.36241 -0.17745 0.1999 -0.45656 0.34754 0.012137 0.22308 -0.10346 -0.46985 0.14156 0.81494 -0.55424 0.68649 -0.062573 -0.11336 0.71933 -0.51581 0.12644 0.027504 0.11718 -0.34662 0.1141 0.13891 -0.41525 -0.62728 0.18988 -0.12779 -0.42932 0.29116 0.35389 0.5159 0.22843 -0.20261 -0.050199 0.019874 -0.0030787 -0.29366 0.074006 -0.30198 0.049477 0.035281 -0.015007 -0.12735 0.67642 0.24706 0.34411 -0.67735 0.93511 0.4517 0.06806 0.3272 0.68537 -0.33221 0.38037 0.34178 -0.58313 0.6903 0.38667 0.51977 0.56667 0.060509 0.55385 -0.27517 0.08609 -0.41556 -0.074672 
5(N01) -0.13566 0.042664 -0.46743 -0.35668 -0.36142 -0.0036757 -0.40272 0.11843 -0.24443 1.0981 -0.55107 -0.35889 -0.053558 -0.1036 -0.31155 -0.072645 -0.18193 -0.097324 -0.00028048 0.24571 0.1763 0.28864 0.14847 0.15647 0.16354 0.2092 0.47114 -0.62387 -0.28538 -0.48859 -0.082001 0.59676 0.14936 0.16992 0.20829 -0.37689 -0.18361 -0.65281 0.083596 -0.40752 -0.20729 -0.32397 0.11446 0.0058355 0.1317 -0.42864 -0.3411 -0.076325 -0.16548 0.12604 0.42729 0.72982 -0.076082 -0.19424 -0.57261 0.33962 -0.47514 -0.30593 0.074312 0.22801 -0.018179 -0.3747 0.2349 0.28656 0.27071 0.34476 -0.018259 0.75587 1.0196 -0.30963 0.21124 0.89822 0.35894 0.11351 0.20699 -0.50546 0.25686 0.63462 -0.31974 -0.15878 -0.3201 -0.20441 0.16063 -0.025392 -0.3557 0.2762 0.00097064 -0.0063821 -0.47572 0.075076 0.13575 -0.6165 0.27631 -0.19356 -0.68965 0.3801 0.93934 0.047039 0.077781 -0.2502 0.10283 -0.37917 -0.45573 0.0013353 -0.93416 0.53855 0.39026 0.37868 0.10823 -0.17386 0.60612 0.26801 0.28288 0.086669 0.46345 -0.5648 0.17821 0.00010724 0.34667 0.4289 0.66302 0.61201 0.34812 -0.27419 0.075099 -0.77483 -0.5019 -0.045322 
M297 -0.062539 -0.12183 0.26703 -0.42741 -0.47207 -0.11365 -0.068687 0.13734 -0.16726 -0.28634 0.35987 0.67598 0.32553 0.28405 0.089543 0.39143 -0.18046 -0.52079 0.20332 -0.75978 0.51493 0.20838 -0.58796 0.2261 0.438 0.29599 -0.73989 -0.18986 0.1286 0.10797 -0.11548 -0.0090001 -0.48757 -0.021618 0.21853 0.37337 0.80127 0.21763 0.29741 -0.26141 -0.56648 0.1155 0.23917 -0.09196 -0.34234 0.18428 -0.42344 0.067748 0.14746 0.17275 -0.036445 0.28115 0.15493 -1.0017 0.45112 0.15894 0.50564 0.26732 -0.41964 -0.42604 0.73565 -0.050635 -0.31609 -0.28782 0.37519 0.10141 -0.52241 -0.11695 0.46388 -0.50044 0.34542 0.011813 0.46304 -0.37583 -0.045673 -0.53315 -0.21528 0.2579 -0.803 -0.23712 0.077429 0.30198 0.40938 0.15891 0.26719 -0.46708 0.12336 0.37466 0.020299 -0.032463 0.089372 0.30783 -0.17559 0.71569 0.49923 -0.044513 0.42719 0.1475 0.022073 -0.15616 -0.99127 -0.031264 0.56519 0.18919 -0.34194 0.15692 0.28784 0.29882 -0.33402 -0.23664 -0.10664 -0.10383 -0.68655 0.15407 -0.067887 -0.37399 0.076558 -0.31998 1.0465 0.46127 -0.20153 -0.24221 0.35386 0.20549 0.08704 0.39 -0.30015 0.14164 
M263 0.37256 -0.030849 0.32255 -0.055046 -0.32 0.33612 0.31606 -0.31229 0.31387 0.35638 0.081787 0.19013 0.20362 0.51272 -0.79066 0.75533 -0.18223 -0.33899 0.26292 -0.37406 0.5773 -0.31403 0.23092 0.55655 -0.007148 0.22127 -0.2288 0.3351 0.39591 0.35837 0.26298 0.063665 -0.32849 0.70912 -0.16918 -0.5511 -0.27165 -0.21861 -0.60744 0.51301 -0.49001 -0.37123 0.5601 0.36293 -0.20816 -0.025598 -0.53239 -0.25621 0.099577 -0.48315 -0.10424 -0.072718 -0.068855 0.0172 -0.16688 -0.11134 -0.0231 0.13241 -0.47694 -0.15966 -0.038662 -0.26124 0.043286 0.36553 -0.14297 0.070004 -0.29241 -0.22892 0.24608 0.41204 0.30524 0.18336 0.070122 -0.066698 -0.0055126 0.16949 0.45303 0.31479 0.046096 -0.094602 -0.26874 0.060996 -0.35043 0.24514 0.32956 0.45474 -0.7266 -0.53921 -0.31043 -0.13997 -0.89654 0.41081 0.19627 0.039794 -0.2469 0.41653 0.50441 0.34851 0.094945 -0.5119 0.14233 -0.2046 0.32127 -0.13037 0.1236 -0.34083 -0.40444 0.40014 -0.35424 -0.073176 -0.0095684 -0.72186 -0.36596 0.104 -0.41737 0.22909 -0.099485 0.092787 0.41827 0.13495 -0.54251 0.35783 0.2747 0.57991 -0.61184 -0.55189 -0.30404 0.21141 
2(N14) -0.55127 -0.0096494 0.065511 0.33325 -0.079404 -0.030651 0.49487 -0.30656 0.23806 0.12385 0.57603 -0.098575 -0.11945 0.3697 -0.14147 -0.29728 -0.93994 0.16323 -0.0026347 0.095688 -0.22214 -0.07398 0.43565 -0.49608 -0.75877 0.24986 0.070484 0.16074 0.2747 0.095171 -0.36217 -0.33285 -0.098432 0.11932 0.45556 -0.20523 -0.70687 0.22321 0.0065488 -0.31955 0.046688 0.55177 -0.19187 -0.0092964 0.28027 0.31921 -1.1159 -0.67555 -0.43196 0.45027 0.41871 -0.018102 -0.077764 -0.007908 -0.12275 -0.43874 0.073672 0.49203 0.445 0.72311 0.89024 0.22527 -0.51465 0.29666 -0.62167 0.63098 0.65773 -0.56895 0.78575 0.099951 0.26792 -0.047586 -0.32715 -0.85094 -0.32292 0.048866 -0.69743 0.55844 -0.28871 -0.44148 -0.094869 0.18768 -0.20563 0.11943 -0.050402 0.30759 -0.27078 0.20665 -0.0097961 -0.24617 0.35182 0.38634 0.96538 -0.13345 0.30779 -0.34502 0.018606 -0.43491 0.24536 -0.25216 -0.056227 -0.053829 -0.2838 -0.30759 0.030499 -0.024517 -0.0056379 0.024502 -0.086133 -0.042777 0.52893 0.092977 0.5577 -0.24085 -0.10532 -0.17429 0.33676 0.41052 0.58754 0.51221 -0.60221 0.044261 0.33326 -0.21703 -0.56082 0.39741 -0.4511 0.27802 
M157 0.84353 -0.0050781 -0.33058 0.27559 -0.22146 -0.16442 0.21957 0.76558 0.14451 0.49487 -0.42965 -0.24846 1.0245 -0.11405 -0.20312 -0.18291 -0.23236 -0.4984 -0.31686 -0.91541 -0.036328 -0.3664 0.042817 -0.10765 -0.14287 -0.080627 -0.94719 -0.19146 0.22874 0.079819 0.73402 0.033832 0.35766 -0.20037 -0.5717 0.60999 -0.30813 -0.30831 -0.27342 -0.846 -0.92265 0.98273 0.56421 0.067542 -0.022601 0.99129 -0.64516 -0.26556 0.30239 0.34375 1.0128 -0.32092 -0.736 -0.3952 0.65495 -0.24888 0.34187 -0.019362 0.71817 -0.13279 -0.86102 0.5273 -0.058822 0.27451 -0.25217 0.81869 0.00073411 -0.45792 -0.053537 -0.82052 0.13932 -0.2207 -0.36008 -0.044706 -0.4854 -0.52485 -0.34078 0.132 -0.52549 -0.98056 -0.38477 -0.4059 0.54918 0.44929 -0.17018 0.22284 0.42124 -0.3386 0.76271 0.099033 0.41661 0.28179 0.49668 0.10933 -0.33532 0.39179 0.73833 0.48428 -0.25063 -0.15184 0.35533 -0.051238 1.0473 0.20323 -0.87169 0.52571 0.16534 0.47416 0.72312 0.2378 0.10666 0.25724 -0.28616 -0.071238 -0.55489 -0.33768 0.14794 -0.917 0.4019 0.40284 0.9477 -0.41431 0.7585 0.53442 -0.15846 -0.44776 0.29106 0.75805 
M371 -0.32442 0.2936 0.33565 0.13171 0.15755 0.0037607 0.11187 -0.11413 0.56899 -0.107 0.28848 -0.17654 -0.08576 -0.27523 -0.66176 0.11175 0.38501 -0.40901 0.29037 -0.41468 0.57558 0.3772 0.019138 0.096956 -0.19764 0.19842 -0.019498 -0.19467 -0.54326 -0.16274 -0.20402 -0.0049764 0.27023 0.34875 0.16517 -0.12683 0.32038 0.28541 -0.23572 -0.26539 -0.18356 0.32127 0.29369 -0.65689 -0.28918 -0.25129 -0.15564 0.028546 0.10007 -0.2962 -0.62538 -0.9204 -0.43477 -0.19857 -0.26549 0.25813 -0.16758 0.18736 -0.21109 0.014589 -0.01401 0.37378 0.40071 -0.36325 -0.58887 -0.075566 0.26293 0.038638 0.59165 -0.048044 -0.076753 0.512 -0.55213 -0.26724 -0.17654 -0.27411 0.52581 -0.076126 -0.4952 0.46143 -0.67025 -0.46118 0.34054 0.059255 -0.12434 -0.39614 -0.095316 0.44147 -0.13161 0.53584 -0.063784 0.37717 0.84436 0.39185 0.48318 0.037322 0.2878 -0.58949 -0.065446 -0.45738 0.13601 -0.24254 -0.051361 -0.35667 -0.37451 -0.053991 -0.059607 0.29332 -0.17627 0.68198 -0.16132 -0.12392 -0.52519 0.082929 -0.34831 -0.26561 0.014517 -0.24472 0.11936 -0.19408 0.063135 0.74231 0.16611 0.51767 -0.14533 -0.72002 -0.13639 0.33128 
1(N30C) 0.22058 0.18581 0.35666 0.041015 -0.070169 0.68476 0.50713 0.45243 0.79987 0.57569 0.11279 0.13826 -0.64747 0.33998 0.064415 0.51756 -0.018957 0.3217 -0.33017 -0.3577 -0.062156 -0.12299 -0.32726 -0.61468 0.98681 0.67418 -0.045179 -0.7167 -0.19136 -0.33788 -0.30667 -0.15519 -0.15 0.22884 0.40269 -0.18027 0.10354 0.15837 -0.057756 -0.251 0.44605 -0.043587 -0.2979 0.32701 -0.13788 0.43035 0.2432 0.054474 -0.4569 -0.14334 0.29921 0.36355 0.032065 -0.27084 0.17952 -0.88018 -0.11952 0.45387 0.20598 -0.17479 0.40342 -0.76471 0.17166 0.9492 -0.11527 -0.29981 -0.57018 -0.1826 0.13637 0.13608 -0.043528 -0.27849 0.86917 -0.22476 -0.75629 -0.047134 0.1047 0.18794 -0.42526 -0.030771 -0.25748 0.060826 0.35675 0.073907 -0.53951 -0.70668 -0.57797 0.35478 0.13538 0.070906 0.028414 0.13955 -0.12992 -0.062105 0.25306 -0.43576 0.50948 -0.34362 0.22765 -1.0891 -0.77038 -0.38811 0.44793 0.24086 0.0048883 1.0173 0.31233 0.3072 -0.54923 0.58427 -0.16921 -0.027654 0.33243 -0.45592 0.45868 -0.23837 0.22513 -0.64641 -0.02019 -0.0048253 0.089829 0.1474 0.52603 -0.12191 -0.63496 -0.0046179 0.21559 0.45758 
M124 -0.10872 -0.038725 -0.028447 0.029163 -0.10368 0.38708 0.84616 -0.14623 -0.3053 -0.041598 0.035138 0.83896 0.0032647 0.17674 -0.091248 -0.39621 -0.049617 -0.0096815 0.20884 -0.36566 0.34751 0.23954 -0.13604 0.14205 -0.20512 -0.12295 0.17812 -0.011368 -0.42935 0.47476 -0.0030721 -0.01114 -0.067266 0.16094 -0.39118 0.49765 -0.085407 -0.18746 0.11032 -0.13792 -0.25722 -0.036494 0.32552 0.29049 -0.50139 0.45438 0.052663 -1.1738 -0.47094 -0.36812 0.15592 -0.58075 -0.30785 0.11199 -0.27432 0.031176 0.17704 -0.29793 0.00044795 0.073331 0.027028 -0.43767 0.27193 -0.7904 -0.39749 0.28993 -0.22547 -0.059408 0.12551 -0.056452 -0.31098 0.61465 -0.026918 0.64644 -0.42864 -0.12545 -0.29056 0.21188 -0.042138 -0.35822 0.057281 0.28691 0.26141 0.60267 -0.34096 0.36366 -0.67194 0.08577 -0.60349 0.2085 -0.22757 0.4519 0.91307 0.29414 0.39007 0.43902 0.59978 0.032359 -0.47649 -0.54764 0.49589 -0.30967 -0.0024883 -0.15218 -0.010634 0.42985 -0.019816 -0.91083 -0.037342 0.12899 0.024814 0.098867 -0.22726 0.44263 0.37416 0.084267 -0.018037 -0.55136 0.45658 0.013919 0.41747 0.084416 0.57668 0.48328 0.21703 0.20975 0.42606 0.76382 
M054 0.14325 0.37199 -0.62194 0.054844 0.093595 0.013781 0.67558 -0.44529 0.24342 0.2184 0.1514 -0.01573 -0.47394 0.040866 0.38528 -0.12942 0.65075 -0.15897 0.58395 -0.20601 0.44276 0.12277 0.45578 -0.45761 0.53114 0.53048 0.35623 0.26893 -0.016144 0.73221 -0.53015 -0.17969 -0.32176 -0.43047 0.24266 -0.39659 0.56158 0.69977 -0.12211 -0.24784 -0.0089646 0.033724 0.59837 -0.091293 -0.019215 0.38128 -0.71031 -0.11086 0.37956 -0.24762 -0.70127 0.63359 -0.64978 -0.049613 -0.12772 0.41945 -0.60195 0.22269 0.33397 -0.14467 -0.18886 0.4207 -0.45335 0.52229 0.52052 -0.15703 0.33144 0.59453 0.54042 -0.0083914 -0.12609 0.17214 -0.36075 0.41828 0.22511 0.2939 -0.020413 0.71196 -0.64358 0.28185 -0.043344 -0.24106 0.63916 -0.16515 0.5422 0.54517 -0.47774 -0.66588 0.13541 0.098487 0.54523 0.38405 0.27591 0.33336 0.65352 -0.17005 0.22168 -0.39057 -0.56398 0.15487 -0.3 0.31381 0.91238 -0.53108 -0.33929 0.37598 0.004069 0.34561 -0.011787 -0.22505 0.46964 -0.31988 -0.19249 0.073343 -0.1412 0.61153 0.31885 -0.088228 0.19302 -0.13502 -0.057846 -0.46327 1.0007 -0.50626 0.15981 -0.1951 -0.048157 0.3113 
M346 0.36571 -0.39132 -0.059627 -0.55639 0.017193 -0.826 0.080808 0.5014 0.058008 0.51744 -0.16566 0.15495 -0.37387 -0.4808 -0.53083 0.28413 0.50355 -0.58483 0.65202 -0.039084 0.13816 0.45922 -0.14199 0.08 -0.1869 0.24748 -0.18438 -0.35845 -0.54906 -0.2492 0.095774 0.033628 -0.12339 0.4421 0.88194 -0.5784 0.35949 -0.9283 -0.68505 -0.18203 0.56156 0.67368 0.75294 0.81206 -0.17086 0.25441 0.23655 -0.32621 0.044871 0.18749 0.075345 0.6066 -0.025538 -0.059842 0.17591 0.16093 0.33687 -0.42867 0.085432 0.3231 0.23931 0.066865 -0.94684 -0.35014 0.053391 -0.27342 0.23406 0.01172 0.62347 0.49119 -0.062742 -1.0309 -0.52306 -0.26211 0.1556 0.52352 0.25013 0.85785 0.034975 0.39309 -0.0095144 -0.1936 0.34759 -0.11321 -0.18722 -0.22134 -0.44264 0.10625 -0.30906 -0.057793 0.034119 0.53161 -0.33054 0.3771 0.46254 0.4217 0.052451 -0.64459 -0.62081 -0.033455 -0.17057 0.35734 0.45608 -0.18498 -0.15661 -0.44144 -0.081066 -0.53738 0.024769 0.4277 -0.02943 0.092175 -0.52448 0.44578 -0.3321 -0.0273 -0.1206 0.21241 -0.23517 0.27448 -0.024888 0.363 1.2092 0.41373 -0.038046 0.59783 0.055614 0.3748 
M066 0.12349 0.019512 0.17154 0.023156 0.27152 -0.41773 0.26281 -0.2942 -0.0089079 -0.048193 -0.070113 0.077023 0.32771 -0.071976 -0.41044 0.92852 -0.059507 -0.61734 0.172 -0.26945 0.68971 -0.55123 0.15448 0.48903 -0.034693 -0.41545 -0.42487 -0.90379 -0.43658 -0.20261 -0.44423 0.053054 -0.27334 -0.18562 0.12134 0.034798 0.19384 -0.034602 -0.18618 -0.12031 -0.21045 -0.20488 0.16137 0.058931 -0.78209 -0.015096 -0.27426 -0.71695 -0.47211 -0.24984 -0.74626 -0.07131 0.058655 -0.22466 -0.17754 -0.48284 -0.083341 0.46633 -0.137 -0.10627 0.39783 -0.31916 0.16801 0.13281 -0.049721 -0.31201 0.1967 0.35269 -0.34031 -0.36321 0.39627 0.065599 -0.13048 -0.11362 0.16143 -0.65714 -0.27895 0.43942 0.31497 -0.12305 0.1275 -0.058083 -0.22797 -0.21402 0.31086 0.24341 0.10889 -0.057282 -0.59463 0.17087 -0.065442 0.85745 0.16296 -0.054899 -0.12774 0.3252 0.67871 -0.37177 0.010662 -0.17291 0.48505 0.11312 -0.094847 -0.30098 0.47113 0.12181 0.3418 0.29503 0.05536 0.44165 -0.16164 0.5604 0.091447 0.12041 -0.21441 0.50421 0.03081 0.14399 0.62415 0.12701 0.099694 0.046576 0.073992 0.18813 -0.15951 0.68897 -0.12767 0.079112 
2(N30C) 0.07922 -0.50335 -0.44923 -0.068742 -0.093848 0.77347 0.12203 -0.30623 -0.017347 0.38754 -0.050415 0.62443 -0.48823 0.27587 0.013742 0.17795 0.22719 -0.4402 0.1073 0.10574 0.31344 0.9666 0.16592 -0.58727 -0.10939 0.072368 -0.10094 0.21833 0.1645 0.43711 -0.12541 -0.34231 0.28564 -0.17361 0.63755 -0.064965 0.23264 0.07386 0.27015 -0.17797 0.072007 -0.1756 0.38815 1.1324 -0.1385 -0.47397 -0.20662 -0.2476 0.036002 -0.49691 -0.13104 -0.0035 -0.26596 0.0089002 0.38966 -0.91328 0.58315 1.424 0.3765 0.21565 0.36579 -0.3413 0.42535 0.29097 0.74445 0.38027 -0.67886 0.10381 0.35922 -0.24141 0.035435 -0.26306 0.071274 0.12096 -0.77076 -0.70528 0.46032 0.82841 -0.16233 0.49804 -0.3375 0.60957 0.4107 -0.21169 -0.45779 -0.40188 -0.4045 0.15924 0.54007 0.011153 -0.64236 -0.29327 0.13665 -0.85017 0.075368 0.099927 0.15276 -0.3195 -0.42433 -0.42726 -0.54008 -0.038085 0.014727 0.015393 0.33906 0.37214 0.46507 0.29698 -0.37428 0.38972 0.5042 -0.32586 0.73491 -0.016713 -0.027478 0.031377 -0.16445 -0.43455 0.36975 0.1138 0.23218 0.47502 0.29851 0.58736 -0.12517 -0.21443 0.42378 -0.27581 
M009 -0.32659 -0.020743 0.58512 0.32454 0.83489 -0.26346 0.2193 0.22041 0.2656 1.0862 -0.48364 0.6125 0.11375 -0.068448 -0.64342 -0.34163 0.052789 -0.26272 0.49858 -0.21887 0.45917 -0.51983 0.35255 -0.39619 0.61113 0.26601 -0.87916 -0.13871 0.22738 0.23616 0.016793 -0.60902 0.66677 1.1369 -0.53789 0.37021 -0.35339 0.067181 0.10412 -0.17048 -0.54145 0.38233 0.60895 0.49681 0.28131 0.056314 -0.037925 -0.2258 -0.17252 0.083795 0.22018 -0.22634 -0.65321 -0.26351 -0.34518 -0.070693 -0.47956 0.13276 -0.15782 -0.023338 -0.0038745 -0.37733 -0.60463 -0.27539 -0.18587 0.2824 -0.14345 -0.32808 0.34014 0.17776 -0.26604 0.076692 0.12686 0.2244 -0.095075 -0.24115 0.91153 0.084167 0.0056146 0.87321 0.31933 0.50131 0.99173 0.88753 -0.89549 -0.074793 0.26458 0.099992 -0.13819 -0.34154 0.33752 0.80442 0.31299 -0.39845 0.039371 0.46145 0.24711 0.20112 -0.60911 -0.44205 0.2189 0.26753 -0.0013125 -0.25644 -0.03063 -0.72747 0.027814 0.29815 0.25734 0.10434 -0.38762 0.63168 -0.0041794 0.036782 -0.36643 -0.29587 -0.36463 0.094278 0.039992 0.0055228 -0.25112 0.8098 -0.1157 -0.31903 -0.38808 0.15211 -0.88443 0.22604 
3(N39B) 0.23196 0.17606 -0.083863 0.054665 -0.2903 -0.35272 0.15261 0.1731 -0.030882 0.25673 -0.33939 -0.013032 -0.25176 0.48457 -0.4492 0.38112 -0.059434 -0.3567 -0.15848 -0.17249 -0.44622 0.54324 0.84039 -0.090764 0.16423 0.34219 -1.2019 0.051929 0.083864 0.61262 -0.34883 0.16819 -0.28086 -0.21922 0.48072 -0.43179 0.33589 -0.12241 0.60121 -0.13174 -0.1836 0.010127 -0.58655 -0.15184 0.47592 -0.32871 0.27259 -0.59764 0.93198 0.19435 0.17891 0.15489 -0.12007 0.27166 -0.77481 -0.51704 0.016441 0.29965 0.59179 0.87757 0.54955 0.48069 0.45092 0.14465 0.27465 -0.94307 -0.6332 0.0077512 0.76262 0.54585 0.34291 -0.38716 -0.13176 -0.10427 0.026802 -0.024597 0.083318 0.48167 -0.36455 0.20204 0.28413 0.17463 -0.40317 -0.39746 -0.18653 -0.33732 -0.31987 0.48175 0.50252 -0.52411 -0.40002 0.37536 0.64833 0.36033 0.27629 0.094529 -0.2149 0.4572 -0.2882 -0.2033 -0.25105 -0.29147 -0.076793 -0.17062 -0.34773 0.30729 -0.031787 0.2927 0.2923 0.90582 -0.3636 -0.25073 0.14062 0.68898 -0.14296 -0.15455 0.6452 -0.75642 0.72752 0.10244 0.75432 0.17821 0.05995 0.85883 0.42917 -0.29673 0.0045403 0.22086 
M096 -0.32282 0.26006 -0.030807 0.833 -0.17216 -0.012515 0.070693 -0.40124 0.51732 0.52852 -0.17549 0.54545 -0.48094 -0.14912 -0.75514 0.20773 0.28831 -1.0069 0.17954 -0.38158 0.10451 0.048697 -0.22147 0.39866 0.28221 0.99572 -0.55549 -0.31746 -0.23612 0.23361 -0.3241 0.076836 0.023696 -0.5448 0.1804 0.39682 0.23637 -0.21435 0.77382 -0.57013 -0.47174 -0.22873 0.11855 -0.22392 -0.77106 -0.24203 0.26986 -0.015042 -0.15469 0.099829 0.51073 -0.10142 -0.80413 -0.24246 0.0069348 0.15869 0.23264 -0.56221 0.18755 0.198 0.17881 -0.10508 0.075014 0.18608 0.12609 -0.0494 -0.093389 0.23663 0.017717 0.10159 -0.064096 0.14043 -0.40897 0.0057795 0.13127 -0.074 -0.23519 -0.045707 0.4367 -0.11825 0.28356 -0.50034 -0.4213 0.20755 0.5134 -0.29044 -0.47012 0.19697 -0.14303 0.26186 0.17677 0.39379 0.016223 -0.61384 0.19874 0.43779 1.0214 0.046171 0.076807 -0.030927 0.12169 -0.38647 0.52316 -0.057769 0.20881 0.065141 0.0030972 -0.23906 0.2364 0.48603 0.20657 -0.17739 -0.016023 -0.26658 -0.59979 0.19251 0.017029 -0.078162 0.36146 0.22444 -0.44426 0.59444 -0.048419 0.10947 0.01088 -0.17582 -0.11017 0.32075 
6(N01) -0.25824 0.012759 -0.56248 0.13843 0.34639 0.061359 0.057347 0.2862 0.18343 0.3718 -0.36982 -0.077384 0.52091 0.15048 -0.63172 -0.070531 0.57895 0.064594 -0.21666 0.50522 -0.075136 -0.15306 0.31189 -0.66247 0.043402 -0.45807 -0.082865 -0.38737 -0.092912 0.40678 0.49372 0.78788 -0.20038 0.093546 -0.52366 -0.45457 0.19143 -0.52585 -0.018801 -1.1111 0.46538 1.2008 0.5858 -0.072704 -0.65595 0.32078 -0.34839 -0.25824 0.051903 0.56888 0.90161 -0.16592 0.55806 -0.18524 0.89086 0.43026 0.05858 0.69742 0.2752 0.359 -0.10843 0.47865 0.2578 -0.14918 0.83205 0.022222 -0.089722 0.925 0.1553 -0.27257 0.031854 0.47451 0.22848 0.14958 0.77171 -0.52528 0.066136 0.70846 -0.36636 0.45414 0.45057 0.081612 0.27906 -0.88295 0.11073 0.86664 -0.36695 -0.32774 -0.46782 -0.52468 -0.80158 -0.38327 0.75436 0.20825 0.42041 -0.19858 1.1508 -0.48332 -0.099368 -0.85955 -0.42114 0.21484 -0.14655 -0.20304 0.055609 -0.17231 -0.37166 0.41724 0.28712 0.37982 -0.050604 0.010464 0.37173 0.025537 -0.46909 -0.22192 -0.63492 0.3112 -0.10231 0.73347 -0.65648 0.017037 -0.14818 0.25801 0.3328 -0.39126 -0.69672 -0.42094 
M376 -0.44293 0.063559 -0.24241 0.48618 0.04087 -0.58321 0.15069 0.26544 0.61776 0.2873 -0.64547 -0.062481 0.2622 -0.6668 -0.36209 -0.21532 -0.19213 0.86627 -0.093604 -0.42344 -0.32632 0.16998 -0.40806 -0.3498 -0.25006 1.1802 -0.71786 -0.33121 0.07281 0.38583 0.27973 0.26747 -0.45164 -0.10936 -0.45481 -0.33841 -0.1282 -0.20093 -0.77028 -0.40015 0.22873 -0.13042 0.70362 0.17609 -0.14674 0.13662 0.091174 -0.99875 -0.1937 0.38351 0.17299 -0.11475 0.67096 0.51208 -0.1875 0.39744 0.11475 0.4887 0.40614 -0.5936 0.11857 -0.41113 0.21268 -0.72423 0.55904 -0.07229 -0.31541 -0.38636 0.78172 0.31549 -0.079602 0.63996 -0.81302 0.010054 0.44148 -0.45423 0.51652 1.0049 -0.17825 -0.061716 -0.17489 -0.19226 -0.18512 0.24728 0.34106 -0.15594 0.30243 0.19264 0.053376 1.0013 0.43616 0.37318 -0.40707 0.89205 0.34269 0.16964 0.57823 0.5518 -1.057 -0.51091 0.36579 0.4222 -0.19285 -0.14423 0.83496 0.27629 0.31531 1.0844 -0.6174 0.047404 -0.32351 -0.1789 -0.11006 -0.26868 -0.065336 0.061885 0.43614 -0.29499 0.25769 -0.28202 -0.24897 0.23906 0.62219 0.52747 0.24647 -0.30675 0.43545 0.41475 
1(N34) 0.26653 0.22577 0.28013 -0.51766 -0.66354 -0.040872 0.58837 -0.23641 -0.20451 0.387 -0.31471 0.86952 -0.38144 -0.51572 -0.08129 0.43815 -0.63983 0.29893 0.30171 -0.36916 0.06015 0.99176 -0.52383 0.02549 -0.62034 0.18512 -0.6446 -0.75041 -0.37696 0.6168 0.10739 0.45068 -0.0022012 0.2421 0.45938 0.38585 0.11038 0.42521 -0.34159 -0.34383 0.45617 -0.36948 -0.2816 -0.053949 -0.31571 0.10336 -0.28337 0.5645 0.6823 0.35195 0.18901 0.25127 -0.24806 0.86691 -0.097745 -0.28788 0.11523 -0.45348 -0.55549 -0.3675 0.047878 -0.17818 0.18039 0.60771 -0.50761 0.024989 -0.43721 0.056384 0.78928 -0.2945 0.036824 0.40969 -0.78121 -0.046228 0.48477 0.16452 -0.52625 0.45365 -0.46368 0.46846 -0.49386 0.16681 0.56203 -0.99621 -0.60187 -0.31937 0.52258 -0.24316 -0.22041 -0.461 -0.4355 -0.0044658 0.56762 0.64256 0.12841 0.6392 -0.11521 -0.6522 0.12504 0.55064 0.24284 0.26045 0.27389 0.58829 0.1211 0.83572 -0.8431 0.11607 0.27385 0.49399 1.0353 -0.70054 0.32961 -0.33766 -0.38364 -0.51798 -0.15667 0.95106 0.56994 0.056413 -0.056298 0.18911 -0.36724 -0.15774 -0.22228 0.5154 -0.1728 0.55966 
1(N30D) -0.17162 -0.22964 -0.28225 0.032012 0.28122 0.047825 -0.1553 0.60422 0.69968 0.12695 0.22199 -0.052353 -0.28879 0.096087 -0.65163 0.10783 -0.39557 -0.40056 0.90772 -0.32689 0.41647 0.17522 0.59379 -0.098371 0.43966 0.33481 -0.10152 0.24235 0.35454 0.31152 -0.27848 0.068295 -0.051001 -0.30839 0.39248 0.43556 0.4753 0.061003 0.29177 -0.20523 -0.37571 0.43883 -0.26981 0.64822 0.086567 -0.24982 0.69053 -0.22114 0.31185 -0.37443 0.42985 0.020752 -0.39457 0.37007 -0.051374 -0.59096 -0.34252 -0.10644 -0.36466 -0.42949 0.70206 0.17056 0.42259 0.40859 0.12569 0.035297 -0.58238 0.28574 0.009949 0.064239 0.085595 -0.28864 0.58509 -0.42638 -0.21626 -0.72301 -0.061167 0.8074 -0.56162 -0.065874 -0.27838 0.17769 -0.26198 0.25515 -0.98477 -0.35683 -0.65911 -0.055129 0.22351 0.14983 0.17019 -0.10832 0.60597 0.43388 -0.09344 -0.5839 0.61644 -0.62918 -0.076927 -0.24949 -0.51248 -0.78018 0.2082 -0.34381 0.49056 0.76208 0.4648 0.17407 -0.58159 0.50134 0.022729 -0.63653 0.91111 -0.45784 0.77183 0.11613 0.38221 0.53803 -0.85187 0.38648 0.49532 -0.16571 0.059685 0.044974 0.028713 0.2875 -0.46833 0.072984 
3(N14) -0.58163 0.13682 0.21895 -0.31676 -0.12893 -0.20415 0.3894 0.33003 0.1809 -0.96534 0.12351 -0.32801 0.83233 -0.59325 -0.046688 -0.14365 0.20609 -0.16762 0.34558 -0.42296 0.14318 -0.34203 1.0128 0.14943 -0.13863 0.045076 -0.39356 -0.3458 -0.2567 0.20094 -0.039427 -0.062308 -0.10327 -0.58241 -0.13191 0.0054506 -0.48147 0.37029 -0.30088 -0.45698 0.021687 -0.07597 0.25223 0.090656 0.013076 0.14519 -0.6236 -0.042604 -0.69764 0.27623 -0.22908 0.21504 -0.28238 -0.2247 0.025028 0.44315 0.80668 0.4398 0.98605 0.0062741 0.18524 0.46284 -0.42832 0.53403 -0.57607 0.30906 -0.45644 -0.040979 1.1119 0.0064838 0.31556 0.29785 -0.058606 0.72449 -0.52161 0.32588 -0.1626 0.84312 -0.86846 -0.034089 -0.26894 0.30182 0.30395 0.11761 -0.42966 -0.59179 -0.34831 -0.21531 0.18503 -0.58614 0.33552 0.10967 -0.42102 -0.80052 -0.30605 -0.2321 -0.12288 -0.24654 0.14562 0.15784 0.81296 -0.72978 -0.35235 -0.35524 -0.061734 0.2804 -0.14685 -0.019969 -0.077077 0.049649 -0.5393 -0.70401 0.28432 -0.013654 -0.59457 -0.079802 0.31716 0.7925 0.00088757 0.93879 0.27087 0.64773 -0.24338 -0.016173 -0.10878 0.60423 0.19904 0.35848 
M057 -0.20564 -0.2141 -0.2257 -0.16075 0.0071123 0.14642 0.21884 0.0062891 0.22273 0.26855 -0.39061 0.87382 0.13539 0.88105 -0.18544 0.87545 -0.29958 -0.46289 -0.15255 0.2149 -0.23198 -0.41516 -0.092611 -0.79609 -0.45949 0.87117 -0.35392 0.095464 -0.12175 -0.55838 0.11673 -0.22212 0.36582 -0.60252 -0.28725 0.15285 0.1145 -0.65639 -0.15772 -0.11253 0.13325 -0.24375 0.22755 -0.32038 -0.29233 -0.55128 -0.091899 -0.35975 -0.33207 -0.17279 0.41224 -0.81159 -0.66445 -0.7775 -0.29006 0.063529 -0.44636 0.47444 -0.54332 0.2251 -0.15348 0.44294 0.1171 -0.15977 -0.45634 0.21848 -0.15989 -0.26403 0.4819 -0.43959 -0.32218 0.29122 -0.18465 -0.025425 0.037318 0.29466 -0.014969 0.44828 -0.21477 -0.16304 -0.12473 0.46379 0.19399 -0.87415 -0.048253 0.083185 -0.060143 -0.33013 -0.68795 0.19376 0.17179 0.55438 -0.11849 -0.26836 0.098881 0.78586 0.6862 -0.21196 -0.32803 0.48144 0.51373 -0.18462 0.76049 -0.26515 -0.35857 0.087419 -0.1178 -0.24773 -0.20994 0.038898 -0.55532 -0.11471 -0.43175 0.31759 0.40897 -0.32669 0.34196 0.21525 -0.10539 0.58635 -0.29564 0.024582 0.084902 0.15287 0.21585 0.24746 0.20186 -0.36392 
4(N14) -0.50688 0.47485 -0.30628 -0.42096 0.18353 -0.5066 -0.067111 -0.87033 0.53522 0.31137 -0.048328 0.3441 0.91803 0.23136 0.1739 -0.45941 -0.33362 -0.5638 0.2901 -0.1468 0.068597 0.42025 0.19141 -0.83972 -0.24661 -0.18577 0.042724 -0.16389 -0.042935 -0.23453 0.18542 -0.025768 0.25314 -0.041885 0.2678 -0.74886 0.22842 0.37116 -0.48006 -0.91005 0.25788 -0.021609 -1.0185 0.31909 -0.48421 -0.11667 -1.5935 -0.56993 -0.43928 0.13447 0.62778 0.19717 -0.16611 0.6504 -0.16118 -0.32896 -0.15306 0.28406 -0.12339 -0.12516 0.27831 0.34831 0.15242 0.64821 -0.57988 0.23236 -0.3568 0.64921 -0.031095 -0.23986 -0.040617 0.38236 -0.17486 -0.061975 -0.59596 -0.41631 0.41516 0.16063 -0.48973 0.3702 0.43942 0.11371 0.52191 0.33197 -0.16919 0.033019 -0.21602 0.19891 0.09541 -0.20602 0.42987 0.35278 -0.48588 -0.37489 0.34707 0.23548 0.67212 -0.48727 0.62099 -0.092821 0.95609 -0.25229 0.21516 -0.19971 -0.16751 -0.10139 -1.1997 0.34758 -0.1506 -0.44852 0.031334 -0.591 0.26036 0.17221 0.2086 -0.76251 -0.14735 0.52048 0.27336 0.043084 0.48405 0.096015 0.022741 0.7795 -0.23757 0.60675 -0.49272 0.17675 
M367 -0.31401 -0.66335 0.013156 0.27751 0.60377 -0.28183 0.12345 0.43886 0.20445 0.39774 -0.71651 0.93073 0.11677 -0.16891 0.27267 0.41023 0.80917 0.089611 1.0565 0.17046 -0.56599 0.45292 0.45563 0.18225 0.48394 0.40956 -0.39071 -0.1064 -0.41155 -0.073473 -0.063464 -0.82532 0.12895 -0.58345 -0.50952 0.21819 -0.55587 -0.49712 -0.24184 0.31294 0.31788 0.48235 0.79958 0.36914 -0.025112 -0.066164 -0.35012 0.13474 0.42674 0.27997 -0.82373 0.19139 0.2611 0.78617 -0.36366 0.39573 -0.061262 -0.15103 0.53102 -0.016193 0.68063 0.013186 -0.72879 0.92535 -0.15939 0.73672 -0.94464 -0.941 0.34053 -0.34802 -0.064823 0.1249 -0.69299 0.72102 0.24962 -0.57102 -0.064685 0.24017 0.71062 0.24173 0.92577 0.47735 0.28551 -0.69409 -0.58946 0.90403 -0.52977 -0.13062 -0.33591 0.37998 0.39301 0.10944 0.77737 -0.057342 0.25692 0.03931 -0.29653 0.056877 -0.14717 -0.87218 0.055202 -0.35289 0.91491 0.21945 0.33497 0.36407 0.14966 -0.32708 -0.0862 0.27199 0.4833 -0.67796 -0.49911 -0.37936 -0.20849 0.94747 0.10996 0.42943 -0.10687 -0.49071 0.24278 -0.04469 0.30412 0.40326 -0.25141 -0.0086379 -0.70181 -0.40983 
M001 0.11332 -0.13984 -0.17269 0.23487 0.090055 -0.83691 -0.45451 -0.89209 0.34333 0.013822 -0.34775 0.68751 0.11982 0.12154 -0.020681 0.5253 0.21242 -0.26603 0.54824 -0.089071 0.17649 0.54763 -0.0056911 0.30327 -0.64266 0.22682 -0.39609 -0.49572 -0.49909 0.50095 -0.21975 0.11888 0.37739 0.36897 0.21421 -0.31552 0.20195 0.46583 -0.68749 0.16906 -0.018108 0.50331 0.013041 0.27063 0.12868 -0.22809 0.78364 -0.10118 -0.42893 -0.43378 0.44059 0.033906 -0.34543 0.4001 0.49758 0.029134 -0.52462 0.22885 0.35808 0.62915 -0.25333 0.14763 -0.027638 0.63978 -0.60808 0.54935 -0.57544 0.787 0.32726 0.10973 0.099604 -0.39372 -0.2492 -0.33927 -0.57696 -0.5639 0.23799 -0.50543 -0.66835 -0.23699 0.079731 0.16967 0.06961 -0.27977 0.04752 -0.16954 0.39136 0.070737 -0.44779 0.30874 0.59164 0.12175 -0.14046 1.6065 -0.58204 0.45006 -0.28323 -0.26415 -0.65518 -0.24871 0.41953 -0.63324 0.042076 0.14122 -0.4 0.67796 0.17676 -0.13272 -0.14109 0.4029 0.65466 0.23052 0.02129 -0.0097784 -0.015769 0.09045 0.3542 -0.11512 0.14436 0.43768 -1.0164 0.77575 0.51862 -0.33235 -0.37485 0.26788 -0.55351 -0.02174 
M305 0.14126 0.2487 0.088415 0.65519 -0.20304 0.17545 -1.184 -0.23715 0.28214 -0.21298 -0.059531 -0.17202 0.42504 -0.15222 0.014834 0.82247 -0.15784 -0.13691 0.7135 -0.68471 0.35652 0.6176 0.30725 0.64387 0.91412 0.42515 0.0029431 -0.17291 -0.17097 -0.025874 -0.17006 0.57556 0.13086 -0.2416 -0.48767 0.15464 0.27595 -0.74607 -0.6128 -0.44089 -0.16517 0.11451 -0.18921 0.86413 -0.32613 0.041696 -0.20845 -0.73893 -0.61091 -0.22862 -0.20231 0.28916 -0.25963 0.38177 -0.69501 -0.1317 -0.00079495 0.3141 0.0021661 0.60598 -0.51852 -0.53847 -0.27831 0.3685 0.23443 0.23299 0.2923 -0.68205 0.64628 -0.47806 -0.25916 -0.27752 0.20195 -0.21268 -0.82881 -0.35133 0.55514 0.22936 -0.26215 0.080077 0.28892 0.52173 0.38379 -0.21504 0.053655 -0.23335 -0.39402 -0.41959 0.35915 -0.36496 -0.014042 0.46516 0.086153 -0.38749 -0.064433 -0.52448 0.68741 -0.50571 0.11322 0.22327 0.6046 0.81406 -0.32667 -0.72537 0.43731 0.11708 0.065775 -0.20784 -0.07109 0.13658 0.18478 -0.14691 -0.14698 0.077057 -0.70158 -0.27443 0.59019 -0.26468 0.32828 0.58765 -1.0221 -0.34611 -0.67981 0.16931 0.6689 -0.44316 -0.76694 -0.11039 
M036 0.44271 0.70713 0.3702 -0.40378 0.016637 -0.13641 0.62984 -0.67507 0.56868 -0.092162 0.054081 0.47465 -0.75335 0.24824 -0.063664 -0.17431 -0.22285 -0.021639 0.96794 -0.07567 0.090239 0.2838 -1.1448 0.24682 0.9564 0.10201 -0.1419 -0.15523 -0.12381 0.1053 0.80905 -0.37937 -0.3812 -0.32733 0.1142 -0.45374 -0.31136 -0.51061 -0.26838 -1.2169 -0.45595 0.92429 0.00062773 -0.17772 -0.32268 0.27084 0.09224 -0.0046195 0.25193 -0.17645 0.17743 0.11348 0.89536 0.34259 0.10594 -0.32406 -0.44011 0.27831 0.44972 -0.3394 -0.11752 -0.08888 -0.097588 0.20411 -0.76269 -0.66538 0.2146 -0.12023 0.99425 -0.50477 -0.24738 0.034345 -0.10954 -1.327 -0.85069 -0.028929 0.32395 0.27147 0.19629 0.21837 -1.0392 0.55092 0.30637 -0.025182 -0.16529 0.36083 -0.27022 0.065071 -0.073237 -0.67632 0.2038 -0.33847 0.087128 -0.15802 -0.62484 0.44058 -0.43832 0.16977 -0.039445 0.10714 -0.44205 0.39643 0.51536 -0.11707 0.035134 0.16432 0.37077 0.45805 -1.2876 0.41787 -1.0449 -0.28051 -0.12826 0.16887 0.70355 -0.23853 0.50457 -0.23961 0.73044 0.36332 0.87691 0.90114 0.58895 -0.39757 -0.21465 0.059211 -0.43313 -0.2334 
M032 -0.12901 -0.56649 0.83679 0.25656 0.21234 -0.54043 0.066125 0.22567 0.56275 0.010692 -1.1111 0.15508 -0.17273 0.11611 -0.67997 0.2554 0.52181 -0.1103 0.42756 -0.80079 -0.41534 -0.72885 0.27744 -0.23385 0.3676 -0.12315 -0.13235 -0.23319 -0.065488 0.61658 -0.24976 0.46344 -0.18625 0.7079 -0.44781 0.32103 -0.69984 -0.54295 -0.44299 -0.22037 -0.43461 0.039743 0.3997 -0.18238 -0.59012 -0.12589 -0.64711 0.053494 0.0016609 -0.45846 0.29265 0.5202 -0.16898 0.141 0.095721 0.38869 0.004998 0.81141 0.038735 0.31199 0.61127 -0.37391 0.31203 0.22265 -0.5399 0.48569 -0.27639 0.64122 -0.51233 0.041853 0.23224 0.16356 -0.58505 -0.24896 -0.45475 0.18332 -0.41692 0.43953 0.34864 -0.0030717 -0.69206 0.6712 -0.30456 -0.52224 0.32278 0.49801 0.13842 0.39756 0.53346 0.28699 0.29559 0.46525 0.5315 -0.097861 0.31968 0.2206 0.2243 0.27446 0.10568 0.079727 0.18522 -0.22059 0.4114 -0.091715 0.2365 -0.054934 0.51106 0.53949 -0.43771 -0.22187 0.4576 0.34783 0.24359 1.0378 -0.29098 0.24686 0.70701 0.23555 -0.40143 0.19872 0.21777 -7.4177e-05 0.57876 -0.43865 1.117 0.031928 -0.41307 1.1994 
M370 0.085179 -0.10172 0.02953 0.022529 -0.037185 -0.015605 0.10212 -0.37695 0.096152 0.035227 -0.074293 0.17824 0.89256 -0.13224 -0.0054386 -0.1998 0.31436 -0.20679 0.11397 -0.45566 1.2337 0.19709 -0.36912 -0.031695 -0.3279 -0.16765 -0.37411 0.2309 -0.32941 0.29596 0.31659 -0.23219 0.49105 0.58456 -0.50886 -0.091243 -0.14303 -0.0088965 0.20586 -0.68218 -0.86678 -0.36458 0.18161 -0.24613 0.32285 0.54029 -1.1011 -0.98251 -0.53716 0.18165 0.22325 -0.46262 0.21318 0.076373 -0.32153 0.29023 -0.73811 0.14208 -0.56048 -0.77228 0.65208 0.23298 -0.47029 0.22203 0.54722 -0.87272 -0.60634 -0.71432 0.53142 -0.98372 -0.86594 -0.17909 -0.49253 -0.31076 0.64283 -0.16732 0.88206 0.93653 0.43675 0.69326 -0.26535 0.0029383 -0.045302 -0.77248 -0.3191 -0.86355 -0.63821 -0.25869 0.23645 0.49968 -0.057753 0.121 0.59385 -0.19981 -0.45448 -0.77046 0.6605 0.40905 0.30588 -0.11367 -0.44337 -0.34067 -0.41232 -0.32728 0.11166 0.28803 0.20475 -0.85453 -0.32559 -0.010779 -0.091062 0.35766 0.015114 0.66733 -0.19181 0.062035 0.70516 1.3491 0.10454 0.96095 -0.26147 -0.2045 0.60026 -0.27876 0.52306 0.11616 0.34158 1.1882 
1(N45) 0.10409 -0.16009 0.015376 -0.17882 -0.37793 0.84117 0.0086809 0.99514 0.1401 0.60749 0.065663 0.29798 0.22647 -0.14958 -0.14809 -0.068669 -0.90085 -0.28608 0.69033 -0.34282 0.22689 -0.16745 -0.34331 -0.2366 -0.39327 0.039305 -0.85867 -0.31237 -0.5333 -0.051312 0.55154 0.30882 0.33412 0.12089 0.5014 -0.0040826 -0.34271 -0.60625 0.021922 -0.14402 -0.026049 0.18314 -0.50705 -0.19466 0.67515 -0.093756 -0.33882 -0.57985 0.37017 -0.57862 0.67726 0.55932 0.14322 0.029069 -0.26985 0.5557 0.61152 0.65418 0.24293 -0.39879 0.2747 0.31459 0.88257 0.85749 0.27635 0.78003 -0.23598 -0.57724 0.012341 1.1068 -0.5288 -0.087242 0.78645 0.33392 -0.29054 -0.11003 0.21555 0.41324 0.011362 0.63117 0.29223 -0.40645 0.66711 0.071269 0.74617 -0.16632 -0.31241 -0.00146 -0.33827 0.20752 0.79072 0.065315 0.40472 0.40728 -0.066155 0.31828 0.12145 -0.11826 -0.074654 -0.46627 0.025505 -0.16461 0.20172 -0.084751 0.3988 0.71576 0.19614 0.41978 -0.31587 0.42457 0.52672 -0.54354 0.15578 0.62414 -0.011937 -0.66635 -0.45298 0.31634 0.21427 -0.12668 0.36896 -0.060398 0.31097 -0.31688 0.014122 0.53129 -0.45268 -0.32324 
8(N01) -0.057831 -0.047869 -0.16004 -0.17755 0.75373 0.22085 0.10374 0.6687 0.20373 0.51824 -0.37396 -0.71741 0.16133 0.24727 -0.24672 0.52389 0.1202 0.066177 -0.40474 -0.45603 0.15088 0.09386 0.37246 -0.30995 -0.090792 -0.12799 0.56099 -0.82569 -0.0588 0.20618 -0.51997 0.30563 -0.3922 1.0378 -0.38252 -0.0060476 -0.58271 0.052145 0.5219 -0.65304 0.63462 -0.16219 0.12848 -0.65085 -0.62982 0.4221 0.15751 -0.29938 -0.10568 -0.16393 0.90802 0.49726 -0.56586 -0.2356 0.40274 1.1776 -0.065708 -0.10968 0.25907 -0.35164 0.056718 0.75913 -0.39529 0.22097 0.38481 -0.34801 -0.81592 0.42376 1.1901 -0.26356 0.1794 -0.051613 -0.87616 -1.1393 -0.95553 0.21569 0.03983 0.49272 0.29671 0.17571 1.2915 -0.11467 0.29883 -0.54483 0.41704 0.64469 0.038019 -0.35197 0.88624 -0.43461 -0.026336 0.17889 -0.17121 0.51842 -0.609 0.12513 0.94388 0.26339 -0.70461 -0.90886 0.40839 0.64128 0.098591 0.10493 -0.521 0.79077 -0.052941 0.40188 -0.13401 1.08 -0.25765 -0.44207 0.25728 -0.40233 -0.25538 -0.29501 -0.11563 -0.26877 0.29677 -0.24726 -0.042259 0.47665 -0.23058 -0.72497 0.84809 0.19157 -0.075581 0.26633 
7(N01) 0.17571 1.0905 0.46514 0.30079 0.41981 0.80571 -0.65445 -0.17102 0.76945 1.1536 0.17347 -0.09782 0.91966 0.24358 -0.065037 -0.36914 0.069273 0.70282 -0.35514 -0.76758 -0.44497 0.50921 -0.3157 -0.0039367 0.12113 0.057918 -0.33994 0.047344 -0.14951 -0.23219 0.45248 0.27227 -0.29755 0.34109 -0.0038497 0.2756 -0.67479 0.21569 -0.083775 -1.1139 0.50547 -0.19266 -0.44036 -0.10361 0.27474 -0.30601 0.31403 -0.71149 0.029383 0.37815 -0.54686 0.07431 -0.3376 -0.86518 0.46375 0.48981 0.25267 -0.34855 -0.093966 0.47395 0.31219 -0.082807 0.041551 -0.63952 0.47217 0.058431 -0.36458 1.1313 0.58942 0.28544 0.74172 0.39016 -1.2855 -0.2591 0.47472 -0.021407 -0.10701 0.25822 -0.2854 0.30225 0.47809 -0.027638 0.38451 0.059327 0.17417 0.79842 -0.49908 0.89815 -0.72576 -0.98919 -0.41248 -0.23844 0.37613 0.2248 0.35401 -0.14767 1.1194 -0.12426 -0.39643 -0.77228 0.56557 0.90087 0.93416 -0.33693 -0.060035 0.79315 0.62668 0.23953 -0.194 0.12414 0.59978 -0.67824 0.43286 -0.047578 0.84958 -0.13375 0.46887 0.75253 0.29171 -0.4671 0.060167 0.55723 0.10758 0.41452 0.43747 0.028297 -0.1127 -0.12166 
M004 -0.68995 -0.3834 0.9295 0.22893 -0.24557 -0.055259 0.02488 -0.43802 0.42641 -0.2228 0.20618 0.81855 -0.23729 -0.016853 -0.10862 0.15127 0.085774 -0.33169 0.078722 -0.71986 0.78634 -0.12807 0.21795 -0.0060322 0.31271 0.072406 -0.0054592 -0.63601 -0.59764 0.068966 -0.34933 -0.93089 0.71038 0.57201 0.77922 0.51062 -0.31154 -0.65802 -0.34945 -0.26991 -0.048744 0.0056417 0.66419 -0.087465 -0.82432 0.36602 -0.52429 -0.17553 -0.17904 -0.29349 0.13721 -0.057448 -0.13433 0.21855 -0.15581 0.058559 -0.091746 0.56551 0.15441 0.44726 -0.26826 -0.59527 -0.25629 0.017904 0.92197 0.1323 0.56669 -0.53193 0.38644 -0.065905 -0.35444 0.072354 -0.55242 -0.43087 -0.24264 -0.14505 0.072521 0.13418 -0.20467 0.4131 0.3758 0.29086 0.14646 0.088038 0.14239 0.24795 -0.2116 -0.0012351 -0.41867 -0.268 -0.84053 0.07257 0.26912 0.4999 -0.10226 0.44245 0.64156 0.51052 0.10324 -0.64458 0.19025 0.32451 -0.067289 -0.27947 0.42505 -0.26797 0.1818 -0.0048218 0.80134 -0.15653 -0.72604 -0.22208 -0.52695 -0.033484 -0.032385 -0.26301 0.94905 0.41926 -0.2027 0.49984 -0.017962 0.52999 0.18641 0.55748 -0.058565 0.28614 0.284 0.33787 
M003 0.28869 0.071032 -0.16034 0.6238 0.058624 0.28237 0.058032 -0.29541 -0.29117 0.48701 0.35488 0.16574 0.29941 1.023 0.21478 0.69506 0.47352 0.16827 0.22314 -0.28642 0.43616 0.20189 -0.41923 0.42642 -0.42881 0.74526 -0.20588 0.067345 -0.57487 0.037013 0.57584 0.38145 -0.78158 -0.48246 -0.37398 -0.51213 -0.21635 0.56005 -0.56267 0.46803 0.25279 -0.87921 1.2519 0.53321 -0.47861 0.98237 0.050658 -0.066994 0.084488 -0.10586 -0.096874 -0.032157 0.24095 0.31147 0.27472 -0.019438 -0.51153 -0.703 0.12792 0.74775 0.24954 0.68846 -0.76248 -0.57472 -0.01091 0.02192 -0.47607 0.50478 -0.041506 -0.10008 -0.24069 0.32257 0.043617 -0.21035 -0.20052 -0.2661 0.31329 0.3581 0.55048 -0.045541 0.45052 0.020176 0.10046 -1.1637 -0.44933 -0.26758 -1.1414 0.66586 0.54534 0.10406 0.10848 1.4246 0.70194 -0.32724 0.19797 0.41548 0.19876 -0.08127 -0.97225 -0.58181 0.91748 -0.086512 -0.16537 0.03316 -0.52905 0.55756 -0.057203 -0.24907 -0.1364 -1.0049 0.27371 -0.00049623 -0.41424 0.24881 0.32017 -0.55243 0.32547 0.15414 0.14592 0.36634 0.14102 0.26439 -0.10968 0.20293 0.3676 -0.27215 -0.76788 0.12703 
M377 -0.025834 0.25634 -0.15605 0.21938 -0.73586 0.56931 0.90036 -0.058234 -0.18891 1.0522 -0.44243 0.24229 -0.15704 0.068238 0.047149 0.008924 0.26223 -0.56352 -0.040288 -0.80379 0.62094 0.32134 0.11252 0.12032 0.36739 0.012264 -0.29246 0.19792 0.081488 0.6479 -0.68502 -0.33764 -0.04269 -0.8718 -0.57116 0.29295 0.39079 -0.25871 0.061738 0.33573 -0.21892 0.32908 0.57021 -0.29178 0.24524 0.0066982 -0.36999 -0.56839 -0.17532 0.25691 0.38452 -0.59702 -0.092817 -0.02203 -0.068279 -0.0074009 -0.37176 0.1281 0.58106 0.1611 0.63865 -0.0024015 -0.11812 0.32312 -0.23179 -0.41418 -0.16029 0.66567 1.1108 0.29145 0.25708 0.30868 0.047827 0.28393 -0.27153 0.044221 -0.29484 -0.048223 0.13689 0.61555 0.16392 -0.11748 0.072916 0.64802 0.011166 -0.29059 -0.22204 0.13341 -0.23311 -0.13188 -0.028078 0.39986 -0.29232 0.10284 0.63811 0.62076 0.44523 0.023056 -0.32358 -0.13959 0.79601 0.071531 -0.47949 0.26606 0.38813 -0.045269 -0.015458 0.33454 -0.10073 0.29719 0.012487 -0.37279 -0.14305 0.20668 0.027326 -1.0574 0.18536 0.2995 -0.20162 0.23747 -0.32258 -0.55231 -0.47142 0.34712 -0.43143 0.36856 -0.064352 -0.10179 
M354 -0.63539 0.25915 -0.32263 0.33809 0.072584 0.030623 0.51632 0.59066 -0.58235 -0.18847 -1.3032 0.49522 -0.31082 1.0435 0.49443 0.81158 0.050166 0.19451 0.67416 -0.022326 -0.58393 0.31321 -0.2641 0.092613 0.59962 0.68063 0.17699 -0.48578 -1.4834 0.47594 0.72268 -0.57673 -0.77722 0.20547 0.91461 -0.52465 -0.15734 -0.15538 -0.40665 -0.75641 -0.40746 0.17721 0.48608 -0.72167 -0.87432 -0.12146 -0.49036 0.10892 0.2349 -0.0048297 -0.08079 -0.087524 -0.35173 0.47233 -0.0040444 -0.43153 0.31827 0.36679 0.34544 0.17907 0.42314 0.51245 -0.6103 0.1427 -0.55632 0.34986 0.0042367 0.14259 0.020875 0.11663 0.68178 0.60526 -0.0020676 -0.094614 -0.15229 -0.49042 -0.12765 0.78771 0.0099334 0.089853 0.29843 0.50546 -0.023959 0.58577 -0.6842 0.085917 -0.23062 -0.37532 0.60461 0.18422 0.10328 -0.13896 0.14642 0.75568 -0.261 0.57754 -0.29297 -0.043823 -0.44394 0.215 -0.72237 0.37549 0.0012648 0.1391 0.17041 -0.1361 -0.049927 0.48142 -0.20984 0.94951 -0.38286 -0.0064036 1.2056 -0.70217 0.34181 0.10302 0.23311 1.1149 0.30022 -0.53759 0.9394 0.29573 0.23392 0.7564 0.31135 -0.15039 -1.0171 -0.39316 
4(N39B) 0.58593 -0.9846 -0.13227 0.21992 -0.15155 -1.0357 -0.064356 0.48393 0.86153 0.25052 -0.14918 -0.022578 -0.50179 0.64194 -0.53777 -0.054914 -0.7837 0.014142 -0.10215 -0.31149 -0.56241 0.38912 -0.25966 -0.7822 -0.024894 -0.97278 -0.37423 0.15672 -0.030088 0.76342 -0.42558 -0.28025 0.13327 -0.85224 0.10529 0.44887 0.76703 0.11999 -0.10162 0.38129 -0.22501 -0.92555 -0.78372 -0.24358 -0.47159 0.42695 -0.29883 -0.27886 -0.19425 -0.19238 0.1383 -0.36914 -0.1843 0.40522 0.13805 -0.21367 -0.34257 -0.15874 -0.17183 -0.089652 -0.1008 -0.16356 0.24235 0.3665 0.34587 0.23348 -0.40816 0.16512 0.30927 0.039775 0.1485 -0.2141 0.66417 -0.30055 -0.31353 -0.60842 0.23388 0.4776 -0.71603 0.12797 -0.33486 -0.27603 -0.15976 -0.64881 -0.02019 -0.58639 -0.66024 0.05182 0.24075 -0.6332 -0.065878 0.19384 0.44353 -0.043162 -0.26889 0.23341 -0.40099 -1.0717 -0.47277 -1.1101 0.3641 0.52049 0.71949 -0.64489 0.60574 0.43725 -0.75319 -0.30787 -0.10034 0.037138 0.70505 -0.21614 -0.30921 0.30082 0.021635 -0.55148 0.4542 0.18758 0.78706 0.40094 0.78988 0.49222 0.027036 0.17663 0.86114 -0.17707 0.030209 0.0054092 
5(N14) -0.55461 0.17288 0.19307 -0.64511 -0.51773 0.20568 0.069449 -0.22054 0.77781 0.51307 0.2719 0.061908 -0.43925 -0.96182 -0.12775 -0.019924 -0.87797 -0.089756 -0.59319 -1.1388 -0.050699 -0.57559 0.20214 -0.0075767 0.36397 0.063259 -0.29868 -0.034248 -0.075427 0.24291 -0.21805 -0.05714 -0.013367 -0.58712 0.27851 -0.38495 -0.19461 -0.072944 -0.44714 -0.66093 0.15275 0.069068 -0.01414 0.43842 -0.084626 0.18863 -0.56835 -0.37021 0.40122 0.42415 -0.50505 0.25815 -0.36169 0.40924 0.44698 -0.39188 -0.22182 0.2328 0.064912 -0.13619 1.3077 0.66467 -0.32677 -0.25585 -0.075142 0.47065 -0.53425 -0.093042 0.70934 -0.50145 -0.39068 0.66248 0.64438 0.11769 0.29449 -0.38055 0.019556 0.97963 0.34229 -0.55495 0.43379 -0.06855 0.44917 -0.54538 -0.41742 0.44762 -0.10461 -0.41835 0.16828 -0.57915 0.76824 0.17006 0.076595 0.23953 -0.49495 0.30911 -0.54205 -0.93183 -0.20772 -0.37031 0.5752 -0.074625 0.83937 -0.39192 -0.3473 -0.16737 0.43214 -0.33608 0.40764 0.02136 0.28326 0.19206 0.16391 0.46863 -0.46866 -0.74963 0.465 -0.010916 0.39886 -0.8991 -0.61934 -0.27518 -0.68693 0.58365 0.45837 -0.075444 -0.93043 0.6266 
M352 0.12238 -0.16809 -0.097924 0.13103 -0.2461 -0.25146 0.082018 -0.28111 0.21017 0.16418 0.19853 0.69374 0.41468 -0.77073 -0.47028 0.876 -0.38067 -0.69852 -0.54814 -0.35101 -0.096383 -0.12169 0.24477 0.32591 0.56837 0.014406 -0.43975 0.29579 -0.13695 0.49276 -0.084994 -0.26166 0.46734 0.43219 0.099004 -0.11182 0.39789 -0.1579 0.16023 -0.1849 -0.093281 -0.83249 0.1539 -0.073452 -0.4576 0.14406 -0.78393 -0.0032492 0.48766 -0.76428 -0.29277 -1.4539 -0.48782 0.22769 0.023586 0.13709 0.13567 -0.39711 0.23073 1.0879 -0.46246 0.28643 -0.28111 0.35279 0.19403 -0.32824 0.018666 0.17968 0.65133 -0.58224 -0.13891 -0.023367 0.32849 -0.68241 -0.089057 -0.17552 -0.26529 0.43753 0.46468 -0.04548 -0.49849 -0.53023 1.0026 0.85929 0.12198 0.27501 -0.24746 -0.15673 -0.41324 -0.57275 -0.010669 0.57954 0.15183 -0.20363 -0.54173 -0.59118 0.80269 -0.028777 -0.35896 0.080255 0.33344 0.041888 -0.2507 0.33796 0.549 0.48166 0.74827 0.58706 -0.14725 0.89767 0.21267 0.39156 -0.21124 -0.14607 0.077104 -0.20481 -0.18266 -0.18346 -0.28436 0.24835 0.50308 0.52836 0.47527 0.1194 0.24025 0.69276 -0.68227 0.062201 
M072 -0.68217 0.24649 0.098746 1.018 0.15749 -0.013249 -0.25297 -0.3035 -0.64054 0.0534 -0.3696 0.56613 -0.29257 0.0045512 -0.29857 -0.078762 -0.047374 -0.47062 1.1508 -0.22213 0.013422 0.030296 0.36634 -1.0712 0.1146 0.3598 -0.29393 -0.10553 -0.81934 1.0719 0.47034 0.31493 0.9117 0.1351 -0.54825 -0.19372 0.69563 0.663 -0.36979 -0.22342 -0.16246 -0.052954 0.63828 -0.40325 0.016977 0.076327 0.17207 -0.58919 -0.25889 -0.080812 -0.21402 0.6028 0.85573 -0.49746 -0.040331 0.32314 -0.24542 -0.20935 0.40624 0.30007 0.12223 0.8184 -0.35914 0.14323 0.31748 0.72509 -0.11931 -0.72313 0.29825 -0.075738 -1.1443 0.83289 0.34741 -0.72752 0.075938 0.5944 0.27671 0.53186 1.1076 0.29869 -0.30023 0.85092 0.37698 0.70043 -0.34402 0.77062 0.075112 0.17828 -0.13245 0.26571 0.2344 0.30569 0.52718 0.63834 -0.05002 0.095671 -0.34711 0.039691 -0.90719 0.038358 0.23063 0.59911 0.0885 0.0025409 0.33187 0.69192 0.016664 0.17216 -1.012 0.30203 -0.20504 -0.82342 0.54223 -0.13253 0.56743 -0.17416 0.26829 0.31696 0.37244 -0.091516 0.36709 -0.51757 0.29642 0.66327 0.24597 -1.1399 0.47312 0.78263 
M036+1(N30D) 0.81654 0.73397 -0.23385 -0.22177 0.54989 0.041197 -0.45952 0.3169 0.32309 0.64892 -0.18422 0.20917 -0.38064 0.87717 -1.0079 1.1221 0.20384 0.053939 0.89181 0.019366 -0.4491 0.2511 0.35633 -0.46114 -0.15551 0.66015 -0.42589 -0.3658 -0.62657 0.59183 0.21469 -1.4663 -0.0087502 0.075905 -0.19908 0.13543 -0.055497 -0.19509 -0.18089 -0.28155 -0.68278 0.65883 -0.38223 0.034192 0.45123 0.31103 0.03712 0.38056 -0.33762 0.024484 -0.64331 0.49714 -0.12602 0.11069 -0.16296 0.54968 -0.56819 0.13864 -0.0024915 -0.14383 0.16126 0.12097 0.34025 -0.31911 -1.0964 0.47055 -0.79293 -0.31528 0.04394 -0.40999 0.06421 0.67886 -0.63416 0.094885 0.41927 -0.069817 0.29107 0.55024 -0.14319 0.69679 -0.76621 0.73255 0.16071 1.7785 0.087761 0.48933 -0.1221 0.16684 0.81694 -0.50413 0.26293 0.024566 -0.42335 0.61549 0.047342 0.52743 -0.22737 -0.67247 0.094305 -0.37418 -0.68948 -0.41985 0.64385 0.22752 0.86425 0.22895 0.05914 -0.49368 0.18515 0.45766 -0.12601 0.1528 -0.036548 0.36575 0.26391 -0.34397 0.32921 0.47583 0.63274 0.31941 0.80624 0.0018798 0.84802 0.17443 0.32329 0.22765 -0.93073 -0.36287 
M269 -0.13003 0.42623 -0.8252 0.010716 0.81862 -0.19873 0.094404 -0.13145 0.95847 -0.48552 -0.67652 0.08599 0.78823 0.30772 -0.14018 0.78044 -1.8656 0.42138 0.70281 -0.13815 -0.60624 0.3212 0.38486 -0.39219 0.13763 0.53243 -0.65717 -0.47784 -0.047442 0.36945 0.4949 0.018788 -0.61509 -0.1649 -0.48935 -0.054369 0.53005 -0.15516 -0.63083 -0.44179 -0.017562 0.72269 0.45166 -0.034286 0.080985 1.2255 -0.017423 -0.012645 0.61007 0.33851 -0.019449 0.36338 0.52253 -0.11956 0.62802 -0.18653 0.28102 -1.2012 0.1752 -0.2367 0.29517 -0.511 -0.076023 -0.21297 -0.04264 -0.50292 0.14845 0.47075 0.66342 0.64806 -0.91345 0.03828 0.19576 -0.81197 0.30681 -0.78915 -0.31718 0.15909 0.16033 0.10971 0.57114 0.93592 0.76669 -0.0086679 -0.073652 -0.73685 -1.0621 0.014231 0.20208 0.082925 0.24841 -0.3326 0.39611 0.53894 0.16067 -0.61427 -0.57083 -0.80881 0.74996 -0.065506 0.43384 0.11338 0.23694 -0.017018 0.41987 0.029493 -0.32879 1.1862 0.24538 0.17895 -0.018191 -1.1226 -0.15178 0.18387 -0.8229 0.52689 0.9389 0.23926 0.27993 -1.2944 0.46904 -0.020612 0.92576 -0.46891 0.5314 0.34578 0.21455 0.88715 
M136 0.17927 -0.027281 0.075581 1.2802 0.54244 -0.24314 0.56635 -0.52376 -0.0043295 -0.11093 -1.0577 0.24174 0.35162 -0.39874 0.20447 0.28653 0.53014 0.21503 0.1395 -0.89494 0.51422 0.40025 -0.83883 -0.16103 0.7692 -0.65584 -0.21414 -0.62954 0.45664 -1.2702 -0.22984 -0.2738 0.67566 -0.78148 0.5301 0.57992 -0.10441 -0.40677 -0.038288 -0.74684 0.25426 0.31779 0.22966 0.34852 0.11951 -0.1255 -0.63229 -0.082144 0.25546 0.4929 0.32878 0.41197 0.56659 0.48423 -0.011281 -0.029853 0.019588 0.3699 -0.34159 0.34341 0.47659 0.33272 -0.54677 0.060947 -0.10668 -0.019076 -0.079153 0.42189 0.38782 -0.083856 0.054756 0.2215 0.31761 -0.45265 -0.40832 0.12549 0.27353 0.50615 -0.44877 0.037148 -0.28091 0.42706 -0.24628 0.37364 -0.23487 0.54713 -0.14014 0.40233 -0.096322 0.28795 0.020518 0.57968 0.91325 0.2013 0.43017 0.49815 0.14843 -0.16128 -0.96195 0.49255 -0.66025 -0.55285 0.75801 -0.53022 -0.06656 0.0974 -0.40564 -0.7437 -0.58243 0.17286 1.0306 -0.2388 -0.13715 -0.20431 -0.37034 -0.094653 -0.21078 0.60665 0.33706 -0.13186 -0.10336 0.1198 -0.29381 -0.77685 0.5753 0.76252 -0.16882 -0.64346 
M206 -0.25711 0.033721 -0.78814 0.040183 0.85143 0.47592 -0.28124 0.049789 -0.0019665 -0.20533 -0.15501 0.34713 1.0761 0.22763 0.040237 0.57189 -0.21758 -1.3583 0.13996 -0.50873 -0.73988 0.44594 -0.4059 -0.36413 -0.51964 -0.18314 -0.3025 -0.50334 0.53276 -0.29001 -0.065736 0.40172 0.33453 0.21564 0.36202 -0.39607 0.25228 -0.067764 -0.72438 -0.98898 -0.341 0.45963 0.78227 -0.028173 0.47075 -0.31803 -1.0947 0.36061 0.39597 0.048069 -0.26165 0.057357 -0.59267 0.72148 0.35049 -0.26555 0.40296 -0.1726 0.28108 -0.65495 -0.55149 -0.37408 0.48712 0.53182 -1.1088 0.76111 -0.62063 -0.66016 0.12199 -0.91825 -0.50939 0.41861 0.67692 -0.38227 0.1104 0.50081 0.45413 0.42617 0.32598 -0.466 0.83066 -0.8116 0.15268 0.3539 0.18249 0.38701 -0.10598 0.51365 0.33854 -0.67096 0.44903 -0.0061888 0.11316 0.65067 0.051543 0.26686 0.27039 0.34231 -0.90624 -0.59323 0.48327 0.23897 0.75242 0.47881 0.51568 0.034062 0.18345 0.29977 0.073723 0.17994 -0.026477 -0.052368 0.011511 0.21449 -0.31097 0.12004 0.94506 0.75546 0.72589 -0.22046 -0.3702 0.18343 0.26573 1.1539 0.29087 -0.96881 0.14721 -0.044539 
M219 0.392 -0.72677 0.34251 -0.13797 0.26158 0.34972 0.20818 0.079911 0.54461 0.48414 0.48883 0.42287 -0.54083 -0.24579 -0.14341 0.62907 -0.31526 -0.60011 0.082259 -0.18339 -0.10236 0.47733 -0.56862 0.03534 0.28415 -0.2234 -0.36346 -0.31896 -0.65397 -0.087372 -0.28489 0.44814 -0.19668 0.56053 -0.37616 0.0087323 -0.12316 -0.064161 -0.30128 0.43719 -0.83412 0.61363 0.23308 -0.026321 0.25405 -0.24147 -0.15159 -0.52245 0.72202 0.30545 -0.36439 -0.67474 0.065592 0.019096 0.34014 0.28843 -0.14707 0.094243 0.1026 0.63604 -0.39499 -0.49296 -0.075644 0.7262 0.25989 -0.59748 -0.63785 0.1171 0.36342 -0.45019 -0.60287 0.37109 0.93171 0.22632 -0.67119 0.16962 -0.64266 0.52016 -0.93493 -0.10961 0.44109 0.84753 -0.018513 -0.11228 -0.055857 -0.090466 -0.36203 0.81956 -0.34511 1.0344 0.2092 0.33691 0.28684 0.041867 0.69191 0.16417 0.24898 0.63062 0.2986 -0.50204 0.82464 -0.26279 0.64221 -0.60056 0.085008 -0.2212 0.29129 -0.063277 -0.43128 0.061624 -0.15514 0.023196 0.25687 -0.65684 0.25028 0.11141 0.44659 0.70634 0.1621 0.0023809 0.23473 0.31305 0.20918 0.11345 0.10299 0.19646 -0.85565 -0.07539 
M056 -0.58038 0.10559 -0.8613 -0.1758 -0.54261 0.94148 -0.60744 0.52707 0.033399 0.29742 -0.60862 -0.43914 0.23316 0.074738 0.75867 0.012131 -0.22838 -0.4305 0.81506 -0.80973 -0.42829 0.080187 -0.3186 -0.012848 0.22792 0.61413 0.15442 0.18825 0.14001 0.52125 0.4615 -0.40036 0.27348 0.23603 0.0078131 -0.23504 0.29394 -0.61158 -0.59749 -0.24429 -0.01279 0.50471 0.033325 -0.55738 -0.19459 0.20719 -0.29875 -0.08883 0.96624 -0.11254 0.1774 0.22313 0.28725 0.38813 0.090785 -0.2119 0.32742 0.28863 0.55452 -0.036617 0.41851 -0.23235 0.12595 -0.017914 -1.0205 0.086941 -0.76317 0.43153 -0.28036 0.28859 0.054648 -0.59901 0.2557 0.48552 0.081007 0.34791 0.012044 0.30425 -0.46746 0.31472 -0.27029 -0.092108 0.65049 -0.10834 -0.46587 -0.23442 -0.16723 0.22955 -0.70332 -0.033689 0.39425 0.82208 0.39457 -0.18878 -0.21801 0.33509 -0.1096 -0.57167 -0.88235 -0.15523 -0.045843 0.069184 0.86857 0.51249 0.21619 0.35707 -0.56485 0.6512 0.16239 0.072382 1.1803 0.73893 -0.22575 -0.36498 0.24839 0.73766 0.41543 0.70806 1.2436 0.87603 0.33217 0.62142 -0.40851 -0.22562 0.70921 0.34178 -0.75167 0.31118 
M347 -0.075709 0.063454 0.29866 -0.94943 -0.30513 -0.18953 0.69837 -0.61464 0.29209 0.11895 -0.12475 -0.1869 -0.70773 -0.003964 -0.82001 0.83206 0.10933 -0.78188 0.67504 -0.27343 0.1202 0.72336 0.27377 0.38832 0.56545 -0.064236 -0.37077 0.062001 -0.0012036 0.061604 -0.0013898 -0.13981 0.40336 -0.47607 -0.80875 -0.44961 -0.23789 0.13865 -0.41596 -0.74472 0.31404 -0.29447 0.68652 -0.16283 -0.10464 0.25274 -0.36521 -0.56586 -0.35069 -1.0665 0.091595 0.0669 -0.39668 0.058983 0.16654 0.35727 -0.39974 0.27045 0.36568 -0.012851 0.19661 0.25732 0.49459 0.037657 -0.32176 0.047902 0.09488 -0.36968 0.52132 -0.17463 0.6887 0.16588 0.77424 0.14551 0.16688 0.44872 0.080162 -0.68626 0.023976 -0.068232 0.39336 0.07447 0.10468 0.29358 0.40783 0.060796 0.55994 -0.29392 0.41007 -0.11814 0.0085824 0.56544 0.51693 0.14613 0.33378 0.26016 0.67233 0.13598 -0.39815 -0.18063 0.25374 -0.30523 -0.18223 0.028219 0.31079 -0.022585 0.35718 0.36776 -0.24543 0.53162 0.94923 0.061578 -0.51582 -0.47182 0.64672 -0.70893 0.67578 0.73523 0.24363 0.40456 -0.075606 0.28406 0.1041 0.81306 0.38524 -0.053993 0.75364 -0.29903 
M048 0.53837 0.87505 0.4261 -0.13274 0.32437 0.15621 -0.086683 -1.1388 0.22655 0.56219 -0.48457 -0.23053 -0.38314 -0.08073 -0.54072 0.27386 0.32777 -0.22934 0.42295 -0.19844 0.082855 0.0088164 0.14903 0.44364 -0.053567 -0.0068977 -1.0545 0.24477 -0.58214 -0.80615 -0.19304 0.44162 -0.11292 -0.81926 -0.18089 -0.28295 0.35168 -0.12464 0.05994 0.39505 -0.1686 -0.18104 0.77688 -0.10478 -0.075839 -0.33402 0.065223 -0.11854 -0.32773 0.066166 0.15876 -0.17143 0.093104 -0.17375 0.59606 0.073028 0.12359 0.39364 -0.31557 0.57427 -0.048637 0.49453 0.16252 -0.053607 0.55708 0.42329 0.12359 -0.033103 0.11203 -0.016745 -0.29293 0.17105 0.91612 0.05392 0.43729 0.44823 0.42509 0.19762 0.070064 -0.47357 -0.67351 -0.34943 0.15086 -0.25468 0.43505 0.058648 -0.57735 0.4941 0.65037 -0.018576 0.22209 0.41048 -0.24334 -0.1632 0.52883 0.7133 0.089557 -0.32372 0.56453 -1.6816 0.14079 -0.13884 0.27573 -0.38005 -0.53808 0.47135 0.73354 0.53435 -0.27578 0.17627 -0.64817 0.1637 -0.085418 -0.3463 -0.2661 -0.29162 -0.23748 0.65966 0.32596 0.393 0.44879 0.70428 0.71366 -0.060787 -0.005668 0.44653 -0.69958 0.42783 
M038 -0.01709 0.033578 -0.21904 0.13811 0.14681 -0.66686 0.23485 0.32957 0.95528 -0.20006 -0.79611 -0.54654 0.57652 -1.0178 0.5133 -1.0185 -0.50224 -0.54607 0.17779 -0.50276 0.86448 0.089866 -0.25617 -0.011282 -0.37342 0.5557 -0.70408 -0.56748 0.29202 -0.26085 -0.397 -0.085156 0.32784 0.3013 -0.44107 0.62984 0.020962 0.095652 0.20052 -0.73043 0.79602 0.043737 0.27774 -0.20223 -0.23533 0.19374 0.49802 0.067289 0.45141 -0.74734 0.4189 0.13986 0.028517 0.16613 -0.43935 -0.39901 -0.40591 0.29409 0.2346 0.44861 -0.32416 -0.88376 0.062708 0.56156 0.068535 0.52296 -0.30565 0.022526 -0.044866 0.69965 -0.89612 0.21406 0.18828 -0.21702 -1.2597 0.05238 -0.44648 0.33168 0.12262 -0.8765 0.25045 0.62694 -0.20548 -0.36377 -0.16087 0.61861 -0.57451 -0.028566 0.45342 -0.30568 -0.45928 0.041898 0.14665 0.12692 0.88958 0.47459 -0.12761 -0.72466 -0.30218 -0.028447 -0.10692 -0.74667 0.054686 0.067955 -0.30492 0.36412 -0.11177 0.55935 0.53755 -0.33749 0.2565 -0.12075 -0.81615 -0.047465 -0.13524 0.20798 0.018272 0.80235 0.7916 0.56512 -0.045284 0.41346 0.72085 0.9934 0.24184 -0.088079 -0.33892 0.49388 
M059 -0.59383 0.042717 -0.09854 1.1048 -0.1824 1.0782 -0.15471 -0.73442 0.52472 -0.14159 -0.39512 0.1546 0.1766 -0.12876 0.45955 0.38574 -0.18535 -0.13127 0.57296 -1.1876 0.44787 0.64565 0.30017 -0.49983 0.76254 -0.89927 -0.63056 -0.42364 -1.0262 0.44239 -0.030757 0.036141 0.13001 0.42786 -0.46926 -0.15873 -0.58635 -0.78841 -0.93463 -0.0266 0.38168 0.31957 -0.28569 -0.56144 -0.23067 0.27975 0.2309 -0.35149 1.1211 0.30476 0.067045 0.51564 -0.59711 0.50234 0.25056 -0.056189 0.090722 0.2546 -0.48335 -0.21434 0.2201 0.51696 -0.14591 0.78904 0.46963 0.041811 -0.7018 -0.76799 -0.22055 0.076504 0.27692 0.64904 0.068268 0.24944 0.29441 -0.65826 0.16642 0.028214 0.80928 0.49456 -0.47376 -0.034283 0.48673 -0.57077 -0.471 0.36874 0.042663 0.80246 0.015895 -0.33223 0.12273 -0.3346 0.41572 -0.072455 0.18173 0.031792 0.023285 -0.67359 -0.50808 0.61858 0.31047 0.14439 0.52089 -0.50155 -0.17139 0.84884 -0.17123 0.63816 0.057412 0.061793 -0.040104 -0.25544 -0.90943 -0.88707 0.54473 0.3521 0.1802 0.5617 0.31566 0.90298 0.24389 0.17741 0.89627 -0.011324 -0.71384 -0.03424 -0.085464 0.68573 
6(N14) 0.0014206 0.079125 -0.11973 0.68228 0.18371 -0.13273 0.55601 -0.061283 0.48037 0.4576 0.32224 0.26122 0.23385 -0.034794 0.61316 -0.17937 -0.15722 0.24487 0.54908 -0.86258 -0.3175 0.37131 0.21378 -0.26656 0.20963 -0.15983 -0.04995 0.082175 -1.1351 -0.25821 -0.48972 -0.36899 -0.069043 -0.0099975 0.99312 -0.98655 -0.40703 -0.49242 0.030516 -0.84232 -0.20136 -0.1597 -0.59013 0.59122 -0.24951 0.56558 -0.61747 0.1242 0.045329 0.80519 0.29983 -0.037016 0.027593 -0.61488 0.18151 0.35334 0.60604 0.2241 1.1736 -0.17159 0.65698 -0.17861 0.074949 0.60239 -0.15248 0.34391 -0.63165 0.53233 -0.28363 -0.20721 -0.85154 0.061699 0.31312 -0.18431 -0.23164 0.38735 0.76951 -0.52991 -0.16646 0.79135 -0.6403 0.040276 0.29008 -0.11085 -0.32511 0.22089 0.14466 -0.81679 0.032827 -0.11586 0.63458 0.31105 -0.045531 0.54348 -0.97796 -0.51214 0.14257 -0.80774 -0.33119 0.2804 0.47592 -0.60767 -0.30894 0.30519 0.74639 -0.10691 0.3474 0.23574 -0.23165 -0.026723 0.11093 -1.0799 -0.2646 0.56584 -0.051565 -0.48041 1.016 0.58996 0.77324 0.46777 -0.48914 -0.021563 0.050776 0.94312 -0.072037 0.55001 -0.76327 0.51798 
M010 -0.76556 0.17447 0.82709 0.49699 0.072306 -0.12307 -0.17994 0.1734 0.88637 0.35266 0.15215 0.35311 -0.42308 -0.14579 0.49168 0.3332 -0.32112 -0.22974 0.66359 -0.042762 -0.10791 0.78158 -0.62627 -0.53393 0.15665 0.56059 -0.68188 0.92979 -0.063108 0.41149 0.016181 0.023614 0.45493 -0.46488 0.6993 0.014331 0.59663 -0.89504 -0.18117 -0.079333 -0.2822 0.99041 0.18324 -0.46976 0.50423 0.34677 0.018702 0.10856 0.2735 -0.28583 -0.23688 0.074007 0.0028975 -0.15749 -0.69627 0.057131 0.12655 -0.30751 -0.20528 0.22523 0.22698 -0.6434 -0.33603 0.31137 0.088118 -0.25691 -0.47014 0.47218 -0.61082 0.32134 0.0026579 0.010708 -0.32279 -0.93946 -1.0931 0.051786 0.30521 -0.03076 -0.47438 -0.24814 -0.12126 1.0722 0.64488 0.3729 -0.087446 -0.3593 -0.76972 0.074524 -0.56686 -0.50566 -0.42235 0.044148 1.2531 -0.25645 -0.69713 0.77393 0.50657 -0.46048 -0.407 -0.23356 0.94533 -0.25881 0.37416 0.91947 -0.21133 0.78169 0.38059 0.24427 -0.033559 0.38239 -0.69918 -0.26587 0.43123 -0.23736 0.76172 -0.31946 -0.37161 -0.45425 0.73655 0.58287 -0.054732 -0.65837 0.82269 0.16997 0.52965 -0.19593 -0.61863 -0.62842 
M386 -0.5492 0.47999 0.07045 0.53427 -0.26734 0.1947 0.43126 -0.13177 0.43634 -0.41381 -0.30283 0.1015 -0.3962 -0.32543 -0.61309 0.72852 0.32416 -0.11789 0.47692 -0.15043 0.38274 -0.38544 0.10044 0.51002 -0.57782 0.59533 -0.56555 -0.11478 0.075233 0.33195 0.090554 0.44677 -0.050484 0.35197 0.31373 0.62784 0.14121 -0.18306 -0.68279 -0.51722 -0.89228 0.013028 0.18009 0.68592 -0.39484 0.017418 -0.10731 -0.34063 -0.44394 0.087814 -0.42874 -0.37162 -0.26141 -0.18975 0.79447 0.19274 -0.2442 0.92924 -0.44195 -0.43614 -0.24056 0.2277 0.0026612 -0.61208 0.61922 -1.0416 -0.04136 0.75347 0.3855 0.31166 -0.1197 0.10816 0.48729 0.099648 -0.12281 -0.0059201 0.18655 0.20197 0.26542 -0.030921 0.78538 0.23102 -0.0072743 0.19951 0.24871 0.24318 -0.071779 -0.096925 -0.73119 0.84332 0.47214 0.51564 0.71601 0.20203 -0.29653 0.58957 -0.41371 0.13828 0.65796 0.22076 0.45386 -0.18792 0.12527 0.199 -0.22435 0.32607 0.71728 -0.46325 -0.1258 -0.17421 0.11989 -0.45841 -0.4971 -0.50581 0.29222 -0.60127 0.17489 0.47302 0.62734 0.63326 0.23085 0.70643 0.18138 0.33395 0.86947 -0.062355 -0.16234 0.72574 
M373 -0.30843 -0.19125 0.18245 0.050095 1.0049 0.23254 1.1594 -0.69556 1.1588 0.23199 -0.4775 0.31808 0.43261 0.29892 0.086883 0.88677 0.39727 -0.31995 -0.47312 -0.42819 1.2427 0.62481 -0.028569 0.30319 -0.89577 -0.20227 -0.37438 -0.41956 -0.47684 0.31939 0.71227 -0.37731 -0.29739 -0.43697 -1.288 -1.095 0.61296 0.55026 -0.038442 0.24091 -0.36016 1.0143 0.39086 -0.28663 0.17024 1.29 0.24364 -0.7557 -0.0091746 0.3539 -0.52369 -0.32787 -0.26258 0.075414 0.13506 1.177 0.56215 -1.0957 0.57457 0.11194 -0.41088 0.30593 -0.64109 0.037196 -0.0704 0.071673 -0.11046 -0.77775 -0.04478 0.019782 0.20376 0.45737 -0.37918 0.32744 0.086452 -0.34581 0.62133 1.5552 -0.12421 -0.071508 0.17565 0.87675 0.61621 0.61119 0.95479 -0.017459 -0.75507 -0.088634 0.37847 -0.016875 -0.28504 1.1613 0.46458 -0.48925 -0.87221 -0.15402 -0.22311 -0.33595 0.10912 -0.26226 -0.66169 -0.42333 0.83673 -0.072979 0.15336 0.040175 0.40118 0.31092 -0.04688 -0.09014 0.32796 0.36868 0.079126 0.90247 -0.19615 0.17924 -0.24289 0.48119 -0.079366 0.24484 0.2462 0.43411 0.053287 0.4278 0.37254 -0.42267 0.24904 0.28723 
9(N01) 0.21237 0.114 0.065297 0.29343 0.26679 0.52189 0.64405 0.30927 -0.069592 -0.8438 -1.0507 -0.13629 0.98082 -0.29705 0.0071789 0.036369 0.10001 -0.6227 0.09098 -0.33575 0.10631 0.45841 -0.32565 -0.18102 -0.015851 -0.32642 -0.62978 -0.37949 -0.28778 -0.18863 0.81152 -0.76929 0.85526 0.60403 0.25132 -0.38807 -0.46535 -0.70253 0.013704 -0.30794 -0.044279 -0.22227 0.2381 -0.052303 -0.053546 -0.087769 0.12674 -1.8443 -0.16671 0.21451 0.38498 0.64653 0.21373 -0.74076 0.0014926 -0.017356 -0.24236 -0.11937 -0.34205 0.95548 0.15526 0.021331 0.21089 0.58306 -0.2174 0.19076 -0.58354 0.34154 0.46269 -0.20455 0.17291 1.0224 -0.05814 -0.41708 0.18355 -0.21097 -0.59123 0.60974 -0.77632 1.0925 0.78171 -0.70076 0.42627 -1.395 -0.40501 0.51062 -0.39079 -0.33322 0.79442 -0.41176 -0.22208 0.31095 -0.14905 0.042586 -0.61762 0.057033 0.96575 -0.66596 -0.80027 -0.45914 -0.8111 -0.50821 1.0369 0.37569 -0.21058 -0.1563 0.39302 1.1115 -0.12313 -0.37186 0.66304 0.056176 0.67673 0.19396 0.29433 -0.38938 0.27568 0.47094 -0.37181 -0.50466 0.13985 0.07962 0.69228 -0.67345 0.40435 -0.57349 0.20876 0.062009 
M262 0.18233 0.17772 -0.62516 -0.26349 0.0081288 0.31727 0.57789 -0.18904 0.38493 0.20788 -0.95266 -0.3011 0.54884 -0.2856 -0.19048 0.6576 0.15737 -0.16021 0.39171 -0.052579 -0.41337 -0.083649 0.12383 -0.17986 0.54544 0.16825 -1.1009 -0.45304 -0.60549 0.082046 -0.39441 -1.2243 -0.15259 0.55616 0.15627 -0.044452 0.62131 -0.19767 0.17154 -0.1187 -0.45084 0.1263 0.74458 -0.48712 0.38863 0.87368 0.093446 -0.25903 0.21317 -0.78778 0.2495 -0.38575 -0.4724 -0.21818 -0.7648 -0.63857 0.44837 0.39597 0.043539 0.35279 -0.098183 0.42685 0.13404 0.43154 0.18674 -0.55525 -0.26058 -0.4493 0.40799 -0.16659 0.44616 0.13579 -0.42343 -0.79289 -0.062344 -0.13154 0.043773 -0.034124 -0.6228 0.1647 0.057498 -0.22841 0.32882 -0.099162 0.15922 -0.075985 0.033047 0.61067 -0.77816 -0.33005 0.1499 0.15337 0.48141 0.26735 0.30851 0.88145 0.64835 -0.45639 0.42389 -0.5042 0.81209 0.21827 0.3616 -0.36883 0.7902 0.38084 0.27394 -0.7636 -0.57656 -0.67184 0.4147 0.014903 -0.72984 0.2875 0.72604 -0.27886 -0.3696 0.10578 0.76599 -0.4694 -0.081041 0.062229 -0.71136 -0.46916 -0.057178 0.066141 -0.82834 -0.32384 
M102 -0.063097 0.93054 0.58952 0.7275 0.49251 -0.46549 -0.1722 -0.39564 -0.030796 -0.51392 -0.67793 0.76218 -0.094504 0.42088 -0.035659 -0.090051 -0.51833 0.13075 -0.44476 0.42344 -0.33498 -0.28532 0.33536 0.37345 0.43653 0.11521 -0.37564 -0.62244 -0.53365 -0.24335 -0.097583 -0.47823 0.37441 -0.24283 -0.47663 -0.037827 0.86015 -0.1258 -0.22531 -0.29525 0.05255 -0.017714 1.1362 0.4485 -0.083332 1.3733 -0.83355 -0.51126 -0.18818 -0.25275 -0.53661 -0.12796 -0.078164 0.2267 0.87447 0.050033 0.82198 0.64031 -0.54841 0.55097 -0.67371 -0.22094 -0.78632 0.1132 -0.60426 -0.22716 -0.18583 0.21411 0.79641 -0.23365 -0.011704 -0.30691 0.071867 -0.34832 -0.2753 1.1843 0.073372 0.86962 -0.1133 0.4464 -0.14096 -0.23453 0.66353 0.39066 -0.37546 -1.0202 -0.2161 0.033981 0.28529 0.72912 -0.43745 0.55096 0.96978 0.80541 0.73247 1.4509 0.39558 0.64295 -0.76444 -0.086187 0.032608 -0.49713 0.3177 0.70907 0.76387 1.142 -0.22421 -0.18108 -0.068515 0.53501 -0.12589 -0.1768 -0.18166 0.49541 0.06106 -0.015548 0.12257 -0.3029 -0.38759 -0.01582 0.1513 -0.52854 -0.050027 0.4383 0.48925 -0.077994 -0.0041902 0.087184 
M203 -0.31026 -0.86474 -0.73956 0.46644 -0.12641 -0.40328 0.28159 0.47992 -0.30674 0.24123 -0.37658 0.61584 0.93607 -0.030761 0.16151 0.067535 -0.18686 -0.50038 0.076638 -0.39237 0.57379 0.16929 0.41434 -0.13705 0.12275 0.13397 -0.71717 -0.74085 0.54099 -0.39989 -0.36128 -0.34571 0.12867 0.36357 0.142 -0.20433 -0.078207 -0.17341 -0.80018 0.034668 -0.24142 -0.55421 0.54414 -0.70243 -0.62536 0.20548 -0.3701 -0.74154 -0.22153 0.82061 -0.020688 0.25331 0.51917 0.94106 -0.13055 0.2583 -1.0169 0.3173 0.3428 -0.16002 -0.63986 0.16553 0.088838 -0.47985 0.21868 0.071069 -0.18737 -0.36693 0.60443 0.1407 0.071934 0.38732 0.22471 -0.17602 -0.52951 0.29448 -0.16562 0.12015 0.7453 0.5073 0.47308 -0.47661 1.1943 -0.62523 -0.79943 0.21341 0.27044 0.11334 -0.13304 0.34621 -0.21178 -0.29291 -0.11719 0.38298 0.39629 0.57137 0.013338 -0.90261 0.025105 0.093792 0.59007 -1.0851 0.91867 -0.14658 1.0728 0.25581 0.66296 -0.75534 0.60137 0.77423 0.19447 -0.98093 0.11441 -0.40528 -0.62602 0.34209 0.13421 -0.55211 0.49823 0.33933 -0.67647 0.26703 1.5851 0.25216 0.21017 -0.66667 0.10947 -0.089505 
M259 0.15034 -0.54307 0.56039 -0.17142 -0.082501 0.33027 0.17534 -0.15327 0.55646 0.48937 -0.57947 -0.046393 -0.11406 0.46393 -0.51522 0.026881 -0.18355 -0.32384 -0.18799 -0.6278 -0.52465 -0.043645 -0.26871 0.25501 0.21178 -0.50729 -0.28496 0.22994 -0.53077 -0.52964 0.15292 -0.55372 -0.78957 -0.10306 -0.92803 0.75853 0.213 -0.0039128 0.29176 -0.39077 -0.50505 0.58016 0.56082 -0.22882 -0.37063 -0.11626 -0.70015 -0.059346 -1.2464 -0.95658 0.0070211 1.1561 0.1092 0.65703 0.53377 0.10355 -0.24569 -0.66014 0.43574 0.41632 -0.28684 0.039851 0.080903 -0.21527 -0.41218 -0.1513 0.26443 -0.44454 0.8171 0.10508 -0.35534 -0.35892 0.21391 -0.97614 0.49873 0.16684 -0.26984 0.14381 -0.32106 0.63452 0.22342 0.083683 -0.009618 -0.069541 -0.22105 -1.014 -0.27703 -0.39664 0.0032258 0.043839 -0.0069803 0.31475 0.594 -0.47465 -0.68697 0.84973 0.10776 0.27695 0.27125 0.083415 0.75677 -0.057667 0.46691 0.20118 0.028429 0.3354 0.24679 0.37755 0.36158 0.35639 -0.079086 -0.37837 -0.27174 -0.31317 -0.64966 -0.17546 0.17115 0.15021 -0.10589 0.56549 -0.039344 -0.083474 0.81582 0.66528 0.4924 0.13556 0.093879 0.68824 
M106 -0.36681 0.67961 0.45044 -0.078198 0.29314 -0.45038 -0.20177 0.058218 -0.23003 0.42651 -0.59198 0.43796 0.4584 0.14829 -0.1971 0.26088 0.056785 -0.30797 0.73318 -0.60908 0.56989 -0.098783 -0.39288 -0.47829 -0.3373 0.44892 -0.3282 -0.2944 0.2926 -0.058358 0.759 0.17826 0.43072 -0.18331 -0.26697 0.52706 -0.27046 0.78698 -0.38409 -0.84535 1.0556 0.80767 -0.24904 0.34075 0.090621 -0.3108 0.2114 0.50425 0.37324 -0.12322 0.077926 0.26191 -0.59907 0.54022 0.042243 -0.042787 -0.58413 -0.19909 -0.57834 0.34905 1.3519 0.10074 -0.28779 0.53855 0.29665 0.1831 -0.30846 -0.31469 0.93595 0.11146 0.43167 0.15571 0.50621 -0.099375 -0.86871 -0.50449 0.14307 0.17293 -0.5855 0.52665 -0.44126 0.030962 0.41752 -0.33006 0.29359 -0.24858 -1.6177 -0.19226 1.3389 0.22382 0.3195 -0.069953 0.31322 -0.044862 -0.040199 0.81671 -0.13003 -1.0557 0.10244 -0.3322 0.71561 0.03236 0.7406 0.53974 0.41266 0.2893 1.0516 -0.31174 0.37944 -0.39456 -0.12866 0.55292 -1.3341 0.46443 0.47194 0.22044 1.4356 0.4434 0.52404 0.040915 0.53476 -0.15293 0.22053 -0.32498 0.04304 0.26085 -0.12834 -0.0071148 
M260 -0.53576 0.75868 0.24022 0.19103 1.2684 0.29872 0.10783 0.1245 0.41799 0.070151 -0.8645 0.5666 0.78606 0.28722 -0.82644 0.17964 -0.096793 -0.55605 0.17235 -0.3885 0.0349 0.47916 -0.54723 0.070939 -0.019737 0.16027 -0.49172 -0.48505 -0.22949 0.18898 -0.3614 -0.74397 -0.63034 0.26962 -0.69959 0.22332 0.31302 -0.35705 -0.19989 0.13941 0.31882 -0.65319 0.31395 0.33177 -0.40107 0.6247 -0.078047 0.25313 0.3024 -0.14226 -0.262 0.17226 -0.046338 0.45143 -0.25268 -0.60055 0.7468 0.92226 0.84943 0.25777 0.78371 -0.48684 0.26789 0.25496 -0.072846 0.88144 -0.28115 0.48447 -0.36461 1.0403 0.22708 -0.3182 0.39855 -0.49293 -0.26709 0.31694 -0.30922 -0.26227 -0.95487 -0.2246 0.29414 0.00029352 0.13478 -0.40364 -0.21606 -0.18207 -1.266 -0.25362 0.30268 0.1824 -0.36622 -0.85044 -0.36457 0.46251 0.12144 0.34853 0.69323 1.0307 0.80739 0.040636 0.7301 0.47786 -0.28472 -0.13075 -0.087645 0.083329 -0.015806 -0.59643 -0.72967 0.027234 -0.21901 0.36207 0.20473 -0.25602 -0.24126 0.63573 -0.31892 1.0755 0.5753 0.035273 -0.55456 0.31191 0.71736 -0.16185 1.0523 0.08241 -1.3462 0.56475 
1(N08A) 0.69747 -0.28369 0.41822 0.81311 0.72994 -0.064667 0.79677 0.55265 0.40518 0.69646 -0.32339 0.73566 0.63058 -0.061138 -0.40923 0.059243 0.58404 -0.51965 0.014168 -0.030105 -0.042541 0.55221 -0.44258 0.19391 -0.5594 -0.18709 -0.15037 -0.61521 -0.24666 0.27803 -0.15797 -0.15063 0.021203 0.78604 -0.58707 -0.070842 0.28718 0.38226 -0.16017 -0.7111 0.31189 -0.33373 0.88366 -0.34425 0.39711 -0.0083711 0.34421 0.13133 0.22548 0.19505 -0.36929 0.18624 -0.67001 0.8414 -0.54013 -0.3824 -0.5331 0.51716 -0.4722 0.23568 -0.46452 0.0091892 -0.14051 0.11666 0.29222 1.0072 0.30878 0.24692 0.48252 0.74801 -0.49885 -0.15879 -0.43398 0.12205 0.7743 0.027124 0.10797 0.93001 -0.14663 -0.72268 -0.696 0.18455 -0.055069 0.32574 0.43929 -0.043918 -0.17229 -0.72511 0.51991 0.41911 0.54802 0.26934 -0.078762 -0.16186 0.33654 -0.17223 -0.21136 -0.042086 -1.7872 -0.64299 0.6044 0.181 -0.38781 0.47465 1.0787 0.049374 1.0722 0.62866 -0.70336 -0.47832 -1.0072 -0.69544 -0.13248 -0.50517 -0.12016 -0.57002 0.68875 0.34697 1.0073 1.0418 -0.14867 0.8053 0.11943 0.63503 -0.22177 0.44761 0.10268 0.86297 
M240 0.41635 -0.27307 0.58696 1.6121 0.0087375 0.11316 0.64829 0.2879 0.2644 0.34383 -0.046847 0.79302 -0.68559 -0.26293 -0.44521 0.39712 0.0081061 -0.059105 -0.02983 0.15751 0.90925 0.033593 0.32297 0.16864 0.12456 -0.038136 0.16279 -0.6708 0.70233 -0.23075 0.48634 0.060817 -0.44831 -0.49973 0.12073 -0.46893 0.65013 -0.15334 -0.23519 -0.78638 -0.76718 0.21064 0.51527 0.22911 -0.21358 -0.10267 0.075364 -1.1224 -0.19906 0.27226 0.19347 -0.16868 -0.33333 -0.042746 0.14723 -0.14257 0.23564 -0.088343 -0.70186 0.14474 -0.15217 0.17145 -0.28164 0.3083 -0.59699 -0.63049 0.3267 0.12928 0.3381 -0.0024028 -0.56048 0.36676 0.0056617 0.10493 0.11584 0.085886 0.11172 -0.74813 -0.45645 0.15324 0.43992 -0.0051038 -0.2542 0.21255 0.57734 0.29223 -0.76796 0.0014075 0.12615 -0.03158 0.085584 0.77247 0.33949 -0.12696 0.27356 0.51054 -0.037614 -0.0006294 -0.072001 -0.051509 -0.010662 0.47797 0.72548 -0.084913 0.27542 0.83503 0.78829 -0.48868 -0.59855 0.42716 -0.28739 -0.12405 -0.57389 -0.29187 0.37833 -0.50113 0.50937 0.58386 0.11207 0.92016 0.57885 -0.37179 0.69447 0.21175 0.48289 0.022599 -0.3002 0.97092 
M005 -0.49209 -0.47222 -0.00098645 0.097343 -0.1658 -0.39537 0.38649 -0.11865 0.40094 -0.23331 -0.0069824 0.79904 0.54298 -0.352 -0.40684 -0.094735 -0.066387 -0.5055 -0.23742 -0.6981 0.47538 -0.48785 -0.068542 -0.64737 -0.67607 0.4356 -0.6109 -0.45336 0.028893 -0.3 -0.45949 -0.090892 -0.19011 0.2078 -0.17274 0.1461 -0.30713 -0.052027 -0.82268 -0.96986 -1.0487 1.0255 0.57363 -0.044886 -1.2523 0.29528 -0.43347 -0.15057 0.54433 0.58852 0.55932 0.15225 -0.29038 0.1508 0.31733 0.66643 -0.30356 -0.60482 0.20118 0.89295 -0.23736 -0.4194 0.31037 0.90285 0.018581 0.035419 -0.48874 -0.37609 0.61722 -0.35682 0.33041 -1.0013 0.59049 0.1176 -0.031645 0.98417 0.15551 0.38265 0.024571 0.20669 -0.41819 -0.0299 0.68569 -0.73027 0.33784 -0.48926 -0.8263 -0.29539 -0.40673 0.74141 -0.23821 -0.14977 -0.4784 0.13463 0.63244 0.035162 -0.27358 -0.0007426 -0.81364 -0.69665 -0.08079 -0.53474 0.079612 -0.32395 0.75275 1.1012 0.48254 0.63199 -0.13356 0.4589 1.0349 0.41048 0.3494 0.734 0.68115 0.058073 -0.24447 0.23873 -0.012412 -0.22238 0.78528 -1.1215 -0.36378 -0.24372 -0.23781 -0.67076 -0.44216 0.41174 
M149 0.11741 -0.36778 -0.12471 0.35009 -0.010597 0.92157 0.075999 -0.4678 0.38473 0.65135 -0.94987 0.56028 0.25034 0.89191 0.31246 0.15912 0.16185 0.46878 0.83259 -0.14437 0.75797 0.87355 1.0474 0.22751 0.2673 -0.29167 -1.135 -0.37088 0.036228 -0.36103 -0.54219 0.31837 0.11061 -0.19188 0.00017553 0.83122 -0.61449 -0.30937 -1.0111 -1.2182 -0.17416 0.18548 0.15829 -0.10791 -0.64261 0.64938 -0.51188 0.26313 0.4449 -0.11246 -0.35606 -0.88332 -0.4664 -0.24799 0.34423 -0.31766 -0.20859 -0.19448 0.56028 -0.035081 -0.69313 -0.6235 -0.19482 0.19463 0.0089224 0.24938 0.45722 -0.60296 0.28621 1.0618 -0.5245 -0.15832 -0.61973 -0.69835 -0.0036006 0.48239 -0.29937 0.49081 -0.032887 0.81674 0.0089925 0.23578 1.1743 0.022916 0.7506 0.093175 0.95756 -0.36722 0.17396 -0.11027 0.70671 0.68963 0.21947 0.46297 0.34583 -0.29065 -0.43668 0.30535 -0.80643 -0.56063 0.33176 -0.20173 -0.43588 -0.017915 0.092328 0.1658 -0.2723 0.14917 -0.32084 0.32894 -0.46901 0.68998 0.18911 0.046563 0.41631 -0.28243 -0.60831 0.36293 0.44903 -0.34788 0.52134 0.43377 0.13795 0.60026 0.41336 -0.15222 -0.36709 -0.044068 
M024 -0.038706 0.33025 0.028114 -0.048262 -0.12846 -1.0076 0.26182 -0.34379 -0.059523 0.21238 -0.86082 0.5347 0.229 0.036121 -0.26251 0.31894 0.60565 0.01689 -0.19869 -0.40379 -0.068433 -0.13915 0.013236 1.0677 0.13722 -0.27205 -0.87425 -0.038656 -0.55057 0.31871 0.59545 -0.14842 0.33062 0.17252 -0.12304 0.13077 0.52839 -0.31322 0.34853 -0.076877 0.70861 0.62605 0.31258 0.074183 0.1018 0.32398 -0.19936 0.56737 0.090273 -0.27297 -0.24961 -0.84408 -0.021812 -0.5843 -0.092336 0.1227 -0.37612 -0.24988 -0.54046 -0.40562 -0.11895 -0.92337 0.94782 0.027331 -0.45482 0.17762 -0.29961 -0.17442 0.4939 0.86513 -0.50459 0.30881 0.66427 -0.63983 -0.17375 -0.54293 -0.46698 0.55754 -0.49379 0.43764 0.63132 0.0020058 0.45978 -0.090063 0.262 0.27505 -0.65346 0.065686 0.43357 0.36368 -0.076901 0.60289 1.2033 -0.081314 -0.68987 0.40928 -0.48688 -0.087932 0.085832 -0.60446 0.50436 -0.24756 -0.70148 -1.0207 -0.25544 0.86502 0.46873 -0.18422 -0.055421 -0.59585 0.23473 -0.77553 -0.092567 -0.39341 -0.27319 -0.34109 0.55643 -0.078525 -0.018062 0.3501 -0.69689 -0.051286 1.0177 0.34321 -0.80518 0.24188 0.20061 0.2697 
2(N45) -0.77977 -0.97466 0.63127 -0.7975 0.28083 0.2153 0.029924 0.10738 -0.27657 0.42983 -0.75978 -1.1219 -0.43355 0.58052 0.35868 0.20119 -0.53544 0.046754 0.20975 -0.67637 0.3604 0.58132 -0.80927 -0.44147 -0.44578 0.34812 -0.65894 0.18476 -0.6402 0.46242 -0.3823 0.13344 -0.0054608 -0.56138 0.42915 0.36336 0.16795 -0.26568 0.33488 -1.0496 0.36853 -0.43689 0.037264 0.3916 0.36994 0.058098 -0.62209 0.12933 0.36168 0.02966 0.57903 -0.072806 0.20205 0.32769 -0.1233 0.18868 0.72834 0.39 0.28235 -0.55829 -0.661 -0.29427 0.58466 0.66195 -0.18584 0.46589 -0.13559 -0.1005 -0.08919 0.16759 0.025319 -0.57824 0.011148 0.6437 0.067233 0.45954 -0.021966 1.4683 0.078218 0.61253 0.15911 -0.59778 0.071242 0.44873 0.058382 0.023271 -0.43347 -0.013123 0.022504 0.19664 0.17262 0.52205 0.81947 0.42916 0.27079 0.47515 -0.080195 -0.18807 0.22293 -0.48461 0.4437 0.035518 0.79821 0.2393 -0.39113 0.43132 0.17196 0.23053 -0.7562 1.253 0.46326 -0.042679 0.059372 -0.15083 -0.25173 -0.25493 0.11477 0.74951 0.63546 0.051474 0.33542 -0.71488 0.021023 -0.19278 -0.097659 0.37769 -0.68345 -0.055642 
M317 -0.1001 0.39937 0.38122 0.55584 0.56921 0.2992 -0.29873 -0.29151 0.53095 0.074639 0.10098 -0.053024 0.23798 0.30442 -0.1495 0.13819 0.61119 0.017256 0.21615 0.42026 0.069686 -0.65718 0.62098 0.076918 0.28092 0.6471 -1.3433 0.078558 -0.091201 0.66316 0.35848 -0.067357 -0.57727 0.69673 -0.06122 0.047559 0.72398 0.13171 -0.014323 0.029386 0.1985 0.28649 0.66354 -0.74646 -0.024213 0.10345 -0.53586 -0.52783 -0.16066 0.38288 0.30389 -0.42621 -1.0575 0.72693 0.59288 -0.35076 0.31541 -0.2908 0.38948 -0.73234 0.068598 -0.69932 -0.12897 0.70336 -0.13067 0.74487 -0.48208 0.0061978 1.2225 0.92612 0.61612 0.1709 0.43151 -0.49099 0.079761 -0.35134 1.0363 0.17481 -0.17005 0.89956 0.22676 -0.29669 -0.19784 -0.41494 0.21206 0.71655 0.30267 -0.32809 0.077128 0.72017 -0.24399 -0.098719 0.55788 0.058625 -0.37454 -0.1061 0.076714 -0.57625 -0.35051 0.40588 -0.006843 -0.20359 -0.325 -0.53262 -0.2043 0.33539 -0.015917 -0.54837 -0.12537 0.2281 0.15795 0.53532 -0.46688 0.55221 0.58615 -0.043342 0.36317 0.63434 0.36328 0.098718 -0.15318 0.092331 1.4131 0.34744 0.33837 0.019211 -0.47821 -0.91048 
M295 0.17006 -0.94127 0.2314 0.79968 -0.3518 0.2138 -0.024326 -0.71052 0.86652 -0.60888 -0.89156 0.74932 0.16735 0.26757 -0.063633 0.22053 0.28958 -0.47334 -0.34962 -0.84937 0.55096 -0.24549 -0.16061 0.74023 -0.23835 0.33103 -0.60923 -0.02048 -0.081403 0.1227 0.89126 0.5432 0.10761 -0.29046 -0.16284 0.41176 0.21179 0.47875 -0.4682 -0.5142 -0.18119 -0.14226 0.44411 -0.088189 0.4411 0.58608 0.010117 -0.38928 -0.32459 -0.85127 0.24867 -0.34768 -0.073953 -0.52328 -0.54971 -0.7482 -0.057925 -0.12851 0.19826 0.54415 -0.13529 -0.43961 0.39317 -0.72584 0.24498 -0.034139 -0.055189 0.41404 0.62505 -0.37681 -0.05825 -0.5036 -0.077827 1.218 0.82641 0.69081 0.22146 0.74138 -0.49357 0.032205 0.070822 0.26406 -0.36935 -0.93885 -0.28332 0.50785 -0.17015 -0.32531 0.24472 0.0181 -0.086734 0.58083 -0.11961 0.15391 -0.37429 -0.07868 0.21325 -0.56823 0.044755 -0.47788 0.29489 -0.046669 0.2774 0.42475 0.11015 -0.034282 0.36039 0.4673 0.040104 1.1107 -0.091175 -0.8099 0.0060208 -0.58818 0.16857 -0.1739 0.17037 1.1669 0.69244 -0.59843 -0.13322 0.97287 -0.032294 -0.17996 0.10799 0.0358 0.22136 0.31969 
M111 -0.5271 0.30834 -0.34101 0.11709 -0.86096 0.36848 0.14139 0.25969 0.6518 0.25883 -0.57405 0.11952 -0.36221 -0.11449 -0.16807 1.2703 0.052179 0.24122 -0.11829 -0.49029 -0.17018 0.57274 -0.44065 0.42865 0.44953 0.75213 -1.1064 -0.72359 -0.82582 -0.06019 0.88499 -0.76676 0.047173 -0.55001 0.019769 1.0045 0.18029 0.34107 -1.0335 -0.17768 0.053903 0.10425 0.025441 0.17289 -0.046286 -0.015495 -0.4039 -0.17006 -0.68907 0.61193 -0.046331 -0.051025 -0.27659 -0.2361 -0.99895 -0.32731 -0.74605 0.21507 0.37309 0.0534 0.75332 -0.15567 0.19641 0.16577 -0.17067 0.03034 0.46546 -0.48148 0.59669 0.26241 0.67629 0.28641 0.083422 0.45848 -0.59737 0.35092 0.60439 0.23557 0.081957 -0.23031 -0.4633 -0.097612 0.23238 0.0050888 0.0093742 0.64239 0.22453 0.13666 0.49448 -0.21207 -0.11173 -0.44676 0.074227 0.024294 0.43538 0.46857 0.80758 0.29709 -0.10105 0.026082 -0.15307 0.57095 -0.47882 -0.1351 0.043819 0.20492 -0.12874 -0.36356 0.27982 0.3034 0.26972 -0.34578 0.084766 0.34942 -0.63923 -0.71105 -0.4685 0.54531 -0.29576 0.40158 0.98145 0.15716 1.0533 0.050414 0.20764 -0.51839 -0.97499 -0.25301 
M243 -0.72178 -0.32798 0.47698 -0.2499 -0.081032 -0.11472 -0.17217 -0.22311 0.24386 0.43297 -0.89373 0.70622 -0.88969 -0.43091 -0.1538 0.090009 -0.79109 -0.36278 0.31017 -0.36196 -0.042537 0.068853 -0.31673 -0.13884 1.5564 0.092162 -0.22616 -0.4827 0.34797 -0.064596 0.12662 0.65649 0.31519 -0.2708 -0.2923 -0.40635 -0.047343 -0.51213 0.26302 -0.28123 0.60836 -0.036129 0.33061 -0.42667 0.83246 0.74019 0.43145 -0.85842 0.57491 -0.18404 -0.58917 -1.0924 0.42691 0.18946 -0.07375 -0.49665 0.33272 0.18059 0.32584 -0.75767 0.093238 0.69157 0.13119 -0.0015922 0.085362 0.13984 -0.37744 0.71695 0.24019 0.28751 -0.41471 -0.082904 -0.34489 -0.67748 -0.1255 0.25668 0.42478 -0.10513 -0.53773 -0.12841 -0.1609 -0.0054268 0.66248 -0.016881 0.39778 -0.30258 0.36337 -0.47905 0.23573 0.68166 -0.65955 0.36801 0.23519 -0.235 -0.35123 -0.046885 0.68899 0.78595 -0.028768 -0.78265 -0.10237 -0.17846 0.19647 0.83095 0.58017 -0.31546 1.0853 -0.42211 -0.12477 0.13791 0.16282 -1.0001 -0.15433 -0.39166 -0.54899 -0.26878 0.86453 1.062 0.97524 0.89484 0.18779 -0.62085 -0.20687 0.90182 -0.075722 0.6032 -0.80035 0.4141 
M153 0.9521 -0.17407 0.1466 0.12073 0.89027 0.83704 0.29661 -0.79149 0.21111 -0.32399 0.020976 -0.47497 0.41428 -0.79397 -0.50928 1.0079 -0.12316 -1.1591 -0.4731 -0.42275 -0.18956 0.41633 0.014984 -0.25161 0.52221 0.16451 -0.37465 -0.20522 0.26119 0.46012 1.1431 -0.48288 -0.84857 -0.22841 0.039147 0.66503 0.88116 0.10849 -0.60019 -0.69939 -0.18531 0.38688 -0.21085 -0.071459 0.20029 0.52955 -1.1502 0.002536 0.049073 0.35303 0.3582 1.2241 0.40757 -0.52645 -0.32831 -0.2556 0.32799 -0.1719 -0.024386 0.53777 0.058956 0.43959 0.15581 1.0406 0.61488 0.62361 0.07652 -0.5992 -0.239 0.94314 -0.075212 0.41374 -0.35309 -0.11321 -0.10445 0.39433 0.732 0.80831 -0.073984 -0.0173 0.62283 0.67651 0.17108 -0.072458 -0.37289 0.68091 0.31339 -0.39064 0.18546 0.86193 -0.78785 0.32986 0.27598 0.47846 -0.26934 0.62247 0.57433 -0.46287 -0.73866 -0.73061 0.50492 -0.36151 -0.41974 -0.83967 0.37497 0.13461 0.80239 -0.052216 -0.032911 -0.011588 -0.39385 0.31596 -0.06893 -0.12235 -0.29117 -0.20103 0.39689 0.24843 -0.087312 0.58798 0.39357 0.23146 0.12977 -0.40775 0.3715 0.17227 -0.34104 -0.18954 
M365 -0.33383 1.016 -0.32062 0.13352 0.23898 -0.51765 -0.13713 0.10269 -0.095665 0.69678 -0.62405 -0.91557 0.048956 0.43405 0.62615 0.68477 -0.26365 0.13421 0.2378 -0.42288 0.23935 0.23772 -0.1676 0.10876 0.752 0.22228 -0.037558 0.52375 0.040347 -0.33703 -0.083511 -0.56629 -0.33029 -0.40505 -0.035322 -0.38215 0.50542 -1.2795 -0.17305 -0.9182 -0.78843 0.65735 0.16418 -1.0658 0.26456 0.24783 -0.28884 0.18798 0.20878 0.43829 0.24 -0.60396 -0.58202 0.96401 0.40125 -0.039067 -0.38729 0.13295 -0.095675 0.16421 1.1432 -0.54935 0.058189 -0.26015 0.97847 0.47706 -0.24131 -0.42846 0.54869 -0.98471 -0.40809 0.24396 0.2932 0.95542 -0.49218 0.46636 0.516 -0.43674 0.65632 0.40902 -0.69469 0.31686 -0.035871 0.36264 0.056701 -0.22672 -1.4729 0.084081 0.49209 0.18443 -0.69783 0.51108 1.1642 0.93159 -0.56771 -0.2507 0.011606 -0.63013 -0.50219 -0.19421 0.84955 0.036361 -0.51271 -0.20656 0.12269 0.36572 0.25806 0.21889 0.093239 0.4192 -0.28819 -0.08019 -0.16565 -0.18336 0.032713 -0.25218 0.35598 -0.60868 0.097244 -0.75979 1.2437 0.18278 0.90437 -0.52962 0.59331 0.49445 -0.36769 -0.12882 
M304 -0.16938 -0.54663 -0.5431 0.28244 0.1806 -0.58817 0.36917 -0.10501 -0.3617 -0.074985 -0.30978 -0.30344 0.77935 0.38264 0.64503 0.52438 -0.21734 -0.21188 0.73666 0.0048552 -0.079087 -0.2853 0.50202 -0.0060255 0.015113 0.20812 -0.61856 -0.28473 -0.41262 -0.46261 0.46427 -0.82528 -0.15589 -0.74454 -0.55776 0.96197 0.57898 -0.22992 -0.14796 -0.67581 -0.14996 0.034673 -0.17918 0.32486 -0.029636 -0.11313 0.34468 -0.72279 0.37789 -0.61427 -0.21565 -0.14102 -0.37008 0.38957 0.60847 -0.15477 0.73823 0.041484 0.022361 -0.29301 0.31718 0.96362 -0.45746 0.40756 0.12669 -0.92808 0.46699 0.84381 0.4732 -0.12607 0.29428 -0.65303 0.05084 0.43139 -0.84633 0.23702 -0.78344 1.231 0.36276 -0.13406 -1.4006 0.23956 0.73703 0.080789 -0.39636 0.17586 -0.36752 0.26205 0.49387 1.1705 -0.56096 -0.26688 -0.3274 0.55168 -0.53857 -0.28508 -0.22094 -0.26746 -0.35884 -0.095061 0.57952 0.071375 -0.11634 -0.61923 -0.77374 0.88136 -0.4532 0.13712 -0.23524 0.76408 0.39543 -0.023961 0.46929 0.22661 -0.10334 -0.69601 1.3029 0.012181 0.20277 -0.21568 -0.78456 -0.21306 -0.25198 0.36293 -0.10572 -0.39017 -1.1831 0.3306 
M264 -0.039062 0.045039 0.0027742 0.26107 0.093448 0.40536 0.85401 -0.15163 -0.36425 0.82734 -0.41353 0.24482 0.10648 0.74983 -0.32008 0.59806 -0.075411 1.1158 0.72747 -1.3432 -0.13051 0.10992 0.13084 0.34557 -1.3095 -0.27732 -1.6164 -0.19627 0.44195 0.15209 -0.77649 -1.1703 0.42817 -0.0070616 -0.24317 -0.050268 0.82619 -0.11059 -0.34445 -0.051484 0.16503 -0.21826 0.36463 -0.48143 -1.029 0.26196 0.084336 -1.0315 0.016926 -0.22271 0.81876 -0.2417 0.36122 0.59551 -0.011344 0.16173 -0.065725 0.29658 0.27559 0.036279 -0.39214 -0.047621 -0.38067 0.57165 0.23565 0.65865 0.34911 0.41355 0.013108 0.39224 0.15499 0.1028 0.10403 -1.0436 -0.66921 -0.45777 -0.068762 0.5663 -0.21904 -0.72746 0.259 1.2773 -0.18687 -0.37222 -0.54711 -0.58309 -0.4407 -0.1653 0.314 -0.57058 -0.23608 0.33945 -0.42999 0.22762 -0.41969 -0.58493 0.072658 0.2405 -0.39184 -0.97247 -0.88218 -0.11548 0.92207 0.24973 0.12493 -0.96107 -0.22975 -0.2796 0.39385 0.16652 -0.15459 -0.83536 0.71644 0.11705 0.72235 -0.023499 -0.033344 1.1228 -0.0030904 -0.53818 0.11237 0.77959 0.53021 0.18697 0.79696 -0.51395 -0.31865 0.0048851 
M309 -0.18888 0.21323 -0.30551 1.1093 0.49399 0.48598 0.69705 0.45349 0.067972 0.3989 -0.72277 0.46404 -0.5399 -0.46634 -0.62555 -0.099602 -0.48118 -0.2223 -0.18902 0.082983 0.61985 -0.73867 0.66139 -0.20112 -0.13802 0.77246 -0.82022 0.15286 -0.32405 0.096769 0.35243 0.95423 -0.35483 0.2636 -0.58809 0.75923 0.063099 -0.34315 -0.61251 -0.40756 -0.80549 -0.073655 0.71222 0.25087 -0.11058 0.87833 -0.15354 0.602 0.63115 0.15062 0.061202 -0.001091 0.014112 0.87353 0.34974 -0.45376 -0.053454 1.0428 0.31015 -0.38024 -0.66024 1.0082 -0.45904 0.31552 -1.0857 0.68429 -0.17644 -0.22316 0.0068728 -0.92364 0.57228 -0.020821 0.3888 -0.40186 0.13619 0.12834 0.61442 0.32564 0.081362 0.67414 0.21988 -0.15413 -0.018233 -0.16593 -0.33137 0.25215 -0.78997 -0.21445 0.24237 0.60446 -0.96955 1.3256 0.90415 0.29877 0.25255 0.88269 0.01011 1.0165 -0.118 -0.75742 -0.47889 0.24822 0.16401 0.45087 -0.28623 0.019815 -0.37247 0.49082 -0.27219 -0.16698 -0.36364 -0.68786 0.86778 0.7345 0.87264 0.21086 0.58129 -0.36308 -0.24997 0.66584 -0.36524 0.5467 -0.082031 -0.095471 1.1357 0.89545 -0.89108 0.19957 
M292 -0.47786 0.24646 -0.6357 0.28661 0.22864 0.54563 0.64845 -0.074934 0.37648 -0.57831 -0.67882 0.46295 0.61951 -0.027728 -1.1551 0.87136 -0.56541 -0.73768 0.57762 0.035547 -0.14188 -1.1904 0.67333 0.1342 -0.13797 0.50903 0.17809 0.060732 -0.46197 -0.030359 -0.12276 -0.41469 -0.19828 0.1946 0.051163 -0.35141 -0.016855 -0.1643 -0.28563 -0.42135 -0.065766 -0.66269 0.17873 -0.98608 -0.5793 0.061456 0.18992 0.51224 0.23335 -0.061038 0.049074 0.066553 0.28052 0.89938 0.54897 -0.087949 -0.43939 -0.2848 -0.48994 0.42858 0.13277 -0.41208 0.53645 0.3115 -0.049366 0.039375 -0.22348 -0.55803 0.53948 -0.14693 0.53532 -0.21191 0.09849 0.82715 -0.46618 -0.12835 -0.36577 -0.10711 -1.0979 0.65883 0.21397 0.17056 0.5747 -0.11961 0.68322 -0.13471 -0.6626 0.11141 0.016824 0.17033 0.57988 0.10959 0.74027 -0.36561 0.50614 0.8492 0.53197 0.40193 -1.0808 -0.011161 -0.5036 0.18218 0.021707 -0.098201 -0.30699 0.14021 0.17245 0.35063 -0.59069 0.244 -0.62201 -0.085187 -0.67135 0.6333 -0.45031 -1.0052 -0.015605 0.92569 0.62736 0.28387 0.15139 -0.3488 0.035542 -0.24767 0.081961 -0.65641 -0.33992 0.18293 
