UNK -0.193435 0.430908 0.780588 -0.666684 -0.081132 -1.373928 -0.373026 0.239573 1.283786 1.844926 -0.311160 -0.965885 -0.524454 0.334492 0.492249 -0.731250 -1.001200 1.635246 0.176075 -0.552376 0.351167 -0.438889 0.035602 0.288369 -0.180980 -0.466470 -0.235884 -1.138734 0.178130 -1.676853 -1.381447 -0.102945
1(N01) -0.687802 0.611549 0.257434 -0.624381 0.165921 -0.835256 -0.463195 -0.324793 0.851517 0.903190 -0.420802 -0.027808 -0.417505 0.401721 0.375446 -0.214882 -0.397864 1.084583 -0.503146 0.263324 0.076529 -0.232173 0.082391 0.239729 -0.674103 -0.172618 0.080307 -0.319580 -0.260739 -0.743549 -0.544152 0.870139
2(N01) -0.344980 0.233564 1.096475 -1.069438 0.064721 -0.969455 -0.970499 -0.396164 0.296499 1.238356 0.009674 -0.546982 -0.060923 -0.359928 -0.011931 -0.489501 -0.988557 -0.097805 0.218455 -0.414352 0.898511 -0.166494 1.000563 -0.151732 -0.850308 0.090846 -0.768621 -0.239105 0.633922 -0.780751 -0.348664 0.282098
1(N14) -0.052779 0.095597 0.719464 -0.424766 -0.407193 -1.061972 -0.923497 -0.216929 1.006588 1.143804 -0.156197 -1.649960 -0.569676 -0.396270 -0.291685 -0.455025 -0.291313 0.339624 0.155948 -0.615584 0.359901 -0.554853 0.283414 -0.663303 -0.931903 1.007696 -0.097408 -0.063199 -0.118439 -0.863401 -0.455021 0.211674
M288 0.249305 -0.003002 0.747493 -0.632964 0.520834 -1.117595 -0.626137 0.031889 0.868311 0.678621 0.074462 -1.002450 0.165851 -0.702636 -0.276564 -1.057902 -0.754977 0.528667 0.680362 0.389864 0.545322 -0.361228 0.513017 -0.873212 -0.143074 0.447123 -0.609356 0.057571 0.173973 -1.241400 -0.696930 0.744606
3(N01) 0.058460 -0.540025 0.946541 -1.151145 0.925994 -0.860230 -0.703457 -0.307853 -0.079122 0.535359 -0.253700 -0.975285 -0.302315 -0.632327 -0.039838 -0.667286 -1.487942 -0.126165 -0.981674 0.140599 0.573327 -0.345426 0.558666 -0.465331 -0.786864 0.712934 0.258782 -0.098993 0.073265 -1.339504 -0.655614 -0.153521
M388 -0.148727 0.611545 -0.370190 -0.324424 -0.179837 -0.175230 -1.103547 0.213198 0.538325 1.257429 0.114696 0.158891 -0.540585 0.720694 -0.568581 -0.167660 -0.209117 0.449439 0.188671 0.010209 -0.372457 -0.440539 0.760478 -0.215122 -0.744979 -0.275826 0.413105 -0.349563 -0.594746 -0.107471 -1.957324 -0.250889
1(N24) -1.310935 -0.618105 -0.011381 -1.196418 1.307592 -1.301277 -0.119657 0.617317 0.028946 0.217657 -1.981258 -0.702540 0.905302 -0.364648 0.904349 -1.326801 -0.573633 1.139588 1.153258 1.460592 0.723750 -0.056062 -0.424504 -1.594694 0.524548 0.389230 -1.693900 -1.256834 0.208205 -0.210584 -0.047375 1.864983
M218 -0.683843 1.095846 -0.273258 -0.882305 -0.181434 -1.514028 -0.644470 0.223580 0.861461 0.751291 0.590027 0.631202 -0.295273 -0.000635 -0.554263 -0.433214 -0.838472 0.792450 0.390786 0.838408 -0.068203 -0.158835 0.718869 0.197652 -1.077796 -0.046524 -0.253181 -0.169042 -0.801168 -1.130382 -1.164575 -0.011900
M387 -0.512830 0.659685 -0.292501 0.103955 0.550051 -0.451983 -1.306064 0.388418 0.676598 1.512722 -0.767290 -0.103116 -0.214052 1.071745 -0.246420 -0.018277 -1.044484 -0.076000 -0.276321 0.677001 1.077926 -0.113690 0.219027 -0.667605 -0.464724 -0.262620 -0.437391 0.408356 -0.699287 -0.432558 -1.240830 0.331005
4(N01) -0.261874 0.227380 0.298608 0.212252 -0.576400 -0.846862 -0.647566 -0.007459 0.805950 0.938734 0.043835 -1.303800 0.008390 -0.196896 -0.271779 0.179501 -0.677409 0.338598 0.911576 0.196507 0.961350 -0.309351 0.677972 -1.054936 0.579965 0.850806 -1.009090 -0.192759 0.026002 0.217613 0.300036 -0.063925
1(N39B) -1.471172 -0.267252 0.172346 -1.117734 1.616512 -1.116569 0.022436 0.360963 -0.101896 0.559211 -0.578052 -1.204767 0.561725 0.102857 0.455790 -0.101922 -0.631905 0.289923 0.379332 0.456240 0.980137 -0.453352 -0.289881 -0.431294 -0.118669 -0.259038 -0.429020 -0.156324 0.169334 -0.591490 0.203645 0.903774
2(N39B) -0.767388 -0.280054 0.257548 -1.390809 0.959608 -1.473491 -0.180420 0.560695 -0.337697 0.651444 -0.831919 -1.224161 0.268503 -0.155128 0.639561 -0.675070 -0.626517 0.160882 0.942731 0.952643 1.152922 -0.142010 0.275761 -0.415500 0.309008 0.103930 -0.354171 -0.876230 0.163857 -0.972174 -0.060488 0.940772
5(N01) -0.585188 -1.042245 -0.647099 0.817816 -0.905303 -0.636296 0.011521 0.379004 0.225341 0.469135 -1.194977 -1.809396 -0.031000 -0.098575 0.233052 -0.937453 -1.268411 -0.379044 0.526208 0.691184 0.318810 -1.371443 -1.659208 -0.120041 -0.637824 1.379371 0.545201 0.753192 -0.806850 -1.408324 -0.910579 -0.082859
M297 -0.690636 0.423278 0.677260 -1.093911 0.980453 -0.596852 -0.933271 0.529741 -0.327834 0.839992 -1.196912 -0.961793 0.192024 0.378959 0.294665 -0.278101 -0.121754 0.904816 0.151816 0.601598 1.171521 -0.613638 0.243923 0.096416 -0.063590 -0.084560 0.277717 -0.415470 -0.623780 -0.472128 -0.371533 0.773445
M263 -0.135947 -0.146534 -0.203721 -0.238875 0.215488 -1.273238 -0.335815 0.473484 0.761846 0.620840 0.043005 1.349036 -0.765112 0.260727 -0.158653 -0.520339 -1.195141 -0.542472 -0.393923 0.938224 -0.267676 0.689204 0.516297 0.161927 -1.185253 -0.444875 -0.706770 -0.121309 -0.076994 -0.858585 -1.405143 -0.520384
2(N14) 0.555968 0.235230 1.157382 -0.047028 -0.280514 -0.875781 -0.164451 -0.149728 0.544163 0.709316 0.290066 -1.512278 -0.711402 -0.388218 -0.146345 -0.308726 -1.316751 0.369326 0.399161 0.605810 0.847953 -0.542576 0.572202 -0.842812 0.182268 0.803129 0.033026 0.105474 -0.241875 -1.019695 0.389277 0.322349
M157 0.249595 -0.402982 0.962939 -0.370133 1.312562 0.148753 -1.024242 0.321549 -0.046030 -0.032928 -0.354467 0.156332 -0.619909 -0.650191 -1.087757 -0.723956 0.897500 0.205883 -0.016642 -1.447799 -1.468554 -0.254055 -0.429855 -0.415635 0.108068 -1.371934 -1.155750 0.432063 -1.853487 0.277307 0.098799 -0.278600
M371 -1.010751 0.137446 -0.247194 -0.737755 -0.479860 -1.049147 -0.927625 -0.799978 0.317666 0.946969 -0.814716 0.296774 0.575939 0.402405 -0.591474 -0.516263 0.658462 0.928504 -0.699232 0.604182 0.069936 -0.222240 0.159688 0.155198 -0.236484 0.727682 0.094541 -0.011385 0.249165 -0.700118 -1.251809 -0.530976
1(N30C) -1.106760 1.124453 0.083312 0.137295 1.246964 -0.510226 -1.173756 0.661356 0.885726 1.318180 -2.167893 -1.409661 1.216907 -0.094653 0.662973 0.348332 0.306661 0.793225 -0.200622 0.355753 1.656957 0.277557 -1.252241 0.637620 1.107216 -0.443496 -0.813761 -0.970310 0.077289 0.003430 1.305005 0.865619
M124 -0.463985 0.924519 0.451275 -0.086036 -0.667045 -0.781722 -0.487114 -0.306628 1.185318 0.095858 -0.106452 1.005520 -0.504224 0.435175 -0.047027 -0.259687 -1.007895 1.164770 -0.778919 0.791761 0.463392 -0.292086 0.577866 0.752886 -0.450871 -0.150823 0.087602 0.265727 -0.366844 -0.529619 -0.270728 0.643638
M054 0.470201 0.676541 -0.042780 0.089813 -0.787572 -0.094712 -0.184298 -0.881370 -0.731710 1.526919 -0.139781 -0.963118 0.931318 0.355511 -0.791941 -0.180143 -0.584172 0.641892 -0.632423 -0.230037 0.131170 -0.755350 0.340354 -0.759267 0.442741 -0.235551 0.386898 0.449524 -0.404957 0.251234 -0.567437 0.114277
M346 -0.087016 0.198636 -0.043999 0.609856 -0.167708 -0.085349 -0.514931 -0.974988 0.961205 -0.462901 0.428359 -0.824115 -1.163255 0.711060 0.020485 -0.178440 -1.456587 0.391563 -0.259011 0.022978 1.077292 -0.382537 0.751860 -1.430555 -0.837711 0.722984 -0.626327 -0.030051 0.389828 -0.071968 0.271492 0.148064
M066 -0.482053 0.655824 -0.688099 -0.836032 0.288530 -1.030774 -0.053788 -0.057052 0.968426 0.799269 0.556902 -0.236822 -1.029468 0.692909 -0.382052 -0.299330 -0.189682 0.263914 0.267675 0.653943 0.033156 -0.218866 0.930454 -0.533102 -1.280825 -0.020606 1.346206 -0.231241 -0.008070 -0.580081 -1.359347 1.099502
2(N30C) -1.872535 0.021931 0.405905 -0.669940 0.323763 -0.190989 -0.056392 0.753223 -0.884834 0.702972 -1.305548 -0.419690 1.671270 0.369094 1.383424 0.043163 -0.976649 0.640552 1.140416 0.221774 1.442800 -0.275788 -1.077607 -0.383466 0.051948 -0.461707 -1.541298 -0.872488 -0.106107 -0.378199 0.518141 0.323577
M009 -1.025773 -0.741268 -0.209053 -1.668974 -0.877048 -1.776588 -1.236249 -0.640398 0.118823 2.016429 -1.126575 0.141645 -0.913597 -0.002110 -0.503661 0.302678 0.819579 0.543845 -0.328747 0.479681 0.887386 -0.237755 0.812820 1.451674 -1.041555 1.176136 0.384849 0.371988 -0.799449 0.956355 -0.850190 -0.496669
3(N39B) -0.559228 0.218183 0.611141 -0.747363 0.520712 -0.772284 -0.021568 0.345096 -0.187389 0.355453 -0.543143 -1.167642 0.932236 -0.500791 0.267058 -0.521701 -1.178553 1.014456 0.560217 0.461605 0.994381 -0.244445 -0.327286 0.002129 0.120881 0.138639 -0.950405 -0.378551 -0.431564 -0.519345 0.548812 0.628083
M096 0.260758 0.741834 0.217984 -0.267523 0.837857 -0.091214 -0.159314 0.488895 1.428012 0.720226 -0.605235 -0.080184 0.160058 0.088665 0.348135 -0.110074 0.250660 -0.562880 -0.347849 0.143697 -0.058897 0.378718 0.170153 0.212871 -1.577721 0.067829 0.600271 0.281890 0.712004 -0.588173 -0.977991 1.199124
6(N01) -0.081880 0.917042 -0.330686 1.217853 -0.481550 -0.719828 -0.069686 1.356846 1.181080 1.137500 0.050085 -1.655483 -0.378494 1.317169 -0.384122 1.169490 0.824570 0.719099 -0.071602 -0.242006 0.806964 -0.124744 -0.756125 -0.121097 0.135934 1.049019 -0.027805 0.805181 -0.348441 0.555949 0.356376 -0.057698
M376 -0.476631 0.121143 1.194555 0.465474 -1.746495 -0.159343 0.056434 -0.695827 0.467931 0.177384 -0.416194 -0.529663 -0.487798 0.599918 0.826572 -0.593264 -1.266251 0.144547 -0.996961 -0.589153 0.130642 -0.548454 0.598267 1.050010 -0.198093 1.229508 -0.014827 0.541623 0.078662 -0.487819 0.180345 0.044507
1(N34) 0.235840 -0.651181 1.501425 1.633934 -0.189619 -0.410581 -0.652122 -0.359011 1.439715 -0.233888 -0.072663 -0.566427 -0.247237 -0.416532 -0.153808 -1.053559 -0.202522 0.468806 -0.856700 0.690901 1.678914 -0.112838 0.040332 -0.048366 1.196471 0.316648 0.227299 1.097217 1.498948 -1.121368 -0.045307 -0.889377
1(N30D) -0.997751 0.267108 0.880881 -0.388231 1.343676 -0.052670 -0.688556 0.048788 -0.806797 0.666399 -1.697923 -1.250731 1.436724 0.101244 1.299923 -0.895882 0.081773 1.374992 0.455194 -0.189417 0.445641 0.791641 -1.366025 -1.679855 -0.332986 -0.467746 -0.437624 -0.715163 0.709148 -0.306496 0.522758 1.003187
3(N14) 0.507037 0.155831 1.099139 -0.103246 -0.178778 -0.477296 -0.944767 -0.247465 0.746231 0.647513 0.104178 -1.192650 0.465599 -0.819907 -0.382164 -0.051579 -0.758585 0.342587 -0.246476 -0.201171 0.511974 -0.275979 0.111061 -0.743627 -0.384357 1.438908 -0.857317 0.603071 0.210354 -0.793013 -0.073329 -0.223989
M057 0.238900 0.286987 0.243743 -0.261442 0.628070 -0.158731 -1.432937 0.708141 1.516343 -0.008309 0.147824 0.048591 -0.794079 0.359789 0.085912 0.110352 0.347525 0.111962 0.199732 0.586425 0.177960 0.201037 0.725537 -0.036509 -0.665204 1.169561 -0.388229 -0.354651 -0.097841 -0.462313 -1.194461 -0.648927
4(N14) 0.568388 -0.300317 0.755887 0.222085 -0.211994 -0.757763 0.065473 -0.641868 0.306346 0.576986 0.038774 -1.786078 0.116778 -0.347509 -0.200875 -0.014195 -1.040500 0.217301 -0.259369 0.508706 1.448305 -0.286648 -0.106114 -0.605894 0.439675 0.886576 0.039489 0.537228 0.470472 -0.553056 0.407928 0.338869
M367 -1.179789 -0.142426 -0.444529 -0.276350 -0.092857 -0.133244 -1.800091 -0.546803 -0.307198 0.434248 1.272511 -1.514717 -1.161499 0.466481 -0.144652 0.252915 0.193206 0.500785 0.632653 -1.971551 0.118122 -2.183649 0.417165 0.247041 0.333844 1.063609 -0.492202 -0.117393 0.237502 -0.745295 1.467808 -1.153681
M001 0.188222 0.582071 0.441760 0.676680 -0.569449 0.411366 -0.998857 0.126540 -0.193910 0.632180 -0.990046 -0.089308 -0.816001 0.195443 0.224466 0.145487 -1.023011 0.770149 -0.247740 0.168973 0.036407 -0.200519 0.578704 -0.936924 0.090774 0.554267 -0.249658 -0.342357 -1.143750 0.403918 -0.180883 -0.052900
M305 -0.028237 0.514697 -0.604295 0.318448 0.179808 -0.158372 0.223933 0.569181 -0.422444 1.044727 0.394231 -0.046855 -0.455324 1.132581 0.001140 -0.030940 -1.490068 1.156332 0.575524 -0.576540 -0.402501 -0.196598 0.548678 -0.814093 0.217257 -0.791254 -0.746539 -1.051252 0.016111 -0.217586 -1.436294 -0.417095
M036 -1.089165 -0.005551 -0.271896 0.347464 -0.541797 -0.777196 -1.082469 0.845236 0.351960 1.257984 -1.075811 -1.661196 -0.605155 0.935583 0.091164 -0.886180 -0.581071 -2.056638 0.266795 0.279735 1.264793 -0.163862 -0.423861 -0.240142 -0.123414 -1.218650 -1.194436 -1.875756 0.324827 -0.481185 1.183935 0.685540
M032 0.380194 0.553239 1.011695 -0.066102 -0.982698 -0.311143 -1.359530 0.411276 0.442858 0.540975 -0.482880 -0.218942 -0.609801 -0.667527 -0.438529 -0.014602 0.974224 0.314303 0.563037 -0.793157 -0.625001 -0.837522 0.210496 0.500484 -1.241247 0.707412 1.051817 0.806550 -1.279404 -0.482620 -0.193911 0.674229
M370 -1.238873 1.031039 0.512658 -0.784094 -0.791587 0.863040 0.253964 -0.862602 -0.228908 -0.150155 0.870243 0.353603 0.862926 1.229082 1.062266 0.895626 -1.644191 0.997009 -0.876469 -0.246401 0.127088 0.099077 0.230353 0.723131 -0.736149 -0.934716 0.132820 -0.052131 -0.998589 0.738729 0.416173 0.927822
1(N45) 1.286116 -0.375907 1.028958 -0.552688 0.091054 -1.156514 0.494212 -0.778844 0.257702 1.290122 -0.379669 -1.104533 0.124240 -1.453548 -0.257819 -1.090936 -0.487969 -0.249435 -0.138310 0.115398 0.333038 -0.202443 -1.365202 -0.411957 1.631828 0.398674 0.170980 0.885167 1.625017 -1.591341 1.218322 -0.097915
8(N01) -1.419202 -0.704639 0.136488 -0.871352 -0.357864 -1.234196 -0.384156 0.441573 -0.717973 0.695101 -1.437520 -1.235979 0.647084 -0.338927 0.062024 -0.974359 -0.617953 0.440014 2.007134 0.937248 0.200408 -0.530629 -0.757989 -1.044891 0.569396 0.450491 -1.084472 -0.184978 0.391402 -1.127237 0.331727 0.283089
7(N01) -0.934216 0.008903 0.117848 -1.279928 -1.343585 -0.373371 -0.084304 -0.865309 0.401807 1.648989 0.002439 -1.461214 -0.565114 -0.097661 -0.128535 -0.071973 -1.745395 -0.803154 0.622912 -0.344811 0.293879 -0.968029 1.417768 -0.656299 -0.787689 -0.457515 0.266819 0.227505 0.932063 -0.402171 1.712818 -0.200407
M003 -0.177655 -0.009248 -0.029514 -0.774380 -0.733153 -1.012736 0.145727 -1.035200 0.290993 0.647553 0.166806 -0.057641 0.219537 -0.128842 -0.011400 -0.515149 -0.011904 0.477942 -0.322151 -0.441747 -0.233496 -0.061485 -0.071122 0.600824 0.134310 -0.167623 -0.088598 -0.593097 0.341898 -0.430639 -0.566936 -0.900950
M004 -0.449763 -0.058921 -0.272672 -0.496461 -0.729075 -0.778994 -0.391789 -0.263892 0.304261 0.361347 1.340262 1.177708 -0.607046 0.246549 -0.144520 -0.506151 -0.765672 0.030745 1.037273 0.782247 0.173161 0.259719 1.368166 0.421845 -1.139204 0.111858 -0.047082 -0.182789 -0.094816 -0.537980 -0.922238 -0.705617
M377 -0.429999 1.142837 -0.115653 -0.272626 0.262006 -0.218364 -1.152319 -0.292896 1.489954 0.527629 0.348542 0.776217 1.029279 0.378051 -0.663791 -0.923349 0.495483 1.483129 -0.352668 -0.260304 -0.624352 -0.215833 0.036826 -0.243790 0.410535 -1.123846 -0.670234 -0.383931 0.004982 -0.540924 -1.368670 0.061452
M354 0.852645 -0.407394 -0.052087 0.747596 0.025423 -0.116362 -0.094392 0.106955 0.199488 -0.169676 0.524610 -1.528331 0.807036 0.450564 -0.531307 -0.222822 0.859420 -1.275194 1.260111 -0.544128 1.073706 -0.465564 0.368056 0.067397 0.008074 1.118860 0.656765 0.436483 1.579760 -0.107867 -0.734694 0.223748
4(N39B) -0.886276 -0.489696 1.112432 -1.047689 0.138976 -0.265025 -0.950281 0.516449 0.112014 -0.571982 -1.259544 -0.647870 0.833410 -0.686723 0.915134 -0.089426 -0.452727 1.021675 0.709340 0.352040 0.696946 0.025762 -0.457351 -0.851363 -0.289548 1.203832 -1.930458 -0.345802 -0.345493 -0.240408 0.220060 -0.028645
5(N14) 0.442453 -0.659097 1.120671 0.586112 -0.259550 0.057386 -0.083276 -0.265252 1.062659 0.295637 0.051023 -1.855073 0.384654 -0.804101 -0.252870 -0.982825 0.134243 0.253234 0.215828 -0.806098 0.017256 -0.708691 -0.441850 -1.439641 0.483187 1.064700 -0.596457 0.041688 -0.014859 -0.236368 -0.336736 -0.526773
M352 -0.751543 1.265793 -0.509870 -1.034314 -0.352217 0.043382 -0.444265 0.312696 0.939714 0.370268 1.142437 -0.857241 -0.904786 0.744185 0.102978 0.529665 0.464743 0.733881 0.904788 -0.277520 0.602164 0.041577 0.833988 0.009564 -1.103758 -0.487410 1.127100 0.017235 0.541117 0.318235 -0.251246 0.081814
M072 0.316352 -0.572304 1.108764 -0.752235 -0.170745 -0.018356 0.195602 -0.000545 -0.454937 0.137100 -0.485038 -0.630955 -0.527520 -0.815937 0.478213 0.630489 0.097748 1.664813 -0.354652 -1.480015 -0.336878 -1.514443 -0.040011 0.914767 -0.537236 -0.027559 1.193810 -0.067059 -0.123553 0.051148 0.224979 0.630497
M036+1(N30D) -0.159117 0.433265 -0.394276 0.262764 -0.692592 -0.125681 -0.383694 0.389521 -0.685619 0.767970 0.606462 -0.658953 0.950020 -0.416438 -0.077944 -0.371222 -0.031356 -1.556883 1.243538 -1.280550 0.908299 -0.312534 -0.683713 0.907532 -0.176159 0.361723 0.460519 0.539257 -0.421008 -0.393327 0.020769 -0.320553
M269 -0.256330 -0.120540 0.640998 -0.066259 1.208441 0.045999 -0.131669 -0.131456 -0.244505 0.707375 -0.578538 -1.552518 -0.754372 0.063210 0.483425 0.991388 -0.731692 -0.722262 -1.234796 -0.516865 0.512819 0.612597 -0.014175 0.451805 0.300297 0.083653 1.162535 0.038102 0.250650 -0.100789 -0.157086 0.508106
M136 0.617646 0.540289 0.312559 0.331593 -0.293432 0.531932 0.825376 -0.511614 0.145769 0.810703 0.775574 -0.310153 -0.018717 0.420828 -0.349859 0.558789 -0.549377 -0.279352 0.299587 -0.553328 0.120981 0.408188 0.739831 -0.920003 0.019123 -1.392297 -0.259245 -0.928347 0.672557 0.828222 0.013133 0.505404
M206 -0.681920 -0.979177 0.553751 0.124128 -0.283395 0.237700 0.081555 0.286569 0.260650 -1.735023 0.993148 -1.196464 -2.479553 -0.486840 -0.005569 1.539713 -0.778468 0.789876 -0.727535 0.604860 0.086195 0.033436 -0.581304 -0.456580 1.048604 0.253712 -0.781832 -0.068633 -2.203321 -0.241245 1.219464 -1.168318
M219 -0.705129 0.717430 -0.679969 -0.716632 0.579917 -1.494603 0.040908 0.390671 1.114485 0.708695 0.001422 -0.207243 -1.161528 -0.018704 -0.238167 0.419646 -0.332643 0.486702 -0.474925 0.521720 -0.644316 0.403605 -0.231169 -0.307913 -0.965069 0.463217 -0.672918 -0.041395 -0.242404 -0.092754 -0.494093 -0.556838
M056 0.622374 -1.060303 0.728935 0.826622 0.487920 0.447610 0.584769 -0.507426 0.385074 0.078790 0.287589 0.338139 1.089540 -1.123762 0.044588 -0.237864 -0.420578 -0.128932 -0.811260 -0.734049 -0.029868 0.452436 -0.820045 -0.940718 0.310891 0.178030 -1.400289 0.546234 0.468384 -0.371557 -0.022129 -0.583207
M347 -1.635695 1.008925 -1.746396 -1.153551 1.179308 -0.289804 -0.980551 -0.794175 1.265760 -0.090158 1.435765 -0.320152 1.346260 1.128431 -1.207330 -0.450639 1.630935 0.184705 -1.151385 0.143614 -1.444845 0.205859 -1.029212 0.368920 -0.131244 -0.775455 -0.295410 -0.469148 0.997567 -1.188794 -1.130985 -1.521430
M038 -0.207908 -0.361666 0.397976 1.275220 0.528148 0.217143 -0.633608 0.269714 0.549979 0.432622 0.082708 0.230699 0.943208 -1.017452 0.474102 0.152716 -0.992002 -0.695133 -0.016507 -0.911344 0.519291 -0.183434 0.554874 0.176150 0.439324 -0.324674 -0.732696 0.409274 -1.346064 0.106184 -0.777249 0.828742
M048 0.377782 0.218088 0.114908 -0.122830 0.804597 -0.505846 -0.747313 0.717110 1.156243 0.634269 -1.005492 1.347144 -0.011897 -0.586405 -0.218800 1.009109 0.324438 -0.168556 -1.174219 0.216318 -1.600155 0.610592 -0.115899 -0.238249 -1.096232 0.579637 -0.419173 -0.032034 0.361367 0.142154 -1.049711 0.564681
M059 -0.010822 -0.362481 0.683345 -0.043942 0.582159 0.614309 -0.436045 -0.535164 -0.915475 0.637931 -0.822153 -0.605244 -0.382975 0.147511 -0.431348 0.521896 0.451995 0.315176 -0.764796 0.345116 0.646729 0.008227 0.407453 -0.805201 0.593626 0.191723 0.929702 -0.065580 0.257489 0.675359 -0.007241 -0.522971
6(N14) 0.238682 -0.973886 0.403277 0.530007 0.750790 0.114923 1.254018 0.065653 -0.598609 -0.057913 0.759631 -0.993576 -0.156007 0.386283 0.703529 -0.171565 -1.315654 0.606396 0.211441 0.055622 0.307677 -0.326751 0.590155 -1.927681 1.631713 0.012746 0.713930 -2.225793 0.688297 -1.363601 -1.332824 -0.727426
M010 -0.721464 0.355492 -2.166060 -1.466782 1.178020 -0.962794 0.375546 -0.925884 -0.434369 -1.723698 0.585722 -0.658478 0.323188 -0.121647 0.859518 0.282767 0.154443 -0.087192 1.153028 -0.760836 -0.772924 -0.081515 0.117834 -1.139536 0.294465 0.202559 -1.705015 -1.058538 0.968471 -0.716090 -0.144254 -1.567563
9(N01) -0.927202 -0.665505 0.543293 0.702849 -1.652087 -0.493878 -0.523575 -0.168038 -0.505573 0.826037 -0.728513 -0.450092 -1.070592 -0.458683 0.018559 -0.146906 -0.706583 0.652537 0.026761 -1.076047 0.069269 -0.758843 0.089808 -0.368623 -0.388239 1.119987 0.080795 0.209028 -0.740684 0.189001 1.100229 -0.277852
M262 1.015039 1.463546 -0.172650 -0.107157 -0.297372 0.506503 0.199298 -0.637470 -0.204309 1.449697 0.033496 0.057377 1.044799 -0.401855 -0.789589 -1.250318 0.420223 -1.498108 1.190561 -0.421061 -0.258738 -0.066779 0.189465 -0.241675 -0.612822 -1.413918 1.661006 -0.178335 0.118780 -0.870389 -0.403602 0.992380
M373 -0.430862 0.155183 0.804724 0.076829 0.663875 0.873441 1.364930 -0.116688 -0.146952 0.323453 0.059690 0.411103 0.031367 -0.280043 0.837917 0.505577 -1.519713 -0.122927 -1.135545 -0.433709 1.219366 -0.560264 -0.448300 0.785169 -0.946617 -0.704449 -0.851554 0.604104 0.377705 -0.644668 2.545021 -0.043440
M386 0.432470 0.563290 0.485380 0.016545 -0.517442 -0.842018 0.249144 -0.332298 1.092403 0.274822 0.055005 1.525555 1.166093 -0.486598 0.191685 -0.724661 -0.899907 0.147050 -0.270299 1.327251 -0.040989 0.187121 0.187254 0.762802 -0.314185 -0.246552 1.059537 0.171614 0.183502 -1.344322 -0.917631 1.076235
M102 -0.501816 2.289477 -0.621480 0.667404 -2.368488 -0.271143 -0.602825 0.018111 -1.337722 2.857735 0.354967 0.666738 1.053802 -0.497992 -1.564947 0.662828 -0.670385 -1.052368 1.930994 -1.127953 1.472368 0.309048 0.758630 1.725037 -1.131892 -0.802556 -1.035159 2.284573 0.080820 -0.876737 0.763970 -0.476625
M203 1.161136 0.595270 2.070653 0.460873 0.016037 0.136179 0.101366 -0.926623 2.733178 1.228228 -0.305286 0.946839 0.271611 0.777426 1.843577 1.609841 -0.741683 0.215876 -1.790665 -0.656284 0.127137 -0.525130 1.514547 0.076044 1.129269 -0.207551 -0.785456 -0.265303 0.380855 -0.705804 -0.509300 1.307456
M259 -0.068898 1.210034 -0.996628 -0.710741 -0.178864 -1.234823 -0.068889 -0.654189 0.157380 1.471110 -0.097482 1.298596 0.320941 -0.385544 -1.508107 -0.417820 0.109178 0.503152 -1.339237 0.323090 -1.392669 0.059600 0.242501 -0.107332 0.366397 -0.279308 -0.023062 0.502259 -0.090548 -0.067372 -0.384867 0.115280
1(N08A) -1.496096 0.335509 0.581290 0.453771 -0.178931 -1.431784 -0.308796 -0.111442 0.643513 -1.138065 0.546469 -1.046574 -1.219886 0.856823 -0.263867 -0.270394 -0.494960 -0.972088 -0.237481 -1.350596 -0.274094 -0.362678 -0.023438 1.730990 0.190590 1.930749 -0.326609 1.786493 1.891742 -0.147210 1.436702 0.967266
M106 -1.645455 -1.023424 0.360426 0.299927 0.296235 -0.378996 0.068810 -0.245469 -1.268439 -0.142196 0.391958 -0.250249 -0.276998 0.243268 0.460861 -0.111300 -1.375760 0.420432 0.886491 -0.948212 0.745468 0.878687 -0.501235 0.254509 0.490115 0.136550 0.002550 -0.810612 0.606394 -0.539277 0.473286 0.827765
M260 -0.305310 0.256896 -0.047037 0.029987 1.385874 0.490878 -1.601334 0.682693 -0.662134 1.878626 -1.289495 0.350441 -0.326429 -1.062076 -0.764748 1.224583 -0.265681 -1.041268 -0.222486 -0.510301 0.134871 0.865972 -1.153200 -0.787911 -0.133869 -0.077540 -0.210636 0.488180 -0.273896 -0.382602 -0.688850 -0.716937
M005 1.378845 -0.247401 0.556141 0.717249 -0.090137 0.372700 0.587835 0.326608 1.428513 1.129644 -0.781458 0.334527 -0.654431 0.251739 0.112265 0.586721 -1.209375 -1.108636 -0.995989 -1.385085 -1.232175 -1.046432 -0.276780 1.052232 0.185432 -0.366275 -1.043912 -0.046324 -0.951983 0.002080 -0.283164 0.706759
M240 0.299148 -0.335065 1.588949 1.228988 0.500793 -0.666566 -0.290833 0.849417 1.838926 -0.865331 1.147902 0.688139 0.868005 0.904529 -0.068590 1.295784 -0.393892 2.473296 0.260904 0.112176 0.164698 -0.170192 0.491970 1.298002 -1.550232 0.532009 -0.821581 -0.492251 0.414346 -0.964437 -1.939274 -0.379358
M149 0.246977 -0.145672 0.438673 0.498223 -1.688305 -0.380558 0.106933 -0.330308 -0.387550 1.476974 0.090243 -0.008224 -1.111982 -0.102177 0.056573 0.297447 -0.399559 -0.981128 -0.168424 -0.587157 -1.075705 -0.524866 0.444265 0.186134 -0.000136 0.241571 -0.184128 0.955580 0.145337 0.173746 0.195803 -1.463110
2(N45) 2.142995 0.713678 1.058023 1.630427 -1.373381 -0.807448 -0.365666 0.833201 1.476935 -0.119306 0.873816 0.132065 0.675164 -1.170106 1.425243 -1.885789 -1.671050 -0.727031 0.227305 1.335681 0.617435 0.955951 -0.418945 0.233973 0.551828 0.271597 -0.079125 -0.375860 0.929981 -2.164641 0.381588 -0.017935
M024 0.216447 1.035050 -0.829014 -0.129943 -1.036213 -0.290472 0.582516 -0.925379 0.528963 -0.023290 -1.048261 1.225220 0.537988 0.249324 -0.142950 -0.369660 0.699886 1.323460 -0.904128 0.326990 -1.110628 -0.270126 -0.330668 0.404535 0.262231 -0.086896 0.696067 -0.016964 0.184373 -0.221592 -0.554581 1.001250
M295 0.046329 0.823410 -0.459135 -1.737698 0.535570 -1.213474 0.692315 -0.059205 -0.192919 0.038085 1.604481 0.609375 0.821177 -0.731810 -0.336527 -0.501421 0.167913 -0.268045 0.075251 0.411337 -1.278861 0.042581 0.629321 0.339374 -0.668715 -0.430891 0.194383 -0.314908 -0.146389 -0.380911 0.024433 0.029903
M317 -0.128648 0.552455 0.626183 0.581507 -1.062832 0.221552 -0.726577 -1.650484 0.463963 -0.234715 -0.145912 0.404088 0.461920 0.411528 -0.228800 -0.475607 0.269001 1.110844 -0.340215 -0.711096 -0.413423 -0.198077 0.886974 -0.427305 -0.094478 0.356111 0.247759 -0.283716 0.309451 0.377984 -0.254189 0.813244
M111 -0.412914 0.286294 -0.907002 0.224091 0.082518 -0.044805 -0.591271 0.034250 -0.137502 0.257216 0.608279 -0.932270 -0.828317 1.484250 -0.283334 0.290944 -0.093998 0.474665 0.574961 -0.372230 0.961882 -0.285171 0.099611 -0.049805 0.406827 -0.264529 0.189941 0.076303 0.261266 -0.062441 -0.632343 -0.998840
M243 -0.497442 -0.531601 1.457126 -1.083343 2.149571 -0.696911 0.519489 0.774932 -0.468751 -1.472872 0.722099 -0.386038 0.930612 -0.023431 0.180703 -0.565489 -0.285102 0.479706 -0.676126 -0.655291 -0.130951 0.037799 0.548358 0.901880 -0.516585 -1.108166 -1.107238 -0.623487 0.203588 -1.025477 0.300354 -0.074641
M153 -0.933506 0.238637 -0.344163 -0.070386 -0.186017 -0.044363 -0.765021 -1.169560 0.907278 -0.539228 0.713691 0.277915 -0.148249 0.424600 0.055937 -0.116129 0.198672 0.439862 -0.737905 -0.277299 0.595289 0.158397 0.094623 0.182529 -0.427420 0.427070 -0.159141 -0.156870 0.533917 0.277772 0.371594 -0.655637
M365 -1.100330 -0.796284 0.769058 0.300928 -0.197127 0.338260 0.436691 -0.182033 0.917483 -0.220946 -0.176033 -0.608437 -0.371193 -0.642697 0.488257 -0.827384 0.212828 1.048099 0.022753 -0.735716 -0.041476 -1.442188 0.309839 1.824718 -0.240887 -0.150937 1.291271 -0.122589 -0.612411 0.047088 0.411721 1.595603
M264 -0.408225 -0.691243 0.209245 -0.286051 0.114079 1.529418 -2.024707 0.490332 -0.723768 -0.046985 -0.014291 0.099281 0.998816 0.658766 0.184397 0.157839 -1.412312 -0.422640 -0.743694 -0.194763 2.281488 0.542888 -0.685996 0.731408 -0.165620 -1.151153 0.490226 -0.770667 0.041506 0.026514 0.121251 2.050944
M304 0.435930 0.116331 0.404851 0.844696 -0.821392 0.464682 -0.551155 0.670837 -0.204181 -0.194751 -0.289371 0.309427 -1.200538 -0.932824 0.934932 -0.264750 0.306630 -0.234533 1.105228 -0.759532 0.389718 0.021477 0.493285 0.596586 0.424555 -1.138537 0.469067 -0.646084 1.073882 -0.257319 1.040854 0.771211
M309 -0.438696 0.080263 0.898819 0.223704 0.016717 0.525348 0.441845 0.090030 1.015688 -0.422642 -0.377549 -0.130696 -1.002846 0.595916 0.732370 0.190262 1.123784 1.330406 -0.099172 -0.754231 -0.576653 -0.715788 -0.981235 0.795990 0.406588 0.769654 -0.478677 -0.669548 -0.476438 -0.359087 1.513395 -0.718935
2(N34) 0.571253 -1.781709 1.860211 1.596355 0.148185 -0.877383 0.655104 0.659917 -0.162227 0.422244 0.495298 -0.251051 -0.558926 -0.641490 1.009705 -1.003156 -0.814436 0.727265 0.847813 -0.000985 0.806546 0.155507 0.908247 -0.589733 0.708051 -0.322650 -0.645608 -0.439489 0.697130 -0.373973 0.440734 -0.609749
M101 0.218529 0.413134 -0.446580 -0.234328 0.763886 -1.467345 1.561100 0.226971 0.893899 0.669181 1.989730 -0.773513 -0.257324 -1.955768 -0.133714 0.113727 -0.533899 -0.045097 -0.157462 -1.722310 -1.773032 0.363189 -0.989194 -2.074412 -2.434751 -1.959000 0.180706 -0.067219 -0.751616 -0.601821 -0.425860 0.357503
M146 -0.342719 -0.162965 -0.477496 0.164550 -1.118500 0.067936 -0.212907 -0.708220 -0.103266 -0.215850 -0.148716 1.332061 0.493364 -0.328067 -0.213407 -0.830734 0.949917 -0.030663 0.883020 0.331299 -0.816267 0.344875 0.411533 0.210339 -0.821188 0.022690 0.577881 -0.697002 0.721264 -0.307890 -0.814170 -0.122891
M292 -0.670260 0.146367 -0.359892 -0.497189 -0.230254 0.660359 -0.928452 0.403541 -0.341592 0.409875 -0.672067 -0.703756 -0.513030 0.491230 0.343706 -0.121605 0.317249 0.658841 0.388366 -1.104897 -1.289300 0.043155 0.461236 -1.380354 -0.654312 0.293491 -0.862660 -1.505641 0.450118 0.733373 -1.209393 -0.625522
M320 0.531431 0.729267 -0.187043 -1.319233 0.669156 -0.559245 0.511161 0.251626 0.051922 1.267806 0.558540 0.141850 -0.852484 0.813090 0.045420 0.028809 -1.331575 0.656124 -1.296830 0.873189 -0.354377 0.395535 1.592298 -0.150611 0.559894 0.268351 -0.307836 -0.739307 0.834841 1.654647 -0.264661 0.403256
M145 -1.731831 -1.668655 -0.881727 -0.661228 0.840014 -1.015674 0.421734 -1.130701 -0.567801 0.185923 0.113217 -0.183105 -0.122619 0.589089 -0.570365 -0.536172 0.588734 0.416718 -0.636917 -0.053997 -0.159927 -0.250563 -0.492808 -0.366056 0.032310 -0.476997 0.068560 -0.547322 0.532405 0.486663 -0.389036 -0.084193
M242 -0.230705 0.756634 -0.433111 0.161433 0.705092 -0.027469 0.575371 -0.057850 0.089918 0.504119 -0.011409 -0.154685 1.347824 0.648013 -0.767923 -0.086663 0.344241 -0.546422 0.078706 0.535610 0.457118 -0.200978 -0.948315 1.343258 -0.951218 -0.650942 1.427044 -0.368207 0.025746 -0.987563 -0.100329 0.587989
M362 -0.296870 -0.004557 -0.273133 0.241202 0.832924 -1.018576 -0.857660 0.319211 -0.296600 -1.587662 0.214804 -1.431731 -1.631216 -0.440355 -0.507370 0.476201 -0.542716 1.005084 0.871148 -0.301254 0.047444 -0.666394 0.734336 0.287669 -0.636251 0.977495 -0.331635 0.239875 -1.138114 0.413638 0.789253 -1.029069
M318 -1.216000 -0.552515 -0.568152 -0.623646 -1.535327 -0.826144 -1.376520 -0.845077 0.006231 0.592621 -1.128981 1.247441 -0.370826 0.726500 -0.313823 0.004557 1.581125 1.268414 -0.246647 -0.028978 0.191303 0.184364 0.670351 0.655347 -0.270214 0.763633 -0.332095 0.020080 0.573498 1.218361 -0.495010 0.460586
M380 0.650828 -0.282499 0.339773 -0.088658 -0.809196 0.504036 0.050864 -0.081893 1.142967 1.161907 -1.368393 0.565229 0.915919 0.819635 -0.001878 -0.829501 0.488670 -0.954387 -0.833358 -0.932560 0.218147 0.541667 -1.035271 0.995712 -0.818943 -0.625164 -0.633595 0.152685 1.817274 -1.480507 -0.838066 0.499237
M097 -1.764113 -0.379567 -0.896711 1.418413 -2.319983 -0.113141 -0.228364 -0.070232 0.676814 -1.923090 0.328702 1.111721 -0.192071 0.475046 1.006721 -1.088328 0.101431 -0.103423 1.952095 0.488970 -0.051023 -0.401756 -0.815968 0.348802 -0.848385 -0.179890 -0.581763 -0.480193 -2.324171 -1.560847 -0.218389 0.384843
M131 0.324424 0.135357 0.203707 0.113795 0.545670 1.138415 -0.674126 0.891596 -0.165994 -0.873026 0.586892 1.047943 -0.244919 -0.249279 0.477242 -0.061506 -0.038062 0.196953 0.844026 0.018603 0.012274 0.312279 -0.212272 -0.219331 -0.311012 -1.134789 0.768240 -0.356822 -0.486661 -0.605690 -0.903615 -0.494602
M338 -0.115160 0.226831 -0.065903 -0.529967 -0.024817 -0.101816 0.339886 -0.777352 -0.063371 0.130137 0.366591 0.812403 -0.675901 0.579466 -0.379307 -0.666551 0.078708 0.410850 -0.656616 0.659374 -0.411012 0.115404 0.842423 0.721188 -1.136485 -0.291850 1.480585 0.652937 -0.077989 -0.255733 -1.357410 0.039136
M002 -0.372090 0.956888 -0.680514 -0.067509 1.250346 -0.183131 0.159671 0.293772 -1.065671 -0.057712 -0.266132 -0.567469 0.438209 0.266911 -0.140406 1.068970 0.534546 -0.033065 0.608314 -0.569408 -0.807566 0.511749 -0.574887 -0.210640 -0.098467 -0.646818 -0.009821 -1.255904 0.977085 0.378816 0.775192 -0.754418
M006 -0.946728 -0.986469 -0.048148 -0.543626 0.868726 -0.739658 -1.831358 0.712210 0.199936 0.329757 0.746680 -0.627043 -1.343075 0.030396 -0.684311 0.201385 0.967030 -0.610795 -0.748706 -0.445135 0.195089 -0.282302 -0.933119 1.485495 0.048001 0.022781 0.652624 0.765267 0.624689 -0.121352 0.565419 -2.358215
M223 0.223801 1.348231 0.616604 -0.579776 0.688228 -1.174786 0.652353 -0.339655 0.106189 0.504378 0.948973 -0.006597 1.837674 -1.687632 -0.893501 -0.340327 0.819297 1.382341 0.074560 -1.842390 0.027225 -0.355905 0.368987 1.125768 -0.226632 -0.706855 0.258364 1.927365 -0.769103 0.538056 -0.168043 1.589690
M327 -0.171264 0.115074 -0.643941 0.212914 -1.447559 -0.131708 2.178777 -0.206146 -0.286734 0.629537 1.694395 -1.350548 -1.102718 0.421017 0.573658 1.731054 -1.637880 -1.423836 0.767596 -0.864283 1.118920 0.223332 -0.509385 0.268845 -1.193249 -1.097863 -0.339577 0.082664 0.096861 0.029306 1.495953 0.494021
M210 0.351717 -0.784922 -0.325953 0.508485 -0.522134 0.440038 1.083763 -1.002608 -0.091486 0.163561 -0.170127 -0.992625 0.168648 -0.482365 -0.805415 -0.200205 0.092372 0.606858 0.039661 -1.274940 -1.519094 -0.723632 -0.412581 -1.774653 1.066587 0.350529 -1.308104 -0.556046 -0.057585 0.219652 -0.998987 -1.110872
M254 0.693745 -0.803883 0.289510 -0.698729 -1.067612 1.006260 0.028285 -0.540005 -0.404778 -0.235469 -0.900445 0.698475 -0.368718 -0.113363 0.208582 0.376698 0.665662 -0.132994 -0.781291 -0.813480 -0.536519 0.024702 0.309205 0.246618 0.204564 -0.301792 1.393400 -1.650652 1.712614 0.787703 -1.004652 -0.420366
M325 -0.585018 0.541557 1.640359 -0.063463 -0.216333 -0.217648 0.646111 -0.019235 -0.684519 0.381113 0.384575 -0.375306 0.557149 -0.430778 -0.151828 1.034333 -1.336183 0.354145 -0.876532 -0.435335 -0.282448 -0.727715 0.551786 2.530655 0.771712 -0.886963 -0.143661 -0.061245 -0.900930 0.358274 0.888987 -0.973251
M075 0.304953 0.654757 -0.019427 -1.710759 1.397131 -1.262563 0.629122 -0.732184 -0.895610 0.771537 1.863884 0.561692 -0.744963 0.086425 -1.601458 0.813374 1.182026 -0.979282 0.553591 0.834600 -0.433948 0.508780 0.312490 -1.060093 0.274504 -0.168965 0.340211 -0.072967 -0.065568 -1.028318 1.570650 -0.123375
M341 0.969350 -0.302919 -0.434197 0.193682 -0.402829 -0.184196 0.802426 -0.040454 0.617062 -0.347781 0.431342 0.785613 0.023007 -0.921638 0.094615 -0.161913 -0.112986 -0.896201 0.017729 -0.867382 -0.579728 1.092402 -0.112985 0.179408 -1.115372 -0.791202 0.421386 -0.230492 0.475887 -0.561713 -0.732370 1.257403
M348 1.303214 -0.416941 0.628480 0.233531 0.181826 0.287347 -0.384363 0.269418 -0.170939 0.233735 1.286024 -0.912987 0.071567 -0.721631 -0.273652 0.158899 -0.785117 -0.985533 0.172546 -1.196522 -0.112860 -0.627172 0.181919 -0.210622 -1.226515 -0.168880 0.770513 -0.236665 -0.963527 -0.348502 -0.484797 -0.299504
M384 1.422078 0.633779 0.303459 0.344072 -0.262512 0.618699 -0.885415 -0.540898 -0.838001 0.496039 -0.583673 -0.539473 1.105446 -0.341682 -0.477866 -0.568779 0.123334 -0.130883 -0.944117 -0.295412 -0.441957 -0.477284 0.172888 -0.373819 -0.314523 0.670792 1.299379 0.247722 -0.089388 -0.330037 -0.474340 0.387605
M099 -0.359036 0.161594 -0.586613 -0.493734 -0.908588 0.280896 -1.315937 -0.021575 1.248938 1.378204 -1.042049 1.753654 -0.705398 1.000264 0.138117 -1.194918 0.803034 -0.664396 2.468738 0.912901 0.751729 1.575909 0.949214 -1.149719 -0.340426 -0.416584 -1.098917 -0.730967 0.871584 -1.130534 -2.203593 -0.202134
M136+M365 0.425086 0.543288 -0.629079 0.642396 -1.057136 -0.040510 1.089641 -0.470730 0.439033 -0.732805 0.099056 -0.814382 -0.039465 0.262693 0.721614 -0.240649 1.041549 0.208610 -0.247224 -0.913105 -0.366305 0.566078 0.421667 0.648689 0.145922 -0.064782 0.559288 -0.405636 0.902131 0.819197 0.716062 1.906318
M314 -0.585644 1.082892 0.424238 -1.598819 0.813815 -0.065418 0.381216 0.666752 1.736574 0.344064 0.583612 0.298421 -1.073890 -0.560451 0.837714 1.012098 0.751003 0.585311 -0.246884 -1.019213 -0.440988 -0.125175 0.262586 0.965717 -1.855830 -1.104656 1.064735 0.331349 0.144792 0.569152 -0.058524 0.789540
1(N39C) -1.865767 0.421095 1.070916 -1.358038 1.669228 -0.119859 -0.234660 1.553717 0.515078 -0.235798 1.237985 -0.558784 1.552776 -0.455708 0.831049 0.458425 1.382622 0.772289 -0.963788 0.740735 -0.586863 1.590921 -1.632991 0.262018 -0.969444 0.419052 0.009246 -0.459191 1.706184 -0.424441 0.955357 0.482240
7(N14) 1.229630 0.695014 2.106126 0.037036 0.114974 0.126272 0.014450 0.375190 -0.677482 0.025431 0.473982 -1.376130 0.654267 -2.292465 -0.004998 -0.024262 -1.571396 -0.206449 0.713265 -0.104904 0.160980 -0.572978 0.162060 -0.637154 0.439716 1.136343 0.035119 -0.548811 -1.681967 -1.141103 0.781007 -1.080115
M033 1.954847 -0.873638 0.204866 0.208847 -0.431860 0.843428 -0.231761 -0.421140 0.548390 0.125309 -1.582846 -0.335156 0.485522 -0.011175 -0.469016 -0.456488 1.829887 -0.061094 -0.903276 -0.469482 -0.785934 1.175538 -0.215042 0.596251 0.975049 0.936948 -0.562799 -0.782830 1.606673 0.494048 -1.759963 -0.510523
M081 -0.368923 -0.260674 -1.994706 0.353968 0.629287 0.542797 -0.752109 0.054466 -1.042894 0.168189 0.405693 -0.095681 -0.057188 0.713753 -0.341946 -1.851701 0.561497 -0.399787 0.570877 1.950855 0.152818 -0.274351 0.483170 -2.292542 -0.643382 -0.029365 0.618156 -0.179488 -1.497158 -0.062550 -0.909077 -1.204617
M217 0.892246 0.795694 -0.693604 -0.767435 0.419440 0.131617 -0.831800 -1.387969 -0.110197 0.389831 1.162839 0.429459 -0.334492 0.902656 -0.555591 -1.014883 0.370102 0.890339 0.205971 -0.822488 0.864311 -0.215515 1.962432 -0.320154 0.915662 -0.426953 0.445582 -0.284029 -0.726688 -0.154492 -0.341018 0.238122
M329 0.814044 -0.448451 -2.001020 0.634257 0.814067 -0.004329 2.047643 1.726056 0.475316 -0.215410 1.805112 0.913414 -0.871996 0.938859 -0.569573 -2.290616 -1.688340 -0.899690 1.104261 0.352103 -1.096318 -1.243864 0.217726 0.793629 1.250509 -1.298617 -0.683824 2.685822 0.951818 -1.138399 -0.947902 -0.890156
N -0.587040 -0.038602 0.192867 -0.396083 -0.370666 0.403958 0.422107 0.023515 -1.155724 0.260068 -0.367677 -0.629674 0.591655 -0.277192 0.300315 0.304984 -0.521387 1.591527 0.030525 -0.658614 -1.018155 -0.318723 -0.733617 -0.569230 1.102930 -0.562626 -0.855882 -0.970836 -0.806170 -0.257615 -0.597427 -1.337673
M128 1.211245 0.310882 -0.697748 -0.182894 0.800860 0.355215 0.233251 1.155571 -0.314578 1.486858 -0.962487 0.059243 -0.087201 -0.257200 -0.605132 0.051058 0.400358 -0.658275 -1.255267 -1.291987 -2.201457 0.736042 -0.710659 -0.029788 -0.300843 -2.119054 -0.195796 -0.347844 0.030900 -0.099446 -0.981355 0.939861
M139 1.128797 -0.572618 -0.858300 -0.142543 0.366378 -0.070505 -0.680768 1.006608 -0.801758 0.943114 -0.095654 1.120926 0.667181 -0.888636 -0.081266 -0.296728 1.148483 0.010816 1.077685 0.071489 -0.613969 -1.028638 0.099499 -0.634088 0.714537 0.116465 0.820569 -0.328663 -2.019715 1.027655 -1.811487 -0.568256
1(N23) -0.961093 -1.383474 1.519979 -0.614498 0.877910 -0.854992 0.678632 -0.276692 0.486425 -0.232497 -0.811552 -0.928207 0.828599 -1.023277 0.354614 0.149074 -0.778655 0.055299 -0.625247 0.185719 -0.088846 0.121824 -0.200490 -1.544052 0.021676 -0.203609 -2.381111 0.674262 -0.028206 0.177435 -0.116176 0.666381
M301 1.778614 0.955361 -0.846019 -1.665310 0.136059 0.098807 1.037328 -0.243669 -1.280037 -1.076980 0.703566 0.401034 -0.381593 -0.029008 -0.399393 -0.614849 0.434526 2.214711 2.211610 1.815541 -0.978983 0.342955 1.012251 -1.256964 0.466294 1.810351 1.176770 -3.161767 -0.306842 0.031169 -1.118390 -0.718421
8(N14) 1.351124 0.041678 -0.961031 0.682758 -1.002036 0.239389 0.209117 -1.054063 -0.893075 0.365100 0.005376 -2.080119 1.115639 -0.784658 -0.244688 0.205875 -1.165297 -0.956211 -0.160726 0.084520 0.619191 -0.300520 -0.824423 1.018366 1.171617 0.376176 0.440315 0.300635 1.306847 0.069280 0.752376 0.684611
M029 1.500399 1.222485 0.147686 1.065601 -0.312115 -0.243786 -0.062776 0.467848 0.641911 0.482915 -0.256088 0.649851 0.570895 0.314865 -0.724931 0.695316 0.941902 0.979242 -0.117398 0.587611 -0.300236 0.613495 0.674599 -0.032693 1.163175 0.672010 -0.130413 0.036957 -0.058367 0.481094 -0.093009 -0.162334
M265 -0.442533 -0.485376 -1.382645 0.480015 -0.178819 0.022664 0.086365 -0.142400 0.182692 1.009757 -1.503223 -0.595615 -0.771188 0.388934 0.295150 0.396526 1.111459 -0.471768 -0.480520 -1.133920 -0.077998 1.321530 -0.644657 -0.550050 0.411699 -0.006424 -0.937982 -0.294656 0.818939 0.601287 -0.454100 -0.173953
M332 -0.440788 0.578581 0.140021 -2.348292 0.082104 0.244011 -0.855147 0.362276 -1.162787 -0.901396 1.429145 0.529808 -0.553917 1.707461 -0.761592 0.576570 2.483401 1.387608 0.414028 0.984361 -0.069848 -0.428563 1.080559 2.136497 0.251077 1.135054 0.911408 0.356908 -0.228041 -1.327131 0.143744 -2.401309
M372 0.468557 -1.053809 -0.131831 -0.567355 0.234758 0.131958 0.636113 -0.659340 -0.033776 0.244275 1.136486 -0.119474 0.360010 0.730733 -0.263647 -0.225898 0.085132 -0.494108 -0.119975 0.356447 0.692462 0.090842 0.152897 0.212608 1.354209 -0.344265 0.683050 0.690969 0.719970 0.027842 -0.745842 -0.351004
M041 1.084605 -0.298120 0.963108 -0.302493 -0.490503 -0.004612 -0.296142 -1.176646 -0.492099 -0.520609 -1.047708 1.960115 0.343974 0.839164 0.233402 -0.143900 -2.612706 -0.356291 -1.414853 0.016435 0.034700 -0.132285 0.455619 -0.371112 0.138900 -0.787519 -1.042725 -0.386925 0.595627 0.768074 0.316687 1.323458
M046 -0.310595 0.220312 0.017032 -0.570350 -0.720373 0.040496 0.051563 -0.761723 0.128326 0.243004 -0.126993 0.257209 0.396691 0.121070 0.261543 0.034431 0.825517 0.143940 -0.125326 -0.881946 -0.173955 -0.037827 0.656541 0.675998 -0.080162 -0.258992 -0.009634 0.115867 0.676260 0.296227 0.106821 0.156962
M218+M288 0.025759 -0.654967 -0.426081 0.805229 -1.013243 -1.537741 1.327756 1.013008 0.389385 0.629988 -0.131913 -0.010981 -1.954113 -0.155089 -0.906777 0.542921 0.505332 1.237136 0.442019 0.173621 -0.318383 -1.198170 -1.465249 1.267674 -0.489021 1.091144 0.519491 1.599588 -0.661864 -0.476433 -0.336629 -0.725045
M175 -1.923462 0.022323 0.218080 -1.359815 -1.398094 0.147941 0.531746 -1.608904 0.198441 -0.067462 0.651414 0.840179 -2.205062 -1.607141 0.078759 0.009364 -0.448283 0.661743 -0.839752 -0.172232 -0.551688 2.584867 -0.465514 -0.343980 -1.139713 -0.113956 -1.136912 0.167301 -0.353102 -0.175786 1.278664 -1.279048
M327+M342 0.284863 0.003688 -0.518578 0.378300 -0.399196 0.651775 0.153572 0.009183 -0.113987 -0.373986 0.029801 0.356707 0.075752 0.039114 -0.015444 0.413352 0.793325 -0.336284 0.059955 -0.393271 -0.247770 0.162196 -0.341826 0.554699 -0.196274 0.073881 0.069462 0.251531 -0.041595 0.069975 0.005750 -0.369458
1(N30C@B) -1.106892 -0.501728 -1.156477 0.430916 0.621591 0.177855 0.321957 0.532480 -0.243540 -0.129837 -1.039758 -0.401079 1.317585 0.882133 -0.166803 -0.666915 0.772214 -0.699929 0.397478 0.060645 -0.472814 0.152770 -2.219949 0.603433 0.658642 -1.271829 -0.943276 -0.495396 0.168079 -0.472174 -0.039312 0.685927
M051 -0.126266 1.280369 0.460755 0.158755 -0.396747 -0.056021 -0.077674 0.681515 0.298053 0.004718 -0.012837 -0.749748 -0.257592 -0.938523 1.091846 0.153107 0.438549 0.381142 0.192325 -0.921377 -2.266797 0.374473 -0.243663 0.861276 -1.355739 -0.167598 -0.198926 1.227558 -0.153570 -0.412287 0.681416 -0.048661
M266 0.336847 -0.125612 0.236016 1.761492 -0.670136 -0.165377 1.384183 -0.594436 0.243079 -0.519680 -0.658904 -0.430768 -1.717418 0.627481 -0.141793 -0.004177 -2.255197 0.066624 -1.649923 1.835447 1.109270 1.712854 0.866201 -0.141020 1.012159 -0.746987 -0.672032 0.714056 0.501022 0.372870 1.900693 1.588891
M195+M057 1.689509 -0.927612 -0.627985 1.207075 -0.623337 0.597560 0.325167 0.292702 0.262103 1.195601 1.047295 -0.443127 -0.655218 0.820889 -0.266781 0.059271 0.843458 -0.271332 0.775751 -1.553852 0.467565 -0.059073 0.076576 -0.240840 0.285707 -0.525834 0.462048 -0.200981 0.223514 1.154126 -1.682347 -1.546203
M281 0.193414 0.224519 -1.277950 -1.046351 0.867152 0.029337 0.647638 0.842457 1.812516 1.474952 -0.639858 1.810054 0.423564 -1.388099 0.724160 0.435194 -0.044575 -1.116583 -0.708044 -0.970469 -0.140984 0.412780 -1.306098 0.583123 -0.471019 -0.980914 -0.707411 -0.053441 1.738050 1.352626 -0.138181 1.212120
M296 -0.749741 2.054123 -0.583427 -0.041048 0.271374 0.461250 0.016249 -0.216911 -0.048669 0.370605 0.375506 -1.088936 1.096731 1.008457 0.238757 1.165183 -0.348137 -0.208562 -0.452646 -0.183373 0.108151 0.241371 0.200185 1.941466 -0.052830 0.155231 -0.111533 0.199212 -0.647578 -0.498766 0.946624 -0.324956
M390 0.192644 2.136462 0.350224 -0.825551 -0.908452 0.057787 -0.214710 0.507549 -0.412161 1.362015 0.743370 0.898624 0.247964 -0.075156 -0.720808 0.138742 0.173378 0.711121 1.151717 -0.028650 -1.320081 0.395583 0.837742 0.249551 -0.265604 -0.405792 -0.592981 -0.621776 -1.000350 0.211425 -0.178873 -0.568270
M391 1.236318 -0.528333 -0.182924 1.194383 1.093091 0.172805 -0.734836 0.626033 0.358749 -0.143410 -0.555162 1.439155 0.017399 0.177666 0.075115 -0.914348 0.287302 -2.393446 1.390952 0.363765 0.513756 -0.012746 0.282865 0.549219 -0.340644 -0.552394 1.088667 -1.038712 0.517675 1.003829 -0.199571 1.082580
M106+M288 0.986037 0.056821 -0.685715 -3.195215 -1.422897 0.768729 0.398972 0.364804 -0.469442 -0.363301 0.274029 0.038185 -0.779999 -0.203616 0.419110 -1.573637 0.474213 2.630016 0.740840 1.243752 -0.882715 -0.537021 1.862815 1.269106 1.250048 1.617643 1.270421 0.458406 -0.868424 0.362780 -1.078104 0.875433
M195 1.647058 0.359616 0.092677 0.201361 1.892956 -0.009807 -0.613224 1.137219 -0.052864 -0.549527 0.198610 -1.856636 0.246070 -0.351247 -0.486661 0.847031 -0.566260 0.168424 -1.099953 -0.054754 -0.069075 0.096635 -0.416566 0.318807 -0.304082 0.633830 1.564226 0.035731 -0.597393 -0.853499 -0.776264 -0.746040
M246 -0.206348 0.430812 -0.079666 -0.762272 0.565890 0.414061 0.007016 0.283646 -0.489803 -2.311334 1.546736 0.792578 -0.303518 -1.138335 0.456511 0.148591 -0.328407 -0.299889 1.212751 0.637707 -0.207107 0.275522 0.386700 0.294947 -0.450835 0.616211 0.521965 -0.145346 0.133183 -1.211236 0.410311 -1.023468
M105 -0.948587 -0.491362 0.281608 -0.086967 0.407443 -0.477319 0.251662 -0.661207 -0.021208 -0.440099 1.626837 0.525942 0.661899 -0.206261 0.009451 -0.470843 0.752198 0.507166 -0.031948 -0.661729 -0.643197 0.540973 0.013040 -0.584042 -0.466936 0.015554 -0.426912 -0.268545 1.682992 -0.671791 0.750229 -0.918504
M147 0.016468 -1.134526 -0.198822 1.031311 -0.926908 0.564985 -0.097063 -0.062336 0.227710 -0.195198 0.247101 0.649566 -0.061477 0.527028 -0.439875 -0.626757 0.696144 0.286273 1.802449 -0.922713 -0.551450 -0.511185 0.367400 -0.705012 -0.403893 -0.984725 0.629107 -0.180958 -0.618306 0.204837 -2.436071 0.025211
M207 -1.093110 0.037864 1.310247 -1.185355 1.306750 1.131922 -0.048401 -0.111891 -0.876099 -1.082686 0.040377 -0.710025 0.313143 -0.935146 0.792740 0.970470 0.603988 1.279585 -1.430855 -0.320681 0.027801 -0.501872 0.728064 0.950559 -0.048712 0.605071 1.081608 -0.719379 -0.985107 1.580206 1.036232 -1.155924
M247 0.908280 2.380703 -0.803987 1.975406 0.398872 1.752856 1.134350 -1.267375 0.417247 0.388595 0.653839 0.157424 1.721930 0.450337 0.032003 1.347247 -1.756069 0.967984 -1.132646 -0.734552 -0.782724 -0.465573 0.193562 -1.561123 2.465539 -0.966295 -0.320690 -0.843639 -0.689150 0.560481 0.290345 1.841236
9(N14) 0.600100 0.093636 2.411250 0.357349 -0.818618 -0.424841 0.249687 0.147857 0.109928 -0.908387 0.975997 -0.116759 0.046829 -0.492092 -0.268661 -0.781360 -1.096374 1.207890 0.602040 1.341958 0.575406 -1.458276 1.924228 0.569187 1.031877 1.463070 -0.048426 0.146437 -1.137199 -0.539474 1.225253 0.573968
M351+1(N14) 0.308034 -0.325290 -0.158894 0.100932 -0.217265 0.345165 0.394428 -0.336319 -0.160190 -0.201511 0.230944 0.914921 -0.922572 -0.169940 -0.045359 -0.197076 0.235549 0.247635 1.236189 -0.748380 -1.278569 1.027137 -0.059380 -0.872215 0.060252 -0.629810 -0.530782 -1.243457 1.067761 1.026579 0.113626 -0.379844
M122 1.082431 0.606412 -0.737997 -0.420144 -0.498634 0.658406 -0.245937 -0.777584 -0.108448 1.158461 0.336468 -0.286073 1.218019 -0.582423 0.137250 -0.620891 -1.701378 -0.570658 -0.500878 -1.509653 -0.106356 -1.203385 -0.694770 -1.285978 -0.803796 -0.397430 -1.328833 0.664816 -1.023391 0.740350 0.016910 0.556587
M250 1.209574 1.380810 -0.204087 0.574512 0.017954 0.858828 0.852226 0.712672 -0.280076 0.149894 1.405747 0.858057 0.371923 0.488761 -1.049616 -0.696081 -1.831408 -0.848100 0.948145 0.234901 -0.186686 0.126457 0.552499 -0.245355 -0.807683 -0.887884 -1.103667 0.127080 -2.452558 -0.693514 -0.779463 -1.502062
M296+M296 -0.694720 -0.487273 -0.307962 -0.978964 0.486573 -0.812537 1.313423 0.360918 0.035433 -0.534209 0.312121 0.514940 -2.290586 1.752953 0.734904 -0.042072 0.853206 0.156959 1.291302 1.047814 -0.600933 0.476798 0.250709 1.335325 -1.742330 0.209305 0.929957 -1.105473 0.310579 -0.286932 0.094275 -0.726961
M383 0.945257 -0.747857 1.323597 -1.025844 0.643769 0.724523 -0.825195 0.027705 -0.188403 -0.059647 -1.651729 0.586215 -0.736654 -0.425968 0.112517 -0.341890 1.334490 0.289618 -1.143408 -0.515490 -0.622550 -0.133113 -0.289519 0.639632 -0.843326 1.395958 0.476740 -0.438138 0.337290 0.960185 0.676782 0.149549
M321 -0.280075 0.957186 0.502982 -0.917002 -0.419332 0.419603 0.190947 -0.393170 -1.213488 0.473749 -0.253888 -1.106903 1.322051 -0.261676 0.230238 0.705266 0.525878 -0.082082 -0.849996 -1.310629 -0.341886 0.598164 0.030654 0.595638 -0.970526 -0.747991 0.472767 -0.143899 0.445939 0.054787 0.869926 0.797009
M340 1.166343 0.308800 0.247340 0.793911 0.005075 0.082319 -0.067881 -0.632365 0.172977 0.007634 -1.225443 -0.706568 -0.515980 0.068590 -0.205120 -0.325560 -0.314692 -0.596146 -1.582071 -0.033239 0.171114 0.576200 0.803037 -0.870775 1.238684 -0.273753 1.362017 -0.911324 -0.706702 0.492355 -1.449499 1.854395
M374 1.211541 -1.144449 0.114339 0.222091 -1.443152 0.336025 0.993894 -0.643397 1.777906 -2.134637 -1.389296 1.046195 -1.792333 -1.335203 -0.801771 1.626369 -0.995261 -0.153303 -1.079179 -1.187434 0.446436 1.526590 -0.748089 -0.065119 -0.970769 -1.260566 -0.650583 -0.909478 -0.468179 0.893787 -1.153383 1.642747
M103 -0.134883 1.323730 -0.468438 -0.113582 0.611817 -0.598396 0.560009 -1.548997 0.701227 0.916649 -0.221951 -0.051885 1.075127 1.896677 1.032009 -0.067711 1.310786 -1.850335 0.287637 -0.760388 0.183249 -1.013056 0.376224 0.902340 0.109384 -1.423300 0.786621 -0.288341 0.415208 -1.037337 -0.490996 -1.765988
M110 0.357286 1.812311 -0.082557 -0.164217 -0.985841 -0.303441 -0.318389 0.794984 -0.166292 0.822226 -1.234801 0.123105 0.005760 1.812161 -0.988420 0.284940 1.728570 1.029302 -0.327202 0.210742 -1.036844 1.088168 -0.264265 1.510667 0.023263 -0.619665 -0.691775 1.026466 -0.615229 -1.233531 -0.008378 0.692921
M112 -1.247168 -0.081664 0.421361 -0.849787 0.328814 0.767889 -0.347001 -0.064114 -0.606332 -1.537471 0.185499 -0.751388 -0.337422 -0.499508 1.022282 -0.041448 -0.739442 -0.687569 -0.055813 -1.021525 1.227136 0.465036 0.311294 -0.422854 -1.135598 -0.570267 1.261320 -0.764072 0.304572 0.159076 0.463376 1.112583
M251 -0.276741 -0.895001 -0.726119 -1.185897 1.363534 -0.063262 0.963256 -0.414763 -0.255752 -1.020991 0.154966 -0.226499 -0.073198 1.065305 -0.281629 0.379730 1.238282 1.298580 -1.039059 0.140256 -0.346547 0.073366 -0.602837 0.636750 -0.353083 0.010499 0.901251 -0.469513 -0.031659 1.115810 -0.674548 -0.906784
M228 -1.327258 -0.300599 0.069058 0.909943 0.551521 0.648699 0.754249 0.585538 1.072382 -2.686321 1.810112 0.517843 -0.679745 0.969501 1.186741 1.335515 -0.385354 0.297903 -1.339954 -0.778436 0.318901 -0.474762 0.162944 -0.843058 -0.616863 -0.143409 -0.950782 -0.165068 0.125748 -0.722307 1.042851 -0.188880
M230 0.402222 -0.004872 -0.965245 0.026721 1.331643 0.373704 -0.012923 0.911759 1.261681 -1.010352 -0.260312 0.144154 -0.596602 0.325586 0.767421 -0.785482 0.537539 0.468820 -0.648538 1.317970 -0.168438 -0.612445 0.396027 0.553093 0.766818 0.447370 1.885975 -0.356697 -0.422934 -0.674388 -0.869950 1.447752
M131+M388 0.284840 -1.929259 -0.861589 -0.645726 -1.955526 -0.735901 0.582621 1.009082 0.538004 -0.634063 1.070451 1.822248 -1.705436 -0.266616 2.186760 -0.111155 -0.208533 -0.374087 1.237127 -0.317847 -1.855296 -0.451517 -0.006611 0.378302 -0.861929 -0.720677 -0.188070 -2.002411 0.959558 -0.148303 -1.024929 -0.508614
M417 -0.683146 -0.520605 -0.538627 -0.437133 0.481381 0.569392 0.156787 -0.570507 -0.484508 -0.316444 -0.569442 0.133260 0.005507 0.324029 0.647137 -0.370139 0.128252 -0.235797 -0.162888 -1.026758 0.201159 -0.109465 -0.275217 0.941579 0.142318 -1.079439 0.605576 -0.885510 0.465571 0.574164 0.274607 0.208573
1(N24@B) 0.335001 0.319242 -0.247508 -0.004522 -0.375378 0.184942 0.670794 -0.058333 -1.178633 -0.843756 -2.328093 0.821276 -0.106409 -1.130765 0.106162 -0.418290 1.251250 -0.329310 1.796281 1.480630 -0.776945 0.444457 0.224266 0.968042 1.242660 -0.114018 0.888082 -1.770658 0.435273 -0.096372 -0.780398 -0.161030
2(N30C@B) -0.606132 0.372677 -1.223589 -0.074692 -0.677156 0.290604 0.369939 0.091140 0.068416 -0.468596 -0.676668 -0.727111 -0.210829 -0.105700 -0.029835 0.091309 0.678541 0.239508 0.633074 0.407656 -0.083662 -0.160622 0.292807 0.470792 0.209461 0.268575 -0.289971 0.111260 0.744056 -0.170997 0.461434 1.360959
M039 0.712361 -1.464139 0.235070 -0.535824 0.876909 0.231630 0.372140 -0.109397 -0.976443 -0.520386 0.254362 -0.927516 -0.174857 -1.060980 -0.057748 -1.943759 0.611203 -0.416339 -0.316774 0.149691 -0.924022 -0.252048 -0.559579 -0.282855 0.193413 -1.046661 2.356682 0.594824 0.202832 -0.169369 -0.618899 0.065156
M049 0.845890 1.554122 0.242641 -0.692842 0.438883 0.676825 -0.360930 1.420248 -0.520553 0.540865 0.212336 1.062611 -0.343159 1.542030 0.351775 1.574853 0.188165 0.483038 0.088762 -0.071676 -0.183299 0.395932 1.439777 1.221968 -0.272927 -0.231368 0.111317 0.027225 0.691900 0.721034 -0.146901 0.513758
M248 1.478238 -0.530471 -0.554487 0.198015 1.002266 0.798350 0.246773 0.620247 -0.785859 0.830164 -1.292276 -0.267437 -1.177416 0.738134 0.714105 0.606373 -0.969241 0.979348 -0.710873 -0.240888 -0.698180 0.028290 -0.035783 -0.986644 0.553965 -0.076644 -1.101163 -1.419871 -0.629254 1.348541 -1.575206 -1.940209
M305+M342 0.132477 -0.580874 0.133812 0.550189 0.080982 0.694664 -0.018187 0.000070 -0.346255 -0.370714 0.948238 -0.052902 -0.400585 0.126548 0.015530 0.639030 -0.097644 0.288856 -0.016005 -0.921318 0.125505 -0.987114 -0.255137 0.023407 0.193138 -0.290962 0.361650 -0.154644 -0.513406 0.757022 0.381943 -0.524232
M125 -0.024408 -1.166020 0.069168 1.655945 -2.388079 -0.354081 1.050546 -0.630088 1.138426 0.689568 -1.268308 0.157409 -0.622331 0.885498 1.396452 0.116110 1.138970 -0.636480 1.595683 -0.043865 -1.473122 -0.086152 -0.940797 -0.015318 2.197188 -0.029409 0.888453 0.517494 -0.476131 0.547826 -1.052475 0.855695
M302 -0.532223 -0.027616 0.291490 -1.122914 -1.129097 0.576679 0.282626 -0.755799 0.181006 -1.189994 0.437462 0.806911 -0.019677 -0.434080 1.409756 -0.112594 -0.253271 -0.236693 -0.013562 -0.383761 0.789527 0.164023 0.770043 0.145590 -0.441050 0.588783 -1.088620 0.499900 0.654956 -0.508288 0.189670 -0.955381
M305+UNK 0.944872 -0.523904 0.291382 -1.395080 0.374737 1.030407 -0.159289 -0.687177 -0.625012 -0.498593 0.451631 0.214637 0.362907 -0.843256 -0.181915 1.308649 0.215735 0.086925 -1.646094 -2.225548 -0.492653 -0.969356 0.720709 0.198525 0.594950 0.243755 0.572650 0.765556 1.162359 1.230314 -0.248494 0.490965
M050 -0.543254 -0.002086 -0.969879 0.322657 0.417049 0.292094 0.407754 0.951602 -0.679976 -0.467136 0.036639 -0.018408 0.077768 -0.177089 0.631748 0.041897 0.054217 -0.389625 0.958234 -0.273556 -0.502118 -0.127810 -0.772568 -0.083588 -0.417684 -0.447080 -0.240630 -0.181306 -0.429783 0.188328 0.128666 -0.739467
M069 -0.317610 1.137787 -0.632700 0.172776 -0.086589 0.810609 -0.333448 0.138211 -0.430848 0.535756 -0.245635 1.268572 0.848411 1.104123 -0.200471 0.918117 0.571147 -1.347564 0.442852 0.559617 -0.026191 0.383444 0.407462 -0.520664 -0.407134 0.059784 -0.968557 1.511614 -0.513617 1.276072 0.695879 0.837880
M220 0.968308 0.331284 1.064493 -0.274993 0.395839 0.365349 -0.309686 0.989165 -0.163639 -0.647223 1.099484 1.673716 1.088078 0.258480 0.001957 0.508744 1.963487 0.859192 -0.114834 1.601144 -1.727833 0.523034 -0.606886 -0.748702 0.352046 -0.143906 1.033830 -2.159130 0.389831 -0.604852 -0.069433 -0.755835
M319 0.420297 -0.837299 -0.298402 -0.450851 -0.577505 0.339811 0.769780 -0.689295 -0.362445 -0.944375 0.340528 0.393464 -0.622732 0.654358 0.227740 -0.104808 -0.931808 0.548549 -0.001193 -0.403007 -0.167231 -1.285199 -0.325049 1.357692 1.406221 -0.288173 -0.903545 -0.503760 -2.085530 1.339415 1.387219 0.904717
M323 1.369971 0.789734 -0.410514 -0.857565 0.575271 -0.172345 1.884823 1.272363 0.204981 0.854824 0.341473 0.213679 -1.272110 1.427375 0.118169 0.807492 0.252916 -0.637535 -0.867700 -0.040852 -0.373335 2.059886 -0.172193 0.386398 -0.650405 0.508018 0.671532 -0.235725 0.019960 0.948104 -1.194621 -0.203246
M379 -0.230672 0.090734 0.809045 -0.129500 0.984090 0.794561 0.694445 0.570350 -0.449998 0.579571 -0.028503 -0.097152 0.744994 -0.666058 0.741051 0.102654 0.475777 -0.058923 -0.530866 0.162535 0.304071 0.578956 -1.025534 -0.067625 0.287648 -1.036830 0.278418 -0.414356 0.536017 0.525157 1.571780 -1.141595
1(N14@B) -0.609196 -0.251851 0.133472 0.391202 0.485244 1.011601 -0.834355 0.183585 -1.373389 -0.876763 0.246050 -1.828873 -0.127784 -0.482892 0.373315 0.775116 0.120290 -0.329985 0.045803 -1.407522 -0.851725 -0.999401 -0.505398 -0.307972 -0.014600 0.089398 0.425784 0.223833 -1.123304 -0.432159 0.221270 -0.768901
M073 0.783577 0.284842 0.474792 -0.201374 -0.495420 -0.540236 0.051788 0.884181 -0.780449 0.748371 0.913173 -0.418143 0.513288 0.523362 -0.509727 0.675583 0.959809 0.801114 -1.875649 0.425916 -0.156643 -0.026509 0.608026 0.375716 0.442686 0.611798 0.414961 -0.097087 0.326349 -0.372937 0.313756 0.024691
M153+M342 0.119851 -0.511845 -0.445451 0.727623 -0.021138 0.216870 0.057538 -0.356609 -0.574982 0.095525 0.440306 -0.036967 -1.107869 -0.421819 -0.580852 1.031176 0.590154 -1.576117 0.292179 -0.110639 0.061753 0.007556 0.258887 -0.651463 -0.279245 0.178026 0.800677 0.816890 -0.522742 0.691445 0.103873 -0.945141
M261 -0.435561 0.008022 -0.855471 0.128679 0.428943 0.208635 -0.444297 0.180503 0.216555 0.275376 -1.583101 0.459254 0.034376 0.869430 -0.196824 0.005797 0.043995 -1.102691 -0.699525 1.081320 0.912636 0.057676 0.148811 0.552772 -1.042990 0.826129 0.237289 0.685507 -0.137037 0.093800 -0.552499 0.568367
M418 0.000743 -0.014304 -0.731700 -0.093091 -0.489242 0.015382 -0.507770 -0.109160 -0.959714 -0.934805 -0.141666 -0.936374 -0.029755 0.092341 -0.080527 0.480038 -0.009438 -1.206397 -0.166144 0.021809 -0.418053 0.136836 -1.434561 -0.589633 -0.542681 1.414161 0.771051 2.136816 -1.009215 -0.652729 0.681812 0.135134
M080 -1.116654 1.171057 0.722474 0.323744 0.110096 0.958134 0.975179 -0.691349 -0.984681 0.433926 0.148374 -1.008253 0.106539 0.519214 0.204298 -0.112387 -0.450005 -0.308192 -1.197850 -0.211284 -1.094086 0.477621 1.318130 0.339095 0.099362 -1.384144 1.152958 -0.250058 1.018437 1.033628 0.303734 -0.516941
M205 -0.047965 0.287198 -0.823426 -0.276707 -1.492710 -0.203489 0.485710 0.042208 -0.339912 0.358818 -0.503009 0.375661 -0.206364 -0.187939 -0.046923 -0.336956 0.551541 -0.943575 1.163189 -0.443398 0.166005 0.494681 -0.313754 0.550723 -0.624012 -0.912327 0.346379 -0.156150 0.593029 0.406340 0.122944 0.492614
M260+1(N24) -0.197546 0.344954 -0.523205 1.521667 1.014632 0.449154 0.200652 -0.514248 2.061739 -0.997070 0.788853 0.857413 -1.360231 -0.910616 0.071423 0.137108 -0.772915 1.271128 -1.046583 0.228702 -0.439917 0.690348 0.045311 1.181743 1.151313 1.032643 -0.401946 0.985960 0.295919 -0.044301 1.352406 0.201791
M278 0.051645 0.324766 -0.407275 -0.097184 -0.312672 0.506097 0.576287 0.207567 0.400438 -0.504115 0.407774 0.098214 1.334631 0.284906 0.378464 0.400218 1.742922 -0.329390 1.165503 -0.400442 0.524023 0.299303 0.013314 0.569272 -0.612704 0.231982 -0.174704 0.781826 -0.034357 0.117630 0.312446 0.860951
M286 -0.000382 0.152918 0.285674 1.080408 0.362319 -0.037037 -0.973069 0.540040 1.018225 0.638510 -0.694577 1.111962 -0.112824 -0.427333 -0.760715 -0.546156 0.800334 -0.204736 -0.711715 0.756620 -0.338513 0.061416 -0.176686 -0.352309 0.221769 1.108818 -0.261403 0.379694 -0.303732 0.762792 0.111610 0.315415
1(N51) -0.039156 -1.391171 0.637105 1.050438 -0.119744 0.518269 0.426972 0.991829 0.284051 -1.272308 0.464710 -0.719863 0.867397 0.405642 1.529081 -0.593039 -1.508013 0.617466 -0.296103 0.131713 0.383994 -1.411875 -1.484395 -0.135974 0.024192 -1.443063 0.631960 1.540123 -0.756734 0.340025 0.043242 0.549259
4(N34) 0.636562 -0.465726 0.998984 -0.348243 -1.124013 0.640143 -0.285659 -0.776319 0.543101 0.595953 -0.484967 -0.377146 -0.039790 -0.014678 0.462112 0.299986 -0.000880 -0.225535 0.105257 -0.578437 0.029206 -0.502168 -0.457072 -0.427287 0.501125 0.560626 -0.040271 0.965570 1.528013 -0.710610 -0.966626 -0.992241
M036+1(N14) 0.553465 -0.822266 0.011842 0.270859 -0.323953 0.798369 -0.110659 -0.561107 -0.766005 -0.634544 -0.431618 -0.768406 0.677475 -0.676282 -0.064470 -0.649750 0.441609 -1.332407 0.416319 -0.941529 0.401903 -0.057976 -0.711322 -0.695712 0.099413 0.503973 -0.207328 0.125973 0.341537 0.247891 0.059678 -0.452798
M327+UNK 1.541315 -0.165806 0.125159 1.388559 0.656763 0.681436 0.768702 1.001554 -0.577777 -0.353194 0.152511 0.815757 0.370744 -0.416855 0.088063 -0.439227 -0.752995 -0.976349 0.452125 0.815597 0.290725 0.462583 -0.222105 0.132565 0.600766 -0.882619 -0.146548 0.297681 0.516149 -0.135099 0.965079 -0.679168
M044 0.638689 -0.092194 0.234200 -0.119034 0.840092 -0.751084 0.130972 0.680678 0.411577 -0.248738 1.063163 1.544029 1.149041 0.175522 0.224514 -0.832906 -0.811852 0.423805 0.078884 -0.005340 0.184918 -1.222555 -0.189354 0.525057 1.039590 -1.302504 -1.206226 0.104081 0.335114 -0.063407 0.636857 -0.091284
M109 -0.235688 -0.398747 -1.839710 -0.321984 0.570795 -0.820562 1.982275 0.099283 -0.050753 0.612531 -0.401818 1.317929 -0.272227 1.245173 0.035564 0.102919 0.891367 -0.405063 -0.604402 0.039501 0.267600 0.689807 0.184990 0.201256 0.548247 -1.097234 -0.174429 -0.538145 1.589114 0.942751 0.007945 0.246367
M136+UNK 1.361018 -0.167368 1.084646 0.845301 0.314484 0.271156 1.044441 0.621300 -0.863918 -0.266031 0.491806 -0.254558 0.180907 -0.768892 -0.024992 0.287262 -0.328091 -1.099332 -0.428369 -0.993959 -0.563542 0.219078 -0.025765 0.403870 0.618391 -0.707062 0.275192 0.017205 -0.134078 0.446121 0.470131 0.426446
M291 0.141935 0.114190 -0.708818 -0.119335 0.462413 0.210176 0.594920 -0.142297 -0.482027 -0.389233 1.122052 0.315476 0.531845 0.798400 -1.010987 -0.400730 0.667384 -0.652998 0.196111 -0.851370 0.957696 0.775874 -0.968040 0.598667 0.991666 1.125090 -0.153591 -0.044065 -0.343322 -0.072774 -0.110957 -1.945528
M316 -0.242669 -0.097649 -0.143161 0.061570 0.710616 0.416463 0.188026 0.354089 -0.364408 -0.322493 -0.149590 0.111760 0.596529 0.181537 0.106423 0.094088 0.023834 -0.268783 -0.179889 -0.495238 0.269728 0.157751 -0.296867 -0.050421 0.274295 -1.017753 -0.373995 -0.455329 0.624770 0.335370 0.312209 0.599626
2(N23) 0.675437 -0.352524 0.131337 0.580343 0.100429 0.506099 -0.115893 -0.237016 0.380090 -0.962259 0.004353 0.104185 -0.880508 -0.417922 -0.009665 0.077859 -0.079483 0.575701 -0.637097 0.052112 -0.157717 0.012742 -0.993082 -1.154714 0.043408 0.941212 0.101375 0.516997 -0.682585 0.084712 0.505753 -0.551478
M158 -0.026412 0.261287 -0.893900 0.956437 0.764297 -0.379994 -0.592456 1.255906 -0.205369 0.578101 -0.002861 0.434433 1.218459 0.113999 0.636861 -0.635101 0.959418 0.198845 0.606346 0.131650 -0.028218 0.552996 -1.289779 0.363082 -0.300399 0.093912 -0.650964 0.515390 -0.224509 -0.485096 0.152714 -0.958981
M193 -1.168091 -0.510158 -0.306105 -0.304800 -0.953847 1.064406 0.277863 -1.280802 -0.753656 -0.430200 -1.327510 -0.642763 -0.355952 0.124004 0.914815 -0.077652 -0.208846 1.085898 -1.087909 -0.270286 -0.104644 -0.993092 -0.512128 -0.813008 -0.062792 0.459097 0.202307 0.064734 -1.478709 1.017238 0.764798 -0.381601
M209 0.114095 0.105795 -0.499628 0.982620 -1.050340 -0.025818 0.108997 1.038613 0.876425 -2.524977 -0.261953 -0.161573 -0.802801 0.014898 0.756980 -0.912293 0.156231 0.108505 0.191168 1.134947 0.204640 -0.553514 -0.685518 1.653362 0.576914 -0.477307 1.368051 -0.436236 -0.836178 -0.517986 0.422995 0.819073
M249 0.897832 0.999436 0.638612 -0.721113 1.539801 0.085646 0.647750 1.152652 -0.986623 -0.150473 1.247437 0.828888 0.375757 -0.100320 -0.434514 0.299459 -0.511895 0.121048 -0.255873 1.468310 0.329053 1.112356 0.876072 0.937697 0.965821 -2.175329 1.068937 0.167699 -1.010726 0.205446 0.360654 0.503832
M285 -0.947827 0.509844 0.004801 -0.249352 -1.240277 -0.456221 1.115125 -0.864149 -0.599705 -0.088140 0.736492 0.945752 1.888596 -0.136060 -0.321166 -0.683946 0.433572 -0.373263 0.744715 0.556106 -0.045678 0.134462 1.376017 0.741342 0.727363 -0.567512 -0.656961 0.211526 1.079363 0.193148 0.312660 0.222521
M328 0.525268 0.950120 0.283290 0.792892 -0.064116 1.399542 -0.080836 -0.215402 -0.389251 0.626150 -0.389158 0.435939 -0.316193 0.448708 -0.151105 0.865661 -0.015466 0.204492 -0.127729 -1.103620 -0.396929 -0.399035 -0.164314 0.648653 0.687191 -0.491619 0.228709 0.192756 -0.694220 0.453403 0.300898 -1.041230
M369 0.683029 0.016321 0.419928 -0.372002 0.448747 -0.493144 0.470324 -0.419473 0.025992 -1.063770 0.176709 0.306282 0.000046 -0.724920 -0.220099 -0.181747 0.169652 0.319995 -0.504381 0.087021 -0.180698 0.038962 -0.235877 0.005259 -0.393098 0.266403 0.166969 0.140356 0.328716 -0.134293 1.422901 0.987777
M370+M072 -0.067030 -0.052513 -0.123084 -0.124616 0.158084 0.257185 -0.160889 -0.215631 -0.330630 -0.411251 0.036462 0.264765 0.088878 -0.198515 -0.240469 0.275077 0.143679 -0.788986 -0.119151 0.237502 0.096027 0.170161 0.327631 -0.034742 -0.303201 0.204676 0.043647 0.405967 0.093161 0.571442 0.600622 0.238717
1(N8B) -0.269699 -0.133299 0.635306 -0.305717 -0.526389 -0.188521 0.007730 -0.421863 -1.421404 0.318980 -0.763907 0.461427 -0.152505 -0.297787 0.017935 -0.054621 -0.493849 -0.400265 0.055445 -0.428107 -0.449541 -0.862759 1.351148 -0.213184 0.189156 1.065197 -0.722098 -0.078094 -0.182131 -0.278179 0.477254 0.052393
M195+M038 0.425942 -1.726277 -0.771664 0.010320 0.344612 -0.614877 1.019685 0.822999 -1.454979 -0.912044 0.208330 0.776352 -0.996842 -0.032954 -0.376473 -0.457216 -0.098697 -0.642333 0.078662 0.790032 -0.839674 -0.391838 -0.200744 1.089469 1.059797 -0.635563 0.468781 0.724207 0.238370 0.222179 -0.597635 -1.426924
M221 0.165736 0.384747 -0.400961 0.137445 0.481597 -0.318570 -1.626954 1.059843 1.341755 -1.181096 0.087295 -0.663374 0.061712 -0.494917 -0.344310 1.109902 1.883965 0.169190 1.231685 -1.357941 0.273722 0.458308 -1.009646 -0.527367 -1.604732 0.816494 -0.431150 0.137432 -0.590474 0.342535 0.447822 1.662591
M252 -0.127545 0.866296 -0.060549 1.521147 -1.633523 0.953117 0.467470 -0.260918 1.086160 -0.807591 0.931001 0.192916 -0.460047 0.381737 0.536606 0.481859 -0.765905 -0.620126 0.275293 0.547178 -0.125364 0.357498 0.689785 0.158788 -0.286356 0.663340 -0.108038 1.308548 -0.320962 0.295557 0.104236 0.361564
M315 -0.477804 0.265886 -1.161107 1.270809 -0.275974 0.139397 -0.756849 -0.237607 0.174994 -1.150202 0.538677 -0.864549 -0.808090 1.255255 -0.406147 0.006601 -1.014914 1.445861 1.282012 1.685224 0.548941 -0.053172 -0.017033 0.254195 0.582393 0.019014 0.529431 -1.149223 0.146612 -0.381509 0.068438 0.213536
M377+M320+M377 0.122331 -0.075290 0.133142 0.197428 -0.044258 0.189109 0.280131 -0.017395 -0.227443 -0.298163 0.050277 0.143593 0.258319 -0.191914 -0.016908 0.159131 0.000193 -0.265097 -0.263301 0.138510 0.217768 -0.024639 -0.149778 0.100953 -0.039736 -0.150337 0.247525 0.466214 -0.135430 0.143816 0.479868 0.169115
1(N01@B) -0.021750 0.609038 -0.447676 0.897199 0.731127 0.285962 -0.303693 1.284255 -0.293486 0.173312 -0.844789 0.808676 -1.425369 0.582694 -0.037675 0.231737 0.243754 -0.301736 0.002806 1.085229 0.460502 0.105550 -0.077059 -0.904053 0.358815 -0.126359 -0.267817 -0.075602 -1.141510 0.780964 0.635647 -0.957962
1(N08) -0.307407 -0.033785 -0.029613 0.279484 -0.433209 -0.289974 0.453569 -0.818429 0.825177 0.001013 -0.266776 -0.446959 -0.645628 -0.542795 -0.113347 0.511724 -0.266938 -1.301293 0.380471 -0.200639 0.521068 -0.190966 0.462642 -0.112439 -0.790196 0.756596 -0.088233 1.161427 1.149865 0.843072 1.083765 0.719762
1(N39B@B) 0.005825 0.174304 0.086255 -0.209427 -0.265859 0.439117 -0.275368 0.395538 -0.513098 -0.370148 -0.635305 0.949929 0.480539 -0.139862 0.362671 -0.200098 1.120105 -0.045680 1.696720 0.334547 -0.371887 -0.081592 -0.003775 0.610822 0.204161 -0.444025 0.633443 -0.859707 -0.019040 0.373492 -0.227993 0.158246
3(N34) 1.203679 0.328800 1.488468 0.042395 -0.394984 -0.199079 0.168918 0.153193 0.478234 -0.956753 0.763501 -0.961725 0.144445 -1.031368 -0.327893 -0.142465 -0.017464 0.446228 0.637821 0.479413 -0.049549 0.020917 0.657410 -0.254588 0.305571 0.363960 0.759451 -0.249082 0.638405 -0.543196 0.204504 0.256898
M006@G -0.297106 -0.483273 -0.316135 0.026804 0.314801 0.816600 -0.082586 -0.582011 -0.541123 -0.806692 0.149322 0.359626 -0.281888 -0.167744 -0.096182 0.298574 0.290683 -0.476043 -0.638682 0.043441 -0.165229 0.056546 0.041806 0.052005 -0.353123 -0.140985 0.621123 0.580957 -0.232020 0.448398 0.981124 0.243625
M157+M131 0.038037 0.004656 0.125307 0.183518 -0.088503 -0.032726 0.052728 -0.176403 -0.214249 -0.228688 -0.318653 -0.061680 0.173190 -0.070384 0.103088 -0.025846 -0.378302 -0.043690 -0.214970 0.331794 0.087662 0.045060 -0.213660 0.034064 0.143015 0.098994 0.067369 0.062805 -0.184317 0.178217 0.400784 0.346215
M293 0.081989 -0.098217 -0.023627 -0.314968 -0.076924 -0.051015 0.735177 -0.389695 -0.815338 0.056445 -0.142140 -0.292019 -0.289638 -0.268282 0.210897 -0.127162 0.546089 0.309216 -0.010074 0.353128 0.065160 -0.185235 -0.098698 -0.047759 1.172364 0.349720 1.015113 -0.141712 0.199646 -0.158806 0.461332 -0.265274
M370+M388 -0.013302 0.099804 -0.211428 0.048589 0.299827 0.109896 0.100653 0.007077 0.199971 -0.275378 -0.265930 0.146875 -0.318982 0.226484 0.038585 0.227021 0.178708 0.455593 -0.713215 0.251789 -0.305912 0.062063 -0.194487 0.185659 0.048868 -0.008786 0.408461 -0.068374 -0.337846 0.195993 0.005388 0.253665
M381 -0.112124 -1.737878 -0.582569 0.475768 1.495521 -0.067899 0.080912 0.135096 0.469741 -0.008853 -0.141853 0.965622 -0.312837 1.261260 -0.265211 0.125261 0.273826 -0.876418 -1.603080 0.078506 -0.110830 0.245682 -1.107870 0.570278 0.610051 -0.414046 -1.088832 -0.957125 0.133016 -0.393896 -0.553602 -1.563266
2(N1@B) -0.408869 0.299487 -0.212427 -0.113890 -0.844585 0.759839 0.202721 -0.223927 0.117521 -0.369988 0.279782 -0.884893 0.359180 -0.766141 0.231507 0.473365 0.368748 -0.289435 1.238006 -1.174511 0.011686 -0.273967 -0.633648 0.352947 -0.802276 -0.238605 0.244037 0.076928 0.303848 0.541221 0.675736 -0.415196
M036+1(N30C) 0.153295 -0.211867 -0.021079 0.370255 0.456924 0.098017 0.439278 0.176312 -0.347220 0.105854 -0.122219 -0.061813 0.623579 -0.354850 0.000635 0.079739 -0.711933 -0.712481 0.083782 0.629225 1.297356 -0.145539 -0.287539 -0.165374 0.098024 -0.386805 -0.237867 0.323045 -0.382376 -0.383383 0.641036 0.470243
M180 -0.103450 -0.708302 -0.329787 1.409741 0.453748 0.427021 0.155853 -0.252617 -0.293350 -0.084969 -0.294035 0.136452 -0.637110 0.215316 -0.093875 -0.098547 -0.620048 -0.328133 -0.605226 0.259736 -0.211383 -0.128237 -0.243634 -0.937003 0.248135 0.070327 0.240242 -0.182810 -0.450728 0.241749 -0.716953 -0.864656
M277 -0.338609 -0.364426 -0.220492 -0.003716 0.362628 0.505888 0.244256 0.235348 -0.522692 -0.100132 0.116698 0.970137 -0.096109 0.663598 0.396672 0.160761 0.205348 -0.463146 0.151399 0.300005 0.220283 0.076494 0.164513 0.221945 -0.243038 -0.462700 0.372214 -0.085627 -0.220300 0.449693 0.154354 -0.200134
M324 -0.143934 -0.791393 -1.049468 0.207913 -0.021955 0.790740 0.783288 -0.291236 -0.847315 -0.332139 -1.200074 -1.548864 0.080724 0.648516 0.762677 0.071220 -0.875406 -0.409926 0.022823 -0.546628 1.239532 0.174164 -0.814545 -0.580733 0.685072 -0.590119 0.050892 -0.887042 1.330571 0.527560 0.165419 0.728510
1(N48) 0.714745 -0.278164 1.113071 1.253419 0.728733 0.630629 0.674081 0.651458 0.693237 -0.249085 0.050191 -0.010253 -0.095782 -0.225766 -0.346892 1.273383 0.212645 0.391523 0.207170 -0.284588 0.592519 0.658281 -0.331231 -0.314804 0.752759 0.147348 0.098611 -0.799587 1.553757 0.232200 0.058482 -0.701810
2(N51) 1.575555 -1.019982 -0.107160 0.524942 -0.011166 0.328729 0.874560 0.465306 -0.443776 -0.632229 0.077934 -0.445887 -0.651244 -0.482256 0.336454 0.584786 -0.579329 -0.208837 -0.659053 0.517663 0.673568 0.350045 -0.706807 0.815401 0.732534 -0.455133 -0.032236 -0.014328 0.084842 -0.154847 0.879756 -1.159597
M053 0.334657 0.019792 0.435012 -0.221087 0.369085 0.399532 0.375069 -0.180311 -0.996202 0.498215 -0.755428 0.562942 1.242324 -0.941245 -0.305655 0.436505 0.377428 -1.422863 -0.775172 -0.075465 0.436610 0.580281 -0.205404 1.090914 -0.509085 -0.374767 0.526615 0.966949 0.495887 -0.222120 0.242141 -0.612092
M134 0.084579 -0.270331 0.474642 -0.240356 0.753495 0.438052 -0.153431 0.124568 -0.952884 -0.401596 0.579482 -0.184939 0.377009 -0.461803 -0.070562 0.201275 -0.507067 -0.789115 0.700181 -0.497544 0.015544 -0.231158 0.517916 -0.724446 -0.054470 0.103838 -0.619631 0.228745 -0.181554 0.357448 0.614644 0.028941
M144 -0.047640 -0.616094 0.652219 -0.551037 -0.495013 1.623024 0.429175 0.298904 -1.003172 0.338274 -1.048261 0.535711 0.121292 -0.381136 1.192390 -0.173814 0.886934 -0.119885 0.896626 -0.569041 -0.565037 -0.705047 -0.533743 0.726412 0.963372 -0.578759 1.090157 -1.412824 1.437030 -0.120145 -0.768411 -2.296449
M217+M388 0.139511 0.574663 -0.701940 0.387529 0.179106 -0.188415 -0.021991 0.233943 -0.162154 -0.755139 0.154106 0.741461 0.126517 -0.078593 -0.530243 0.151755 0.049139 -0.329007 0.310764 0.961096 0.221940 0.284287 0.534967 0.087600 -0.114439 -0.104482 0.254790 -0.270793 -0.502098 0.093192 0.739243 0.962596
M218+M320 -0.704005 0.464970 0.461647 -0.398794 -0.732312 0.884135 -1.016516 -0.332462 -0.436325 0.482941 0.197102 0.762738 1.403970 -0.055446 0.170499 0.124177 0.579570 0.522115 1.401958 0.123564 0.058471 -0.083777 -0.651488 1.480274 0.910823 -0.406793 -0.475076 0.573475 0.076732 0.009139 0.012075 -1.756609
M222 -0.298389 0.912577 0.338477 0.203221 0.151461 -0.615700 0.446484 0.206957 0.035890 -1.197288 1.639088 -0.592517 0.533424 0.299311 -1.442106 -0.050176 1.396754 0.067844 -0.037330 0.194559 -0.857350 0.395203 -0.018005 1.286813 0.969238 -2.090118 0.899238 -0.204466 0.047912 -0.253895 0.876192 0.992989
M311 -0.708305 -0.487738 -0.141795 -0.125366 0.210931 0.240732 0.173152 0.103223 -0.263132 -0.595538 -0.363858 0.032881 0.093749 -0.091513 0.411986 -0.120588 0.422890 -0.203332 0.953549 -0.022345 0.358215 -0.475794 0.435981 -0.500972 -0.068654 0.166567 0.326330 0.164105 0.019094 1.149991 0.109481 0.926310
M361 0.958781 0.414003 -0.269489 0.630396 -0.182236 1.104970 -0.475873 0.328627 -0.064900 0.054086 -0.459477 1.083773 0.025553 0.202264 0.004558 0.352368 0.321004 -0.133697 0.303888 -0.198676 -0.053870 0.341710 -0.161976 -0.387825 0.678213 -0.111860 -0.178151 0.071969 0.037702 1.035409 -0.271037 0.274835
M362+UNK 0.279216 -0.245547 -0.334177 0.751832 -0.019047 0.166136 0.793503 0.089258 -0.518929 -0.736530 0.237008 -0.230634 0.050894 -0.226456 -0.193910 0.196645 -0.617135 0.073776 0.237861 0.677889 0.103223 -0.145965 -0.302401 -0.172225 1.065167 -0.185897 0.040306 0.257198 -0.204401 0.259801 0.784991 0.088872
1(N02) -0.374900 -0.509079 -0.460664 -0.111566 0.178814 -0.046742 0.872381 -0.429997 -0.853635 -1.225059 0.668868 0.408373 -0.001625 -0.307949 -0.201883 -0.033719 0.486490 0.012645 -0.020863 0.961020 -0.147757 0.335945 0.177456 0.167367 0.675528 -0.057056 0.991695 0.102686 -0.143478 0.270093 0.636123 0.208347
5(N34) 1.032768 0.268049 -0.157304 0.491937 0.170350 0.383784 0.777140 -0.062363 0.499065 -0.452265 0.640406 -0.460406 -0.182102 0.019707 -0.493737 0.996319 0.288341 -0.517853 0.534204 -0.013544 0.527709 0.618230 -0.752516 0.317352 1.007287 -0.325817 0.675797 0.061881 1.551470 -0.455708 0.016449 -0.172877
M035 -0.099677 0.378529 -0.419815 -0.512585 0.185388 -0.492426 0.305877 -0.793576 1.556673 -0.182764 1.393759 0.508367 -0.470282 0.456965 -0.502790 -0.033454 1.005116 -0.006055 0.104323 0.739640 -0.345828 0.983097 1.506786 -0.727567 -0.019440 -0.394580 0.447272 -0.823294 1.805857 0.785331 -0.476511 0.939592
M061 0.109560 -0.067821 0.253388 0.220969 0.119070 0.067328 -0.249546 0.097348 -0.366759 -0.522985 -0.182353 0.404925 0.739618 -0.818048 -0.065061 -0.063884 0.802201 -0.854981 0.547599 -0.030301 0.220481 0.253720 0.347482 -0.075394 0.144810 0.415766 -0.071225 0.468405 0.633501 0.290902 0.295567 0.095052
M151 0.048176 -0.303026 0.153669 -0.523735 1.606347 -0.475015 0.841031 -0.381708 0.258696 -0.138336 0.346666 0.071864 0.141239 -0.910587 -0.590346 0.089092 1.378149 -0.230490 -0.828516 -0.656629 -1.008280 0.602423 -0.252092 -0.088692 0.931156 -0.266121 -0.916902 0.339087 -0.255854 0.866695 0.299078 -0.075219
M152 0.054391 -0.358361 0.394577 0.617441 -0.057993 0.877432 -0.179545 0.446576 0.080577 -0.418825 -0.604883 -1.032655 0.496281 -0.162640 0.595630 0.459106 0.618835 -0.093344 -0.452683 -1.015063 0.709346 -0.133104 -0.602384 0.363273 0.137896 0.447587 0.623393 0.221460 -0.085031 0.969730 -0.386356 -0.251010
M175+M288 0.104070 -0.294679 -0.259059 -0.441498 -0.160023 0.693628 0.814663 0.596087 -0.528921 -0.691278 -0.738531 1.350278 -0.149267 -0.209313 0.325886 0.039375 0.299015 0.219725 -2.156653 -0.076392 -1.025043 0.726369 -1.082831 -0.806634 0.961095 -1.145612 -1.043016 -0.552391 -1.413887 0.205185 1.060884 -0.171268
M310 0.062726 0.061128 -0.155024 0.219104 0.388295 0.772334 0.004191 -0.142611 -0.336973 -0.625773 -0.096715 0.568948 0.210294 0.003329 -0.063311 0.329278 0.500953 -0.325210 -0.663698 0.003113 0.000586 0.367055 -0.245810 -0.038160 0.211557 -0.209712 0.228490 0.347913 -0.189392 0.963081 0.844068 0.403794
M312 0.583673 0.220208 -0.101643 0.776940 -0.254965 0.320550 0.278897 0.168691 0.050370 -0.330759 0.274108 -0.828179 -0.896479 0.749267 0.393480 0.486868 -1.581258 -0.468863 0.006881 0.442766 0.759424 0.085214 0.151727 0.462731 0.146114 -0.594400 0.766656 -0.136018 -0.577880 0.122748 0.540043 0.720330
M370+M072+M370 -0.069211 0.073212 -0.055201 -0.084780 0.076594 0.108317 -0.049026 -0.051607 -0.011369 -0.130366 -0.020985 0.200828 0.004648 0.015981 -0.035129 0.099361 0.089424 -0.090936 -0.190878 0.065715 0.033129 0.059687 0.064387 0.058163 -0.048945 0.005519 0.023956 0.092874 -0.014976 0.167802 0.187825 0.171428
M377+M377 -0.536585 -0.868654 -0.461512 0.151570 -0.406797 0.647503 -0.176827 -0.012438 -0.732825 0.724545 -0.814281 0.022473 0.565291 0.115754 0.876667 -0.252093 0.999832 -0.680763 0.356252 -0.918423 0.629685 0.474706 -0.478435 0.023499 -0.043242 -0.197957 -0.286211 0.090163 0.092495 0.616395 -0.582767 -0.860688
M382 0.259687 -0.049144 -0.331101 0.065628 -0.043702 0.589867 0.101185 -0.180990 -0.391588 -0.398881 0.060371 0.734825 -0.080908 -0.133336 -0.251930 0.495927 0.541590 -0.514826 -0.106848 0.411227 -0.557063 0.253609 0.287137 -0.115388 0.040819 0.409508 0.405799 0.131342 -0.485354 0.650518 -0.230671 -0.153974
N(N01) -0.488481 -0.432997 0.384444 0.074689 -0.057521 0.349120 0.111275 -0.015624 -0.416410 -0.656390 -0.300602 -0.398333 0.313226 -0.691600 1.072490 0.010787 -0.312016 0.375156 0.654288 -0.109134 0.085614 -0.085797 -0.586336 -0.144583 0.540830 0.229965 -0.784169 -0.518940 0.092292 0.163541 0.869939 0.513298
1(N) 0.155032 -0.413896 0.318122 0.511509 0.344460 0.630160 0.573837 0.379206 -0.186109 0.196240 -0.547649 -0.548458 0.120679 0.313258 0.495047 0.287653 -0.243001 -0.188345 -0.384555 -0.199226 0.588159 -0.095204 -0.730870 0.494640 0.419745 -0.667201 -0.140884 -0.154571 0.304697 -0.205372 0.380723 -0.520860
1(N30D@B) -0.725617 0.199249 -0.396416 -0.079599 0.136476 0.042421 0.214372 0.104130 -0.523411 -0.275308 -0.037546 0.438250 1.184489 -0.214747 0.099112 0.131438 0.782983 -0.086408 0.397294 -0.039335 0.223343 0.642996 -0.443025 0.997784 0.294852 -0.653265 -0.120150 0.118605 0.310198 -0.444686 -0.068543 -0.093625
4(N1@B) 0.631826 -0.122400 -0.206791 0.053354 -0.173554 -0.246076 0.804805 0.242504 -0.041477 -0.396439 0.162452 -0.238214 -0.134454 -0.191258 -0.076036 -0.244684 0.402508 -0.391162 0.667522 0.399734 -0.376513 -0.028899 0.043131 0.146064 0.660112 -0.422665 0.023965 -0.406983 0.313229 0.318175 -0.001407 0.290007
M036+1(N24) -0.048658 -0.390587 0.174324 -0.063124 -0.117531 0.125555 0.098344 -0.292373 -0.238250 -0.602765 0.204990 0.036936 0.267406 -0.460184 0.006043 0.186696 0.498157 -0.227088 0.585478 -0.029574 -0.036898 0.171898 -0.019239 -0.041252 0.095580 0.298042 -0.012472 0.102515 0.263835 0.328369 0.537376 -0.147317
M058 0.333706 -0.398849 0.474158 0.503324 0.193370 0.435531 0.076203 0.833802 0.424047 -1.424106 0.126368 1.141263 -0.083368 0.002989 0.308872 0.387376 0.862243 0.363525 0.119560 0.956761 -0.545542 1.319261 -0.407582 1.124856 0.094136 1.038200 -0.436182 -0.325010 0.110937 -0.322994 -0.058574 -0.995251
M123 0.461019 -0.067700 -0.109606 0.598833 -0.455455 0.168658 0.413769 -0.025184 0.412334 -0.747576 -0.280402 0.237638 0.263200 0.124927 0.213792 0.346600 0.427158 1.024339 -0.608406 0.186476 -0.462260 -0.080884 -0.552378 0.004845 0.629391 -0.036960 -0.233552 0.073156 -0.544701 0.205338 0.063127 0.300960
M305+M136 0.154163 -0.378599 -0.203425 0.399417 -0.788051 0.903020 -0.058348 0.080131 -0.493780 0.044723 -0.574714 0.765944 0.156727 0.225217 0.035533 -0.018916 0.055786 -1.069558 -0.257749 -0.182241 -0.352001 0.136446 0.026369 0.519832 -0.369409 -0.310609 0.184881 0.224014 0.408647 0.473513 -0.721671 -0.685174
M327+M059 0.352034 0.367620 0.806639 -0.088964 0.063110 0.645903 -0.402461 0.226497 -0.646409 0.365112 -0.219196 0.370770 0.297286 0.123474 0.080149 0.206251 -0.659325 -0.268085 -0.209615 0.240207 0.828558 -0.363687 0.291702 0.636962 0.482376 0.079351 -0.077393 0.567744 -0.472707 0.263875 0.597083 -0.650001
M375 -0.203919 -0.240619 -0.159157 0.334787 -0.489415 0.329043 0.207336 -0.229967 -0.320563 -0.318816 -0.175264 -0.506070 -0.052368 0.046422 0.135765 0.332010 -0.068300 -0.490424 -0.402152 -0.205550 0.244559 -0.157331 -0.423574 0.198762 -0.156878 0.242370 0.128524 0.717374 0.052728 0.174444 0.681717 -0.052862
M026 0.252665 -0.339385 -0.008727 0.078769 -0.574297 0.044508 0.350780 -0.483144 -0.278618 -0.356061 0.135464 0.167154 -0.042043 -0.463607 -0.397961 0.180828 0.218365 -0.659084 -0.250052 0.356833 -0.156768 0.134941 -0.082062 0.036491 -0.022054 0.515025 0.295248 0.510527 -0.048312 0.547267 0.642204 -0.072170
M064 0.161254 -0.594224 -0.492077 0.420326 -0.896281 0.610918 0.398396 -0.802369 -0.297345 -0.358893 0.392799 -0.002635 0.041736 -0.466069 -0.471241 0.288162 0.315814 -0.553141 -0.256824 -0.560620 0.151551 -0.208549 -0.002466 -0.241154 0.084203 0.676916 0.126384 0.691909 -0.310711 1.347395 0.878297 0.353008
M115 0.340118 0.697423 -0.337463 -0.257018 0.499257 0.453952 0.850688 0.320589 0.291950 -0.545904 0.176027 1.147863 -0.252445 0.491085 -0.302008 0.826181 -0.211217 0.477341 0.312663 0.745950 -0.390916 0.883065 -0.275194 0.237930 -0.523357 -0.586533 0.527161 -1.001044 1.209947 0.222085 -0.155764 1.078361
M175+M136 0.636095 -0.667103 -0.206649 1.299128 0.599166 0.455687 0.432573 0.144722 0.090801 -0.656290 -0.487518 -0.202638 -0.843778 -0.023476 0.234353 0.132531 0.173163 -0.859884 -0.109497 -0.664328 -0.016046 0.853792 -0.752803 -0.013000 0.583704 0.335376 -0.435434 0.645109 -0.278932 0.792385 0.131991 -0.413128
M214 -0.642436 0.326042 -0.766877 0.367726 -0.145086 0.340916 1.032856 0.197399 -0.432797 -0.936032 0.253360 0.476917 -0.362856 0.727139 0.705944 0.794483 0.214471 0.459754 0.012137 0.181778 0.122314 0.328710 -0.751205 0.834020 0.144106 -0.529417 0.232341 -0.087122 -0.128213 0.235578 1.245233 -0.393401
M226 -0.794573 -0.629213 -0.900137 -0.416380 -1.788592 -0.582787 -1.254637 -1.434407 -0.350380 0.260115 1.037481 -0.123949 -0.789452 -0.497359 -0.796038 0.079350 0.561050 0.145762 -0.480036 -2.058558 -0.984832 -1.417860 0.295686 1.223084 -0.556418 -0.421940 0.050099 0.098121 -0.493137 -0.458021 0.164740 -1.789736
M288+1(N01) -0.364068 0.456628 -0.684327 0.344982 0.205921 0.162977 -0.215297 0.088266 1.242002 -0.548985 0.711248 0.594411 0.297764 1.832309 -0.377331 -0.662196 1.608856 -1.361447 0.300880 0.313295 0.130677 1.568370 -0.722119 -0.635028 -0.116597 0.660215 1.036170 -0.341571 0.200222 1.133791 -1.255408 1.119460
M298 0.089258 0.277612 0.404819 -0.155131 -0.031186 0.206530 0.497092 -0.583620 0.079648 -0.238529 -0.018557 0.472792 0.368840 -0.082159 -0.471908 -0.212059 0.630298 0.220031 -0.312373 -0.092976 -0.390971 0.255895 0.130668 0.000255 0.475220 0.334175 -0.096107 0.012806 0.343984 0.123412 0.057098 -0.252025
M370+M046+M370 -0.106041 0.200794 -0.202222 0.039248 0.139576 0.191185 0.033529 -0.040864 0.123219 -0.268587 -0.144596 0.304953 -0.186515 0.184600 -0.030272 0.305055 0.265113 0.187382 -0.511008 0.135481 -0.207097 0.138928 -0.076471 0.197474 0.014401 -0.026769 0.213624 0.078283 -0.231502 0.376589 0.249922 0.371292
M370+M388+M370 -0.165514 0.117146 -0.299785 -0.052593 0.285672 0.275345 -0.372111 -0.094667 -0.192702 -0.349554 -0.114680 0.460417 0.081349 0.067570 -0.262700 0.326587 0.113916 -0.716570 -0.328903 0.491893 0.296705 0.222274 0.239312 -0.136129 -0.261492 0.274141 -0.039012 0.626868 -0.208246 0.660552 0.519329 0.523494
M461 -0.194220 -0.467123 -0.354757 0.194563 -0.612016 -0.728200 -0.174787 -0.825082 1.148385 -1.312783 0.217588 1.192161 -0.488938 1.973633 -0.671155 0.395585 2.621730 1.003289 0.396104 1.102863 -1.060227 0.075547 -0.262672 -2.089846 0.273726 0.352524 0.166766 -0.353716 0.832214 0.428896 -0.576060 0.653160
2(N02) 0.277011 -0.385496 0.526693 0.322600 -0.212993 0.283214 -0.213658 -0.382392 -0.155472 -0.005472 -0.341938 -0.333231 0.266123 -0.199277 -0.608289 0.578663 0.405846 0.171624 -0.614802 -0.264558 -0.467752 -0.403372 -0.020929 -0.208964 0.849403 0.720097 -0.125260 0.374482 -0.029530 0.651245 0.150613 -0.671444
2(N39B@B) 0.397448 -0.282486 -0.398012 1.274213 -0.230002 0.994529 0.709410 0.455640 -0.400059 -0.542352 -0.702609 0.110234 0.494450 -0.325138 0.613521 -0.385483 0.485852 -0.324568 0.180230 -0.752588 -1.025625 0.246329 -1.184104 -0.726809 0.479211 -0.499316 -0.276522 -0.218418 -0.055371 0.731744 -0.059598 -0.479959
3(N23) 0.367515 -0.381055 0.009463 0.548660 -0.662025 -0.669040 0.027427 -0.118038 -0.558471 -0.484382 0.921122 0.266870 -0.491830 -0.973850 -0.247672 -0.149395 -0.576560 -0.290376 0.535451 0.725966 0.286190 0.023239 0.369212 -0.491712 0.422148 0.151998 -0.214966 -0.072924 0.355494 -0.232294 0.613887 -0.665384
6(N34) 0.465640 -0.084014 0.483899 0.458538 -0.190701 0.522986 0.850016 0.228694 -0.289475 -0.216954 0.203685 0.866578 -0.099832 0.386350 0.120224 0.565388 -0.906768 0.364475 -0.084405 0.326734 0.715886 0.160617 -0.330432 0.627639 0.721005 0.185621 -0.245227 0.834118 0.873656 -0.598563 0.448890 -0.960755
M047 0.255688 0.215193 0.365239 0.629784 -0.372309 0.737278 0.045107 0.047279 0.680670 0.224969 -0.285099 0.896634 -0.466551 0.371798 0.009271 0.184717 0.397906 0.118776 -0.337462 -0.599517 -0.906334 0.231728 0.023967 0.617978 -0.086059 -0.262901 -0.049974 -0.270495 0.486715 0.404092 -0.467989 -0.513215
M143 -0.786193 0.109070 -1.099421 0.102067 -1.775629 -0.118162 -0.368612 -0.085724 0.054014 0.502121 0.552291 1.800046 0.195464 0.399621 0.389401 -0.397824 0.306407 0.086758 0.515300 -0.653046 0.550442 -0.456018 0.083068 1.037045 0.021536 -0.460760 -0.911010 0.078407 0.181948 0.699065 1.060621 0.260205
M208 0.418273 -0.209276 -0.108221 0.052235 0.067395 0.424749 0.070973 -0.075917 -0.242102 -0.290630 0.088877 0.144894 0.056341 -0.020798 -0.261430 0.221478 0.229786 -0.553218 -0.498040 -0.035417 -0.197807 0.134465 0.010226 0.197786 -0.253367 0.133127 0.616951 0.491075 -0.063781 0.093621 0.019752 0.156434
2(N14@B) -0.300257 -0.331238 0.261385 0.463624 -0.035873 0.452951 0.664754 0.165032 -0.393863 -1.020751 0.787478 -0.331268 0.272732 -0.946578 0.200088 -0.365329 -0.736421 -0.134121 -0.074267 -0.519296 -0.807784 0.071446 -0.961244 -0.168882 -0.175113 -0.166593 -0.562606 0.178082 -0.155079 -0.887626 0.451125 -0.847401
2(N30D) -0.208687 0.241299 0.092655 -0.676820 0.809869 0.061354 0.200159 0.195649 -0.437622 -0.286724 -0.165951 0.305782 0.480188 -0.329399 0.164455 -0.369846 0.111823 -0.135707 0.286618 0.747889 0.021715 0.310424 0.142225 -0.551557 0.145919 -0.000322 -0.138758 -0.101551 0.046121 0.950969 0.854210 0.646417
7(N34) 1.283937 -0.967880 0.560126 -0.019862 -0.143362 0.298480 0.192173 0.297848 -0.157266 -0.504410 -0.035640 -0.377989 -0.130738 -0.389637 -0.206827 -0.465718 0.578635 -0.300952 0.048596 -0.029024 -0.252371 -0.030838 -0.217457 -0.140306 0.445610 0.313576 0.031256 -0.144780 0.709231 -0.439057 -0.824372 -0.664449
M037 -0.186911 0.402696 -0.360456 0.296588 0.303432 1.068713 -0.177171 -0.376349 0.024360 -0.135362 0.261313 1.791947 0.480974 0.329748 -0.247854 0.457425 0.337046 -1.422521 -1.257401 -0.077492 0.541490 0.632320 0.071333 0.284208 0.129652 -0.417433 0.002196 0.109751 0.547513 0.323053 0.579512 -0.507582
M153+UNK -0.237301 -0.116250 0.029267 -0.144645 0.066148 -0.115292 0.048289 -0.082186 0.037736 -0.076148 -0.085485 -0.097696 0.118745 -0.034691 0.043037 -0.098935 0.192922 0.125476 -0.089126 0.135988 0.132670 0.066782 -0.181494 0.013698 0.052189 0.070217 -0.057448 -0.052330 0.125372 -0.071268 0.212974 0.065805
M176 -0.127822 0.093250 -0.287633 0.476280 0.029420 0.464780 0.228443 0.026499 -0.005157 -0.329560 0.234946 0.302335 0.142055 0.250633 0.020964 0.276217 0.179729 -0.203534 -0.331126 -0.276800 -0.412007 -0.067366 -0.520898 0.065975 -0.343477 -0.096215 -0.021372 0.200476 -0.165095 0.361501 0.233566 0.021796
M218+M101 -0.161795 0.176972 -0.895355 -0.379565 -0.568786 -0.661839 0.084145 -0.680061 -0.610725 0.276134 0.575827 1.441108 -1.046755 0.842563 -0.763015 0.730159 0.421100 -0.078957 -0.281254 0.486430 0.073985 0.734000 0.005991 0.567716 0.253324 -0.346590 0.138373 -0.339033 0.295545 -0.138965 -0.087435 -1.180753
M268 0.127608 -0.406095 0.060966 0.158431 -0.131907 0.778305 0.012442 -0.247473 -0.743569 -0.804615 0.204579 0.152370 0.148211 -0.599171 -0.294949 0.148365 0.111355 -1.039981 0.115518 -0.352405 0.166009 -0.032411 0.082341 -0.221300 -0.212026 0.172519 -0.070671 0.549296 0.540977 0.427101 0.618142 -0.402791
M270 -0.957389 -0.370888 -0.994335 0.104362 -0.110340 0.365550 -0.061603 0.509693 -0.926537 0.152341 -0.128959 0.984472 0.344417 -0.102452 0.254973 -0.141119 0.243237 -0.893229 0.533388 0.269009 0.392481 0.355497 -0.742755 -0.262851 -0.128033 -0.375028 -0.269894 -0.368552 0.035266 -0.017288 -0.024412 -0.843522
M290 0.022038 -0.021049 -0.343704 0.910709 -1.181192 -0.069367 0.943288 -0.565831 0.102622 0.018222 -0.189810 -0.871661 -0.775630 0.215219 -0.269562 0.534731 -0.316906 0.180066 -0.286804 0.031035 0.073441 -0.557669 -0.632408 -0.176448 0.465496 0.469302 0.694822 0.878239 -0.354390 0.399724 0.954235 0.251439
M351 -0.066230 -1.237087 -0.222574 0.141197 0.510208 0.742698 0.046055 0.096410 -1.211916 -0.935057 0.514600 0.216325 -0.078929 -0.857157 -0.174297 0.326980 0.350614 -0.788076 -0.115352 0.339740 0.112723 0.113655 -0.083376 -0.383085 -0.370456 0.349951 0.504163 0.726268 -0.144749 -0.060550 0.250004 -0.551068
M356 -0.254707 -0.638600 -0.703252 0.536418 0.525799 0.665027 0.509722 0.284524 -0.035711 -0.232579 -0.792964 0.067426 0.106343 0.853124 0.380961 0.467198 0.960345 0.163796 0.756619 0.548034 0.044231 0.483134 -0.809936 -0.487733 1.257126 -0.743996 0.210253 -0.723426 -0.337727 0.221514 -0.435641 0.842876
M393 0.408264 -0.124503 -0.198427 0.270569 -0.412341 1.478203 -0.191935 -0.727307 -1.562208 0.182673 -0.251117 -0.088873 0.570755 1.016870 -0.067608 0.368938 0.075859 -0.431776 -0.402619 -0.809013 0.165655 -0.361520 0.191499 0.241670 1.018239 -0.587218 0.031907 -0.399704 -0.189623 0.759119 -0.303744 -1.080593
1(N39B@C) -0.258153 0.146245 -0.237752 -0.073033 0.076633 0.252339 0.160546 -0.092925 -0.390374 -0.781012 0.081032 0.010375 0.656973 -0.052767 0.007652 -0.065385 0.178158 -0.213305 -0.264244 0.188248 0.007329 0.407093 -0.276241 0.417823 -0.170918 -0.095275 0.022213 0.103948 0.107528 -0.046119 0.421532 0.518029
5(N23) 1.093006 -0.216464 1.141137 0.047272 -0.546951 0.760744 0.157372 -0.759395 0.096631 -0.473790 0.288317 -0.616242 0.020371 -0.703580 0.520880 -0.127507 -0.083078 0.462178 0.129011 -0.721208 0.005092 -0.834686 0.436956 0.013223 0.683885 0.816822 0.090720 0.763511 0.164726 0.610962 0.882738 0.108559
M036+1(N39C) 0.009860 -0.333625 -0.034967 0.877699 0.262884 0.602784 -0.468448 0.217838 -0.156068 -0.281545 -0.909806 -0.052008 0.233561 -0.213564 -0.348421 0.485113 0.064137 -0.990142 -0.525192 0.295158 0.583740 -0.021880 -0.584215 -1.005322 0.262786 0.924383 -0.414912 0.680185 -0.418785 0.752234 0.574849 0.497084
M052 -0.011606 -0.019845 -0.169344 0.110530 0.071151 0.571076 0.149358 -0.238344 -0.516942 -0.590075 -0.023750 0.156196 0.142283 -0.183288 -0.163083 0.328131 0.244797 -0.898838 -0.123863 0.234041 0.069122 0.129580 -0.030810 -0.231389 -0.040258 0.253907 0.066307 0.569294 0.027146 0.795910 0.953063 0.251097
M076 0.605230 0.100345 -0.255723 0.460085 -0.287222 0.598560 0.815083 -0.370229 0.144212 -0.781453 0.350721 0.527919 -0.268326 0.066427 -0.220911 0.184930 -0.064935 -0.143816 -0.197039 0.060091 -0.330277 0.094567 -0.069071 0.182975 -0.065082 0.195499 0.176674 0.536096 -0.260607 0.471336 0.559364 0.013453
M175+M175 0.192708 -0.204237 -0.180434 0.144260 0.101735 0.358820 0.188038 -0.000729 -0.306140 -0.484312 0.005805 0.152045 0.102156 -0.274875 -0.014226 0.125141 0.144367 -0.387745 -0.013132 0.090426 0.030112 0.068160 -0.036289 -0.125533 0.041173 0.071917 -0.073376 0.095491 -0.081625 0.361330 0.468396 -0.025907
M188 0.093279 -0.147684 -0.324620 0.336302 -0.115522 0.266552 0.292647 -0.001694 -0.204833 -0.444697 0.034546 0.020295 -0.221524 0.065266 -0.094109 0.156486 0.327110 -0.244940 0.036302 -0.072726 -0.115910 -0.069727 -0.369177 -0.060236 0.190522 0.053334 0.307340 0.134320 -0.445011 0.359139 0.262472 0.039373
M224 0.161951 0.016739 -0.616072 -0.109115 -0.430360 0.113591 0.209724 0.196647 -0.334709 -0.443090 0.623767 0.470227 0.887937 -0.275098 -0.160904 -0.722638 -0.045928 -0.667615 0.848563 0.642303 -0.012943 0.060697 0.129478 -0.556501 -0.346047 0.246797 -0.565561 0.334610 0.037654 0.395035 -0.371486 0.025531
M294 0.073392 -0.118697 0.026997 0.453959 -0.407925 0.883052 0.511004 -0.088157 -0.677045 -0.730121 0.558548 0.192858 0.256406 -0.182559 0.248633 0.342615 0.264882 -0.414273 0.089755 -0.795220 -0.371047 -0.060297 -0.440557 0.544198 0.063420 -0.382642 0.150329 0.142901 0.025927 0.305716 0.635277 -0.634432
M342 0.464898 -0.073151 -0.138137 0.678868 -0.409026 0.577079 0.564013 -0.015077 -0.127069 -0.435878 0.207023 0.229371 -0.144936 0.109656 -0.030831 0.066181 0.391861 0.174195 -0.115762 -0.279416 -0.558137 -0.071757 -0.365368 0.162596 0.404849 -0.195519 0.210693 0.030567 -0.087971 -0.080136 0.082761 -0.457601
M351+UNK -0.068833 -0.189810 -0.383684 0.585586 0.019991 0.682674 0.606079 0.103095 -0.259823 -0.903391 0.178949 0.744768 0.450900 0.072336 0.025057 0.162428 0.323816 -0.410816 -0.148042 0.310973 -0.128442 0.198699 -0.240225 -0.042420 0.350335 -0.530371 -0.086748 0.540881 0.117338 0.612509 0.297200 -0.021420
M007 1.062553 -0.310836 0.092093 0.406344 0.019703 0.875764 0.107858 -0.056747 -0.667388 -0.504956 -0.061675 0.119855 0.552896 -0.590585 -0.170010 -0.257813 0.364133 -1.226784 -0.156073 -0.163900 -0.512358 0.448820 -0.374441 -0.531050 -0.313928 0.492484 0.248965 -0.029464 0.408985 0.497776 0.227645 0.130168
M014 0.138043 -0.101042 -0.739927 0.004035 0.459359 0.322292 0.167256 0.259130 -0.250020 -0.110528 -0.777190 -0.000849 -0.160613 0.141457 -0.384917 0.063811 0.385341 -0.698045 -0.064905 0.520020 0.035047 0.123144 0.230541 -0.772943 0.330253 0.379289 0.058169 0.192028 -0.049365 0.835971 0.114119 0.430424
M016 -0.361139 0.183532 -0.588683 1.117824 -0.630953 1.018829 -0.177439 -0.064195 -0.835203 -0.826502 0.624359 -0.214819 0.702376 0.076906 0.044108 0.593479 -0.740355 -0.962165 -0.004415 0.094993 0.385398 0.168725 0.258697 -0.378321 -0.127755 -0.126657 -0.286280 1.456067 -0.508900 0.822812 0.805134 0.375377
M126 0.112034 -0.121127 -0.188006 0.313509 -0.021206 0.241150 0.349224 -0.000959 -0.271638 -0.388274 -0.020559 -0.150629 -0.087757 0.114721 -0.093493 0.215748 0.166027 -0.115238 0.308475 0.088344 0.020938 0.069099 -0.357932 -0.264479 0.485409 0.238700 -0.103690 0.005071 -0.108021 0.153312 0.343662 -0.160586
M141 0.684751 0.024347 -0.204357 0.907095 -0.005723 0.910632 0.016106 0.011053 -0.686136 -0.356016 0.388293 0.721410 -0.024739 0.135200 -0.433350 0.219245 -0.326162 -1.494487 -0.251591 -0.121570 -0.159016 0.551909 0.430538 -0.203710 0.155228 0.245184 0.006999 0.547840 -0.426129 0.697808 0.141247 -0.273480
M150 -0.055756 0.455547 -0.231650 -0.733196 1.210288 -0.714161 -0.524814 0.511414 -1.013017 -0.205674 -0.315087 -0.064432 0.352078 -0.261582 -0.609884 0.041137 0.236678 0.082309 -0.427800 0.921320 0.830649 0.123586 0.398937 -0.568083 0.171065 0.148515 -0.137228 0.722920 -1.371195 0.565362 0.619312 0.725940
M157+M288 0.004461 -0.563106 -0.235469 -0.019329 0.225323 -0.109126 0.774442 -0.177944 -0.225460 -0.543775 0.115741 -0.096405 0.052812 -0.673360 0.109943 -0.046423 0.212116 -0.473326 0.245488 -0.169929 -0.284711 0.249288 -0.144705 -0.125313 0.365209 0.152387 -0.212476 -0.181231 0.530942 0.092726 0.404442 0.082049
M175+M153 0.229537 -0.299201 -0.227851 0.228656 -0.092434 0.408284 0.063498 0.056188 -0.441536 -0.355596 0.142173 0.206745 0.047982 0.022923 -0.207218 0.156009 0.156657 -0.614985 0.014307 0.055069 -0.065371 0.152842 -0.060672 -0.014823 0.087935 0.274358 0.214024 0.245964 -0.092267 0.396178 0.165349 0.012414
M218+UNK -1.462903 -1.214211 -0.773317 -0.102828 0.983176 0.234060 0.518889 0.432211 -0.926671 -1.507849 0.141423 0.402489 -0.669286 -0.022106 0.604396 0.532576 0.796688 0.769115 -1.302897 0.004884 -0.103115 0.172386 -0.269553 0.706451 0.225888 -1.056525 0.207210 -0.410470 -0.549394 0.230094 -0.041863 -1.041777
M228+M101 -0.212852 -0.340933 0.018726 -0.061322 -0.149421 0.189277 0.281325 -0.095290 -0.657746 -0.654446 0.013010 0.661438 -0.088740 0.039199 0.244257 0.390658 0.202371 -0.338312 -0.080160 0.385233 0.270106 0.241072 -0.115643 0.426928 0.166481 0.174137 0.111090 -0.001504 0.049984 0.466955 1.039662 -0.236522
M228+M320 -1.080574 0.441910 -0.065079 0.052689 -0.652605 0.199139 0.273649 -0.348570 -0.369261 -0.047545 -0.063777 1.346624 0.663206 -0.716326 0.009659 -0.144516 0.648597 -0.022115 -0.169150 0.940641 0.198595 0.072064 0.177052 0.393513 -0.965472 0.651454 0.767240 0.725628 0.328382 -0.525608 0.060826 -0.155539
M244 0.242298 -0.222067 -0.075224 0.235289 0.048945 0.454033 0.121799 -0.200799 -0.384062 -0.575305 0.169251 0.035379 0.066836 -0.282470 -0.239628 0.230589 0.284611 -0.618750 -0.102963 0.039098 -0.066295 0.129215 -0.005336 -0.190399 0.005646 0.293647 0.086059 0.469217 -0.071492 0.628939 0.522130 -0.030554
M271 -0.098270 -0.037445 -0.671721 0.245376 -0.002706 0.123290 0.299505 -0.355188 -0.021304 -0.338522 0.022508 0.105325 -0.344330 0.229964 0.236410 0.117739 0.388573 0.016294 -0.318543 0.114138 -0.121968 0.029600 0.232581 -0.195811 0.189064 -0.105670 0.637761 0.320796 -0.078197 0.805861 0.266405 0.551149
M305+M009 -0.042791 -0.841392 -0.454112 0.489176 -0.630176 -0.195205 0.090376 0.379612 -0.322477 -0.826624 0.763749 0.551789 0.070324 -1.411845 0.008893 -0.466014 0.108575 -0.009973 0.165255 -1.869490 -1.146217 0.070696 -1.056986 -0.046817 -0.146241 -1.032529 -1.048006 0.086568 -0.515492 0.065549 -0.068397 -0.556246
M305+M320 0.016015 -0.272568 0.106611 0.274215 0.591116 0.256795 0.059535 0.314815 -0.059197 -0.531946 0.255791 0.122424 -0.137536 -0.132669 -0.098888 0.257350 0.032088 0.019594 -0.295960 0.014761 0.371666 -0.014179 -0.547796 -0.320884 0.276116 0.106187 0.061939 0.244851 -0.342421 0.253214 0.506201 -0.203267
M359 0.430311 -0.989006 0.142447 -0.212941 0.026053 -0.035922 0.119898 0.254408 -0.474480 -0.339168 0.279688 -0.389656 0.456965 -0.666683 -0.556248 0.157859 0.724385 -0.287630 0.687435 0.097778 -0.356235 -0.140384 -0.581514 0.266446 0.755523 0.073258 -0.045642 -0.174196 0.039458 -0.028544 0.264329 -0.384033
