UNK 0.393036 0.266890 0.541308 -0.135433 -0.012895 -0.408214 0.752987 0.439606 1.171655 0.554268 0.625176 -0.282353 0.614262 -0.708622 0.970595 -0.220296 0.452328 0.822136 -0.957079 0.085384 0.086426 0.657259 0.367105 -0.724154 0.870379 -0.460570 -0.462300 1.301538 -0.274016 -0.517132 -0.411277 -0.260422 -0.444624 0.469018 0.530483 0.029619 0.636587 -0.053902 -0.192789 -0.137051 -0.501786 -0.505061 0.285987 -1.181757 0.183579 -0.317031 -0.313344 -0.572046 0.558316 -0.258329 0.682579 0.287416 -0.297350 0.386933 -0.256233 0.445742 -0.796087 -0.181266 0.863237 -0.216125 0.590868 -0.867478 0.527019 1.180757 -0.812471 0.973488 -0.067102 0.388943 -0.076126 -0.317313 -0.075811 0.696041 -0.534493 -0.192449 0.484574 0.182645 0.051523 0.384716 0.373620 -0.387205 -0.494344 -0.646114 1.118168 0.266894 0.611101 0.234496 -1.441381 0.259690 -0.177694 -0.193771 0.461143 -0.486936 -0.541958 0.338923 -0.358008 -0.457074 -0.117937 0.442003 0.133254 -0.339922 -0.311176 -0.650407 0.308639 0.091291 -0.458686 -0.271876 0.257034 -0.061017 -0.851950 -0.107091 -0.482974 0.248049 -0.625498 -0.270801 -0.732398 0.533569 -0.629495 -0.328533 0.720619 0.262792 0.452293 -0.047066 0.777431 1.231818 -0.062882 -0.543488 0.679555 1.073437
1(N01) 0.638445 0.330600 0.443974 0.340491 -0.247707 -0.197970 0.495632 0.391020 0.316003 -0.064027 -0.262542 -0.095378 0.195838 -0.171106 -0.245122 0.446627 0.179124 0.577466 -0.351685 0.181751 0.264971 0.253513 0.464139 -0.657295 0.395416 -0.297972 -0.462688 0.210753 0.008042 0.160534 0.209885 0.112787 0.083339 0.139609 0.255265 0.542947 0.192694 -0.081986 0.451098 -0.305307 0.182361 -0.136229 0.411482 -0.605517 0.551377 0.161293 -0.317547 -0.204554 0.185643 -0.796095 -0.451435 -0.240975 0.228427 0.456084 0.057146 0.519852 -0.499833 -0.358820 0.465698 -0.253327 0.523225 -0.098694 -0.007268 0.170463 -0.257454 1.112288 1.077388 0.484741 -0.431958 -0.280220 -0.715123 0.025683 -0.460418 0.490435 0.788282 0.044461 0.049657 -0.339311 0.590423 0.436647 -0.378685 -0.406604 0.149164 -0.125543 0.291961 0.013330 -0.149168 -0.217666 -0.122502 0.026044 0.321246 0.341594 -0.087787 0.339267 -0.594612 -0.055620 -0.020602 -0.273260 -0.189170 0.110690 -0.666874 0.134971 0.215826 -0.043288 -0.002105 -0.157479 -0.321856 -0.191980 -1.203205 -0.169259 -0.358619 -0.361363 -1.027148 0.309684 -0.964006 0.513713 -0.696945 -0.047263 -0.607162 0.095181 0.604178 0.411547 0.285468 0.466863 -0.321020 -0.320965 0.462377 0.766952
2(N01) -0.049193 0.090690 0.386894 -0.008296 0.160508 -0.659759 0.647605 0.423605 0.917140 0.065974 -0.116439 -0.744316 -0.003849 -0.151480 -0.341933 -0.004463 0.435422 -0.299670 -0.025730 0.077383 0.165609 0.118340 0.459225 -1.405514 0.376406 -0.092335 -0.439457 0.833244 0.100492 0.455307 -0.791497 -0.577876 0.058872 -0.050691 -0.168743 0.054831 0.400116 -0.015667 -0.302675 0.327221 -0.151141 -0.226886 -0.558224 -0.511733 0.125406 -0.124267 -0.085721 -0.182663 0.361045 0.465585 0.338438 0.408788 -0.345345 -0.406545 0.147116 -0.108365 -0.665177 0.152160 0.055861 -0.045915 0.334394 -0.189676 -0.041935 0.254858 0.189609 0.031971 0.420356 0.324427 -0.224989 -0.454005 -0.401791 0.365410 0.687538 0.086996 0.429041 -0.338514 0.194270 0.355132 0.471078 -0.292811 -0.233703 -0.792374 -0.255917 0.359617 0.129270 0.607840 -0.803486 -0.015987 -0.170706 0.316023 0.091373 -0.699554 0.272340 0.535441 -0.811705 0.202522 0.751908 -0.470036 0.043152 -0.247932 -0.353657 0.089074 -0.194312 -0.391083 -0.697522 0.382468 -0.071820 0.213513 -0.763596 -0.548473 0.021798 0.428342 -0.880406 0.386751 -0.213866 -0.114728 -0.375035 -0.628391 0.060567 -0.179931 0.126418 -0.726513 0.466182 0.914770 -0.434595 -0.834978 0.081743 0.377739
1(N14) 0.467712 0.348155 0.196703 0.054113 0.175278 -0.966752 0.324366 0.569594 0.837561 0.031078 -0.124896 -0.130582 0.773999 -0.455314 0.211362 -0.275130 0.113774 0.211201 0.172357 -0.263886 0.518207 0.403018 0.399605 -0.432507 0.596328 -0.514459 -0.691099 0.950831 -0.224655 0.464883 -0.781292 -0.394100 -0.035239 0.318378 -0.396583 -0.044005 0.347049 0.108907 -0.252824 -0.089315 -0.434020 -0.613834 -0.783201 -1.109326 0.458531 0.207445 -0.835549 -0.397213 0.214451 -0.237654 0.040747 -0.320624 -0.773095 0.010990 -0.194751 -0.233325 -0.038169 0.172374 0.385117 0.483400 0.192341 -0.045136 0.178279 0.463237 -0.092951 0.371479 0.818631 0.063846 -0.754551 -0.670582 -0.379132 -0.092505 0.422681 0.172081 0.342248 0.635502 0.088065 -0.108900 -0.129684 0.041683 -0.092228 -0.418169 0.177568 -0.226349 -0.695934 0.777388 -0.553468 -0.357353 -0.569768 0.375068 0.432121 0.269970 0.130025 0.281424 -0.824711 0.354968 -0.396604 -0.453552 -0.328740 -0.770324 -0.146281 0.020624 0.724143 -0.058060 0.492311 0.040511 -0.377356 0.261441 -0.440738 -0.392582 0.059541 -0.019392 -0.303924 0.424010 -0.650479 -0.114755 -0.347940 -0.225045 -0.282380 0.015152 0.480769 -0.239645 0.062507 0.139165 0.215331 -0.273199 0.189057 0.372602
M288 0.216112 0.465971 -0.111507 -0.635317 0.366933 -0.646456 0.713131 0.459616 1.122244 0.230537 -0.065210 -0.731716 0.771012 -0.119624 -0.106948 -0.473856 0.169616 0.102017 -0.375599 0.020277 0.723201 0.233437 0.601459 -1.101347 0.695995 0.544238 -0.458366 1.098173 -0.732792 0.126194 -0.720390 -0.333197 0.185255 -0.222957 -0.119560 0.688520 0.368164 0.332651 -0.265510 0.124973 -0.424992 0.166474 0.110659 -0.074312 0.286175 0.063157 -0.547951 -0.659857 0.245838 0.563672 0.513178 -0.252523 -0.129619 -0.482119 -0.050963 0.171739 -0.308478 -0.734655 0.235579 0.138252 0.293354 -0.390660 -0.005211 0.264204 -0.055867 0.741029 0.033692 0.073196 -0.234134 -0.432021 0.008874 0.046353 0.593556 0.305736 -0.078560 0.041622 0.675839 -0.498171 0.090433 -0.211180 0.390646 -0.141293 0.435983 -0.543562 0.128850 -0.254584 -0.531781 0.078848 0.202815 0.720640 0.219216 -0.471344 0.097814 0.336899 0.062509 0.311343 0.438711 -0.171879 0.106361 -0.466812 -0.087343 0.094593 0.202411 0.244402 -0.352850 0.209525 0.172243 0.240826 -0.806441 -0.366525 -0.127407 -0.049297 -0.583057 0.258762 -0.915300 0.298666 -0.410563 0.109288 -0.105886 -0.124384 0.165879 0.256984 0.275322 0.746499 0.432699 -0.459483 0.014044 0.149349
3(N01) -0.220812 0.409571 0.568787 0.594487 0.577160 -0.970883 0.129341 0.405022 0.874000 -0.442576 -0.456123 -0.266088 0.597399 -0.334314 -0.217304 -0.047319 0.331154 0.330989 -0.925105 0.431604 -0.370792 0.446333 0.807965 -0.647795 0.528387 -0.444659 -0.659467 0.529535 -0.799641 0.207544 -0.575350 0.327697 0.282953 -0.125680 -0.027162 0.987113 0.453009 -0.167480 -0.229347 0.261062 0.016649 0.049167 -0.263785 -0.615278 0.258463 -0.242802 -0.258769 -0.473001 0.623764 -0.082101 0.401241 -0.042589 -0.668273 -0.602995 -0.441280 -0.465915 0.109196 -0.394647 0.171764 -0.012876 0.545258 -0.492824 -0.318208 0.234036 -0.361534 0.012679 -0.001149 0.217045 0.225942 -0.581428 -0.726488 -0.303668 0.138125 -0.218541 0.203533 0.544672 0.392576 -0.438259 -0.022809 0.097802 -1.009341 -0.319075 -1.060859 0.226599 -0.071416 0.538782 -0.074944 -0.113856 -0.659443 0.530268 0.149756 0.381180 0.272752 0.441045 -0.189714 -0.366529 0.284167 0.027869 -0.021892 -0.569811 0.234327 -0.204854 0.058129 -0.066722 -0.021217 0.384747 0.869384 -0.067179 -0.226282 -0.483985 0.465138 -0.015229 -0.496100 0.525138 -0.183137 0.619473 -0.335121 -0.694544 -0.355163 0.210313 0.225882 -0.430743 -0.000830 0.692746 0.419780 -0.771722 -0.053290 0.093797
M388 0.235090 0.248156 0.175895 -0.184070 0.164250 -0.023899 -0.034846 -0.167199 0.793984 0.031898 0.419954 -0.040600 0.762776 0.566268 -0.252145 -0.015192 0.153299 1.104478 0.504303 0.322465 0.436790 0.592060 0.739194 -0.395196 -0.092190 0.012305 -0.121364 0.793372 0.114755 -0.674367 -0.212395 0.713401 -0.137817 0.519095 0.116229 -0.288198 -0.091537 0.100104 0.230176 0.153292 0.317860 0.019730 0.754052 -0.716576 0.150679 0.242631 -0.343191 -0.339955 0.626604 -0.210318 0.026033 0.221298 -0.672321 0.386231 -0.143061 0.278222 0.317101 0.111281 0.752869 -0.221916 0.261227 0.060821 0.164424 0.820068 0.507740 0.345635 0.304259 0.541871 -0.222664 -0.865023 -0.300587 0.660610 0.450954 0.065959 -0.063804 0.144917 -1.056969 -0.253089 0.302396 0.086590 -0.115714 -0.371637 0.626701 0.321932 0.590393 0.320694 -0.477203 0.058684 0.363796 -0.308674 0.048711 -0.110753 0.425219 0.682051 0.165995 -0.266628 -0.252974 -0.797493 0.429402 -0.108739 0.055526 -0.088213 0.503577 0.445328 0.130897 -0.077498 -0.053446 -0.264839 -0.544684 0.070873 -0.036815 0.873257 -0.216112 -0.390381 -0.480396 -0.717004 0.133677 -0.403418 0.043505 -0.222787 0.350159 -0.269995 0.433451 0.239468 0.290534 -0.422014 -0.124862 0.475294
1(N24) -0.163263 0.352308 0.436315 -0.632774 0.668699 -0.390255 0.235627 0.094407 0.279913 0.471639 -0.857140 -0.569950 0.157557 -1.202855 0.154803 -0.222697 -0.479557 -0.427167 -0.561726 0.704630 -0.076117 0.102931 -0.194106 -0.355122 0.070621 0.249223 0.112754 0.565983 0.043192 0.168435 -0.030177 -0.822077 0.866521 -0.692075 0.615325 0.863651 0.336472 1.063886 0.672240 -1.089619 -0.177585 0.182844 0.401471 0.171633 0.038946 0.305286 -0.681279 -0.174712 -0.429968 -0.407152 0.348359 0.742470 0.098877 -0.693281 0.098797 -0.024204 -0.155053 0.634963 0.673459 0.414345 0.284189 0.467620 -0.223796 0.673218 0.491237 1.008797 -0.140930 0.092215 -0.305164 0.195965 -0.344849 0.200455 0.326973 1.152329 0.485477 -0.319344 1.016783 -0.347286 0.750667 -0.346852 -0.163676 -0.223453 0.154827 -0.051231 -0.442275 -0.465489 -0.209536 -0.263384 0.491361 1.153377 0.254574 0.081194 1.246372 -1.039944 -0.278493 0.188561 0.321671 0.442175 -0.001510 -0.264300 -0.277622 -0.629495 0.068995 -0.571568 0.302967 -0.149486 0.419580 -0.006789 -0.204812 -0.013920 0.180043 0.756404 -0.237649 0.587721 -0.317373 0.917158 -0.542188 -0.118726 -0.128572 0.235929 -0.043635 0.072216 0.874520 1.027687 -0.023102 -0.509820 0.418080 0.581407
M218 0.382130 0.194553 0.884908 0.038497 0.468801 0.223665 0.561119 0.482502 0.572086 -0.115860 -0.123399 -0.149842 -0.113368 0.016280 0.039144 0.749647 0.544741 0.479744 -0.323192 0.083943 0.571465 0.318006 0.995373 -1.093938 0.149433 0.070877 0.015363 0.775598 0.119624 -0.675740 -1.161539 0.559561 0.246881 0.070137 -0.623671 -0.271551 0.096197 -0.069707 -0.039839 -0.675973 0.212357 0.444390 0.236220 -0.533825 -0.119306 0.656145 0.096635 -0.862392 0.231643 -0.062248 0.829621 0.161030 0.475670 0.042809 -0.073066 0.707084 -0.734343 -0.076833 0.407302 -0.406990 0.743723 0.414315 0.242222 0.684988 0.182415 0.285972 0.665784 0.353517 -0.280161 -0.717914 -0.112460 0.270703 0.435314 0.199188 0.276124 0.333692 -0.365803 0.215991 -0.140098 0.023283 -0.036217 0.023531 0.524046 -0.454020 0.779004 0.309161 -0.110320 -0.431242 0.265254 0.294549 0.558204 -0.345582 -0.050223 0.176072 -0.580181 0.251464 -0.358277 -0.273864 -0.113356 0.041486 -0.363231 0.321199 0.762456 0.259001 -0.074425 0.377828 0.521524 -0.427384 -0.732849 0.380705 -0.093050 -0.091097 -0.535584 -0.231891 -0.540559 0.091709 -0.715081 -0.331790 0.169314 0.242230 0.351066 -0.033093 0.518127 0.679156 0.230153 -0.130166 -0.436074 0.640317
M387 -0.061669 -0.055598 0.447152 -0.212924 -0.099807 0.005403 0.340018 0.308127 0.630025 0.171764 0.541159 -0.081171 0.028794 -0.274413 -0.266230 0.517999 -0.091223 0.707475 -0.310312 0.391695 0.656818 0.131765 0.229396 -0.213499 -0.363135 0.352656 -0.162181 -0.047808 -0.161636 0.674039 0.159565 0.281806 -0.232110 0.342711 -0.517517 -0.111007 0.247507 0.260004 0.101966 0.119971 0.424948 -0.340910 -0.016663 -0.186956 0.211290 0.554319 -0.204614 -0.663860 -0.159793 -0.948416 0.771992 0.668013 -0.217705 -0.302032 -0.224648 -0.045274 -0.337794 0.643059 0.150325 -0.118919 1.175368 0.053423 0.184570 -0.091802 0.864935 0.796085 -0.132597 0.192589 -0.448791 -1.083302 -0.194079 0.063589 0.465281 0.775366 -0.278771 0.263094 -0.186279 0.015958 0.032889 -0.363300 -0.318657 -0.351963 0.259452 0.564388 0.722125 0.401617 -0.165859 -0.414572 0.274043 0.236654 0.189623 -0.008310 0.255513 -0.191780 0.136623 0.142915 -0.501066 -0.014634 1.003827 -0.628887 -0.070915 -0.226577 -0.174110 -0.400496 -0.628380 -0.033668 0.485091 0.302003 -0.424370 -0.861653 0.006714 0.197619 -1.250443 0.494689 -0.480174 0.283655 0.002202 -0.133426 -0.589987 -0.771104 0.266052 0.620486 0.322199 0.450472 0.269770 -0.285721 -0.062594 0.779498
4(N01) -0.110381 0.419830 0.415495 -0.205596 -0.094930 0.086096 0.002025 0.437502 0.718114 0.531202 -0.066166 -0.269081 0.429770 -0.498396 0.678481 -0.210990 -0.365752 -0.672908 -0.436164 -0.418965 0.071925 -0.380372 -0.103411 0.099008 0.099514 0.929029 -0.545725 1.334607 -0.552079 0.408803 -0.396371 -0.522668 -0.145900 1.175132 -0.765942 0.367611 0.145060 -0.013635 -0.567679 -0.174843 -0.011446 -0.704013 -0.020931 -1.165239 0.083961 -0.161076 -0.711132 -0.106912 0.080576 -0.407382 0.224840 -0.098788 -0.653048 0.533814 0.281514 0.289633 -0.530729 0.449371 0.489776 0.423119 -0.139117 -0.180869 0.084728 0.018316 -0.098364 0.607287 0.035419 0.387320 -1.347841 -0.856975 -0.108647 0.837835 0.198785 0.978964 0.131226 0.105597 0.189904 -0.580617 -0.153546 0.142155 0.483248 0.107014 0.865405 0.217484 -0.292539 -0.476107 0.138920 -0.359791 0.558071 -0.024450 -0.166348 -0.082727 0.392656 0.370437 -0.323977 0.573213 -0.283313 0.364678 0.159814 0.110012 0.083592 0.562903 0.617418 0.190810 0.376684 -0.215081 -0.109473 0.098314 -0.011216 -0.840234 -0.004803 0.422708 -0.069381 0.575864 -0.685981 0.034226 -0.511647 -0.074154 -0.013888 0.144595 -0.165346 -0.210970 -0.002933 0.248244 0.147225 0.209397 0.445018 0.835672
1(N39B) -0.212011 -0.303666 0.288723 -0.070060 -0.463761 -0.672904 0.688519 0.566590 0.702980 -0.044448 0.165367 -0.331417 -0.196460 -0.561014 0.058312 -0.190986 -0.814357 -0.470068 -1.065695 0.810569 -0.865997 -0.140654 0.238866 -0.008649 0.368753 0.494840 -0.372177 0.055510 -0.519173 -0.406884 -0.157668 -0.291071 0.429335 -0.361815 0.053104 0.591116 -0.010007 0.683110 0.036855 -0.183538 -0.057825 0.500305 -0.141092 -0.330710 0.368421 0.665676 -0.373661 -1.088803 0.100620 -0.042554 0.314444 0.402577 -0.167140 -0.647571 0.345346 0.374492 -0.705635 -0.316267 0.445626 0.035513 0.358100 0.211140 -0.247364 0.429962 0.238953 0.695326 -0.336444 0.130220 -0.820080 -0.063425 -0.253327 0.268117 0.054017 1.248200 0.615475 -0.314153 0.194751 -0.063990 0.837069 -0.027526 -0.206921 0.159852 -0.545959 0.296592 -0.321206 0.134729 -0.092414 -0.415707 -0.244422 -0.397046 -0.015883 0.117002 -0.031284 -0.433779 -0.919116 0.232804 -0.098781 0.064531 -0.668546 -0.684769 -0.116486 0.248223 -0.056065 -0.440580 -0.377315 -0.285058 0.208562 0.123990 -0.390004 -0.627937 -0.206576 -0.123014 -0.730469 0.532009 0.384294 0.689433 -0.639957 -0.214531 0.129181 0.177838 0.370237 0.276337 0.409054 1.025692 0.048653 -0.421880 0.519717 0.032786
2(N39B) 0.403850 0.434892 0.508551 -0.262133 0.394110 -0.419181 0.345950 -0.314744 0.447307 0.392017 -0.429910 -0.200788 0.110013 0.129076 -0.751531 -0.044199 0.077385 0.030375 -0.775273 0.389716 -0.005827 -0.428718 0.017044 -0.199346 0.220114 0.268097 -0.070337 0.706128 -0.428382 0.155668 -0.266978 -0.545995 0.013023 0.000896 0.485200 0.372127 -0.168699 0.063638 -0.046092 -0.816154 0.022768 0.532172 0.485378 0.002165 0.163507 0.095987 -0.499015 -0.132087 -0.477223 -0.116767 0.266948 0.394685 0.104702 -0.303685 0.436028 0.162799 -0.151658 0.147989 -0.070655 0.976272 0.480878 -0.409731 0.108504 0.249400 -0.366376 0.883524 -0.276009 -0.144961 -0.424808 -0.385168 -0.089971 0.281343 -0.184423 0.602905 0.090211 -0.187774 0.571269 -0.563792 0.866804 -0.401591 -0.481249 0.013596 -0.193837 -0.092442 -0.598383 -0.127040 -0.321317 0.120009 0.542311 0.869067 0.467468 -0.030938 0.762785 0.102272 -0.499866 0.261400 -0.028914 0.010367 -0.148135 -0.813649 0.151680 -0.254119 -0.387054 -0.658043 -0.081362 -0.074679 0.395787 -0.132354 -0.102165 -0.758583 0.544496 0.426928 -0.439730 0.435637 -0.349064 0.717051 -0.403003 -0.316499 -0.062189 -0.185735 0.030519 -0.128290 0.545578 1.122088 -0.090116 -0.341243 0.973601 0.034434
5(N01) -0.192754 0.388855 0.124557 -0.332567 0.307182 -0.676275 0.150834 0.091981 1.239157 0.049308 0.156081 0.116558 0.627259 -0.240910 -0.183140 -0.425774 0.542934 0.319185 -0.161647 0.149069 -0.040537 0.226606 0.567016 0.711251 0.410339 0.252073 0.314529 0.933324 -0.925185 0.186524 0.013716 -0.936165 0.040323 0.296982 -0.063179 0.354279 -0.037052 0.508475 -0.088711 0.118037 -0.136224 -0.070001 -0.675422 -0.174099 0.211098 0.180480 -0.588669 -0.712909 -0.141181 -0.424518 -0.022632 -0.462323 -0.736020 -0.379231 -0.168644 0.281071 -0.236669 -0.032995 -0.207082 0.955377 0.589808 -0.227605 0.262326 -0.122484 -0.418795 0.185927 -0.557456 -0.111123 -0.865907 -0.522055 -0.427044 0.163110 0.508075 0.394514 -0.035051 0.519235 0.564897 0.528257 0.378576 -0.262044 -0.324925 -0.041101 0.320094 0.119973 -0.154227 -0.154964 -0.109055 -0.467684 0.173882 0.438920 0.779699 -0.027597 0.176987 -0.064424 0.012212 0.630009 -0.205541 0.296369 0.066274 -1.387630 0.473737 -0.448415 0.110533 -0.210858 0.985026 0.437047 -0.493544 -0.178939 0.304824 -0.549552 -0.267581 0.316576 0.174108 0.312027 0.097958 -0.513285 -0.474217 -0.271024 0.079001 -0.288225 0.099077 0.614467 -0.247202 -0.028443 0.360775 -0.169880 -0.732306 0.419287
M297 -0.007186 0.113102 0.821118 -0.076807 0.208043 -0.522987 0.662979 0.090441 0.602833 -0.333412 -0.082560 -0.112172 -0.072677 -0.122439 -0.358554 -0.403588 -0.156672 -0.135581 -0.059519 0.962305 -0.276256 -0.079676 0.138703 -0.218518 0.037293 0.060570 -0.837970 0.509903 -0.214331 0.179685 0.112975 0.315677 -0.092612 -0.160964 -0.184615 0.322954 0.177030 0.284763 -0.189718 -0.568196 -0.081273 0.227777 0.699939 0.051932 0.084357 -0.267119 -0.635383 -0.468719 0.613856 -0.488530 -0.241775 0.162285 -0.084760 -0.109318 -0.037271 0.222407 0.046806 0.114696 0.280848 0.153630 0.574867 -0.101468 0.196589 0.368293 0.006365 0.459907 0.504214 0.001231 -0.311488 -0.222692 -0.454059 0.492771 -0.400038 0.565945 0.268082 -0.068447 0.290515 -0.294663 0.800790 -0.176551 -0.281124 -0.466651 -0.392170 0.340357 -0.059411 -0.206785 -0.249469 -0.488376 0.401067 -0.035632 0.135174 0.539673 0.166198 0.217790 -0.029557 0.184917 0.178244 -0.607570 -0.070273 -0.650421 -0.041093 -0.391396 -0.164197 -0.222289 0.032475 -0.156503 -0.109549 -0.095434 -0.243079 -0.033613 -0.058442 0.041776 -0.601253 0.351551 0.263874 0.404637 0.024603 -0.417734 -0.126542 0.018999 0.513145 0.372048 0.273916 0.905778 -0.325371 0.009325 0.384733 0.809574
M263 0.283749 0.426670 0.530749 0.118370 0.259206 0.437363 -0.246776 0.351619 0.476337 -0.031279 0.220488 -0.125820 0.121391 0.065059 -0.698531 0.846270 0.424661 0.559410 0.005897 -0.280842 0.186063 0.536614 0.278883 -0.657194 0.111577 -0.381468 0.279692 0.372052 -0.047665 0.065303 -0.037079 0.091914 -0.241560 0.639565 0.593034 0.887226 -0.003369 0.496002 0.624475 0.423864 1.090650 0.451678 0.253932 -0.216551 0.025110 0.191990 0.352539 -0.539552 -0.099928 -0.434033 0.251255 0.304304 0.097999 0.275148 -0.240955 0.162727 -0.551119 -0.422415 0.727132 -0.179005 0.740412 0.147611 -0.193269 0.480631 0.625429 -0.130469 -0.212804 0.654939 -0.088006 -0.704610 -0.029565 -0.048162 -0.118046 -0.540955 0.615559 0.329826 -0.021651 0.831698 0.355599 0.012809 -0.102174 -0.093672 0.061651 -0.086497 0.618832 0.186659 -0.815906 0.062141 -0.334752 0.849125 0.707761 -0.286301 0.238996 0.342499 0.088900 0.405356 -0.152163 -0.052101 0.272621 -0.051227 -0.282427 0.523294 0.063135 -0.062818 -0.256222 0.347466 0.606753 -0.363338 -0.412413 -0.510378 0.335454 0.356913 -0.572402 -0.326112 -0.790879 -0.055789 -0.680916 0.062281 0.240978 -0.035469 -0.343036 0.003285 -0.024663 -0.068617 0.317978 -0.145896 -0.566161 -0.109838
2(N14) -0.168198 0.198337 -0.092421 0.633729 0.409971 -0.080187 0.107018 0.464363 0.803688 0.492456 0.193467 -0.357698 0.474578 -0.047676 0.492427 -0.138287 -0.096586 0.016977 -0.129785 -0.752674 -0.173389 0.232920 0.818213 -0.329257 0.213394 0.681582 -0.724438 1.167743 -0.695936 0.488948 -0.812414 -1.056168 -0.142846 0.384786 -0.149277 0.188244 0.421211 -0.133047 -0.160003 0.306681 0.032474 -0.178186 -0.377872 -0.551397 0.343180 -0.618708 -0.426541 -0.040761 0.221326 0.091227 0.536455 -0.635694 -0.405750 -0.038308 0.032078 0.061894 -0.734372 -0.263087 -0.336793 0.172251 0.816897 -0.380733 0.362815 -0.133297 -0.589387 0.619434 0.259533 0.207796 -0.032359 0.019774 -0.063739 0.066450 0.272158 0.693703 -0.312558 -0.134189 0.445897 -0.857776 -0.044337 0.062402 -0.460604 -0.196183 -0.504624 -0.197376 -0.046317 0.088778 0.049318 -0.404362 0.215837 0.129289 0.040557 -0.241675 0.528100 0.429516 -0.159196 0.697638 -0.124979 0.163790 0.136685 -0.094873 -0.098642 -0.210699 -0.080407 0.270897 0.311132 -0.012836 0.109882 -0.036597 -0.407392 -0.695472 0.416846 -0.566347 -0.551266 0.598243 -0.221212 -0.021109 -0.319657 -0.202554 -0.111438 0.018794 -0.036365 0.273109 0.092268 0.750338 0.249840 0.159814 0.100347 -0.063764
M157 0.265753 -0.035165 -0.304799 -0.095756 0.431372 -0.150076 0.163661 -0.185711 0.110630 -0.475724 -0.344691 0.177866 -0.103340 -0.376516 -0.040058 -0.351312 0.070387 -0.238715 -0.280148 0.353901 0.227422 -0.177765 -0.146777 -0.178641 0.258719 0.003361 -0.626595 -0.126415 0.399642 0.196129 0.192807 0.545508 -0.473006 -0.717478 -0.416073 0.342228 -0.203290 0.035110 0.065025 0.009817 -0.464787 0.223241 -0.012002 0.081160 -0.181219 0.515679 -0.373202 -0.671819 0.365983 -0.103657 0.066416 -0.461592 0.182328 -0.010140 0.261633 -0.108345 0.702280 0.197727 0.089055 -0.032274 -0.446416 0.541050 -0.038423 -0.104448 0.466923 -0.118170 0.061274 0.084024 -0.250335 0.046959 0.731289 0.227096 0.013768 -0.332358 0.446245 -0.067263 0.168580 -0.071090 -0.416659 0.529604 0.214969 -0.078755 -0.124599 -0.412094 0.014886 0.283807 -0.195282 -0.234087 -0.285431 -0.229418 0.203334 0.508852 -0.590391 0.509220 0.193356 -0.183621 -0.216942 -0.371986 0.092680 -0.175712 0.642555 0.176868 0.251460 -0.355206 0.003757 -0.039783 0.425122 0.002806 -0.472524 0.384984 -0.445863 0.221862 0.113210 0.037303 -0.543856 0.172932 0.421249 0.117170 0.188422 0.252841 0.474282 -0.142132 -0.287577 -0.117025 0.260649 -0.103766 -0.363112 0.458773
M371 -0.434369 0.235373 0.555644 0.120756 0.036929 -0.503221 -0.138826 -0.186147 0.856781 -0.199422 0.106287 -0.456143 0.461694 0.235636 -0.435574 0.650071 -0.363048 0.229414 0.067841 0.315350 0.904581 0.692756 0.446017 0.182236 0.095851 -0.509313 -0.229916 0.400785 -0.089330 -0.507501 0.243669 0.209040 0.596173 0.385783 0.077158 -0.057492 0.988233 -0.319477 -0.163433 -0.298218 0.054715 -0.296311 0.346641 -0.253565 -0.158736 0.216367 0.072158 -0.048554 0.587525 -0.248863 -0.502942 0.486273 -0.051541 0.434973 -0.548043 0.471457 -0.444906 -0.100726 0.422740 -0.037079 0.540788 -0.052745 0.459096 0.907248 -0.167120 0.070240 0.451214 0.010531 0.170895 -0.603497 -0.706546 0.413942 0.105659 0.207023 -0.160198 0.927861 -0.325291 0.430017 0.056882 -0.673868 -0.182647 -0.202773 0.816056 -0.236486 0.109823 -0.355931 -0.008503 0.107417 0.068210 -0.059459 0.540627 -0.434876 0.607965 -0.430110 -0.777318 -0.123501 0.106894 -0.246482 0.285532 -0.112162 -0.491628 -0.051134 -0.198179 -0.039661 0.133237 0.367719 0.195475 0.183850 0.171962 0.658504 -0.054628 0.046955 -0.108448 0.648140 0.230845 0.194430 -0.328500 0.165826 -0.427492 -0.254000 0.587607 -0.076826 0.780125 0.199570 0.143347 -0.767524 0.157743 0.247904
1(N30C) -0.026783 -0.107876 0.716183 -0.168595 0.040296 -0.972877 0.273271 -0.104680 0.252792 0.538680 -0.137943 0.506609 -0.566879 -0.771913 0.068441 -0.315143 -0.481162 -0.399286 -0.206979 0.665843 -0.652705 -0.188849 -0.031705 0.734601 0.276903 -0.037474 -0.554992 -0.012904 0.360350 0.039459 0.482982 -0.650430 0.183450 -0.346403 -0.006291 0.221585 0.303815 0.494258 0.474418 -1.035582 0.123924 -0.065194 -0.407496 -0.069642 -0.212867 0.358084 0.033155 0.002862 -0.309212 -0.293756 0.183938 0.752147 -0.071892 -0.032799 0.354600 0.277900 -0.066023 0.473933 0.239355 0.592410 0.303261 -0.125909 0.442596 0.326386 -0.082953 0.199869 -0.470559 0.025435 -0.150125 0.282809 -0.376995 0.104379 -0.132681 0.574037 0.519830 0.092289 0.834056 -0.138073 0.427807 -0.542351 -0.360337 0.095875 -0.279535 0.260391 -0.039902 -0.176177 -0.013801 -0.649670 0.099071 0.192533 0.164665 -0.064454 -0.240518 -0.045623 -0.339482 0.092936 -0.383555 -0.069643 -0.372327 -0.462840 -0.144756 -0.476707 -0.523803 -0.558574 -0.488147 -0.659057 0.036603 0.220246 -0.071314 -0.248902 -0.175335 0.431289 -0.398075 1.306034 -0.048514 0.776392 -0.466192 0.158479 -0.067971 0.323273 0.465831 0.356653 1.016236 0.828993 -0.210891 -0.029975 0.648073 0.505999
M124 -0.068963 0.295988 0.832958 -0.022283 -0.133307 -0.066020 0.355178 0.094952 0.591497 0.207155 0.175585 0.249433 -0.323989 -0.057909 -0.099551 0.397819 0.398345 0.211243 -0.066026 0.236788 0.466378 -0.009513 0.279708 -0.292385 0.082287 -0.573324 -0.262844 -0.038365 -0.196892 0.094482 -0.346847 0.522733 0.469037 0.229600 -0.270701 -0.474208 0.248096 -0.133721 0.200290 0.436300 0.373928 -0.293485 0.381587 -0.319142 0.329472 0.161495 0.057326 -0.075979 -0.022558 -0.832985 -0.121649 -0.322004 0.421212 -0.185721 -0.191299 0.510644 -0.653822 -0.014012 0.016158 -0.582777 0.766542 -0.624452 0.124790 0.443759 0.050981 0.306645 0.716644 0.263857 -0.107028 -0.512528 -0.896632 -0.333539 -0.077280 -0.100381 0.029178 0.425821 0.367571 0.311266 0.006712 0.248246 0.470881 -0.064418 0.162785 -0.160308 0.766795 -0.189367 -0.033934 -0.325822 0.316968 0.219646 0.393838 0.036366 -0.261473 0.313522 0.070110 0.080048 -0.158458 0.132054 0.124420 0.309586 -0.208370 -0.001755 0.441082 0.357459 0.047639 0.565464 0.002685 -0.280887 -0.686647 0.070457 0.171250 -0.178091 -0.642370 0.009481 -0.251440 0.133453 -0.524530 0.022007 -0.347805 -0.208404 -0.271367 0.271582 -0.068935 0.123794 -0.397743 0.101590 0.265141 0.334848
M054 0.062348 0.179872 -0.109222 0.051004 -0.180885 -0.643775 -0.477592 -0.053731 0.473068 0.054661 -0.153070 0.136932 0.138843 -0.213079 -0.168580 -0.111167 -0.071793 0.645420 -0.030712 0.179950 0.145995 0.153865 0.811362 0.041243 -0.389275 0.119992 -0.507970 0.505303 0.345184 0.406764 -0.015952 -0.159277 -0.187500 0.124797 0.087688 -0.196676 0.060717 -0.420487 -0.663280 0.464857 -0.275175 -0.429849 0.094083 -0.238141 -0.052793 -0.379417 -0.448631 0.365587 -0.190274 -0.470714 -0.212218 -0.475750 -0.660393 -0.202072 -0.171224 0.687705 0.770347 0.552568 -0.485675 0.225804 0.685216 -0.467662 0.349555 0.077244 -0.239050 0.283922 -0.165622 0.127821 0.458024 -0.385698 -0.827437 0.213228 0.197838 -0.194465 0.188158 -0.229995 0.302488 -0.340915 -0.392008 0.010585 -0.274773 -0.448378 0.102082 0.511184 -0.063357 0.019376 0.513288 0.115923 0.324826 -0.367576 -0.203893 -0.180345 -0.086760 0.193069 0.170240 -0.177656 -0.227862 -0.486197 0.508426 0.227616 0.419009 -0.223817 -0.398442 0.134383 -0.061284 -0.169375 -0.014492 0.575304 -0.523601 -0.268152 0.053770 0.230015 -0.192382 0.259243 -0.119126 -0.121565 -0.365333 -0.223138 -0.659575 -0.558950 0.672567 -0.055135 -0.012210 -0.067408 -0.167673 -0.289141 -0.169488 0.361847
M346 -0.213722 -0.532810 0.190593 0.499950 0.406480 -0.065308 -0.028953 0.132356 0.246035 0.538184 -0.091338 0.169482 0.244602 -0.246472 0.340968 0.523884 0.138665 0.053207 0.408066 -0.119560 -0.185569 0.204522 0.208392 -0.217965 0.448944 0.139679 -0.550882 0.354837 0.012153 0.825520 -0.470142 -0.418992 0.339583 0.535804 -0.256303 -0.197584 0.450469 0.219663 0.341213 0.294474 -0.206925 -0.160942 -0.701306 -0.513375 0.287588 0.128904 -0.478674 0.298643 -0.434960 0.041258 0.823654 0.225378 -0.654675 0.024808 -0.143868 -0.307521 -0.739586 0.141602 -0.153180 -0.070995 0.421794 0.173463 -0.345779 0.015859 -0.263133 0.454286 0.164055 0.021508 -0.494609 0.041476 -0.566497 -0.017890 0.548055 0.558178 -0.270510 0.229626 0.278821 0.157113 -0.312031 0.525935 -0.633252 -0.113346 0.094789 0.697488 0.098628 -0.009659 0.069751 -0.148961 -0.226536 -0.101667 -0.167487 0.236908 0.429651 -0.157722 0.023408 0.052557 0.080901 0.421349 0.406846 0.153505 0.136192 0.026887 0.607325 0.342630 0.127076 0.056187 0.284419 -0.209822 -0.085766 -0.377020 -0.098597 -0.138593 -0.288472 0.069192 -0.380582 -0.143445 -0.347337 -0.441048 -0.368558 0.075465 -0.152416 -0.215120 -0.599541 0.002657 0.600974 -0.144876 -0.052746 0.266330
M066 0.396772 0.179485 0.355196 0.225939 -0.151715 0.531590 0.655765 0.617369 0.681524 0.262313 -0.001225 -0.549024 0.237908 0.028190 -0.228965 0.400574 -0.127458 0.773139 0.419976 0.157847 -0.203675 0.383423 0.415505 -1.054587 0.030141 -0.003708 -0.002005 0.208251 -0.476682 -0.321691 -1.262470 0.785891 -0.618607 0.305417 0.776409 0.132995 -0.161453 0.343979 0.029600 -0.019708 0.091133 0.193926 0.776278 -0.161415 0.517551 0.430013 -0.473334 -0.013983 -0.184673 0.100589 0.328944 0.371359 -0.405864 -0.326417 -0.589377 -0.035695 -0.069698 0.078018 0.265974 0.360152 0.804476 0.027285 0.266983 0.241364 -0.162158 -0.006268 0.308792 0.482552 -0.424993 -0.427316 -0.178765 0.316860 0.689449 0.363943 -0.543705 0.713904 -0.558558 0.208210 0.036820 -0.292789 -0.462484 -0.082437 0.198333 0.369311 0.136739 -0.088158 -0.133963 0.503275 0.217944 0.654891 0.340912 0.204565 -0.206146 -0.282938 -0.296629 0.109416 0.517019 -0.206547 -0.172441 -0.434511 -0.605750 0.419177 0.534578 0.398243 -0.000818 -0.110844 0.154046 -0.048639 -0.411920 -0.270505 0.289518 -0.458229 -0.863178 -0.963457 -0.183760 -0.060539 -0.202029 -1.142921 -0.359390 -0.389734 0.902090 0.536745 -0.205211 0.050567 -0.056611 -0.352565 0.016317 -0.409301
2(N30C) -0.577346 0.229749 0.126048 -0.568890 -0.112561 -0.440995 0.267627 -0.182087 0.093495 0.254011 -0.248706 -0.061193 -0.677697 -0.259279 0.072463 -0.309941 0.172398 -0.155889 -0.313714 1.119510 -0.532402 -0.343739 -0.101007 0.000686 0.570102 0.860181 -0.248430 0.029165 -0.047759 -0.106665 -0.058764 -0.994483 0.941085 -0.332737 0.549288 -0.069518 -0.273789 0.345046 -0.547611 -1.227057 -0.332128 -0.077534 -0.067569 0.144465 0.283670 0.681374 -0.150147 -0.433692 -0.532013 -0.365799 0.295115 0.818983 0.128661 -0.690195 0.844252 0.467192 -0.329699 0.386892 -0.221153 -0.006249 0.023528 0.576832 0.348363 0.246954 0.313073 1.143043 -0.598682 -0.220232 -0.733443 0.546174 -0.758438 1.023247 0.136657 0.756545 0.481231 -0.635312 0.913897 -0.641885 0.594292 -0.456051 -0.040336 -0.167192 0.278143 0.068585 -0.251451 -0.101569 0.106617 -0.105727 0.452869 0.017544 0.208401 -0.201440 -0.104608 0.046300 -0.684062 -0.056429 -0.163766 0.544490 0.236722 -0.792266 0.027696 -0.397225 -0.514095 -0.711869 -0.467884 0.192457 0.152707 -0.161700 0.027809 -0.169793 -0.828748 0.582017 0.093226 0.785224 0.142477 0.094786 -0.342301 -0.061074 -0.102960 0.263106 0.245302 -0.322202 0.410654 0.827096 -0.413254 0.120377 0.140565 0.389396
M009 0.223800 0.515733 0.680272 0.556324 -0.238978 -0.037434 -0.052204 0.114789 0.539038 -0.139571 -0.417235 -0.422158 0.548398 -0.197215 -0.421492 0.281437 0.066294 0.230393 -0.682600 0.154615 0.349962 -0.272639 -0.001957 -0.047186 -0.016900 -0.334389 0.701976 0.470874 -0.330282 -0.189886 0.449015 0.589340 0.101226 0.338884 -0.737793 0.242128 0.331743 -0.508997 -0.314927 0.142528 0.154182 -0.216056 0.113530 -0.657006 -0.114856 -0.172579 0.117610 -0.362911 0.737768 -0.572568 -0.682511 -0.491478 0.079637 -0.024730 -0.161810 0.246424 -0.308873 0.071925 0.315937 0.198865 0.562976 -0.381763 0.138420 0.151482 -0.011426 -0.311637 0.890767 0.195533 -0.164047 -0.986422 -0.151680 0.067800 0.293264 0.087618 0.157987 0.495712 -0.516462 0.370490 0.332663 -0.234466 0.128861 -0.288968 0.267752 -0.035425 0.199734 0.230200 0.146316 -0.058690 0.308097 0.301876 0.442275 0.006401 0.320996 0.174539 -0.386757 -0.073647 0.000147 -0.141633 0.081741 0.245788 -0.449147 0.007304 -0.099137 -0.399458 0.543040 0.312511 0.312633 0.024284 0.064058 -0.127115 0.108773 0.388441 -0.107009 0.280969 0.048558 0.407425 0.035383 -0.385632 -0.079176 0.163150 0.018702 0.053246 0.470147 0.152414 -0.676574 -0.587171 0.309529 0.378391
3(N39B) -0.327167 0.236131 0.446628 -0.546063 0.031442 -0.431564 0.429271 0.334385 0.513170 -0.125463 -0.048153 -0.311979 -0.604198 -1.043087 0.302190 -0.371376 -0.080347 -0.529651 -0.609226 0.396940 -0.440880 -0.013851 0.292776 -0.078256 0.046277 0.398082 -0.724723 0.410456 0.085874 0.101950 -0.228437 -0.811349 0.438852 -0.536434 0.176382 0.190893 0.179115 0.356836 -0.111642 -0.439346 -0.285840 0.047517 -0.048248 -0.204852 -0.018030 0.167558 -0.364173 -0.216760 0.234267 -0.238155 0.177401 0.142489 -0.197146 -0.379872 0.348526 0.559925 0.007942 0.306601 0.149045 -0.082982 0.116343 -0.019831 0.292815 0.343818 0.071878 0.491288 -0.273435 0.157871 -0.385493 0.167400 -0.617601 0.303805 -0.121774 0.214128 0.439041 -0.210967 0.995668 -0.301742 0.432586 0.012571 -0.164702 -0.098699 -0.388306 -0.158774 -0.063777 -0.318120 -0.329281 -0.770080 0.167536 -0.169884 0.057233 0.078627 0.082301 -0.011598 -0.347422 0.283150 0.055510 0.115912 -0.093292 -0.421630 0.055259 -0.348261 -0.037238 -0.275113 0.199581 0.118729 -0.150744 0.181671 -0.375336 -0.318379 0.213346 0.004350 -0.368888 0.838190 0.038104 0.154281 -0.594404 -0.224122 0.010471 0.283297 0.162164 0.065081 0.089385 0.811794 0.409025 -0.102368 -0.165502 0.787186
M096 0.579005 0.524447 -0.017791 -0.191516 -0.203554 -0.440526 0.372049 0.711849 0.176506 -0.176170 0.918379 -0.172769 0.533371 -0.059854 -0.363526 -0.161958 0.134805 0.456260 0.565003 -0.201747 0.231320 0.482106 0.691731 -0.579811 0.518140 -0.367941 0.827068 -0.386641 -0.424545 -0.612818 0.029684 -0.044745 0.039110 0.385399 0.062078 0.090728 0.083232 0.576723 0.546790 0.119315 0.693567 -0.067798 0.044199 -0.405359 0.456568 0.300908 0.097059 0.063562 0.038121 -0.294204 0.145458 0.564747 -0.330111 -0.513238 0.073300 -0.149377 -0.521537 -0.511380 0.176158 0.068332 0.268123 -0.921856 -0.121972 -0.212719 0.391723 0.479230 0.104560 0.213950 0.216038 -0.333547 -0.364809 -0.893935 0.135944 0.461419 0.006246 0.006224 -0.407835 -0.499713 0.811161 -0.732755 -0.490809 -0.304438 0.159823 0.139571 0.378846 0.400615 -0.053031 -0.211583 -0.109797 0.498867 0.064707 -0.171679 -0.217920 0.078325 -0.485863 -0.192413 -0.280993 -0.196200 -0.235552 -0.506359 -0.290364 -0.273609 0.421450 0.061701 -0.478743 -0.210684 -0.965353 0.196139 -0.510264 -0.493182 0.107243 -0.080624 -1.053608 0.018071 -0.075211 -0.335364 -0.326330 -0.142522 -0.377293 -0.343314 0.192278 0.511442 0.366569 -0.003242 -0.037533 0.067026 -0.094415 0.186695
6(N01) -0.059797 0.182867 0.219837 1.089008 0.300474 -0.318311 -0.450072 0.054440 0.305424 0.787129 0.060742 0.503497 0.469498 -0.190754 -0.051153 0.239232 -0.226891 -0.121185 -0.045752 -0.240271 -0.257070 0.015826 -0.024639 0.067597 0.197793 0.320952 -0.305729 0.331327 -0.122774 0.176901 0.043507 -0.402867 -0.558028 0.518351 -0.396540 0.118176 0.529006 -0.236593 0.250022 0.028699 0.097067 -0.301953 -1.122013 -0.843621 0.340365 -0.033160 -0.455112 0.535605 -0.029068 -0.242049 0.075479 -0.501574 -0.513253 0.142213 0.161088 -0.334195 -0.579552 0.421787 -0.129466 -0.169595 0.117484 -0.708824 0.081734 -0.261507 -0.427270 0.151385 0.347856 0.433225 -0.147552 -0.257046 0.068184 0.406022 0.444556 0.266212 -0.059373 0.217386 0.094087 -0.207981 -0.124169 0.560413 -0.608136 0.013887 0.050558 0.238870 0.033109 0.359453 0.141954 0.034067 0.039488 -0.658014 -0.077476 0.336971 0.480005 0.607898 -0.435237 0.449089 -0.235240 0.223187 0.277056 -0.183803 0.128999 -0.071082 -0.064372 -0.079506 0.574797 -0.038901 0.223207 -0.073543 0.057133 -0.573129 -0.121197 0.301326 -0.348770 0.777569 -0.233729 -0.620161 -0.247869 0.124655 -0.291309 -0.037232 0.520252 -0.163840 -0.267766 -0.172587 0.133157 -0.758480 0.131119 0.007210
M376 -0.717199 0.381447 0.123931 0.215677 -0.120524 -0.404034 0.216916 0.331538 0.390100 0.168685 -0.234188 0.267140 0.355423 0.394333 -0.332261 0.024769 0.623010 -0.104119 0.279271 0.095382 -0.044616 -0.231658 0.144843 -0.116915 0.509274 0.201768 0.290177 -0.052194 -0.311139 0.469502 -0.161789 -0.747014 0.558724 -0.301925 0.022285 -0.268090 0.194903 -0.156231 -0.257503 0.310344 -0.149386 -0.058943 -0.729855 -0.236213 0.467926 -0.209582 0.031569 0.286901 0.063489 -0.305954 -0.177278 -0.533666 -0.012135 -0.417047 -0.078677 0.027254 -0.713158 -0.269426 -0.328905 -0.577238 0.128236 -0.775794 0.243487 -0.259375 -0.586737 -0.076859 0.499001 0.215981 -0.321617 0.107372 -0.593535 0.182265 0.621405 -0.293394 -0.207488 0.604336 0.569876 0.039813 0.198645 0.407840 0.063905 -0.271611 0.038798 -0.305165 0.604367 -0.446782 -0.081401 0.112473 0.345358 0.305427 0.304839 -0.058239 0.243902 0.352710 -0.051051 0.268328 0.371191 0.589513 0.165942 -0.241512 -0.286347 -0.304489 -0.290758 0.075466 0.321824 0.682933 -0.219358 -0.166520 0.047388 -0.138725 -0.393916 -0.166870 0.060308 0.382658 -0.165709 -0.235479 -0.695247 0.121413 -0.191989 -0.043638 -0.066640 0.177463 0.016481 -0.042465 -0.212438 -0.326870 0.092517 -0.183382
1(N34) 0.645269 -0.133796 -0.270841 -0.122614 -0.087371 -0.244023 0.568796 0.526230 0.219957 0.191745 -0.226227 -0.006653 0.665748 -0.015046 0.370447 -0.119853 0.118823 -0.334211 0.049418 -0.141443 0.541083 0.238684 -0.608497 0.019889 0.571774 0.136134 -0.157627 0.441928 -0.327828 0.687731 0.234545 -0.490948 -0.133008 0.205244 -0.719376 0.139359 0.831482 0.077623 -0.160103 0.159956 -0.400335 -0.199439 -0.757543 -0.151410 0.058266 -0.415159 -0.307957 0.150716 0.620948 0.425139 0.623101 0.126525 -0.383418 0.204584 -0.549332 -0.374986 -0.510542 -0.703639 0.264005 0.068191 0.238932 -0.375631 -0.327844 -0.241612 -0.505170 -0.026221 0.279063 -0.678924 -0.426690 -0.159167 0.522112 -0.207300 -0.034275 0.317301 -0.207226 0.391069 1.088583 -0.234461 -0.304501 -0.066564 -0.395581 0.035532 0.109981 -0.441177 -0.006109 -0.213072 -0.336768 0.068835 -0.166254 0.372943 0.119343 -0.159351 0.294380 -0.166124 0.482865 0.060267 0.444713 0.153998 -0.051994 -0.002669 -0.192605 -0.089003 0.198163 0.574096 0.064412 -0.002124 0.057976 -0.159710 -0.156411 -0.210008 -0.260407 -0.637235 0.046928 0.339698 -0.283897 0.165720 0.425145 0.398375 -0.496040 0.423349 -0.464586 0.417166 0.173092 0.174746 0.823222 -0.086635 0.296672 0.247161
1(N30D) 0.217190 0.214499 0.015139 -0.098684 -0.062617 -0.415371 0.046825 -0.046194 0.006893 0.170543 -0.133200 -0.054257 -0.254923 -1.064835 0.510405 -0.496512 -0.697286 -0.494257 -0.146302 1.090413 -0.359739 -0.130628 -0.493600 0.021058 0.355502 -0.061498 -0.163343 -0.211198 0.444328 0.074723 0.184851 -0.572207 0.078144 -0.388821 0.310091 0.054195 0.154592 0.314380 0.139374 -1.001168 -0.120602 -0.149389 -0.099070 0.021818 0.190165 0.425170 -0.136152 -0.243395 -0.591620 -0.440929 0.122024 0.544652 0.346271 -0.878237 0.569994 -0.194120 -0.018780 0.517649 -0.005842 0.552058 0.426026 0.052189 0.122860 0.256029 0.347589 0.681301 -0.034086 -0.359726 0.195631 0.372343 0.127785 -0.038789 -0.290654 0.884615 0.500167 -0.622423 1.020524 -0.648136 0.409860 -0.560787 -0.426739 -0.022292 -0.549658 -0.156180 -0.895968 0.430570 0.113340 -0.039003 0.348584 0.419384 0.091464 0.190197 0.418644 -0.323730 -0.774420 -0.057580 -0.151103 0.545048 -0.251712 -0.632704 -0.262885 -0.461698 -0.541152 -0.368456 -0.227454 -0.316464 0.304572 -0.001345 -0.036800 -0.388778 -0.147519 0.154599 -0.349853 0.505551 0.526196 0.453007 -0.178050 0.358239 -0.336744 0.204878 0.522294 0.124830 1.091945 0.674409 -0.119606 -0.030530 0.457492 -0.134037
3(N14) -0.053168 0.218430 0.009758 0.126764 -0.205508 -0.949069 0.302162 0.608132 0.644302 -0.263889 0.083049 -0.425727 0.495052 -0.381602 0.292202 -0.629766 -0.201377 -0.476226 0.312027 0.158721 -0.071138 0.022664 0.249476 -0.123838 0.832431 0.423244 -0.562422 0.380012 -0.082822 0.520582 -0.350384 -0.488951 0.248734 0.072090 -0.677028 0.145707 0.429719 0.154114 -0.424188 0.119032 -0.214990 -0.473372 -0.914138 -0.707189 0.206740 0.032484 -0.196300 0.044974 0.319605 -0.206081 0.476538 -0.354580 -0.604619 -0.669984 0.227113 -0.017701 -0.657661 -0.138843 -0.242910 0.165771 0.064353 -0.490388 -0.229237 0.163155 -0.386898 -0.075783 0.211879 0.062357 -0.007622 0.068247 -0.282545 -0.091001 0.517400 -0.101946 0.106290 0.211533 0.250611 -0.311962 -0.531385 -0.073209 -0.268558 -0.305110 0.031107 0.110559 0.215219 -0.083045 0.099252 -0.026334 0.049675 0.164023 0.014048 -0.159067 0.481169 0.384948 -0.270862 0.152715 -0.019028 0.596469 0.135270 -0.262592 -0.268336 0.429604 0.031240 0.477881 -0.294287 0.107023 0.176827 -0.048112 -0.024267 -0.087163 -0.183583 0.165850 -0.509685 0.316768 -0.324335 -0.236212 -0.580828 0.079881 -0.749904 0.263392 0.391447 -0.119717 0.140207 0.037787 0.688731 -0.271727 -0.264035 0.359406
M057 0.415520 0.319714 0.506371 0.124689 0.618158 -0.260545 0.365840 -0.171688 0.232092 -0.109968 -0.040746 -0.274468 0.353069 0.513199 -0.330839 0.443489 0.303946 -0.451447 -0.007427 0.063242 0.664430 0.151019 -0.323882 0.270481 0.304235 0.128758 -0.302001 -0.038863 -0.868858 -0.196388 -0.166403 0.923672 -0.077208 -0.077796 -0.188399 0.223468 0.238499 -0.292369 0.631062 -0.310986 0.305933 0.092381 0.533845 -0.535204 0.216312 0.442030 -0.098070 -0.122177 0.048336 0.076558 0.455050 -0.068578 0.102706 0.219647 0.056930 -0.800625 -0.432208 -0.287906 0.404025 0.125601 0.080609 -0.551427 -0.237073 0.272743 0.107633 0.343800 -0.071955 0.298403 -0.104506 -0.244658 -0.003617 -0.224748 0.444641 0.052107 -0.408459 0.617023 -0.631610 -0.014991 -0.209684 0.372430 0.515326 0.471218 0.314068 0.031659 0.719895 0.053882 -0.090465 0.142123 0.074695 -0.021350 0.294248 0.243569 0.729625 0.264131 -0.265945 -0.138995 0.138755 0.100514 0.544045 -0.340692 0.210471 0.263305 0.680621 0.313508 0.029739 0.403083 0.173413 -0.939490 -0.031039 -0.454087 0.368732 0.434683 -0.510154 0.490714 -0.770893 0.050289 0.502093 0.183365 0.101394 -0.016875 0.013230 -0.394838 -0.210850 -0.098666 0.653904 -0.546108 0.413466 0.541409
4(N14) 0.201695 -0.219634 0.137650 0.152104 -0.076639 -0.440798 0.367566 0.453858 0.358780 0.329885 -0.396946 -0.206874 0.290957 -0.560286 0.105862 -0.135415 0.092975 0.164842 -0.799394 -0.264861 0.059268 -0.381317 -0.029274 0.010179 0.416112 0.423010 0.146665 0.864435 -0.348947 0.751681 -0.269416 -0.625640 0.216556 -0.062208 -0.714657 0.192153 0.750107 -0.151118 -0.293626 0.366771 -0.561812 0.111657 -0.524118 -0.075384 -0.111678 -0.348854 -0.590136 0.190666 -0.013021 0.601760 0.236027 -0.513549 -0.432324 -0.405646 0.093216 0.218508 -0.257205 -0.151667 -0.290896 0.068240 0.429582 -0.484624 -0.004450 -0.338850 -0.265577 0.446394 0.114239 -0.276935 -0.169055 -0.185407 0.307091 -0.072711 0.537081 0.475397 -0.593757 -0.094012 0.679590 -0.282189 0.119835 0.216414 -0.265453 -0.140154 0.100816 -0.203977 -0.045371 -0.223306 -0.012669 -0.257321 0.466194 -0.018304 -0.021183 0.148096 0.263325 -0.020214 0.417408 0.446380 0.132418 0.241422 0.046395 0.074960 -0.005364 -0.271481 -0.172363 -0.193179 0.340558 0.131631 0.426835 0.335563 -0.324195 -0.604503 0.003980 -0.225724 -0.402451 0.640505 -0.075935 0.005111 -0.051922 -0.216134 -0.254490 0.320108 -0.331957 0.160069 -0.618572 0.712370 0.522187 -0.478047 0.076517 0.344255
M367 -0.009450 -0.203694 0.344137 0.484830 -0.131206 -0.369695 0.091848 -0.188127 0.116499 0.038140 -0.298324 0.065426 0.034588 -0.065120 -0.018712 0.192083 0.346746 -0.328539 -0.054762 -0.181745 -0.230187 -0.215593 -0.110019 0.506291 0.338801 -0.113097 -0.567380 0.186431 0.289499 0.524346 -0.393519 -0.169501 -0.021382 0.174719 -0.503733 -0.810472 0.084438 -0.482347 -0.316469 -0.225522 -0.473547 -0.333715 -0.904227 -0.666727 -0.092307 0.293776 -0.197314 0.182151 0.229738 0.282810 0.332122 -0.048697 -0.331938 0.170908 0.007940 0.220483 -0.125015 0.475113 -0.419799 0.504415 0.172236 0.200268 0.018153 0.089382 -0.377692 -0.082023 0.450152 -0.174844 -0.333730 -0.143298 -0.379236 0.359239 0.389958 0.006308 0.100574 0.103269 -0.123196 0.358790 -0.375417 0.267776 -0.362188 -0.045231 -0.088223 0.319896 -0.282924 0.403531 -0.088035 -0.185633 -0.067832 -0.887835 0.005012 0.344705 0.108904 0.319600 -0.555719 -0.276451 -0.113865 -0.075226 0.086348 -0.051101 0.345567 -0.112766 0.131250 -0.267075 0.739310 0.005211 0.044643 -0.168071 -0.086802 -0.082934 0.056635 0.027349 0.288841 0.289445 -0.037789 -0.390388 0.175163 -0.294544 -0.078266 0.078319 0.208105 -0.792877 -0.493045 -0.187125 0.221312 -0.258844 0.094591 0.382718
M001 -0.902261 -0.270500 0.597188 -0.029814 0.118499 -0.209894 -0.043576 -0.067566 0.539940 0.193788 0.089699 0.406174 0.002624 0.043609 0.307811 -0.028563 0.337975 0.054578 0.176172 0.044015 -0.024493 0.059873 -0.048934 0.008098 0.073702 0.079395 -0.752367 0.572505 0.346669 0.780630 -0.235597 -0.125502 -0.062766 -0.015307 -0.042159 -0.193745 0.403856 0.224417 0.144376 0.103970 0.062390 0.203249 0.182523 -0.048100 0.120643 -0.316237 -0.362042 -0.222024 0.197349 -0.759890 -0.068157 -0.201885 -0.392615 0.292038 -0.091448 0.215853 0.040772 0.339038 -0.023202 -0.540507 0.317074 0.120095 0.264254 0.036383 0.269464 -0.038613 0.577043 0.288504 -0.137411 -0.233427 0.190363 0.501950 0.121472 0.221877 -0.187253 0.008356 0.155918 -0.432937 -0.145666 0.401698 -0.258719 -0.319422 -0.174889 0.448076 0.489355 -0.310357 -0.366042 -0.405365 0.267227 -0.119631 -0.269590 0.512328 0.381809 0.436401 0.551599 0.404438 -0.287763 0.185653 0.422442 -0.198830 -0.335517 -0.298793 -0.279132 0.134229 0.106563 0.026200 0.183081 0.141056 -0.241886 0.215258 -0.220386 0.296342 -0.136618 0.134796 -0.361875 -0.167911 -0.284768 0.092690 -0.112194 -0.359480 0.003445 0.030247 0.157842 0.079192 0.368371 0.221686 -0.132550 0.250390
M305 0.295647 0.150393 -0.306736 0.408934 0.045642 0.408946 -0.389330 -0.224836 0.503628 0.640059 0.405019 -0.019689 0.158486 -0.270457 0.498513 0.046713 -0.140826 0.516785 -0.227071 0.258555 -0.050070 0.443318 0.031082 -0.178266 0.279696 0.071528 -0.159381 0.342220 0.596495 -0.183126 -0.189086 0.025477 0.107777 0.604750 0.667865 -0.206281 -0.112921 -0.005069 -0.051480 0.192715 -0.073885 0.162002 0.250973 -0.723939 0.202515 0.381002 -0.169110 -0.571447 0.166261 -0.329105 0.386535 0.269644 -0.090491 0.095813 0.263198 0.458901 -0.216718 0.210460 0.052036 -0.173517 0.705984 0.339618 -0.004938 0.832831 0.552842 0.573738 -0.015552 0.031875 -0.025116 -0.339427 0.089214 0.458772 0.025233 0.125612 0.394226 -0.350895 0.000971 -0.322235 0.163710 0.276513 -0.101778 -0.163081 -0.000743 0.117477 -0.161683 0.655316 -0.484452 0.221719 0.245217 -0.435397 -0.290021 -0.119642 0.337992 0.636960 -0.088544 -0.254636 -0.217702 0.400920 0.403647 0.301753 0.128867 -0.042407 0.038961 0.372731 0.044463 0.079817 0.789984 -0.212815 -0.846966 -0.400608 -0.106801 0.486167 0.044115 -0.329487 0.010569 -0.618515 0.204546 0.043337 0.040926 -0.056865 -0.332090 -0.569601 0.240524 -0.026532 0.433814 0.128963 -0.118919 -0.106260
M036 -0.100744 0.050084 0.150349 -0.106494 0.090432 -0.054252 0.249704 -0.150540 0.066734 0.151416 -0.361698 0.117077 -0.293209 -0.307146 -0.248965 0.156467 0.140690 -0.371820 -0.057659 0.042897 -0.324775 -0.214096 0.005878 0.016324 -0.163392 0.348108 -0.074396 0.024771 -0.055354 0.520696 0.144543 -0.600033 -0.049207 -0.150152 -0.002249 0.340166 0.056706 0.435163 0.219054 -0.420780 0.107463 0.058424 -0.420022 0.057816 0.004210 -0.031377 -0.328510 -0.264768 -0.233266 -0.537746 0.386277 0.384595 0.153093 0.146762 0.076601 0.017748 -0.367942 0.124825 0.029246 0.499375 0.379568 0.343822 -0.031465 -0.305359 -0.005477 0.549363 -0.290426 0.006512 -0.594020 0.004911 -0.226614 0.332014 -0.057418 0.480605 0.578931 -0.164806 0.491434 0.361837 0.176528 -0.250417 -0.647438 -0.025562 -0.149150 0.337236 0.010824 -0.044869 -0.002914 -0.348792 -0.129172 0.337943 0.230256 0.101049 0.072671 -0.250001 -0.181153 0.249350 -0.203776 0.267683 0.242325 -0.249104 -0.142263 -0.118708 -0.137076 -0.594267 0.142409 -0.269978 -0.052939 -0.118502 -0.286780 -0.359791 -0.046129 0.158043 -0.288829 0.307931 -0.469986 0.263047 -0.183176 -0.361273 0.009432 0.066251 0.197051 0.088751 0.077353 0.109526 -0.157778 0.014714 0.072832 0.466464
M032 -0.329896 0.258552 0.143098 0.091876 0.184235 -0.127787 0.440526 0.274228 0.202740 -0.486373 0.301051 -0.068842 0.142430 0.347113 0.064737 -0.267275 0.435108 0.441885 0.431981 -0.358154 0.396051 0.217798 0.364593 -0.308768 0.036412 -0.150449 -0.350278 0.205932 -0.688713 -0.333733 -0.511770 0.120035 -0.513523 -0.079357 -0.518429 -0.215631 0.268531 -0.372564 -0.172554 -0.481295 0.060627 -0.705851 -0.231175 -0.118435 0.246233 -0.228341 -0.002186 -0.227559 0.520618 -0.113892 -0.142223 -0.264818 0.196577 0.175685 -0.063091 -0.290017 -0.147559 -0.067854 -0.021415 -0.437939 -0.456827 -0.178669 0.736608 -0.314918 0.060881 0.077672 0.762293 0.122189 -0.016621 -0.269686 0.229739 0.424914 -0.073117 -0.092085 -0.305633 0.204427 -0.643684 -0.160193 -0.072551 -0.101819 -0.040655 -0.392700 0.362083 -0.410740 0.255042 0.553668 -0.073736 -0.280797 -0.010863 -0.374178 0.361460 0.288039 -0.568316 0.642788 -0.316243 0.497022 -0.248332 -0.266244 0.025373 -0.934154 -0.220292 -0.443107 0.208023 -0.337389 0.435440 0.121468 -0.640470 -0.175286 -0.009861 0.466955 -0.266962 -0.353689 -0.320352 0.036577 0.049131 -0.716767 0.293990 -0.103219 0.177368 -0.173236 0.825783 0.118679 -0.167423 0.134186 -0.401345 0.181145 -0.515468 0.324847
M370 0.054911 -0.138316 -0.100359 0.259645 0.015033 -0.038044 0.357427 0.104544 -0.175058 0.343033 -0.153124 0.520198 -0.322269 0.238661 0.000291 0.159301 0.555300 0.516229 0.262588 0.361392 0.166025 0.037369 0.300525 -0.640358 -0.000048 0.213105 -0.174068 -0.293413 0.322807 0.197395 0.076939 -0.152567 0.202228 -0.132346 0.287326 -0.336306 -0.153603 -0.286151 0.144887 -0.002652 -0.195160 -0.102289 0.045197 0.009769 0.506883 0.057968 -0.036243 0.264146 -0.174038 -0.437884 -0.237729 -0.450103 0.133706 0.007398 0.347362 0.210335 -0.286797 0.024591 -0.418703 -0.750077 0.021433 -0.236322 0.221603 -0.403118 -0.457320 0.478416 0.493781 0.285817 -0.102163 0.346686 -0.593300 0.149791 -0.002584 -0.077295 0.072158 -0.098473 0.316504 -0.496209 0.259896 0.618416 0.113222 -0.466565 0.069453 0.117144 0.706970 -0.068429 0.172054 0.067691 0.299363 -0.189225 -0.134861 -0.040918 -0.414283 0.534954 0.054137 -0.048623 0.214965 0.004638 0.223446 0.298021 -0.193529 -0.082672 -0.118458 0.320128 -0.426498 0.389084 -0.474959 -0.141035 -0.621032 0.094006 -0.750343 -0.174443 -0.447493 0.209610 -0.400765 -0.164095 -0.347342 0.024873 -0.349473 -0.137385 0.164537 0.491536 -0.015598 0.112112 -0.501840 0.089745 0.034243 0.356490
1(N45) 0.265462 0.005672 -0.504801 -0.077015 0.047625 -0.593058 0.112115 0.481887 0.154768 0.087682 -0.406067 -0.171175 0.499059 -0.426748 0.471551 -0.421333 -0.243148 -0.370904 -0.735535 -0.538257 0.143188 0.009699 -0.017616 0.222952 0.545604 0.318404 -0.113304 0.437854 -0.474538 0.326755 -0.217974 -0.835386 0.071767 -0.058648 -0.394338 0.355544 0.353010 0.024409 -0.451022 0.216001 -0.489998 -0.163201 -0.826783 -0.151082 -0.063866 -0.171448 -0.317999 0.181277 0.163462 0.668780 0.466672 -0.346201 -0.489015 -0.443129 -0.229577 -0.147238 0.107608 -0.333009 -0.129283 0.324357 0.058308 -0.436617 -0.196728 -0.354851 -0.563717 0.055209 -0.398276 -0.427145 -0.029765 0.154374 0.510045 -0.438441 0.297033 0.237327 -0.074619 0.181458 0.847634 -0.606398 -0.370928 -0.111766 -0.161554 0.169636 -0.066812 -0.654059 -0.372420 -0.229151 0.156002 0.047096 -0.269012 0.411653 0.035516 -0.242965 -0.021092 -0.340757 0.056161 0.077650 0.115523 0.154777 -0.301739 0.049618 0.239723 -0.135118 0.064433 -0.072897 0.056711 -0.001673 0.164285 0.450121 0.040994 -0.256540 0.126311 -0.441522 0.185203 0.571694 -0.176122 0.712346 -0.101242 0.212770 -0.343958 0.332975 -0.198406 0.127438 0.103964 0.346792 0.277168 -0.197876 0.247811 -0.189110
8(N01) -0.156941 0.153905 0.484631 0.267071 0.194554 -0.669608 -0.122447 0.082940 0.276628 -0.019442 -0.303552 -0.161679 0.394295 -0.126311 -0.460166 0.348259 -0.271381 -0.174318 -0.105507 -0.259051 -0.075662 0.207081 0.219205 0.280779 0.275763 0.246422 -0.255200 0.768131 -0.172518 0.263547 -0.117819 -0.519853 0.027997 0.287862 -0.180412 -0.001999 0.458132 0.021522 -0.517081 -0.226420 0.211392 -0.105820 -0.606246 -0.145503 -0.444242 -0.267157 -0.311197 0.302728 0.545119 -0.038576 0.384955 0.197946 -0.389053 -0.090972 -0.189866 0.391701 -0.147332 0.044963 -0.129807 0.698130 0.800358 -0.170592 -0.002830 0.479537 -0.214258 0.037298 -0.041700 -0.433069 0.133309 -0.349711 -0.368090 0.332226 0.135340 0.062241 0.125925 0.095724 0.936988 0.020423 -0.221957 -0.504017 -0.548760 -0.314663 -0.005421 0.080307 -0.319129 -0.080481 -0.059718 0.010910 0.069432 0.037434 0.510395 0.021117 0.522356 -0.242916 -0.393890 0.153126 -0.217552 -0.288612 0.068391 -0.134721 0.145948 -0.471509 -0.308699 -0.446302 0.465474 -0.091956 0.339594 -0.155286 0.118154 0.001007 0.370313 0.005569 0.061971 0.736863 0.147313 -0.012613 0.018237 0.081437 -0.391986 0.035025 0.076318 -0.385703 0.116734 0.080383 0.172815 -0.202888 0.000201 0.106545
7(N01) -0.142330 0.437246 0.156620 0.035789 -0.260843 -0.034308 -0.137557 0.148703 0.229791 0.010193 -0.313556 0.030690 0.768348 0.031084 -0.198207 0.106678 0.878630 0.266381 0.225046 -0.042701 -0.191908 -0.099545 0.194067 -0.128051 0.504800 0.053941 0.251743 0.293274 0.136829 0.565748 -0.327126 -0.930866 0.310031 -0.466583 -0.342329 -0.803806 -0.027880 -0.426557 -0.563079 0.129462 -0.610593 0.173271 -0.646395 -0.698947 0.241942 0.060720 -0.002663 0.095481 -0.187027 -0.226506 0.508601 -0.315125 -0.425171 -0.629954 -0.031413 0.269349 -0.173591 -0.005623 -0.329726 -0.017853 0.328973 -0.425057 0.283986 -0.081377 -0.245195 0.002372 0.439435 0.254382 -0.124132 -0.436949 -0.520172 -0.056597 0.677099 -0.200174 -0.039011 0.150284 0.014919 -0.098417 -0.098483 0.100529 -0.524217 -0.189301 0.028802 -0.105765 0.266740 0.236733 0.094059 -0.049488 0.058822 0.138627 0.174651 -0.110322 0.500707 0.037117 -0.275011 -0.032046 -0.492388 0.383009 0.522594 -0.400999 0.231569 -0.556993 0.021535 -0.035561 0.552945 0.016294 0.232814 0.289282 0.103165 -0.684450 0.149360 0.042450 0.289443 -0.202384 -0.298097 0.209566 -0.693577 -0.544239 -0.223272 0.061036 0.277209 -0.235536 0.041112 0.010796 0.700178 -0.207861 0.150329 -0.098391
M003 0.095510 0.198580 0.099394 0.343789 0.143701 0.227168 -0.465203 -0.205988 0.128954 0.295642 -0.354344 -0.109718 0.597619 0.003774 0.004181 0.212990 0.134613 0.558645 -0.668766 -0.064062 0.388885 0.160744 0.179554 -0.451555 -0.263686 -0.162043 0.443814 0.650432 0.051325 -0.172908 0.341872 -0.043155 0.223818 0.276431 -0.155694 0.317591 -0.052003 -0.462537 -0.102056 -0.027295 -0.190013 -0.129422 0.037715 -0.203582 -0.078204 0.146458 0.189520 0.169340 0.139996 0.009455 -0.425546 -0.443615 -0.091828 0.087426 -0.100406 0.425126 -0.035025 0.123517 0.147829 0.049017 -0.004277 -0.014740 -0.019384 0.090771 -0.345951 0.060593 0.152516 0.226912 0.126519 -0.517323 -0.245276 0.066476 0.036131 0.023778 0.100995 -0.044978 -0.159082 -0.120104 0.192843 0.032974 0.282408 -0.178402 0.536824 -0.034912 -0.119894 0.090861 0.306133 0.119799 0.060861 0.014966 0.129454 -0.507986 0.150845 0.122676 -0.101941 -0.159131 0.304902 -0.335400 -0.105105 0.464520 0.005107 0.107441 -0.038064 -0.070187 0.190613 0.108997 0.237777 0.282343 0.233093 -0.160033 -0.235642 0.329095 0.189896 0.072996 -0.131588 0.418641 -0.385879 -0.206543 -0.176495 0.095125 -0.113528 0.061920 0.312789 0.011365 -0.483416 -0.421337 0.113101 0.086014
M004 0.405177 0.325713 0.336761 0.262016 0.184787 0.771943 -0.000094 0.078364 0.203020 -0.245204 -0.052422 -0.365684 0.216600 0.763695 -0.441109 0.836255 0.509857 0.078435 0.095399 -0.170402 0.397503 0.022095 0.539928 -0.673124 -0.029614 0.155129 0.740589 0.475774 0.204379 -0.151200 -0.558157 0.194478 0.125252 0.657926 -0.215566 -0.344448 -0.255110 -0.303016 -0.496545 0.026199 0.380909 0.584210 0.122038 -0.570612 -0.101487 -0.220985 0.252031 -0.338082 -0.017139 -0.227893 0.588175 0.242606 0.334401 0.217607 -0.089472 0.235734 -0.862860 -0.055563 -0.053253 0.015968 0.614307 0.117493 -0.275261 0.223989 -0.358908 0.008540 0.568761 0.000328 -0.266082 -0.709006 -0.149583 0.216437 0.186192 -0.093517 0.129085 0.062132 -0.659909 0.549114 0.002609 0.105609 -0.629527 -0.099223 0.198118 -0.038357 0.331591 0.108306 -0.029408 0.223168 0.247279 0.474948 0.312991 -0.565750 0.812698 -0.100879 -0.627942 0.165998 0.152298 0.091608 0.073946 0.199353 -0.185581 0.503300 0.347463 0.366105 -0.064426 0.464582 0.406560 -0.637224 -0.064750 0.127524 0.326096 0.025907 0.007886 -0.892232 0.008176 -0.087683 -0.467228 -0.433317 0.155444 -0.030930 -0.260815 -0.366163 0.346485 0.101318 0.172497 -0.038487 -0.109706 0.162027
M377 0.197414 0.227308 0.589080 -0.755855 0.287987 -0.442448 0.022011 -0.183339 0.325727 0.345414 0.205256 0.491612 0.051376 -0.284325 -0.205973 0.257256 -0.504858 -0.098445 0.142106 0.110166 0.690925 0.760883 0.186436 -0.457210 -0.325306 -0.760570 -0.504515 0.293193 0.391138 -0.517720 -0.225723 0.523394 -0.170154 0.124830 -0.168689 0.184912 0.559556 0.256372 0.716567 -0.549735 0.445916 -0.312780 0.502577 0.235791 0.060948 0.414246 0.269436 0.394794 -0.483520 0.559453 -0.032592 0.464908 0.365845 0.186234 -0.526823 0.508234 -0.035258 0.027894 0.930021 -0.439800 -0.042691 -0.383811 -0.091689 0.682391 0.667161 0.431174 0.105765 0.403425 0.635663 -0.586255 -0.331428 -0.191361 -0.384457 0.201140 0.301179 -0.035753 0.376670 0.519040 -0.265283 -0.089955 0.479693 0.557964 0.752043 -0.256602 -0.028585 -0.177724 0.032517 0.041881 0.044437 -0.513770 -0.146895 -0.299130 -0.166914 0.161255 0.353603 0.116641 -0.060774 -0.482053 -0.050223 0.217542 0.109497 0.125882 0.447136 0.576358 -0.204982 -0.303960 -0.455452 0.190758 -0.413143 0.069469 0.026221 0.323578 -0.558774 -0.125769 -0.244376 0.028431 -0.830139 0.728869 -0.305998 -0.327656 0.808910 0.062705 0.241110 -0.002342 0.081191 -0.613382 -0.109242 0.077867
M354 0.093501 0.137943 -0.209088 -0.130088 -0.561452 -0.283581 0.174346 0.277042 0.392433 0.135950 0.022137 -0.255082 0.278855 0.252606 -0.211596 -0.188008 -0.064727 -0.021859 -0.240003 -0.185618 0.092606 -0.022133 -0.072011 0.567571 0.031895 0.406892 0.324619 0.302200 -0.437091 0.250208 0.072471 -0.349018 0.011606 0.222635 -0.215982 0.364940 -0.039397 -0.291738 -0.292039 0.638518 0.012836 -0.224245 -0.529430 -0.225760 0.149029 -0.087945 0.028208 0.154514 0.179307 0.626155 -0.481651 -0.318015 -0.676616 -0.063108 -0.067643 -0.039475 0.090290 -0.240327 0.083048 0.156936 -0.286534 -0.291206 -0.018303 -0.294764 0.045365 -0.278825 -0.232120 0.090128 -0.596752 -0.432065 0.040538 -0.009245 0.583639 0.075462 -0.377843 0.297880 -0.096716 0.111105 0.019815 0.088704 0.440555 0.117336 0.193182 -0.062590 -0.113155 -0.098435 -0.087141 0.173099 0.169216 -0.211702 -0.076884 -0.189032 0.275729 0.127492 0.050291 0.494731 0.562158 -0.079069 0.029979 -0.313106 -0.027456 0.314336 -0.250783 0.149962 0.079326 0.345739 -0.269375 0.182088 0.117463 -0.657089 0.041387 0.178392 0.019102 0.666527 0.294653 -0.640389 0.271212 0.211783 -0.068105 -0.212611 -0.237184 0.096540 -0.423146 -0.077421 0.261956 -0.501984 -0.152911 -0.092492
4(N39B) -0.598772 0.325441 0.044219 0.030441 0.415049 -0.402217 0.058621 0.171331 0.149644 -0.017726 -0.214562 -0.407958 0.509868 -0.418842 0.089100 -0.513121 -0.298158 -0.314295 -0.695523 0.404733 -0.188681 -0.171762 0.236013 -0.381464 0.222656 0.741661 -0.272472 0.400917 -0.255696 0.135108 0.413160 -0.492321 0.306418 -0.593851 -0.152495 0.814351 0.062848 0.349497 -0.161094 -0.707478 -0.223497 0.186670 -0.189117 -0.060929 0.093679 -0.120411 -0.386277 -0.645732 0.373049 -0.702350 0.040236 -0.151180 0.147760 -0.232040 0.623783 -0.268613 -0.340161 0.126513 0.206980 -0.016434 -0.385104 0.244666 0.000244 -0.078556 -0.201870 0.606699 0.169952 0.197076 -0.145192 0.156441 -0.050503 0.439177 0.027783 0.449132 0.488860 -0.397159 0.168780 -0.796397 0.228754 0.027884 -0.205645 -0.472242 -0.081224 0.161218 -0.134765 -0.160073 -0.018707 -0.304998 -0.009566 0.282118 0.009899 0.248525 0.533732 -0.061976 -0.403006 0.092202 -0.020291 0.328036 0.061142 -0.491536 -0.218078 -0.339774 -0.376578 -0.484073 -0.174436 -0.222634 0.324496 0.107870 0.217062 0.241112 -0.433052 0.364566 -0.214016 0.632869 -0.329808 0.774449 -0.448943 0.206103 -0.070100 0.179782 0.416295 0.129680 0.777609 0.665599 -0.052941 -0.161491 0.151925 0.520853
5(N14) 0.210130 0.153980 -0.283299 -0.121979 0.368961 -0.538242 0.063912 0.256645 0.261112 0.192502 -0.254117 -0.136432 0.641466 -0.608367 0.351376 -0.552060 0.050293 -0.298931 -0.374721 -0.122962 0.029918 0.135033 0.094994 -0.290395 0.225361 0.498590 -0.404809 0.822368 -0.319549 0.230140 -0.153819 -0.380494 -0.267264 0.171785 -0.532814 0.451079 0.157432 0.017421 -0.472706 0.092766 -0.525026 -0.442930 -0.841699 -0.204024 -0.118094 -0.267152 -0.535661 0.125516 0.590226 0.442968 0.417180 -0.271910 -0.549516 -0.312977 -0.183779 -0.082401 0.251258 -0.017931 -0.133385 0.176613 -0.080613 -0.281677 -0.376696 -0.358558 -0.237285 0.255429 -0.173873 -0.233224 -0.066749 -0.152643 0.015287 0.149958 0.244700 0.104732 0.226105 -0.200545 1.046496 -0.323992 -0.299713 0.204377 -0.067763 -0.243516 0.167861 0.140292 -0.352300 0.108289 -0.173650 0.006052 -0.105032 -0.399221 -0.247766 0.105619 -0.028027 0.160862 0.165150 -0.008284 0.551891 -0.223563 0.059501 -0.108928 0.508670 -0.363848 0.240601 0.087278 0.403975 -0.055116 -0.197658 -0.062048 -0.323660 -0.227730 -0.267980 -0.025080 0.155422 0.479462 -0.227850 -0.288706 0.170981 0.213342 0.030254 0.054157 0.030960 -0.173331 -0.356434 -0.049581 0.149939 -0.250934 -0.278228 0.455854
M352 0.528922 -0.133741 0.348484 0.504796 -0.008180 0.280658 0.546861 0.068230 -0.099690 0.310621 0.092985 -0.031754 0.161488 0.054788 0.025212 0.407954 0.214392 0.511832 0.036414 0.458949 0.030276 -0.135054 0.169540 -0.602798 -0.089353 -0.232598 0.325065 -0.225357 -0.137141 -0.501581 -0.525115 0.819048 -0.323624 0.263257 -0.072942 -0.784823 -0.104420 -0.342270 0.155320 -0.527217 -0.228395 0.079779 0.135443 -0.580904 0.427503 0.313505 -0.294172 0.116103 -0.078999 0.240008 0.223058 0.166068 0.223874 0.069010 0.332397 -0.534637 -0.223046 0.371652 0.242180 -0.046761 0.015155 -0.243025 0.118521 -0.100509 -0.382554 0.682900 0.821688 0.168833 -0.098109 -0.088023 -0.384350 0.163559 0.275605 0.199456 -0.427131 0.003257 -0.892682 0.046499 0.351379 0.096028 -0.213272 -0.126224 0.193960 0.224223 0.104675 0.539826 -0.205592 0.288288 0.261421 -0.464794 -0.013995 0.409361 -0.132984 0.265209 -0.361788 -0.477460 0.195746 -0.153732 -0.102843 -0.189968 -0.190496 -0.146972 0.468031 0.044760 0.210714 -0.008946 -0.168023 -0.260861 -0.318341 -0.173101 0.170717 -0.170484 -0.401007 -0.153389 -0.050356 -0.482046 0.452579 -0.532530 -0.034655 0.047275 0.573600 -0.093703 0.138238 0.499329 -0.171692 -0.501978 0.387345 0.158420
M072 -0.054600 0.051327 -0.007964 0.362505 0.508201 -0.268185 0.287315 -0.066688 0.091773 -0.052668 -0.263520 0.400708 0.176399 -0.010266 0.003990 -0.315606 0.486475 -0.148211 0.143170 0.319770 -0.157036 -0.044872 0.410291 -0.439690 0.291929 -0.188490 -0.092198 0.067883 0.019524 -0.102164 -0.030522 -0.081197 0.033689 -0.348913 -0.300001 -0.058022 0.005569 -0.176620 0.246327 -0.284436 -0.437930 0.084132 -0.208626 -0.263033 0.398880 -0.209884 -0.307097 -0.075190 0.123924 0.031456 -0.279865 -0.577823 0.246264 0.083061 0.314805 -0.184779 -0.255012 -0.087890 -0.116973 -0.273112 -0.374806 -0.249130 -0.049386 -0.374586 -0.475584 0.414583 0.745643 0.234716 -0.106700 0.262191 -0.331874 0.093959 -0.087125 0.257348 0.287045 -0.180072 -0.105543 -0.214302 0.550890 0.632544 -0.345833 -0.222026 -0.253509 -0.048627 0.086176 0.222945 0.134100 -0.285103 0.087555 -0.435742 -0.133857 0.360604 -0.133523 0.611959 -0.201242 -0.058054 0.208831 -0.082197 -0.138700 -0.041103 0.225905 -0.277633 0.320445 0.006731 0.435781 0.119013 -0.653319 -0.313265 -0.328207 0.287748 -0.437006 -0.083230 -0.050754 -0.029438 -0.018466 -0.245795 -0.215658 -0.220219 0.157798 0.207434 0.443237 0.021587 -0.028748 0.326890 -0.273449 -0.185931 -0.025514 0.477859
M036+1(N30D) -0.185895 -0.269088 0.000347 0.244761 0.185387 -0.096596 0.122393 0.080559 0.337377 0.225078 0.394390 0.518966 0.131884 0.147444 0.159370 0.203750 0.462378 -0.082247 -0.129892 -0.316291 0.106127 0.104342 -0.003341 0.260441 0.424822 0.185081 -0.062003 0.312084 -0.043268 0.277717 -0.303312 -0.386047 -0.454972 0.543556 -0.159454 -0.368264 -0.077483 0.151441 -0.048644 -0.027420 -0.133960 -0.222279 -0.965406 -0.143732 0.055928 0.421785 -0.216085 -0.052846 -0.045761 0.395416 0.301064 -0.060413 -0.306543 0.252867 -0.019439 0.108170 -0.292664 0.183098 -0.373067 0.093897 0.268678 0.044647 0.054727 -0.286853 -0.357052 -0.042555 -0.064502 -0.221883 -0.399909 0.093115 0.320483 0.400116 0.152320 0.154621 -0.178063 0.096523 0.459018 0.254665 -0.004489 -0.120858 -0.169139 0.090042 0.087638 -0.079539 -0.025209 0.198452 -0.386465 -0.159344 -0.054862 -0.332356 0.247311 -0.126096 -0.394152 0.334319 -0.035551 0.084667 -0.163354 0.001551 -0.099524 -0.511931 0.292422 -0.142747 -0.061811 -0.257304 0.161904 0.196571 -0.401957 -0.057123 0.172286 -0.211166 -0.460630 -0.183783 0.214835 0.428019 -0.048116 -0.592500 0.055667 0.194731 0.080283 -0.041206 -0.060468 0.034366 -0.192176 -0.068324 0.110717 -0.073540 -0.245602 0.003469
M269 0.012479 0.055840 0.078023 0.060406 -0.323599 -0.269911 0.266130 0.249472 0.129145 -0.103069 0.025546 0.046982 -0.045704 -0.046951 -0.194899 -0.177889 0.266867 0.130894 -0.302037 0.027929 -0.253953 -0.099435 -0.114041 0.031776 0.068635 -0.191223 -0.009217 -0.109432 -0.348312 0.302791 0.443474 -0.079203 -0.271140 -0.094918 0.043887 0.258679 0.042894 -0.009413 -0.073909 0.441368 0.112188 -0.124582 -0.125383 0.080675 0.158100 -0.441818 0.006212 -0.054879 0.339811 -0.321679 -0.374904 -0.329415 -0.108633 -0.031269 -0.079749 -0.117610 0.026540 -0.237143 -0.032355 -0.001019 0.144937 -0.345012 0.034862 -0.321876 -0.257753 -0.174232 0.026799 0.022799 -0.106054 -0.047940 -0.137099 -0.180368 -0.254073 -0.191694 0.145544 -0.002156 0.350397 0.082753 0.210687 -0.140063 -0.207980 -0.245280 -0.447105 0.237719 0.139564 0.082526 -0.191221 -0.069869 -0.312262 0.174588 0.216613 0.169547 -0.447187 0.189260 0.129096 0.006065 0.125319 -0.103697 -0.113082 -0.168189 -0.159905 -0.143088 -0.334992 -0.301416 -0.145344 0.035285 -0.177704 0.109835 -0.088311 -0.252235 -0.080877 -0.126083 -0.245175 0.202292 -0.016349 0.278470 0.126788 -0.146646 -0.086393 -0.002710 -0.135427 0.320651 -0.020671 0.105443 -0.382203 -0.019466 0.203092 0.049710
M136 0.210665 -0.385898 -0.177506 0.086474 -0.097794 -0.007144 -0.157333 -0.026152 0.058488 0.522687 0.107275 0.212066 -0.302388 0.077521 0.363372 -0.024877 -0.176859 0.199417 0.127719 -0.266939 -0.122056 0.060130 0.327607 -0.100685 -0.411023 0.062764 -0.235751 0.267115 0.267705 0.171955 -0.403278 -0.213164 0.310597 0.376447 0.351467 -0.132188 -0.291961 -0.072782 0.247075 0.548355 -0.106831 -0.259839 0.178180 -0.134888 0.047236 0.038085 -0.145331 0.264425 -0.609849 0.351063 -0.235202 -0.201906 -0.408489 0.146922 -0.210455 0.131860 0.160627 0.096811 -0.070079 -0.141764 0.371770 -0.144170 -0.043039 0.125639 -0.179122 0.066495 -0.246383 0.245697 0.041815 0.248293 -0.337801 -0.154263 0.212133 0.135642 0.026108 -0.013681 -0.149621 0.053485 0.209805 0.470868 0.590319 0.023382 -0.026594 0.359762 -0.051017 0.050385 0.098325 -0.037298 -0.103102 -0.015285 -0.528687 -0.359506 0.050378 -0.119547 0.021416 0.143740 0.208616 -0.323054 -0.203302 0.654641 -0.014267 0.377676 -0.041641 0.439314 -0.470219 0.044041 -0.421948 0.349175 -0.244844 -0.548848 -0.020265 0.099771 -0.201734 0.021625 -0.126464 0.102236 -0.430599 -0.114727 0.309234 -0.313878 -0.472812 0.067336 -0.222043 0.015439 -0.617509 0.147265 0.494812 -0.244492
M206 0.188672 -0.257184 -0.057753 0.618932 0.361617 0.325153 0.141737 0.033163 -0.072856 0.140660 -0.197946 -0.023932 0.192133 -0.058153 0.410007 -0.119284 0.290114 0.224872 0.177819 0.116488 -0.208153 -0.096522 -0.422915 0.219895 0.356997 0.188241 -0.400801 0.193560 -0.253867 0.662225 0.246151 -0.077446 -0.288294 0.193878 -0.428475 0.053354 0.260841 -0.329173 -0.623740 -0.169278 -0.698265 -0.115886 -0.316853 -0.248765 -0.019442 -0.413516 -0.422571 -0.390769 0.396802 -0.396572 0.425926 -0.220276 -0.198303 0.132144 0.071485 -0.382476 -0.257688 0.022945 -0.420167 0.325792 0.032659 0.402710 0.083160 -0.175340 -0.531306 -0.028134 0.241842 -0.507160 -0.433177 -0.079079 0.306254 0.189520 -0.129431 -0.007411 -0.300175 0.411477 -0.148163 -0.250057 -0.298960 0.214131 -0.365174 -0.364006 0.007744 0.372094 -0.226179 0.188985 -0.022280 0.020850 -0.076219 -0.034019 0.085725 0.361694 0.037510 0.111476 0.080830 0.138046 -0.158152 0.495861 0.466556 -0.399768 0.073803 -0.240006 0.100499 0.122034 0.393716 -0.038748 0.728343 -0.380997 0.308593 0.006668 -0.399649 -0.296034 0.143877 -0.184250 0.059949 0.081923 0.687661 -0.292790 -0.013687 0.259384 -0.033809 0.158593 -0.572336 -0.102787 0.404901 0.554854 0.011023 0.396740
M219 -0.341251 0.106101 0.251434 0.528447 0.052349 -0.015157 -0.189967 0.648348 0.125142 0.193348 0.305413 -0.393732 0.146562 -0.288584 0.069165 0.573568 -0.165943 0.510166 -0.045329 -0.467925 0.038044 0.237171 0.543531 -0.324258 0.297215 0.341803 0.203508 -0.011589 -0.277336 -0.456108 -0.479685 -0.077551 0.077349 0.168361 0.513721 0.287073 -0.087486 0.295386 0.408447 -0.085712 0.306401 0.291607 -0.068800 -0.504136 0.311459 0.756525 -0.078321 -0.023590 -0.194411 -0.377104 -0.058973 -0.008392 -0.488452 -0.062688 0.270937 -0.051733 -0.164038 0.240203 0.276284 -0.437567 -0.082250 0.210370 0.509649 0.051775 0.233879 -0.121900 0.029884 0.962139 -0.278179 0.087038 -0.134615 0.068554 0.990532 0.137806 -0.308358 0.717780 -0.855337 -0.437162 0.045151 0.019123 -0.038010 -0.057310 0.248670 -0.013664 0.647403 0.084539 -0.003922 -0.114372 -0.247289 0.247092 0.187756 0.080028 -0.078827 -0.054455 -0.815147 0.259596 -0.358314 -0.058811 0.072354 -0.257002 -0.552797 0.226380 0.252951 -0.216760 -0.184370 -0.031038 0.275740 0.263197 -0.157735 -0.145658 0.093369 -0.000967 -0.560190 0.821347 -0.590094 -0.055722 -0.461982 -0.225366 -0.133966 0.022465 0.576144 0.169703 0.140494 -0.042838 0.118993 -0.182713 -0.233610 -0.168376
M056 0.154636 0.288115 -0.540537 0.084536 0.128119 0.066787 -0.029014 0.227873 0.027545 0.110221 0.019416 -0.508824 0.291102 -0.579285 0.433911 -0.382121 -0.026656 -0.275421 -0.280820 0.201122 0.310697 0.031517 -0.209500 -0.608854 0.248838 0.169723 0.047983 -0.103918 -0.259416 0.396544 0.438465 0.093727 0.199479 0.366330 -0.192327 0.623016 0.168289 0.140288 -0.389362 0.485249 -0.350473 -0.464879 -0.211008 -0.068062 0.153047 -0.336808 -0.041767 -0.233482 0.263795 -0.250217 0.125196 -0.171155 0.255941 -0.301273 0.033504 -0.511688 -0.380324 -0.235568 -0.081965 -0.099177 -0.110578 -0.170049 -0.539484 -0.133475 -0.003175 0.366163 -0.112827 -0.286459 0.115255 0.010039 -0.193524 -0.311929 -0.248863 -0.177330 0.391945 -0.159779 0.731218 -0.166993 -0.226859 0.045086 0.299592 -0.345943 0.097288 0.034677 -0.132617 0.059640 -0.020571 0.270060 -0.124019 0.316581 -0.171879 -0.187171 -0.011648 0.032499 0.216659 -0.287020 0.574135 0.692097 0.422532 0.428276 0.008831 0.246637 0.093283 0.365934 -0.301186 0.434550 0.169026 -0.056226 -0.235872 -0.077384 -0.229589 -0.078064 -0.067113 -0.115310 -0.169069 0.106953 0.152833 0.359991 -0.335530 0.061480 -0.532279 0.070340 -0.124715 -0.269419 0.025426 0.121150 -0.292198 0.343366
M347 -0.251401 -0.152425 0.510643 -0.246442 0.219587 -0.228366 -0.011854 0.039001 0.130957 -0.068979 0.778389 0.225110 -0.001492 0.547765 -0.371736 0.759025 -0.515039 0.143587 0.034443 -0.041595 0.355832 0.933372 0.642532 -0.105117 -0.351795 -0.167100 -0.338102 -0.034528 0.034779 -1.188580 -0.455450 0.431012 -0.399213 0.247490 0.369593 -0.212963 -0.013138 0.156043 0.405962 -0.686538 0.629422 0.348361 0.306862 0.076183 0.059918 0.805118 0.394300 0.280347 -0.079253 0.655051 0.236861 0.728749 -0.119996 0.300397 -0.303548 0.355847 -0.055235 0.039716 0.668347 -0.495467 -0.161444 -0.126416 0.206167 0.616215 0.009288 0.083430 -0.255454 0.467747 0.370243 -0.235412 -0.297575 0.219835 -0.121042 0.046642 -0.275441 0.352838 -0.514339 0.130358 -0.082819 -0.332493 -0.175526 0.460798 0.319250 -0.147333 0.264958 -0.091614 -0.248136 0.096243 -0.175269 -0.860665 0.012468 -0.366355 -0.018860 -0.178772 -0.518925 0.003639 -0.045298 -0.808308 -0.323626 -0.545757 0.191677 0.027346 0.219746 0.358658 -0.484886 -0.150964 -0.352583 0.059449 0.209734 0.323907 0.278372 -0.155506 -0.467441 0.382697 0.342956 -0.162939 -0.546794 0.484168 -0.077384 -0.407238 1.006613 0.068484 0.529355 0.166599 0.487739 -0.655776 -0.214537 -0.309985
M038 -0.707676 -0.489002 0.225829 -0.257338 0.397991 -0.293899 0.287987 0.136930 0.247680 -0.280938 0.021126 -0.031410 -0.624973 -0.023837 0.116696 -0.141381 0.170685 -0.173663 -0.052555 -0.323856 -0.240040 -0.079347 0.386148 -0.236766 -0.331298 0.038244 -0.700326 0.097628 -0.403587 0.427948 -0.461897 0.136089 -0.097024 -0.023283 0.212925 0.559659 0.086567 0.415762 0.472270 0.316037 0.395647 -0.134560 0.260029 0.461675 0.011251 -0.404105 -0.351890 -0.250775 -0.248391 -0.153775 -0.026818 0.028619 -0.091261 0.369186 -0.038295 -0.397224 0.230173 0.042526 0.008759 -0.021597 -0.235227 0.263055 -0.227264 -0.378088 0.075658 -0.002981 -0.421579 0.219587 -0.192057 0.237498 -0.133854 0.030449 -0.082528 0.069534 -0.057532 -0.134327 -0.104603 0.026978 -0.055788 0.090651 0.129120 -0.199230 -0.190416 0.606422 0.077646 -0.326208 -0.078675 -0.381475 -0.412761 0.385271 -0.096977 0.382907 -0.353236 0.008382 0.380187 0.204786 0.076970 -0.179838 -0.134072 -0.072783 -0.131630 0.325296 0.102655 -0.364272 -0.421381 0.057274 -0.259981 0.073813 -0.297876 0.155967 0.128263 -0.021436 -0.331211 0.146799 -0.480436 -0.138653 -0.036013 -0.294822 0.306705 -0.397625 -0.242419 -0.124986 -0.538960 0.199798 -0.332389 0.378527 -0.316789 0.248363
M048 0.146477 0.467135 0.245783 0.265414 0.313693 -0.673335 -0.283006 0.092910 0.066465 0.003502 0.146749 -0.099211 0.292017 -0.092891 -0.462897 0.053790 -0.226277 0.262732 0.608160 -0.108919 0.364487 0.135653 0.241054 -0.125026 0.610754 -0.805000 0.271000 -0.384411 -0.278228 -0.631026 0.296912 0.494059 0.267578 -0.072716 0.196598 0.554147 0.536091 -0.051323 0.794393 0.160313 0.612644 -0.071394 0.205783 -0.396040 0.039982 0.148764 0.340538 0.088317 -0.124939 -0.295239 -0.513500 0.046856 0.148639 0.021111 0.203865 -0.417811 -0.259500 -0.316510 0.527373 -0.177464 -0.372495 -0.560173 0.223645 0.424339 0.614976 -0.091362 0.254041 0.606183 0.393553 -0.155735 -0.042776 -0.593869 0.336983 -0.420594 0.080582 0.690625 -0.754531 0.204768 0.230322 0.134575 0.318752 -0.146374 0.361027 -0.386808 0.498502 0.208451 -0.071845 0.110753 -0.157037 0.436189 0.293166 0.123153 -0.100529 0.409873 -0.491224 0.250568 -0.298094 -0.056021 0.101672 -0.072981 -0.384193 0.066933 0.356567 -0.181339 -0.185402 0.025155 0.212859 -0.161042 -0.336996 0.211581 0.099366 0.488506 -0.572552 0.343819 -0.442108 -0.033434 -0.207845 0.296985 0.290528 0.135579 0.277436 -0.195851 0.060635 -0.152181 -0.143526 -0.234182 0.158508 -0.038350
M059 -0.047130 -0.102588 -0.041024 0.114582 -0.710885 -0.217349 -0.018857 0.176233 0.163118 -0.230082 0.105458 -0.434743 0.198630 0.124737 -0.009204 -0.176725 -0.705325 -0.120700 -0.328399 -0.006764 -0.291157 -0.271251 0.049399 0.348852 -0.300102 0.112184 -0.355983 0.129146 -0.094584 0.198732 0.147760 0.204678 -0.029640 0.216411 -0.256014 -0.027997 -0.003771 -0.295799 -0.772906 0.626068 -0.066727 -0.120482 0.213171 -0.376426 -0.143080 -0.617096 -0.001885 -0.086714 0.568519 -0.068241 -0.099431 0.028752 -0.392595 -0.015236 -0.259872 0.196264 0.284646 -0.065387 0.076901 0.267396 0.343996 -0.200668 -0.164021 0.212847 -0.214083 -0.193562 -0.024657 -0.108951 0.033439 -0.382062 -0.163397 -0.081443 -0.118657 0.113952 -0.049856 0.033711 -0.355453 -0.275439 -0.184844 -0.222602 -0.045827 -0.142513 -0.374508 0.443415 -0.273939 -0.060864 0.084924 0.090107 -0.081768 -0.257053 -0.491015 -0.055195 0.233211 -0.293877 -0.098458 -0.142423 0.001736 -0.297303 -0.137916 0.319461 -0.162368 0.224855 -0.362362 0.137143 -0.337992 -0.373352 0.306095 0.431855 -0.033558 -0.303242 0.535241 -0.282629 -0.096656 0.057891 0.322112 0.548377 0.147383 -0.175579 -0.132069 -0.167748 -0.035220 -0.056637 0.284972 0.178641 -0.031274 -0.016768 0.664919 -0.203881
6(N14) -0.127263 -0.185222 -0.313876 -0.134556 0.199191 -0.600549 0.060778 0.194897 0.377953 0.176026 -0.210235 0.135056 0.528424 0.506242 0.093066 -0.403454 -0.072809 0.227575 -0.440173 -0.414275 -0.205460 0.229516 0.361704 0.256131 0.432745 0.410702 -0.646043 0.961851 -0.675673 0.403626 -0.447450 -0.658331 0.258481 0.506209 0.022364 0.525750 0.184209 0.073074 -0.569581 -0.011444 -0.164992 -0.254062 -0.182211 -0.083790 0.088916 -0.602134 -0.483645 0.014026 -0.047291 0.642456 0.579858 0.119173 -0.624844 0.192623 -0.243201 0.108665 -0.145314 -0.650257 -0.031102 0.315350 0.100594 -0.095335 -0.363638 0.118254 -0.576664 0.634313 -0.564588 -0.439991 -0.230899 -0.131043 -0.134163 0.203707 -0.104279 0.488118 -0.089858 -0.185554 0.505034 -0.676174 -0.175565 -0.076059 -0.283501 0.040515 0.195580 0.197355 -0.615483 -0.293583 0.106656 0.127018 -0.229525 0.102943 -0.164806 -0.289288 -0.003728 0.062393 0.469522 -0.051750 -0.060047 -0.055962 -0.219832 -0.076345 0.452921 0.038464 0.031987 0.192202 -0.257567 -0.266976 0.127305 0.098675 0.082824 -0.412715 -0.143188 -0.099714 0.199797 0.068834 -0.169928 0.171008 -0.152893 -0.027936 -0.240249 0.093308 -0.327173 -0.385418 -0.272796 0.438314 0.212037 0.115510 0.302114 -0.048788
M010 0.291934 -0.007416 -0.113544 0.151734 0.513363 -0.333251 -0.205627 -0.223670 -0.058770 0.631416 -0.381683 0.093890 -0.205498 -0.138375 0.275651 -0.011850 -0.323122 0.175866 -0.232793 0.036174 -0.157410 0.269170 0.151502 0.036671 0.198418 -0.002741 -0.445579 0.296642 0.149454 -0.313677 -0.429124 -0.245973 0.345663 0.095288 0.579907 0.253786 -0.105913 -0.020950 0.076410 -0.619014 -0.112209 -0.218069 -0.071529 -0.325534 -0.141624 0.376264 -0.118716 0.109327 -0.339340 0.440257 0.434220 0.538384 -0.220495 0.105960 0.321264 0.002205 0.183472 0.264330 0.161977 0.469194 -0.126578 0.440170 -0.073233 0.672919 -0.060501 0.332610 -0.702610 -0.067486 -0.027642 0.192603 -0.194485 0.216824 0.170989 0.103416 0.341495 -0.011828 -0.004798 -0.326230 -0.145499 -0.037967 0.114603 0.029264 0.201946 0.187461 -0.527168 0.352708 -0.001592 0.230541 -0.171390 0.066590 -0.132345 -0.338304 -0.031657 0.079106 -0.502131 -0.199852 -0.022432 -0.241119 -0.174946 0.178788 0.250129 0.097008 0.144041 -0.148426 -0.344837 -0.225959 0.551821 -0.113703 -0.126769 -0.066429 -0.072941 0.490432 0.097061 0.318904 -0.148079 0.172947 0.148575 -0.026209 0.206177 0.223775 -0.023968 -0.749928 0.167794 0.331160 -0.226660 -0.079392 0.407316 0.019905
9(N01) -0.731452 -0.231304 0.448078 0.502199 -0.268415 -0.128459 0.045081 0.234311 0.300605 -0.124700 -0.060402 0.225548 0.088990 -0.143328 0.072659 0.039858 0.304111 0.087616 0.022317 -0.204167 -0.598030 -0.188364 0.166534 -0.066332 0.398953 -0.275280 -0.464710 0.268315 0.067200 0.681834 -0.315958 -0.288122 0.158584 0.317535 -0.338403 -0.349504 0.292387 -0.039690 -0.226801 0.379549 -0.056059 -0.343004 -0.390832 -0.515679 0.169103 -0.379656 -0.276331 0.084915 0.353986 -0.318072 -0.074030 -0.209801 -0.343968 0.211531 -0.143648 0.054653 -0.366089 0.151730 -0.067044 -0.295751 0.315085 -0.052981 0.079206 -0.051535 -0.278596 0.090198 0.712870 0.162521 -0.389450 -0.159952 -0.477159 0.354954 -0.010828 0.148003 0.102213 0.101805 0.024400 0.141642 0.057302 0.235550 -0.636351 -0.414922 -0.291333 0.411303 0.101856 0.063201 -0.091049 -0.453108 -0.280552 -0.363665 -0.065277 0.477077 -0.217824 0.303332 -0.009379 -0.034231 -0.237395 0.223873 -0.054566 0.157360 -0.063305 -0.129698 0.048153 -0.285912 0.373889 0.010842 -0.103655 0.172406 -0.011207 -0.021339 -0.077793 -0.159746 0.009773 -0.081954 -0.069450 0.081784 -0.428796 -0.697224 -0.128204 0.188353 -0.025154 -0.323875 -0.341956 0.111659 -0.162139 0.015568 0.097145 0.280131
M262 0.225472 0.207251 0.183395 -0.898557 -0.065870 0.062082 0.161497 0.087127 -0.097951 -0.487760 0.262021 -0.308826 0.522564 -0.000840 -0.011788 -0.187612 0.876465 0.459286 0.726992 -0.179647 0.472037 0.324165 0.173477 -0.684100 -0.160524 -0.479661 0.216998 0.171310 0.084247 -0.100065 -0.161580 -0.055879 -0.299010 -0.372608 -0.381949 -0.844264 0.049962 -0.027640 -0.292412 -0.286251 -0.570488 -0.025227 0.295626 0.124361 -0.119152 0.043382 0.168534 0.211364 0.303104 0.277974 0.286830 0.476120 -0.343465 -0.251066 -0.462030 -0.000047 0.690252 -0.056554 0.109223 -0.057770 -0.139419 -0.196231 0.548850 -0.193546 0.412076 -0.175755 0.200914 -0.174584 0.439023 -0.567074 -0.244266 -0.377007 -0.017846 -0.327377 -0.386878 -0.222699 -0.292891 -0.258246 0.062114 -0.957935 -0.005150 -0.271632 0.323914 -0.039699 -0.020267 0.353902 -0.324856 -0.257820 -0.161913 0.323112 0.115766 -0.334843 -0.368409 -0.203397 0.106936 -0.353734 -0.169704 -0.699804 0.179302 -0.565772 -0.044461 -0.891038 0.256539 -0.061793 0.027878 -0.330080 -0.765534 0.790986 0.173014 -0.247727 0.204910 -0.181370 0.185979 -0.457577 -0.183003 0.263247 0.104007 -0.539501 -0.011722 -0.237943 0.407009 0.198744 0.383071 0.030602 0.295520 0.290881 -0.046861 0.114827
M373 -0.062537 -0.011033 -0.100530 0.283577 0.121001 -0.019571 -0.005154 -0.062622 -0.238272 -0.085898 -0.345289 0.214582 -0.674391 -0.057854 -0.056326 -0.185645 0.187652 0.040907 -0.135541 0.344368 -0.662341 -0.315309 -0.007952 -0.140780 0.101731 0.070806 -0.185387 -0.392809 -0.001438 0.288811 0.047478 -0.318186 0.195838 -0.473511 0.319360 0.494918 -0.352570 -0.105627 0.156701 0.211944 0.232055 0.168408 0.073988 0.164249 0.287900 -0.323717 0.070317 -0.073500 -0.372253 -0.400897 -0.158706 -0.376319 0.386140 -0.340054 0.584410 -0.089824 -0.157021 -0.043177 -0.419048 -0.268875 -0.154334 0.039172 -0.084244 -0.189975 -0.057329 0.213783 -0.180379 0.187748 -0.129880 0.577704 -0.126996 -0.198313 -0.327589 -0.061228 0.326235 -0.469266 0.383910 -0.146548 0.351627 0.533362 -0.223477 -0.179678 -0.779037 0.020324 0.060606 0.185245 0.234963 -0.092734 -0.025276 0.128603 -0.046225 0.123111 -0.285035 0.379914 0.050708 0.253199 0.043623 0.425200 -0.145453 0.042753 0.146400 0.113655 -0.157764 -0.154896 -0.227067 0.198428 0.303613 -0.349257 -0.257571 -0.108468 -0.052310 0.023176 -0.302054 -0.020331 0.057553 0.076661 -0.139200 -0.239416 0.051796 0.305840 -0.244305 -0.005347 -0.362264 0.330987 -0.269179 0.198632 -0.105205 0.077837
M386 0.000594 0.337297 0.326991 -0.561596 0.055667 -0.245161 0.196221 0.127960 0.374917 -0.308621 0.250189 -0.164206 -0.326785 0.594829 0.018168 -0.104794 0.432663 0.572742 0.348700 0.084092 0.256009 0.515881 0.640676 -0.584727 -0.087540 -0.550241 -0.139886 0.158515 -0.193339 -0.701474 -0.697413 -0.127177 0.795668 -0.476594 -0.077519 -0.412372 -0.023312 -0.062161 0.350646 0.468957 0.361371 -0.149526 0.792674 -0.071424 -0.104323 0.094881 0.445222 0.275910 -0.078448 -0.417824 0.298988 0.052046 -0.100050 -0.676972 -0.247685 0.763388 -0.557863 -0.519635 -0.049768 -0.622504 0.321472 -0.550330 0.258746 1.003318 -0.020620 -0.146086 -0.207675 0.288720 0.233084 -0.185355 -0.616922 -0.607077 -0.277588 -0.020278 -0.078511 0.125289 -0.088524 0.058530 0.105828 -0.089524 -0.367945 -0.070008 0.063784 -0.107992 0.853652 0.190426 0.302691 -0.344742 -0.013111 0.286499 0.502913 -0.754857 0.114011 -0.260306 -0.387433 0.303434 -0.461710 -0.102894 -0.292503 0.124199 0.173242 -0.021074 0.617046 0.547614 -0.366188 0.239965 -0.019139 -0.440998 -0.249309 0.418526 0.304422 -0.031476 -0.583561 -0.765330 0.269557 0.419558 -0.856697 -0.567206 0.329000 -0.033622 -0.491291 0.143500 0.047961 0.439979 -0.014300 0.366200 0.269902 0.189004
M102 -0.134076 0.261698 0.228467 0.011616 0.108786 0.525026 -0.295078 0.009582 0.099288 0.030469 0.140983 -0.061465 0.242225 -0.175836 -0.098565 0.434718 0.539177 -0.202121 0.440382 -0.537159 0.372656 -0.078303 0.048734 -0.285633 0.134095 0.014423 0.625273 0.390754 0.541933 0.404771 -0.048658 -0.540159 -0.203590 0.551653 -0.534015 -0.519336 0.234719 -0.017671 -0.204502 0.030951 0.252093 -0.148781 -0.617230 -0.289225 -0.261672 -0.057901 0.216602 0.064703 -0.039392 -0.105170 0.282502 0.347460 0.167069 0.149375 0.088223 0.180415 -0.593163 0.477095 -0.137992 -0.012537 0.374669 0.112298 0.055405 -0.237502 0.548141 0.011862 0.468937 0.000110 -0.019027 -0.517721 0.175603 0.325914 0.381966 0.100525 0.137606 -0.341534 0.030640 0.494560 -0.049274 -0.410311 -0.157348 -0.320208 0.583984 -0.066722 0.082691 0.228118 -0.203664 -0.168628 0.265962 0.216275 0.215246 -0.345926 0.305244 0.098445 -0.140473 0.242720 -0.245968 0.285049 0.430868 0.085784 -0.141662 -0.192320 -0.027507 -0.359779 0.246134 0.148633 -0.121873 0.073837 -0.028602 -0.239923 -0.048996 0.339338 0.089791 -0.084166 -0.102132 -0.610740 -0.200508 -0.010885 -0.004774 -0.132176 -0.189198 -0.443208 0.092139 -0.263034 0.053058 0.045843 -0.525994 0.258335
M203 0.073365 0.094387 0.170129 -0.022328 -0.322663 -0.274703 0.086024 0.165039 0.234291 0.306173 0.236300 0.009765 0.087529 -0.061798 0.214878 -0.320990 -0.202298 -0.260153 0.011740 -0.346822 0.310195 -0.163679 -0.003849 -0.242459 0.198941 -0.018144 -0.581922 0.169595 0.259895 0.688301 -0.028546 0.119496 0.118705 0.279341 -0.132810 -0.016046 -0.071493 -0.166715 -0.195415 0.769216 0.023717 -0.266871 0.238584 -0.371321 0.195038 -0.265674 0.035809 0.448907 -0.025205 -0.280521 -0.315109 -0.551693 -0.233819 0.043547 0.023891 0.465314 -0.056617 0.092896 -0.146163 -0.278671 0.088512 -0.636451 -0.143680 0.131886 -0.183343 0.008766 0.312587 0.353468 0.078450 -0.082655 -0.365058 -0.415239 -0.061284 -0.271622 0.132861 0.041384 -0.004531 -0.176670 -0.143654 0.520629 0.796265 -0.277603 0.191046 0.213549 0.512049 -0.462500 -0.154787 -0.019987 0.161298 -0.031564 -0.464911 -0.063845 -0.305866 0.544083 0.288603 0.042434 0.292681 -0.093462 0.150961 0.728736 -0.063545 0.341079 0.188713 0.521933 -0.554183 -0.045782 -0.329285 0.351295 -0.568743 -0.141759 -0.075874 0.131728 -0.499593 -0.020811 -0.564821 0.405609 -0.424189 0.240266 -0.287795 -0.267605 -0.307381 0.148965 -0.225185 -0.258110 -0.434768 0.281559 0.549175 0.455730
M259 -0.183610 0.477122 0.434978 -0.236650 -0.131658 0.439759 -0.275879 0.358476 0.057618 -0.207435 0.088450 -0.409509 0.136317 -0.379895 0.021495 0.604039 -0.091817 0.319124 -0.601191 -0.242122 0.704393 0.205564 0.517307 -0.728841 -0.596605 0.043489 0.274666 0.142344 0.272438 -0.513308 -0.406437 0.855694 -0.073520 0.073300 -0.156033 -0.094014 -0.074817 0.003334 -0.183433 -0.248611 0.155562 0.072241 0.598150 0.093304 -0.234582 0.531727 0.330613 -0.018095 0.246150 -0.146116 -0.088830 -0.050155 0.207958 -0.060410 -0.307016 0.581008 0.644539 0.287706 0.316047 -0.442104 0.303622 0.010316 0.355017 0.090731 0.396398 -0.382918 0.251680 0.536279 0.627176 -0.556034 -0.123597 -0.015604 0.246467 -0.322631 -0.155758 0.199709 -0.163011 -0.409215 -0.531470 -0.602685 0.385686 0.203034 0.328341 -0.415518 0.643644 -0.294592 0.125038 -0.079862 0.114828 0.506775 0.073007 -0.383040 -0.175720 -0.172243 0.159730 -0.251144 -0.134819 -0.469577 0.143455 0.544804 -0.469134 0.296362 -0.107296 0.125807 -0.260963 0.091919 0.236002 0.857692 -0.009079 0.356374 0.486404 -0.077718 -0.150516 0.081107 -0.607667 0.552069 -0.505063 0.115735 -0.575783 -0.185707 0.472285 0.355802 0.795339 -0.072567 0.078795 -0.224339 -0.372882 -0.083515
1(N08A) -0.560331 0.452949 -0.127928 0.238164 -0.245144 -0.386410 -0.104398 0.254875 0.400937 0.534864 0.142269 0.273417 0.367984 -0.260778 0.076044 -0.064890 -0.178583 -0.563055 -0.146749 0.072364 -0.479985 0.016240 0.068204 -0.019893 0.577574 0.074524 -0.011635 -0.163971 -0.156707 0.002602 -0.148555 -0.967034 0.313849 -0.111581 0.188972 -0.078645 0.322040 0.064077 -0.027788 -0.042332 -0.049684 -0.293090 -1.008635 -0.413930 0.504918 0.216936 0.091887 0.297446 -0.260912 -0.071547 0.007509 -0.169703 -0.011990 -0.554173 0.087471 0.114580 -0.838227 -0.045460 -0.104752 -0.212466 -0.038288 -0.722794 0.109926 -0.011015 -0.405263 0.228534 0.238723 0.176347 -0.131822 0.142144 -0.378893 0.097776 0.269949 0.278799 0.114543 0.041711 0.847089 -0.069910 0.017788 0.030110 -0.352668 0.216958 -0.212250 -0.306299 -0.258114 -0.095446 0.115540 0.079635 -0.103523 -0.190432 0.063960 -0.172072 0.218412 0.130308 -0.578833 0.200890 0.113708 0.806647 -0.233278 -0.386237 -0.097574 -0.151179 -0.327645 0.000677 0.341628 0.131662 -0.099867 0.147877 0.193560 -0.348415 -0.153983 -0.158285 -0.047514 0.369376 0.170779 -0.086703 -0.946707 0.324602 -0.282996 -0.061502 0.310389 0.013153 0.296651 -0.001474 0.102144 -0.540928 0.273866 -0.594817
M106 0.019662 0.137942 0.026882 -0.219720 -0.340797 0.021454 0.136377 0.084462 0.193611 -0.279476 -0.233140 -0.173048 0.012231 -0.231952 -0.100699 -0.002454 0.280098 0.040849 -0.386823 0.487973 -0.226719 -0.066919 -0.100661 -0.169159 0.143415 0.011849 0.245812 0.180938 0.017802 0.312843 0.213678 -0.462450 0.296190 -0.091756 0.179348 0.010472 -0.034402 0.083261 -0.414384 0.035539 -0.225719 -0.011074 0.052145 0.014724 0.010775 -0.094817 -0.078740 -0.277090 0.055735 -0.195861 0.009963 0.240438 -0.060503 -0.326346 -0.055111 0.256385 -0.013287 -0.080003 0.016154 0.130467 0.534901 0.080929 -0.105764 0.035134 0.008828 0.361316 -0.127112 -0.267430 -0.190011 -0.116114 -0.375203 0.205580 -0.275996 0.204686 0.437504 -0.409112 0.705715 0.121273 0.482577 -0.383326 -0.366154 -0.277549 -0.210415 0.073185 -0.242684 0.116639 -0.134222 -0.019973 -0.011548 0.227808 0.213650 -0.082835 0.038307 -0.263296 -0.086328 -0.259057 0.153219 0.119663 0.095773 -0.185694 0.039765 -0.267685 -0.368135 -0.385474 0.006488 0.152956 -0.025765 0.094110 -0.064880 -0.419379 -0.143451 0.010752 0.045289 -0.054520 0.256594 0.294056 -0.109458 -0.319356 -0.099329 0.147050 -0.214489 -0.039212 0.187082 0.339735 -0.143765 -0.117967 0.084714 0.219081
M260 0.027767 0.128685 0.470226 0.157871 -0.292134 -0.185765 -0.011588 0.080934 0.222671 -0.571696 0.063797 -0.071986 0.081428 0.053075 -0.586125 0.363276 0.169694 -0.312479 -0.031910 -0.312248 0.053673 -0.068667 -0.116964 0.201611 0.009461 -0.193509 -0.415931 0.058774 0.232471 0.678620 0.411905 0.192075 -0.570939 0.334332 -0.167693 -0.003915 0.293462 -0.148385 -0.102212 0.332612 0.580090 -0.063243 0.018733 -0.400072 -0.164549 -0.347198 0.031282 -0.044333 0.640383 -0.465857 -0.130584 0.206968 -0.229032 0.552958 -0.099602 0.031848 0.129630 0.008732 0.200507 0.272299 0.513802 -0.171735 -0.088701 -0.141471 0.462844 -0.143963 0.253927 0.111308 -0.030515 -0.708799 -0.127265 0.101806 -0.255350 -0.164646 0.399005 -0.104005 -0.056582 0.013620 -0.061864 -0.396985 -0.462786 -0.252439 -0.407284 0.406795 0.057021 0.202986 -0.407075 -0.151359 -0.356500 -0.086046 0.106738 0.185853 0.158360 0.436227 -0.113663 -0.155180 -0.272716 -0.502978 0.319679 0.073308 -0.253099 0.037760 -0.330661 -0.470588 -0.102632 -0.233079 -0.027028 0.170507 -0.394357 -0.619910 0.413606 0.154595 -0.324405 0.535006 -0.459221 0.030128 0.275187 -0.124569 -0.291753 -0.173479 0.103007 -0.526738 0.173367 -0.138303 0.167240 -0.047061 0.200602 0.346987
M005 -0.580545 0.237085 -0.088605 -0.085772 0.081742 0.182360 -0.234212 -0.131989 0.431749 0.112034 0.364046 0.219275 0.301475 0.017511 -0.169510 -0.219834 0.656933 0.475240 -0.014466 -0.194490 0.078490 0.206026 0.230137 -0.079078 -0.264938 -0.225614 -0.402741 -0.001672 -0.332393 0.514296 0.323863 0.002476 -0.211370 0.168437 0.298690 0.197906 -0.307730 0.115160 -0.030953 0.757197 -0.068841 -0.347792 -0.041251 0.014246 0.316304 -0.190322 -0.042149 -0.402039 0.206028 -0.564296 -0.347154 -0.555281 -0.194440 0.189488 -0.316355 0.032797 0.313957 0.011385 -0.125439 -0.212086 -0.027939 -0.064371 0.062917 -0.331832 -0.001039 0.041071 -0.058117 0.352205 -0.168954 -0.449416 -0.592730 0.039011 -0.161944 -0.522598 0.202747 0.192456 0.007583 0.260150 0.064646 0.279231 0.440165 -0.308489 -0.024850 0.378930 0.214970 0.100800 -0.419383 -0.230052 -0.355017 -0.171018 -0.091666 0.069120 -0.579599 0.546321 0.582248 -0.102066 0.066576 -0.200223 0.549660 -0.261468 0.396425 -0.274445 -0.009678 -0.105988 0.259916 0.143751 -0.461934 0.286742 -0.140182 -0.351891 -0.125238 0.102460 0.140281 -0.215968 -0.409681 -0.164982 -0.038023 -0.122553 0.224271 -0.612772 -0.101658 0.204482 -0.546549 -0.578445 -0.311322 0.251261 -0.295987 0.123846
M240 0.084108 0.238054 0.026763 -0.314946 -0.005084 -0.341993 -0.208468 0.306766 -0.247516 -0.435400 0.636402 -0.287505 0.058815 0.485623 0.089191 0.278691 0.307497 0.217984 0.631759 -0.032615 0.669081 0.383883 0.241263 -0.419184 0.270346 -0.249187 0.167776 -0.283268 -0.320967 -0.616267 -0.072287 0.017085 0.548451 0.460643 -0.046577 -0.426877 0.207514 -0.166703 0.277699 0.176005 0.576856 -0.316147 0.367097 -0.720691 0.112040 0.076846 0.342797 0.301370 -0.083204 -0.503591 0.438002 0.589731 -0.234341 -0.112903 0.397493 -0.364911 -0.663763 -0.401250 0.221714 -0.793643 -0.363644 -0.626112 -0.096228 0.360364 0.395145 0.363992 -0.103452 0.285790 -0.007239 -0.170371 -0.518423 -0.577963 -0.166608 -0.016620 -0.196632 -0.006341 -0.477332 -0.699772 0.087489 -0.075876 -0.166321 -0.123703 0.334992 -0.052878 0.732182 0.383039 0.001165 0.003197 -0.073869 0.114191 -0.032228 -0.466106 0.493763 0.064865 -0.601945 -0.128101 -0.604353 0.197337 0.297528 0.009638 0.051767 -0.046315 0.703167 0.513192 -0.737600 0.260904 -0.226302 -0.437506 -0.131632 -0.073863 0.347585 0.118718 -0.434822 0.206687 -0.220633 -0.346570 -0.239227 0.190988 -0.000479 0.077119 -0.489063 -0.425228 0.311803 0.224948 0.598291 0.140676 0.140710 0.318527
M149 -0.160383 0.320319 -0.385524 0.362107 -0.062117 0.039324 -0.290794 -0.105009 0.297870 -0.093520 -0.103736 -0.166477 0.490385 0.086571 -0.293698 0.009376 0.444862 0.160791 -0.188771 -0.365135 0.142065 -0.226064 0.247584 -0.080339 0.483497 0.193773 0.343045 0.181045 0.185942 0.276700 0.155462 -0.401730 0.152043 -0.097785 -0.091147 0.001465 -0.082777 -0.348371 -0.220759 0.613180 -0.064135 0.048659 -0.475107 -0.432856 -0.120041 0.024908 -0.079748 -0.159053 0.295062 -0.102838 -0.164865 -0.554077 -0.069318 0.003952 0.367469 0.199155 -0.016061 -0.091761 -0.311285 -0.058584 -0.067815 -0.106240 0.015519 -0.137987 0.033957 0.027137 0.315995 0.178764 0.002279 -0.116094 0.224732 0.226866 0.465633 -0.364496 0.161840 -0.125359 -0.192867 -0.066614 0.091052 0.357225 -0.046360 -0.441385 0.132532 -0.254023 0.227643 0.251272 -0.233699 0.108365 -0.063869 -0.115025 0.101294 -0.018930 0.138066 0.655941 -0.152807 -0.158658 -0.049216 0.145471 0.341922 0.187151 0.086805 -0.062152 -0.262883 -0.468992 0.323326 0.296146 0.211629 0.038515 -0.349651 -0.043533 -0.180687 0.423530 0.204090 0.124941 -0.562789 -0.385522 -0.047261 -0.038878 0.123218 -0.034505 -0.235913 -0.548696 -0.130359 -0.218848 0.039461 -0.221667 -0.212631 0.029591
2(N45) -0.129795 0.581762 -0.044000 -0.417805 0.496286 -0.359527 0.158897 0.256997 0.414909 -0.114035 0.082000 -0.400794 0.408700 -0.015116 0.356553 -0.586045 0.170517 -0.862761 0.099126 -0.737303 0.612627 -0.067318 0.020078 -0.346101 0.783982 -0.000364 -0.208454 0.546440 -0.631685 0.334618 -0.501455 -0.716815 0.197507 0.001296 -0.468946 0.194369 0.827409 -0.166901 -0.294747 0.064927 -0.116828 -0.180321 -0.083483 -0.089825 -0.041415 -0.630406 0.188458 0.181422 -0.151341 0.544845 0.441369 -0.203161 0.292681 -0.325836 0.078589 -0.180294 -0.765153 -0.709824 -0.313813 -0.055325 -0.101996 -0.869630 0.083369 -0.086585 0.050118 0.416880 0.158555 -0.213423 0.520672 -0.127935 0.434992 -0.620398 -0.111820 0.054429 -0.350518 -0.123511 0.949542 -0.576375 -0.186763 -0.096305 0.436414 0.211273 0.124415 -1.028855 -0.107984 -0.400585 -0.024187 -0.034280 0.318639 0.513711 0.016908 -0.336066 0.137777 0.457202 0.298868 0.567573 -0.023066 0.792913 0.184818 -0.122951 0.050841 -0.219593 0.299617 0.333839 0.002063 0.283524 -0.129966 -0.017690 -0.159232 -0.315503 0.376330 -0.377960 -0.180121 0.139758 -0.176707 0.097461 -0.355329 0.558122 -0.008391 0.114588 -0.537726 -0.135282 -0.162513 0.300578 0.694691 0.411349 -0.090640 -0.123692
M024 -0.167151 0.080820 0.293338 -0.487061 -0.485338 0.111022 0.055814 0.163161 0.199581 -0.060103 0.334910 -0.083726 0.045199 -0.229236 0.247145 0.176640 -0.015733 0.202232 0.490369 0.332798 0.430093 0.434853 0.200876 -0.453180 -0.052321 -0.708458 0.200184 -0.206834 0.485236 -0.273548 0.073555 0.302092 0.362455 -0.058074 0.213529 -0.454339 0.341001 0.252666 -0.018973 0.010068 -0.193086 -0.024447 0.430436 0.205775 0.066357 0.051297 0.301694 0.053471 -0.103849 -0.276318 -0.338961 0.200790 0.266981 -0.038804 -0.665153 0.433314 -0.112329 -0.060406 0.400518 -0.548130 0.146560 -0.104815 0.176768 0.496550 -0.057046 -0.164892 0.514397 0.064613 0.411247 -0.015822 -0.559128 -0.254606 -0.159390 -0.257380 0.039900 0.302161 0.020047 0.578252 -0.137181 -0.390356 0.243943 -0.040352 0.572022 -0.117057 0.327061 -0.496530 -0.075357 0.126911 -0.057453 0.264013 0.010380 -0.331728 -0.268307 -0.689860 0.049154 -0.278829 0.199298 0.035001 -0.150994 0.286777 -0.770353 0.042630 0.069666 0.591048 -0.256668 0.000562 -0.350332 0.406066 -0.063846 0.641736 -0.277012 -0.396036 0.017172 -0.616872 0.096808 0.301413 -0.717741 0.228726 -0.297803 -0.195966 0.376239 0.571626 0.597388 -0.201159 -0.091468 -0.015050 -0.053510 -0.111954
M295 0.341863 0.393951 0.045206 0.043372 0.278519 0.090461 -0.029581 0.346205 -0.230111 -0.711210 -0.252983 -0.359290 -0.287903 -0.009261 -0.356346 0.310753 -0.223470 -0.209854 -0.043580 -0.449703 -0.043531 0.085917 0.782159 -0.748201 0.078475 -0.016200 0.139804 -0.112184 0.423542 -0.930830 -0.956831 0.256637 -0.010998 -0.314861 0.257796 0.215701 -0.261270 -0.079811 0.007068 -0.511139 0.401264 0.396584 0.465323 -0.128502 -0.518199 0.587940 0.193756 0.072678 -0.025100 0.378602 0.226806 0.449787 0.342092 -0.117810 0.095785 0.609360 0.345487 -0.076236 -0.001530 -0.054605 0.015207 -0.129372 0.152095 0.302440 0.248492 -0.188918 0.009670 0.416257 0.441749 0.106829 0.431858 0.107005 0.111434 -0.062218 0.393737 0.070739 -0.407998 -0.360932 0.109579 -0.079572 -0.488654 0.091036 -0.031471 -0.786663 0.200914 0.075701 0.346384 -0.022896 0.027414 0.154276 0.120657 -0.217979 -0.064999 0.029263 -0.906395 -0.034754 -0.346372 -0.380046 -0.571756 0.269717 0.045674 0.374327 0.265422 -0.181423 -0.193073 -0.086167 0.064497 0.073048 -0.629499 0.505643 0.425372 -0.226830 -0.339702 -0.180132 -0.254697 0.083268 -0.660980 -0.328931 0.220959 0.134204 0.576844 -0.439579 0.099024 0.098402 0.023636 -0.000867 -0.275035 -0.078393
M317 0.129416 -0.194740 -0.024075 -0.100846 -0.075889 -0.483343 0.266306 0.066801 0.119877 0.137890 -0.185468 0.123672 0.070428 0.529768 0.150438 -0.025259 -0.166842 -0.067093 0.369938 -0.034496 0.589632 0.162448 0.456080 -0.257670 -0.442747 0.180744 -0.422315 0.280792 0.169495 0.023811 -0.194353 0.150729 0.459843 0.106667 -0.230031 -0.501536 0.118333 -0.301662 -0.196630 0.182908 -0.176916 -0.451711 0.131966 -0.182932 -0.002243 -0.199658 -0.112200 0.259522 0.210900 -0.297825 -0.081952 -0.138951 -0.346867 0.176834 -0.458617 0.172910 0.019256 -0.121731 -0.042248 -0.169103 0.280232 -0.408827 -0.185329 0.162575 -0.381467 -0.100719 0.364770 -0.055858 0.147376 -0.219304 -0.590461 -0.048321 0.228631 0.093332 0.093161 0.460800 -0.054540 -0.429716 -0.300413 0.346729 0.445376 -0.203237 0.283624 0.305534 0.292625 -0.239969 0.391003 0.087942 0.117956 0.144001 -0.294507 -0.326143 0.540914 -0.328019 -0.278787 -0.121818 0.149864 -0.611891 0.012603 0.629902 -0.249046 0.251579 0.042342 0.703664 -0.428924 0.042408 -0.557597 -0.036398 -0.461936 0.205362 -0.199941 -0.127744 -0.193766 0.227953 -0.218965 0.238490 -0.321419 0.327222 -0.254672 -0.509288 -0.096869 0.114609 0.377858 -0.111841 -0.449951 0.127736 0.734759 0.201037
