UNK -0.085745 -0.203711 0.546171 0.192060 -0.526493 -0.386743 -0.417711 -0.472040 0.333279 -0.538256 0.300774 0.270213 0.215934 0.550817 -0.004393 -0.547463 -0.064109 0.785095 0.350750 0.156717 0.838161 0.312734 0.333847 0.059337 -0.069041 0.049412 0.075436 0.077353 0.165023 -0.127461 -0.168804 0.735397 -0.503927 -0.323009 -0.786576 -0.692029 0.425794 0.008409 0.114335 -0.388920 0.755595 0.042171 0.447379 0.078290 0.209080 -0.747899 -0.595416 -0.044754 0.115578 -0.667882 0.460197 -0.356106 -0.625267 0.503953 -0.619498 -0.008117 0.099648 0.121904 -0.507885 0.156761 -0.419365 0.349098 -0.237276 -0.290405 0.178132 0.683216 -0.019050 -0.589764 0.157269 -0.567764 0.047369 -0.161602 0.146313 -0.146797 0.171087 -0.400167 0.371120 -0.409048 -0.472036 -0.457012 0.436183 -0.305513 -0.048800 0.160950 -0.023809 0.149861 0.760442 0.477819 0.328668 0.645228 0.327177 -0.024194 -0.267503 -0.353707 -0.045264 -0.262856 0.148961 0.460136 -0.007622 -0.484504 0.699091 0.267809 -0.025520 -0.394121 0.714809 0.340887 -0.400440 -0.606486 0.326012 0.167840 -0.045431 0.091337 -0.212841 0.379375 -0.042304 0.231628 0.106612 -0.003832 -0.601708 -0.320995 -0.391080 -0.078473 -0.477558 0.001905 -0.153015 0.237167 -0.476138 -0.505415 -0.132632 -0.351605 0.343623 0.306242 -0.429844 0.263770 0.143753 -0.075050 0.307738 0.225280 0.335363 0.041773 0.253512 -0.034136 1.045590 0.230318 -0.632757 -0.183045 -0.465831 0.318605 0.498264 0.693440 0.355467 0.596085 -0.172017 0.141957 -0.279754 -0.004131 0.412381 -0.007576 0.105912 0.292455 0.599860 -0.395435 0.297267 0.035978 -0.549254 -0.356244 0.391101 0.432194 0.266975 -0.013911 0.295471 -0.273875 0.073994 -0.340930 -0.249350 -0.208120 -0.759203 -0.457620 -0.684568 -0.442825 -0.545177 0.428280 -0.495515 -0.190678 -0.228515 0.616018 0.523160 0.025316 -0.376310 0.163958 -0.199660 -0.290011 0.614953 0.589017 -0.394908 -1.009029 -0.092766 0.931021 -0.879152 -0.074196 -0.095539 0.174898 0.131354 -0.385722 -0.094288 -0.095906 0.408138 0.200734 -0.264509 0.421568 0.060968 -0.033935 -0.322286 0.001540 0.551081 -0.153011 -0.117643 0.011796 -0.616901 -0.233161 0.682579 0.503493 -0.078667 -0.058230 -0.414464 0.065144 1.049734 0.054506 -0.241640 0.475737 -0.225376 0.355905 -0.234601 -0.055227 -0.028626 0.239303 0.451981 0.787988 -0.117433 0.323418 -0.016913 -0.655264 -0.076699 0.091329 -0.300549 0.364742 0.371626 -0.085593 -0.043763 0.215982 0.079424 -0.599113 -0.414156 -0.079722 -0.269184 -0.647890
1(N01) 0.102602 -0.206311 0.117648 0.162613 -0.211746 -0.064068 -0.004845 -0.742772 0.274249 -0.030200 -0.248661 0.259310 -0.033190 -0.072729 0.042337 -0.240935 -0.342082 0.322394 -0.322120 0.459049 0.376464 -0.056607 -0.012673 0.092006 -0.211224 -0.015216 -0.269909 0.000272 -0.014929 -0.162527 -0.136713 0.408072 -0.022458 -0.236672 -0.110788 -0.435547 0.367401 0.561240 -0.217530 0.277232 0.402606 0.156529 0.033381 0.077644 -0.041955 0.227861 -0.403493 0.118320 0.427826 -0.121778 0.201699 -0.630391 0.224009 -0.225381 -0.495509 -0.233444 0.266697 0.246915 -0.339314 0.492778 -0.073080 0.013862 -0.284958 -0.064962 0.131368 0.065853 -0.011396 -0.541415 0.128168 -0.531330 -0.224240 -0.221708 0.519751 0.359444 0.098357 -0.330288 0.533953 -0.706116 0.136236 0.125648 0.106640 -0.244819 0.150679 -0.015523 0.188152 -0.006366 0.436100 0.229121 0.366922 0.367776 0.202490 -0.270342 -0.007880 0.101833 -0.038237 0.461411 -0.327150 0.414261 -0.201374 0.212813 0.338963 -0.146746 0.564770 -0.400528 0.516513 0.265846 0.024516 -0.198365 0.447031 0.382568 -0.172913 -0.068168 0.082163 0.110752 -0.137924 0.157480 -0.107166 0.690174 -0.208556 0.102693 -0.184000 -0.109253 -0.347174 -0.196134 0.114317 0.707261 0.040185 0.035688 -0.087012 -0.069444 0.472492 0.080322 -0.358491 0.271344 0.276477 -0.225557 0.302230 -0.088180 0.263954 0.249951 0.226030 0.069487 0.306371 -0.132907 -0.240055 -0.187583 -0.237055 0.264111 0.559577 0.454140 0.025486 0.469282 -0.640931 -0.044969 -0.445145 0.302535 0.344130 0.077563 -0.344780 0.183334 -0.048221 0.364065 0.631346 -0.010460 -0.457018 0.013018 0.013889 0.407279 0.578858 -0.237125 0.216713 -0.543017 0.270264 0.203600 0.192518 -0.333389 0.094724 0.454041 -0.214867 -0.152869 0.085147 0.349572 0.016684 0.078028 0.225744 -0.147538 0.140023 -0.100947 0.037817 0.124514 -0.009004 0.001599 0.125081 0.275735 -0.234334 -0.747566 -0.486943 0.426168 -0.419184 0.077823 0.176069 0.359841 -0.029565 -0.409126 0.006143 0.033722 0.097351 0.228688 -0.085586 0.039681 -0.043370 -0.009065 -0.157199 -0.253781 0.250009 0.188953 0.040122 0.044204 0.120800 -0.148531 0.622791 0.078697 -0.078093 -0.254177 0.010689 -0.176600 0.384172 0.001433 -0.126594 0.299531 -0.322169 0.384036 0.265664 0.208515 -0.237198 -0.040381 0.492213 0.037249 -0.477786 0.354691 -0.038935 -0.479419 -0.317987 0.275357 0.104227 0.448013 0.221547 0.069413 -0.252160 0.240086 -0.147381 -0.292422 0.165606 0.599784 -0.101228 -0.119335
2(N01) 0.085508 -0.179556 -0.016174 -0.026711 0.082490 -0.101258 0.337216 -0.600378 -0.180415 -0.175220 0.342768 0.329979 0.363779 0.147326 0.246786 -0.218196 -0.264890 0.218293 -0.064773 -0.502557 0.513356 -0.079059 0.229009 -0.025659 0.288876 0.386370 0.315695 0.174369 -0.008446 -0.124680 0.440466 0.139583 0.134257 -0.103492 -0.465416 -0.357910 0.169407 -0.187471 0.081126 -0.206216 0.145220 -0.003695 -0.136326 0.388395 0.223086 -0.246088 -0.282280 0.115790 0.219271 -0.082517 0.562158 0.259114 -0.181139 0.226857 -0.199708 0.095717 -0.037530 -0.138862 -0.426449 0.630499 -0.140049 0.061782 -0.582703 -0.108954 -0.173182 0.580934 -0.016435 -0.335685 -0.022899 -0.458024 -0.077257 -0.277845 -0.080122 -0.099738 -0.044174 -0.445408 0.431133 -0.131791 -0.231334 0.090159 0.617413 -0.381691 0.227784 -0.145326 -0.009114 0.224507 0.311930 0.107445 0.306364 -0.100822 0.208658 0.112072 -0.033777 -0.090515 -0.013801 -0.056348 -0.038128 0.234872 0.496186 0.046850 0.058120 0.204868 0.095094 -0.236753 0.199421 0.285231 -0.120264 -0.406113 0.081283 -0.072786 0.419024 0.147804 -0.165562 0.032930 0.137620 0.338715 0.109289 -0.061085 -0.074270 -0.135618 0.400716 -0.163443 0.268415 -0.322136 -0.089729 0.375776 -0.129668 -0.129282 -0.144597 0.215176 0.326044 -0.322182 0.156560 0.303171 0.205060 -0.142554 -0.522986 -0.219161 0.204519 -0.073991 0.295452 0.296805 0.122539 0.110961 -0.568755 -0.363665 -0.147018 -0.347550 0.505372 0.242507 -0.053769 0.688845 -0.424769 -0.230000 -0.171000 -0.047265 0.342346 -0.046995 -0.371724 0.428614 -0.077214 0.085179 0.149775 0.651805 0.223555 0.049759 -0.618025 1.131133 0.261276 0.353079 -0.000651 0.180097 0.483826 0.097088 0.306693 0.243308 -0.106781 -0.384523 -0.142506 0.247993 -0.071387 0.407393 -0.503671 -0.954744 0.150397 0.083087 0.329063 -0.173667 0.038749 -0.183818 -0.087919 -0.246659 0.443974 -0.058824 -0.056638 -0.496514 -0.269327 0.817071 -0.601016 -0.405863 0.105703 -0.020566 0.034435 -0.414702 -0.056305 -0.154071 -0.106889 0.128924 -0.632384 0.441562 -0.056228 -0.176524 -0.587369 -0.005986 0.211360 0.069711 -0.021481 -0.209020 -0.351228 -0.107040 0.428675 0.298518 -0.050777 -0.422392 -0.079846 -0.033394 0.453296 -0.526238 -0.382246 0.199705 -0.288216 -0.097077 -0.127390 -0.102354 0.092238 0.053735 0.523585 0.077716 -0.151826 -0.208280 0.192908 -0.134978 -0.504235 -0.328546 -0.084239 0.019452 0.347855 -0.100340 0.141383 -0.034534 -0.185703 -0.896013 -0.304063 0.248516 0.054549 -0.128842
1(N14) -0.350345 -0.026022 0.562166 0.299739 0.042248 -0.112132 0.081457 -0.270986 -0.110164 -0.098907 0.392663 0.401202 -0.035749 0.181047 -0.161749 -0.401335 -0.426537 0.251075 0.238621 -0.370438 0.096746 -0.042527 0.586828 0.067284 -0.250331 0.124179 0.070232 -0.403061 0.033889 -0.281209 -0.151687 -0.218836 -0.217334 0.152196 -0.182984 0.010243 -0.332969 -0.117073 -0.269849 -0.421023 0.286873 0.185222 -0.112067 0.279810 0.017444 -0.441818 -0.622886 -0.270504 -0.144409 0.154567 0.376419 0.204529 0.006036 0.079701 -0.866530 -0.008861 0.337908 0.038595 -0.351827 -0.311249 0.294796 0.459119 -0.328084 -0.078925 0.042284 0.559871 0.140420 -0.564026 0.064099 -0.255622 -0.210958 -0.112637 0.176537 0.015497 0.197583 -0.391308 0.067748 -0.621851 -0.035963 0.319785 0.173346 -0.424268 0.225718 0.097507 -0.117094 0.510728 0.337492 -0.126901 0.242682 0.377348 0.008228 0.222992 0.089548 -0.060743 -0.166132 -0.060480 -0.107699 0.389373 0.307698 -0.057711 0.279800 0.177089 0.717178 -0.072479 0.599931 -0.025584 0.261155 -0.126688 0.260757 0.450029 0.108439 0.078685 -0.266222 -0.512272 -0.003244 -0.098495 -0.137045 0.213332 -0.180028 -0.143773 0.050709 -0.368495 0.214786 -0.765347 -0.120029 0.262340 -0.269986 0.253817 -0.410108 0.103756 0.424253 -0.418345 -0.181106 -0.170131 -0.047926 -0.378850 -0.061584 -0.107771 0.311450 -0.009089 0.368924 0.602142 0.193073 -0.327760 -0.516089 0.011281 -0.518411 0.027336 0.231123 0.189386 -0.314856 0.868540 -0.127871 -0.300832 -0.285754 -0.018603 0.389242 0.063991 -0.073617 0.697523 0.161699 0.027900 0.546734 0.077454 -0.009309 -0.451963 0.062600 0.613810 0.312587 -0.382556 0.069335 -0.335353 0.044950 -0.030385 -0.345145 -0.066819 0.009119 0.280037 -0.374007 -0.172273 -0.315436 0.103367 -0.492267 -0.520960 0.006227 0.019015 0.119086 -0.363854 0.272503 -0.016899 0.131800 -0.000607 0.811004 -0.129621 -0.206831 -0.730595 -0.461370 0.921658 -0.018718 -0.201321 -0.172755 0.202459 0.182361 -0.250299 0.222546 0.372591 -0.210511 0.518259 -0.178758 0.496720 -0.173502 -0.120779 -0.410271 -0.251710 0.050412 -0.124565 -0.023208 -0.137608 0.204164 -0.187053 0.430348 0.228875 0.067165 0.062645 -0.215115 -0.227673 0.614074 0.174683 -0.185096 0.183632 -0.272746 -0.266393 0.415335 -0.228929 0.410232 -0.459646 0.632858 -0.015939 -0.039791 -0.029091 -0.542390 -0.092300 -0.295680 -0.017290 0.245573 0.241906 0.257046 0.273168 -0.310503 0.178666 -0.073394 -0.376020 -0.196752 0.247256 0.227799 0.442810
M288 0.100032 0.078811 0.476944 -0.188125 0.020378 0.000395 0.412032 -0.257132 0.116357 -0.179178 0.681001 0.618727 0.287650 0.248052 0.228359 -0.023183 -0.406561 -0.036536 -0.022787 0.012261 0.201310 -0.293319 0.521233 -0.102651 -0.061695 0.265626 0.241540 0.031678 -0.344189 -0.142954 -0.352421 0.037586 -0.111083 -0.097830 -0.538444 -0.312048 0.319212 -0.207507 0.483149 0.060449 0.333711 -0.190757 0.001117 0.002603 0.399907 -0.499854 -0.700859 -0.175516 0.380226 -0.091926 0.528752 -0.022971 -0.121669 0.400274 -0.267076 0.128290 -0.119261 -0.401746 -0.304457 0.275232 -0.012259 -0.397917 -0.379915 -0.027294 -0.119258 0.208014 -0.166753 -0.340042 0.577363 -0.384367 -0.065874 -0.088520 0.044090 0.066039 0.236968 -0.042256 0.282626 -0.695664 -0.197040 0.240081 0.200242 -0.254917 0.011870 -0.101608 -0.212030 0.527854 0.473131 0.152372 0.326266 0.267805 0.009717 0.085497 0.326634 0.105327 -0.177478 -0.358309 -0.310058 0.249265 0.234557 0.211800 0.125811 0.051804 0.446302 -0.142522 0.198182 -0.245362 -0.590669 0.172352 0.044695 -0.154302 0.008239 -0.001528 -0.216841 -0.014968 0.119468 -0.103225 0.527129 -0.025318 -0.555244 -0.287760 0.124932 -0.157936 0.367431 -0.203396 0.007434 0.136790 -0.697089 -0.195619 -0.125020 0.000821 0.016641 -0.016116 0.084313 -0.199486 0.572987 -0.098344 -0.299295 -0.123661 -0.119526 0.405415 0.175004 0.346942 0.624631 -0.061572 -0.249847 -0.232885 0.020729 0.400768 0.376600 0.043756 -0.288828 0.595112 -0.597015 -0.508727 0.061243 0.180977 0.171666 -0.138081 0.040587 0.160801 0.313239 -0.137260 0.179362 0.330339 -0.179969 -0.492214 -0.112669 0.897209 0.730527 0.041246 -0.137625 -0.233823 0.294905 -0.263884 0.046402 -0.050871 -0.259736 -0.062666 0.006082 -0.327668 -0.295968 -0.123271 -0.519108 -0.501902 0.237491 0.294760 -0.024790 -0.164498 -0.297992 0.024572 -0.116411 0.073869 0.188727 -0.022839 -0.196099 -0.495448 -0.032092 0.789552 -0.121272 -0.053726 -0.308205 -0.322105 0.263540 -0.269912 0.161305 0.293994 0.273322 0.209195 -0.366364 0.692455 0.097588 0.373774 -0.254850 -0.157489 0.314830 0.119320 -0.046908 0.006043 -0.349887 -0.123633 0.220389 0.337687 -0.828335 -0.106919 0.128147 -0.078708 0.472694 -0.153512 -0.062438 -0.029280 0.226735 -0.263891 -0.023061 0.013937 0.208348 -0.181862 0.400470 0.024414 -0.266656 0.099245 0.171883 -0.344529 -0.296808 0.110034 -0.091559 0.403528 0.261297 0.051042 0.186963 0.575099 -0.041791 -0.574162 -0.099235 0.383962 0.072491 -0.241380
3(N01) 0.142258 -0.135859 0.664124 -0.025377 -0.230005 -0.012814 0.175570 -0.263546 -0.262788 -0.130440 0.219914 0.203636 0.131381 0.410246 0.117866 -0.037026 -0.254059 0.005194 0.025591 -0.447807 0.417958 -0.121919 0.089914 -0.054213 -0.359545 0.039234 -0.204591 -0.198126 -0.301177 -0.438519 -0.091553 0.652973 -0.115937 0.211499 -0.081696 0.071680 0.216143 -0.154636 -0.360146 0.111911 0.235821 -0.069674 -0.194461 0.806621 0.072292 0.335554 -0.540402 -0.230094 -0.245437 -0.541867 0.423206 0.096117 0.125830 -0.089285 -0.348887 -0.337342 0.259621 0.468822 -0.140865 -0.060593 -0.247804 -0.214619 -0.693248 -0.126713 -0.532163 0.168262 0.382556 -0.541294 -0.262111 -0.650701 0.473667 0.097584 0.163760 -0.006919 0.133481 -0.261756 0.479946 -0.296072 -0.214300 0.057346 0.372186 -0.107076 0.205154 -0.385208 -0.245470 0.199448 0.212329 -0.211108 1.012165 0.598461 0.201898 -0.081189 -0.101640 0.500609 0.127587 -0.179815 -0.300603 0.349069 0.455349 0.443832 0.158179 -0.178960 0.483708 -0.161043 0.263827 -0.303998 -0.156944 0.010367 0.365420 -0.154806 -0.394017 0.173486 -0.731119 -0.183641 0.325860 -0.250586 -0.166459 0.143823 -0.309182 0.065662 0.111782 -0.154999 -0.070071 -0.625844 -0.109565 -0.000711 -0.141013 -0.308039 -0.371541 -0.412110 0.505368 -0.232143 0.119823 -0.224011 0.612260 -0.280398 -0.409897 0.100381 0.730590 0.071785 0.409306 0.762230 -0.139745 -0.195764 -0.359876 -0.037340 -0.491994 0.076662 0.553770 -0.297717 0.378096 0.694338 0.111847 -0.545868 0.285427 -0.229689 0.083953 0.127083 -0.149860 0.306607 0.364583 -0.175627 0.352626 -0.053099 0.159210 -0.047647 -0.280621 0.286593 0.375959 0.356442 0.204149 -0.251498 0.035079 0.117481 0.409272 0.063870 0.033006 -0.075396 0.038856 0.144413 -0.611134 -0.019043 0.070425 -0.232675 0.066698 0.430922 0.222879 -0.231829 0.190119 -0.301208 -0.000306 0.218151 -0.296311 -0.193128 -0.337308 -0.431459 -0.022817 -0.052973 0.013146 -0.157524 -0.450272 0.193629 -0.220710 -0.229030 0.342822 -0.009021 -0.356872 0.165151 -0.662527 0.847267 -0.079719 -0.056590 -0.385817 0.229469 0.244701 -0.171083 -0.468893 0.088199 0.044393 0.192970 0.376617 0.394396 -0.224298 -0.602479 0.164033 -0.050289 0.516448 -0.111657 -0.312737 0.393350 0.095430 -0.117468 -0.169635 -0.170609 0.548143 -0.201654 0.422928 0.406003 -0.427503 -0.260738 -0.050543 -0.100406 0.118012 0.048841 -0.279247 0.422982 0.346795 0.143883 0.038985 -0.228343 -0.266020 -0.661433 -0.815161 0.467467 0.035899 -0.336345
M388 0.123754 -0.127894 0.230336 0.393552 -0.171328 -0.113722 -0.339566 -0.247386 -0.013998 -0.323484 0.172588 0.251021 -0.364747 0.006519 -0.140294 0.006612 0.120199 0.003086 -0.189633 0.292475 0.183691 0.310614 0.364163 0.171889 0.145285 0.324069 -0.092356 -0.674300 -0.072190 -0.051670 -0.162304 0.607870 0.008482 -0.393487 -0.630760 -0.662532 -0.308778 -0.619601 0.063802 -0.022274 0.500542 0.466845 0.029082 -0.053019 0.311485 0.380276 -0.109265 0.307995 -0.057235 0.620182 -0.121674 0.164659 -0.107487 0.347908 -0.418292 -0.221123 0.137650 0.008128 0.046823 0.220704 -0.047338 0.464309 0.294798 -0.540816 -0.307411 0.169861 0.537033 -0.356383 0.441954 -0.355528 -0.194860 0.116661 -0.253538 -0.332091 0.352394 0.178080 -0.186853 -0.604766 -0.388463 0.224616 -0.183719 0.100305 -0.168411 0.231795 0.278098 0.230779 0.190256 0.721393 0.092277 0.408324 0.003161 -0.099873 -0.082001 -0.177669 -0.210308 -0.331164 -0.401164 -0.292002 0.160213 -0.432857 -0.142589 -0.175823 0.090814 -0.346135 0.344441 0.332352 0.254762 -0.319551 0.510644 0.212029 -0.077719 -0.035400 -0.138808 0.045418 -0.267336 0.050959 0.227712 0.207099 -0.138556 0.362704 0.142392 -0.056322 0.046779 -0.151230 -0.159987 0.092455 -0.225629 -0.564207 -0.269820 -0.139037 0.065019 -0.190449 -0.293693 0.043522 -0.214539 0.301891 0.080831 -0.102870 -0.096853 0.126402 0.267996 0.038421 0.557444 0.348083 -0.221793 -0.016372 -0.194057 0.458216 0.592626 0.473457 -0.237281 0.619190 0.108668 0.319265 -0.228974 0.207958 0.374715 0.089743 0.087946 0.238864 -0.224576 -0.081988 0.429643 0.129307 0.576059 0.065510 -0.351511 0.160571 0.077346 0.070365 0.037468 -0.420211 0.345964 -0.408645 -0.149763 -0.365138 -0.001549 0.252906 -0.181547 -0.310157 0.049891 -0.032125 -0.418149 0.190045 -0.177418 0.358360 0.750081 0.117605 -0.113030 0.034866 -0.060592 -0.499628 0.371627 -0.161199 -0.228075 -0.281798 -0.000504 0.671662 -0.379370 -0.041834 0.109655 0.405973 -0.009636 -0.693978 0.047679 -0.079017 0.234458 -0.328167 -0.246158 0.050480 -0.346383 -0.121365 -0.256789 -0.215062 0.204446 -0.020028 0.245263 -0.018301 0.215554 -0.342124 0.273109 0.035467 0.219933 0.220902 -0.075157 0.219928 0.365328 0.241119 -0.515018 -0.034969 0.231888 -0.320033 -0.219821 0.112934 0.147702 0.104966 0.213917 0.563001 -0.214443 -0.138784 -0.213605 -0.453153 -0.032886 -0.019867 -0.366561 0.059808 0.038846 -0.276913 0.149191 -0.220272 -0.390641 0.009341 0.197177 0.359592 0.432533 -0.440383
1(N24) -0.200568 -0.109734 -0.312879 -0.266810 -0.444751 0.043636 0.322393 -0.976854 0.198194 -0.144483 -0.009083 0.038539 0.733368 -0.075172 0.105067 0.608073 0.059131 -0.094750 -0.218953 -0.247234 0.482680 -0.204278 0.393744 0.100003 0.258199 -0.002151 0.230255 0.165207 -0.449867 0.426467 -0.133252 0.735660 0.132895 -0.295263 -0.209800 0.324603 0.722954 0.285947 -0.377621 0.175723 -0.022170 -0.258691 0.297946 -0.319616 0.177309 -0.357994 -0.888354 0.433519 0.462499 -0.355091 0.209370 -0.504011 0.527044 -0.031121 -0.854476 0.596969 -0.152568 0.415042 -0.639306 -0.149060 -0.649063 -0.154302 -0.766245 0.278161 -0.284393 0.049904 -0.158619 -0.261027 0.950140 -0.296855 0.677182 -0.261600 -0.383762 0.400319 -0.354730 -0.234503 0.455916 -0.137456 0.573721 -0.386013 0.108014 -0.787199 -0.026710 0.231505 -0.126421 0.142651 -0.353242 0.354925 -0.280254 -0.207208 0.511339 -0.661688 -0.168996 0.671098 0.002931 -0.218161 -0.252224 -0.082271 0.314902 0.076785 0.355421 0.459889 0.302288 0.343401 -0.115935 -0.046373 -0.238199 0.497434 0.088071 0.457452 0.255417 0.181082 0.084592 0.016514 0.146249 -0.596908 0.217720 0.354427 -0.002824 -0.153671 0.155431 -0.018659 0.077496 -0.458027 -0.704369 0.327495 -0.266559 0.228276 -0.000879 -0.938954 -0.251918 -0.309639 0.267787 0.509886 0.324280 0.142574 -0.272663 -0.124792 0.305338 -0.190873 0.379604 -0.024067 0.746490 0.126365 -0.537994 -0.365984 0.715494 1.088166 0.313246 0.432773 0.144531 0.550305 -0.014268 -0.409737 -0.010964 0.117100 -0.537788 0.087942 -0.037003 0.286487 0.368600 0.523895 -0.612328 0.469464 0.199635 -0.143747 0.208896 0.550150 0.709099 0.245151 -0.214395 -0.003425 0.275051 -0.192910 0.137155 -0.160522 -0.187220 -0.148390 -0.074966 0.030525 -0.332097 0.417577 -0.219508 0.134814 0.012674 0.077367 0.242860 0.116096 0.426898 -0.159701 0.262892 0.171637 -0.084485 0.267961 -0.127844 0.009787 -0.065367 0.528977 0.075307 -0.227526 -0.122904 -0.059878 0.318433 -0.086517 -0.194456 0.746869 -0.029958 0.195017 0.006058 0.268674 0.600696 0.402090 0.025034 0.107516 0.353399 -0.306248 -0.484997 0.145841 -0.450203 0.083276 0.278178 0.208681 -0.437960 -0.101644 0.468947 -0.631765 0.155223 -0.470104 0.214011 0.070291 0.129944 0.138244 0.294438 -0.687903 0.226267 0.150958 0.505998 -0.353856 -0.204811 0.292355 0.273616 0.182932 -0.489259 -0.100058 0.350348 0.135089 0.039233 0.153590 -0.225164 0.706362 -0.012518 -0.329062 -0.131745 -0.073311 -0.428701 0.048172
M218 -0.017708 -0.033269 0.544788 0.496686 -0.078581 -0.037358 -0.040497 -0.192486 0.411244 -0.393006 -0.392559 0.413687 0.165642 0.228738 -0.205667 -0.333338 -0.335209 0.189843 -0.550438 0.181990 0.606031 0.175900 0.238668 -0.215033 -0.037186 0.110892 -0.098523 -0.536375 -0.344621 0.000759 0.465724 0.201243 -0.485881 -0.575895 -0.594235 -0.783432 0.002312 0.139182 0.201311 0.139408 0.460755 0.262187 0.324548 0.036314 0.321091 -0.276204 0.044062 0.240664 0.264473 0.248962 0.376413 0.046158 0.183317 -0.100141 -0.441802 -0.309138 -0.052359 0.038927 -0.152045 0.283883 0.019741 0.255384 -0.182324 -0.635203 -0.051108 0.328183 0.083280 -0.533057 0.559005 -0.353261 0.145941 0.013240 -0.287983 -0.050996 0.053472 0.103527 -0.006331 -0.329791 -0.101632 -0.391849 0.413168 -0.279004 0.005692 0.068980 0.176578 0.400301 0.082635 0.428429 0.470327 0.083668 -0.302011 -0.327497 0.065096 -0.078794 -0.394932 0.259127 -0.522876 -0.104801 -0.005879 -0.148623 -0.142003 -0.405599 0.391612 -0.132661 0.179682 0.296290 -0.303183 -0.637696 0.744242 0.124347 0.105222 -0.137979 0.190576 0.043518 -0.285920 0.056489 0.101584 -0.113255 0.015566 0.044369 -0.049780 -0.201212 0.260550 -0.148088 0.200429 0.089570 0.132638 0.057255 -0.137164 0.049267 0.632912 -0.145223 -0.411055 -0.003838 0.394444 0.297763 0.099003 -0.209980 0.369644 0.253296 0.360642 -0.039874 1.079498 0.061105 -0.035554 -0.045468 -0.069859 0.266891 0.231156 0.109523 0.062849 0.396078 -0.257460 -0.345629 0.393778 0.140285 0.622636 0.019603 0.171682 -0.054482 -0.101270 0.118479 0.174010 -0.091216 0.275859 -0.339754 0.022231 0.550724 0.107286 0.089620 -0.149852 -0.281989 0.488126 -0.237105 -0.194029 0.029303 0.056764 0.201594 -0.059533 -0.115128 0.074066 0.092628 -0.416958 -0.171246 -0.331204 0.005242 -0.352213 -0.006808 0.186163 -0.160800 -0.077696 0.090367 0.247693 0.126064 -0.234065 -0.379640 0.184365 0.859807 -0.653266 -0.075223 -0.072509 0.194812 0.043289 -0.526536 -0.011962 0.355059 0.145805 0.220420 -0.593548 -0.105246 -0.049647 0.269754 -0.063612 -0.015498 0.208098 0.362399 0.056995 0.303969 0.152336 -0.396900 0.133369 0.223647 -0.355040 -0.082966 -0.275602 -0.025095 0.834308 -0.370532 -0.351760 0.415297 -0.236941 0.331246 -0.518287 0.528669 0.098958 -0.340897 0.507877 0.541906 -0.864721 0.045832 0.625596 -0.309718 -0.485028 0.234881 0.057943 0.249718 0.178950 -0.445912 0.181348 0.054481 0.334137 -0.408367 0.227337 0.430295 0.399616 -0.159621
M387 0.278529 -0.375620 0.224972 0.010822 0.250038 0.126858 0.511154 -0.157543 0.015115 0.053725 0.104000 0.484761 0.171907 -0.262117 0.238755 0.240542 -0.361898 -0.168837 -0.400335 -0.229789 0.626616 0.162045 -0.263225 -0.288718 0.242034 -0.145099 -0.213847 -0.461811 -0.554205 0.032044 -0.300452 0.776253 -0.282471 -0.369122 -0.007019 -0.393691 0.229841 -0.124285 -0.025294 -0.219626 0.232294 -0.282937 0.157986 0.486815 -0.041547 0.187008 -0.144325 0.170000 -0.189431 -0.281651 0.010238 0.241532 0.329383 -0.190491 -0.610470 0.308860 0.020464 -0.232666 -0.642123 0.201342 -0.265153 0.201691 -0.006111 -0.284951 -0.000418 0.046870 -0.332264 -0.375256 0.266125 -0.086109 0.299776 -0.591595 -0.742342 0.052653 -0.001265 0.121542 0.075890 -0.281567 0.086928 0.096276 -0.039716 -0.584443 -0.198983 0.091970 -0.100652 0.081774 0.004371 0.369981 0.069794 0.086339 0.101426 -0.079072 -0.240148 -0.160066 -0.158832 -0.048012 0.035432 -0.271836 -0.119199 0.079117 0.025500 -0.137510 0.488778 -0.084038 0.117254 0.610393 0.077165 -0.230512 0.844431 0.110006 0.293361 -0.335728 -0.085007 -0.060980 -0.132321 -0.270654 0.528874 -0.348162 0.197952 0.096619 0.281818 -0.058002 -0.145527 0.150098 -0.293229 0.606882 0.267090 -0.105242 0.066713 -0.303235 0.141694 -0.428953 -0.280012 0.368072 0.290090 -0.095051 -0.297589 0.277032 0.550976 -0.013128 0.180977 0.200097 -0.123176 0.217684 -0.391938 -0.369895 -0.159685 0.739145 0.808504 -0.233250 0.157020 0.299083 -0.284234 -0.186464 -0.338999 -0.046555 0.244662 -0.184739 -0.187854 0.222328 -0.413868 0.317942 0.407010 0.009244 0.052263 -0.299568 0.078586 0.448328 0.234544 -0.153627 -0.258402 -0.135738 0.167184 -0.275291 0.007920 -0.687413 0.093031 0.042056 0.061646 -0.488205 -0.091804 0.283182 -0.178898 -0.110831 -0.078922 0.244262 0.215456 0.047864 -0.416806 0.258730 0.095878 -0.247143 0.214334 0.408159 -0.007245 -0.185715 -0.023803 0.265777 -0.097484 -0.380972 0.410567 0.540957 0.595374 -0.455435 -0.274946 0.017440 0.113381 -0.005305 0.033181 0.245912 0.123168 -0.792786 -0.296877 -0.573871 0.334943 0.968999 -0.311405 -0.245135 -0.145961 -0.001796 0.113864 0.535140 -0.244151 0.033090 0.187068 -0.337085 0.484335 0.281580 -0.571796 -0.046907 0.246832 -0.593442 -0.530708 0.198499 0.324241 -0.010096 0.315225 0.133563 -0.429135 -0.063633 -0.182565 -0.064548 -0.068212 0.082437 0.026267 -0.113805 0.338825 -0.576586 -0.019104 0.190753 -0.031773 -0.156934 0.272010 0.423727 -0.199287 -0.303600
4(N01) 0.021715 -0.534470 0.135601 0.280131 0.219773 -0.246808 -0.008299 -0.493965 0.467850 -0.541500 0.524076 0.332171 0.532339 0.211436 0.121781 0.264757 -0.606863 0.200202 0.073781 -0.112588 0.365860 -0.079891 0.428798 0.212141 -0.058274 -0.322120 -0.428114 -0.177250 -0.332456 0.105422 -0.837064 -0.208496 -0.114087 0.054968 -0.339732 -0.154283 0.024024 -0.265752 0.040406 -0.219996 -0.361372 -0.028608 0.331301 0.132821 0.241322 -0.347372 -0.572772 0.121337 0.419886 -0.125146 -0.057375 0.268288 -0.446870 -0.120214 -0.744924 0.433481 0.234116 -0.526444 -0.892215 0.052981 -0.243636 0.104849 -0.194017 0.309681 0.459697 0.088062 -0.059140 -0.225059 0.425603 0.119635 -0.266714 0.326717 -0.044464 0.285480 -0.161865 -0.293644 0.168565 -0.399827 -0.648429 0.130219 0.269329 -0.260961 0.047750 0.142662 -0.178293 0.531628 -0.201672 0.418650 -0.233388 0.268015 -0.285169 -0.237542 -0.074753 -0.043777 -0.334942 -0.449428 0.353504 0.173890 0.148187 0.032759 -0.043068 0.407239 0.355418 0.081732 0.594146 0.036174 0.281359 0.130709 0.013723 -0.099081 0.296785 0.527687 0.020596 -0.474512 -0.083532 0.086777 0.461696 -0.061836 -0.106692 -0.324470 0.294705 -0.346535 -0.065832 -0.024834 -0.182641 0.028925 -0.440497 0.184901 -0.175741 0.197368 0.320637 -0.243198 -0.194486 0.215646 -0.583408 -0.107189 -0.094327 0.111185 0.030253 -0.092153 0.312149 0.778202 0.771503 -0.004139 -0.726097 -0.370733 -0.035121 0.241808 0.199345 -0.055217 -0.036774 0.861697 0.124574 0.132393 -0.013289 -0.309767 0.112506 -0.090914 0.266174 0.331775 -0.154339 0.303886 0.368497 -0.326870 0.078158 -0.828673 0.391104 0.528287 0.509661 -0.698381 -0.381230 -0.357284 0.245424 -0.149503 0.091825 -0.365425 0.364589 -0.002598 -0.589111 -0.067685 0.286491 0.239087 -0.421192 -0.096856 0.251487 0.146086 0.069740 -0.277592 0.018469 0.230078 0.425211 -0.208149 0.778490 0.439505 0.174579 -0.149475 -0.142501 0.387589 -0.448612 -0.056837 -0.059666 -0.032858 -0.127576 0.001824 -0.308492 0.087303 0.558620 0.567020 0.512173 -0.130789 0.057221 0.336469 -0.164846 -0.149915 -0.163995 -0.281656 0.179694 0.302331 -0.075138 0.082493 -0.035474 0.264255 -0.255235 0.403450 -0.084966 0.067418 0.351445 0.183660 -0.189972 0.066713 -0.379110 -0.131256 0.249093 0.010386 0.466402 -0.363115 0.556669 -0.236741 0.660886 -0.019172 -0.192006 0.095420 -0.409784 0.164533 -0.401140 0.230529 -0.093590 0.035559 0.052393 -0.011044 0.047194 0.116381 0.120137 0.157949 -0.161364 0.495647
1(N39B) -0.523352 -0.151786 0.173011 -0.287068 0.307284 0.125682 0.359080 -0.822082 0.359805 -0.390107 -0.319100 0.340268 0.293687 0.098459 0.593678 -0.272120 -0.025048 0.588371 0.293893 0.047575 0.394704 0.032636 -0.132126 -0.178800 0.038921 -0.329389 -0.325091 0.139307 -0.504916 0.105846 -0.014298 0.155371 -0.389604 -0.193211 -0.228378 -0.478882 0.600809 0.566631 -0.322450 0.012276 -0.066857 -0.298208 -0.108678 -0.113689 -0.275247 0.108870 -0.552996 0.167622 0.320118 -0.213143 0.180242 -0.584208 0.036493 -0.190594 -0.378715 0.327188 0.515898 0.056828 -0.982633 -0.254352 -0.506737 -0.370138 -0.402552 0.242361 -0.154489 -0.048986 -0.016929 0.132141 0.748559 0.088352 -0.053128 -0.428845 -0.326952 0.264149 0.069581 -0.319587 0.512393 -0.052646 -0.203144 -0.270162 0.421937 -0.523507 -0.045195 -0.048370 0.158545 0.368806 0.360252 0.263571 0.145608 0.085664 0.023128 -0.327577 -0.102226 0.260556 -0.054337 -0.010112 -0.106227 0.035289 0.155879 0.428427 0.026035 -0.044755 0.528421 -0.185076 0.010156 -0.313497 -0.438675 0.134032 -0.016952 -0.003793 0.154780 0.297858 0.048473 -0.500972 0.441289 0.077631 0.038526 0.413879 0.185369 -0.400151 0.032319 -0.591894 -0.133462 -0.253158 -0.299195 0.403865 0.003922 -0.012480 -0.298874 -0.102477 0.042675 -0.225419 0.191569 0.307304 0.488651 -0.101212 -0.375577 0.474071 0.427423 0.525375 0.499108 -0.041112 -0.096657 0.148231 -0.211982 -0.716758 0.266478 0.337792 0.114868 0.118479 0.464243 0.594361 0.027168 -0.239241 0.311964 -0.067710 -0.200917 -0.174651 0.042653 -0.018975 0.053314 0.271513 0.155384 -0.188203 -0.135989 -0.078810 -0.300130 0.571194 0.278964 0.530162 0.170458 -0.084310 0.064786 -0.125253 0.492963 -0.163844 -0.360535 -0.196332 -0.178551 -0.127773 -0.129334 0.035327 0.070947 -0.523762 -0.075232 0.510224 0.241453 0.056172 0.291312 -0.300841 -0.284901 -0.015338 -0.091466 0.831112 0.287558 -0.108236 -0.282361 0.257339 0.166845 -0.440368 -0.129616 -0.011367 0.278862 -0.388717 0.312846 0.242939 -0.267717 0.314275 0.146120 0.209598 0.345581 -0.393591 -0.139702 -0.105909 0.316971 -0.200986 -0.023347 0.070510 -0.342702 0.030161 0.440618 0.240597 -0.525546 -0.026114 -0.105631 -0.206845 -0.013271 -0.212937 -0.050431 0.091803 -0.481325 0.496329 -0.070739 -0.567704 0.371537 0.100152 0.760769 0.031596 -0.226290 0.035605 0.188424 0.285864 -0.470685 -0.012512 0.590656 0.177367 -0.051281 -0.167624 -0.576484 0.094198 0.306802 -0.737274 -0.171562 0.156227 -0.440853 -0.168224
2(N39B) 0.222545 -0.240560 -0.050096 -0.270116 -0.175316 0.192810 0.147711 -0.648713 -0.133322 -0.201590 0.326718 0.165197 0.560079 -0.044953 0.487798 0.765592 -0.455375 0.147476 -0.191007 -0.053331 -0.031792 -0.259252 0.220978 0.197948 0.178552 -0.164983 -0.263116 0.212605 -0.430080 0.085862 0.101818 0.120712 0.042883 0.144448 -0.227200 -0.085943 0.089548 0.104798 -0.171234 0.248893 0.137612 0.087050 0.182518 -0.009133 -0.417082 -0.470754 -0.641984 0.275129 0.307176 0.026965 0.669706 -0.525988 0.301391 -0.175939 -0.401662 0.181052 -0.012938 0.044856 -0.364088 -0.041501 -0.293644 -0.398221 -0.559310 0.330089 -0.435257 0.097984 -0.265800 -0.296777 0.669567 -0.590304 0.548367 -0.095326 -0.471415 0.280056 -0.254573 -0.001920 0.027164 -0.206767 0.160871 0.019225 -0.022986 -0.809556 -0.268326 0.062145 0.059748 0.147562 0.205713 0.086558 0.171990 -0.353383 0.675363 -0.200194 0.033767 -0.064214 -0.098960 -0.064897 -0.269577 0.034478 -0.032661 -0.143584 0.500195 0.457968 0.345937 -0.391628 0.222493 -0.483271 -0.570822 0.403085 0.043542 0.163896 0.138221 0.276736 -0.188971 -0.250221 -0.128843 -0.247920 0.553737 0.056241 -0.051080 -0.086769 -0.014077 -0.196226 -0.214359 -0.229532 -0.468445 0.130151 0.192444 -0.221412 0.194902 -0.424845 -0.179705 -0.360902 -0.299878 0.603531 0.388984 0.052946 -0.314537 -0.239581 0.183738 -0.001960 0.248908 0.217774 0.543342 0.363766 -0.197938 -0.622952 0.221958 0.499873 0.422152 0.062571 0.290354 0.770693 -0.251031 -0.348333 0.349504 0.155472 -0.606516 -0.007457 -0.213912 0.370964 0.308539 0.042934 -0.104259 0.135445 0.006581 -0.188398 -0.044189 0.408001 0.731529 0.065334 -0.122714 -0.137272 -0.112630 0.268594 0.229743 -0.282900 0.238435 -0.167604 -0.254251 -0.006992 -0.355516 0.172999 -0.236220 -0.337576 0.393937 0.161610 -0.167756 -0.156774 -0.243896 -0.519921 0.108674 -0.153538 -0.120993 0.224227 0.080277 -0.145317 -0.216444 0.365027 0.246171 -0.328293 0.114420 -0.206513 0.038725 -0.207414 -0.026119 0.089010 -0.078187 0.425591 -0.074060 0.182290 0.262245 0.114255 -0.207283 0.198440 0.350033 -0.366149 -0.468915 -0.104897 -0.374955 0.189346 0.432220 0.330718 -0.203190 -0.145438 0.049165 -0.155707 0.443766 -0.232181 -0.418654 0.335198 0.047054 0.107928 0.212034 -0.370531 -0.193885 0.329089 0.334296 -0.153253 0.240476 -0.250130 0.020711 -0.267537 -0.248430 0.148502 -0.198459 0.475624 -0.008359 0.105702 -0.250556 -0.003565 -0.066058 -0.030056 -0.355031 -0.001628 -0.254743 -0.173115
5(N01) -0.420280 0.058403 0.254279 0.448228 0.279770 -0.257081 -0.043207 0.380841 -0.172562 0.021873 0.498539 0.488480 0.147570 0.341321 -0.131264 0.141323 -0.475080 -0.063658 0.221580 -0.137431 0.030899 -0.084488 0.107900 0.251132 0.084576 -0.054803 -0.330432 -0.588296 -0.657818 -0.020159 -0.277540 -0.065258 -0.570191 0.151932 -0.298998 0.337820 0.349851 -0.380675 -0.133148 -0.321429 0.026395 -0.070918 0.100251 -0.032301 -0.072688 -0.186410 -1.005648 -0.195547 0.028178 -0.280755 0.471690 -0.214561 0.077337 0.227627 -0.593928 0.511204 -0.040954 -0.307275 -0.305282 -0.281272 0.373836 0.283713 -0.146973 -0.154983 -0.423696 0.375072 0.029875 -0.630218 0.092918 -0.269105 -0.047531 -0.190282 -0.545035 0.133210 0.127865 0.035868 -0.122570 -0.226047 0.049588 0.139871 -0.120523 -0.609531 -0.490118 0.002617 -0.676915 0.461146 0.440494 -0.169947 0.052322 0.515169 0.188534 -0.184920 -0.134803 0.099884 -0.246852 -0.338323 0.114626 0.007635 0.000436 0.294114 -0.102061 0.570300 0.398691 0.270247 0.110520 0.096191 -0.128188 0.431799 -0.099979 -0.079290 0.048541 0.338788 0.171523 -0.501686 -0.226062 -0.588638 0.221270 0.220149 -0.411165 -0.081944 -0.026013 -0.613536 -0.021207 -0.112868 -0.241226 0.153631 -0.294068 -0.134890 -0.252919 0.005781 0.114730 -0.557604 0.048403 0.081302 0.366564 -0.278570 -0.215132 0.096519 0.197539 -0.113285 0.561076 0.535653 -0.206884 -0.043228 -0.402105 -0.357655 -0.076257 0.374687 -0.127851 -0.237031 -0.266625 0.630084 0.150636 0.444020 0.121904 -0.191894 -0.114376 -0.049933 0.073217 0.415280 -0.184703 -0.276659 -0.325327 -0.041189 -0.063814 -0.335070 -0.121689 0.649884 0.305706 -0.269029 -0.121968 0.238054 -0.681946 0.126380 -0.468389 -0.366181 -0.316057 -0.090455 0.052752 -0.555126 0.013733 -0.251178 -0.382525 -0.590665 0.277177 0.109688 0.156120 0.255759 -0.126533 -0.395627 0.230270 -0.074387 0.279177 0.028327 -0.063956 -0.349671 -0.588639 0.521675 0.313574 -0.401039 -0.374929 0.007615 0.382532 0.077174 -0.135308 0.327284 0.108240 0.134774 0.489956 0.437172 -0.157906 0.416400 -0.201492 -0.174390 -0.352288 -0.067851 -0.021536 0.128798 0.157216 -0.032156 0.094818 -0.325435 -0.624936 0.471739 0.033978 -0.125548 0.776080 0.119422 -0.263718 0.348437 0.409321 -0.340803 0.279277 -0.241460 0.344716 0.297028 0.312907 0.271019 -0.068869 -0.077454 -0.145390 0.188030 0.436452 0.233044 0.187150 -0.013934 -0.187356 0.040486 -0.297509 -0.673344 -0.001543 0.045929 -0.120114 -0.283439 -0.082700 0.038399
M297 -0.238429 -0.119635 0.129293 0.228346 0.080000 0.049249 -0.030203 -0.544000 -0.217361 -0.003361 0.193627 -0.111000 0.136960 -0.178563 0.389085 -0.020664 -0.209997 -0.019043 0.219502 0.072849 0.237458 0.005767 -0.089806 0.083135 0.436233 -0.397875 -0.221416 -0.265403 -0.486504 0.298344 0.096989 0.369761 0.159225 -0.214427 -0.176570 -0.119350 0.205901 -0.148319 -0.401762 0.291185 0.256851 -0.108518 -0.067724 -0.071770 -0.388394 0.083304 -0.332566 0.100929 0.053838 -0.041811 0.218261 -0.637061 0.233534 -0.002645 -0.331088 0.142675 0.288060 0.186390 -0.735272 0.165682 -0.172823 -0.022103 -0.175353 -0.005689 -0.317348 0.037052 -0.006158 -0.022763 0.425735 -0.474486 -0.090939 -0.093021 -0.273396 0.199533 -0.081428 -0.247536 0.144867 -0.559922 0.079305 0.102789 0.284418 -0.192568 -0.275754 -0.314781 0.065074 -0.210018 0.172386 0.400807 0.299453 -0.005525 0.130380 -0.280134 -0.434235 0.247864 -0.115582 -0.069819 -0.359332 0.046919 -0.045658 0.228930 0.397606 -0.117469 0.223033 -0.100045 0.188894 -0.135723 -0.152123 0.017222 0.355737 0.091583 -0.080526 0.573645 -0.115398 -0.083228 0.102601 0.143680 -0.046729 0.462958 -0.071572 -0.005124 0.339935 -0.028491 -0.515498 -0.282010 -0.291153 0.712556 0.064173 0.111397 -0.292004 -0.314666 0.198448 -0.373657 -0.014506 0.385081 0.047494 -0.217157 -0.345244 0.143685 0.256656 -0.227778 0.315054 0.117632 0.263254 0.096055 -0.047327 -0.313021 0.020531 0.538762 0.521138 0.410295 0.216815 0.418455 -0.097553 0.118344 0.037513 0.183876 0.050465 -0.077416 -0.164462 0.140954 0.046547 -0.360487 0.291533 -0.011909 -0.097325 0.015107 -0.160547 0.294154 0.594291 -0.090899 0.330853 -0.179092 0.170239 -0.026235 0.313243 -0.552286 0.499241 0.189048 0.118904 -0.154097 0.174730 0.005661 -0.038392 -0.181656 0.185490 0.113765 0.519796 0.062776 0.028996 -0.240156 -0.261517 -0.048344 -0.019917 0.214459 -0.047796 -0.247728 -0.165477 0.326913 0.165826 -0.178686 -0.103361 0.039403 0.078369 -0.624253 0.074268 0.035262 0.120841 0.040918 -0.501135 0.376829 -0.138055 0.124059 -0.106522 -0.095724 0.197742 -0.270373 -0.099576 0.223379 -0.223567 0.088526 0.319535 -0.247048 0.167638 -0.083371 0.089859 -0.172704 0.242158 0.050223 -0.188016 0.108980 -0.166006 -0.108734 -0.046286 -0.409146 -0.045412 -0.157135 0.437122 0.229500 0.255865 0.252687 0.460754 -0.316696 -0.120245 -0.170433 0.064361 0.352211 0.076889 -0.019341 -0.097094 0.255574 -0.094367 -0.370202 -0.111779 0.039321 -0.341042 -0.244250
M263 0.240560 -0.274026 0.342537 0.164780 -0.024575 -0.322661 -0.343029 0.097245 0.168834 0.028394 -0.632558 0.546376 0.237397 0.133994 -0.309934 -0.096579 -0.411960 0.005677 -0.662395 -0.093300 0.078748 0.010563 0.082427 -0.025693 -0.109643 0.312009 0.015314 -0.477636 0.082292 -0.204481 -0.024642 0.902488 -0.067179 -0.258648 -0.206508 -0.248257 -0.085215 -0.058407 -0.007124 0.216635 0.263291 0.029467 0.112193 0.053215 0.556781 0.419453 -0.297328 0.213814 -0.019440 0.022300 0.577575 0.141278 0.229197 0.237343 -0.061813 -0.137232 -0.337134 -0.192650 0.230906 0.613538 0.296947 0.330905 -0.184209 -0.301272 -0.255451 0.337594 0.027537 -0.449015 0.244398 -0.456967 0.139688 -0.500144 -0.162292 -0.303208 0.383514 -0.151881 0.626484 -0.329299 -0.197528 -0.260699 -0.069957 -0.421752 -0.241068 0.344491 0.246333 0.605061 0.215812 0.234158 0.430753 0.104572 0.068702 -0.130712 0.395194 -0.109705 -0.108212 0.159247 -0.201721 0.310973 0.102845 -0.382293 -0.062303 0.011531 -0.035915 -0.688068 -0.061449 0.493122 -0.087019 -0.061239 0.326090 -0.158593 -0.106976 -0.508698 -0.300121 0.204166 -0.266200 -0.387914 0.321101 -0.016223 -0.136355 0.579798 -0.238826 -0.302613 -0.034114 0.281711 0.109964 0.088959 0.380613 -0.413397 -0.168068 -0.368010 0.404887 0.344274 -0.197630 0.362164 0.342702 0.299604 0.051428 -0.037062 0.061195 0.302827 0.025450 -0.018537 -0.001093 0.068608 -0.426613 -0.069269 -0.232285 0.028364 0.639280 -0.081040 0.251413 0.442613 -0.518420 0.254751 -0.055215 -0.103636 0.177572 -0.063414 -0.252061 -0.194931 -0.226033 0.630132 0.120262 0.294587 0.126971 -0.224870 -0.270725 0.572396 -0.023467 0.369652 -0.321652 0.203912 0.018788 0.053567 -0.112697 -0.117132 -0.382448 -0.280617 0.123643 0.134353 0.242365 -0.345276 0.030221 0.138526 -0.565603 0.088772 -0.182504 -0.477250 0.161725 -0.328288 0.299483 0.396968 0.178016 0.166731 -0.569123 0.075155 -0.008480 0.353115 -0.421415 0.004807 -0.065160 0.262632 -0.132000 0.068321 0.001931 -0.172565 -0.159484 0.113090 0.305615 -0.406383 -0.024403 0.247636 -0.053969 0.195893 -0.044441 0.252039 -0.220014 -0.040384 -0.151014 -0.187407 0.354470 0.256071 -0.494473 -0.145887 0.006062 0.170838 0.585871 -0.157315 -0.441947 0.007906 0.006082 0.075427 -0.539934 0.289989 -0.016875 -0.001944 0.364864 0.219149 -0.746532 -0.086430 -0.130243 -0.051608 0.369700 0.229634 -0.315299 -0.250071 0.029144 -0.029713 0.121889 0.099850 -0.214821 0.164813 -0.183535 0.359764 -0.000698 -0.126470
2(N14) 0.306976 -0.075878 0.464692 0.370066 0.507656 -0.119474 0.157213 -0.403477 0.378701 -0.375136 0.402251 0.261056 0.360074 0.000148 -0.037593 0.190303 -0.389555 -0.268223 0.361026 0.067497 0.708668 -0.043703 0.192695 0.281387 -0.065516 0.349828 -0.307851 0.091015 -0.393247 -0.412996 -0.457347 -0.063058 -0.109535 0.276978 -0.414695 0.085663 0.471646 -0.122648 0.026515 0.039895 0.087924 -0.325999 -0.324403 0.457098 -0.145406 -0.064071 -0.695364 0.133896 0.240036 -0.272236 -0.059489 -0.133170 -0.266089 -0.421679 -0.148918 0.126745 -0.196297 -0.214847 -0.678136 0.252102 -0.170737 -0.139219 -0.175031 0.290177 -0.045156 -0.092056 0.117120 -0.485667 0.176196 -0.384183 0.225098 0.035862 0.173710 0.021555 0.034253 0.004159 -0.019590 -0.270268 -0.489608 0.233211 0.429492 -0.145186 0.175994 -0.643795 -0.286629 0.305101 0.681459 -0.140410 0.413049 0.478837 -0.154794 0.258835 -0.015552 0.139931 -0.429642 -0.278400 0.201038 0.188151 0.063421 0.200138 0.122047 0.235735 0.566642 0.013297 0.689551 -0.481726 -0.416597 -0.153010 0.078433 -0.142308 -0.003709 0.006061 -0.034346 -0.268610 0.409767 -0.367849 0.142382 -0.140190 -0.422803 -0.518796 -0.144365 -0.160552 0.213971 0.030107 -0.031941 0.079479 -0.424238 -0.174762 0.079047 0.019478 0.095639 -0.300076 -0.015666 0.072386 -0.059067 0.060579 -0.225961 -0.021660 -0.199854 0.008055 0.126817 0.907651 0.007905 -0.233280 -0.256242 0.169197 -0.480804 -0.318825 0.021707 -0.196914 0.027012 0.026656 -0.375996 -0.482894 -0.007463 -0.212474 -0.058954 -0.057869 -0.266601 0.621763 0.089229 0.217945 0.190397 0.037776 -0.103570 -0.707884 0.005191 0.546184 0.383083 0.012229 -0.372404 0.005958 0.235252 0.254021 -0.117096 -0.128624 0.166549 -0.118242 -0.397405 -0.106259 0.076269 0.419796 -0.118445 -0.488341 0.198796 -0.041151 -0.340453 -0.134765 -0.161812 -0.123748 0.172583 -0.252305 0.420003 0.214422 0.185139 -0.657594 -0.358502 0.471131 0.118113 -0.273926 0.031639 -0.132759 0.162332 -0.167193 0.233591 -0.103475 0.650311 0.518569 -0.282947 0.166279 -0.065127 0.255743 -0.345483 -0.059480 0.244449 -0.063058 -0.105213 0.178225 -0.045282 0.244273 0.015462 0.123102 -0.463687 0.003465 -0.031610 -0.085375 0.560896 -0.020354 0.160648 0.081565 0.274019 -0.103830 0.006397 0.108447 0.305214 -0.289333 0.371992 -0.081980 0.229174 -0.078588 0.112564 -0.213834 -0.052583 -0.245696 -0.220899 0.503399 0.634884 0.202125 0.267619 -0.407891 -0.056844 -0.233731 -0.085162 0.253235 -0.033605 0.432275
M157 -0.098093 0.343962 0.314557 -0.235094 -0.189780 -0.125824 0.058313 0.228306 0.081687 0.096478 -0.157935 0.080197 -0.060791 -0.219570 -0.029367 -0.286827 -0.069503 0.017420 0.087720 -0.357072 -0.063725 -0.053634 -0.151790 -0.048031 -0.161128 0.012640 -0.218720 0.346935 -0.152827 -0.270485 0.081291 -0.104372 -0.116552 0.028246 0.251284 -0.027157 -0.486977 0.084303 -0.066212 0.065345 -0.003938 0.087892 0.018371 -0.300519 -0.000961 -0.134612 0.169740 -0.324493 -0.119006 0.301577 0.341897 0.078192 0.528624 0.107228 -0.068816 -0.140561 0.048287 0.229180 0.022831 -0.072305 0.206722 0.114458 0.423849 -0.037930 -0.092573 -0.068920 -0.130701 0.087369 -0.066670 0.171050 0.037836 0.130986 0.008910 -0.228792 -0.040216 -0.129660 0.377291 -0.122572 0.123822 0.232424 0.580666 0.265688 0.011169 -0.140276 -0.258392 -0.056135 -0.241766 0.244567 0.002075 -0.147160 -0.147157 0.189478 -0.123495 0.193947 0.116183 0.178906 -0.505457 0.174521 0.287105 -0.103267 -0.216644 -0.333230 -0.050463 0.058265 -0.185415 0.002943 0.288936 0.005731 0.017070 0.025635 0.048649 -0.019050 -0.328051 -0.146082 -0.080453 0.409259 0.136964 0.405601 0.187024 0.018062 0.164600 -0.003090 -0.257048 0.054114 0.153323 0.218736 -0.080705 0.379814 -0.148749 -0.042999 0.233874 0.064802 0.248515 -0.259641 0.264586 -0.280295 0.133039 0.025710 0.106141 0.327512 0.252375 -0.074822 0.029386 -0.057979 -0.067637 -0.276487 0.011892 0.206201 0.231062 0.255479 0.069969 0.229642 0.421410 -0.104003 -0.017855 0.312173 0.568798 0.034412 0.633238 -0.580216 0.031873 -0.283002 -0.050958 -0.017683 0.090358 0.327625 -0.080493 -0.223843 0.186716 -0.193581 0.076961 -0.443549 0.045019 -0.387099 -0.209084 -0.056606 -0.021072 0.044849 0.043523 -0.142709 -0.214632 -0.131052 -0.255221 -0.192018 -0.277795 0.076668 -0.207086 -0.208107 -0.348795 0.245575 -0.454977 0.395348 -0.142132 -0.364968 -0.494793 0.142376 0.010995 0.044445 0.289146 -0.005100 -0.454700 0.267331 0.174282 -0.176091 0.391150 0.078729 -0.266949 0.121689 0.118492 0.257366 -0.187028 0.125385 -0.101526 -0.163514 -0.369199 -0.300866 -0.161025 0.001316 0.011639 -0.120438 -0.119901 -0.022421 0.193663 0.028454 -0.107643 -0.241633 0.056038 0.175849 0.070033 -0.173883 -0.435284 -0.287097 0.147513 -0.071320 0.145087 -0.429328 -0.138199 -0.008576 0.339613 0.157062 0.148582 -0.119368 -0.234606 0.073452 0.179652 -0.032674 -0.254559 -0.289196 -0.225863 0.552245 0.008364 -0.146940 0.342968 0.282215 0.189423 -0.390987
M371 -0.194893 -0.210771 0.095254 0.424268 -0.559130 0.132331 -0.567288 -0.069672 -0.488834 -0.168585 -0.090418 -0.152306 -0.177665 0.104101 -0.387716 0.062184 -0.121970 0.074091 0.088208 0.096628 0.030309 0.167476 0.068204 -0.019045 -0.171109 -0.060071 0.061791 -0.832730 -0.102026 0.206288 0.253544 0.140620 0.236816 -0.541348 -0.122049 -0.228344 0.603530 0.105502 0.017734 0.281251 0.394225 -0.456256 0.046052 0.329255 0.259305 -0.263100 -0.038829 -0.226142 0.009784 -0.015759 -0.200748 -0.130277 -0.504111 0.290598 -0.813930 -0.101436 0.358119 0.256530 0.099986 -0.307976 -0.053635 0.375368 -0.627795 -0.182583 0.137663 -0.111618 -0.007617 -0.459661 0.011566 -0.380159 -0.235272 0.011111 -0.193240 -0.067435 -0.398262 0.124345 -0.019917 -0.552157 0.297007 -0.342436 -0.278492 -0.218050 0.093787 0.124891 0.183734 0.292075 -0.094240 -0.099852 -0.029009 -0.075571 0.200987 -0.139042 -0.048871 0.032485 -0.140967 -0.315677 -0.076020 -0.291963 0.011943 0.434809 0.069197 -0.154396 0.305429 -0.151264 0.273522 0.547893 0.295024 -0.036021 0.655748 0.227660 0.050874 0.042246 0.285441 0.335705 0.102814 -0.176954 -0.243856 0.035889 -0.163152 0.189985 -0.159596 -0.378750 0.131674 -0.151874 0.120365 0.084386 -0.070822 -0.448418 -0.012835 -0.271020 0.265823 -0.182551 -0.318057 0.056942 0.246244 0.078300 -0.125962 -0.127172 0.198475 0.239015 0.369190 -0.252775 0.523408 0.292039 -0.099164 0.195244 -0.111369 0.625276 0.365196 0.537426 -0.129053 0.601004 -0.174775 -0.047364 0.126423 -0.033305 0.407150 0.300034 -0.265887 0.750488 -0.072345 0.130451 -0.042379 0.323058 -0.026848 0.070779 0.378488 0.479698 -0.130672 0.010209 0.036430 0.430671 -0.264936 -0.257437 -0.058961 -0.036349 0.182869 0.307712 0.084118 0.276009 -0.178057 -0.257922 -0.163754 -0.340798 0.221614 -0.180324 0.683610 0.226463 0.183027 -0.208102 0.252226 -0.204004 0.101852 0.000557 0.116749 -0.318901 0.112194 0.283482 -0.394104 0.313148 0.322032 0.171590 -0.189887 -0.316903 -0.542440 0.329721 0.308338 0.013423 -0.400588 0.294820 -0.176090 -0.190690 0.312725 -0.544225 0.625536 0.218599 0.304435 -0.081593 -0.012473 0.371877 0.382994 -0.010268 -0.186712 -0.166363 0.035724 0.226378 0.243573 0.133394 -0.467874 -0.046303 0.065458 0.063662 0.069530 -0.048666 -0.071608 0.455294 0.537837 0.944877 -0.216333 -0.217398 0.231655 -0.177598 0.053733 0.126580 -0.421732 0.023351 0.353049 0.017218 0.196229 0.181883 0.018420 -0.120404 -0.065956 0.148419 0.110457 -0.066157
1(N30C) -0.317959 -0.060739 -0.102848 -0.114671 -0.480290 0.213966 0.124964 -0.792276 -0.095286 -0.237077 -0.060297 -0.047138 0.685589 -0.194726 0.164478 0.184589 0.103984 0.078382 0.257126 -0.220664 0.223663 -0.063696 0.014123 -0.104238 0.364193 -0.427096 -0.395023 0.245131 -0.461181 0.412450 0.027517 0.409331 -0.380898 -0.072614 0.030097 0.334530 0.262768 0.295255 -0.577858 -0.105100 0.029701 -0.392662 0.118159 -0.143505 -0.495251 -0.126564 -0.060276 -0.198932 -0.057989 -0.415495 0.198239 -0.637624 0.225696 -0.223735 -0.632060 0.306339 0.524849 0.539754 -0.990681 -0.099156 0.201146 0.032740 -0.427935 0.198940 0.098082 -0.114403 -0.308012 -0.088334 0.597418 -0.099874 0.369053 -0.743175 -0.036555 0.059447 -0.354779 -0.185318 0.333299 0.232104 0.083238 -0.264114 0.288346 -0.519904 -0.080580 0.116048 -0.074247 -0.073798 0.228231 -0.251206 -0.465014 -0.370398 0.513453 -0.489298 -0.413597 0.075235 0.133026 0.135611 0.051555 0.119703 0.080959 0.198123 0.347916 0.101456 -0.020958 -0.247493 -0.117495 -0.229796 -0.096963 -0.066079 -0.029805 0.169422 0.293917 0.365010 -0.313117 -0.171587 0.265458 -0.272159 -0.087494 -0.130978 0.424014 -0.471442 -0.057805 -0.384838 -0.741588 -0.258959 -0.586889 0.185849 0.342060 0.319185 0.109745 -0.206509 0.148765 -0.297316 0.099815 0.574504 0.337208 -0.188152 0.055127 0.147334 0.519027 0.089098 0.435247 -0.275545 0.054000 0.428426 -0.123834 -0.442298 0.225386 0.684110 0.166939 0.404849 0.324943 0.276095 -0.145054 -0.117591 0.112126 -0.005389 -0.068154 -0.102418 0.085329 0.212280 0.077275 0.320408 -0.263906 -0.052153 -0.212449 0.088337 0.496742 0.086898 0.487383 0.087068 0.251444 0.081502 -0.411449 0.295392 0.201051 -0.455581 0.034997 -0.141508 0.149063 0.124056 0.029445 0.175402 -0.021186 -0.228060 -0.081690 -0.100013 0.339926 -0.091833 -0.153372 -0.006618 -0.191978 0.193581 0.191581 0.535290 0.197010 -0.044247 -0.407365 0.388153 0.081082 -0.236166 0.299880 -0.065889 0.180474 -0.101120 -0.163719 0.099306 0.224532 0.251913 -0.093111 0.155703 0.189005 -0.197077 -0.273467 -0.128612 0.195886 -0.356574 -0.252865 0.326106 -0.543570 0.130468 0.124902 0.263848 0.294108 0.169190 0.315292 -0.243653 0.053525 -0.110390 0.235690 0.109185 -0.118907 0.337932 0.031817 -0.490034 -0.197889 0.191583 0.454989 0.144916 0.353988 0.143479 0.160223 0.376252 -0.174117 -0.103058 0.254469 -0.150849 0.426822 0.106639 -0.289843 0.270240 0.167465 -0.388841 -0.057603 -0.394932 -0.393544 0.161281
M124 0.056427 -0.116331 0.245614 0.212508 0.024786 0.103270 0.229672 -0.174226 0.051021 0.325097 -0.227718 0.076854 -0.150551 -0.013432 0.033305 -0.299911 -0.418956 -0.063974 -0.428420 0.193868 0.108766 -0.047364 -0.017738 -0.128794 -0.052441 -0.148695 -0.544707 -0.379725 0.007404 0.169315 0.025377 0.509275 -0.183281 -0.221633 -0.225665 -0.197947 0.354058 0.120631 -0.160227 -0.108548 0.152639 0.165192 0.210937 0.234871 0.053223 -0.197892 -0.147612 -0.104048 0.092957 -0.284931 0.113168 0.081749 0.190984 -0.030390 -0.064741 -0.160652 0.280832 -0.221829 -0.059874 0.348104 0.299616 0.103624 -0.091044 -0.555236 0.297402 0.172460 0.033434 -0.358569 -0.108039 -0.406898 -0.330377 -0.124149 0.099463 0.177221 0.076133 -0.041306 -0.006675 -0.192191 0.325646 0.242892 0.046044 0.012165 0.121296 -0.059749 0.116586 0.119272 0.024487 -0.036196 0.291103 0.328778 0.100494 -0.442031 0.205775 -0.247135 -0.174442 0.167874 -0.093416 0.052345 -0.240461 0.438544 -0.044318 -0.345348 0.558759 -0.014291 0.062434 0.456742 -0.081792 -0.252899 0.616382 -0.159048 -0.151409 -0.228030 0.125303 0.204156 -0.235607 0.053366 -0.301210 -0.002552 -0.167030 0.101994 -0.152471 -0.105536 -0.447474 0.267200 0.108745 0.439513 0.031762 0.228873 -0.083591 0.070486 0.427267 0.085050 -0.197280 -0.136054 0.074070 0.030389 0.058875 -0.136780 0.306272 -0.348242 0.235750 0.028733 0.293410 -0.183476 -0.045568 0.176175 -0.309216 -0.076042 0.445094 -0.085009 0.078072 0.041332 -0.619916 0.071827 -0.080981 0.269717 0.471558 0.113384 -0.349499 -0.003055 0.077973 0.117640 0.502150 -0.060464 -0.104066 -0.560316 0.463709 0.434236 0.196087 -0.417593 0.075660 0.223116 0.257197 0.105342 -0.102954 -0.068479 0.139752 0.213212 0.402035 -0.281608 0.077237 0.105353 0.057972 0.110498 0.122110 -0.040435 0.334286 0.029370 0.069640 0.190566 0.232968 -0.097649 0.154247 0.111622 -0.165461 -0.064599 -0.113215 0.062523 -0.664664 -0.196433 -0.107188 0.088315 -0.246442 -0.280559 -0.224346 -0.005490 0.296363 0.013407 -0.270473 -0.294144 0.152450 0.214199 -0.123415 0.103666 0.218769 0.487886 -0.000710 0.047226 -0.051188 -0.229351 0.173988 -0.186521 -0.350555 0.026316 0.081034 0.075255 0.429238 0.078685 -0.279673 0.441733 -0.019116 0.129568 -0.377120 0.279792 -0.341278 0.401580 0.268874 0.175310 -0.787238 0.010363 0.325153 -0.114439 -0.435653 0.096848 -0.294033 0.204594 0.114984 -0.201160 0.177001 0.180012 -0.057425 -0.126298 0.004190 0.338958 -0.024430 0.121738
M054 0.849242 -0.097160 0.013340 0.033452 -0.213066 -0.000003 0.265128 0.042032 -0.116340 -0.202613 0.338572 0.249276 0.143430 -0.031640 0.174747 0.025731 -0.206046 0.026218 0.067543 0.107345 0.289179 0.064121 0.210815 0.197230 0.197637 -0.044220 -0.299690 -0.042280 -0.080331 -0.072013 -0.161315 0.252800 0.011568 -0.003173 -0.272115 0.119669 -0.038701 -0.219146 -0.291825 0.003878 -0.118944 0.051587 -0.100634 0.335042 -0.245923 -0.094330 -0.088436 -0.357305 -0.274700 -0.190082 -0.239479 0.182145 0.143441 0.207564 -0.360588 0.163573 0.368142 0.148314 -0.262322 0.206801 0.090068 0.146256 -0.145482 0.116054 -0.166819 -0.003249 0.172783 -0.108532 -0.322411 -0.110427 -0.207468 0.117164 0.049117 0.077558 -0.246864 0.157272 -0.184426 -0.188697 0.221500 0.622785 0.281051 0.124500 0.024152 -0.235674 -0.205399 0.200340 0.243152 -0.094043 0.106542 0.363435 0.282413 0.027023 -0.377790 -0.133766 0.150984 0.241476 -0.139186 -0.027298 0.545789 -0.009581 -0.081934 -0.122384 0.136647 0.167274 0.223260 0.122034 -0.015507 -0.046081 0.162027 0.093706 0.080947 0.172186 -0.101717 0.160168 0.278672 -0.266282 -0.227917 -0.308338 -0.120479 -0.051440 -0.055639 0.140571 -0.141718 0.062109 -0.109212 -0.076255 0.024886 -0.151484 0.170860 0.019809 0.087978 -0.185153 -0.012803 0.095016 -0.242219 -0.272399 0.217844 -0.148535 0.169694 -0.135686 0.290183 0.268963 -0.331848 0.304618 -0.063662 -0.073262 -0.465774 0.028390 0.227241 -0.121084 -0.270639 0.406062 -0.043566 0.248188 -0.504289 0.264247 0.407085 -0.119807 -0.006664 0.151004 -0.197625 -0.085142 0.073434 -0.288843 -0.140178 0.013696 0.221097 0.269741 0.500126 0.008716 0.384365 -0.001332 -0.126327 -0.126462 0.062086 -0.682574 0.428005 0.200165 -0.315328 -0.057782 -0.336246 0.364267 0.101634 -0.403538 0.068039 -0.080299 0.563312 0.341511 -0.689834 0.083010 0.096668 -0.616974 0.261628 -0.413656 0.175902 -0.467450 -0.220547 -0.113325 0.371858 -0.222267 0.431284 0.349360 0.062670 -0.256060 -0.285407 -0.153162 0.315845 -0.260232 -0.122524 0.474318 -0.206067 -0.059084 -0.200108 -0.174678 -0.014160 -0.047213 0.330041 -0.072144 0.265030 -0.166443 -0.150096 -0.020914 0.036362 -0.087997 0.002818 -0.012055 -0.111030 0.118913 0.153065 -0.109489 0.390397 -0.651985 0.285941 0.260398 0.226406 0.513264 0.005105 0.043619 0.082043 -0.153025 -0.088392 -0.244508 -0.162721 -0.048303 -0.606595 0.545725 0.319254 -0.073429 0.324611 -0.311164 -0.374917 -0.063406 0.115004 0.119114 0.380570 0.093981
M346 -0.301279 -0.040042 0.037849 0.440057 0.088825 0.017803 0.490395 -0.078161 0.483344 -0.076184 0.152973 0.287164 0.128957 0.366681 -0.013665 0.034318 -0.022219 -0.104018 -0.218405 -0.365190 0.639200 0.141194 -0.047881 0.296531 -0.242179 0.221742 -0.114036 -0.144947 -0.181578 -0.421267 -0.202034 0.186595 -0.241137 0.047510 -0.134175 0.233125 0.118222 -0.260686 -0.152919 -0.056254 0.042902 -0.202217 -0.099557 0.501313 0.053188 0.230550 -0.243855 0.320257 -0.023584 -0.541196 -0.486779 0.657615 -0.073085 -0.342724 -0.096601 0.106434 0.058410 -0.031800 -0.459443 -0.108290 -0.082878 0.308280 -0.036891 0.191284 0.018176 0.211031 0.250563 -0.283942 -0.065365 -0.093581 0.070608 -0.260522 0.249036 -0.244456 0.260446 -0.071933 0.047153 0.021078 -0.234123 -0.123511 0.070678 0.113655 0.077036 -0.060430 -0.729000 0.037481 -0.030828 0.316792 -0.235811 0.506035 -0.175558 -0.139544 -0.206442 0.039509 -0.357152 -0.038207 0.035882 -0.214691 0.288369 0.163987 -0.031833 0.126125 0.567763 0.262651 0.421348 0.010276 0.187776 -0.188744 0.347748 0.191587 0.223681 0.092224 -0.126371 -0.342373 -0.236584 0.039503 0.034988 -0.112876 -0.289586 0.116949 0.150979 0.001234 0.351017 -0.014059 -0.259416 0.386687 -0.186712 -0.116093 -0.009915 0.144109 0.035485 -0.156839 0.187416 -0.301307 -0.290938 -0.196765 -0.262074 0.084783 0.256469 -0.188206 -0.103281 0.407821 0.007160 -0.249018 -0.302637 0.085410 -0.435995 0.068120 0.036035 -0.290332 0.167094 0.072462 0.197063 -0.374565 -0.253334 -0.099443 -0.014093 0.016713 -0.072776 0.431109 0.035582 0.672413 0.248119 0.044194 -0.019062 -0.344728 -0.178810 0.262296 0.254017 -0.232531 -0.330897 -0.089837 0.069448 0.282217 -0.065167 -0.170149 -0.336587 -0.011323 -0.223854 0.014264 -0.424128 0.604504 -0.012720 -0.088627 0.213232 -0.211878 -0.212360 0.057801 0.293314 0.019199 0.099578 -0.004829 0.742743 0.266235 -0.128304 -0.294922 0.146353 -0.083889 -0.265125 -0.019221 0.010664 0.146974 -0.063712 0.116666 -0.252869 -0.102290 0.051066 0.117665 0.033776 0.000655 0.153892 0.077688 -0.482178 -0.013459 -0.158024 0.070387 0.256055 0.319785 -0.101727 0.119460 -0.022932 0.454880 -0.197656 -0.065522 0.478868 -0.249712 0.308215 -0.335284 0.060679 0.104989 -0.134180 0.043884 -0.110027 0.139985 0.182985 -0.073462 0.047532 -0.045609 -0.312734 -0.423654 -0.279119 0.090358 -0.030876 0.068597 0.261752 0.100652 0.332293 -0.023778 -0.038218 -0.362093 0.013315 0.077842 -0.203720 0.119806 0.110595 0.562588
M066 0.315302 -0.202462 0.232413 0.270217 0.146523 -0.419168 0.161538 0.137869 0.114523 -0.057835 0.133278 0.312393 -0.103617 -0.203961 0.281417 -0.411327 -0.274323 0.032394 -0.320183 0.431909 0.483901 0.367818 -0.005443 0.165802 0.227092 0.102790 0.420508 -0.911650 0.172558 0.101082 0.066638 0.253828 -0.059295 -0.439002 -0.744052 -0.892803 -0.093722 -0.141486 0.113206 0.155854 0.299959 0.199367 0.286222 0.378936 0.093107 0.277611 -0.108399 0.717477 -0.281699 0.200644 0.145526 0.697244 -0.195486 0.046418 -0.046717 0.015835 -0.014577 -0.046955 -0.102930 0.410780 -0.386676 0.331084 -0.080870 -0.204874 -0.396934 0.589814 -0.120192 -0.275539 0.267820 -0.254259 -0.383509 -0.213680 -0.120412 0.178164 0.645317 -0.145305 -0.319215 -0.750621 0.162223 -0.340913 -0.123678 -0.073300 -0.338767 -0.184960 0.230563 0.054980 0.302598 0.340946 0.673842 0.447745 0.148140 0.385402 0.391647 -0.186487 -0.274253 -0.109628 -0.420344 0.052272 -0.205600 -0.095263 0.370303 0.092253 0.497204 -0.295611 -0.096309 0.227649 -0.105486 -0.012885 0.305344 0.405563 -0.117900 -0.015829 -0.097471 -0.060957 0.250762 -0.460520 0.142674 -0.179222 -0.393485 0.391198 0.083167 -0.159131 0.626012 -0.092514 0.091825 0.180784 0.291699 -0.185271 -0.302217 -0.097930 -0.139111 -0.158268 -0.446581 0.047329 0.323683 0.179609 -0.404929 -0.019305 -0.232121 -0.086890 -0.179505 -0.128900 0.040047 0.471538 0.299723 0.026062 -0.221777 -0.021346 0.398100 -0.255837 0.162105 0.227163 0.240309 -0.169610 0.264656 -0.018361 -0.126472 -0.410079 -0.425698 0.189466 0.132422 0.113832 0.424777 -0.015012 -0.073929 0.135486 -0.400312 0.288657 0.421734 0.302114 -0.044913 -0.378454 0.064498 0.538706 0.227619 -0.528780 0.080226 0.328826 -0.204351 -0.478948 -0.217473 -0.209010 -0.512009 0.581111 0.293212 0.211462 0.017435 0.298898 0.276014 -0.436020 0.345493 -0.416899 0.239369 0.183347 -0.270607 -0.357759 0.343404 0.013098 -0.276036 -0.193451 0.007652 -0.194421 -0.067452 -0.367739 0.224945 0.157748 -0.313261 0.233625 -0.270255 0.329720 0.326874 0.326768 -0.163662 -0.394709 0.179882 0.336780 0.118053 0.008140 -0.004303 -0.495755 0.353782 0.035297 -0.305858 -0.281883 0.013446 0.135654 0.463086 -0.406985 -0.475660 -0.113586 -0.083589 0.046485 -0.159586 0.156086 0.243381 -0.281558 0.605271 0.263555 -0.822651 -0.122907 -0.281386 -0.420624 -0.325130 0.023059 0.324660 0.469766 0.026211 0.142327 -0.412311 0.102634 0.145473 -0.154473 -0.127104 0.027627 0.210561 0.144337
2(N30C) -0.126844 -0.103296 -0.626978 -0.328207 -0.502204 0.562580 0.342516 -0.727898 0.046166 -0.078230 -0.079649 -0.062716 0.192468 0.322027 0.424588 0.334620 0.083781 0.212626 0.025974 0.136889 0.427272 0.181004 0.297302 -0.380633 0.393420 -0.278348 -0.154587 0.573133 -1.065895 0.258933 0.247820 0.172801 -0.436802 -0.070028 -0.153130 -0.043513 0.377761 -0.102024 0.128301 -0.098759 -0.186181 -0.110880 0.143195 -0.420645 -0.265547 -0.487130 -0.698082 -0.034752 0.114665 -0.346271 0.304183 -0.497302 0.397804 -0.200583 -0.287613 0.722086 0.382609 0.263325 -1.122518 -0.191051 -0.173966 -0.362941 -0.431228 0.471888 -0.602696 0.046394 0.147665 -0.034211 0.376320 0.049604 0.153749 -0.243894 -0.074341 0.172368 -0.069543 0.058812 -0.095510 0.577827 0.277974 -0.070133 0.132596 -0.521078 -0.300540 0.419795 0.059791 -0.074277 -0.191820 0.150642 -0.390454 0.031223 0.023212 -0.453653 0.011512 0.228665 0.354143 0.090707 0.039406 -0.148456 -0.239158 0.443665 -0.096911 0.749459 0.393522 0.487931 0.021051 -0.045230 -0.325035 0.471034 -0.396275 -0.038463 0.545267 0.390805 0.381801 0.118570 -0.043800 0.300462 0.310707 -0.057902 0.221366 -0.185736 0.335392 -0.092767 -0.501384 0.167664 -0.376185 0.209581 -0.088892 0.066835 0.102160 0.005948 -0.267792 -0.283512 0.070680 0.573830 0.472840 0.057341 -0.317357 -0.393787 0.414478 0.216114 0.387897 -0.054315 0.409532 0.284912 -0.060191 -0.709364 0.783654 0.294804 -0.051032 0.104558 0.331572 0.628275 0.560025 -0.181367 -0.035015 0.334850 -0.074581 -0.222388 0.177134 0.128138 -0.122674 0.082603 -0.450741 0.223643 0.108620 0.264313 0.368900 0.447345 0.406655 0.042343 0.169134 -0.154132 -0.014413 -0.380521 0.286247 -0.247718 -0.303782 -0.235673 0.040545 0.211378 -0.404754 0.549321 -0.201103 -0.643863 0.136711 -0.119732 0.284399 0.184402 -0.242973 -0.138006 -0.479077 -0.372549 0.069142 0.409923 0.314906 -0.279950 -0.376688 0.754363 0.219198 -0.543227 0.196058 -0.175128 0.235660 0.105933 -0.290033 0.106809 -0.097417 -0.021831 -0.036785 -0.318122 0.479845 0.054651 -0.052158 -0.249948 -0.090349 -0.175531 -0.175237 0.407613 -0.482365 0.216065 0.282612 0.167984 -0.087735 0.007389 -0.147597 -0.376896 -0.014128 0.026472 0.037862 0.424892 -0.261331 0.060220 0.425867 -0.654970 -0.306416 0.391211 0.219964 0.066758 0.112942 -0.116821 0.782651 0.221258 -0.621498 0.033905 0.447196 0.202206 -0.040201 -0.487772 -0.447964 -0.058627 0.273476 -0.178033 0.105187 -0.087642 -0.504073 0.021085
M009 0.391145 -0.174987 0.341091 0.101061 0.010910 -0.222672 -0.346965 -0.140167 -0.326609 0.083957 -0.091050 0.217184 0.102817 -0.027430 0.020516 0.024566 -0.512463 0.114722 -0.223821 -0.191793 0.030608 -0.346920 -0.041350 -0.162099 -0.050361 -0.248567 -0.235763 -0.519201 0.108862 0.343570 0.067483 -0.073275 0.103133 -0.152151 -0.031871 -0.301880 0.250718 0.357879 -0.102336 0.055340 0.055750 0.287808 0.144798 0.350967 0.114002 -0.035563 -0.218277 0.085213 0.252550 -0.053264 0.386919 -0.133985 -0.365789 0.076048 -0.706985 0.004674 -0.110926 0.042757 0.530130 0.090428 -0.151390 0.147162 -0.249923 -0.209319 0.610431 0.056276 0.072681 -0.428519 -0.244250 -0.472044 0.030528 0.257492 -0.461904 0.475050 -0.313302 -0.271699 0.270250 -0.303184 -0.038766 -0.124689 -0.017837 -0.199506 0.550200 -0.243371 0.248580 0.048575 -0.175430 -0.149631 0.431627 0.164670 0.357879 -0.207135 -0.106594 -0.093932 0.179233 -0.308457 0.086553 -0.006319 -0.034649 0.203808 -0.081618 -0.252082 -0.058084 -0.162149 0.138191 0.508034 0.348265 -0.057689 0.338918 0.142661 -0.282213 0.065545 0.345184 -0.093159 0.041373 0.109462 -0.064226 0.313943 -0.009765 -0.040831 0.079955 -0.343016 0.196913 -0.189709 0.315527 0.212065 0.221527 -0.063071 -0.231787 -0.128862 0.532316 -0.452318 -0.351964 0.384740 0.065599 -0.099173 0.075676 -0.036148 0.271789 -0.264024 0.423094 0.184095 0.498668 -0.121257 -0.455874 0.070870 -0.209194 0.220936 0.347270 0.108236 -0.156186 0.818635 -0.038112 0.158557 0.262359 -0.174618 0.352432 0.207117 -0.341061 0.251270 -0.119444 -0.175081 0.288521 -0.030143 0.212526 -0.050520 -0.036845 0.279318 -0.071396 -0.184939 -0.054240 -0.076612 0.019165 -0.128624 0.046294 0.251637 0.459587 0.522770 0.072836 0.069548 0.589629 0.042222 -0.025837 -0.075694 0.193740 0.218903 0.460166 -0.151307 0.148977 0.001822 0.439603 -0.144650 -0.403714 -0.033023 -0.005694 -0.053226 -0.009510 0.045267 -0.553888 0.057793 -0.002256 0.333867 -0.257015 -0.215734 -0.285242 0.253402 0.076315 0.279821 0.010261 0.036722 -0.127700 -0.065806 0.291494 0.094808 0.346598 0.184089 -0.116954 -0.300291 0.350047 0.241120 0.175936 -0.115434 -0.038461 0.091147 -0.257365 0.104298 0.259011 0.017159 -0.511144 0.386996 0.031914 -0.092041 0.031171 0.094539 0.286380 -0.066701 0.444522 0.385539 -0.171161 0.255088 -0.003454 -0.280952 -0.011775 0.024303 -0.458524 -0.072610 0.023847 0.034064 -0.020704 -0.209865 -0.274955 -0.088325 -0.044287 0.063457 0.015218 -0.520600
3(N39B) -0.143573 -0.078249 0.010240 -0.097222 -0.042060 0.141903 0.095216 -0.562971 0.078555 -0.224046 0.058694 0.007208 0.405059 0.086215 0.085381 -0.094308 0.076982 0.150907 0.208769 -0.194892 0.603639 -0.025032 0.198159 0.020113 0.165030 -0.296702 -0.418084 0.315820 -0.444352 0.146173 -0.225388 0.396623 -0.084796 -0.041687 -0.131599 0.185219 0.344729 0.182818 -0.206759 -0.156070 -0.162980 -0.358540 -0.167869 -0.316745 0.012466 -0.286964 -0.444852 -0.219977 0.099250 -0.338753 0.067754 -0.474174 0.437136 -0.072931 -0.359790 0.536784 0.350850 0.061839 -1.051296 0.033913 -0.166716 0.044822 -0.363141 0.178784 -0.435372 -0.124338 -0.070144 -0.383682 0.301191 -0.039998 0.092069 0.016712 0.003886 0.125518 -0.260303 -0.106810 0.461008 -0.112340 0.216045 0.135438 0.757886 -0.359536 -0.291636 0.172250 -0.059646 0.338211 0.014819 0.035680 0.100637 0.101653 0.076272 -0.384397 -0.191617 0.448262 0.033932 0.160147 -0.170479 0.089485 0.289149 0.437743 0.226081 0.159440 0.283716 0.081554 -0.058124 -0.207765 -0.284742 -0.042358 0.046194 -0.149529 0.145049 0.453422 -0.077178 -0.314201 0.317721 -0.136552 -0.048667 0.204565 -0.057041 -0.357265 -0.052788 -0.089969 -0.606585 -0.139432 -0.380536 0.213668 -0.262175 0.268440 0.153066 -0.113249 0.095121 -0.081237 0.354556 0.341831 0.197141 -0.160426 -0.319767 0.137108 0.277723 -0.019294 0.506891 0.047248 0.086279 0.081299 -0.188833 -0.363619 0.339445 0.220998 0.134431 0.051243 0.242937 0.160560 -0.053784 0.091345 0.006427 0.065101 0.206944 -0.033291 0.338699 0.087213 -0.013092 -0.153678 -0.295508 0.081320 -0.015607 -0.393720 0.063530 0.594173 0.563984 0.135782 0.070004 0.109702 0.243436 0.008516 0.177144 -0.091680 -0.047757 -0.314826 0.000285 -0.186683 -0.158085 0.314152 -0.287086 -0.485560 -0.074727 0.126400 0.012168 0.021579 -0.044302 -0.047184 -0.007402 0.160380 0.173995 0.300600 0.074051 -0.389990 -0.285300 0.385758 -0.033811 -0.313059 -0.338315 0.137288 0.140993 -0.384128 0.265889 0.217065 0.047333 -0.025090 -0.182212 0.255720 0.019506 0.313615 -0.217108 -0.092316 0.064479 -0.360102 0.070723 0.306653 -0.231497 -0.196027 0.007083 -0.167142 -0.274043 -0.078495 0.003770 -0.218264 0.191363 -0.011650 0.077211 0.065998 -0.226869 0.099287 0.175638 -0.473997 0.174214 0.172552 0.424983 0.016739 0.142437 0.132536 0.536683 0.216786 -0.487762 -0.074047 0.251712 0.253090 -0.089647 0.019010 -0.082528 0.115254 0.014243 -0.663408 -0.034025 0.062677 -0.348392 0.222966
M096 -0.011613 -0.272550 0.025899 -0.145859 0.409568 -0.105659 0.185023 -0.493682 -0.129222 -0.168410 0.181954 0.306463 -0.111207 0.064490 0.078214 -0.069962 0.025978 0.267782 -0.081053 0.383635 0.046750 0.010185 0.230002 -0.404829 0.043747 0.113046 0.257982 -0.209949 -0.195776 -0.327107 -0.324651 0.433710 -0.158104 -0.181381 -0.169750 -0.055953 0.316427 -0.202564 -0.001644 -0.619644 0.551473 0.031061 0.170599 0.433825 0.168437 0.389046 -0.177823 0.023176 -0.110421 0.091520 0.325701 -0.284730 -0.175727 -0.093690 -0.174027 -0.118574 0.164138 -0.249045 -0.110325 0.191623 0.017230 -0.319838 -0.239027 -0.763566 -0.213152 0.394851 -0.152442 -0.394784 0.218907 0.143576 -0.022443 -0.529632 0.082727 0.088805 0.633529 0.119780 0.102457 -0.019039 -0.210424 0.119479 -0.338019 -0.688949 -0.208989 0.337647 0.350524 0.248864 0.870447 -0.154466 0.356364 0.345860 -0.028363 -0.070159 0.429044 -0.187842 -0.051919 0.008474 0.084701 0.237760 -0.465506 0.009479 0.015174 0.099323 0.310863 -0.570331 0.054184 -0.030999 -0.130714 -0.084547 0.334029 0.294750 -0.207574 -0.268053 0.058478 0.223449 -0.270748 -0.330816 0.124071 0.465170 0.077087 0.010359 -0.029213 -0.073149 0.152110 -0.397751 -0.326288 0.204422 0.059991 -0.211441 -0.090981 0.147483 -0.223084 -0.055225 -0.202246 -0.013460 0.422645 0.087259 0.132601 0.008491 -0.144476 0.069037 0.202932 0.049878 -0.346497 -0.006408 0.130217 0.211459 0.131651 0.210252 0.100347 -0.321765 -0.387558 0.107901 -0.767163 0.055874 -0.100855 0.010122 -0.308381 -0.174870 -0.468544 0.329960 -0.229454 0.310148 0.220804 0.070105 -0.090241 0.017905 -0.214423 0.224667 -0.215780 0.426503 0.483325 -0.050081 0.070996 0.335808 0.100332 0.053062 -0.115994 0.081541 0.223004 -0.570710 0.413424 0.040627 -0.268014 0.280254 0.235438 0.264329 0.575533 0.205868 0.205848 0.174885 0.216454 -0.484438 0.140908 0.061218 -0.088812 -0.297565 -0.544266 0.628392 -0.427436 -0.317154 0.379412 0.032835 0.409089 -0.498394 0.018334 0.157576 0.009491 -0.226355 -0.348680 0.228181 0.092583 -0.517401 -0.291288 -0.358027 0.224541 0.482824 -0.253505 -0.333865 0.167586 -0.251350 0.637155 0.060570 0.023301 -0.045731 0.451793 -0.052402 0.124774 0.201326 -0.177765 0.222014 0.185467 0.408263 -0.330356 0.220078 0.008962 -0.151179 0.276990 -0.072295 -0.566870 0.383545 -0.724139 0.057969 0.179714 0.080507 0.325265 -0.226044 0.260387 0.251278 0.007068 -0.072969 -0.227261 -0.372827 0.057824 0.087053 0.121749 -0.047506
6(N01) 0.118524 -0.085124 0.016691 0.304679 0.194599 -0.059124 -0.233357 -0.258305 0.247830 -0.232824 0.353152 0.476148 0.245255 0.180955 -0.002689 0.051429 -0.654926 -0.158788 -0.009394 -0.303805 0.079089 0.125093 -0.219042 0.418850 -0.251784 0.072923 -0.489321 0.035422 -0.280019 -0.088564 -0.805098 -0.098981 -0.413149 0.397574 -0.162627 0.322682 -0.326323 -0.061899 -0.415761 -0.099544 0.152745 -0.107578 -0.139574 0.561730 -0.099396 0.103765 -0.386006 0.103865 0.095039 -0.473863 -0.196432 0.068236 -0.370132 -0.314682 -0.360986 -0.186649 0.230626 0.244418 -0.254817 0.094259 0.306996 0.405230 0.358497 0.311509 0.251238 0.068341 0.047621 -0.555210 -0.106120 -0.087524 0.160072 -0.048357 0.187769 -0.037756 -0.107935 -0.194148 0.434263 -0.074746 -0.558198 -0.061561 0.206518 0.177858 0.272750 -0.206114 -0.279167 -0.094240 0.224517 -0.107261 0.180428 0.168143 0.116221 0.214633 -0.127393 -0.294329 -0.339297 -0.246489 0.237998 -0.077717 0.544046 0.282650 -0.227196 0.352860 0.250725 -0.012437 0.549061 0.024263 0.543719 -0.185745 0.218855 0.242860 0.373624 -0.062539 0.107350 -0.313007 0.097904 0.017327 0.057084 0.009893 -0.018679 -0.166476 -0.096419 -0.449570 0.021737 0.092015 0.253988 0.045226 -0.185461 -0.045273 0.011199 -0.141696 -0.159174 -0.510295 0.122337 0.165066 -0.054086 0.016884 -0.130502 0.063855 0.031360 -0.037565 0.197628 0.372253 -0.036636 -0.155058 -0.679632 0.044932 -0.681257 -0.210997 -0.051109 0.138292 0.068464 0.125338 0.348043 -0.240091 -0.053245 0.017748 0.346793 0.228396 -0.064053 0.443592 0.029484 0.331127 0.182991 -0.071787 0.247278 -0.049923 -0.076037 -0.093078 -0.003279 -0.405990 -0.192002 -0.121047 -0.397164 0.382540 0.004069 0.024028 -0.020449 0.185071 -0.046080 0.044603 0.273854 0.502597 -0.298080 -0.383036 0.311754 -0.002168 0.230074 0.096375 0.072087 0.190751 0.300605 -0.329931 0.458735 0.028320 0.009285 -0.347590 -0.125373 -0.108792 -0.202205 -0.059504 0.315991 0.183955 -0.246330 -0.217026 -0.058991 -0.435032 0.236993 0.334031 0.285504 -0.201976 -0.200640 -0.226993 -0.315532 -0.200020 -0.086545 -0.136376 0.138128 0.058224 0.251756 0.305795 0.196801 0.183991 -0.040398 0.118546 0.059663 -0.179586 0.144471 -0.161036 -0.079869 -0.003181 0.079724 -0.103319 0.180971 0.062125 0.255379 -0.157885 0.027600 -0.199608 0.230080 -0.544941 -0.642439 0.283767 -0.082685 -0.134854 -0.020578 -0.065264 0.608876 0.090346 -0.317928 -0.598529 -0.286587 0.053514 0.109682 -0.083028 0.157294 0.235179
M376 -0.122924 0.445536 -0.115238 0.312870 -0.164653 0.226441 0.086407 -0.007391 0.011338 0.285065 0.310125 0.251999 -0.240068 0.359964 0.000942 -0.008449 -0.560552 -0.238785 -0.390568 0.054371 -0.160682 -0.003284 0.052563 0.060876 -0.006844 0.022208 -0.089833 -0.064372 -0.082048 0.027552 0.002866 -0.009800 -0.414150 0.295818 -0.220299 0.224558 0.422653 -0.112496 0.210791 -0.099526 0.198688 -0.024284 -0.095806 0.460374 -0.008644 -0.059025 -0.596047 -0.244666 0.138691 -0.499084 0.158766 -0.172554 -0.399387 -0.063996 -0.002208 0.075832 -0.105346 0.023021 -0.075577 0.483345 0.494631 0.054579 -0.164842 0.110372 0.157148 0.111858 0.049392 -0.563686 -0.329535 -0.484928 -0.123862 0.101731 0.300505 0.348150 0.202667 -0.174458 0.217103 0.084188 0.036208 0.202907 0.006497 0.132951 0.187440 -0.305175 -0.164948 -0.286715 0.261966 -0.483629 0.120265 0.071987 0.224477 0.030759 0.082836 -0.163034 -0.029326 -0.282278 0.240830 -0.001552 0.022499 0.741599 -0.153189 0.393870 0.390091 0.176612 0.354428 0.188098 -0.262537 0.019151 -0.005480 -0.337918 0.082233 -0.054290 0.279277 0.004598 -0.119588 0.219309 -0.200561 -0.075687 -0.299764 -0.187590 -0.036102 -0.329038 -0.006080 0.150947 0.367012 0.105404 -0.324301 -0.104726 0.025143 0.248285 -0.219723 -0.228086 0.240549 0.022958 0.291540 -0.025296 -0.250168 -0.286235 0.252294 -0.157695 0.024362 0.255812 0.164492 -0.127190 -0.335962 -0.071208 0.018380 -0.497984 -0.156806 0.006899 -0.119655 0.040019 -0.158775 0.031185 0.295333 0.287928 0.200207 0.142428 -0.231330 0.300268 0.011443 -0.212815 -0.044256 0.347583 -0.073431 0.010432 0.019654 0.332760 0.326925 -0.575769 -0.135324 0.266222 -0.252726 0.310814 0.027457 0.278823 0.023259 -0.027349 0.567706 0.076876 0.191254 0.173953 -0.083063 -0.296997 0.476907 -0.197405 0.029302 -0.013547 -0.025301 0.275900 0.029853 -0.040631 0.196425 0.065085 0.243217 -0.149439 -0.426073 0.108327 -0.326218 -0.299762 -0.035649 -0.283573 -0.297629 0.124196 -0.095176 -0.116777 0.175595 -0.085795 -0.148949 -0.174035 0.004583 0.248194 -0.294017 0.180393 -0.114002 0.278760 -0.050632 0.267347 0.113743 0.143122 0.205984 -0.111791 -0.484808 -0.093631 0.196365 0.021780 0.283225 0.043083 -0.078833 0.383751 0.381814 -0.158642 0.323488 -0.351897 -0.202036 0.465406 0.135426 0.031645 -0.508862 -0.288554 0.178344 -0.005459 -0.024242 0.015122 -0.116519 -0.139444 0.221247 0.075187 -0.031355 -0.393171 -0.154674 -0.077569 0.082154 -0.197782 -0.134667 -0.047590
1(N34) -0.264179 0.310582 0.445119 0.192740 0.147333 -0.020833 0.271988 0.243245 0.155852 0.080209 0.715094 0.226360 0.028908 0.413824 0.024346 0.156624 -0.120970 -0.143241 0.003224 -0.189772 0.199396 -0.074584 0.143183 0.048983 -0.210877 -0.047426 0.492603 -0.064215 0.224836 -0.056632 -0.426180 -0.294578 0.005205 0.088019 0.175031 0.529886 0.386913 0.110839 0.494015 0.016521 0.239964 -0.443494 -0.234982 0.063839 0.036826 -0.214694 -0.199616 -0.160117 0.230370 -0.514632 -0.161110 0.039575 -0.536308 0.059408 -0.158824 0.040912 -0.344955 -0.077238 0.126737 -0.063612 0.215193 0.084590 -0.077321 -0.070292 0.362248 -0.065315 -0.333653 -0.122315 0.194331 -0.032456 0.063318 -0.076356 0.155096 -0.069644 0.054520 -0.102920 0.538261 -0.425430 -0.352342 -0.138097 -0.013160 0.058699 0.089874 -0.088644 -0.475911 0.290910 0.213129 -0.177830 -0.106968 -0.025394 -0.050895 0.077857 -0.144889 0.223146 -0.302119 -0.663471 0.315100 0.193713 -0.410265 0.273818 0.339560 -0.019026 0.127148 -0.053087 0.081033 -0.293993 -0.362056 -0.158208 0.193356 0.020604 -0.050136 0.248404 -0.097753 -0.208863 -0.300694 0.101443 0.210399 0.012224 -0.477884 -0.240010 0.011632 -0.030188 0.047977 -0.554422 -0.095204 0.242014 -0.355427 0.180667 -0.002223 0.153768 0.154663 0.093629 0.100663 -0.266637 0.053367 -0.499611 -0.296497 0.050964 0.212339 -0.117032 -0.530542 0.592960 0.299145 -0.521932 -0.351536 0.125196 -0.558353 0.177355 0.007698 -0.085090 -0.377908 0.042795 -0.416483 -0.416961 0.148020 -0.298558 -0.149150 0.110906 0.206243 0.377031 0.357932 -0.193242 0.229655 0.158647 -0.379298 -0.355750 -0.069330 -0.127165 0.219516 -0.659079 -0.276942 -0.007797 0.152129 0.256471 0.065539 -0.026897 -0.504434 -0.059452 0.002138 -0.003420 0.016099 0.060306 -0.062702 -0.394821 0.197595 -0.227168 -0.574023 -0.179292 0.135272 0.360825 0.126830 0.503647 0.320607 0.217262 -0.121621 -0.018634 0.293005 0.128917 -0.060707 0.335459 -0.191281 -0.152772 0.419495 0.247907 0.046575 0.152498 0.019138 0.293079 -0.214933 0.415906 -0.004442 -0.131625 -0.255079 -0.074800 0.251837 0.207158 0.065998 -0.151551 -0.314183 0.438285 -0.000480 0.455673 -0.124023 0.300835 0.342342 -0.223933 0.210885 0.025384 0.370572 0.079315 -0.012392 -0.266398 0.276072 -0.009224 0.145587 -0.472940 0.079784 -0.125066 0.146856 0.162394 -0.223036 -0.218597 0.402526 0.075179 0.006480 -0.134885 0.349359 0.533144 -0.073495 0.342276 -0.045610 -0.151208 0.070426 -0.161831 -0.237756 -0.049473
1(N30D) 0.047354 0.007516 -0.279555 -0.515967 0.015167 0.168809 0.310538 -0.728491 -0.044114 -0.038616 -0.212241 -0.165955 0.398070 -0.151682 0.411280 0.303085 0.060412 -0.105487 0.510306 -0.050580 0.202357 0.112797 0.105114 -0.250501 0.338312 -0.375522 0.073941 0.354878 -0.385415 0.145596 -0.044953 0.223980 -0.040326 0.001887 0.107721 0.515304 0.296634 0.621472 -0.397995 -0.037870 -0.070863 -0.356262 0.059693 -0.338480 -0.354110 -0.564502 -0.275185 0.268000 0.031010 -0.336069 0.039205 -0.630057 0.553742 -0.334104 -0.225721 0.444984 0.264335 0.702250 -0.619743 -0.306612 -0.069887 -0.178330 -0.280488 0.305761 -0.372116 -0.031713 -0.248696 -0.034751 0.586640 0.214679 0.370065 -0.487934 -0.168095 0.243058 -0.283414 -0.159643 0.027435 0.346807 0.487831 -0.206175 0.169164 -0.689066 -0.054805 0.181783 0.307603 0.005193 0.005084 -0.039014 -0.047901 -0.268081 0.360124 -0.201361 0.145779 0.231975 0.325928 -0.024663 0.239583 -0.010477 -0.057200 0.116910 0.326518 0.374671 0.280406 -0.005154 -0.013076 -0.294702 -0.431972 0.298353 0.042253 0.506535 0.140919 0.049395 0.059330 0.114006 0.358292 -0.195039 0.103270 0.088074 0.379199 -0.254207 0.114985 -0.090595 -0.391756 -0.130834 -0.612064 0.088232 0.197711 0.535201 0.169547 -0.519961 -0.418603 -0.277031 0.138352 0.366912 0.473062 -0.131037 -0.056520 -0.220517 0.295676 -0.014311 0.295217 0.153034 0.106528 -0.063534 -0.244707 -0.193446 0.093692 0.459228 0.084207 0.095112 0.324539 0.394830 0.181476 -0.669484 -0.030086 0.033124 -0.315316 0.046148 -0.082638 0.191806 0.485174 0.141228 -0.201876 0.084010 0.128472 0.205372 0.583595 -0.121424 0.129691 0.051016 0.324317 -0.276249 -0.072006 -0.150955 0.254511 -0.388385 -0.146697 -0.025936 -0.048410 0.205735 -0.313733 0.423987 0.079945 -0.348848 -0.138352 -0.231231 0.166811 0.004078 0.185510 -0.036188 -0.282602 -0.268253 -0.115823 0.320110 0.256910 0.056389 -0.098350 0.382923 0.551328 -0.295272 0.400657 -0.208617 0.411619 -0.056630 0.102506 0.364486 -0.289230 0.352740 -0.316816 -0.059912 0.489301 -0.382985 -0.181425 -0.154646 0.341798 -0.341906 -0.495631 -0.128769 -0.320377 0.357150 0.382449 0.169675 0.202917 -0.018273 0.033292 -0.747530 -0.190451 -0.167815 0.401952 -0.053246 -0.199938 0.078141 0.328740 -0.576840 -0.103567 0.083847 0.369120 -0.467241 0.297666 0.142314 0.232585 0.076441 -0.364434 -0.190657 0.375160 0.059070 0.338456 0.033785 -0.525825 0.581002 0.188179 -0.490825 0.138173 -0.265606 -0.297663 0.021108
3(N14) -0.196413 0.274973 0.168682 0.002352 0.263214 -0.000865 0.505746 -0.125532 0.214134 -0.063487 0.208732 0.368673 0.132202 0.421963 0.107613 -0.136353 -0.380601 -0.185845 0.174378 -0.264578 0.148485 0.092945 0.177917 -0.056153 0.057821 -0.068486 0.118179 -0.256162 -0.282487 -0.409493 -0.376750 -0.009901 -0.135792 0.112293 -0.145100 0.491124 0.364384 -0.100508 0.231240 -0.367893 0.267282 -0.489163 -0.213834 0.550117 0.317844 -0.225163 -0.309904 -0.296086 0.059677 -0.768824 -0.257973 0.128895 -0.370728 -0.030278 -0.125165 0.071233 0.327067 0.024068 -0.490333 0.178655 0.315677 0.147511 -0.288126 0.041131 0.001057 0.160112 0.064147 -0.556224 -0.039629 -0.048460 -0.145169 -0.016294 0.497728 0.226049 0.274682 -0.162029 0.361792 0.104111 -0.254802 0.122468 0.364649 -0.146015 0.270638 0.013186 -0.273155 0.410549 0.265433 -0.067239 0.052964 0.350569 -0.085044 0.020649 -0.035142 -0.083497 -0.064890 -0.301709 0.293949 0.026262 0.503939 0.362472 -0.288975 0.186401 0.462192 -0.144207 0.394229 -0.083729 -0.250173 -0.073373 0.196761 -0.199298 0.110414 0.254434 -0.070191 -0.079193 0.490888 -0.008801 0.090366 -0.299497 -0.183238 -0.169896 0.089856 -0.386727 0.314471 -0.100409 0.060275 -0.178153 -0.438545 0.131844 -0.145550 0.353780 -0.009568 -0.244288 0.441986 -0.353428 0.255614 -0.390959 -0.119015 -0.108951 0.407812 0.242167 0.331415 0.682094 0.209553 -0.275099 -0.444463 0.046477 -0.456689 -0.099541 0.054411 -0.375475 -0.126845 0.500004 0.085600 -0.394968 0.138277 -0.183265 0.288115 -0.007932 0.010019 0.274179 0.043684 -0.186823 0.059660 0.153191 0.109658 -0.029890 0.102323 0.251470 0.137572 -0.360201 0.193600 -0.269862 0.073983 -0.284984 0.225118 -0.102654 0.080745 0.043373 0.024733 -0.012553 0.089157 0.227391 -0.210108 -0.417518 0.184571 0.120768 0.130371 -0.017641 -0.118783 0.378159 0.032398 -0.121006 0.642766 -0.085383 0.192165 -0.167159 -0.010197 0.322523 -0.038740 -0.329889 0.009457 -0.214819 -0.115396 -0.212868 -0.064692 0.276161 0.012155 0.154249 -0.389591 0.286559 -0.060153 0.011644 -0.382511 -0.070341 -0.149458 -0.112085 -0.075284 0.182821 -0.047192 0.290867 0.054892 0.187655 -0.073453 -0.094083 0.448158 -0.253608 0.349267 -0.011725 0.018539 -0.042422 -0.158646 -0.013750 0.247745 -0.150230 0.207001 -0.243884 0.485048 0.105835 -0.166691 0.002574 -0.129844 -0.016803 -0.217762 -0.032091 0.087624 -0.148211 0.359953 0.382356 0.235102 0.018356 -0.164266 -0.626743 0.243733 -0.052532 0.168153 0.062889
M057 -0.247217 -0.076494 0.316580 -0.176288 0.011006 0.009205 0.126653 -0.298695 0.065176 0.089655 0.169642 0.205861 -0.113595 -0.022684 0.161076 0.406331 -0.340947 -0.419188 -0.480175 -0.066145 -0.368965 -0.239983 -0.307160 0.040607 -0.502138 -0.084965 -0.523074 -0.299256 -0.269085 -0.146387 -0.467553 -0.092918 0.076224 -0.057276 0.220924 -0.126810 -0.093008 -0.343790 0.162299 0.110822 0.380166 0.070358 0.063857 0.270506 0.231835 0.060255 -0.022225 -0.000748 0.203007 0.068652 0.125040 0.132428 -0.015496 -0.077823 -0.259894 -0.657187 0.059019 -0.235547 0.173687 -0.346976 0.354131 0.025382 0.176920 -0.304130 0.268354 0.021284 -0.006014 -0.522856 0.305594 -0.408980 0.306906 0.148131 0.021672 -0.410362 -0.065154 -0.152908 0.040749 -0.494948 -0.401534 -0.251657 -0.336265 0.088384 -0.038781 0.311372 0.032540 0.085522 -0.309192 0.322669 -0.025931 0.079591 0.117375 -0.064684 0.283825 -0.070507 -0.381168 -0.179155 -0.099952 -0.195664 0.239832 -0.060919 -0.076690 0.092613 0.652304 -0.434011 -0.020181 -0.032699 0.430392 -0.023302 0.505342 -0.232927 -0.012893 -0.107810 -0.349384 -0.257285 -0.417034 0.062403 0.486362 -0.055777 -0.067177 0.331453 0.164773 -0.195902 0.065137 0.070412 0.156809 0.107030 -0.475291 -0.500027 -0.126354 -0.055684 0.381577 -0.154695 -0.289606 -0.439945 0.583380 0.143847 -0.314780 0.008564 0.099015 0.059399 -0.043636 0.240777 0.528776 -0.521135 -0.171421 -0.240651 -0.118568 0.446943 0.430086 0.120249 -0.122619 0.022967 0.023084 -0.346551 0.387080 -0.115523 -0.070032 0.166539 -0.078017 0.083228 0.182952 0.071609 0.058878 0.306182 0.377106 -0.207757 -0.134308 -0.380624 -0.196381 -0.339301 -0.169321 -0.224729 0.170849 0.053272 0.077857 -0.168822 -0.091441 0.089476 0.031803 -0.051654 -0.090149 -0.098070 -0.410593 0.268748 0.193857 0.350995 0.000076 -0.086308 0.063531 0.251549 0.386954 -0.119106 -0.052335 -0.224103 -0.533974 0.012593 0.457130 0.035663 -0.554304 0.266180 -0.102541 -0.276180 -0.273885 -0.458256 0.056003 -0.084596 0.099925 0.334629 -0.020759 0.008353 -0.155089 -0.093315 -0.208415 -0.162250 0.306469 -0.156158 -0.322311 0.044157 -0.292869 0.186322 -0.018746 -0.126920 -0.009611 -0.008355 0.486905 0.120351 0.339179 0.134468 -0.838790 0.035106 -0.316942 0.559790 -0.580499 0.163903 -0.217616 -0.200840 0.143433 0.249971 -0.270516 -0.434901 -0.388162 -0.048044 -0.338101 0.264138 -0.045383 0.014760 -0.223296 -0.343452 -0.108220 0.154318 -0.128716 -0.066036 -0.095306 0.590706 0.062057 -0.220362
4(N14) 0.318010 0.095391 0.290896 -0.096191 0.255220 0.179368 0.298418 -0.087719 0.159154 -0.159151 0.757993 0.549686 0.456822 0.228333 0.300272 0.123869 -0.415864 0.027500 0.099456 -0.397234 0.553750 -0.546376 0.044093 -0.034045 0.015714 0.141884 -0.352896 0.395540 -0.281159 0.016368 -0.394694 -0.275749 -0.121947 0.383967 -0.046244 0.306552 0.299374 0.197754 0.092007 0.072759 -0.036033 -0.294135 -0.318012 0.274007 -0.026435 -0.371044 -0.401539 -0.010879 0.306622 -0.660400 -0.163121 -0.075776 -0.167097 -0.056304 -0.151864 0.394352 -0.092252 -0.341781 -0.050854 -0.230946 -0.152157 -0.112647 0.045231 0.308277 0.081056 -0.210667 -0.147693 -0.288103 -0.015996 -0.168863 0.460576 0.043400 -0.243436 0.166268 -0.229187 0.045597 0.229886 -0.072721 -0.120669 0.217120 0.283662 -0.045887 0.347557 -0.327205 -0.517304 0.144875 0.191789 -0.068559 0.166616 0.214416 0.100331 -0.297616 -0.143471 0.062572 -0.176336 -0.442038 0.040513 -0.311759 0.178905 0.382868 0.135571 0.034336 0.260079 0.093385 0.109384 -0.406028 -0.439280 -0.265125 -0.082324 0.062261 -0.065720 0.299979 0.097166 -0.464894 0.104421 -0.041783 0.101309 0.131884 -0.387722 -0.549572 -0.062560 -0.085349 0.265229 -0.144312 0.005771 0.275109 -0.312299 -0.017143 0.291214 0.153207 0.075620 -0.367961 0.070791 0.048336 -0.061909 -0.376347 -0.222331 0.060950 0.084957 -0.183535 0.005842 0.409726 0.144620 -0.396039 -0.326692 -0.049388 -0.313925 0.196515 -0.056096 -0.377692 -0.176051 0.030256 -0.217179 -0.383976 0.047220 -0.146792 0.021967 -0.121083 0.059617 0.298842 0.265301 -0.087857 0.140152 0.087976 -0.177769 -0.620281 -0.229626 0.528352 0.470577 -0.218479 -0.347355 -0.190692 0.186304 0.139862 -0.066600 0.363376 -0.152198 0.068943 -0.254377 -0.238792 -0.001941 0.521693 -0.057839 -0.737995 0.447689 0.072937 -0.457236 -0.020705 -0.312568 0.240442 0.141210 0.113966 0.161510 0.065327 0.064587 -0.647713 0.029209 0.040673 -0.084466 0.068162 -0.246083 0.144175 0.110073 -0.004149 -0.004738 0.071002 0.097765 0.358614 -0.051747 0.377215 -0.017256 0.233786 -0.046139 0.090015 0.280768 0.081845 0.174443 -0.086198 -0.012900 0.250932 -0.316620 0.349535 -0.583615 0.124404 0.017303 -0.115873 0.131303 -0.260934 0.178989 0.480143 0.316977 -0.360434 0.185529 0.006707 0.404044 -0.047607 -0.081927 -0.018279 0.236614 0.067353 0.016627 0.091765 -0.035381 -0.053477 0.198867 0.169675 0.211731 0.284241 0.056766 -0.234505 -0.347869 -0.036909 -0.191128 0.179791 0.009731 0.038361
M367 -0.168052 0.092175 0.034353 0.228895 0.062684 0.133745 0.076414 -0.108336 -0.033082 -0.022043 0.059848 -0.043309 -0.018602 0.248728 0.044814 -0.174441 -0.187921 0.222309 0.078248 -0.405753 0.243197 0.192576 0.046363 0.184748 -0.168417 -0.138343 -0.300880 -0.084878 -0.067004 -0.107271 0.310002 -0.566261 0.025895 0.191440 0.140166 0.113718 -0.217123 -0.127880 -0.121536 -0.108684 -0.006393 0.179854 -0.103442 0.197931 -0.406190 -0.169982 0.098118 -0.125189 -0.229780 -0.202707 -0.236005 0.351295 -0.066227 -0.194638 -0.257656 0.102072 0.063904 0.098071 -0.064223 -0.428436 0.200758 0.554669 0.007701 0.266710 -0.089646 0.089915 0.285201 -0.265846 -0.380768 0.022437 0.018633 0.236072 0.016585 -0.305433 -0.161198 -0.105626 -0.147577 0.106559 -0.067555 -0.001876 0.429135 0.194687 0.251873 -0.043327 -0.388479 -0.026657 -0.141515 -0.002606 -0.117043 0.161651 0.105352 0.042949 -0.347094 0.019183 -0.227538 0.073825 -0.053133 -0.182896 0.334216 0.132996 -0.098975 0.016915 0.379614 0.158522 0.243774 -0.050392 0.300792 -0.297413 0.164077 0.113788 0.361206 0.622210 0.066208 -0.392153 -0.134957 0.425262 -0.158234 -0.175822 0.014763 -0.086654 0.123266 -0.100568 0.083938 -0.155783 -0.035814 0.137041 -0.039043 -0.030037 -0.003616 0.202681 0.355867 -0.394672 -0.084464 0.089189 -0.408643 -0.382606 -0.118512 -0.073760 0.311095 -0.103386 0.043740 0.167976 -0.072634 -0.279255 -0.277311 0.009207 -0.432817 -0.322588 -0.082556 -0.054965 0.045029 0.241462 0.554248 0.078529 -0.020534 0.037544 0.417815 0.197229 0.167889 0.413776 0.041514 -0.046786 -0.165063 0.024259 0.310374 0.050051 -0.254519 -0.067758 -0.082116 -0.396500 -0.096740 0.023899 0.015035 0.136551 -0.048235 -0.041941 -0.078855 0.080661 -0.147734 0.163645 -0.241417 0.468123 -0.217608 -0.592757 0.131709 -0.096365 -0.028852 -0.062998 0.139514 -0.012036 0.173596 -0.257610 0.480821 -0.161096 -0.017684 -0.146314 0.054769 -0.185313 -0.023977 -0.100588 -0.049286 0.171626 -0.203623 -0.136000 -0.174258 0.039611 -0.220965 0.309777 -0.035122 -0.048292 -0.103049 -0.058738 -0.325939 -0.237084 -0.199294 -0.310454 0.410068 0.116102 0.010771 0.154477 -0.100070 0.131991 0.461872 0.121036 -0.174465 -0.054515 0.180984 0.028164 -0.091249 0.358759 -0.511408 0.183958 0.209331 -0.011058 0.147269 0.093633 0.028143 0.264201 0.365808 -0.476455 -0.100997 0.054711 -0.380754 -0.148931 0.025831 0.072177 0.034644 -0.199084 -0.392685 -0.566872 -0.004059 0.063025 -0.065250 0.035360 0.130137 0.282403
M001 0.096267 -0.061093 0.143977 0.607417 -0.028620 0.220831 -0.243397 -0.128414 0.206134 -0.049265 0.191881 -0.102462 0.000606 -0.140690 -0.234745 -0.257891 -0.345524 -0.377668 -0.077796 -0.393389 0.242698 0.211393 -0.007697 0.180235 0.268451 0.136250 -0.411296 -0.334192 -0.067984 0.024072 -0.215961 0.577758 -0.074263 0.094509 -0.224523 0.103350 -0.008630 -0.343534 -0.429385 0.235779 0.203043 -0.279787 -0.059784 0.151332 0.085637 0.221157 -0.129969 0.098480 -0.172834 -0.227651 -0.359806 -0.220371 -0.068918 -0.106536 0.021410 0.167869 -0.004871 0.091495 -0.625366 0.274445 0.046081 0.328912 0.295347 0.236145 -0.238116 -0.261288 0.057574 -0.166813 -0.065532 -0.075500 -0.113988 -0.079583 -0.199109 -0.020919 0.065188 -0.230802 0.083821 -0.146303 0.020320 0.309848 0.126821 0.176162 -0.066937 -0.404032 -0.156800 -0.315443 -0.074374 0.298028 -0.236873 -0.070231 -0.069121 -0.240628 -0.350062 0.198856 -0.216444 -0.186819 -0.150033 -0.161141 0.260128 0.145256 0.062882 -0.051257 0.303764 0.098350 0.488646 0.256585 -0.304205 -0.289216 0.368828 -0.002068 0.143532 0.135118 -0.323735 0.026979 -0.016421 0.032106 -0.080858 -0.124845 -0.113232 -0.013209 0.067381 -0.086734 -0.259581 0.325996 -0.079096 0.340667 -0.411968 0.109787 -0.166395 -0.187170 -0.134885 -0.071950 0.155954 0.096492 -0.211921 0.167244 0.078555 0.064503 0.029057 -0.044396 -0.042671 0.270840 -0.101421 0.072773 -0.459278 -0.107136 -0.118454 0.163421 0.327342 0.178042 0.136773 -0.066920 -0.072860 0.017227 -0.191124 0.223048 0.460246 0.127104 0.001544 0.097604 0.081656 0.066456 0.262375 -0.016691 0.250433 -0.101356 0.179248 0.218724 0.310470 -0.411950 -0.194068 -0.135342 0.225951 -0.245020 -0.056193 -0.209259 0.275896 -0.062152 0.201754 -0.057187 -0.030645 0.070645 -0.128231 -0.028115 -0.157116 -0.070264 -0.117509 -0.276149 0.091072 0.105220 -0.384790 0.197895 0.406790 0.209856 -0.147184 -0.204233 -0.258796 0.313880 0.043157 -0.141083 0.032153 0.252500 -0.294296 -0.128936 0.177872 -0.322206 0.272651 -0.021994 -0.171733 -0.083834 -0.178562 0.390801 -0.267526 0.028095 -0.186921 0.125995 0.147254 0.185316 0.200079 -0.100188 -0.100744 0.244343 -0.178454 -0.102267 0.195964 0.006979 0.368123 0.254843 0.080592 -0.054870 0.351377 -0.592587 -0.084374 -0.224286 0.181168 0.318337 -0.121009 0.130595 0.137510 -0.097506 0.153800 0.023731 0.037194 -0.115316 -0.035220 -0.257111 0.170323 -0.229660 0.021078 0.166752 -0.184592 0.083627 0.178705 0.066012 -0.026760 0.080146
M305 0.528024 0.112137 0.037341 0.053224 0.176410 -0.136632 -0.126932 -0.020789 0.458108 -0.323201 -0.441176 0.216304 -0.126769 0.273237 0.128944 -0.010905 0.049246 0.119987 -0.068634 0.134052 0.445234 0.437869 0.342160 0.093271 -0.050873 0.112169 -0.263843 -0.032283 -0.050056 -0.312323 -0.149950 0.619013 0.146343 -0.171840 -0.438616 -0.162277 -0.110176 0.061250 -0.027907 -0.009308 0.066410 0.234553 0.002672 -0.374076 0.125639 -0.105499 -0.307771 0.457122 -0.154166 0.062516 -0.243125 0.320915 0.218868 -0.004594 0.007082 0.227959 -0.085636 0.172702 0.008432 -0.051516 -0.205663 0.298998 0.329381 0.056425 -0.364548 -0.069993 0.534414 -0.084636 0.213000 0.112081 0.021713 0.188220 0.037529 -0.355476 0.263596 0.185301 -0.021210 0.043358 -0.254402 0.066995 0.119484 -0.076317 -0.023833 0.107688 0.431047 0.415045 0.081954 0.398190 -0.060963 0.398813 0.068141 -0.007809 0.188024 -0.054955 0.154338 -0.036540 0.039948 -0.063889 0.046461 -0.321874 -0.245180 -0.036659 0.290940 0.000147 0.350350 0.015669 -0.394463 -0.064721 0.423410 0.290795 -0.017047 -0.097929 0.054334 0.143636 0.063932 0.309742 0.350007 -0.043772 -0.013798 0.084215 -0.060559 0.104599 -0.147508 0.339056 -0.312146 0.059650 -0.287186 -0.350204 0.082688 -0.414782 -0.132014 0.134891 0.000493 0.168254 -0.320344 0.157042 0.197755 -0.055245 -0.103854 0.258981 0.183455 0.210030 0.211701 0.050165 -0.447386 0.064551 -0.462150 0.008489 0.368506 0.111382 0.203885 0.603263 0.332236 -0.066778 -0.237742 0.159411 0.327515 0.281614 0.105271 0.031987 0.182946 0.304931 0.097786 0.244499 0.466515 -0.078991 0.122106 0.038811 -0.078185 0.097398 -0.140833 -0.176445 0.369118 -0.458808 -0.194403 -0.293613 -0.511928 -0.254154 -0.191135 0.060313 -0.278842 0.652912 0.088899 -0.289038 -0.610640 0.155943 0.135186 -0.069800 -0.102124 -0.188746 -0.040961 -0.609548 0.276270 0.128176 -0.155886 -0.010980 0.235325 0.452402 0.095641 -0.076221 0.063951 0.300549 0.145378 -0.095373 0.001035 -0.220333 -0.179120 0.032518 0.052306 -0.635301 0.156349 -0.132135 -0.245200 -0.054252 0.118693 -0.233986 0.237411 -0.187263 -0.201895 -0.000905 0.230011 0.273606 -0.005789 0.153166 -0.380208 -0.076824 0.147374 0.175149 0.105768 0.028657 -0.101243 -0.005773 -0.292878 -0.067092 0.141034 0.286047 0.132024 0.110144 -0.087159 -0.274534 0.020302 -0.254821 -0.287408 -0.184957 -0.515893 0.132094 0.152039 -0.293609 -0.246997 -0.281696 -0.130086 0.128191 0.192783 0.260349 0.096207 -0.266117
M036 -0.140577 -0.221395 -0.191176 0.095238 -0.063743 0.046347 0.203518 -0.346465 0.193096 0.107315 0.019638 0.117529 0.355568 -0.067979 0.004962 0.054233 -0.167455 0.004905 -0.176237 -0.208490 0.353019 -0.086625 -0.137505 0.202265 0.143706 -0.208063 -0.007765 0.074738 -0.392016 0.046697 0.104612 0.162965 -0.134333 -0.084512 0.085590 0.108990 0.327054 -0.046530 -0.153620 0.080491 -0.102038 -0.050864 0.098168 -0.010228 -0.346949 0.012480 -0.271503 0.091253 0.048435 -0.203339 0.226842 -0.245668 0.265405 -0.328878 -0.175871 0.387269 -0.180936 0.012470 -0.532457 0.164696 -0.072762 0.077843 -0.231878 0.234805 -0.056530 0.262999 -0.256856 -0.193580 0.147402 -0.021094 0.186715 -0.369370 -0.223348 0.027719 -0.165321 -0.171820 0.234761 -0.015867 -0.020798 -0.086458 0.156951 -0.344538 -0.140116 -0.046700 -0.435629 -0.098026 0.035768 0.006519 -0.224805 -0.103003 0.190385 -0.027117 -0.499109 0.114886 -0.206867 0.308651 -0.116371 0.171921 -0.184327 0.055631 0.129689 0.249205 0.114606 0.297100 -0.005434 0.120309 0.025943 0.178129 -0.079499 -0.009641 0.399423 0.060751 0.117125 -0.177188 -0.099980 -0.172330 0.220314 -0.032975 -0.002580 -0.197163 0.027518 -0.063554 -0.186528 -0.098617 -0.300293 0.396118 0.264044 0.097100 -0.051374 -0.281658 0.048487 -0.152045 -0.027215 0.439369 0.064611 -0.188306 -0.112195 0.086009 0.220886 -0.049919 -0.067670 0.064446 -0.144567 0.144194 -0.223175 -0.197682 0.103455 0.115593 0.157286 0.005560 0.120815 0.229175 -0.060764 -0.014449 -0.111756 -0.056975 -0.118968 -0.154256 -0.176244 0.052538 -0.245598 0.219573 -0.207702 -0.017588 -0.236751 0.027269 -0.003338 0.322143 0.388010 -0.016254 -0.143242 -0.015884 -0.136463 0.179583 0.007846 -0.385160 0.021488 -0.020072 -0.055582 -0.106629 0.025489 0.229748 -0.026779 -0.083288 0.093891 -0.108372 -0.202869 0.054682 -0.120405 -0.262090 0.045875 0.109100 0.221378 0.262218 -0.101111 -0.066725 -0.358370 0.088622 0.160060 -0.201512 0.028133 0.130959 0.298054 0.100734 -0.124738 0.148019 -0.028228 0.182274 0.270204 0.018627 0.106605 0.089165 0.029037 -0.106855 -0.289916 0.092986 -0.302991 0.130287 -0.184643 0.013042 0.116424 0.150272 -0.127437 0.019166 0.158154 -0.340707 0.451295 -0.113759 0.013362 0.105592 -0.064367 -0.013638 0.173623 -0.122353 -0.050074 -0.036494 0.240006 -0.232555 0.043725 0.097593 0.024100 -0.043726 0.004375 -0.048438 0.323317 0.084080 0.032551 -0.037638 -0.331257 -0.010529 0.089052 -0.185763 0.092233 -0.002219 -0.357969 0.090356
M032 -0.245355 -0.168383 0.117872 0.339465 0.225306 -0.036499 -0.593069 -0.065040 -0.312698 0.058753 0.412196 -0.262437 -0.248587 -0.082056 -0.321166 -0.526144 -0.497107 -0.096601 0.387806 0.214461 -0.045623 0.138926 -0.231763 -0.212510 0.050912 0.241742 0.052175 -0.107495 -0.416810 0.029040 0.065357 -0.337289 -0.267811 0.154247 -0.027898 -0.411481 -0.186829 -0.407136 0.124293 -0.188582 0.434001 0.100499 0.152169 0.301965 -0.135643 -0.116394 -0.075793 -0.177257 -0.016490 0.268795 0.448444 -0.316293 -0.098046 -0.052927 -0.034009 -0.286709 0.178582 -0.058300 -0.155747 0.045699 0.069271 0.125135 0.283271 -0.335632 -0.106419 0.407807 -0.034723 -0.362225 -0.311468 -0.117750 -0.061797 0.065562 -0.100321 -0.070624 0.049222 -0.140603 -0.355080 -0.187666 -0.152935 0.159759 0.001793 0.075097 -0.035794 -0.273583 0.011859 -0.380551 0.372705 -0.028746 0.540997 0.066966 -0.515885 0.369082 0.026394 0.036038 -0.311667 -0.155419 -0.117718 0.060841 -0.244287 0.059579 0.011422 0.143356 0.148052 0.193803 0.435524 0.301599 0.383464 -0.408207 0.013570 -0.014205 0.188671 -0.183620 0.354610 0.250484 -0.114549 0.056310 -0.124800 0.172361 0.066151 -0.126050 0.131338 -0.029678 0.003298 0.007201 0.567065 0.230474 -0.132548 0.203739 -0.356263 0.193987 0.214584 -0.309369 -0.373045 0.032969 0.157503 0.162555 -0.029674 -0.063259 -0.175067 0.045124 0.055447 0.170592 -0.044747 -0.115686 0.077003 0.256754 -0.167000 -0.319430 -0.132081 0.235880 -0.119403 -0.272955 0.029509 0.017025 -0.157775 0.131152 0.601485 0.040015 -0.196328 0.176648 -0.163756 -0.543858 0.162334 -0.062551 0.032209 0.071188 0.127488 0.074061 -0.358763 -0.362157 0.140102 -0.309326 0.013958 -0.147914 -0.228190 0.134583 0.282084 0.239966 0.102843 -0.342540 0.372953 -0.373709 -0.553221 -0.192943 0.287568 0.115719 0.171425 0.038174 -0.020872 0.103927 -0.226085 -0.160329 0.127409 -0.363079 -0.149759 -0.666625 -0.438781 0.540768 -0.072575 -0.175166 -0.107486 0.066469 0.084921 -0.466699 0.238082 -0.031092 0.278946 0.205790 -0.324551 0.158570 -0.409318 -0.068784 0.214960 -0.503934 -0.093780 0.361393 -0.232745 0.127012 0.253189 -0.074735 0.244796 -0.243100 0.287724 0.021025 -0.433137 0.066155 0.465690 0.303470 -0.416226 0.207972 0.047163 -0.189645 0.006871 0.173996 -0.090360 -0.504621 -0.070850 0.259855 0.249165 0.152316 0.010939 -0.084224 -0.019050 -0.152287 0.351021 -0.104377 0.148376 -0.159573 -0.091216 0.023912 0.064542 -0.127216 0.167309 0.196462 0.083948 -0.075092
M370 0.184910 0.181427 -0.283733 0.193845 -0.256139 0.150730 0.288321 -0.117579 0.266939 0.111464 -0.055096 0.044938 -0.250059 -0.135076 0.068012 -0.247472 -0.059891 -0.099164 -0.356761 0.403157 0.150929 0.096698 -0.190422 0.111993 0.122097 0.180525 -0.327786 0.262275 -0.138381 -0.093931 0.012215 0.249907 -0.326226 0.020281 -0.199338 -0.216272 0.082939 0.092642 0.002001 0.060346 0.152540 0.168221 -0.011657 0.095806 -0.062252 0.205217 -0.115161 -0.000854 0.170080 -0.221036 -0.043653 -0.158007 0.159830 -0.232758 0.223722 -0.130595 0.217857 0.247167 -0.335938 0.684879 0.150997 -0.107952 0.188681 0.059916 0.090972 -0.008077 0.114341 -0.139608 -0.317206 -0.371300 -0.328886 -0.003993 0.609148 0.269961 0.186923 -0.060021 0.018299 0.038723 0.198736 0.377018 0.062528 0.261949 -0.002109 -0.296172 0.015303 -0.464633 0.164099 0.085975 -0.103691 0.181866 0.057788 -0.128890 0.015929 -0.118137 0.200716 0.327803 -0.022668 0.045190 -0.092211 0.240642 -0.044612 0.087122 0.235374 0.137574 0.350408 0.255815 -0.048689 -0.202269 0.155010 0.005192 -0.004257 -0.171613 0.101891 0.205385 -0.129162 0.424993 -0.229085 0.141354 -0.021923 0.122928 0.000239 0.166727 -0.319181 0.359009 0.255960 0.386883 -0.095997 0.184739 0.135857 0.352124 -0.011347 0.067220 0.089489 0.006572 0.200172 0.042132 0.172818 -0.200358 0.107975 -0.073112 0.102949 -0.044272 0.003536 0.119785 0.152479 -0.171100 0.023147 -0.219268 0.085148 0.202762 -0.122545 -0.245374 -0.189546 0.011267 -0.353474 0.510899 0.386546 0.036727 -0.141271 -0.033104 -0.160336 0.159346 0.342440 0.080477 -0.293718 0.263187 0.070381 0.051524 0.470684 -0.302609 0.148364 -0.293935 0.190531 0.198792 0.120430 -0.200800 0.171609 0.125812 0.094169 -0.039611 -0.032839 0.486911 -0.020017 0.084498 0.215872 -0.337447 0.022318 0.198140 -0.346759 0.336719 -0.421628 -0.213630 0.118018 0.109448 0.079122 -0.458845 -0.441796 0.158885 -0.302485 -0.185857 0.372260 0.042819 -0.107243 -0.023299 -0.057967 -0.442830 0.319376 -0.260177 -0.157604 -0.191964 -0.019186 0.113103 -0.348275 -0.027058 -0.141687 0.333523 0.066812 0.251487 0.188352 -0.193447 0.122422 -0.173985 0.012022 -0.250142 0.040575 -0.062059 -0.006187 -0.094616 0.117126 0.161560 0.142303 0.006369 0.104014 0.203694 -0.475360 0.288393 -0.181144 -0.061571 -0.522983 0.021225 0.271667 -0.140911 -0.324053 0.037951 0.066879 0.217884 0.175934 -0.211003 0.102011 -0.163265 -0.012535 -0.007445 0.323457 0.169043 0.054212 -0.015551
