530 128
UNK 0.49349415 -0.12896082 -0.3225768 -0.10239778 -0.6063312 -0.5245265 -0.30426824 0.37086794 -0.14197929 0.06272174 -0.18791755 0.07961964 -0.037625875 -1.2488207 0.0062207147 0.3541833 -0.08675283 -0.5825538 0.65225875 0.1739303 -0.6144517 -0.34733772 -0.43826097 0.013478872 -0.29457578 -0.40849543 0.68861365 -0.49292523 0.43296805 -0.051293254 -0.24717313 0.15858667 -0.4349033 0.6563086 0.42654216 0.39272705 0.15070039 -0.50791293 0.52989924 0.69774616 -0.1624439 0.36986393 0.18965785 0.8771124 0.7320273 -0.3688005 -0.21139707 1.0425211 -0.19391194 0.13300824 1.0876793 0.094315134 -0.3515669 0.04273248 -0.34674245 0.31668144 0.1949371 -0.3705749 -0.63854176 0.08339061 0.5428933 -0.25062647 -0.2795033 -0.69994277 -0.17190322 0.13746986 -0.3991007 0.47428364 -0.2845444 0.7210779 0.451636 0.24820676 -0.0039034155 -0.25363564 -0.026914326 -0.7327851 -0.293019 -0.5379879 -0.3398985 0.5662241 -0.11196629 0.23417765 0.022782337 0.7333763 0.04488051 -0.032016937 -0.5613614 -0.06772223 -0.13014783 0.3313986 -0.683786 0.9874216 0.28097343 -0.68171275 -0.032358576 -0.1967845 0.42641002 0.388546 0.76252687 0.21603468 0.1952318 -0.68827456 0.13610096 0.31718987 0.561996 0.19098029 -0.1882155 -0.012124731 0.008299498 0.35907447 0.1294469 -0.43712896 0.49277815 -0.15378474 -0.23464255 -0.14744172 -0.3472855 -0.36062905 0.9572792 -0.46861416 -0.10067743 1.018533 0.28025213 0.501096 -0.6123583 -0.070559226 -0.076105885 -0.70819825
1(N01) 1.9824265 -0.65124565 0.84002966 0.4848344 -0.06511589 -0.2339642 -0.03746037 0.762633 -1.7419577 -0.25411484 -0.545691 -1.2924778 -0.68124074 -0.6692374 -0.8782145 0.21384764 -0.103257135 0.40493825 0.70255744 0.96109873 -1.0180981 0.1523821 -0.1902137 -0.122291885 -0.8793324 -0.7157275 -0.117365435 -0.6426209 -0.38933086 -0.43000954 -0.42067316 -0.026146028 -0.62103736 0.69728214 -0.05523588 0.14708574 1.236777 0.1396446 0.5700256 0.25580788 -1.0920843 -0.4577285 0.75214547 0.2570157 0.24370255 -1.087336 0.69773865 1.2043765 -0.26726982 -0.43000132 0.22909878 0.37814435 1.349853 -1.2569252 -0.3556135 0.7144474 0.22197747 -0.35983393 -2.3705406 0.58896947 1.5552864 -0.85828453 0.8093713 -0.9769609 -0.5442428 -0.20264637 0.51362056 0.10359203 0.18919681 0.5993157 0.34878147 0.073591806 0.64901185 0.7029978 -0.82586986 -0.35714287 0.17682284 -1.7850033 0.036188442 0.6860128 0.17981537 -0.44376394 -0.85274446 -0.36569032 -0.26183385 -1.0544406 -0.3843724 -0.5500758 -1.6376398 0.4663912 -1.2676377 0.6727886 -0.19695525 -0.51715297 -0.49640867 -0.33999914 -0.013730616 -0.48176214 1.0412511 -0.5574094 -0.36989203 -1.1512713 0.5573289 0.3475803 0.24213618 -0.5487071 1.2100708 0.5980716 0.560044 -0.42992976 0.22434404 -1.7297338 0.25124866 0.20774074 -0.46363845 -0.522957 -0.5613685 -0.3040631 0.38961723 -1.5786045 -0.039010108 0.6086441 -1.0308473 0.44431287 0.16494395 -1.6828794 0.40066352 -0.12452804
2(N01) 2.2320514 -0.6859103 0.25803754 0.18985695 -0.8975637 0.13154222 -1.0087701 0.39715195 -1.5898348 -0.15277722 -0.3885384 -0.47641182 -0.41951066 -0.27763137 -1.664412 0.72378594 -0.014280669 0.85192835 0.41320437 -0.25575003 -0.79913485 0.20297314 -0.8227696 0.039309286 -0.3470489 0.083606154 -0.5462225 0.045952287 -0.1100197 0.6599951 -0.2170115 0.20987217 -0.10072854 0.59601915 -0.34809074 -0.19483413 0.9728093 0.9679196 0.031207649 1.4381727 -1.2772379 0.4039023 1.2799237 0.2578895 0.4468551 -1.2550831 0.055184152 1.2557509 -0.19689621 -0.15821984 -0.009094417 -0.16693795 0.5734484 -0.38203555 -1.1657847 0.2744667 0.05550185 -1.159886 -1.5457809 0.11414419 1.1294103 -0.9510672 -0.100080945 -0.070916384 -0.33905226 -1.1034646 -0.75295764 0.040274505 -0.3368423 0.3763456 0.28265283 0.355049 -0.6648253 0.17240351 -0.15816893 -0.35509402 -0.7726292 -0.70736486 -0.063277945 1.4892641 -0.047324944 0.25905406 -0.506744 0.3655111 -0.20576385 -0.91334605 0.5126116 0.17924032 -1.2759633 0.8534987 -1.1786907 1.3075863 -0.5402101 -0.35088128 -0.18903884 0.3431545 0.7498473 0.48242247 -0.099736206 -0.19917578 0.11493969 -0.37074506 0.1141466 -0.09947254 1.3038356 0.035362285 0.41364965 -0.22617236 0.010516116 -0.6442603 0.4175573 -1.449927 0.35156298 0.36099422 0.30556077 -0.79528946 -0.22140309 -0.18270952 -0.31844005 -1.5653151 0.99601954 0.41995052 -0.5784952 0.8554574 -0.045680344 -0.7333011 0.8621392 0.5011089
1(N14) -0.19439174 0.86344945 0.89142054 0.05709962 0.19148321 1.1621814 1.4715253 -0.05436224 0.503646 0.14010347 -1.2168441 2.099164 0.56200165 -0.896177 0.19503826 -0.31032866 -0.3342115 -1.2236825 -0.96887577 -0.103131555 -0.2584547 0.7511073 0.8315619 -0.3297325 0.81736875 0.52744037 0.7596917 -0.8003213 0.5964623 0.19709334 -1.3055515 -0.5628588 1.0459592 1.110542 -0.64950347 -0.7611974 -0.6995621 -1.3961285 0.86991227 0.4612501 -0.5489948 0.47493508 0.31185937 0.61898243 -0.46769238 -1.2765251 -0.4876143 -0.51479256 -0.956827 0.13977866 0.74326485 0.097255714 -0.53119916 1.6509501 0.85645765 0.34307194 1.1833277 0.74894893 0.8186432 1.1568534 -0.05634317 2.0048184 0.021495417 -0.78459686 -0.64473945 1.0458404 -0.4284072 0.79432213 0.47203213 0.47203407 -0.06988894 0.85185486 0.7619859 1.255166 1.0251424 -0.25434625 -0.016368717 -1.0596508 0.36211914 0.026076172 0.27514192 1.0140567 -0.20364907 -0.5051913 0.8614336 -0.26562676 -1.6667795 -1.0141927 -0.42497346 -1.1067829 -1.1177425 0.82549906 -0.72238654 1.0786328 -0.572245 -0.8464561 -0.3231536 -0.4544745 0.44465607 0.0760157 0.3201177 -0.3895051 -0.77934504 -0.28106567 0.65608174 0.6896715 -0.5492826 -0.12286174 0.45155996 0.59036374 0.20131336 0.85431355 0.027260225 -0.63556254 -0.16575363 0.9045833 1.0893337 -0.9455615 0.5630405 -0.21649444 -0.24727005 -0.92539173 0.23879282 -0.026460271 -1.0105876 0.94597703 -0.15860127 -2.9231741
M288 1.1267153 -0.3793783 -1.4216809 -0.8307027 -2.1062574 0.8831092 -2.09669 0.58347696 -0.36230788 1.1353902 1.0094358 0.006074897 -0.8945757 -0.14462593 1.0956389 0.20520186 -0.31527677 -0.669298 -0.009804655 -0.89475214 -1.4813324 -1.8553842 -0.31099948 -0.31791708 0.14565672 -1.1760203 0.8350172 -2.0651226 0.9209766 0.8086567 1.4273764 -1.0922481 -0.5362991 -0.053738523 1.4688752 0.64162946 -1.0031917 -0.15803993 1.0982925 -0.25960508 -1.3436849 -0.6276911 1.5051626 -0.69774514 3.10951 -0.014623203 -1.7971728 2.6759126 -0.3371265 2.1609077 2.7241824 0.110570595 -1.0524341 0.35444754 -1.4598889 2.1712713 -0.011679554 -2.2321503 -0.7296322 1.2153889 0.81396234 -2.3012145 -0.17177837 -1.1097862 -0.7654279 -0.4017778 -0.9650798 -0.43572035 -0.05762684 0.8980459 -1.0303612 0.2531424 1.6557753 -0.8862889 -0.92923576 -1.0113955 -0.29485148 -0.39398032 -1.4960401 0.36932972 -0.73141366 -1.1814227 -0.50059897 2.0304537 0.72518224 0.053651955 -0.5045127 -0.16259171 0.32024956 -1.0296545 -0.0847435 1.6067405 0.73638433 -1.2597628 -0.019075539 0.4250712 0.47904468 1.6155113 -0.61486495 0.12051439 2.1164148 1.2300974 0.055680472 -0.91932344 0.7193731 -1.2427398 0.9254687 0.23472272 0.062674955 1.2796919 -0.073604375 1.0512896 -0.42020538 1.4285878 0.30940548 0.3448366 -0.48817638 0.454543 0.25793713 -0.90035844 0.14089854 1.5825249 0.13235296 -0.57214016 -0.9672742 -0.28892848 1.3514864 0.5061158
3(N01) 2.2738616 -0.69762224 0.6397622 -0.46842 0.09383502 0.25132933 0.0023480945 -0.15616694 -1.6576346 -0.5771072 0.21682699 -0.7029493 -0.900058 0.31191024 -0.077954054 0.38823825 0.43973467 0.7980182 -0.02102778 0.78631073 -1.41126 -0.033228457 0.39564902 -0.79587114 0.69174737 -0.34991133 -0.91275024 1.0529163 0.26911741 -0.046751127 0.37378246 -0.4785896 0.31809592 0.23480591 0.2915594 0.73790884 0.40484494 0.52560216 -0.35669994 0.7490392 -1.2375164 -0.2347829 1.4238605 0.010120551 -0.1347271 -0.94971514 -0.29148555 0.97189885 0.3477785 0.6641794 -0.3102979 0.3490358 0.45574373 -0.7725873 -1.3308508 0.39008287 -0.8235257 -1.1741761 -2.6479456 0.27693206 1.3144522 -0.9609211 0.09768347 -0.87612337 -0.95597357 -0.09563702 -0.3265448 0.47145382 -0.12481697 -0.622301 0.7054673 0.14835899 -0.69133127 -0.008052643 -0.51137334 0.7657685 -0.34525296 -1.5551208 -1.7216824 0.74218136 0.22446169 -0.5299589 0.70219827 0.57988334 -0.9092346 0.2495848 -0.19336563 1.2259011 -0.067947835 0.47339156 -1.0146661 1.724237 0.1595281 0.26251256 0.5411365 1.0024118 1.5335252 0.80064267 -0.86607224 -0.21891314 -0.04029421 -0.78197104 0.1307549 0.53668255 -0.15135919 -0.3194492 -0.0024284904 0.19960828 -0.2610996 -1.2442591 1.4429916 -2.003635 -0.09264062 0.9527386 0.5800683 -0.7764764 -0.08550812 -0.7897301 0.17848958 -1.3338072 1.5781313 0.76477176 -0.35593826 1.7822391 1.1345108 -0.74632263 0.5764595 0.425601
M388 2.2849908 -0.63992155 -1.0438981 0.06149347 0.7622545 1.0608574 -0.41993773 1.8899007 0.3538314 -1.5395316 -1.2553314 0.9545929 -2.4988508 -0.17301339 -0.1893017 1.0272547 -0.89268255 -1.661992 -0.795009 1.6412977 -1.1874343 -0.6307512 -0.6855261 0.17573904 0.34835538 0.79091907 -0.72340053 -0.47741172 0.44434425 -0.29489633 -0.121594585 -1.9260551 0.19331221 0.14260374 0.4861192 0.26728997 0.57011265 -0.67340815 2.1069195 0.24938363 -1.9227676 0.46859142 0.6514612 0.29298964 -0.3800587 -1.840862 -0.2888409 2.2764478 -2.4382348 -0.2728855 1.777112 -0.9260812 -1.5488162 0.21061037 0.38456127 -0.40014702 2.6571486 1.6052387 -0.7104925 0.85817844 0.9549294 1.4579158 1.9571863 -2.183591 -0.24635771 -0.12814133 -1.9294723 1.5267816 0.57499695 1.2339592 0.26308694 1.4646597 -0.04989459 0.11499726 0.8841297 0.35291293 -0.7945919 -1.5440358 2.1893766 0.02577177 -0.61606663 -0.64009655 -0.91964585 -1.7584959 -0.29639545 -0.6759987 0.42729953 -0.76706415 -3.393677 -1.7222383 -0.72186005 1.5004102 -0.37826613 0.55497885 -0.57820153 -1.531412 0.05601523 -1.5609101 -1.1620926 -1.0558997 -0.21998714 -1.7290497 1.0569677 2.270524 -1.5189303 0.81207967 -0.27378333 0.8938635 -1.0293429 -0.3579845 -1.1917323 -3.2783477 1.0826597 -1.0709022 -2.1958656 -0.24183789 -0.69209015 -1.0339415 -0.21093827 -1.8036087 0.16510239 3.0676076 -1.7658399 1.7551619 -0.36145937 -2.2660358 1.0741323 -0.19419923
1(N24) -0.35005236 -0.17996384 0.65640736 1.6197318 0.47596887 0.92060435 -1.3529439 -2.2280624 -0.20024483 1.9605153 -0.27723402 0.9677549 0.077967145 -0.09512065 0.9114681 0.7934664 1.801981 -0.4047804 2.2877002 1.2670447 0.00440382 -2.8765824 -2.7432473 -0.4102844 0.83163744 0.9467305 -1.008097 -2.62483 0.3799352 -0.15784314 -2.2744057 -0.486578 -0.029125618 1.5320942 1.3076553 0.19164574 -1.4108375 -1.0746007 0.15253733 0.46340734 -0.3192057 1.8224487 -1.7825001 0.23522669 2.9504507 0.4220506 -1.3885193 0.13706414 0.29228196 2.1648266 -0.147224 0.70202506 1.2113142 2.3303044 -1.0325809 0.27562985 0.555374 -0.69053084 -1.8429905 -0.43312228 -1.0071293 1.6727154 -1.0622718 -0.14684148 -1.0144572 -0.68954265 0.5340265 -1.5384516 0.88488543 0.7573479 -0.74253786 0.20127794 -0.66977495 -0.2884087 -0.8341114 1.381241 -1.5511168 0.67611206 0.112284705 1.8748263 -0.23521963 -1.4241103 0.3143581 2.036227 0.049216047 0.007772246 0.88564026 1.6325502 -0.17190589 1.865976 -0.5098029 1.6525246 -0.9326661 1.3111556 -0.74416506 0.8687011 1.5051389 2.6074593 -0.431853 -1.147043 -1.9965489 0.4127145 -0.94815224 -0.33074078 -1.5181857 -1.7752066 -0.23913491 -1.9991943 -0.34172097 -0.78376955 0.121821515 0.032474663 0.70529455 -0.7280421 1.7643771 0.966481 -2.2236938 -0.21417557 0.87458736 -0.07482952 0.95805794 0.2848288 0.024049044 -0.010962552 -1.806917 0.9558076 -0.9838594 0.32857704
M218 0.46230817 -0.4439112 -1.1215512 1.7598802 0.5298773 -0.847799 0.9820057 0.2196245 -0.27737275 -1.9537477 -1.5879812 -1.0035464 0.18969654 -0.9069294 0.662661 -0.3560211 -0.61887366 -1.3748369 -0.07634504 0.30034217 -2.016722 -0.4313519 0.9487823 1.6857103 -0.18827653 -1.6219882 0.46320143 0.6037929 -0.19894241 -1.4432102 -1.6578957 -1.3033041 0.39306614 1.8179352 0.5980488 1.3937479 -0.34676382 -1.9597558 -1.6818641 1.737022 0.7135274 0.66122293 0.7455352 0.49457085 -0.3498495 -1.7870104 -1.1206765 1.8936007 -2.2512176 0.26146188 1.7483655 -0.6647459 -1.1453342 -0.7694004 1.3048781 1.4819053 0.99893904 -2.4485512 -1.4933048 -0.20873202 1.4391769 1.3419003 1.0217338 -0.9904817 0.26842505 0.728822 -0.1470081 0.30488858 -0.96966934 0.8617666 0.5518771 1.3893523 0.18483742 1.4609455 -1.8840933 -1.577391 0.6528737 -2.7992544 0.85299325 1.5021379 -2.2231197 0.7658786 -0.26283765 -0.37638256 -0.50911534 1.0743505 0.049774583 -2.4787989 -0.22344539 -1.0495915 -2.208851 4.8574514 0.25738093 -0.29478276 0.13395187 0.7421569 1.4794663 -1.5431569 0.7561871 -0.62538445 0.1364404 -1.5911083 -0.9921077 2.3544416 -1.7924258 1.2355355 0.262446 0.5504813 2.083063 0.77939653 1.3874255 -0.10952087 0.80212206 -0.3469704 0.87574315 -0.6765449 -0.46406823 0.09797286 1.3415834 -1.1988701 -0.7856289 0.57881314 0.5536283 0.35650912 -0.476244 -0.97112495 -1.0096943 0.4508766
M387 0.25260884 0.034216665 0.111423545 -0.28481275 -1.5995299 -0.32195392 0.15049025 -0.99142367 0.652806 0.26854783 -0.33779815 0.6289514 1.5818075 -0.6566338 0.78382665 0.48181158 0.48408577 -0.62865484 0.07836439 1.2897466 -0.092280865 0.33505997 0.32624924 0.7757463 0.10424703 1.200072 1.8258389 -1.2327355 -0.39748302 0.41243568 0.12929769 0.754935 0.013049358 0.232819 0.3076551 -0.44102758 1.1330308 -0.25622606 -0.48192316 0.7564984 0.7794205 0.63878226 -0.32272053 -0.05600472 0.5025599 0.061379217 -0.18623 2.1673172 -0.9954268 -0.8310848 1.156327 0.13287698 -1.0988982 1.8936934 -1.162819 -0.27828267 0.7291601 -1.0907599 -0.82951444 1.7070738 0.7667894 -0.28081775 -2.021164 -1.1611468 -1.6042995 0.37775284 1.0880203 0.57788306 -0.58046794 1.6301653 0.413483 1.0223669 0.9974675 -0.19119687 -1.1519996 -1.9354843 0.24348627 -0.41124704 0.18484479 -0.8091978 -0.3265458 -0.31362656 0.9923844 -1.4633738 1.5394658 0.05831748 0.35323247 -0.15388875 1.0571003 0.3370592 -1.9564728 0.34702516 0.95407915 -0.80254203 0.16962308 -0.851442 0.25394666 -0.36838344 1.1008792 -0.29709104 0.92382747 -1.237535 0.044871956 1.1807861 0.35812086 0.34090266 -0.32295233 0.3515079 0.67451257 -0.42489138 1.0632008 -1.6319368 1.2556417 -1.048956 0.32404643 -0.39500573 -0.8351113 0.44972342 1.2540699 0.3573596 -0.5977515 0.14792584 -1.1191858 0.6555164 0.048544273 -0.2731647 0.72885114 -1.3247753
4(N01) -0.05881557 -1.0096468 -0.6077101 0.28495887 -0.89173543 1.2843099 -1.3346894 -0.31867206 -1.4680248 0.83117336 -0.31413826 -0.8237336 -0.09248634 0.88459533 -1.4721186 0.5284458 -1.1183546 -0.2384792 1.2715884 0.044228345 -0.65163743 -1.022451 -0.655544 -0.27403182 -0.59687936 -0.28265703 -0.5530805 -0.20435962 0.27456975 0.46909004 0.07736458 0.54536873 1.3278327 -0.9919688 1.6867826 0.62589645 -0.15221556 1.9088895 -0.47859752 0.050393824 -1.3662244 -1.1255226 1.5088668 0.31698343 0.83074045 0.57052255 -0.1404603 0.17231332 -0.022601994 -0.92577755 -1.5401793 -1.1076351 -0.4829699 -0.72187465 -2.0402634 -0.51149267 -0.66202486 -1.2040713 -2.3815157 0.67975134 0.8429827 -1.8985919 -0.18440136 -0.16758887 -0.03816221 -0.858637 0.8622665 0.53896075 0.2660077 -0.2764036 -0.45705882 -0.29539007 -1.8410667 -1.8186364 -0.74726707 -0.9442204 0.23672275 0.15641196 -1.1270934 0.9858155 0.23089102 0.20233388 0.8936366 0.35706547 0.115971245 -0.77783424 1.4283216 2.2459288 -0.97213995 0.7149511 -0.45934886 2.0851755 -0.9343582 0.020851284 0.93840694 -0.15525606 0.6214939 1.3728968 0.22242801 0.37048215 0.38584486 -0.98152685 -0.2794811 0.43507752 -0.70565736 -0.31910473 0.2935672 0.8039583 1.2717676 -0.059114307 0.46159005 -1.5371188 -0.34939727 1.5140775 -0.40470827 -0.6674332 1.1419181 -0.46556324 -0.38335723 -0.60845804 1.4434292 1.8366554 -0.45278153 1.755615 1.373 -1.5405071 0.32568353 0.90998745
1(N39B) 1.3778797 -0.646157 -0.86563206 -1.249514 1.4009135 -0.83897436 0.23467225 1.298665 0.069020204 -1.6951871 -0.8000137 -2.0348034 1.7045494 -0.70131195 -0.24125724 0.90236306 -0.3919986 -0.7909295 -0.071167186 -0.33244613 -0.68823 1.8967289 -0.89549273 0.32662222 0.87053645 -1.8348465 -0.82505584 -0.052227434 -0.539112 0.24806276 -0.3620558 1.3855331 -1.8154417 -0.10783618 1.1050546 0.09302976 -0.5106472 0.3052025 -0.17870201 -2.1543376 -0.8366819 -0.16561982 -0.8666503 -1.9939499 0.09149108 -0.17556491 -0.5612937 1.712685 -0.5596253 -1.0111308 -0.06804267 0.085238494 -1.4507254 1.0892516 0.8102474 0.53993696 -0.41325602 1.3592986 -0.49441186 1.2516843 -1.6476378 0.08955257 0.059002243 -0.7246093 0.59392613 1.7364888 0.03296379 -1.2401392 -0.6319619 -1.6881754 -1.7431147 -2.98109 0.49898446 1.991425 -1.2812256 -0.40571323 -0.9101831 1.5340308 -0.8835766 0.7848161 -0.05094502 0.77114725 -0.105666675 0.33901188 -0.9603784 0.8988521 1.7020721 -0.45570987 0.6597532 -0.94597715 -1.1669673 0.7913144 -0.03489693 0.4087239 0.5408664 -0.5070681 -0.39965788 -0.2997924 -0.1848527 -0.3649597 2.29886 -0.3636263 -0.9882989 -0.14782362 2.1358593 0.6415384 0.081358455 0.26129857 1.1623899 1.0611715 -0.83626646 -1.9120545 1.2610567 -0.72656083 -0.34193522 -0.47834426 -0.8397801 -0.84572405 -0.34056962 -0.079172626 -1.0893294 1.3701968 0.119827904 -1.3884499 1.6127541 0.29963157 1.3541535 -0.998601
2(N39B) 0.2273358 0.28661957 -2.1016364 -0.2566323 -0.6461862 -0.3356828 0.69479954 1.2661183 -0.23198815 -0.56814265 -1.441957 -0.44981295 0.9711889 -0.06738666 -1.3231039 0.13063972 -1.4557211 0.2602554 -1.4079007 -2.4524734 -0.18711846 0.4165338 -0.05358545 0.86813897 0.25217456 -1.3008854 0.038928058 0.15851434 1.2743086 0.29770932 0.65836704 0.23588552 -1.6594541 0.05847604 -0.4078451 1.1183102 -0.30888537 -0.65619946 0.26182756 -2.9850857 -1.7534039 0.97846913 -1.1807588 -1.9067973 -0.2107145 1.3842012 -1.0158328 1.9539233 -0.18970725 -0.7334724 0.28954715 0.9200855 -1.9673762 1.2433579 -1.1015484 -0.28512758 -1.6510372 0.48802927 -0.02080937 1.0548896 -0.06251159 -0.88945794 0.1407695 0.49165773 0.16248256 1.7245239 -0.81195706 -1.98554 -0.5832142 -1.0912833 -0.46831146 -0.73079294 0.7748409 0.3469627 -0.63220686 -0.3856153 -1.0099543 0.99224764 -0.9195462 1.2620504 0.08318639 0.91170603 0.67427367 1.3381048 -1.5055783 1.15271 0.52597564 0.14493239 2.736686 -1.0427687 0.007119519 0.7152372 0.29434335 0.097986855 -0.36694437 -0.7152176 -1.658765 0.36425522 -1.2629815 -2.8332593 3.257514 0.4184058 -1.071139 1.8509214 2.6118684 2.0137043 -0.9545248 0.37819964 1.4305209 -0.031295653 -2.1449094 -0.17091577 2.3418257 -0.19523802 -1.0368444 -0.1251602 -1.1545403 0.031092402 -1.0537035 -0.123276696 -1.7186977 2.695016 -1.3498464 0.64110655 2.3167226 0.36818632 0.0606611 -0.80427414
5(N01) 1.7359916 -1.3076752 0.6224323 -0.10073132 -0.62108034 -0.23120806 -1.7381768 -1.238651 -0.45422694 -1.1550709 0.49014914 0.38391075 0.37700924 0.4658427 -0.7808721 0.00692236 -0.41968152 0.39056355 1.4218996 0.16514274 0.09375045 -0.8584839 -1.0822115 -0.51447743 1.4721196 1.3716884 -1.7049414 0.5722425 -0.77011424 0.21402724 0.30381325 0.8041988 0.106514506 -0.20365012 -0.17537849 -0.64096415 0.9412761 1.2779455 -0.43747923 -0.2843026 -0.92145187 0.80636066 2.3052573 -0.5105989 0.26763067 -0.077192985 -0.4609181 0.577323 0.4296526 -1.2028732 -0.9452857 0.16404061 -0.41906717 -0.8751403 -1.400686 -0.16901615 -0.7090201 -2.3369331 -1.2698967 -0.43579632 2.2138171 -1.9705362 -0.38858807 0.41301897 -0.30681103 0.47337654 0.8707773 0.34029615 -1.1176877 -0.8132774 -0.77965134 -1.5349191 -0.42778316 -0.93676865 -0.24723217 -0.4344008 0.7793877 0.40454447 -1.7368149 2.090354 0.5833942 0.276737 1.130144 -0.19444379 -0.42770594 -0.17667861 0.9648103 0.71703416 0.29245934 0.2424483 0.18985 1.0458311 -0.9082884 0.35177717 -0.4913863 0.7501872 1.7347736 0.97846276 -1.0796629 -0.09638575 1.0120317 -0.7484435 -0.14543062 0.24844067 -0.871549 -1.554868 -0.36360496 1.25419 -0.20968744 -0.83545905 0.7441644 -1.97671 -1.06317 1.7826471 -0.4210706 -1.3762152 0.60833305 0.24574408 0.1801148 -0.95099175 0.6423877 -0.78269184 -0.624737 2.727695 -0.024462244 0.76630247 1.4408208 -0.023762949
M297 -0.1827151 0.17583902 -0.8497326 1.338039 -0.53725487 0.9079213 -1.2703462 0.20127994 -2.2949557 2.253871 -0.89377934 0.15225461 -1.2341824 -0.11685173 0.8644989 0.49549845 1.5332907 -0.87199163 1.1349719 -0.02390971 -1.0242435 -1.7757467 -0.42078468 -0.46524805 -0.745087 -0.32741144 0.75609046 -1.9543798 0.76441985 0.084888816 0.38749886 1.4120942 -0.6797472 0.17309661 0.97389144 0.27556273 -0.16513747 -0.62418765 1.2961193 0.4229146 1.1713103 1.3928849 -1.2599988 0.22315143 1.0238354 -2.038614 -0.97189355 0.00037693742 -0.95513296 0.69430584 0.03528441 -0.8467512 -2.5559697 1.7949283 -1.0098336 -0.6482465 1.2224559 -1.6184641 -0.18505564 -1.0895891 -0.11736542 -1.7448728 0.36479297 -0.21993852 -0.696561 0.7116976 0.49215096 -0.9395938 0.5702887 2.288005 -0.84537566 0.9658628 -0.5789752 1.591273 0.75316685 0.43472287 0.48045707 0.106436975 -0.9076879 -1.1818647 0.36170074 -1.4260799 -2.3603306 1.2996756 -1.1344953 -1.0413611 -0.6153632 0.3592415 -0.11569269 0.9812389 1.6408074 1.7190397 1.3528719 0.5296812 -0.74493164 -1.6743926 -0.29251748 0.39794976 2.0371668 -0.83247405 -0.36263913 2.262372 -1.2560748 0.6767794 -1.0211488 -0.7459268 -0.605315 -0.45867392 2.056067 -0.7125126 -1.1094855 -0.3977772 1.1007181 0.18099213 -1.0436143 1.1866665 -0.87807447 0.8907285 0.155619 0.24487665 -0.553394 0.04064933 0.2281601 1.4730239 -1.0831848 0.9473494 -1.3305098 -0.08761992
M263 2.0234087 -0.73877585 -0.9822332 0.4845135 -0.5078448 -0.14898506 2.1114414 1.4276303 0.89739215 -1.8336121 -2.5080483 0.01892909 -1.2447273 -2.171907 2.9390588 1.6494335 -0.49190333 -1.9905765 -2.087052 2.6231627 -1.2175294 -1.1435812 0.11104872 0.62661356 -3.3310463 -1.4159856 -1.0987315 0.7463914 -0.16781172 -2.0072887 -0.0019136283 -0.5205111 -2.4550948 0.39706644 0.62591743 -0.6724789 1.5316825 0.5482099 -1.2327523 1.2981257 -2.0322359 -2.4373426 -2.0980182 0.3027525 -1.383447 -2.2709687 0.53037655 0.11783481 -1.9669619 -0.19635089 3.0128067 -0.1427772 0.6597747 -0.70211065 0.47798958 0.51274306 1.1461837 0.1113283 -1.378183 -0.1267717 2.7654266 0.30333835 -0.41714796 -1.7982123 0.8472466 0.41247883 -0.10847971 0.49405044 0.69999015 0.39313126 -0.31494454 2.3511913 0.08978397 1.3940129 -0.43152198 -0.6177381 -0.9137884 -3.6666598 0.43553248 0.54503787 0.9790412 0.2563227 -1.803636 -1.7160769 0.83033633 0.2389977 -1.0816888 -0.46726608 -0.14899223 -0.3857698 -0.42470616 2.1858876 2.0370033 -0.13770273 0.06428028 0.52616024 0.7261641 -0.30723643 0.55604744 -1.9456481 -1.0247948 -2.1188166 -0.7706248 1.5217375 -1.5374243 1.0849353 0.50445205 -0.39435348 0.20235105 -0.698449 0.7052232 -1.9460471 -0.8197811 -0.78067505 0.51642334 0.45023197 -0.943531 -0.9761825 1.3484547 -2.8474696 -1.6741824 0.7885789 -0.21597299 -0.030113963 -0.07530322 -0.9247332 -0.070449226 0.0871204
2(N14) 0.38326094 0.8824714 1.4856224 0.43324903 1.5523882 0.37922758 0.79677874 -0.931725 -0.01824736 -1.3369129 0.23919848 2.5882163 0.15917844 -1.6336908 -0.3369833 -0.053262297 0.34087744 0.45569825 -1.9271508 0.0203647 -0.07249693 0.39659953 1.255016 -1.5168325 0.55628914 0.69059604 0.15802965 -0.7551926 0.9342858 -1.0758219 -0.61777574 -0.78332156 -0.397906 2.2259772 -0.27007368 0.41135263 -0.7813301 -0.8711216 0.38431022 -0.52259433 0.45599303 0.03908877 1.0285821 1.0579683 -0.49546838 -0.014872281 0.15498891 -0.5622365 -1.3386307 -0.85674375 0.22939885 -0.5755779 -0.18124115 1.1841801 -0.3743624 -0.11760784 -0.31400305 0.7806093 0.62700564 -0.24644771 -1.9823508 2.1453726 -0.971023 -1.0381501 0.40523282 -0.24905576 -1.7534294 0.98917496 -1.4015963 -0.5961822 1.0976435 0.7221107 1.8094066 -0.73917466 1.6820084 1.6870728 0.4933272 -1.2329855 -0.49338272 -0.43712363 1.1946495 1.0784869 0.30253866 1.4092884 1.4142696 -0.6900289 -0.9775452 0.6984895 -0.5889984 -0.98450613 -0.39287865 0.5186164 0.90647006 1.9277472 -0.6568214 0.874967 -2.1776419 0.3137765 1.1745385 -0.45887315 0.5412516 0.77884924 -0.28968143 -3.3523927 0.064583875 0.72949415 -0.48047438 -0.94411653 0.74404025 -0.27093458 0.15743148 0.5493453 0.88229406 -1.5867412 -0.5038011 1.7684077 0.31813365 -0.92524827 -0.010032391 -0.6688429 0.3869365 -1.1214539 0.11178241 -0.48345435 0.5002815 2.2753441 -0.92289716 -1.3473718
M157 -1.2932283 0.9270866 0.18109478 -0.6259792 -0.63678235 1.0144055 0.0125190625 0.429454 -1.1206406 0.030324724 0.40402785 -0.13922344 -0.1252863 4.1613603 0.47009325 1.3095948 -0.9069729 1.547038 1.0095625 -0.74232 -1.2299533 0.9396978 -1.6108605 -1.2379591 -0.5285109 -1.2675204 0.63006186 -0.5764886 1.9813689 -0.95508736 -0.20271096 0.25602183 -0.22550015 1.8983701 -0.60137874 0.5443825 -0.07893605 3.06861 0.5241336 -2.1175082 -1.2302608 1.7736555 1.340607 2.0377734 0.47781947 -1.8780099 0.6717941 0.96244454 0.15873739 -0.662692 0.6720309 -3.4693708 -0.54309297 -1.3581666 -0.14860618 0.532281 0.16533533 -1.1716391 -0.96733415 4.242565 -1.9630272 0.027268328 0.8598046 -0.014736782 -0.9224638 1.1748726 2.366863 0.6273899 -2.889674 -0.2661459 -0.24513106 -0.35587853 -0.91710967 -1.5121834 2.4196506 2.3339055 -0.35560912 -1.4842839 -0.47919494 -0.5249741 -1.9669503 2.7013004 0.27522397 0.27438533 0.6513511 0.7511144 -0.58984715 -1.2739083 0.6634937 1.5330454 1.8972718 -3.115868 1.2316213 1.6973767 3.1524835 -0.8742089 -0.95677996 -2.038098 1.3436807 1.1353016 0.99688995 -3.0973153 1.4548395 0.41725877 -0.9071606 1.8259732 -0.82999563 0.7507166 0.08466352 -0.5418563 1.3032848 2.4971344 -2.1568267 0.98790926 -1.5347848 1.2943339 -1.8201128 -0.41158727 -0.70678043 -0.8628278 0.515985 -0.7513142 -0.6562426 0.96057975 -0.7701842 -1.2333168 -0.5147993 -1.8411325
M371 1.128412 -2.0701985 -0.45244575 1.9531118 -2.8118842 0.31335822 0.4741068 0.6653924 -1.2481312 0.18618165 0.37370634 2.7374065 -0.87349516 -2.4372008 0.723574 0.20255664 1.1128802 -0.18466766 0.25531757 0.5634553 0.057407692 1.050296 -1.2624638 0.65663344 -0.056480605 0.8537966 2.1936626 -1.3684727 -0.31286138 1.5173986 -1.8103421 -0.58757526 -0.21297252 0.94243973 -1.8174614 0.66226023 -1.0114632 -1.2501036 0.52716947 2.1196718 -0.41140804 0.09471007 -0.22683106 1.7507583 0.9724115 -0.625944 -1.1875669 1.4528471 0.26314735 -0.6842317 0.8711979 0.93030035 0.4263656 0.24833497 3.316474 -0.3254176 1.7085071 -0.40250984 1.5420427 1.5168256 0.8645701 -1.5664288 0.6860622 0.5911593 1.1403646 -1.1269677 1.1535618 1.0168016 -0.073284164 2.349602 -0.6070132 1.469269 -0.4690332 1.8970035 -0.76966786 -1.9207817 3.2085664 -0.18191148 1.9335642 1.6366583 -0.60946965 0.3290077 0.4135692 1.560793 0.648106 -0.15751031 1.8361785 -0.7546377 -0.7430273 -1.1760952 -0.56951094 1.8609344 0.06449645 -0.7982903 -0.0863631 -1.5318252 0.4487173 -2.8412104 -0.6517831 -0.13742457 -0.5122522 -2.3479843 -2.8940566 3.9798987 -1.8520508 1.2987857 1.5683268 0.23635691 2.153089 -1.2957238 3.530303 -2.5366404 0.30135238 -1.0315102 1.9030871 -0.9659972 -0.61364365 -0.24178377 1.3147604 -0.4996571 0.32344997 1.0153265 1.8752228 -0.25733984 0.19245993 -0.5036093 -0.8641987 0.11500815
1(N30C) 0.03785427 0.73709613 0.5903834 0.91761166 1.8726544 0.185913 -1.4349749 0.16542132 -3.2521496 -0.65995395 -0.21329963 1.0291195 1.0526257 -2.6221805 1.6572746 0.3857671 0.058427874 -0.11930329 0.9398593 -0.46651554 0.78521705 -0.57684064 -0.41841373 -0.12469076 1.8686674 0.9603953 1.4814912 -1.415023 2.006184 -0.43144396 1.5835246 0.81738627 -0.193754 0.13446999 0.04469722 0.9431282 -3.7159445 0.688636 1.2697147 0.16357262 -0.62410975 1.9251561 -0.64906263 1.5578206 1.5910048 1.0951023 0.46657035 0.51737654 1.3259503 1.1911378 -2.0588355 0.2899539 -0.03966364 1.2571212 0.1667595 0.88562244 -0.18924567 -0.34500334 -0.15517549 -0.6199312 -0.8878833 -0.67628056 -0.9907141 -1.1713277 0.81988555 1.1316161 -0.22966535 -1.860387 1.4226719 3.124327 -1.4105707 0.39774662 0.74276614 -1.3654498 1.578405 0.56307155 -0.14562857 2.7474706 -2.2253656 -1.5784119 2.5407104 0.00047096124 -1.3908652 0.8008789 -1.441729 0.29114604 1.0556072 -1.7000033 1.4395216 1.0985758 1.1143458 -0.30462882 -0.36847287 1.4106902 0.8299303 -1.6019734 0.012647435 1.44891 -0.15774587 -1.5304857 0.70250213 1.8496598 -0.3243958 1.7610803 1.1373405 -0.06415695 0.3368075 0.86901915 1.467532 -0.90251535 1.1998736 -2.1165147 0.33307105 1.6955636 1.4211532 0.5099523 1.5343027 1.6988101 -1.4634875 0.06348223 0.9702045 -0.58915794 0.05039971 -0.28006983 1.1694801 -0.9239819 -1.1205225 -0.6740844
M124 1.8532991 0.65065295 0.7071732 -0.6509257 1.7796309 1.7587403 0.5428828 3.1049268 -1.167769 -0.7346307 -1.052472 0.300482 -1.2490685 0.47422588 1.8707964 -1.1789123 0.34973317 0.51621443 -2.2884207 2.1692898 -1.0041375 -0.74509865 0.016712867 -0.42561027 -0.040377036 -2.9695022 0.3903841 1.1755925 -1.9689907 0.96781975 -0.4750087 -2.8189468 -1.6276119 -0.14396158 0.17009015 0.17671691 -0.7971743 1.0661674 -0.50285417 0.5050992 -0.75806147 2.590055 1.6768297 2.148537 -0.123810925 -0.7631366 -0.52919626 1.5353243 -0.58875614 -1.3224016 1.2308004 -0.29365247 1.0609674 -0.023159947 0.54562855 -0.76081383 1.5897218 2.3207057 -0.7432303 1.8192877 0.96149516 0.38917002 0.9948825 0.2675135 -0.3291805 -2.0818284 -0.6178613 -0.7274718 0.8776424 -1.1992575 1.6638701 0.50794125 -0.45367345 0.16355002 0.53654695 -0.10589042 -0.73445266 -0.5890564 -0.86779654 1.8118916 -0.508432 -0.20947276 -0.77373624 0.63496995 1.6195939 -0.52618086 0.5058159 -1.0565219 -1.8715094 1.1183492 -0.1375677 1.1004504 -0.49742 -0.45259768 -0.059996177 -0.24169458 0.46668428 0.9371904 1.788038 0.53736293 -0.015370136 -1.1561462 -1.8297434 2.7139714 0.5848358 0.94069076 1.5170221 1.9694866 -0.16255502 -0.28493574 0.8971425 0.42248535 1.751011 -0.80850464 -0.4972292 0.24075106 -0.17021431 -0.33630458 0.81201905 -1.1167563 -1.18802 -0.4857339 -1.1795392 -2.3268592 -1.4668634 -1.6270342 -0.960224 0.77389914
M054 -0.25325835 0.5768621 0.4655172 0.2601853 -1.5793738 0.51240873 -0.07309862 0.2997955 0.79666346 0.43917322 -1.2050261 -0.1509856 -0.16024907 2.134586 -0.8466742 1.5040174 1.2286783 -0.7379258 0.38041896 2.145964 -0.525894 1.9463453 0.14854287 -0.1991075 -1.1088798 1.1994 -0.40775046 0.15465213 -0.74401397 -0.005333232 -0.23189057 -0.09090415 -0.8228169 0.09585895 0.63927364 -0.54137814 1.0095397 0.50484705 -0.35618958 1.4482193 0.7137042 -0.75458956 -1.3326858 0.66834027 -0.7449808 -0.3795227 1.093521 -0.050315205 1.9881682 -0.102966905 -0.37023318 -0.08857194 -3.2715416 0.8507952 -0.75059193 1.1216925 -1.1405598 0.52327067 0.28311014 -0.759229 0.101067156 0.48509562 -0.2322429 -0.805764 -0.30295175 -0.17929745 0.054581486 -0.2637359 -0.9135106 -0.0961462 -1.423182 -1.0166655 0.9933527 -1.5545995 -0.48115668 -1.0289459 -0.08444433 -0.7650968 -0.031030903 -0.8472353 -0.61169887 -1.268483 -1.755275 0.3548345 -0.64348584 1.0942682 1.1570574 0.58676 1.5014045 0.3095197 0.15186982 0.12650353 -0.13927904 -1.4760247 -1.4182212 -1.3178189 0.86383605 -0.42057785 -0.60008377 0.06376575 1.0809922 -1.2059382 -0.46982715 0.57453555 -1.7420245 -0.26094115 -1.1213052 -0.36161268 -0.3767677 0.52880037 1.2250146 0.6095326 1.0545552 -0.90309787 1.3342046 -2.0554132 -0.6150203 0.81465906 2.5105803 -0.16230606 -0.35720903 -1.4073273 -0.7904617 0.7829141 -0.69570196 -0.71536595 -0.11736919 0.6867232
M346 0.5419146 1.5386071 -1.7629325 0.7919569 -1.519193 0.77092206 1.0522747 -0.56125057 -0.22796503 0.28652725 -2.0619447 -0.59229934 0.20281413 0.3084889 -1.145776 0.8079279 -0.26765406 -0.69643533 -1.0230112 0.3577314 -1.7175034 0.8546697 0.73399216 1.1696122 -0.45251518 1.3216325 -0.24231979 -1.1133493 0.17596802 -0.5028817 -0.817985 0.13884358 -1.4188989 -0.72140753 -0.36583176 1.0215724 -0.36862108 0.09218857 0.72163606 -0.46700156 -0.026923195 0.3177694 -0.9016089 -0.63851374 -0.99074 -0.7497219 -0.09452854 -1.9617765 -0.0028476978 0.2940554 -0.28571585 1.963425 -1.3523699 0.06552261 0.65759504 1.901971 -0.12718143 -0.9092556 1.6802329 -1.6799889 1.6079959 -0.46915668 -0.27391037 -0.6312642 -0.3764988 -0.5798988 0.75318277 -1.9883338 -1.3447145 1.6248461 0.84214014 1.645979 -0.08810462 -0.14763103 -1.6295872 -0.5561627 1.2907742 -1.1130348 -0.23217717 -0.8121067 0.3685446 0.31439346 1.4430132 -1.9248292 -0.7160608 0.9264569 -0.45587543 1.7216941 1.5793087 0.7378769 -1.1103036 0.17437999 1.6424817 -0.6862523 -1.6735195 -0.382538 1.1601733 -0.09915154 0.7376119 -0.16107842 0.7817766 -0.5388788 0.4436546 0.5687568 0.5749638 -0.081394985 -0.8927613 -1.377442 -2.0350685 -3.104459 1.0457599 -0.21480256 1.30633 0.8445321 -1.5332984 -0.9504747 -0.65563756 1.0731674 -0.2316955 1.1244558 -0.72506225 0.6241981 -0.670825 0.54867065 -0.85728544 -1.6346533 -1.0408136 0.94743294
M066 -0.75236195 -0.3057067 0.11315741 0.68208116 0.8939663 -0.020308444 -0.15941373 1.1310518 -2.3132637 -1.8226007 -1.1997375 -0.40680248 -1.6112221 -2.080531 0.9292174 0.9697885 -2.2041423 0.38138336 -0.54889226 0.27937457 -0.6710451 -0.08568677 -0.7378669 1.8186711 1.2680674 -1.2524853 0.03797553 1.7095532 -0.34750724 -0.11174446 -2.8881714 0.09032894 -1.1834935 2.010925 -1.2676101 0.6337503 -0.9580441 -1.3669207 1.6086895 0.44075787 0.16283855 0.32630748 -0.4641494 -1.4119838 0.9715612 -3.152718 -1.6647408 2.628273 -0.9029345 -0.77097636 1.8979628 -0.5121244 -1.6190604 -0.62239003 -0.7024641 -0.22146781 2.629448 -0.7945306 -0.06373675 -0.8084212 3.0308075 0.66182095 1.0980196 -1.2939816 -0.369001 -0.6525262 0.5083455 0.53546584 -0.8924089 0.10243173 0.9222677 1.6952827 0.6812074 1.1578981 -0.5109581 -1.8471494 -0.3656105 -1.8041116 0.30555844 -0.62353075 -2.8664007 0.49870592 -0.07874021 -2.873334 0.13745043 -0.24831183 -1.2803113 -1.5179884 -1.6232358 -1.5087475 -3.026099 2.3673418 1.9107939 -0.41157314 1.0834534 -0.47787908 -1.2630683 -1.2938747 -0.22694382 -0.48536772 -1.596288 -1.4878904 -1.1230326 2.512815 0.403988 1.6622379 -0.08461244 -1.1753381 1.2723848 -0.48162398 -0.48934746 -0.21433602 -0.319111 1.3820716 -0.050918728 -0.44794196 -1.1347308 -0.10985872 -0.9318145 -1.7029116 -0.30441272 0.3330145 -0.24986689 0.7635493 -2.382402 -0.45859852 -0.69188094 -0.38074198
2(N30C) 0.7831927 -1.2923316 1.4085491 1.3942937 2.3604195 1.1067457 0.13040291 -1.5376226 -0.76592195 -2.4750328 0.5023182 1.7609928 2.1818197 -0.26176977 2.1269999 0.4909958 0.40454623 0.5690067 1.2437605 -0.7448118 1.40531 -2.5864701 -1.3251027 0.041290842 0.03441625 1.4912953 1.8420241 -1.3715247 2.1375077 -0.026939806 -0.99595463 1.1810695 0.112494744 0.6843453 1.3129547 0.51723504 -2.4137166 0.60825735 0.74995613 1.4001684 0.30112356 0.49209946 -2.0938685 0.70342284 1.5130728 -0.681407 1.6802307 1.654521 2.8557503 1.0847789 -1.2267206 0.26620525 -0.5693126 0.4853093 -0.59702224 -0.38930923 0.34929258 -1.3785741 -0.8746845 -1.6821085 -1.0325367 -2.5055976 0.16562633 -1.1962416 1.2046167 0.48415044 0.06559412 -2.9670737 1.3828654 0.8370586 -1.8456024 1.1037376 1.0292346 -3.468331 1.6297559 0.9277889 -1.3525119 1.6999224 -0.57292235 -1.139531 1.2297353 1.2523339 -0.068023786 -0.6091039 0.18545721 -2.2320774 1.5295769 -1.1494176 0.65634215 2.76082 0.44246045 0.18758848 -1.2697353 -0.22458607 -0.7504432 -0.2776852 -1.3573134 -0.2954338 0.45288497 -3.4507656 0.27771163 0.88725907 -1.0204756 2.9327235 1.2526472 0.57296866 1.3745356 -0.4593642 0.14717153 -2.5026507 0.5004316 -2.1883507 1.6902741 0.8241556 1.2100335 1.0641056 0.42591286 1.8086925 0.032262478 -0.19036296 0.8066062 -1.0049857 -0.013383012 -1.6002762 -0.09508624 -0.44717944 -0.27732348 0.37869728
M009 1.0268655 1.3923309 -0.42503545 -1.0961677 -1.0324583 0.62784535 -0.6095056 1.4025569 -0.4238979 0.1542709 -0.8189717 -0.5076847 -0.45746788 0.36480224 0.0613846 1.8022064 -0.6851622 -0.56630164 -0.96789885 0.95836455 -1.5905448 -1.5961232 -0.089413464 3.0231042 -0.3846452 -0.13857657 -0.004270052 -1.00005 0.3000641 -0.8965108 -0.14937651 -0.2409947 0.49755892 1.6594443 -1.63221 2.221438 0.08683399 -0.5386905 -1.2942283 -0.30363604 1.8447509 0.45286146 1.7739104 1.9690158 -0.53536916 0.56221646 0.19699648 -1.2485467 -1.1005543 1.2046531 -0.70499045 0.3108664 1.5112817 -0.8786873 -0.72979754 0.9365976 2.4755824 2.1387055 -0.6687359 -0.2782255 1.0502335 0.8349314 -0.65181196 1.4693379 -2.4725542 1.3369559 1.6486397 2.1890433 -2.0843248 -0.69424826 -0.30003995 1.9502901 -0.45365146 -0.31478637 -0.4440179 -1.1266049 -0.6548789 -0.80147606 0.59400624 -1.067832 1.5863452 1.9387742 -2.3633814 -0.46607277 0.60567135 -1.0553918 -3.0461164 -0.369775 -0.5953594 1.7149127 -0.34143287 2.011925 0.31035575 0.17136535 1.6292068 0.8316295 1.0349829 0.30027375 0.15571438 0.6447172 0.5807933 -0.93788904 -0.4966147 0.6698564 1.4202027 1.0901983 2.6093998 -1.3518711 -0.47261438 0.04370679 -0.00911976 -0.77618897 0.969954 -0.76113284 1.8949457 1.7053431 0.574343 0.040717494 -1.0316474 -2.006178 -1.3992909 -1.0681956 -0.9066961 1.8766693 -2.3157175 -1.6282465 0.8767897 -0.12038882
3(N39B) 0.7258943 -1.3070463 -2.8355331 -1.1706537 -0.31682542 -1.2820435 -0.36248678 0.6072487 0.8085038 -2.8774905 0.27942374 -1.1392362 0.38480166 0.7998696 -0.81701136 0.6987734 -0.13250962 -1.0970124 -0.45104456 -2.4825156 -0.31192166 0.75272304 -0.28840822 -0.052808404 -0.011820239 0.010963782 0.37238693 -0.5153843 1.147297 1.7557902 -0.106369585 0.40756428 -0.47120094 0.054223586 0.37293178 0.32549474 -1.8063562 -0.87826025 0.6962405 -2.7319763 -2.9677384 -1.3938453 -1.7456379 -1.7581495 -0.27714574 1.135847 0.17689562 2.7887883 0.105615474 -0.7854639 -1.4665661 -0.10255506 -0.75140095 1.190032 0.49252498 -0.6900917 0.5478963 -0.24915789 1.0846133 0.13894597 -1.9135914 -1.1126786 0.62317824 0.89607537 0.80806416 1.7125486 -1.1504041 -1.5552701 -0.1543796 -0.8175964 -1.7947462 -0.3418249 0.14745346 -0.2627982 1.5132493 -0.47964537 -2.2471907 0.34175533 -1.0443819 2.0136254 -0.8095172 -0.41292745 1.293478 2.170849 0.83798116 1.9604775 1.7097257 1.1986631 1.3351697 -0.064924054 -0.89585406 -0.08241404 -0.165602 -0.6236445 0.09053718 0.28423434 0.4724475 -0.9464158 0.41702735 -0.82049495 2.4996557 0.3698654 0.2569155 -0.087622814 2.130845 1.6209222 -0.15319131 -0.20633553 0.4860852 -0.54495114 -1.0593097 -2.3626542 2.5239727 0.9469882 0.1390417 -0.99392426 -1.6318431 0.7667665 -0.9512377 1.6829349 -1.9439462 3.0866642 0.042474117 -0.32605588 1.537961 -0.09256395 -0.62908846 0.49644706
M096 -1.6254452 -1.2291666 -1.0411897 2.5182796 -0.4568468 0.54099035 -1.2758182 -0.010540828 0.43393123 -3.337242 0.626318 -1.6054052 0.31470767 -0.8754043 -0.3736287 -0.39529607 -1.000689 -1.9599162 0.24614614 3.4548392 0.46298912 0.59438276 1.5247344 -3.5952835 -1.0594999 -0.60312927 1.0781664 -1.2664301 1.8837885 -0.14061081 -2.467471 1.5165085 -0.3479077 0.0024065298 -1.1925904 -1.6215928 0.18948258 -1.2610472 -0.5931421 2.5772061 0.9961263 0.276709 0.0265402 -0.7435277 -0.021612275 0.38500968 -1.9690222 4.3155174 -2.6914806 0.13946624 2.0724373 0.24538942 -0.5370532 -1.0466216 -0.25814733 0.06579236 1.2201777 -0.5972326 -0.88281757 0.42272356 3.5193079 1.6224202 -0.35483232 1.0164579 -0.13814615 0.84049296 -0.16811416 -1.3419257 0.42930886 0.45317632 0.7081588 -0.19786441 -1.2977052 2.507733 0.6227321 -2.1245449 2.0960019 0.84793806 0.9355133 1.1158094 -2.0161579 1.2149925 0.8923548 -0.3043701 -0.5850114 -0.59923935 1.1686399 -0.34409627 -0.67805004 -0.38331568 -1.6896739 0.08030695 -0.7734532 -0.80518013 0.73466796 0.66737634 1.5328084 1.1300175 0.793856 0.5367181 1.0514764 -3.197212 -0.7927811 3.05059 -0.6747976 2.383894 1.8649948 2.972053 -1.51762 0.62070864 4.188114 -1.1588 1.4620962 3.321753 1.0459492 -0.071585916 -0.4847906 0.6544925 2.2577715 0.018379902 -1.7456298 0.92517596 -1.5226741 0.42576182 -1.077264 0.79110026 0.76707447 -1.2969079
6(N01) 1.4990703 -2.0187874 0.8129933 -1.0119717 -2.472305 -0.53655845 0.44859213 -0.18737315 -1.4663925 0.09393736 -0.35853913 -0.92657846 0.58176345 2.0596507 -2.0412586 -1.17084 -0.0042185164 0.89100355 0.24339108 -1.185545 -0.48557845 0.37510753 -0.51741666 0.024236172 -1.3828406 0.54105246 -0.60294527 1.5108774 0.60986805 0.1204969 1.0028633 0.8996971 0.06420739 -1.4743406 0.5772989 1.7566109 2.13829 1.0666833 0.10690691 0.33678782 -0.28477165 -1.459222 0.29783422 -0.7133598 1.2238195 -2.136666 -0.7233614 1.4253634 -0.18903816 0.41020715 -0.03763274 0.34566072 -0.028115107 -1.7844657 1.1013107 -1.1588957 -0.4361879 0.10872636 -1.1721585 -1.0437906 0.15339921 -1.3887072 0.07520337 -1.3696716 -0.8758839 -0.1200173 1.278861 1.8610762 -2.0154357 0.4046461 0.4835865 1.7451044 -1.876968 -0.65539503 0.18726145 -1.7161869 -0.3131315 -0.8951338 -0.087434985 0.37341082 -0.6265354 0.1737807 -0.61595875 -1.191249 1.3348683 -0.46550447 -0.08690144 -0.3380323 -0.1793773 -0.68496543 1.031754 0.6290251 0.2261989 -0.41149014 -0.47109455 1.504153 0.1967652 -1.1724925 -0.17890163 1.4327464 0.7398157 -1.5547531 -0.91502166 -0.12878674 -2.357208 -0.1980377 0.8976748 1.8794857 0.08402694 -1.4995533 0.4519589 -1.1388893 -1.6128263 0.46265006 -2.9005747 -2.6621735 0.3907045 -1.013465 -0.827177 0.07990465 0.8623148 -1.957284 -0.08068968 1.7465987 0.12643026 -1.1579798 1.8746336 0.5054704
M376 -0.08052552 1.1420335 -0.07059061 -1.5320601 -1.4049209 0.0809259 -0.42940712 0.69295955 -0.60663396 -1.9035652 -0.5680869 0.5110946 -0.1716824 1.4635736 -3.1286955 -1.8847466 -1.8991003 -1.7117599 -0.04007081 0.8698677 -0.6449435 1.1627038 -0.2976573 -0.41442105 2.0665798 -1.1207724 1.5421907 -0.63051796 -0.7572066 -2.6587641 1.3071584 0.018069489 -0.60476714 -0.763452 0.1567305 -0.29933545 2.0414727 0.46249014 0.15424061 -0.90882593 -0.78322226 -0.7544185 -1.4763627 -0.5423481 0.29106626 -0.18601179 -1.8649296 0.42404357 -0.0025661024 0.136256 2.0791814 2.2693975 1.235607 0.8255126 -0.5728421 -0.072152585 1.6570673 -0.49748522 1.1305807 0.66356075 1.5553039 -1.6022946 -1.1608859 -0.18004583 1.3774577 -2.0034244 -1.3218558 0.82591856 1.2445338 1.3495603 2.110185 1.2105297 -0.3018478 0.13156615 -0.5062335 -0.8487102 1.6360029 -2.4009452 -0.4744382 2.0457838 2.201538 -0.67216754 0.3030118 -1.1425971 1.2025489 -1.1977785 -1.2687416 0.054949112 -0.19447269 -1.1032754 0.599913 -1.1203436 1.6090405 -0.60248363 -1.4383948 -0.67258984 -1.5269612 -0.76227134 1.1428688 0.24618915 1.2743715 -0.32324374 -0.6997342 2.1976082 1.8448768 -1.926675 -1.5324055 1.8905249 -0.30120206 -1.604025 0.12764862 1.6910433 -0.83369637 -0.753788 2.808435 -1.1792579 -0.71740574 2.109516 0.90203166 2.10084 0.13115382 -1.6097263 -0.7349772 1.1678716 -2.3537703 -1.6857601 -1.4632046 0.7449076
1(N34) -1.0058746 0.36159313 0.37112734 0.6494349 0.6686158 1.3126647 -0.9682967 0.2598474 1.6546767 -2.102569 0.9445274 -2.6657789 0.7331931 0.57083166 1.9053026 5.0255084 1.3286109 0.5546753 1.1118805 -1.3074343 2.179373 0.6739125 -0.87747544 -0.37465957 0.32816556 -0.25755164 -2.7521586 -0.5212329 -0.6292697 3.251517 1.1496258 0.3164194 1.6927757 -0.09632881 -0.7725072 -0.2302801 -0.3189988 -0.069339074 0.7431866 -1.0408559 0.96255344 -0.2421883 -0.5397529 0.29620418 -1.2802424 3.5924962 0.25727054 0.96413255 1.3655776 1.087211 -0.19254926 0.568177 -1.0298768 -0.5144854 -1.0893061 0.39103267 -0.86935 -0.55329174 0.6216646 1.9330126 -1.2494609 -2.4093945 -0.17867713 0.38087216 0.22393227 0.09183378 -0.28701237 -1.3365695 0.076469675 0.66213375 0.7779758 -0.3893113 -0.090140395 -2.3202205 -1.7539507 1.2146033 -0.50028175 0.6862009 -0.6116173 0.49720952 -0.022455502 -1.2063653 2.0619292 -0.6994982 -0.58339065 1.4336975 1.5048062 -0.78971386 0.077955544 -1.5910987 -0.43630028 1.9306622 -2.6851199 1.2987543 1.1174369 0.62891895 0.82726526 2.8404343 1.4973923 1.5915691 0.124737225 1.0910021 -1.4272768 1.8296473 0.60481256 0.03304255 -0.58354735 -1.0396522 -1.8909255 -1.7304467 -0.807919 -0.46138203 1.9973471 0.7062272 -1.0233767 -2.7136252 -0.5487785 -0.62968254 2.356529 1.2473929 5.575625 -1.2158855 2.1457121 3.3165917 0.59487754 0.8601189 2.37124 1.7365742
1(N30D) -2.5709486 -0.14909203 -4.0588923 1.0962893 -0.1428664 -0.44854304 -2.5980337 -0.56812274 1.4187295 -0.23840521 0.452867 1.2460655 0.14098874 0.055692695 0.75617605 0.45753047 1.7615157 0.9826821 0.05604848 0.12309999 0.61533964 -3.0741982 -1.9952575 0.7517161 -0.5384945 1.0904753 -1.1399264 -2.3271692 0.7368142 1.8163373 0.39193776 -1.8728955 -1.1473125 -0.3385964 1.5488131 -0.45399845 -1.432693 -1.1006262 0.6708069 0.2958695 -1.3821719 -0.04241965 -1.3294871 0.4235688 0.9777169 0.36555955 -3.2492657 -0.8927747 0.19078262 1.6251671 -1.6648885 0.7574127 -0.12958151 -0.3196264 -1.8713189 -1.5077956 -1.3982657 -2.7622347 -1.1189862 -1.2164345 -3.172838 1.4543313 0.6258984 2.1910152 -3.4697325 -0.14632545 2.4167066 -1.3618382 -0.80826193 -1.8980298 1.1924767 -3.4038794 1.4899902 0.46076134 1.1141219 1.640878 -0.13641414 0.77854925 -0.052137032 -0.3438274 2.2608902 0.05816121 1.4024539 2.6730416 -2.286643 -0.5121826 3.8880014 1.5190277 -0.47745514 0.53047204 0.46985513 -0.6802194 0.2757485 0.594847 -0.81580156 -1.9477788 2.4718666 0.42246157 2.042231 -1.5594608 1.3782387 -0.6184613 -0.92178065 -2.1714144 0.52622813 -0.21686414 -0.5028034 1.2709548 1.8923733 0.3480531 -1.1213586 -1.5209565 0.110441044 0.9888647 -0.49334818 -0.19360347 -2.0559742 0.4869715 -0.108535 -1.1848763 0.16959819 -0.09603048 0.40384883 0.31754807 1.1521462 3.4291632 1.7913785 0.39818987
3(N14) 0.7694316 0.9281412 0.8179041 -0.7516126 1.3471767 0.27439907 0.80530804 -1.8433759 0.12022841 -0.6744964 -0.55285215 3.0210984 -0.8634206 -1.4120464 -0.4453819 1.969087 -1.3279744 -0.7308815 -0.7769087 0.83646435 0.44620612 -1.0962476 1.035243 -0.8685902 1.775242 -0.860201 -0.045836583 -2.1053705 0.37040812 0.6542702 0.35934776 0.12142258 1.0509963 0.35769957 -0.015152869 -0.44171378 -0.0026206742 -2.5110292 -0.7851505 0.3380599 0.2685881 1.1359793 2.3161042 -0.5404326 -0.03466714 -1.5693041 -0.47463572 -1.0653917 -0.3593339 0.5411025 -0.6365239 0.18741086 -0.8463691 0.04037879 -0.107733764 0.3298378 -0.44578633 -1.2375424 0.8054718 1.0718582 -2.2209268 3.1907847 0.06443768 -2.0443757 0.47737905 -0.25998276 0.33784345 0.60993034 0.4875689 -1.1148162 0.4062411 -0.16568476 0.84697866 0.5794853 1.8215698 0.12596741 1.1519039 0.19141777 -0.2940685 -0.87552893 -0.88457227 -0.5798135 0.041678134 -0.016763935 0.5755691 -0.4647582 -2.0395548 -0.3927682 -2.1214855 -0.02790615 -0.8126466 -0.12035581 1.3081061 0.7563383 0.17716558 -0.28894943 0.25439492 -1.9113088 1.1724756 -0.49698567 0.44677645 0.09452736 -0.029519102 -2.1291919 -0.69218 1.7683866 0.4776543 -1.2009634 -1.470234 -0.090827085 0.044925023 1.138224 -0.34071633 -0.7014531 0.01856799 0.7636879 0.006873073 -3.0955565 -1.3683567 0.90059376 0.5932475 -1.9744582 0.83953357 -1.4505631 0.4132311 2.6453347 -0.13147792 -2.6130886
M057 0.3350978 -0.2912694 -0.82412004 -0.2927241 -0.9368831 2.7603025 1.4341912 1.6806133 -0.7615714 -0.17333677 -0.5769313 0.49084273 0.6395384 -1.33858 1.5968975 0.49667898 0.06276049 -0.032856192 -1.9366562 2.9243333 -1.2349257 -0.44964245 1.0437037 -0.02371994 -1.0964342 -0.83589035 -0.8177106 -0.53745204 0.31538826 -0.24545081 -1.2377398 1.3946368 -1.0932086 0.85235333 -1.0702657 -0.17880431 0.7786083 0.07757731 -1.201498 2.9567487 -0.1985576 1.539982 -0.006208624 1.1374757 -1.6967965 1.120173 -0.069552846 1.2801841 -0.6023146 -1.3922476 3.2041156 -0.05283725 -2.0740206 0.8662952 -0.3193373 -0.7399389 4.049838 -0.83545625 -0.38835803 -1.4558766 0.32375875 -1.9027984 0.76701695 0.36859542 -0.7663195 0.77487916 -1.944548 1.8797028 2.43535 -0.7280114 0.91539246 1.3737767 -2.45569 0.38111895 -1.1650833 -0.5359813 -0.13124682 -0.9577321 0.24355833 2.216707 -3.4842513 -0.2467942 0.24108435 -0.89823437 0.23212089 -0.38959864 -1.5998992 -1.4006901 -2.3888795 -0.22979257 -1.1767397 1.5137863 -0.85099936 -0.7967676 -0.027273525 -1.6152467 0.04001701 -0.25946787 0.715391 1.6002158 -0.007341895 -1.3354245 0.45279866 0.37426874 -0.78395325 0.41646972 0.15812796 0.28234094 -0.6720072 2.1131048 1.925316 -0.0076354025 1.2348121 1.5483127 -0.5072117 0.5291868 0.5142053 -0.33786196 2.1540751 -0.6493978 -1.5274997 -0.2266693 -1.8291247 1.364551 -0.3306506 -0.49251533 -0.19316076 -1.5990227
4(N14) 0.7159055 0.22753182 1.512262 2.0485039 2.6657963 0.91843975 0.3803906 -0.96720916 0.11992767 -3.098256 0.10699347 4.3738847 -0.73776996 -0.7116471 0.4559942 1.0017316 -0.3252262 0.5009684 0.07400626 0.14017317 0.12863134 -0.6012127 2.4205046 -0.526325 -0.55112934 -0.087810904 -1.3133008 -1.0427766 0.10900496 -0.34351465 -0.052676853 -0.26088792 0.87792504 1.6284436 -0.27932054 -1.8194176 0.0811639 -1.3300649 -0.12609841 0.21639405 1.0309235 1.2407566 0.9410124 2.0232356 2.0913024 0.5180151 -0.7861112 -1.2277845 0.11268701 0.36260727 -1.6146793 1.4893965 -1.935771 1.7370546 0.43868178 -0.048842695 -1.5385011 0.5286196 0.69293886 -0.07657524 -2.0100756 3.1219797 -1.7734929 -2.7593613 0.30255285 2.1054547 0.77540183 1.902019 0.7664229 0.268177 -0.24492033 -0.4818803 -0.02474759 0.7044493 0.648774 1.4626544 0.7769508 -0.66384155 -0.17282659 1.3990897 1.7210598 0.4782176 -0.62361383 0.9582417 2.0190794 -1.4264165 -1.207299 -1.925005 -0.7171526 -0.9063901 -0.8983933 0.50514245 2.2346563 1.4050623 -0.19241592 -1.0461577 -0.29739276 0.48845965 1.3376087 -0.48745614 0.45408022 -1.0426469 -0.010866005 -0.95579696 -0.1409407 -0.4987892 -1.259693 -1.5977465 -0.75379443 2.1865861 0.44846174 2.1473048 0.27094802 0.59676903 -0.20506439 3.0520747 1.4146168 -0.50918025 -0.26149023 2.0125759 0.19084176 -2.52695 -1.5666436 0.9951324 -1.2705646 2.9642456 -2.162151 -1.5823743
M367 0.039987277 0.67166567 0.7912175 1.2140585 -0.12516706 0.36572385 1.9539257 -1.3909237 2.1074903 0.9588155 -1.1578821 0.10260612 1.3072666 0.36704743 -0.28841972 0.31205407 -0.926614 1.0390215 0.37606734 1.8034453 1.0030396 -0.2628331 -0.4047497 -1.0522503 -0.7963505 -0.15453336 -2.8137105 -1.3259588 -0.043075737 -0.06503469 1.1940142 -0.06270821 -0.87044984 -3.0241072 0.40950227 0.31309918 0.48690948 0.86246645 -0.40030226 -0.5002668 1.0134715 -1.1341655 1.2037663 0.21334109 -0.7004037 -0.008566078 1.2633991 2.154669 2.5032828 0.130555 -0.05842592 0.11142925 -0.7867137 -1.2354604 1.3860301 2.194019 0.36315277 2.0239668 0.66478914 -2.0970702 -1.3001317 0.35692975 0.67208785 0.5834439 -0.76256734 -1.6844536 1.5221156 -1.3460037 -0.88326794 -1.9987843 2.0661454 -0.01583559 1.4990969 -0.91517174 1.5418845 0.14566548 -1.2634846 1.5294173 0.25707757 1.3512832 0.061076183 1.5483273 1.1614016 -0.9959199 0.19324608 -1.5959905 -0.7996464 0.4226867 -1.130984 0.09569796 0.7004221 0.47485217 1.1439458 -3.0545475 -1.0409887 0.23616017 0.5780045 -0.01876098 0.3467397 -0.75499 -0.5528077 -1.5399708 -0.07670718 -0.19463901 0.5121098 -0.37943953 0.61204475 -0.03573847 -1.1411546 -2.8583202 -0.06748146 0.32482728 -0.08668878 -0.09738421 1.289304 -1.6892703 -1.2022325 0.8136847 2.884597 -1.5942342 -1.2209547 0.5160948 0.95444506 -1.3743944 -1.0594794 -1.4841732 0.5994176 1.72285
M001 1.2859228 -1.8606281 0.20494227 -1.0992557 -0.030116705 1.1921647 -0.34179977 -0.019982258 2.460365 1.8851514 -1.9855453 -0.14367732 0.55491257 -1.3938279 -1.6123188 0.023298005 1.2086397 -0.12819871 -0.758898 -0.46236965 0.32145232 0.8327843 0.17912069 1.4689673 1.4050552 1.0577427 -0.33609876 -0.17406577 1.3283424 -0.85731566 -1.8737341 -0.48277092 0.66235435 -0.033167694 -2.2901826 -1.7347139 0.2276935 -0.03854855 0.60515004 0.7168672 -1.5477734 -1.358872 0.30532217 -0.6177856 0.6107992 0.5665278 -1.436843 0.4875753 0.30489534 -0.33417603 1.4570204 0.7458474 -2.4731574 -1.09482 0.57916886 0.45882913 0.60123324 -1.7325013 0.408598 -1.4004552 0.7354503 -1.4665177 -2.648729 2.144262 -1.4410787 0.8009651 0.51643777 -0.7564418 0.48579192 0.4413885 -0.38403326 -1.7657484 0.7219386 -1.0632367 1.124642 0.36803937 0.6754432 -1.7678211 -1.0249548 1.5682924 -2.6900136 -1.5146558 2.100439 0.9398649 -0.3268565 -1.3884475 0.65864813 0.22765623 -0.944371 0.31247753 -1.8876238 0.14455879 0.4616518 0.67126495 2.3181136 -0.5417904 -0.28814942 0.8423618 0.19168025 0.12167881 -0.55412436 -0.2289028 -0.16703382 0.204421 -0.55193824 -0.22234842 0.38551465 -0.8704783 -2.9025075 1.0124443 -0.29248202 0.31000033 2.4676425 -1.0952482 -0.47577196 -0.43991187 1.9112147 1.9498798 0.7024801 0.3365277 1.0687706 -0.4046985 -0.48656735 -0.22402197 0.70454437 0.54287803 1.165431 -0.76825744
M305 1.5366105 -2.2962842 -1.6479149 0.4757936 -0.41341528 -3.44115 0.3157358 -1.2625623 -0.07307688 0.089280024 -0.8327914 1.2038914 1.1802725 0.9156955 0.12633747 -1.1557645 -0.11729533 3.4188263 -1.6910381 -0.8762224 -3.0837383 -3.5723069 -0.9609291 -0.16993414 -0.16415818 2.1749403 1.0686408 -1.7500091 -1.5223761 -0.36210826 -0.75186455 3.0673363 0.102340944 0.563534 1.2342516 -1.6699923 0.9986132 -2.4171126 0.13256764 1.2502238 -1.7282902 -0.44340745 1.2809093 -2.9219995 1.2760489 -1.230527 1.2394965 -0.2082703 0.14147525 1.530783 1.1993296 -0.6264932 -0.87279224 -1.6268888 -1.9375395 -2.9546742 -0.011212319 -2.3381763 0.027110312 1.1156325 2.4827323 -1.6225772 -1.3354524 -2.5521472 2.8911114 -0.9701683 1.7124757 -1.177277 -0.43732274 1.2846191 -3.3016903 -2.3362253 2.1394866 2.774411 -0.8634267 -0.24654566 3.6375823 0.32250205 1.2317648 0.13067234 -0.42705393 -0.028208315 0.7242657 -3.3280013 1.6250715 0.81083983 -4.4216723 -2.507191 -0.39994168 1.7139279 0.62694764 3.7245588 -1.4329326 -3.2355518 -1.1173447 -0.4552023 0.59733874 -3.1545708 -1.5542423 -0.06261238 -0.024049299 1.3121566 0.100796 -1.7810662 1.6141775 1.6852301 1.3996477 -1.9369004 0.93261325 1.9609373 -0.6541697 0.1812266 -1.6319927 -3.169918 -1.9041047 3.62542 1.3805661 -1.1240231 -0.8502946 -0.11278819 -0.15976691 -1.5690166 -1.7048113 0.7270233 2.7932742 0.7538549 -0.74646175 -1.964136
M036 -0.6811843 1.5616736 1.8098567 -0.2438499 0.7527485 0.47867092 -0.9955992 -0.48851833 -0.7048797 1.8730632 0.6870622 1.4545419 0.376491 -2.1023858 2.388297 1.484778 1.8037008 0.03149039 -1.312709 0.56141317 0.041685127 -1.6987712 -0.35324407 0.8058907 1.78506 -2.851559 -1.4984145 -1.2533252 0.57395786 -0.28240559 -1.1707551 -2.5587707 -0.2990774 -2.5409708 -1.1172137 -2.0257695 -2.3167636 0.43327028 1.5020286 -0.61061776 -2.057592 1.4392272 -3.1073058 0.3643888 0.03928498 0.33706787 -0.9567977 -1.0558736 1.3889459 1.4337835 -0.67501956 2.473524 -0.2451167 3.0787604 -1.1438817 -1.1553931 -0.98085755 -0.11352032 0.4577696 -1.6865425 -1.7629979 0.23812822 -1.0232646 -0.11363617 -1.9828353 1.4938112 1.2505109 2.0877063 1.099789 0.74814475 -2.0023656 -2.1450467 1.5074434 0.52158046 -0.14862223 0.13094583 -2.0468745 1.7176297 -1.5096695 -0.27012375 0.2276422 -0.12631051 0.11669594 0.67055124 -0.040517803 0.21361126 -0.041401744 -0.8770588 -0.4472429 0.74775094 -0.03703299 0.51657766 -0.15039872 1.5844496 0.93846774 -2.6655965 1.5153332 -0.66539294 0.41330123 -0.7849583 -2.2270317 1.933962 -0.79899704 -1.0494456 0.05556845 -4.4438524 -0.48437363 -0.9982676 1.7650127 -1.4522682 -0.51922333 -0.71596503 -1.2270011 -1.0511631 0.27686206 0.15777388 -1.4472678 -0.1219746 -0.963825 -0.743971 -0.80939263 2.4908357 0.46615174 0.24123639 1.8778216 -0.040777095 0.4916933 -0.08208425
M370 -0.19242187 -0.25549814 2.0096478 1.8546083 -0.27228943 -0.24540333 0.73845667 0.9235135 -1.518625 -0.38644138 -1.255224 0.27998403 -1.2393922 0.9665349 1.5074178 -0.41937837 0.8607344 1.2307117 0.08991017 -0.40475067 -0.92589086 -1.3333783 0.23269661 0.97821337 -2.1187143 0.06564669 0.32493886 -0.9136787 -0.57086015 -0.61042726 -2.4817705 2.3621795 -0.6173557 1.8897448 -0.6830405 1.6529316 1.6799972 -2.6933863 -0.06555932 2.3364124 1.6386516 -1.0563848 -2.8128984 0.14195792 -2.4162047 -0.6039825 -0.6214179 -0.8174165 -3.5014987 -2.3437397 -0.8899803 -0.45403177 -0.31425363 1.532871 -2.3961575 0.5933053 0.31663486 0.9915246 0.3172323 -0.49710718 1.1606977 0.75335014 -0.37479103 0.22134228 0.12705009 -2.2388737 0.6415894 -0.25200003 1.1171049 -0.8764073 -0.18097003 -0.98782337 -1.215072 0.0071442765 -1.4227306 -1.4357716 1.1677747 -0.39618602 0.77266353 -0.83807254 -0.30826297 -2.2937512 -0.27513766 0.77578866 1.0798252 -0.93725824 -2.1517894 0.09188327 -2.521113 0.15550326 -0.7762285 -0.53761894 -1.2899147 -1.5882803 0.5981033 -0.92455626 0.7085097 -2.6438813 2.0054297 1.6557143 -0.3453544 -0.4862817 -1.8506342 0.62658185 -0.5709516 1.2164422 1.7872026 1.2123166 1.0670478 -0.70697093 -0.9099304 -0.84335274 1.7278495 0.40347612 0.2711432 1.3351756 -0.7776201 -0.48385862 -0.36705023 -1.090991 -0.83113843 -2.4269266 1.034332 0.37981197 0.45720503 1.2561029 0.974846 -1.8444068
M032 0.4138963 -0.20583005 0.6466871 -0.9275104 0.020943606 0.23214377 -0.12285355 2.0435812 -2.8436067 0.028149104 0.2712043 -3.110638 0.2943715 0.17245941 0.19969562 -0.13829155 -0.87769294 -1.1565678 2.6593037 1.2096223 -1.4622263 1.2060564 1.8382527 -0.6338364 -0.7076731 -0.4024369 -0.2690331 0.9964959 0.60164845 -1.255978 -0.80723786 -0.027202796 -0.7673798 0.322121 -1.0579363 -0.9636975 -1.322376 1.9669924 -0.130073 -0.7999466 0.07191008 -1.928742 0.33159223 -2.2366154 -0.1917124 0.005926444 1.825696 -1.5846142 -0.0009505532 0.24960412 1.6109807 -1.949067 1.7986532 -0.12590544 -0.536983 2.9186606 -0.28003564 -0.47512722 -0.11179229 -0.2807302 0.1382448 2.3220708 -0.5019468 0.9347963 -0.11272211 -0.7846239 -0.55017734 2.2286432 -0.28376955 -1.8997682 1.336711 -0.3439268 -0.8601603 -1.0437657 1.3474387 -2.141667 -2.5724194 -3.0102193 -1.3545089 -0.007091489 -0.00076619664 -0.028735017 -1.1360071 -2.907778 2.8312755 0.18490823 -0.48757592 -0.99729997 -0.4755507 -1.8981212 -0.06533745 2.56532 0.54871273 -1.751447 0.90488744 0.5137063 1.1464565 0.8110814 0.9786113 0.40396047 0.31072876 -2.2404885 -2.229233 -0.10296135 -0.47834197 -1.0796231 -0.59047717 0.83442557 2.2909124 -0.55525553 -1.4737986 -0.5855421 1.348905 -1.0389899 -0.61217684 0.51883423 1.3345994 -0.65330213 -0.117154494 0.22383247 -0.02766312 1.1099201 1.3781015 -0.118108265 -1.567274 -0.9841517 0.08625099 -1.6421967
1(N45) -0.19990711 -2.2676 -1.0402088 -2.1093261 -0.10431885 -0.7956175 -3.3202107 0.18007438 -1.6386666 -0.37736967 2.0092113 1.0290279 -0.35913947 -0.63642496 0.91422516 -0.25959414 0.2952411 1.1269307 0.729192 -2.6773946 3.1771405 -0.29192615 1.3735118 -0.8988095 -0.08388597 0.049161095 0.15161176 0.89273673 1.1903373 -0.9395044 1.4617419 1.1794015 1.1861234 1.2786254 1.6639928 0.08484415 -2.6207297 1.382791 0.5434693 -2.4825394 0.70835525 -0.0044516306 -0.23997846 -0.9362038 0.75269276 1.1369541 -3.3279126 0.0831591 -0.46874258 0.5101832 -1.4767265 -2.049368 -2.5153377 -1.7057403 -1.1025453 -0.23071459 -0.7115551 -2.5976453 2.410419 -1.7061166 -3.2820213 -0.6325339 -0.32818347 -0.265971 -0.12593973 -1.0601212 -1.6668069 0.4856038 1.3229506 -1.7928227 -0.040509712 1.5216253 -2.537937 -0.17194371 -1.5182747 1.6443015 -0.85423666 2.4656055 -2.8103724 -1.5819988 2.8446836 1.2378211 1.6760685 2.3131852 -3.790615 0.44093758 1.2849252 1.1331835 3.7217522 2.4971197 5.051568 -0.7944377 2.1906266 -0.33765808 -4.339584 0.35949808 -2.0092735 2.5049417 -2.0763538 -0.831289 -2.3913047 -0.43280402 2.2385142 1.1153839 -0.7550612 -2.7638896 -1.3678789 -0.6411209 0.20226827 0.5905901 -0.70658445 3.1814528 1.2584664 0.9072366 2.3549526 1.6929282 -1.8447468 0.49339134 1.3383571 0.5086475 1.5422397 1.3771102 0.43005362 -0.81482327 -1.7947774 0.77749175 -0.016221905 1.7707678
8(N01) 0.026135413 0.8051638 0.8877978 -0.30048755 -1.6626486 -0.22705877 -1.2878492 -0.118519664 -0.43659303 0.18961261 -0.28442293 -2.9720254 -1.5491225 -1.4006059 -2.00482 -0.76439404 0.5203472 0.083621204 -0.027998785 -1.0846342 -0.8397418 1.2670983 0.46899644 0.45539373 -0.45542124 0.7057516 -0.30369186 2.8033917 0.00028040152 0.61229426 1.2566807 1.2543123 1.56328 -0.55175763 -0.44567323 1.1744554 2.5841682 2.051078 0.2913574 -0.46466976 -3.3648689 -2.0760808 1.9929721 -0.1434968 0.2948631 -1.095213 -0.24048433 0.42266196 -0.85393256 -1.0595065 -2.0633945 -0.39347315 0.22189642 -0.97440326 -1.4810277 1.622517 -1.2219312 -2.2409353 -1.2016609 -0.7860734 -0.18895118 -1.9461213 0.2038011 -2.419699 -0.96145046 -0.18898396 -0.109214485 1.8934612 1.4139705 1.6153647 -0.67320275 -0.28652647 -0.43447793 -1.2185698 -0.81733453 0.010150387 -0.037463423 0.87314135 0.63527375 1.0722369 -0.35729176 -1.1694436 -0.005254045 -2.8200421 -0.089840464 0.4069323 0.2986089 1.8481969 0.54857385 0.48526102 1.351225 -0.52734923 1.9719312 -3.273341 2.4933882 2.575969 2.4168968 -1.5946943 -0.29773396 3.4626222 0.25619087 -2.7278056 1.1992851 -0.010338921 -1.6180383 -0.8831402 1.73121 1.4809259 -1.7897152 -0.74328 0.5520713 -2.55173 -1.2555994 -1.3731456 -0.73455495 -2.7299476 0.17863739 1.1984423 -1.1211411 1.9927335 0.13243282 0.14987001 -0.03405499 2.254301 -0.19761638 -2.810365 1.0519767 1.3976247
7(N01) 1.54578 -0.35915 0.9602982 -1.54498 -0.33714333 0.8165996 0.4858494 -0.06729185 -0.7098082 0.15905309 0.35075012 -0.42814064 -1.1476275 1.3556371 -1.6680107 -2.1628075 1.7697847 -0.6037056 -0.9359951 0.9266705 -0.50359505 0.7384426 0.46217656 -2.0045404 -0.89260435 -0.3247246 -0.45117512 1.6626713 -2.1606934 1.5312519 1.8575218 2.8169484 -1.8284048 -0.7437063 -1.398054 1.0707488 1.268505 -0.052572917 -0.8066501 -1.7931479 -0.76511496 -1.569028 2.7294447 0.2695809 1.1823711 -0.49629217 -0.8604366 -0.08246335 -1.0138019 -0.8310327 -0.7074436 0.01716615 0.49368903 0.06564461 -0.3531689 -0.8782916 -3.0258949 0.0378939 -1.3375564 -1.0892076 0.9796444 -2.0809855 0.5582604 0.2827588 -1.7890023 -0.5072665 -0.8898327 1.2339847 -0.2871815 0.96336865 -1.5907204 1.4309691 -0.30327135 -0.9283045 0.4664625 -0.49814916 -0.068336256 1.0273509 0.65344733 1.7887675 0.2617798 -2.1446908 -1.7938656 -0.42593703 -1.3541487 -0.7900973 -0.9520654 -0.24730165 0.41192475 -3.7735367 -1.1966152 0.80027777 0.3083535 -2.6386247 -0.28039196 1.3719237 2.276779 -0.122384116 -0.39798573 1.5997941 0.5145232 -0.0011925851 -1.2855413 0.62670195 2.235388 -1.3986591 1.073828 0.95316243 -2.7855918 -2.203472 3.4217513 -1.2596841 -0.77529347 -0.6138952 0.41657767 -2.5158877 0.81980276 1.2825565 0.7011341 0.65440404 1.2325524 -1.7196754 -0.83217454 1.7085919 -0.2696044 0.19730222 0.38478005 1.8584951
M003 0.4841082 -1.0761423 1.0753443 1.2632571 -0.5135361 0.82800704 0.5824598 0.99620986 2.8862145 0.7396762 -0.94648784 -3.0232246 -0.05640006 -0.5399432 0.31478932 -2.2295897 -2.425624 -0.60615504 1.5946248 -0.23775345 -0.087645434 0.5829971 -1.3031962 1.2815377 -1.0027773 0.33446673 -0.14721324 3.555222 0.09835356 2.3757613 0.41236657 0.23874757 -1.5187677 0.7511362 -0.7735593 0.6370627 1.985634 -1.1327579 -2.5334206 0.36380085 0.0062906086 0.15335734 -0.97669137 1.0141051 -1.0596412 1.1687003 -0.42069316 1.0299374 -0.42909044 1.4645438 2.210054 -0.21484643 -0.26470038 0.4003649 1.4589803 0.626824 -0.44500127 1.4596393 0.43622068 1.5154854 0.4221584 0.32894295 0.23827061 -2.228852 -1.0298282 2.1394207 -1.9573029 0.20159474 0.33168286 1.2970157 1.4453284 0.9612832 1.9360405 -0.22985038 -2.723278 -0.08619837 -0.31717193 -0.15553398 0.3565019 0.28030586 -0.52150905 -0.7954496 -0.022784762 -0.87758994 2.30335 -1.6161507 -1.8324915 0.16753349 -0.019004012 2.4404829 0.6035479 -0.017448073 -0.7582153 -0.4625625 0.6059606 -0.6704896 1.3474016 -1.3921617 1.4920197 1.3090084 0.62694 1.1861311 2.6832414 1.3905793 -1.2325485 1.8223996 -0.8051807 0.17433558 -0.04968004 1.2741853 1.601604 -1.6194745 0.73879933 -0.18913764 -0.6150296 0.04030184 1.9575814 0.8601301 0.7600237 -1.6825173 -2.7706697 0.16864651 -0.26621884 -0.81893873 -1.5681678 1.5888529 -0.40224308 -0.40176564
M004 2.5727847 0.1898092 -0.3412913 0.49961948 0.5236981 -2.248948 0.57995033 1.1561555 -0.30753157 -0.30224937 1.6996112 3.6505792 0.82825357 -3.0510948 -0.19271223 -0.48736504 -0.8606243 2.0673847 -1.6584538 2.9968927 0.29855746 0.018238038 -2.7335918 -1.1042892 1.2826787 0.28657198 0.322961 -3.0159793 0.10413242 -0.5629263 -0.11755214 1.131595 0.80685717 -1.1959805 -1.8158686 -0.7059414 2.2311692 -0.6140494 -1.160344 0.46744883 -1.8269762 -0.67488676 0.47605157 1.5650156 2.813255 -0.886821 0.78358644 -1.147231 -3.076778 -1.6088512 -0.11097703 -1.8505015 1.7388705 -0.7945553 1.7369398 0.35796976 1.2782307 -1.1627527 -1.3023815 -1.8429774 1.6524827 -1.4402572 0.59638685 1.5487794 2.5441113 -2.6194181 -0.29486012 0.72541493 -1.8782183 -1.8591626 -2.0218248 2.5710444 2.2562912 0.65440255 1.0258752 -2.2518115 3.0414748 -0.6159145 2.5957522 -2.1437185 -2.2086327 1.3327571 -0.6603931 -1.1304843 3.022661 0.020682042 -2.6983373 -1.8800268 -2.3940852 -0.3748376 -0.014410051 -0.3443163 1.397968 -3.8997462 0.84347594 0.8078106 -3.115263 1.1530244 -0.8168295 4.7245636 0.2639853 -1.312766 -0.781695 1.2418542 -0.31382924 2.8206732 2.4661396 1.6256666 0.37944332 -4.879262 0.38961694 -0.31571364 1.9277072 -0.27203047 -2.845093 0.31501454 -2.7451313 -3.0172915 1.7038615 -1.2143612 -1.7767011 0.2523687 3.3532434 -0.7551954 1.0342292 -1.4403222 0.35668838 0.1764467
M377 1.4586387 -1.9255899 -0.43424642 -1.3879027 -0.55103314 1.0874076 1.6219475 -0.21482004 -0.5645306 -1.6422046 0.06406907 2.9688246 1.6589456 -2.1981902 0.6717526 2.6994057 0.33977017 -1.2930579 0.07365603 1.6934714 -1.2683673 -0.5035389 0.5450093 -2.4518833 -2.2260516 -1.1237526 0.9160184 -1.3653011 0.034224227 0.9887778 1.0704421 -0.31383607 -0.76110864 -1.6916662 0.34455836 0.37833956 1.3338069 1.1044596 1.7587321 0.8369624 1.3293943 -0.35850516 2.338027 -1.0981133 0.21086723 1.3687441 0.96185774 3.4809732 -3.5414648 0.48844418 0.33803368 3.4419441 0.38150993 2.912547 3.4992712 -1.6424515 2.9671488 2.4571137 -2.1194856 2.716174 -0.06666204 0.57320535 -0.91002345 -1.0881599 -0.38781357 -1.2051224 -1.0366412 2.4614005 -0.83606666 0.2862359 -2.1510813 1.1149752 2.673694 0.56086826 1.8910164 -1.7500958 1.4509822 -2.327779 2.3131232 0.009086527 -0.72408897 -1.0714501 -1.1552299 1.254304 -1.0301105 -0.6577625 -0.015641335 -0.42345986 -0.97773844 1.4067116 0.70497197 0.9417344 -0.65790147 -1.4766 -1.5401059 -0.43288818 -2.0686712 0.70793796 1.5514009 1.8068448 1.5336052 0.62696815 0.27877977 -0.48085928 -1.5162176 -1.8318889 2.2524724 0.6994662 1.2366345 2.1052167 0.061284136 2.3322008 0.38901326 -1.4002144 2.7695036 0.78821194 0.40786934 -3.4339716 2.688428 -0.94714576 -2.3588645 0.99265087 -0.41203102 -0.044681113 -0.008524311 1.0548825 -0.72735804 -0.069243
M354 -0.43848583 3.0008724 1.2841408 -0.5354338 -1.7485839 1.4690564 -2.5032322 -1.8324227 0.6162656 -0.35533527 1.3687316 -0.27218235 -2.0037127 -1.6458733 -0.85624015 0.87467307 0.12513903 1.019255 0.9880768 1.4485595 1.4936701 1.4154959 1.3497292 0.4362308 0.6949909 -1.9272801 0.4067655 -0.5027048 0.7697216 0.5980679 1.2461644 -1.6769477 1.6585236 -1.4914823 -0.24669503 -0.47740266 0.3337063 0.34153196 -1.1407596 -2.023782 -1.382949 -2.4619577 0.6111782 -1.5943314 0.61473155 0.9122707 -0.657296 -0.7541742 0.5010076 1.4236075 -0.67355037 1.1109678 -0.27401215 1.4938983 -0.24974169 -1.7291925 -0.32556185 1.5754014 0.08467792 -3.616763 -0.90282196 0.2749017 0.3523454 -1.1575502 1.24179 -0.63642824 0.6699187 1.0644529 -0.26644117 -1.3335084 2.3705833 -1.2589612 -0.45222563 -2.1915424 1.3079401 -1.07885 -2.9142594 2.4877207 1.6484342 -0.32132232 0.032022625 1.2451321 1.3419547 1.0114465 -0.40279713 1.169929 2.7288473 0.92035145 1.0718491 1.1800792 0.98414296 -1.1164702 2.7639852 -0.9512832 1.0301774 0.38968804 -1.2129331 0.015040634 1.9284049 -1.2637042 -0.16312523 0.52019083 -0.713493 -0.46986592 -1.2397038 -0.6858723 -1.238194 0.8794379 0.40298888 -0.52347785 0.17887257 -2.9307761 1.4261287 -0.2049033 -0.23112418 -3.1215992 1.9955239 0.43274307 0.16078186 0.90511525 -1.9355433 0.6618679 1.8247302 -0.89805984 -3.986445 -0.20399038 0.23174784 2.0024695
4(N39B) 1.7418895 -0.868486 -1.35797 -1.97781 0.71745247 -0.3089927 1.0946909 -0.015998155 0.77782995 -3.752967 0.3536806 -3.6679263 1.8772064 -0.76413083 0.006329633 -1.0884789 0.9901611 -0.4414208 1.3820179 -0.19456719 -2.6751 1.9669538 -0.43419713 0.60608315 -1.1054144 -1.2757686 -0.3033341 1.0628082 -1.1679544 1.705611 -0.2535749 -0.32354248 -0.5805904 1.5695674 -0.12978408 -1.2036251 -0.02343147 0.22680008 0.34287816 -4.1172833 -2.4139147 -0.13213368 -2.800627 0.64505833 0.55936843 1.9271305 0.34907112 0.6410047 1.1926008 -1.1923057 -1.9299701 -0.6127197 -1.750069 2.2678287 -0.51670235 0.114964426 -0.94996136 0.43179747 3.2547064 0.18856165 -4.8565373 -1.3257189 0.5569624 -0.48472202 2.7384026 1.7351562 0.6035136 -4.243005 -0.7422315 -0.8695911 -2.6313713 -2.2494204 -0.076242924 2.0394592 0.18219037 0.09685023 -1.0460569 0.091792814 -1.9651783 1.8877573 1.2221727 1.228098 1.3300878 1.9512393 0.20733406 0.13058181 2.266102 -2.8368247 -0.30162627 -2.0787613 -2.232364 0.59015626 -0.13830765 -0.5157455 0.54534286 -0.5606033 -1.0790468 0.34551612 0.50815016 -1.4236163 -0.39073402 -1.1596544 0.5961353 -0.55636394 1.5122738 0.70014554 0.09703041 -1.2175459 1.7054944 2.4738572 -2.053907 0.06831843 1.5599893 0.12941633 -0.25309736 0.46070248 -0.5733838 -0.38084814 -1.320574 0.15798603 -0.16622405 0.41581467 -0.16364108 0.30955434 3.2817302 -0.7456289 -1.3054734 -1.9844102
M352 3.1688468 -1.6126045 -1.7381148 0.6689093 -4.3284817 0.3591856 1.081216 -1.0316768 0.0880477 0.38281915 -0.6621288 2.0521753 -0.24022233 3.0132642 2.4585009 2.9808295 1.0237713 0.4187976 1.1632799 2.6061559 -2.1107419 2.4222283 -1.1968876 -0.44798547 1.0956743 -0.89748025 4.4431033 0.2888604 -1.6719924 -0.8353618 0.25746012 -0.7636708 -0.06483198 1.9807365 2.0100458 2.557346 -1.3125002 -0.6452705 0.369085 0.5283304 -1.0860691 -0.37259993 1.2535203 0.9569282 1.2339836 0.57968825 -1.0549097 1.863918 -1.3867351 -1.2763174 0.9709752 -1.0131733 -1.1621923 1.0294144 1.6115996 -1.9113333 -0.78638333 -0.6219028 -0.89954317 -0.22867092 3.9454136 -0.36762163 -1.3118435 1.0819329 0.19652463 -1.0983627 0.5093198 -0.37572095 -2.34042 -2.1380486 0.14611733 -0.43818033 0.11029239 1.4201925 1.9760897 -0.3850055 0.21620643 -1.348398 -1.1076132 -1.4292706 -1.8018421 -0.2443266 0.84259 -1.1871781 -0.7741446 0.065640226 0.23524119 2.6440597 -0.8705526 0.73682326 -3.1999247 0.36431652 0.875057 0.21702455 1.1548917 -2.3821874 1.0367583 -0.27509218 -2.4612734 -0.46226808 -2.0535364 -1.0815746 1.7052344 0.5184088 0.9863141 0.0072018155 1.8239918 -0.8988929 2.3679285 -1.348253 -0.4128963 -2.2316685 -2.5073397 -4.564601 0.5794075 -0.6037884 -0.698791 -1.9451385 0.82770264 -1.6807425 -1.3735286 -1.5362834 -2.750029 -1.4929667 -0.923015 -3.7481985 2.22524 -0.39726835
5(N14) -1.0423265 1.3926826 0.3939231 -0.006969782 1.1523075 -0.0024860061 0.7061996 0.7661929 2.0026848 -0.18617716 -0.0070491387 2.8416524 0.62523544 0.18711035 -0.94665533 -0.37141168 -1.1651628 0.3066614 -0.103986956 -0.79885197 -1.2814037 0.7527476 0.67880315 -1.3229868 1.968319 1.7061483 -0.99442166 -0.6301427 0.07380233 1.0077568 2.6614895 0.03573327 0.5207346 0.74704164 -1.4341074 -0.081497 -2.9442215 -2.4399087 0.41922978 -0.44954363 2.2385676 1.5049096 2.0506487 0.08779698 1.0116295 -2.41304 1.1298649 -1.3709573 2.335701 -0.7986821 -2.465083 -1.205136 -0.7784009 3.7193098 0.022465177 -0.7544508 -1.719551 -0.99531054 2.4727166 0.16671401 -1.6314399 4.651035 -0.9137012 -1.3753598 -1.6276455 1.6109853 -1.6562339 2.5117726 0.6768898 0.2591185 0.68631566 0.5892684 1.6762317 0.9934473 1.6372584 2.4921162 0.39859757 -3.0427809 -0.33956644 -0.9876578 1.0123938 -0.6740785 0.50796807 0.21322663 0.37398762 0.9795337 -2.60183 -0.61097026 0.2929525 0.23863962 -1.7901942 -0.043337487 1.2418797 0.2876343 0.04207665 0.94332063 -0.7392587 -1.2712764 -0.3632761 0.41160488 -0.45670345 0.42128265 -0.17753534 -1.3708093 -0.19905393 1.187919 -2.4708173 -0.5825018 1.0733422 0.56887746 0.09793291 3.0519023 0.41226992 0.8962149 -0.006811006 1.5132475 0.34135276 -1.1176883 0.083012246 1.0757698 -0.49999392 -2.5358043 0.9111661 1.8873814 -0.12405665 3.127473 -0.25315598 -2.3513663
M072 -0.76741874 0.88440305 -0.75662756 -0.48223838 0.3830371 -1.4913685 -0.7818968 -0.68683547 1.1517593 -1.2153292 -0.8799944 -0.6715262 0.43285656 2.0048797 -0.87179214 -0.29959977 0.93513256 -0.87403035 -1.0724968 0.72516763 0.85328394 -0.6584344 -1.6841829 0.32221618 0.36498585 -0.20410544 1.3617446 1.8077606 0.23881346 -1.1033038 -0.7241239 -1.5681783 0.18253753 -0.862203 1.1910987 -0.7823853 1.551231 1.4020115 -1.3487831 -0.41282687 0.26536727 0.5112908 1.2349911 -1.5245583 -0.8315202 0.07600917 -1.3916922 0.776377 1.3629692 0.9273449 0.5894075 -0.6645194 -0.8317539 1.1146165 0.06924669 1.664293 0.15830743 0.70560914 0.8241356 0.20723784 0.97508746 0.44545192 -2.1552835 3.012374 0.622343 -1.1503273 -1.3365027 2.2849202 0.3215997 -1.9523114 2.076479 -1.3884555 -0.09539177 -0.25938338 -2.2763977 -0.46111825 -1.372747 2.6366923 1.6533554 2.685578 0.27408472 -2.3295019 -2.2157905 -1.4963415 0.60825056 1.2610178 -0.30559734 0.5324311 1.05191 0.04441149 0.7971979 0.8550256 -0.02936509 -1.5611402 0.6293209 -0.17129235 -0.4190019 -0.3078852 -0.71020013 -0.96317595 0.025521643 0.5967606 0.08810288 2.1046484 0.95162284 -1.7374688 0.46410525 2.1296484 0.97380006 -0.5358007 -1.6335486 -0.44120112 1.6817025 -1.0511223 1.0107163 -0.84725404 0.7134671 0.59622693 1.2599225 0.68386614 -0.0808731 -2.0461364 -1.4622108 -2.0504699 0.3811711 -2.7167845 -2.2078166 -1.2533509
M036+1(N30D) -0.40150887 2.744811 -0.95576954 0.6091777 -3.1679149 0.67151916 1.546222 -1.6446964 -0.6246876 0.3195978 0.6424911 -0.43856433 -0.73180664 -1.8533057 0.75413686 1.6847451 3.3528013 0.58639735 -1.51177 3.2754452 1.9564446 -0.090775505 0.939637 1.3434494 -1.0875335 -1.5978588 -0.48909444 -3.7395806 1.2978021 -1.3875585 -0.8702907 -2.4590988 -1.1244422 0.39356837 -1.516726 0.25341207 -0.5600585 -0.13695733 -0.3370844 -1.7393687 -0.49694788 -1.6961588 -0.78062135 -0.353494 1.1139306 0.85862714 0.25978574 -3.3021507 -0.045629147 1.1142972 -0.40350625 1.4251549 0.44717443 2.3508203 -0.14738181 -0.97387654 1.2872292 -0.07041487 -0.8488177 -0.05252654 -2.6966035 0.35262504 0.77522045 -0.81022996 -1.3776838 1.9973383 1.957806 1.019481 0.42706165 -0.31586602 -0.7666418 -1.9036454 -1.5572499 -0.27487803 0.16207981 -1.830563 -2.1175976 1.7115176 0.3812177 1.1491069 0.18398398 0.62435603 -0.4474463 1.829932 -2.1447368 -0.17467232 1.0561942 1.9460086 0.24145064 -2.7289186 0.6254505 -1.1007822 1.9526355 0.31427243 0.5333977 -0.20197643 0.62913597 -0.8477508 -1.0790491 -0.32313016 0.028917141 -0.00033028357 0.26245502 -1.7695929 0.57999146 -0.4437897 -0.73618305 1.3685944 -0.022013012 0.6698587 -2.03454 -1.8460243 1.9698789 -0.22037573 0.28709057 0.9960999 -1.5564374 0.57442915 -0.21990311 -0.48040712 -1.5612013 1.6028584 -1.7345147 2.817397 -0.44719768 -3.017114 0.0027215069 0.894984
M269 -0.7963292 0.97657734 -0.1467188 -0.14427055 0.13912408 -2.643021 -0.8558222 1.3242948 1.4936042 -0.15974776 -0.9499632 -0.54758626 -1.645845 1.0834101 0.05348165 -1.1153924 -1.9415386 -0.71339834 -0.35284808 -1.0073857 -0.20805 2.1895194 0.4854226 -0.613454 0.042938225 -1.2759057 0.9731561 0.047811255 0.02986679 0.9198936 0.60907173 0.9092128 -1.8377818 -0.1594111 0.91248333 0.6731065 -0.6526588 -0.06335239 -0.21430336 -0.5001196 -1.0909029 0.7868772 -0.9001378 -1.9987094 0.8276452 -0.549917 -0.0038903712 -0.42349005 0.12566237 1.7364783 -0.104393005 -1.5569668 -1.1403279 1.639401 0.32818267 -1.091243 -0.06789952 0.39327526 0.34944105 0.3298661 -1.0394096 1.7351613 -0.82705265 -0.33198175 -0.04537501 -1.2600616 -0.05189203 -1.4766979 -1.2870449 -1.4740586 -0.3914959 -1.2854191 0.8011295 -0.4040024 -0.35669324 -0.3914703 2.9447513 1.26681 0.008639791 0.8862805 1.8190053 0.89674574 -0.1638705 0.7571573 0.11847916 -1.5005757 0.65046096 0.3310212 0.13211861 0.30623305 0.54131955 -0.13929129 2.488065 1.0079892 0.7282081 -1.7388394 0.12682407 0.7105229 1.3189092 -2.2172356 -1.0123175 0.022326896 -0.3559688 -1.3854684 -0.14387046 -0.63618976 -0.6779014 1.1945785 1.2869357 0.13914327 -1.4495693 3.246265 -0.027677035 -0.87801695 1.4225861 0.31726477 -0.7705087 -0.07805302 -0.8806292 1.3735232 0.4599038 0.85775125 0.77769053 1.1724052 1.1490746 0.41150802 -0.03033674 0.41366017
M136 -0.9374826 0.47900644 -0.030925527 1.7823737 0.878575 2.6202924 -2.0058162 -1.9233234 -2.0803583 0.8250505 1.3149732 -1.497505 0.5085171 -0.20823334 -0.74362594 -0.5612351 -0.82526726 2.9703524 -1.1908654 -2.138933 -0.16525264 -0.20453656 2.1389773 0.34825158 -2.5403006 0.00526573 -0.76062745 0.21120188 0.20571777 -1.4994954 -0.6604368 0.4512063 0.48906133 -1.3432657 0.044585444 0.25370696 0.96659744 -1.3941387 -2.0165322 -0.26819086 2.226541 0.21807548 2.3571913 -0.13162139 0.9266229 -0.5355097 0.3482484 -1.2426279 1.7326972 2.129682 0.4514211 0.27284417 -1.6223592 -1.8613516 -1.0020633 1.1292553 -1.1169955 -0.4523387 0.8510965 -1.2104663 -1.5286508 1.1395929 -2.5158355 2.58115 -0.61593133 -0.43788677 1.617662 -0.96096414 -1.7576532 1.4563903 1.4849446 1.1812023 2.2941473 -0.7639037 -1.7873758 -0.22342353 -1.5292857 -1.2370423 0.3028556 1.651581 -1.8641012 -4.3157363 -0.6177613 0.43826416 -0.18092427 -0.777894 -0.6127411 0.24589258 0.6986714 0.06809416 -0.27118862 0.7726714 -1.06319 0.7801815 -1.7659144 -0.6574351 -1.1270304 1.0693896 -0.1515312 1.155541 -0.8759398 -0.5991213 -1.2653803 -0.86928946 -0.32909176 2.045009 -1.8363411 1.1485689 -0.90811354 -1.2474422 1.9326599 -0.96227145 -0.7217805 -0.82393336 -1.1183307 -1.1277713 0.7685304 -0.21995601 0.40938753 -0.7392974 1.1728867 1.2809176 0.42147714 0.2783375 -1.0739892 0.30640715 -0.6314512 -1.9051043
M206 -0.62393886 1.7780584 -1.6595962 -1.2563975 -0.50019 -1.9153545 1.0433303 0.32887518 0.5182207 0.27009112 1.0352652 2.4245305 -0.2836992 2.597179 0.19983841 -1.7871721 0.15628764 -0.46953717 -0.42111415 -2.8219383 0.13101956 -2.0074894 0.33483517 -0.6557792 0.5408161 -0.49200675 1.2830521 -1.6443231 2.054603 -3.2716384 -1.3742937 -0.5419034 -0.7424828 1.5232487 -0.42862043 0.4806702 0.576831 1.9654295 -1.7570705 -1.6203305 -0.1634121 -3.234784 2.4958625 -0.928171 -0.99204427 -1.1294229 -0.7448292 2.526088 1.4632622 -0.4424089 1.4419059 0.6277716 0.12464278 0.37426245 1.9542373 0.33771515 0.5831647 -0.08128012 -0.69102 0.2692337 -1.3537446 -0.874633 1.5857482 -0.59001964 0.66638213 1.5349777 -0.29047403 0.3330817 0.95051926 1.0314479 0.97327715 0.056518752 -2.018231 -0.6576405 -1.1515365 1.8556535 -1.451805 -0.75087523 -0.20942941 1.9825643 0.5448975 -0.60614944 1.1544762 0.031412728 2.8764591 -0.8712468 1.6456561 0.21311837 0.5515991 -0.63597834 -0.09212531 -0.93220955 2.0425415 -1.1880602 2.459307 2.9338374 -2.0226586 -1.8963412 -1.273107 -0.1744622 -0.8834351 -1.384954 2.5901856 -0.33160254 0.12066995 1.9315403 -1.2828534 -0.025824012 -3.2033818 -0.18169537 -0.21229154 3.4491076 1.0053059 -0.36151296 0.11650113 0.008782689 0.6769497 1.4471213 1.3578562 0.22186336 0.6281883 -2.518282 -1.5414885 0.20428227 -1.588634 -1.1294926 0.06924617 -1.3459787
M219 -1.4959543 -0.3810196 -0.9594286 -1.4861373 0.049279932 -1.2941118 -0.7209611 2.8612769 -1.0467396 0.99274457 -1.5552982 0.06881178 0.9695022 -1.0328878 4.1371546 -0.97638875 1.8854626 0.84766227 -0.91245574 -0.27391532 2.2186108 -2.511688 -1.3839747 -2.344987 1.2073689 -1.5924869 -0.17773807 -0.14087418 3.0728996 1.0634807 -2.4797978 1.2064282 -3.4512393 0.20462422 -1.1543899 2.46964 1.7942808 -1.3112518 2.209303 2.6055734 0.03557725 -0.19343758 2.3623302 2.6400213 2.9697032 -1.1493504 1.7116594 1.6708697 -1.2609088 1.4734758 -0.9842348 -1.5596545 1.7111896 0.16914594 2.0567322 -1.6565866 1.968682 -1.2907188 -3.3930926 -0.08189181 -2.017522 -1.6350852 -1.1297773 -0.005944802 -1.616667 -0.011432573 -0.8057001 -1.437508 -0.5509235 0.5603243 1.7986871 2.1548705 0.7763706 2.3852382 0.73812735 -3.4098551 0.13551834 -2.105557 -3.0242512 -0.5771538 0.78605735 -1.4609139 0.15063544 3.45954 -0.1084495 -0.33082762 -1.4145601 0.8251978 -0.39332813 0.13064589 -0.2279711 1.3323205 1.5977552 -2.1402302 2.350722 -0.24342941 0.115864664 2.0244002 -0.057132185 1.0175221 0.32744446 -1.4514629 -0.0020173362 -1.2860442 1.4787444 -1.9427693 -0.74961317 0.7050097 -0.41711476 -3.170837 -1.0565331 0.8850406 -0.5541413 0.31732163 0.21752651 3.4416256 1.1878923 2.2346096 1.0846226 -0.32555008 -0.57487106 3.2260969 2.4445367 -0.53785163 -1.4319323 -2.2027376 1.988276 -1.654729
M056 1.0949996 1.0643935 2.9637094 0.47669214 -0.6451376 1.5593114 -2.0538125 0.77388674 1.8397318 -0.38809702 0.86512756 0.741135 2.7449503 1.6044574 -1.6565773 1.4217496 -0.020182025 1.5643157 2.615487 0.7246707 -0.39833272 -3.167174 -1.097973 -1.3880668 1.133877 -1.371527 -2.0103185 1.6201177 3.5058217 0.16963671 1.5952038 0.390382 1.1998171 1.0730484 0.22029871 -1.6902871 -0.12431361 1.3268279 -0.043953773 -1.9032568 -0.7557521 1.2827065 -0.8436184 0.9030009 -0.86336195 2.889083 0.6258234 -1.0128353 2.0234962 3.2070403 -3.299985 -0.7423313 -1.8918539 0.88294154 0.87245375 -0.44605532 -1.8688596 -0.65942156 -0.17361538 -1.6091323 -2.0948539 1.6171194 -1.498695 -0.7767762 1.0292636 -1.7988653 -0.019380543 -2.2845833 1.7820292 -1.6477125 0.658144 1.7714161 -2.9448326 -2.7751384 0.30255625 1.3433441 -2.9832537 -0.98248136 1.1765555 1.2726737 2.5096886 -1.3692576 1.316092 2.2274034 2.9453928 0.88231426 1.019214 0.6883513 3.5193248 -1.2556634 0.37449828 -0.83723 0.92991775 3.1272244 -0.95348626 0.022540811 2.3587725 0.9001809 -1.3546957 -1.934613 0.33612078 2.469975 0.09489331 0.91549945 0.37458038 -0.7767737 -0.10039944 -0.8595873 -0.27796432 1.716479 -0.32702398 0.58070344 -0.3238253 -0.70658696 -2.024244 -1.7509515 0.14379959 -2.3839307 0.4584717 1.565779 2.2996864 3.1249676 0.71951246 2.2704527 -1.7270458 1.8182963 -1.070982 0.09315617
M347 -2.3455672 0.49710616 -4.44858 1.9359323 2.902578 -0.5674897 2.1726558 -0.2941309 2.242255 -2.6458435 1.1645217 -3.5537963 0.97904253 -1.7429731 -5.7583203 1.4724077 -4.176886 -4.7100043 -1.464177 5.427329 -2.0971894 -3.9477806 0.72289234 0.36330673 -1.2252557 -0.5350497 -0.99154127 2.374868 3.302092 0.77906156 0.86597985 -0.3837346 0.040636107 0.29233715 1.5755275 -2.159319 0.18953052 2.3670075 -2.3146248 3.8313534 -1.3190103 0.4862079 1.1380024 0.69077235 -3.3867812 1.1450258 -0.05041655 0.22744592 -2.6211145 -1.7768989 1.7324929 2.676057 -1.8896035 -1.1809094 -3.0646648 -0.27525288 3.3680897 -2.8212454 -2.0293489 2.0916195 0.19803794 -1.3224546 0.98335147 -1.2269945 -2.126471 -2.231817 -1.320861 0.19612157 1.2108499 0.581846 -1.1624223 -2.5336497 1.82164 -2.3762498 -2.4199328 -3.053298 -4.6216073 2.5289805 1.562679 -1.1187743 -1.1097604 0.03115863 -0.9056777 -0.7027109 1.6023957 -1.6178141 0.06034207 1.7580948 1.2166884 2.1003723 -0.7092595 1.4437187 -1.127732 -3.5584824 3.3985531 0.038209636 -1.8178076 -0.759829 2.6092308 -0.21490806 0.42863613 -1.5949221 0.7106036 2.7958844 -3.7038565 -1.1112468 0.7970868 -2.901815 -0.9731316 4.075413 -1.754814 -0.75387526 2.5385458 -0.7375349 0.09535161 -3.7520087 2.7480009 0.88335603 3.4232597 -2.1344826 -1.1983787 -1.2119865 -0.94498086 -0.34401873 -3.2347224 -1.0413617 0.79357684 -5.051834
M038 -1.8262256 -0.60426164 2.0173626 -1.4651815 1.049441 -1.9722492 0.03340509 0.23712215 -1.5663005 -0.5418195 1.5436722 -0.37792462 0.84094256 -0.21699871 -1.1312952 -0.040030304 -1.0438579 0.6047895 -0.35928366 -1.0459083 1.0081904 -0.09735658 0.5240135 -4.1153398 0.32195058 1.8154175 -0.79589385 -0.7825246 0.44325343 -2.7826493 0.17291148 -2.243595 -0.18596989 -0.21347629 -0.35321864 -1.8477193 -1.0218729 -0.48795217 0.764164 -2.3143866 0.29269364 2.8341222 -0.0061656344 1.8528724 1.3630373 -0.46215758 -0.6344117 -0.66480464 0.8359463 -2.5242057 1.6915438 -2.727736 1.3167632 -2.2883816 -1.2978727 -0.16645491 0.55884326 0.31598917 0.5984393 0.8318426 0.4494774 1.8286588 -0.85657734 0.22376044 -0.43223852 -3.2241492 2.6725812 -0.7706499 -0.52529734 0.90377825 0.28910738 1.9846307 1.7464803 -3.2850275 0.4619768 0.3766598 2.9567316 1.2707217 1.1077248 0.032208167 -0.3551897 1.6262988 0.018707005 1.9699173 4.2821727 3.303871 -0.26880893 -1.1091766 -0.3068885 0.8136475 -0.57052124 -0.3909177 0.22775702 2.3813615 0.28885654 -0.83183235 1.8346107 1.4594362 2.28741 3.374223 1.6874919 0.7607307 -1.2660393 0.37201467 2.0268612 1.9766153 -0.09650285 -0.7458407 1.0102872 1.8039106 0.22258139 -1.2218553 0.33840337 -0.1978528 -0.88589287 -2.0441382 0.31315702 2.1765356 -1.9167377 1.6296332 0.81349885 -0.8961118 0.67509264 2.0079255 0.5939574 -0.56392056 -2.01168 -1.2830956
M048 -1.1899593 -1.384797 -0.09981974 -1.0837985 2.789767 0.04508088 -1.1672605 -1.433409 -0.25800794 0.12509845 -1.9626883 -1.30447 0.0063808598 -3.164387 -1.7136315 0.17307648 -2.4078286 -3.3466673 -0.7831717 0.7577356 0.6470513 0.6314913 -3.4473534 0.8887434 1.6716847 2.2396216 1.2273097 0.8319499 0.833737 -2.0016966 -3.0279002 -1.2864524 -2.2360184 2.018226 -1.1284332 -0.095924646 0.010781684 -1.888172 -2.6570272 1.2257842 0.8368326 -0.19217104 -1.1699946 0.4339738 0.3489985 -0.53344756 0.6376571 2.473939 -3.7469513 1.0087491 2.4708793 0.02796062 -2.0744047 -1.2219939 1.0916682 -0.95493305 0.63697195 -1.9523523 1.3200983 4.2280703 -1.3891551 -0.06109153 -0.009835819 -2.6205928 -0.6127493 2.2777722 -0.7986814 2.7196665 -2.2986054 0.3311702 2.5401433 2.5115547 -1.1082735 1.7885367 -2.046855 -2.7571473 0.99293363 1.8411562 1.4207089 0.64807445 -0.25625545 1.9785013 -1.8902837 -1.6933603 -3.8227303 0.015890181 -2.735693 -1.8466811 -0.045465004 -0.3781296 -1.8046082 -0.17484689 -2.076828 0.17930979 0.28324303 -0.42771772 2.38508 -0.8031001 0.35722432 -0.43082586 -0.010070078 -2.0868566 3.1508632 1.5105783 -2.2480986 1.1345624 -1.2195433 0.8160305 2.4879572 -1.855085 0.59638196 -1.1644528 -0.7749956 3.20957 2.621474 2.4431567 3.6296718 1.64641 -1.187379 -2.26011 -1.0994172 3.7662225 2.104961 -1.4282144 -1.3679104 -0.15318823 2.226163 -1.3834223
M059 -0.80776954 -0.97314376 -0.18313861 0.043756068 1.3281943 0.46144846 -0.44983014 0.20792009 1.7352782 2.4227417 1.3421972 -0.62516356 1.0631076 0.3582307 -0.46385506 1.089196 -1.5012946 1.1791601 1.5300645 -1.3773824 1.4706516 -2.4036918 -2.1111743 0.31742227 0.50966203 -0.36041415 0.70842654 0.79144543 0.86449593 1.358186 0.45277584 0.5868707 -0.43177786 0.45789823 0.9852259 -1.4945699 -1.0357307 0.9272136 0.6673484 0.11692375 -0.6242964 -1.4136993 0.51413673 -0.21767361 2.4738972 1.7453113 -0.527669 -1.4156655 0.5984508 1.0002759 -0.069176696 -1.0041337 -1.4753072 0.9606095 0.5834126 -3.066458 -0.03030997 0.86243564 1.6832731 1.67767 1.9302138 0.24269283 -1.774152 0.021780992 0.1931786 -2.9894392 -0.12829807 -0.18585761 -0.030121831 -1.8702011 -1.0176377 1.0956588 0.7076479 -1.6767663 -1.4618907 -0.06344633 -1.0250585 0.83740824 -0.508769 -0.28075877 -1.5072626 -0.06972357 -0.37108386 -0.42643735 2.075867 -0.23660296 -0.59952104 0.36438403 2.0320814 0.91146076 0.45449358 0.7127722 1.0085785 0.059996873 0.34913832 -1.3042667 0.76478523 0.4050777 -0.98908263 -0.91829497 -0.7134497 -0.086368196 -0.75198215 2.114914 -1.1155113 -1.3901178 -1.5050571 0.86341166 -0.027333988 -0.6074345 1.6532693 -1.7241547 1.7213982 0.82427144 1.6740191 -0.97071284 -0.083332986 -0.36259577 1.5394949 1.3055878 1.0260487 -0.35946053 2.970325 1.6479983 1.4793695 -1.0750728 0.7989296 0.95344657
6(N14) -0.2811665 0.762945 2.9587398 -0.5709342 0.46351966 -1.4943751 0.8741552 -1.4777341 1.1233442 -0.3165562 1.9257251 4.2105055 -1.7376995 2.176168 -1.5469733 0.59732944 0.49167433 -1.3074808 -0.55816656 -1.3473438 -0.11857239 1.0601134 3.0404909 1.2915722 1.6501316 -1.0827581 -1.7601991 -1.5634161 0.0322025 -0.051038593 0.27076715 2.206228 0.99736345 0.33737233 -0.8734831 -1.4730203 -0.3379374 -3.0696638 0.7630923 -1.6751133 3.7607024 -0.30856293 1.2578759 -1.8528938 0.14639655 -0.51652396 -2.2081 -0.40828645 0.9784117 -0.7017398 -1.9238511 -0.04671121 -2.9122396 3.5902567 2.350772 0.45656106 -1.2303401 1.1220325 0.45667294 -1.1535637 -3.618999 4.9527555 0.7905373 -0.030260185 -3.9223254 -0.867864 0.60378426 0.57156575 -0.16463599 -1.9345622 -0.8517015 -1.9797753 2.6316938 1.3236116 1.0161017 1.999474 -2.1303542 -1.0610789 0.35957292 -2.0514538 1.3787624 -0.7535927 -0.4574116 2.5886688 -0.8558752 0.44630387 -2.7063026 -1.1812228 -0.4205409 -1.6957401 -0.285593 1.3908217 2.2319715 1.761458 0.9835925 1.2813014 -1.0042651 -0.10052471 0.051970117 -0.4085926 -1.344162 0.5199683 -1.4752814 1.2569166 0.6226655 0.057206947 -0.54251695 0.51792973 -0.2892483 1.6090692 0.77855086 1.9501959 0.9952744 -1.069797 0.81099766 2.738064 1.1933447 -3.0379088 -0.817313 1.8190242 -0.772203 0.88169473 1.4540082 -1.0276128 -0.8725113 1.4433912 -1.760743 -2.9790103
M010 0.25116542 -0.3523284 -1.468451 -1.3929026 2.0128832 2.0606606 -0.3328483 -0.7453307 2.1223156 1.8678317 0.44078863 0.71730775 -1.2238476 -0.20502308 0.897855 -0.583354 2.0501382 0.7469514 -0.712283 -0.2127576 -0.19158919 -1.8208135 -0.07952364 -1.6585917 1.0062038 1.2036915 -0.5877325 -1.2553767 -0.51816106 1.7665117 1.498017 -1.1965988 -1.2001578 -1.0909648 -1.6880889 -0.3878245 -2.6034896 -0.9178768 0.08276785 -0.051896777 0.44414586 1.207425 0.36574572 0.096540585 2.8046012 0.43672732 -1.916667 2.7084653 -0.2505851 2.2082663 -1.3308125 -0.13158602 0.722233 -0.2446157 -1.7127664 1.1307646 -0.3601428 2.1260285 -0.5462556 0.039587867 0.74117 -0.2172977 0.20043586 2.280648 -2.4331388 0.8043035 -0.9915731 -0.44577006 -0.33169815 0.39308816 -0.6782957 -1.9173322 -0.49261686 -0.5591116 -0.4864985 0.3155395 -1.5437595 0.4986695 -2.2446368 0.13824545 1.7302629 -0.54820216 0.38552433 0.2136396 0.05128818 -0.23575497 -0.20521703 -1.319194 1.258645 1.6834402 0.61609197 0.18639 -0.12522225 1.7914488 0.15267111 -0.8023979 0.73316944 4.033604 -1.3726302 -0.7289201 0.6558797 2.5771906 -2.2029467 1.7798119 0.79015154 -1.6237978 1.6668131 0.06504423 -0.79372346 0.85386354 -0.63523877 -1.0396237 -1.4997716 1.7755591 -0.47250772 -0.17633544 -0.5065471 -1.2743845 -1.2396756 0.24695583 0.027443985 1.1820309 0.43924078 -0.39220345 0.9119419 -0.5796806 -0.17775774 1.4474877
9(N01) -0.765883 -0.016464325 1.3049577 0.7076996 -1.4709136 1.1985207 -0.23882383 0.4097639 -2.632847 -2.5317147 -0.5626906 -1.5972505 -2.2139912 0.81820536 -0.30501226 -0.7382097 -1.8043803 2.4613204 1.4209647 -2.2802439 -0.5036244 0.7984743 0.19071157 -1.7083064 -0.6515807 0.29436904 -1.8822546 2.084293 -1.3967886 0.9241214 1.7688134 1.2930665 0.41021279 -0.4744292 0.4626909 2.0290544 -0.061692197 0.83358276 -2.0576892 -1.2221448 -2.107451 -0.6363191 1.4261365 1.0778841 -1.0107057 -1.1646081 -0.7679365 -0.05391992 2.222742 -1.6243227 -0.81459004 -0.38612312 0.49169216 0.31153783 -0.42190215 1.8093439 1.1284742 -1.4042898 -1.2259486 -1.2283797 1.3838663 -2.166225 -0.71757394 0.4872316 0.328511 -1.2634803 1.0689368 -0.64470094 -0.2856794 -1.2892398 -0.32197556 -1.0813941 -0.431562 -2.1605241 -0.7995609 -1.3824658 -0.99678975 2.5462549 1.7371491 1.1285667 0.25425735 -2.3353934 0.07260916 0.21305476 -0.033377133 -0.89792025 2.5058758 0.79125714 0.6385926 0.9717968 0.21240468 -0.31980518 0.60844934 -0.7459073 1.0992239 0.027987566 1.0510613 -1.7885326 -1.118397 2.7563803 0.17056932 -0.857773 -0.16450636 -0.44443807 0.51644415 -0.81745213 1.1724327 1.6639235 -0.96909267 -0.5911088 -0.301409 -1.3490212 -0.7880048 -0.06254419 0.0089242095 -2.7758875 1.3932532 0.5374193 -1.1851057 -0.02897526 2.0189264 -0.63931876 -0.099741265 1.8373562 -1.8948836 0.5391372 1.8923602 -0.86090297
M386 2.5417173 1.8496013 -0.3210878 1.1182187 1.9694601 -1.2856301 -0.38540068 1.7904572 1.3005567 0.5822283 0.21315151 -3.3313565 -1.7566758 -1.0003208 -2.5814898 -2.3411732 1.3274878 0.95445865 0.35935223 3.3958886 -1.2285297 -1.4398818 -1.6678207 -0.9159969 2.001761 -2.591855 2.779409 1.8175268 0.2930532 -1.4413406 -0.9295208 0.4469503 1.8424016 0.295259 -1.2075794 -1.5497614 -0.60028553 -4.0799723 0.037807245 2.4986155 1.9398006 1.2394422 -1.8398018 -1.6126081 -2.4624372 -5.353681 0.8370029 2.4080322 -1.8079414 2.0291145 2.858798 0.29635966 -0.015926752 -1.1723816 2.2392464 -1.4338118 -0.23417498 -2.8576696 0.69919175 0.3500068 2.8846786 -1.1642164 -1.3915713 -0.15972963 0.72314954 -1.0263448 -1.1912866 0.09872335 0.3477032 -1.3125342 1.1346296 -0.9792077 1.0290293 2.7131631 -2.7848575 -1.3180631 1.5762147 -1.0361506 -3.1061447 -1.0550369 0.47588646 2.197962 0.98806 -1.6294839 -2.2141352 0.41970855 -0.24541502 -1.0669599 -0.5005878 1.0312945 0.39600614 -2.8805635 -3.191662 -2.1197681 2.66546 -2.0116415 -0.8148795 0.9678523 0.48466483 3.0752022 1.241005 -0.46912092 -2.2380693 1.507 0.8415642 -0.41076714 2.133532 1.271378 1.3625764 -0.32017663 0.5392061 1.8083327 1.0297719 1.2043505 -0.8365489 -1.4162716 -0.3157301 -1.3177475 2.2760282 -0.21183963 -3.187457 3.1572065 1.1953566 -1.2928345 -2.1442118 -1.7475475 0.6295057 -2.177051
M262 -2.3840916 -0.26805153 -1.7114998 -2.0401933 -1.5281522 1.1254514 1.4598851 1.4769757 -0.6575238 1.0600283 -3.5401068 -0.15105884 -2.2612488 -2.184981 0.26754364 -0.8471859 0.7855431 4.1256514 1.3146807 0.66853005 0.34400463 -0.09023381 1.0247228 1.9186001 0.8004984 0.2403108 0.49793577 0.053560942 -1.4702499 -1.6407504 0.6192144 -0.85771054 3.2502878 2.7195942 2.236111 -1.2898722 -1.6181811 -0.022150071 2.0560386 0.6993698 -1.4455502 -1.256599 1.9226348 0.13409355 -2.322404 1.3580004 1.3946575 0.5842925 0.5215016 0.3312404 2.584784 0.38902965 -1.3498971 -0.7134654 1.9586864 -1.617981 3.0938752 -2.1727295 -3.3106396 1.4208393 -0.33673286 -3.1010315 -0.260913 1.636324 2.1862717 3.3769152 0.91274035 1.3822924 -1.5229954 -0.31839097 0.61010385 3.3430965 1.2376882 -0.77290046 0.5604403 -1.0505008 0.3329256 0.045243785 -2.0729332 1.0087595 -4.604501 0.3942313 -1.6842353 0.34890935 -1.3799919 2.385695 -1.3984064 0.3752652 3.500483 -2.0743592 2.1486812 1.5007913 3.7848313 0.59262925 -2.6823015 -2.2257283 0.7318388 2.4590425 -0.8106496 1.091082 -3.5037143 0.97760934 -1.1125329 -0.9150489 2.171176 -0.9901428 0.29772356 -1.8253845 0.33840385 0.86388993 1.4619819 1.3795131 -3.1044655 -2.6294286 0.3345333 0.6253287 -1.5937297 0.16140267 -1.1108409 -1.4009547 -1.0610217 1.9481078 2.4378314 2.064122 -1.2490197 -1.7776773 -1.4833953 1.0559727
M373 -1.6188102 -0.10689811 0.19353668 1.035267 1.2346555 1.42387 0.10674259 1.2824202 1.416005 -0.17734097 -0.48216107 -0.05414043 -0.26061192 2.1358063 1.7134961 -0.7671114 0.9036431 -1.070599 -0.8614691 0.84973127 -0.33820298 -0.63565737 0.6904229 -1.7401757 -1.5308291 -0.7608659 1.2416189 -0.5068803 -1.6667969 1.4484197 0.44073272 -2.5160732 -0.7121936 -1.0498741 0.6605711 1.11406 1.6183999 -0.32739577 -1.1713307 -1.3363912 0.69156605 2.4586592 0.09714981 0.20727554 2.2839642 -1.9451799 0.16124211 -0.8333124 0.06895787 -2.6945736 1.7125689 -1.3335563 -0.45100114 -0.6276146 -0.92363185 -0.630151 0.8054234 -1.1979859 -1.6543068 2.0788066 0.5206596 -0.54769725 -0.13695899 -1.2758372 1.204438 -2.1852677 0.021841496 -0.1379086 -2.5403175 0.577171 1.5080674 2.0366735 0.15814771 0.8782992 -0.01921881 -1.2220474 -2.0020642 1.0003431 0.7885305 0.7246571 -1.6926198 -4.4250474 -1.1252656 -0.24158956 1.4371405 -2.6429532 0.3140339 1.7327172 0.8344134 2.75344 -2.0196855 -1.9023341 0.6853923 -0.6478488 0.5721111 0.019582571 -1.2428832 -2.0169778 -1.9375521 -0.28817648 -0.08978917 1.1370728 -1.561197 0.028064 -0.34560937 3.3228061 1.4069303 0.8791945 0.053069875 -0.12303417 -0.9620832 1.1891876 -0.90651613 -0.16635123 2.429588 2.0508053 -0.08943378 2.231986 -2.2656803 -1.3439245 -0.94281065 2.3749652 -1.3343039 -1.7640562 -0.36149675 -0.94059634 0.5163191 -0.06799704
M102 0.68549806 1.1582439 -2.3860304 -1.7063719 -2.5916688 3.2164304 -0.35410267 0.54321903 -2.8554056 3.3635986 0.018134905 -0.81935006 -3.030654 1.4165535 -0.82042 1.0935473 -0.4908515 -1.0845904 -3.2666168 1.8017148 -1.6276363 0.47271994 0.9157148 1.7775378 0.7874907 -0.9521573 2.813594 0.86305207 -1.3855389 -0.4197235 -0.975436 -0.61288667 1.1707647 1.8944361 0.32750574 2.306876 -1.3403274 0.89191324 -1.5359815 -0.0050417143 -0.45296857 -0.4590787 -0.24328142 -0.6405785 0.30032355 -0.48723838 0.4567185 1.1495829 -0.3893887 0.5683726 3.3111284 0.0988387 -1.2705435 0.2227165 -1.7022653 2.924674 -0.015683709 3.2892282 0.06909978 1.900199 -0.35844597 0.24084324 0.45162138 -0.3070279 -0.4268566 -0.971547 -1.017362 -2.8032968 -0.91421986 3.3894682 1.2586999 1.0849706 -1.9635313 1.6131254 -1.1243972 -0.98417395 -1.4959811 -0.45065007 -0.91533107 1.9431401 -0.6694499 -0.46650967 -1.2035096 -3.1311936 -0.49178505 1.8943701 1.5003388 0.51199466 -0.11109207 0.36081764 0.32884154 1.3754203 0.18579233 1.4636432 -0.4729273 0.0022855797 1.2915422 -0.18888064 4.532541 -2.3595145 -0.06922547 1.784341 3.2281394 2.2482853 -0.49838766 -1.5910258 -0.5927035 -0.04401188 1.2750125 1.1637461 0.9970505 1.9312648 -1.0290395 -2.7077878 0.69783115 0.1910582 3.7903168 -2.3696227 1.6875566 0.23206234 -0.52774173 -0.035329506 2.4308867 -3.1414046 0.4808687 -1.2711996 -0.6059334 1.8218501
M259 3.870939 0.75417405 -3.027684 -1.1481274 1.430055 -0.6545143 2.6998692 1.9596163 0.1467809 0.61830693 -0.8638086 -1.6253392 -0.38032362 -1.0043523 1.0170902 0.6889761 -1.2774229 -2.4691653 -1.2917202 2.848501 -3.8064 -0.16467334 -2.6247747 -0.8571054 -2.3048253 -1.9358155 -1.5018088 2.967409 0.9825819 1.3384112 -1.3208466 1.0180352 -3.0379784 -0.43609837 -3.6425292 1.0199659 3.6003475 2.0127869 -0.25636813 -0.44386464 -2.2391722 1.0265353 -0.57478505 -5.0566316 -1.9469651 1.7112123 3.5143073 -1.6954241 -3.1697357 -3.525163 1.1514295 -1.6870475 2.8773737 1.8049244 -2.8305392 1.7717469 -1.6542536 -0.771577 -1.753978 4.3652663 0.6859126 -0.058491107 1.6501733 -1.2784848 -1.6143416 -1.9270662 0.6862811 0.0884425 -1.7314292 0.5351128 -0.4074507 1.5058837 -1.9980022 -1.6412388 1.9497348 -3.7888763 0.07032251 -0.35233223 0.83017486 0.63740283 0.5574608 3.535674 -0.34801152 -3.625486 0.9098934 -2.7268035 1.2414268 2.9134538 -1.2293313 2.8125927 -1.8151517 -0.96804595 0.9775653 -2.245954 3.7012846 1.4297696 -2.270599 -0.803671 0.4789725 0.9729895 -0.8097341 0.66214323 2.215595 -1.3106483 -2.092297 1.5061523 1.3258048 1.269976 2.0865123 0.9815085 -1.158056 3.497758 1.468325 -0.11198903 0.611704 1.8861201 -0.5846638 0.08034417 -0.59922194 -2.0629697 -0.9271505 2.5266516 1.8127385 -1.1407703 1.2277862 -0.8934438 2.1871307 0.1076048
M203 2.2086823 -0.2270025 -0.33866292 0.7731515 -4.052737 0.0054049706 1.8564476 0.49627432 1.2223235 -1.1960188 -0.55645794 -0.5550225 1.1670738 0.13750467 -0.3599239 1.4825491 -3.3406377 2.4960883 -1.0477773 -1.6657367 0.53054225 0.78563595 -0.1540895 -1.493867 -0.81207675 -0.9480741 -0.37254143 0.96410835 -0.06263845 -0.5963028 -0.6906414 -0.36883757 -1.576977 1.1384532 -0.801491 0.20535892 1.276131 0.6989029 0.8659631 0.49496454 0.13018109 -0.19073226 1.0809392 -0.8261032 -0.08688966 -0.65807277 0.6666977 0.37299874 1.0504439 -0.58896184 0.16486472 2.814741 0.62640595 -0.7756572 0.45060143 -0.1414384 1.9052249 0.31480035 2.0433686 0.08429143 2.346523 0.80516434 -0.5868521 0.33846766 0.010427571 -2.2634673 2.623551 -2.0472841 0.39167717 -0.4686576 0.77037764 0.6471837 0.8038127 -0.44574115 0.3906259 0.56547225 3.9518478 -0.9716 -1.6236985 1.5898 0.66822815 0.20426658 -0.49337992 0.54003423 -1.5727947 1.3663554 -0.43249694 0.23743308 -0.17790687 1.3337436 -0.15771544 2.9322748 -0.42448762 -1.7809843 0.22696729 1.2617306 -3.3301723 -1.5215738 0.07308491 1.4176881 1.5633112 0.99863255 1.1305937 1.82433 2.0391412 -1.9443591 -0.69386744 0.77408326 0.07695627 0.5954095 -0.9241661 1.9448763 -0.68723494 1.1105804 -0.1543168 -1.2063007 -1.0175397 0.016703207 0.6535013 -0.0076707983 0.93030536 -1.9144417 0.664794 2.1060126 1.5715766 1.2057555 -1.5827398 1.8859347
