530 16
UNK -0.22236721 -0.09279199 -0.2804801 -0.18467979 -0.4068043 -0.026573619 -0.21902257 0.27458823 0.030623434 0.175225 -0.38364273 0.033454854 0.3075264 0.14043853 -0.22738849 -0.35832384
1(N01) -0.2886374 -0.12791614 -0.6221358 -0.17267305 -0.4093909 -0.14269443 -0.49637428 0.6866572 -0.19010352 0.26438138 -0.31359583 0.13132402 0.19660002 0.19906448 -0.12582304 -0.5557744
2(N01) -0.28731373 -0.14668341 -0.4028462 -0.021104055 -0.48300397 -0.1707169 -0.40233642 0.5956282 -0.058197197 0.2582939 -0.37605375 -0.09343679 0.34503034 0.064963914 -0.2587022 -0.5111388
1(N14) -0.2613747 0.21642658 -0.30080056 -0.12724526 -0.30725214 0.026527949 -0.21183029 0.569633 -0.13269185 -0.13344932 -0.4893491 -0.21324249 0.6302447 -0.2558219 -0.35205787 -0.28671658
M288 -0.2417149 -0.2776582 0.08835604 -0.31112596 -0.44392166 0.1675318 -0.17972042 -0.10150681 0.37579387 0.23475319 -0.46244967 0.17357193 0.66830367 0.27274477 -0.20406894 -0.3743184
3(N01) -0.39136288 -0.34446448 -0.25000435 -0.12137989 -0.5031646 -0.07541726 -0.46425492 0.5002178 -0.07512337 0.3089946 -0.40252414 -0.12752622 0.48308286 0.066920415 -0.13967726 -0.45980477
M388 -0.19406424 0.24276492 -0.4423174 -0.46597117 -0.32851562 -0.1883323 -0.8123377 0.15864351 0.15128334 0.13542889 -0.3800262 -0.095480405 0.22890458 0.048294935 -0.4889289 -0.5031427
1(N24) -0.07850407 -0.41588512 0.123138756 0.03293746 -0.861342 0.6386279 0.45692804 0.35919 0.026268316 0.44248623 -0.6376912 0.43883786 0.2665964 0.57960224 -0.48587433 -0.21851444
M218 0.057630498 0.0060725897 -0.6472338 -0.4986884 -0.2701237 -0.09227331 -0.43182382 0.10381165 0.34400895 0.08336172 -0.28803578 0.34563288 0.13338651 -0.018857291 -0.32366014 -0.92413616
M387 0.06426172 0.10617746 -0.21149054 -0.19857258 -0.45670635 -0.06482082 -0.41111436 0.40431106 -0.049427617 0.08728167 -0.27263844 -0.08542688 0.082069434 0.364743 -0.68414325 -0.34645224
4(N01) -0.43673646 -0.20057485 -0.14290218 0.08534101 -0.66915816 -0.06713356 -0.41191155 0.55249757 0.15434772 0.24011618 -0.36802402 -0.35633993 0.43959084 0.07776176 -0.13014746 -0.461886
1(N39B) -0.22571504 -0.22896725 0.08882885 0.049056176 -0.68731105 0.23668699 0.25885454 0.60979503 0.29802126 0.689429 -0.56572646 0.4743955 0.18015292 0.6260158 -0.15894453 -0.36384854
2(N39B) -0.26577884 -0.40150547 0.033452593 0.02515138 -0.72193086 0.38232216 0.35296908 0.084899016 0.046464216 0.49423188 -0.7211956 0.2651453 0.26323453 0.45416656 -0.2773824 -0.370708
5(N01) -0.2048345 -0.12181611 -0.015558569 -0.15370971 -0.761235 -0.13708337 -0.20830761 0.6133309 -0.33344653 0.52924556 -0.55602276 -0.479648 0.5431468 -0.17618854 -0.057724774 -0.44920626
M297 -0.031002218 -0.1870918 -0.15808585 0.066388 -0.49179286 0.33546898 0.19355707 0.17527685 0.06668826 0.08769301 -0.6773625 0.3653239 0.22720392 0.5359688 -0.37307218 -0.45827597
M263 -0.06299089 0.036785815 -0.47444814 -0.8326196 0.051180653 -0.31358662 -0.5265803 0.06298166 0.3103644 0.06668482 -0.10951764 0.09728718 -0.043530278 0.51460576 -0.63293904 -0.871971
2(N14) -0.26921615 0.12438058 -0.28904414 0.14941444 -0.24230969 0.3183506 -0.1238335 0.5355896 -0.07452571 -0.39553666 -0.29589275 -0.19494398 1.101421 -0.29130363 -0.60334915 -0.32508272
M157 0.07456098 -0.39038906 0.012378608 -0.23248747 -0.40383062 -0.06591125 -0.25708506 0.36452562 0.35071325 -0.08990378 -0.12720023 -0.07035824 0.7575412 0.022963732 0.25242263 -1.013363
M371 0.33323622 0.5849194 -0.66389817 -0.84240955 0.10767626 0.010757566 -0.45348117 0.54259557 0.19055647 0.0023316792 -0.81685954 -0.050009824 0.17119275 0.27683577 -0.11338158 -0.22811857
1(N30C) 0.0035060986 -0.497614 0.0067083747 0.069415525 -0.8416201 0.5128901 0.62080204 0.6341734 0.15467224 0.7787753 -0.9023256 0.42053434 0.2699292 0.6223305 -0.7414998 -0.13185096
M124 -0.1001028 -0.091267884 -1.0488493 -0.4647495 -0.06076313 0.0023843187 -0.22195253 0.4823921 0.2697864 0.4131464 -0.19608435 0.2865789 0.034465153 0.5580562 0.3085203 -0.7124626
M054 -0.41279545 0.22918385 -0.19385874 -1.1320916 0.047714222 0.22502616 -0.5376058 0.5368849 -0.44810283 0.83013254 0.07341621 -0.66360456 0.16838267 -0.041049834 -0.5584469 -0.009754932
M346 -0.72252864 -0.17123514 -0.44751552 -0.47872788 0.06817213 0.20893064 -0.30162555 0.3233312 0.38151875 -0.13315499 -0.11542381 -0.7070541 0.00893538 0.28518108 -0.5236503 -0.23899995
M066 -0.2783527 0.3235572 -0.8654249 -0.40412968 -0.63703823 -0.02076845 -0.44904512 -0.25446567 0.19110835 -0.15341061 -0.16286002 0.3468331 -0.08420527 0.0023900168 -0.5060326 -0.90878946
2(N30C) -0.124458954 -0.46176186 -0.016275845 0.17550892 -1.153519 0.517781 0.4961564 0.5684428 0.037978683 0.72780025 -0.60176593 0.3710592 0.10421217 0.6942477 -0.5282926 -0.23627517
M009 0.028063595 0.499832 -0.87621665 -0.7308815 0.039955113 -0.18677746 -0.026386946 0.83951706 0.23285694 -0.6965933 -0.46015784 -0.41626132 0.043197468 0.5214032 -0.09068577 -0.20437647
3(N39B) -0.13610329 -0.38705495 0.20657301 -0.12149745 -0.59072024 0.45923278 0.03797633 0.14466782 0.1770192 0.39875337 -0.5457637 0.27826637 0.24672735 0.7012348 -0.46079478 -0.25070092
M096 0.12773556 0.22968847 -0.64696926 -1.0288782 -0.75530654 -0.07715744 -0.6402587 -0.019793775 -0.024452796 0.31666982 -0.27293164 0.47689563 0.33307073 -0.10623596 0.11889736 -0.49986222
6(N01) -0.69533926 0.22421952 -0.17395702 0.059782606 -0.81058335 -0.43119714 -0.77975 0.76997626 -0.36297244 0.30992478 -0.24849108 -1.1964844 0.4972786 -0.040589742 -0.13969602 -0.8624427
M376 -0.572265 0.39187542 -0.8458949 -0.72434986 1.1696676 0.9351971 -0.62575233 0.15996017 -0.4129258 0.3415678 -0.15110216 -0.84286267 0.81750166 1.7680117 0.7505688 -0.8353537
1(N34) 0.16446556 -0.16850215 0.51900166 0.19836713 -0.83711654 0.7064352 -0.61990255 0.23844075 0.38260457 0.38821372 -0.24437843 -0.7378377 1.1212076 -0.018056693 -0.343837 -0.46767542
1(N30D) -0.3539927 -0.6650373 0.014846269 -0.085567445 -0.8785615 0.9200207 0.6844014 0.73810846 -0.010052725 0.76013255 -0.62381434 0.38443246 0.36960885 0.9095378 -0.71173424 0.26107994
3(N14) -0.121068485 0.20822941 -0.16569257 -0.14156304 -0.1136558 0.41829455 -0.32614428 0.6766802 -0.13473086 -0.30006543 -0.25836787 -0.009502414 1.2167746 -0.37572724 -0.5297987 -0.25104976
M057 -0.13558325 0.18615955 -0.7940355 -0.37371418 -0.5382637 -0.37772223 -0.35018808 -0.17031404 0.05605912 0.14756082 -0.021816595 -0.25801125 0.07598551 0.13155702 -0.5371421 -0.7963765
4(N14) -0.041168556 0.68726724 -0.3703635 0.4160443 -0.22178952 1.0385264 0.14720984 0.65860236 0.16423315 -0.36354297 -0.49349865 -0.48892364 1.7476565 -0.7559076 -0.7054356 -0.11476685
M367 -2.033819 0.15235624 -1.2169844 -1.8067123 -0.61994547 1.2063419 0.11794718 -0.18841632 0.7872748 0.043416858 0.5340281 -1.2088698 -0.5755297 -0.023156745 -0.41357467 0.7063951
M001 -0.034455355 -0.17257205 -0.5584026 -0.21019547 -0.6240088 0.66766053 -0.7202754 0.15146196 0.2763531 -0.2595086 -0.085991174 -0.46280238 0.28508916 0.27045888 -0.4156498 0.039355583
M305 -0.10260552 0.32791427 -0.77021265 -0.056117307 -0.38666058 0.6141246 -0.39932373 0.21714264 0.08514623 0.31227508 0.25735945 0.48435575 0.27088004 -0.15095103 -0.88693494 -0.5147156
M036 0.6329747 0.29027697 0.38915855 -0.9630288 0.0663268 0.2689731 1.4712138 0.9824455 0.7252363 -0.5232306 -1.2629129 0.20399155 0.14745113 0.28837502 -1.5527298 -0.121852614
M370 0.118916415 1.8892533 -1.9741404 0.21076572 1.5494988 1.6906883 1.2079796 1.236072 -0.8919787 -0.3571995 -0.21001312 0.3297599 0.26781574 0.31531438 -0.5443312 -1.8389385
M032 -0.5521977 -0.29197127 -0.5011507 -0.7439601 0.21488164 -0.30432284 -0.25162315 0.12920672 0.5183154 -0.5821863 0.22474942 -0.19643998 0.9946521 0.10413887 -0.09881759 -0.95050085
1(N45) -0.72709626 -0.43527424 0.56787735 -0.5575897 -0.19496125 0.8461147 0.22536229 -0.30739003 0.4632403 0.12659788 -0.9705983 -0.031774536 1.1772504 0.65649503 -0.0016620498 -0.20403764
8(N01) -0.6322481 -0.43074316 -0.3354802 -0.299406 -0.28978884 -0.2540671 -0.74478835 0.98709106 0.19367373 0.2625859 0.19560748 -1.0328256 0.537878 -0.17422342 -0.12062033 -0.8266736
7(N01) -0.7040567 0.09144249 -0.5935684 -0.522876 -0.81571054 0.06957092 -0.47162142 0.57491297 -0.75029516 -0.066914804 -0.46872965 -0.9195121 0.3517462 -0.33381733 0.50218767 -0.47892094
M003 0.04805351 -0.1686044 -1.1255404 -1.2396297 -0.11093695 -0.4174016 -0.027625853 0.43346873 -0.21970436 0.46238488 0.21435449 -0.82477266 -0.26934713 0.05585539 -0.564444 -0.32093713
M004 -0.0538813 0.63578594 -1.2613043 -0.3765479 0.35174972 0.09898827 -0.23710562 0.1546117 0.9170542 -0.40649977 -0.09701389 0.06084892 0.20507416 0.106071435 -0.4088032 -1.1614397
M377 0.18903287 0.7581631 -0.11924152 -0.9014027 -0.35646632 -0.112108104 -0.4599291 0.40963656 0.574692 0.5943475 -0.3562378 0.45937872 0.5543584 0.1184057 -0.25328195 -0.25058624
M354 -2.089956 1.1262227 1.8595409 -3.1425633 -0.73058885 -0.14089416 1.4385213 0.80916715 1.7654951 0.31169185 0.9776437 -0.9935103 -0.4477215 0.6954906 -3.1377144 0.7499823
4(N39B) 0.017312603 -0.66012174 -0.1431057 -0.007945911 -0.5520695 0.823681 0.24236888 0.25417098 0.08429037 0.35371032 -0.4625314 0.46207985 0.46559218 0.4808983 -0.5505456 -0.20204496
M352 -0.16247828 0.1631336 -0.60937476 -0.64020354 -0.19587591 0.2683816 -0.5864184 -0.68860877 0.5142283 0.24347967 -0.123148404 0.1425387 0.09208947 0.96634257 -0.6458627 -0.43624702
5(N14) -0.3765176 0.26284888 -0.2585428 -0.21485741 -0.025247008 0.81264096 0.16379298 0.08841654 -0.543586 0.063289076 -0.4066528 -0.344182 1.4323746 -0.8346764 -0.73593146 -0.37441993
M072 -1.2819762 1.1395643 -1.0857795 -0.7468763 1.3755176 1.5011091 0.1372779 -0.09907182 0.11897084 1.3400115 -0.114420936 -0.96039295 0.25020337 2.1975965 0.24341473 -0.11580056
M036+1(N30D) -1.2054652 1.020349 1.2214866 -2.2877538 -0.44141236 0.09342656 0.68812174 0.5640993 0.7780673 -0.59460527 -0.81574696 -0.44787958 -0.32395077 0.617805 -1.9005513 0.907891
M269 2.0063605 -2.2394059 -1.2241722 -0.7941378 2.6300004 3.4271288 1.4685388 0.1745923 -1.294828 1.3967181 0.58426046 -2.0716002 0.90811855 1.1352018 -1.3170729 -2.138079
M136 0.6297936 -0.14671017 -0.32001895 -0.26107767 -1.3876532 0.9038115 -0.43080565 0.7035623 1.691813 0.029409962 0.136913 -0.5664029 -0.044512313 -0.6768417 0.43272468 -0.39093727
M206 -0.8863609 1.1008725 0.21144935 -0.07818445 0.08964111 1.3450474 -0.6072691 -0.9781596 0.43759882 0.35436895 -0.5395129 -0.8895307 0.3019263 0.8157614 0.15703103 -1.1782477
M219 0.33264735 -0.22213914 -0.48532814 -0.67495227 -0.47295368 -0.102484964 0.023399804 -0.33524504 -0.13230562 0.22420003 0.034884296 0.45419767 0.33393544 0.30710062 -0.5697239 -0.86545044
M056 -0.3606125 0.5920518 -0.4282559 -0.14000443 -2.580325 1.6605415 0.31388792 -1.2573972 1.6554368 0.29323107 1.4691219 -1.428855 2.4899936 -0.49326438 0.34687752 0.18111937
M347 0.95010936 1.1685747 0.05848598 -1.2232782 0.08495319 0.29569358 -0.3145582 0.10304298 0.711196 1.1562185 -0.75774384 0.2008121 0.1728606 -0.227727 -0.5490828 -0.7177457
M038 0.24669877 -0.26623803 -0.5967401 -0.07418869 -0.6367813 0.45425934 -0.4521384 0.30456915 0.58549327 -0.6977727 0.13678229 -0.38394785 1.1486988 0.861526 0.17023927 -0.25350073
M048 1.2829232 -0.09066371 -0.7072958 -1.658693 -0.97046703 -0.6239138 0.18027397 -0.11605264 -0.5623949 -0.05825885 -0.07953293 0.15125719 0.66730356 0.4621295 -0.20946556 -0.34295574
M059 -0.72130704 -0.08840243 -0.30215275 -0.47161356 -0.81440693 0.9909926 0.039801102 0.67432207 0.26100692 0.12730224 0.0006202799 -0.5393894 0.54577947 0.014079223 0.89760756 0.03983242
6(N14) -0.76348186 1.2461532 -0.70264274 -0.08063112 0.21799238 1.6083115 0.9110659 0.3316168 0.62481993 -0.5460359 -0.8767088 0.5640126 1.9841291 -1.2661446 -0.76636785 -0.024624364
M010 -0.7019063 -0.13938604 -0.30132693 -0.79353267 -0.8885757 0.29233554 0.9585222 -0.48914993 0.63394237 0.16470526 -0.7189826 0.4190109 0.28936824 1.114818 -0.13560571 0.25742862
9(N01) -0.21021308 -0.4226632 -0.08201892 0.29374915 -0.47080377 0.43594733 -0.13622454 0.694794 0.13784862 0.20474774 -0.6085783 -2.4585922 0.23671007 -0.3850533 0.047282152 -1.3846738
M386 0.23697858 0.26874375 -0.8315651 -0.99885005 -0.7508974 -0.21090677 0.015961811 0.21800588 -0.37008905 0.56406504 0.041494135 0.9373022 -0.06544069 0.47221455 0.43280667 -1.1719244
M262 0.013393935 0.060801893 -0.3578269 -1.6786435 -0.3895081 0.22346011 -0.30498096 -0.99555653 0.6377248 -0.5638602 -0.8630842 -0.3527911 -0.36994886 0.38149488 -1.3387994 -0.007395292
M373 0.5099751 2.1416426 -0.17835616 -4.8264074 1.7868224 -0.009628666 2.6936934 1.8882272 0.5790292 2.0082705 0.37157506 -1.2730874 -0.49816242 -2.1571257 2.5783045 -4.436196
M102 -0.9000613 0.24031425 -1.2334987 -3.2817988 1.3577873 -0.9289638 2.1143892 -0.5228103 3.9124444 -0.81189215 -0.3235172 -0.16521497 0.9571808 1.1863716 0.07653037 -0.5180679
M259 0.424336 -0.464069 -0.51669455 -0.9406975 -0.016170328 -0.29996768 0.37441543 0.005879812 0.77874804 -0.40654376 -0.39923942 0.4211009 0.09185253 0.012135883 -0.50794595 -1.2722033
M203 -0.4322901 0.23680863 -0.332045 -0.42424843 -0.1537628 1.2553433 -0.9947377 0.43924263 1.2424943 0.08281965 0.36903626 -0.6493532 -0.27942598 0.9593063 0.76086736 -0.8061832
1(N08A) -0.41370872 1.2394977 -0.5230941 -1.1916395 0.85284853 1.8169628 -0.9128812 -0.22806033 -1.4659034 -0.79398745 -0.5062563 -0.40934122 0.582946 2.695546 1.1597304 -1.1970943
M260 -0.19646205 -1.1859242 0.5360491 -3.0698192 -0.40872335 2.027514 -0.6438669 -0.02898455 0.13538143 -2.074472 0.47019508 0.3093555 -0.92711425 -0.34738243 -1.62986 -0.24407531
M106 0.2759609 -1.3686459 0.2396858 -2.1884525 -0.46912256 2.2160814 0.9060205 -0.019469816 -0.59215313 -1.0097331 -0.8646488 -0.38747597 -0.08196908 -0.8394168 -0.3812126 -0.015395345
M240 0.30897155 0.34024277 -1.0470048 -1.375078 -0.3810399 0.09210147 -0.0023576356 0.37173358 -0.13548526 0.69682187 0.45662695 0.9909795 -0.12641177 0.117799476 0.25855458 -1.3479279
M005 -0.046108104 0.16441056 0.18990046 -0.5057461 0.45290285 -0.08386234 -0.13931948 -0.10332087 0.18046084 0.6660036 -0.07471006 -0.72585803 1.2206844 0.2254891 -0.017858008 -1.2070612
M149 -0.35368484 1.0058174 0.35557956 -0.84584665 0.69533545 0.28167313 -0.6618228 0.4359005 -0.16010003 -0.555317 -0.37269488 -0.5647158 0.26745927 1.3838906 -0.0872354 -0.94263214
2(N45) -0.6252011 -0.32333353 0.78967583 -1.0195266 -0.6879031 0.54398847 0.3510384 -0.9352985 0.86051166 -0.036587838 -0.31174588 0.2724707 1.8059367 1.0251098 -0.2382754 -0.13583575
M024 0.32114166 -0.22886574 -1.1702516 -0.92201114 -0.28015715 0.6561277 -0.3639528 -0.13371299 0.21837814 -0.5481237 -1.3467468 -0.07666358 -0.44231915 1.3154334 0.428157 -0.2588886
M317 -0.8810107 -0.3064753 -0.21514168 -1.7478553 -0.04690605 0.6059726 -0.49239463 0.36047685 0.21648434 -1.1292024 -0.849847 -0.2817153 -0.85188353 0.36461696 -0.041222088 -0.27057618
M295 0.86828196 0.2553398 0.43252444 -1.2175109 -0.35306045 2.0323822 -1.3839476 -0.6340896 -0.32276213 -0.26400623 0.13570943 0.38745755 -0.7577894 0.43274423 0.24947575 -2.384157
M243 0.79868037 1.0412371 -0.41821343 -0.14330575 -0.5804542 0.98334885 0.17646357 0.4509923 -0.07170316 0.0445597 -0.06090176 1.5872504 1.0870826 0.61629546 0.031946607 -0.70645595
M111 0.16726431 1.0017301 1.4684225 -1.4383258 -0.47802752 0.34846008 -0.578096 0.7046223 0.8672446 -0.16632898 -0.37572542 0.02753013 -0.6796125 0.12614433 -1.1011443 -0.72847754
M365 -0.33528075 -0.011024505 -0.29655123 -1.1692189 0.5586436 0.1279793 0.90643597 0.8480411 0.6632527 1.4454918 -0.25308287 0.012549154 0.37152758 0.16482483 -0.13064858 -0.06487657
M153 -0.3735541 -0.16884042 -0.14864713 -0.7894417 -0.21165629 0.54342604 -0.072432846 -0.17129841 -0.29915282 0.14639826 -1.1845508 -0.52979857 -0.25202975 -0.580082 0.05739443 -0.8363902
M264 0.47143924 0.36774027 -0.48903948 -0.07747757 -0.07670299 1.0054804 -0.4729613 1.5334196 0.6592479 -0.5326608 1.3207787 -1.060393 -0.01661667 1.1401168 -1.5947016 -0.4347113
M304 -0.30379492 -0.15922463 -0.102726355 -0.36610886 -0.65359473 0.14474732 -0.0043770415 0.4066075 0.0220974 -0.04034654 0.47173262 0.22840926 0.56822926 0.12521166 -1.1798108 -0.15011442
M309 -0.31620732 0.32870424 -0.3198386 -2.3503106 0.74923795 -0.9995552 0.88131344 0.012577998 0.9596348 0.14294964 0.7187301 -0.33749664 0.9202258 1.0104157 0.2745883 -1.0267893
M146 -0.0751276 0.2305697 -0.103792556 -1.0126281 -0.3056842 0.63527864 -1.0674785 0.037120022 0.6330229 -0.08637375 0.22889903 0.018252533 -0.19164304 -0.19084148 -0.6011082 -0.6528597
M320 0.114405155 0.66825163 -0.45433104 -0.24673638 -0.812482 0.24323216 -0.5757554 -0.20544644 -0.30173957 -0.05250144 -0.35623655 -0.13968341 0.051725652 1.1716685 -0.29937208 -0.26065764
M101 -0.011209395 -0.4264313 -0.43473408 -1.8372649 0.6726292 -0.55499905 0.68116885 -0.95481557 1.0357105 0.4308547 -0.34162292 -0.2749608 0.64138937 -0.1319996 -0.7735785 -1.4479893
2(N34) 0.4064962 -0.46021402 0.5601965 -0.91571575 -1.7100928 2.7220547 -0.21984397 -1.1126113 0.034032274 0.0524816 -0.051812727 -1.2414876 1.6391464 -1.8816866 0.22487584 -0.7346667
M292 1.0283158 -0.042004574 0.20114829 -1.3876616 0.44178048 -0.5767062 -0.14341785 -0.7615544 0.46893328 -0.13727617 -0.6048543 -1.1883576 0.92622024 0.26136136 -0.739991 -1.5145048
M145 -0.30325294 1.0782949 0.7764233 -0.38880637 -0.19015004 0.91568494 -0.12011555 -0.24278292 0.675234 -0.11423287 -1.302233 -0.09456847 -0.29388326 0.43789446 0.51214373 -1.4430894
M242 0.23895538 0.30015713 -0.5428022 -1.8299756 -0.20116293 1.337138 -1.1870154 -0.3382555 -0.34068698 -0.074053414 -0.3715618 0.34805056 0.021700768 -0.10249518 0.09129899 -0.28924662
M362 -2.9004264 0.09536691 -0.43372676 -3.9852571 -1.2658778 2.324605 0.74159783 1.2203963 0.7368345 0.28214484 1.386079 -1.8820397 0.0146293845 -0.7601256 -0.39935753 1.8396055
M318 1.8065363 -0.052803643 -0.5763111 -1.4823419 -0.5440807 0.5686622 -0.060382117 1.5191271 1.4588513 -0.09085337 -0.69557554 -0.27327225 -0.5019531 -0.326782 0.8285453 -0.5410042
M380 1.8648022 0.3714873 -0.71420735 -0.7658898 -0.66828185 -0.03549967 -0.57782406 0.031922173 0.27870062 0.44687876 -0.20800503 -0.6106483 0.6054597 0.35522592 -0.77977777 -0.26955956
M097 0.31056368 0.58222526 -0.94927675 -0.35821477 -0.30929422 0.785984 -0.4855129 0.36393237 0.98704606 -0.09566073 0.47443813 0.7417143 -0.25487766 -0.26792458 -0.86411697 -1.1627643
M131 -0.38514343 1.473913 -1.3180224 -0.06141865 0.08368899 0.748768 -0.020373123 -0.43271843 0.70993847 -0.5547772 0.58932966 0.48212403 1.080664 -0.24602339 -0.865643 -0.94696
M338 -0.1007309 1.7585799 -1.3389229 -0.541348 -0.36706948 -0.13180892 0.11477983 -0.6904898 0.7585801 -0.79259026 -0.48153734 -0.23737787 0.47764438 0.9742018 0.29016382 -0.92085385
M006 0.6319792 2.2679207 -1.6912028 -1.8252503 -2.3094652 2.110978 0.060861256 -0.7748374 1.1654624 1.8235234 2.6469655 -1.8986344 1.8478853 0.4880577 0.37182915 1.8614823
M002 0.63143814 -2.0155337 -1.6794842 -1.5736724 -4.428673 1.8199676 3.6508949 -1.1766353 3.9943893 -1.6997237 1.2701596 -2.224035 -0.27902287 0.39095363 -0.38674256 -0.059435472
M327 0.23001787 -0.38092437 0.35682786 -0.19926693 -0.81696564 0.28984222 -0.37333733 0.3308784 -0.285658 0.9395795 0.72523934 -1.822491 1.183005 -0.36160728 -0.5578038 -1.0177201
M223 0.49040803 0.2298101 0.75091505 -1.6228303 -0.9191053 1.1941736 -0.9838425 -0.5295042 0.88241607 -0.5577882 -0.41404653 0.9254736 -0.33765596 0.22172028 0.47812212 -1.4696836
M325 0.83646667 0.21045238 0.113426514 -0.39479968 -0.16464281 1.3625212 -0.7278294 -0.101549864 0.2609448 0.3077242 0.90897095 0.16300829 0.43793148 0.19103552 -1.0178516 -1.076126
M254 -0.8796527 0.6104838 -0.43205392 -1.1671721 -0.20692945 1.2594824 -0.08558887 -2.40992 -0.007725755 0.10680062 -1.0928977 -0.30963212 -0.5896916 2.2834547 -0.971496 -0.5314596
M210 -0.5590626 0.044243954 -0.10295162 -1.6766784 0.06270994 0.49083832 0.068475045 1.2438006 0.96312666 0.016658738 -0.2663671 -0.509004 0.102854565 -0.15956348 -0.30770865 0.708427
M075 -0.7446707 0.19621064 1.5831022 -0.8551379 -1.9743863 2.2161586 0.28623736 0.6262614 2.0097828 -0.13074525 2.275769 0.6946171 -0.4489914 -0.8803629 0.9342197 -2.9899986
M348 -0.2242462 -0.628508 -0.2832715 -1.1993574 -0.51470184 -0.122100994 0.5344957 -0.8369571 0.6313387 -0.2225729 -0.2837635 -0.42405215 1.1743832 -0.79913116 0.3627151 -1.2366725
M341 0.82924426 -0.1436954 -0.26498678 -0.54000723 -1.0608613 0.11138486 0.17632617 1.0363334 0.32995072 0.38310978 1.3300521 -0.71134657 1.154135 0.76126957 0.22756732 -0.07314112
M384 -1.2366135 -0.53020287 -0.21996455 -1.2275516 -1.1530854 0.38590807 1.777529 0.5407448 -1.7783685 -0.9168176 1.8496038 -1.363502 0.9533279 1.0462914 0.024098068 -1.090545
M136+M365 0.121848546 0.007397902 -0.45745265 -1.1653712 -1.9047898 1.7926188 -0.16680805 1.652746 2.7471735 -0.7284156 0.362599 -0.91397935 -0.32879907 -1.3668768 1.3029563 0.025537847
M314 -0.3210493 1.375785 0.53227955 -1.5218006 -1.1928331 -0.86180854 0.39068297 -0.23534067 -0.21210629 -0.2761077 0.5413472 0.66374177 0.7313372 0.5193598 0.63966393 -1.7531328
M099 0.07753105 1.0565006 -0.36004302 -0.8572842 -0.8838718 -0.6249563 0.12137408 -0.17857377 0.2504706 -0.17120358 -0.37329704 0.18934943 -0.3448044 0.60402054 -0.7785407 -0.59926456
7(N14) -0.6836114 0.71255827 -1.2384821 -0.46034884 0.60696965 1.6687949 0.86817855 0.1845554 -0.102765635 0.07481372 -0.8122148 0.20654915 2.0579944 -0.449882 -0.15156107 0.40285853
M033 2.6948707 -0.9575355 -1.2738658 -1.8264134 -1.0322138 0.9191637 0.506791 0.73269176 -0.98966146 0.2681469 -0.41614708 -0.73821 -1.2227491 0.23672071 -0.12122443 -0.9549411
M217 0.19997624 0.58467686 -0.7082454 -1.0214505 -0.6181564 0.7938892 -0.40948257 0.39730465 1.7964307 0.2253886 -0.11027939 0.6095883 0.25374553 0.10246958 1.5346676 -0.79564446
1(N39C) 1.7676693 0.19875969 2.734412 -2.5915823 -1.6642426 3.1873443 0.5759449 1.091692 -0.7785968 0.8076494 -0.39632228 -0.47242114 1.1103836 0.85111874 -0.118324414 0.37352785
M081 3.3834426 -0.9920794 -0.19790176 -0.783536 -1.6146057 2.454828 0.7056633 2.48099 1.5462402 -0.10215918 -0.3869024 -2.6759906 -1.6106521 -0.46479142 -0.47814715 -0.43701696
M329 -0.15175052 0.6853003 -0.028756041 -0.7427668 -0.48232687 -0.1956643 -0.04611685 0.03381107 0.33140814 0.054304574 -0.1243332 0.8858289 -0.045220528 0.012485871 -0.10066148 -1.6685755
N 0.23257893 0.62265706 0.49555728 -0.28711468 -1.1877108 0.09708977 0.30590948 0.39435345 0.49025407 0.94385594 0.15245174 -0.30742133 0.3655098 0.9788456 -0.5127569 0.15987839
M128 0.64416075 2.2206135 -0.66179156 -1.8929509 -1.8454921 0.70951414 -0.33253866 -1.0442344 0.70954263 1.7001108 1.0492783 -0.1996686 0.893861 -0.8741705 0.17159653 -0.11955261
M139 0.47621313 -0.236516 -0.03364466 -0.75499487 0.038358413 0.0051304675 -0.2730079 -0.38264796 0.5788016 -1.0166439 -0.9193639 -0.46936357 0.67020154 0.11126161 -0.35951525 -1.3441092
M301 -0.94125366 0.42809132 -0.351415 -0.24742143 -1.0900826 0.44420832 -0.05976326 -1.2655551 0.63300884 0.07123597 -0.12312945 -0.1859963 -0.014807958 -0.5476375 -0.7451597 -1.3757945
1(N23) -1.7201811 -1.0090885 -0.4493317 -1.425003 0.4597606 0.21323878 -0.2905663 0.6213456 0.051188618 0.12641846 0.65447265 -1.7907698 -0.047467362 0.06269376 -0.44125104 -1.1693819
8(N14) -0.6449416 1.1101897 -0.8417876 0.037299648 0.53743047 1.9065106 1.5907148 0.16014427 0.17879088 -0.96535236 -1.2491909 -0.23595215 2.3137345 -1.58985 -1.0311247 -0.32514176
M029 -0.37119764 0.47110382 -0.9283481 -1.0236406 -0.41880783 0.45365307 -0.70726156 -0.0439933 -0.06445459 0.066582255 -0.4707786 0.21541922 0.45476925 0.37926328 0.36261222 0.14625877
M372 -0.18399774 1.7393491 -0.6019079 -1.2109307 -0.34251726 0.38870275 0.088345036 -0.2622997 -0.44593272 0.22021626 -1.297363 0.12946922 0.5206739 -0.8746799 0.27235284 -0.6086934
M332 1.4803624 0.44161046 -0.3428197 -1.3766835 0.050437216 -0.30651152 -0.047803998 -0.16943152 1.320789 0.23820329 -0.58908266 -1.5050981 -0.08582162 -0.41035476 0.4611281 -2.1981664
M265 0.81111103 3.311663 1.2433357 -1.5267736 -1.2875755 1.9784056 0.26776144 1.7583915 -1.7650999 -0.5993628 0.8159973 -0.14484513 -0.8966172 2.9080527 0.109034576 -0.5487391
M218+M288 0.5658161 -0.70930225 -0.40192065 -0.7358469 -0.23489405 0.4967522 -0.23552012 -1.4558827 1.1948459 -0.17136312 -0.0173297 0.22249568 1.4355803 0.7141288 -0.6486738 -0.9264438
M041 -1.6071426 -1.7695662 -0.16990831 -2.248096 -0.24055515 1.3950422 0.4401509 0.4742363 -0.21325693 0.27165264 1.7965506 1.5352582 0.24247277 0.5370233 0.0185674 -1.2606972
M046 2.907467 -0.79668105 -2.4439273 -4.17514 0.7395566 1.5746672 4.1684966 -2.0196636 -1.8912121 4.9960847 0.42945406 -4.0292 -1.3540031 -0.35486883 -2.5077462 -1.689249
M175 -0.59422344 -0.68895656 -0.39221692 -1.8815169 0.3592853 -0.20398116 0.5528024 0.55336595 0.6769272 -0.3872211 1.3684146 0.82900125 0.7427836 0.65176445 -1.9296283 -0.3957611
M327+M342 -0.7180397 1.1300163 -1.4286666 -1.6072743 -0.8523197 0.3653645 1.4374443 -1.7662017 1.0152817 -3.604913 2.0219684 1.0612943 2.255642 1.0959669 -1.2255615 -1.919032
M266 1.9284639 0.06033853 -0.33325127 -1.2232566 -0.8510198 0.36870506 0.58812237 1.6135986 0.626528 0.2514237 0.92833424 0.13445121 -0.52314526 1.4812475 -0.8570127 -0.479488
M051 1.5552264 -0.1271675 -0.5445447 -1.9861183 -0.8546404 0.2758445 0.48715505 1.4851811 -0.8881036 -1.0290937 0.13827336 -0.85564506 0.6238085 0.16713469 -0.35696432 0.56169444
1(N30C@B) -0.008419006 0.8026601 0.11582816 -0.5995124 -2.2113378 -0.4407281 4.1088533 1.6517859 -0.38464013 -0.23493494 0.7638995 0.9033773 -0.15921246 1.5987121 -1.982094 -1.9942443
M296 1.8845732 0.40288076 -0.9468341 -0.5358997 -1.2386853 0.21553233 0.56183714 0.15138914 0.04687278 -1.0259286 0.8728596 -0.8046938 2.036297 0.6199462 -0.57709306 0.08053432
M391 0.3747026 -0.3130168 0.3445474 -1.860272 -0.0039984738 2.0849864 -0.8464988 -0.2287914 -0.25118273 -1.1260128 0.5563276 -0.11925687 1.548997 0.26266396 0.74731266 -0.5817153
M195+M057 0.26887953 0.21233591 0.11229165 -0.75427425 -0.67616373 -0.35623434 -0.85218054 -0.68821955 -0.13373825 -0.7744204 -0.721245 -1.2197554 1.3908355 0.21021086 -0.6302641 -0.7774869
M281 1.6915574 2.3351083 -0.55206716 -1.315173 -0.41058633 0.97565913 0.9681903 -0.52585983 -1.4686936 -1.1394088 -1.2067888 0.91679984 0.4569891 -0.59767896 -0.2080243 -2.4829257
M390 -0.31703368 0.31142527 -0.73959345 -1.1460494 -0.3820304 -0.29157558 0.06646374 -0.2352024 0.165313 0.3984897 -0.40595427 0.2307199 0.0045493855 -0.4813768 -0.38416877 -0.67310625
M106+M288 0.41570777 -0.6848916 -0.7909454 -1.7686716 -1.0592649 2.162807 -0.48608482 -1.304555 -0.11494737 0.75181496 0.63048387 0.34825075 -1.0669782 -0.39356878 -0.12991983 -1.4087298
M246 0.6656321 0.31967562 -0.9415628 -1.2856026 0.1812092 0.05038919 0.5810467 0.27559683 0.98959315 0.03385001 -0.6535629 -0.4441796 0.6309125 0.4639273 -0.000865749 0.45324907
M195 -0.18687747 0.81043047 0.12598775 -0.37321594 0.29313377 0.09342803 0.17135532 -0.8526856 0.27680224 1.348208 -1.2154598 -0.90212977 1.0437765 0.40148914 0.107721254 -1.2259113
M207 -0.081150815 0.039065935 -0.45711938 -0.6805573 0.67250776 0.779775 -1.0489768 0.054591253 0.45654762 0.4198931 -0.32281187 -0.59052896 0.9347251 0.5922738 -0.27692983 -0.28835157
M247 0.61494464 1.3738834 -0.3067405 -1.2914219 -0.5042903 0.54630506 0.4641762 0.3300151 1.8162605 0.9071968 0.37195593 0.07677702 1.5655397 1.3004038 1.7093543 -0.17705937
M147 -0.42379397 -0.15994143 -0.039339073 -1.530654 -0.37775406 0.43121484 -1.137428 -0.39948723 -0.09403388 -1.6162027 -0.7758631 -0.470733 0.022944836 -0.035282236 -0.94536537 -0.7912097
M105 -2.585729 -0.5392617 -0.34946445 -1.5282083 -0.9591189 2.2555122 1.4602015 -0.5247347 -0.8739759 -1.7972931 0.41675693 -0.74561644 -1.3008015 1.5262115 -0.26518413 -0.79943407
M351+1(N14) -0.03530148 0.02427558 0.61104184 -0.93342173 -0.12236013 -0.2651842 0.61800253 0.2773937 -0.19406213 -1.0705178 0.3864801 -0.32428774 -0.17566696 0.76930726 -1.2048132 -1.4386522
9(N14) -0.39982677 0.2059439 0.33846465 -0.8514147 -0.25479534 2.0206683 -0.23570128 -0.522711 0.38903868 -0.8860911 -0.9142654 -0.09131852 1.6605413 -0.8016112 -0.5161585 -0.007085627
M383 0.23601036 0.026181994 -0.9951039 -0.20390964 -2.4933467 1.8414427 -0.0128478585 0.27736664 1.4708313 -0.5470404 0.5998968 -1.4298129 0.9440396 -1.1840639 0.5113014 0.57198095
M296+M296 0.115863174 1.5524435 -0.10404617 -0.3511343 -1.2389416 0.1115605 0.91416395 -0.93331593 -0.25562 0.5062436 -0.6480826 -1.1106492 -0.96839494 -0.27817056 -1.2700151 -1.6413705
M250 0.70227057 0.9488462 -0.8016545 -1.009293 -0.35648894 0.287279 -0.67504746 -0.7888159 0.45445076 0.03191531 0.39240837 0.08812667 0.2781852 0.60776407 -1.4637622 -0.5885469
M122 0.49196947 1.1382084 1.0301642 -2.175223 -0.7711696 2.1985059 0.07874015 -0.4035716 -0.98145694 2.0217693 -0.6170492 -1.2460238 -0.5602637 -0.8545026 -0.38265055 -0.21872596
M374 0.7562292 1.0566907 -0.05129683 -2.220594 -0.9847497 0.57830924 1.0353972 1.341981 0.20084774 -2.0467572 0.054040045 -0.71252567 2.7564929 2.5888677 3.229018 0.13107663
M321 2.5827684 -0.89711326 -0.30747133 -2.4159434 2.1067312 0.04934251 1.3783627 1.6476814 1.2215245 -0.5755757 0.9801689 -1.3254645 2.0683644 0.2904488 0.4269694 -2.857053
M340 0.20851757 1.5129716 0.9241967 -3.101719 -0.7095783 1.3665237 1.1719382 -0.6009146 -2.3166337 2.0459304 -0.6489477 -0.87834173 -0.6543275 -0.6359247 -1.1941456 -0.114140704
M110 1.5433325 0.5469431 0.1669561 -1.8512961 0.008352143 0.6982794 -1.0690215 0.15834807 -0.24728978 0.4539941 -0.11865046 -0.49750695 -0.006070726 0.3037665 -0.7719212 -0.49369848
M251 0.14921919 -0.020194331 -1.0761603 -1.5156298 -0.34006968 0.3638791 -0.45909852 -0.24869241 -0.31771755 -0.31480736 -0.76882154 -0.60372424 0.09802577 0.3308076 0.5581718 -0.06736462
M103 -0.37467635 1.1616762 -0.9639234 -0.065886855 -1.2069771 0.6431749 -0.24264021 0.19550326 0.12453587 -0.2624927 -0.11859071 0.798061 -0.19081701 -0.4138078 0.20717615 -1.1222067
M112 0.02984651 2.3784242 -1.6868196 -0.8872441 -0.5837166 1.6809316 2.1320236 1.865368 -0.43905103 -2.5380106 -0.25537574 1.1072904 -1.4643567 -0.8512995 -1.7062769 -1.048808
M228 -0.24343854 0.67416537 0.85787463 -0.735264 -0.21236823 0.0287479 -0.76502895 0.73877615 0.88944817 -0.123269044 0.8131882 0.1609313 -0.49471053 0.8047174 -1.0769775 -1.50713
M230 0.6116354 0.54893255 -0.44384712 -2.1331995 -0.5710036 0.5550361 -0.008581352 0.12488276 -0.4281538 -0.87416893 -1.0838834 0.5940612 -0.12068935 -0.7026804 0.5004213 -0.75576496
M417 -1.1381359 2.5252297 -2.3821557 -1.3158756 -1.3099446 2.7133837 0.69123644 0.22354381 1.1011266 -1.0646464 -0.48498636 -0.9875992 -0.9189022 -1.1754189 1.2836311 0.30953205
M131+M388 1.8397503 0.15811731 -1.618776 -3.4702873 1.6775588 0.13302171 1.5191176 -1.8833748 0.76007664 0.64018255 -1.6302192 -1.0474507 1.4017606 -0.7906404 0.77580553 -2.3693194
M039 0.29948774 -0.187156 1.5494254 -1.1063018 -0.90437627 1.4947525 -0.6533266 -0.3810075 0.38791943 -0.19610709 -0.057012614 0.35322517 1.0602441 0.97084045 1.0564786 -1.1505785
M248 1.7262378 -0.012502847 -0.47225407 -0.15006745 -0.48387858 0.6942897 0.75837946 0.12341251 2.5483556 0.60812736 -0.4470145 -0.58263797 0.045074396 0.9830967 -1.6394867 -0.21385281
M305+M342 0.09654845 0.9078483 -1.0499992 -0.1678802 0.03824303 0.748623 0.28334016 0.7495794 0.40594885 -2.2624202 0.00762363 -0.55911213 -0.54723203 0.2696072 -1.8395065 -1.0944811
M049 0.036800243 0.7090663 -0.8438011 -0.73974544 -0.71325326 -0.11217032 -0.8546258 -0.7203071 -0.05226885 -0.15947224 -0.0475939 -0.23796724 0.17766888 1.0719599 0.16437234 -1.1421579
2(N30C@B) 1.5138692 -0.9974696 -0.99699515 0.5973756 -1.3525229 0.76444167 3.2193525 1.535997 -0.0058426233 -0.9894598 -0.04824553 -0.41942608 0.7431931 1.4447896 -0.15483229 -2.3257742
1(N24@B) 1.1840595 0.71052706 1.8672069 -1.4219441 -4.967047 -0.9260162 4.345379 0.24976225 0.68290895 -1.4211838 0.06223674 -0.53694916 2.1481059 2.2744696 -0.02021902 -1.9269999
M125 -0.2987461 1.4789091 -1.5831426 -0.25955626 0.36223966 0.34657073 0.48283195 1.8053249 0.1340211 -0.35400218 -0.2846577 -0.31929544 -0.49122256 0.3300437 -0.2644097 -0.5444663
M302 0.053026892 0.5284914 0.109130666 -0.70218533 -0.23419484 0.37874362 -0.62398124 1.1940898 0.6260466 0.13861227 -0.01682171 -0.5350529 0.16315202 0.6365688 -0.7112883 0.41339213
M305+UNK 1.0629998 0.4166207 -1.556417 -0.54701066 -1.3857144 0.03508673 0.15490301 -0.1869562 0.84495324 0.6911211 0.27217007 -1.7846072 0.036454782 1.7391794 0.32115483 0.22134863
M319 -0.380481 -1.739722 -0.5175452 -1.2247893 0.327228 -0.027168065 1.2328748 -0.4665588 1.0255047 -0.018268116 0.022707812 0.30664897 1.2144051 0.55074453 0.24707265 -1.5668811
M323 0.21366526 2.970695 1.3408444 -1.1474983 -0.35565174 1.0990406 -0.2305944 1.2704413 0.19097796 1.002438 0.38146332 0.2713468 -0.72170264 0.46656048 0.5459568 -2.2321286
M220 0.08500463 0.074493386 0.05289843 -1.1262568 -0.6004209 0.3902903 -0.38281515 -0.6802205 -0.5603399 -0.55729413 0.0887153 0.41987357 0.34487852 0.38437513 -0.09708758 -1.2816243
M069 4.304231 3.9533746 1.5949876 -3.7451775 -1.744181 5.6962233 0.6613252 4.1817536 -1.2423393 -0.3997873 1.859909 -1.9311166 -2.7208412 2.7062826 0.27433482 -0.97245747
M379 0.90938604 0.31857756 -1.8092614 -1.0344319 -1.3992403 0.7669736 3.233929 2.0763257 0.21923035 -1.0803295 0.06146145 0.3184332 0.052366845 -0.57690775 -1.9754037 0.20335819
M050 1.8150214 1.1471771 -2.7924669 -0.23188704 -1.469691 3.4524038 3.6731024 0.5023171 -2.936958 -0.6193104 2.4085567 1.2315673 0.66136795 1.6325163 -2.5313506 -2.8006802
M153+M342 0.1759964 2.0302193 0.7074499 -0.8375658 -1.1943142 0.36840704 -0.37361842 -1.2931775 1.3392915 1.4930625 -0.61365485 -0.95857406 -0.024562368 -0.11106417 -0.43830392 -1.31334
M073 0.3290633 0.4644445 -0.010991818 -2.4084396 0.16162771 2.074313 0.03889172 -0.3215572 -1.5236348 -0.44113535 -1.6036006 -0.6481957 -2.1737275 -0.044190943 -0.241899 -1.6201916
M261 2.0425534 2.7728028 1.0943277 -1.7669832 1.461126 2.3026078 0.904341 4.024742 2.025649 0.5095554 4.972532 -0.18304138 2.073258 3.9609332 -1.2417957 -2.2341528
1(N14@B) -1.1130296 1.79672 1.9019855 -2.022721 -1.2848102 -0.61071396 0.5863716 1.6184669 0.04534666 -0.4709488 -0.39514875 -0.47252768 0.22674797 1.049145 -0.95829237 0.14925191
M418 -0.7397847 0.19182424 1.5697517 -5.050589 0.38942802 5.376208 -1.1990515 1.5748302 0.23655337 -0.98307264 1.3491167 -2.0785654 -0.5201828 -0.39591607 -0.03855272 -0.35089132
M205 1.6817644 0.30248448 -0.53475857 -1.4772083 1.0776306 2.4473822 1.5517467 3.0198667 -2.73642 -2.6144292 1.4725114 0.21689974 1.9392322 -0.31844306 -0.3611476 -2.4430213
M260+1(N24) 1.0611748 -0.16994315 -0.9882232 -2.8937798 -0.786498 2.106382 -1.4637074 0.08942277 1.200275 -1.0619049 0.46515727 0.53485054 -1.2282876 0.9406421 0.3794061 -0.26028538
M286 -0.75457215 -0.11333678 -0.21509674 0.27930957 -0.80387264 0.8476429 0.6793664 0.99744356 -0.36724675 -0.32517612 0.61856955 0.51706594 -0.5496906 0.95114166 -0.5363163 -1.3332211
M080 -0.63698965 -0.34597746 -0.6573166 -0.9813859 -0.98205346 0.9927108 -0.64177895 -0.18527295 -0.14596577 -1.705629 -0.5183494 0.24822764 -0.4459804 -0.14042489 -0.49927258 -0.6382857
M278 1.8809341 -1.2851462 1.509971 -2.283168 0.40269488 1.9797539 0.39952046 1.665461 0.33693922 -0.52187485 3.0055432 -0.76414806 -0.13826005 0.9059128 -2.5438204 -2.2719514
4(N34) -0.13205554 -1.4598024 1.9127837 -4.0048018 -1.1733445 3.7132921 0.23235625 -0.17128362 -1.1189718 0.4025935 1.061737 -0.46472314 1.5773265 -2.945983 0.43871135 -1.0859601
M036+1(N14) 1.614507 1.5271031 0.5687934 -3.0297751 0.9012682 -0.36588007 1.9993445 0.0950819 1.2091048 0.6146298 -1.5098048 -1.981975 0.9443363 3.7897851 -0.469684 0.6920339
M327+UNK 0.8549444 0.62220615 2.8697891 -3.5213103 0.29965878 0.8787456 -1.2507331 0.684464 -0.8217465 -1.9226067 1.2390195 -1.4361013 0.20588143 0.8839408 -0.3896816 -3.4656014
1(N51) -1.1170617 1.9810139 0.55575645 -1.0615209 -0.85992426 3.395605 0.33060387 0.88114315 1.669118 3.414578 0.5833182 -3.6094084 0.20611581 -2.0905113 -0.5479343 -0.57641184
M316 0.33047146 2.8500333 -1.2956766 -0.84973896 -3.316001 3.4822025 0.44329095 -1.5803113 2.6407852 1.7629231 0.9340018 -2.3525493 0.052106477 -0.13049771 0.77702147 1.2188232
M044 -0.40672973 1.07879 -0.08498284 -0.16973688 -0.38021713 1.0287248 0.67401105 -0.2684507 -0.51651955 -0.2551904 -1.1888986 0.7859936 1.2396896 1.3508433 -0.28605586 -0.10884178
M109 0.23908448 2.3867059 -3.0564146 -1.7036681 -0.6047486 0.86150557 0.24335133 -1.38396 1.5596896 -2.001322 3.1139436 0.505077 2.0860825 1.0577065 -1.0509897 -1.4086144
M291 2.6728575 1.2899547 0.48457554 -1.2492243 -0.9061289 1.727887 -0.71928847 -0.5359211 -0.7431356 0.23319393 -1.6007316 -3.2726963 -0.71728224 2.1211987 -0.57392395 -0.06346945
M136+UNK 0.7876615 -0.68886626 0.30624953 -0.39585835 -0.45279703 1.2917985 -0.06040415 0.5432749 1.1975474 1.2472609 1.391017 -1.180647 -0.21774958 0.18075112 -0.5835612 -1.4874163
M328 -0.2645644 0.32413447 2.042469 -1.339317 -2.031118 2.4805143 0.36851138 1.05313 -0.029392218 -2.5691612 2.0788023 0.66329277 0.48052418 0.55689555 1.2469081 -2.773216
M193 -0.47542778 -0.11959567 -1.6808542 -1.3584888 1.0556074 1.6043129 0.77142566 0.79127127 -0.50121963 0.4876782 -0.9552373 0.56019306 -0.042707257 0.3850895 0.9274749 -0.4706649
M249 -0.98409045 1.8990383 0.83472776 0.1570624 0.27053034 1.3017726 0.63734174 -1.3994669 1.8960083 -1.1280025 -0.9039607 -0.4463956 0.05934824 2.16133 -0.1567545 -2.7027538
M158 1.0354767 1.1596903 -1.2289995 -0.8684716 -2.0642102 0.28589383 -0.24645121 -1.1995404 0.94105786 -0.2538977 2.432863 -1.3390026 1.8482025 0.7230721 -1.1961077 0.015438809
M370+M072 -3.2028747 0.58981574 -0.48973978 -2.969078 0.89923495 5.0638595 1.3072054 0.4122287 1.8184317 1.5240655 2.65895 -1.0821126 -1.785207 2.388918 0.74014485 -1.747469
M285 0.47448972 0.6961412 0.23931825 -2.0479538 -0.40169087 1.3923888 -0.065698616 0.51359236 -0.3456211 0.076581955 -0.008501662 1.027706 -0.8560584 -0.37299728 -0.9441638 -0.433774
M369 -1.0137547 0.04242027 -1.3761921 -2.1079772 0.8058261 -0.06895998 1.1746897 -0.536247 -0.2250792 1.2784885 0.1939857 -0.525593 0.5699498 0.7980523 0.20662507 -0.5380231
2(N23) -1.2509993 0.35166457 -0.6722842 -0.32584894 -1.0962042 2.8973894 0.18835922 1.1747901 2.7840126 2.1637416 1.1960448 -2.3991952 -0.36255553 -0.5520204 0.43217167 -0.3145879
M209 -0.6987011 0.94060946 -0.51238513 -0.6661124 -1.3356801 2.7498274 -0.35408175 -1.0823677 -1.2566592 -1.118728 0.3257375 -0.9220332 -0.592419 -0.22434089 -1.0403128 -0.8059829
M221 0.78251934 3.1524873 0.22334194 -1.6556435 0.25400144 2.2738004 -0.3016148 0.8986762 -1.1608098 -1.3871846 -0.26107427 1.5306295 -0.56815916 0.7548819 -1.4355688 -1.1547061
M195+M038 -0.23836376 0.9584998 1.7134696 -0.84209234 -1.1489265 3.1280317 -0.17067209 -2.9047766 2.8731563 0.5897617 -0.5534572 -0.4498216 1.3583522 -0.5532644 0.1776605 -2.7725165
M315 1.679077 1.6783639 -0.35195237 -0.21084619 -1.1056725 0.7494597 0.20036586 -1.4546162 -0.2776981 0.39580595 -0.59109837 -0.8199454 -1.0735478 1.7067981 -1.7179058 -1.6364541
1(N8B) -0.65626144 -1.1805636 -0.88300717 -2.0252912 2.4511676 4.8002853 -0.22004856 0.9382328 -0.8521358 3.209828 3.0437222 -0.7217511 2.1560757 2.274378 1.0027859 -1.8375722
M252 -1.2773026 0.64465094 0.35404107 -1.1300642 -0.029866427 0.9987231 0.13150163 1.1686035 1.441183 0.64389926 2.1209748 -1.8632293 0.4648321 -0.25047347 0.20246921 -1.4830967
M377+M320+M377 0.27888405 -2.3816478 -0.27798775 -1.3282468 0.048150092 3.5789092 1.60505 -2.3356748 0.8936063 -1.1784383 0.68753606 -2.1610413 1.8389341 -0.09652655 1.6492717 -4.616065
M006@G -2.7577083 0.2763702 -2.0926871 -3.4009016 0.37319538 4.7690077 3.2009075 -0.6637264 0.24957253 0.42889524 1.0265206 -2.642371 -0.82107663 -0.7036245 0.99394566 -1.5588441
3(N34) -0.68892246 0.18374047 2.8483343 -3.4503195 -1.4262575 3.5593424 -0.1933931 0.86302644 0.17486934 -1.7438452 0.42055818 -0.04651546 1.8649573 -0.74579465 2.2082887 -0.9244433
1(N08) 2.1658545 2.8189216 0.038315386 -1.6408062 0.71340144 4.297708 -1.4572551 0.20661809 -2.581458 -1.6376436 0.16687082 -1.1246729 0.66776353 4.4760857 -0.43923405 -1.0907222
M381 2.813399 1.6179994 -0.7071675 0.9950678 0.71890396 1.6049294 1.2974185 0.7517275 2.0139747 -1.7883377 -0.29458085 -1.2171245 0.23922116 3.2989192 -0.010514685 -3.1681771
1(N01@B) 1.2389342 0.7033637 -1.133751 -0.6157432 -3.3338192 -0.08927461 4.5630126 0.80223256 1.9148179 -1.1872672 -1.365902 -3.675474 -1.5831301 -0.43524125 -0.17279404 -1.6824284
M157+M131 -0.39573434 2.0530465 -0.2505389 -1.0207103 -0.086076036 0.2155615 3.0981524 1.6283145 -0.22775774 -0.587214 0.19485274 -0.8870921 0.20232344 2.894197 2.143227 -2.3471303
M370+M388 0.32655808 1.2111241 -0.8167885 -2.9139917 0.55377406 3.0298872 2.9007642 -0.12341177 0.21742956 0.8622721 2.0648856 -0.3891147 -0.26450637 0.7216241 0.5413063 -2.3722627
1(N39B@B) 3.3866146 0.7913211 1.3593638 -3.0426962 -5.2402678 -0.5368569 3.2753065 -0.9629084 0.07240833 -0.5392622 -0.3225162 -0.32500672 1.8982276 3.1206555 1.8733112 -1.0904813
M293 -0.05270693 -1.2305508 0.5332454 -0.93552005 -1.2293246 2.9424748 0.088559255 0.05910615 0.67182803 -0.9054109 -0.58139926 0.6180737 -0.23157325 0.3731645 1.1648602 -0.980752
2(N1@B) -0.6616674 1.0588307 1.4823228 -0.89282095 -0.5915794 0.6333305 2.1283717 3.0298507 2.3654854 -0.052830942 -1.5217897 -2.665167 -0.29435322 -0.12373924 0.6277842 -0.7757643
M180 4.502683 0.024012996 -1.4666806 0.17386143 -1.1812106 1.1903584 2.1418042 0.23982131 2.0057504 -0.19263351 -0.45111006 -4.059574 0.6413635 -0.0049413242 -1.3600385 -0.9236502
M036+1(N30C) -0.61340153 -1.7037176 0.52633685 -0.9543624 -1.4048958 1.1787064 3.0782342 0.75994164 -0.42512697 -2.0188563 3.1499343 -1.3437394 1.5036298 2.3693278 -2.7512403 -1.5419114
M324 0.6744812 1.728176 2.3287606 -1.1249641 0.41908315 1.8685131 -1.5191661 0.64930123 0.33076113 -0.42619514 -0.52666634 -0.5002659 1.169796 1.62224 0.7755204 -1.6464424
M277 -2.5577028 0.8593458 -1.3718561 -2.599267 -1.2935733 1.1877497 1.6951593 1.0769929 2.648977 -1.4230802 1.3071047 -0.84098566 -1.7858965 -0.33082628 -0.3340876 0.101535685
M134 2.5249264 2.8055012 0.5467151 -2.1454878 -0.5477052 3.177021 -0.019444324 1.100162 1.6934568 3.6967602 1.8310459 -1.1981376 0.4707379 1.1852938 -0.3199718 0.5088319
M222 2.015046 -1.1266315 0.8074798 -1.1642742 0.0890558 2.174333 -0.8418425 0.2307273 0.8560587 0.013580456 -0.14234531 -0.69964147 -0.46242845 0.10336648 -0.045750704 -1.9983726
M053 -1.681517 2.6833284 -1.3593911 -1.8861068 1.2122972 4.5374312 1.4798218 -1.4348284 1.1517117 4.168761 0.08019221 -3.7643523 -0.17581652 1.9514912 0.8708266 -0.70536375
1(N48) -0.0015512056 -2.4305987 2.573966 -2.046863 -0.70763326 3.0881739 1.0091333 0.7804608 0.8358769 -1.250942 -0.27204776 0.012652179 2.0080807 -0.696114 -0.5616684 -1.2944248
M311 1.748343 1.2272595 1.0220231 -1.4112375 -1.0068159 2.7622077 -0.09119664 -0.9045868 -1.134149 1.398293 0.0534711 0.11231402 0.5938935 1.3891153 1.1192278 -1.3212308
M361 -0.07802067 1.7803681 2.6282606 -4.280156 -2.7455258 1.6823756 -0.17219332 0.82313544 1.907805 -2.1550338 1.3076575 1.374648 -0.13473347 -0.9751857 2.0305247 -1.9399956
M218+M320 1.8894475 0.53485304 0.29613993 -2.0607703 -0.10113626 1.8973328 -0.5281187 -1.341373 2.7966774 0.09769345 -0.8082387 0.47778648 0.19101246 1.1415973 -1.6760243 -0.2223367
M144 -0.69860816 0.06742871 -0.8941331 -0.5211577 -1.1838752 1.1102011 0.6430802 -0.6050902 -0.29374477 1.4008449 -0.17262694 0.43850946 0.584393 -0.1673621 -0.20947781 0.16213556
M217+M388 -0.58800894 1.7021224 -3.2313416 -2.7664254 1.3364187 0.61110324 0.8154968 -2.473865 0.39045477 1.2058278 0.0031256895 -0.6128546 1.0022084 1.369178 0.25463995 -1.3125052
M362+UNK 1.9838275 -2.2204077 -2.2351155 -2.9517384 -1.1740527 2.8621194 2.4635756 0.108502425 -1.6590592 0.7433752 2.2317655 -5.9081144 1.9351091 1.3114543 -0.28726217 -0.20249744
2(N51) -1.9414526 1.813235 4.454884 -3.0073426 0.8817979 -0.2975019 2.5188713 2.134491 1.47288 0.55536866 0.87879056 -1.922654 2.444617 -0.4160966 -0.91566473 -3.6871343
M151 0.018517695 -0.3474776 0.11771858 -1.1452407 -0.3763524 2.121427 -1.1189989 0.31894797 0.2254733 -0.941857 0.438239 0.3799564 -0.1712985 -0.30306903 -0.34729847 -0.9571586
5(N34) -1.6350715 3.7267554 2.05641 -1.9319488 -1.0434439 3.7175333 1.6239907 0.07590673 0.60004556 3.6623158 0.13981542 0.2935883 1.6540774 -0.50084955 2.3418121 -1.2943099
M152 -0.2948121 -0.47158483 -0.17638916 -3.680835 -0.093578875 1.6359478 -1.4119238 0.15330672 0.6296311 -1.2670707 0.43867663 0.23113237 -1.541043 -0.07063752 -0.71325696 -0.31321988
M310 -2.9982827 0.8865245 -1.8542753 -3.0971673 1.8163137 1.0052332 0.562684 0.556563 -2.0607429 -0.74955183 1.7736999 -2.1190376 1.3023727 3.3424733 1.7745637 -1.852254
M175+M288 2.2302532 -0.55802757 0.75450206 -1.9944094 0.30507556 1.1068249 0.43637088 1.3924148 0.058089405 0.42377955 1.4234647 1.368134 1.9254494 0.27187288 1.3237343 -2.7898896
M035 0.75275 1.2310654 -1.5979545 -1.903271 -3.6273017 1.5901654 -0.065533735 -0.36024365 3.8453283 -1.1718284 0.63573104 -0.14775667 -1.3462042 0.16257659 1.750084 -0.33888456
M370+M072+M370 -0.102912195 1.0313017 -0.2276039 -3.3993847 -0.12776433 1.6559013 2.6562743 0.40433568 0.6738699 0.054986194 1.9748291 -0.94030416 -0.96457124 1.4663936 0.42055333 -1.6720626
N(N01) -0.17493433 -0.0840717 -1.5922533 -0.9592937 -1.2405512 -0.022667695 0.69273436 -0.36117312 -0.7513715 -0.40347877 0.5772043 -1.4991686 1.1239623 1.1595691 0.03681459 0.36571398
1(N02) -0.23202172 1.9105346 -2.734315 -0.7209165 -1.456516 2.2091029 1.9675124 -0.71063334 -3.3625777 1.561288 3.4638143 -0.9315306 -1.9144125 0.1982222 -2.2243614 -5.4221206
M377+M377 -0.58689547 0.8366671 -0.5909803 -1.0325316 0.45871392 1.1903543 -0.4937679 -0.9773102 -0.26828593 1.6924 -0.6795515 -1.7654966 -0.11058703 -0.71096283 -0.036725923 -1.7031467
M312 3.061043 3.3290663 2.930626 -2.136762 -2.7311404 1.1298018 2.0577896 0.9658782 0.1006431 -2.1077967 -0.5603301 -2.4234624 0.76976216 2.5478318 1.3572919 -1.4170566
M382 2.0184538 1.4075583 -3.0037827 0.3827622 -0.49820814 2.6538324 1.6552129 0.55340356 3.0455651 -2.2682934 1.5163265 -1.9739804 0.51677734 0.19773823 -0.75819325 -1.2926048
M061 -0.21647273 -0.9654519 0.09850932 -2.3601296 -1.0152624 4.0248137 0.8768093 -0.637163 -2.3450968 -1.2586957 -1.0106208 -2.8167112 -1.2037641 1.3755136 0.73104876 -0.5387654
1(N) -0.061375733 1.0436877 0.06872974 -1.4484764 -2.3452559 1.132921 1.30741 1.812472 0.1623596 -1.7084303 0.03585142 -1.3569092 1.266728 0.25140595 2.6838236 0.49533147
M123 -1.9804989 0.023294693 0.58703095 -4.0166245 0.27515286 0.29021493 1.1755989 1.1443058 0.5473096 0.82136494 0.7958997 -0.46827346 2.0289786 -0.9612015 -0.18921871 0.4500891
4(N1@B) 0.14648493 1.5659567 1.2021286 -3.2656896 -3.7665303 -1.5800506 4.978509 0.09072993 -2.539051 -0.95649904 0.08884334 -1.4738575 2.6026938 1.2469141 1.3933425 -1.3692833
M058 2.2933984 -0.103132725 -3.485106 -0.8718619 -0.90611774 1.6344242 3.0732756 -3.8250465 1.5042425 3.3434615 1.971293 -4.119139 -0.52455103 1.4435292 -1.7568994 -3.946546
M327+M059 1.2960726 -2.0540247 1.1475372 -1.2725589 -1.2145704 3.25501 1.2244557 0.15844338 0.82102346 -1.0453231 0.5983138 -0.52143276 -1.781764 -0.059619263 -0.116312556 -3.4438787
M036+1(N24) 0.3455476 0.61479837 -1.6694682 1.1832291 1.244564 3.5692253 4.171168 2.221983 4.7835503 -3.4224696 3.212418 -3.1165106 2.9060915 1.4045712 -1.0402985 -5.0097594
M375 0.44465387 3.0663896 -0.45919627 -3.8166108 -1.485476 1.4886574 0.6328905 0.41609713 -0.52809656 -1.1273997 1.1117873 -2.79063 2.0339944 1.9644973 3.288849 0.26858783
1(N30D@B) 1.6791425 -2.0186744 1.320361 -2.8888185 -3.0602078 -0.06150602 3.9009378 0.22992341 0.46503457 -1.6248475 0.41577724 -1.33453 -1.4485921 0.69867486 -3.3823528 -2.4496124
M305+M136 0.19451945 1.3019649 1.5802108 -1.202572 -1.5436829 -0.66588223 1.3035395 1.3868252 -1.1161731 -1.6870255 3.3484552 -0.80659753 1.9586132 2.0990145 -1.5427831 -2.2178116
M226 2.1432838 -0.78744113 -1.5803636 -2.4387167 -1.3372356 2.731857 -1.627869 -0.89375746 1.4896336 -0.8416423 0.95296824 -0.03175897 0.07953401 0.28473812 1.0709671 -0.89375293
M214 -0.9052658 0.56837237 1.7613916 -2.120753 -2.5745533 1.7235298 0.53049916 1.2722199 0.7093002 0.61806273 2.5642707 2.5088341 -1.3300136 -0.32530504 2.4478452 -4.5200224
M370+M046+M370 0.1742347 1.374325 -1.3114867 -3.0075905 0.5820238 2.765249 2.6204562 0.1729547 0.3251285 0.22727787 2.1980605 -0.42297742 -0.77266663 1.8392705 0.1015101 -1.7939456
M370+M388+M370 0.37456724 2.9474475 -0.52702624 -2.9261622 0.20780866 2.8732486 1.81591 1.9853936 -1.2464623 0.29324052 3.4402845 -0.3399363 -1.1809274 1.6694591 -1.6178188 -1.5655947
M115 -0.09280271 0.7895349 0.37475 -2.0548925 -1.3803082 0.7134883 0.27818468 -0.74607724 -0.5596617 0.12643182 -0.023169126 1.0511553 -1.114091 -0.14107917 -0.33018088 -1.6036286
M298 0.97301 -0.013448503 -1.2958554 -1.605621 -0.8229539 1.636898 1.199759 1.1708817 2.4284067 -0.0023592974 0.37460345 -0.76434386 -0.9289404 1.5081828 0.11062343 0.8253839
M175+M136 3.7550182 2.7644384 -0.2839893 -1.153306 -0.42443365 1.245013 0.83377934 1.5994914 1.2552189 -0.31387234 1.539375 0.52952754 1.26601 2.351664 -1.6672406 -1.1849928
M461 0.53714067 0.86111194 -0.5390428 -1.3436302 -1.2408148 -0.19778568 -0.006031675 -0.87574184 -0.25580698 -1.0125823 -0.5973468 -1.5180993 -1.3156929 0.9409558 -0.5845851 -1.6525291
M064 1.9607368 0.9143892 -2.8573015 -1.2548 -2.5754251 2.4422517 0.9336379 -1.3891287 -0.75062394 -0.274707 1.5610898 -2.26705 0.6718534 -0.92682993 -0.41968116 0.037640516
M026 1.1892645 -1.1767048 0.3442343 -3.4246762 -0.7251075 4.4956264 1.4623637 -1.3111647 -3.1946595 -0.79067874 0.37396473 -3.220337 -2.0729744 -1.4460714 -3.4512613 -1.7287691
M288+1(N01) 1.0801992 0.17962733 -1.7353917 -2.7652037 -0.5386314 0.00087709085 -0.805089 -0.5345176 1.265144 0.23637451 -0.03466449 0.80039245 1.5626231 -0.024486687 1.0435767 -0.5204493
6(N34) -0.76722866 -0.6158088 2.5063353 -1.9753197 -1.2611347 2.3400562 1.5090271 2.5733492 2.2855995 0.91264206 1.7700926 0.8292015 1.2998773 0.05377886 0.80654603 -1.1765317
2(N02) 0.10312096 1.2263595 -1.1571196 -1.749005 0.26705343 0.9097445 -1.2646343 -0.15294379 -1.7661598 0.9955958 2.320304 -0.057728328 -0.16199315 0.6106209 -1.6028632 -2.6649425
M047 2.7270727 -2.2422743 -2.1573422 -1.8337626 -0.2373158 2.399049 1.3719009 -0.54226476 -2.1580775 -1.126195 1.7790341 -1.0987082 -0.8984832 0.3893982 -1.4146633 -3.7040985
M143 -0.12574427 1.9505019 -1.4571645 -1.0206897 -1.3285336 1.4061648 -0.80516064 -1.6398591 0.51051694 0.15902263 -0.011193462 -1.2018837 0.9072936 3.1692264 0.101081274 1.3022871
2(N39B@B) 0.25690123 -0.114644945 0.06809312 -0.6223713 -1.5074426 0.64425045 3.569501 -0.971854 0.13385667 -2.1382976 -0.3044232 -0.67981076 1.0080539 2.371271 -2.0154204 -1.4817399
M208 2.1718104 -0.9937922 -1.1010969 -1.982666 -2.034805 2.9928944 2.0401144 -0.83675146 -2.0452516 0.09115783 1.154156 -3.1646302 2.2264776 0.07545257 1.0907878 -0.19331957
3(N23) -0.97191364 -1.8343445 -0.3879238 -2.3816845 0.53373814 1.8412334 1.1064742 -1.1704338 -1.9048264 2.115498 0.8300638 -2.4535265 0.60982436 -0.83712846 -1.2074867 -1.7423073
M351 -2.8023412 -2.5129287 0.32292026 -3.8490536 -0.71437347 3.5949864 4.942798 -0.23287752 1.8223825 0.15600759 -0.24022461 0.11329809 1.0912278 -1.9509617 1.80599 -2.233612
7(N34) -1.1911011 0.14105366 2.955877 -2.9196775 -0.42508537 3.2846773 2.8394294 0.2267815 -0.4094976 0.773846 -2.0524445 -2.220912 0.65642 -0.97203374 1.1651939 -1.5988301
M218+M101 1.9917384 0.91225606 -0.9123114 -0.822186 0.54801655 1.1093644 0.9600321 -0.8668202 4.5230618 -0.9352653 -1.8145094 -2.7784927 0.24936855 1.7737197 0.31006432 -1.273989
M153+UNK 1.564013 3.353535 0.20716912 -1.8378038 -1.1482319 0.8166549 1.6109484 0.76964295 1.6914614 -1.4722071 -1.8297433 -2.2118492 -1.449178 0.7442526 1.9613899 -2.0611339
M290 -0.35823825 2.4067862 -0.7516271 -3.6116087 -0.56240124 0.31474137 -0.057830364 1.2213327 0.18025868 0.094358526 0.9889627 -0.67390287 0.65563315 0.5759668 0.4253254 1.3719633
M270 -0.08058459 0.010328668 -1.4338251 -2.992827 -0.08396146 0.61951 1.4900697 0.08228036 0.083466105 0.46335202 -0.28885508 -0.51676315 0.3363554 2.8079004 -0.6218703 1.9493082
M037 1.746879 0.73440754 -0.7986615 0.06691005 -0.5179529 1.9164957 0.019174539 1.0280918 3.4429915 0.6407369 0.6871566 -0.6121042 0.3880707 0.8104607 0.45824865 -0.6697097
M176 1.2028981 2.0445554 -0.82140034 0.11138724 -2.523003 1.6374722 1.5120637 0.7029331 2.8059762 0.83846825 0.922819 -2.5361543 -0.52519345 1.3877915 0.57728076 0.22302243
M268 0.17638277 3.8324504 -1.7521278 -2.4723296 2.4569273 3.9704938 2.8317828 3.116102 -0.64741546 1.300494 -0.26865175 -1.4079853 0.46537185 -0.58990586 -2.540008 0.7823208
M356 0.0058685252 2.0478194 2.0947788 -2.0597074 -1.791648 -0.78809935 0.70739 0.71469927 1.0026997 -0.0011676825 -0.5655568 -0.08479772 -0.4520733 1.651424 -0.022060694 -0.5586507
2(N14@B) 0.35234874 -0.025201019 1.2253647 -0.85417044 -2.615289 -0.057767943 1.491218 0.618777 -0.523635 -1.4184035 -0.5442983 -2.5065398 0.29964846 0.18284495 -0.33111313 -1.3353708
M393 1.8980983 1.0283934 0.9475751 -3.6066592 0.40515772 0.57405263 0.19478482 1.2776124 -2.2681694 -1.3207922 -0.8916318 -0.9378752 2.268089 -0.3258694 0.72444963 -0.9286545
2(N30D) -1.828629 1.3382224 0.8323049 1.1308432 -2.4004502 4.145688 2.4283495 0.11559368 -1.5416924 -0.9030222 -1.1801391 -1.6888819 -2.8342867 4.0043344 1.1052134 -3.6437366
M342 -0.43517843 0.5549928 -0.46263084 -1.9003123 -1.9428204 0.7121679 1.9563965 -0.20368189 -0.68826216 -1.2090635 2.2107954 0.25201875 3.1226702 2.937659 0.76422787 0.19079362
M175+M175 -0.69961333 -0.14838034 1.2211978 -0.95451885 0.8805276 1.4131999 3.2646134 -0.9782476 1.6172757 -0.22606832 0.07385376 0.26836812 2.563946 1.307715 0.40836418 -2.921425
M224 0.56208855 -1.0340964 0.38059324 -2.6779463 -0.21861385 1.5008042 -0.09609133 -1.0007765 -0.42752942 -1.3932744 -0.5685918 -0.04968147 -0.8866718 -0.6172073 -2.2797353 -0.9508978
5(N23) 0.21846648 1.5918299 -0.6879462 -2.7683597 -1.653673 1.3368415 0.85367906 -1.9163132 0.26173848 3.7718213 0.7667947 -2.5308595 0.64698577 -3.0633416 0.63738376 -1.7663995
M294 0.6526257 0.6246712 -1.0732428 -1.8867083 -1.6551219 2.593205 4.1381464 -0.3139374 -1.9712721 0.9175522 1.0793318 0.17445914 -1.4330124 4.912623 -3.4671898 -2.4743338
M036+1(N39C) 0.71174157 0.22772558 0.6375956 0.0063559595 -0.6918133 1.5151509 2.2744532 -0.23463783 1.030132 -0.73814285 -0.16701092 -1.1919205 -0.66949135 2.542048 -2.7802765 -1.817286
1(N39B@C) 1.1159211 4.2921395 -0.4261832 0.5158799 0.31858638 3.1265993 1.0043042 0.3246861 0.013186781 -0.73774385 2.0766463 2.8460479 2.4737067 0.8400648 -2.2439241 -2.312316
M188 0.58388686 1.0559255 1.3513085 -4.5712156 -0.4338308 0.6481285 2.8229277 2.2050242 0.4751972 1.9389199 2.1015935 -1.1316444 1.8285356 0.3899875 0.5648021 0.22901434
M052 -0.5082656 1.030799 -1.5839163 -3.275908 -0.8954409 6.3476806 1.1868767 1.2444638 -2.7914991 -0.6019517 1.8328507 -1.5585039 -1.6346118 2.0233827 -0.09242709 0.17696366
M076 -0.14916271 -1.3958523 1.0178833 -3.9574347 -1.5825723 3.017464 0.64361036 -1.483575 -1.6453011 -1.6260355 -0.26565576 0.36296892 -1.3828554 4.7210217 0.60587054 -0.88476694
M351+UNK -0.7046657 2.0024557 1.9526396 -0.87297237 -1.4930729 -0.36205876 1.1922001 0.6630022 3.1308198 1.5512238 0.7384269 -3.3852146 2.592129 -0.019418834 -0.9058847 -1.7487775
M218+UNK -0.24642956 -0.4863952 -1.3914578 -2.5736864 -0.09686249 1.1799585 1.1783038 -2.025818 -1.1934432 2.026254 0.21616195 -0.83954126 0.7166358 -1.5183434 -0.5940451 -1.0535868
M150 2.610433 0.54232216 -1.1629206 -2.4245205 -0.29242146 0.23030484 2.3898597 0.7718908 2.9442434 -0.57278436 -1.8364108 0.87587255 -0.6249711 1.2389412 2.147634 -2.7463524
M007 -1.8812207 3.6706781 0.90336454 -4.1314936 -0.8968261 -1.0147284 2.224289 -0.8040936 1.1232082 -2.2790766 1.8937896 0.8268016 2.4390738 -1.0662718 -1.5547283 -2.2479339
M157+M288 1.3428684 1.7025747 -1.1449016 -1.058393 -2.7988825 2.6299767 0.6728419 0.65916663 0.6918149 -2.5982943 1.4966705 -2.632014 -1.1572288 3.9323862 1.1985327 -0.8642791
M016 1.600532 -0.59668344 -0.97591984 -2.5043042 -1.3471732 2.711178 0.3104727 -0.082535535 -1.102437 -0.6891004 1.2194806 -1.1858035 0.7661796 0.25029865 -1.8520011 1.1827374
M014 2.6125984 -0.15343927 -1.3749312 -0.17544506 -2.8005471 2.4455402 2.1569092 -2.0946655 4.480352 1.7368246 0.40495604 -1.6536391 -0.7828499 3.737401 -2.706325 -0.641108
M228+M101 1.2473018 1.9328448 -1.6474146 -0.72988766 0.4260686 2.062044 1.9182936 -1.5135387 3.0224903 -2.151663 -1.6770333 -1.5748782 0.3802049 1.7364969 1.3105277 -2.3265765
M228+M320 0.41730952 0.010149212 -0.93391 -1.1099346 1.021595 0.3189836 -0.9102952 -0.19196709 1.3566127 -0.73246497 -1.4975346 -2.2494397 0.78119963 0.8365423 0.74599135 -1.4672351
M305+M009 -0.3451859 -1.0788084 -0.24055132 -1.1210248 0.091128975 0.5030948 0.37024626 1.3258264 -0.05970377 -0.3131638 1.8884302 0.68204486 0.8092465 1.0346998 -1.2234558 -0.9528671
M141 0.33383763 1.4794341 -1.6909896 0.43919775 -0.9600967 2.2721264 0.15237717 -0.35601115 3.066548 -2.3267167 1.6789514 -0.38981745 -0.68850017 2.6983871 -0.990425 -2.664183
M305+M320 1.4567156 -1.6515247 -2.3042943 -2.127851 -0.76366544 1.0030966 2.0663161 -1.5868307 3.5238926 -0.7310196 -1.2994177 -0.91512316 1.5409782 0.6501016 1.5450118 -0.34625226
M359 -1.9747055 -1.5573615 -4.193559 -0.41427675 -0.57504296 2.9993424 2.303127 0.41100207 1.8817881 -0.83398855 0.75262535 -3.7177916 0.21084212 2.422035 1.764716 -0.08787547
M271 -0.9171059 0.6887128 -2.7114499 -2.7413719 -1.1049448 0.7424778 0.8641949 0.6225664 -0.6049844 -2.0957742 0.2822736 -0.0005802052 -1.0911299 0.4731119 -0.7573988 0.79075485
M175+M153 1.3555152 -0.09787212 -2.8171961 -3.4824476 -1.7057409 2.6785815 4.1837096 0.44783422 -2.5585954 1.2914188 -0.15080097 -1.7069068 0.20770442 -0.5518228 0.4062006 0.6234715
M385 -0.57537663 1.4750539 2.0523903 -2.0471306 0.22406448 4.522686 1.017433 0.04369503 2.781587 -0.14923221 2.0325146 -2.7223413 1.1622176 2.3233647 0.052350007 -2.232706
M244 1.8732243 0.7979776 3.259641 -4.969933 -0.33226696 1.089617 2.363848 1.7964587 -1.0891851 1.1851779 1.6124362 -1.6653332 2.8300018 -0.018183272 0.25256246 -1.4291747
M126 -0.6755905 1.7791758 -0.9783381 0.47463033 0.3156931 3.8373604 1.0751508 0.5212609 0.4626504 -0.4578713 0.23752742 -1.3558234 -2.442148 2.8879547 -0.45202073 -2.2821326
M157+UNK 1.489919 3.318347 -0.14653514 -2.414292 -2.1776757 -0.39076638 3.194114 -0.69618744 -2.5300605 0.19269107 -1.816575 -2.7883177 -1.932565 0.1331705 -0.40724507 -2.8554764
M343 1.1174651 0.3770618 0.04657112 -1.3041961 0.6594661 -0.05523081 3.4904091 -0.17182343 3.291078 0.18754648 -2.7480242 -3.5774853 -1.0132275 0.11196795 -0.98357135 -2.062104
M086 -0.20796587 1.81267 -1.2340206 0.27829093 -1.673404 1.884095 0.61584806 -1.0246412 3.6480927 -1.4479861 4.383866 -0.46505573 1.7068219 2.0677485 -0.14854749 -3.6891599
M153+M106 0.03424278 -0.40543926 0.47567594 -0.18995929 0.59510136 0.8107623 0.15349585 -0.21929376 0.56582385 0.3600419 -1.508682 -0.8005819 0.036127333 0.23956206 -0.68350244 -1.4632518
M063 1.0724899 0.07927955 0.13403966 0.21329933 -2.4472518 3.152662 1.7189143 -1.7128732 -1.9721336 -1.9119686 2.0262609 -3.1623628 1.7678014 2.8234196 -1.1731856 -2.2792034
M039+1(N30D) 2.4861972 0.84499484 0.45062143 -1.5542703 -0.49057066 1.461336 2.6699545 -3.4169257 -3.1053169 0.045216907 1.6688163 -4.07165 2.656577 3.1660097 -3.6595664 -3.211836
M034 1.2348692 -1.0423803 -2.819033 0.59025306 -0.76563716 2.891775 1.5600218 1.3366661 1.769089 -2.821652 2.242072 -2.0608163 0.57379687 0.83904344 -0.552996 -2.3356745
M317+UNK -0.3379992 0.08219 1.1783706 -1.8528543 -0.9516035 2.5638425 0.3432513 -0.62969106 1.4108256 -0.2580667 1.2394108 1.5576724 1.3706974 3.8934078 2.4415293 -1.6658076
4(N23) -0.7853113 1.5157862 1.0191119 -3.5117507 0.17794447 2.5517738 0.7792851 0.12608291 0.2967684 2.9468715 0.88954556 -3.3855872 -0.1753267 -2.6630223 -0.507999 -2.010947
5(N1@B) -1.2897581 2.2083907 0.23119785 -1.674657 -2.7610698 0.808837 3.3335798 1.4116848 2.538469 1.3847369 -0.3036353 -1.7275512 1.5268782 2.0180945 1.19513 1.5652974
M358 2.143293 1.4902676 -0.6674692 -2.8274784 -0.6669912 2.55785 1.9674604 -0.20619293 -3.348648 0.5505416 -0.27148533 -3.0709562 -1.6587503 0.477525 -1.9485431 -0.66980845
4(N39B@B) 0.989456 -0.4883446 -0.03648887 -2.1322286 -3.1737475 0.90501153 4.596909 0.9485641 -0.2075624 -3.943864 -1.9835272 -2.6958132 -0.8117638 -0.12089131 -0.44283915 -2.0630558
M351+3(N01) -0.41854814 0.5156328 1.3477377 0.55762553 -1.1851004 1.4150912 2.0793617 1.6484202 2.9634619 -1.2282873 -0.75232023 -0.43054378 -0.35419703 0.52947366 1.3713578 -3.1581175
6(N23) -4.065156 1.7982879 -1.5695 -0.5971273 -1.9486448 2.5487602 4.0225735 -1.1394867 0.9255036 1.8877673 -0.073783904 -2.6773117 -0.6918444 0.7170457 0.41229257 -0.17517588
M368 1.4783472 1.204986 -1.5490847 -2.305758 -3.4876943 1.86765 2.1760855 1.0515578 0.9554206 -3.3945966 0.5983348 -2.1409018 1.9134328 0.0055098594 2.2363324 1.303462
N(N@B) 2.3850374 0.8060055 0.39832917 -2.0631394 -3.079524 1.2347044 2.3083432 2.1028512 -0.8150167 -0.88405484 1.1574575 -0.93582684 -2.0618782 0.7351573 0.105573036 -1.7082727
M362+M059 0.11239859 3.690688 2.6718702 -1.5275471 -0.92094827 1.7333945 3.1958668 0.6513364 -1.0855597 0.3742535 -1.766072 -4.7584558 1.7677542 3.4431374 -0.22330627 -1.475159
M074 -2.739475 5.1314793 -1.9693158 -1.3547474 -1.7884953 4.659507 3.0590181 -1.5943341 -1.4505128 -0.36272082 -1.3788694 -0.64723414 -0.31812626 0.9067641 1.0680315 0.03010642
2(N48) 0.034017056 -0.74600387 0.06358906 -1.3117585 0.3892571 3.841554 0.092900105 -0.5127671 0.5725396 0.47429287 -0.6669719 0.6972873 1.8652053 0.34408268 -0.16020913 0.04475166
M447 0.9213746 -2.5788836 -1.2305098 -1.7034142 0.22707586 0.9165462 1.2032937 -1.6580365 -1.3001778 -0.47330645 1.4491364 -3.2163768 0.029484142 1.5759238 -1.1287339 -2.9784205
M449 -0.19564594 1.9460373 0.58401954 -2.4680393 -2.5615175 2.0674307 1.0016009 0.19843604 -0.6446941 -0.5455851 4.094609 -1.9052573 2.4577515 2.3973138 1.4994836 -0.87753284
1(N34@B) -2.7885327 1.818555 3.128789 -2.198451 -5.2569838 0.03885076 2.578096 1.9388059 0.7901508 -0.63588816 -1.3384007 -3.66363 0.80619335 1.229255 -2.1812084 -0.6258123
M054+M365+M054 -0.11227225 -2.238335 -0.075536944 -6.2929544 0.43980014 1.9835721 3.132634 2.4497862 -2.373517 0.5011038 1.3249233 -0.52541286 -0.14772697 -1.1239438 0.11343028 -1.408341
M289 0.011176023 4.1450057 0.32463914 -1.2198949 -3.1579874 1.3920133 3.4236164 -1.8010334 0.5364872 -1.7855676 2.686576 0.27359068 2.831426 -0.3906382 -0.37588754 -2.305952
3(N39B@B) -1.1434003 1.3925644 3.7293231 -3.9122162 -3.1131268 0.08070621 3.882474 1.3646489 0.41237852 -2.3969698 -1.4165965 0.43839717 0.62150025 2.7007873 1.0042157 -1.1398526
M177 2.1427908 0.04375142 1.6046982 -2.1851854 -2.5514505 1.4696978 1.9863735 -0.79610735 0.52262706 -1.977293 0.62179583 -0.94855833 1.1398731 0.42303738 2.0317163 -2.9162471
M175+M131 0.13899636 2.5595245 -1.3011945 -2.4116087 -1.2540582 2.238766 0.41731068 -0.5952619 0.05201515 -0.1001089 3.6289055 -0.72363 1.1763402 -1.4211394 -1.0595225 -1.1367364
M357 0.21952967 3.1338158 -1.9856476 -3.718807 0.036222484 1.0141776 1.5182554 -0.85681117 -0.5083403 0.76026565 -0.84737223 -0.28021047 -1.7223902 -0.6174043 -2.0748398 -0.31757218
3(N1@B) 0.16559601 0.4257246 0.9062573 -3.678696 -1.6461943 -1.7300425 5.2680426 -1.4883542 -1.5156416 -1.049201 0.8103167 -0.42172912 4.3648324 2.1819596 1.1882155 -3.1917005
M175+UNK -0.30148593 2.5522678 0.13329245 -0.07265077 -2.1123924 1.1512767 1.4387028 0.16779062 -2.2059267 0.57518387 0.7079215 -2.2737834 -1.2699571 0.9556342 -1.2018926 -1.7741987
M308 1.1844574 1.9794894 -0.11156195 -4.001458 -0.8528164 0.35933653 1.6233764 -0.2850542 -0.21769919 0.3237137 -0.46961907 -0.5458152 -0.1352705 0.6373975 1.2941984 -0.09234683
M025 1.2506777 0.7088636 0.7250368 -3.8162613 -0.48875576 0.4920424 1.6005425 -4.0606375 0.44270915 1.2406993 1.5047145 -1.5788184 -0.03187288 2.7084055 -2.7738256 -2.7045867
M068 -2.1647952 2.3294806 0.76317805 -3.5046897 -1.0175956 2.4728243 2.6424172 -1.2554008 0.48419416 -1.4014728 -1.2493231 -0.4211061 -3.633585 -0.5567273 -1.6682351 -3.3312883
M129 3.0158 0.7948559 0.38053524 -3.617434 -0.55981207 0.7827001 -0.011063233 -0.00956912 3.4803033 -0.08710114 1.009017 -1.463255 0.47925195 1.9860463 2.0924256 -1.5433251
M283 -0.021239087 1.809356 0.16883758 -4.010943 2.22202 3.9188042 2.2467759 -0.73908734 -2.0218701 0.43795222 -0.9569867 -2.069473 1.9274331 0.6387787 -0.6923972 -0.9132919
M217+M124 -0.8530007 2.9094765 -3.7777593 -1.7681633 -1.1410784 0.23089647 1.0707502 -0.8259369 1.8207039 -0.73888713 1.1827219 -1.9059055 0.15016729 -0.22681643 0.96934044 -1.004093
M098 -2.541914 1.0032619 1.99805 -2.4940007 -0.6396714 3.610931 2.532188 -0.79726857 4.699075 -0.49601555 -2.9804847 -0.13961758 0.07151721 0.9603609 1.1120937 -0.19929259
M284 -0.8519394 -1.4690225 0.028416755 -3.2567935 0.8726015 4.391305 2.471672 0.3523247 0.32828936 0.75621945 -0.8926249 -0.12508543 1.3718965 -0.5536463 3.1473656 -2.1169367
M036+M343 -0.24558568 -0.81089747 1.2161292 -2.608188 -0.19647366 1.11825 3.686104 -0.28002757 2.5418792 -0.5430832 0.23714995 0.7937135 -0.76902795 1.1250478 -3.4577746 -1.6627005
1(N54) -1.3081942 2.816478 2.1381297 -1.3761533 -2.0159628 2.409097 2.2629352 2.03564 3.1502073 2.052052 0.25574094 -3.6645675 0.9554292 -1.1374354 -0.16791807 -0.94449
M001+M379 -0.8525945 2.462762 2.1371975 -1.2539985 -1.2705047 2.9860396 4.0315437 0.6349171 -1.482236 0.7326278 -1.5249866 -3.481662 1.7758683 4.6743064 -0.026422247 -0.61883056
M104 0.00033849434 -1.9107511 0.87487775 -2.544688 -1.2906715 3.2511637 -1.382229 -0.920431 0.38644007 -3.1674182 0.044631407 -0.99679095 -1.5015134 -0.52119344 0.36758044 -3.0759408
M011 0.5743323 2.5414357 -0.6140172 -1.5141717 -0.86862093 2.9078374 0.7286679 -0.5196148 0.5882302 0.71926975 1.4421452 1.6575321 0.6394363 -0.7474523 -2.522428 -0.023142057
M062 0.12262577 0.30234626 0.059743803 -1.4979267 -1.803335 2.9377515 2.6118023 -0.25908488 -0.35533693 -0.029861035 0.32450825 -0.32913363 0.09712122 -0.027888903 -0.371333 -0.58370376
7(N23) -2.5850623 3.2720864 -2.146288 -1.5957384 -1.240396 4.2949266 2.8248847 -1.9862542 2.0215955 3.6457345 -0.44439963 -3.7686636 0.3335449 -1.3718406 1.9191899 -0.65482163
3(N14@B) -3.7613864 1.2177212 2.7491446 -1.4069362 -4.2177014 2.639345 4.045439 2.492463 -0.4968682 0.35298872 -2.8877182 -0.505785 0.4170891 0.7862476 -3.0070825 -1.0395434
M030 2.704906 0.6910148 1.1542886 -1.21578 -1.9628669 2.2347953 0.93316174 -0.44477868 0.52824205 -0.58464926 0.6896575 -3.014279 1.0590591 1.7026582 0.101698644 -0.462706
1(N46) -0.13108297 0.3542721 1.9371178 -2.1100214 -0.7144091 2.657211 1.115744 0.75350106 0.1422778 0.6803377 -0.3265697 0.34262398 2.556906 1.3566806 0.19644319 0.4904187
M012 3.072163 0.17800985 0.65770495 -3.3690183 -0.0033401807 4.448179 -0.40798694 2.5688026 -1.2709271 -1.8202335 2.830914 -2.531426 0.7155573 0.36741915 -1.3945701 -1.2400103
M201+M377+M377 0.0047737495 -0.004115639 0.024004724 0.014408313 0.018665649 0.01995106 0.0253775 0.02792026 0.014643218 0.0077316198 0.007215894 0.018014913 0.013589732 -0.020434974 -0.0038552585 -0.02194934
M107 -0.6861804 1.9618466 -1.9828348 -0.7378098 -1.8424687 1.4974511 0.55525804 1.0553733 2.612694 -1.0316399 3.1953216 -1.5847133 -0.5136809 0.3286143 -2.1645672 -0.24877833
M276 0.21338278 2.4410655 0.387722 -3.6629405 1.6939448 2.2174952 2.7516065 0.05525408 -0.7227467 -0.287185 -0.09697515 -0.7083863 1.0098003 2.1351323 -0.8077265 -0.6631868
M482 0.32568222 0.48811278 3.3586335 -2.4595244 -0.35676178 1.626043 0.14064656 0.4881818 0.6689233 0.1303413 0.7286906 -2.5649343 0.68860924 1.898339 -0.7059732 -1.6939462
2(N51G) -2.247653 3.3751874 -2.04984 -2.9607177 -2.6248603 2.5011272 2.0561461 -2.3933172 0.83850396 0.78445643 -0.07690296 -1.2009473 0.26398635 -3.4179654 1.5666472 -1.3811798
M370+UNK+M370 0.12195068 0.92132735 -0.1693205 -1.7790841 0.42772081 1.6838 1.924756 -0.08023598 0.93796116 -0.27386954 1.3525668 -0.5983773 0.14615904 0.9554961 -0.4675914 -1.2488375
M175+M038 1.7548692 4.1304374 -0.16483173 -3.7669985 -1.037479 3.1862082 -0.15649939 1.1994861 1.4632663 -1.078282 -0.0855204 -1.1010784 -0.56828725 -0.4608067 2.1619532 -0.89200574
M348+M004 1.3247013 0.38901445 3.6763012 -3.080987 -0.087126836 4.4589443 -0.49328074 -1.7851835 3.6751993 -0.8097833 -1.0847499 -0.4503845 -0.47474936 0.02557834 0.73487467 -4.323204
M157+M381 0.807783 1.2829844 0.26963538 -1.1976539 -1.5890346 1.6921297 2.578423 0.4733235 0.4808053 -0.44537202 0.21258053 0.18859363 -0.14953187 -0.25106648 0.6926302 -1.5191557
M370+UNK 0.22573817 1.3380586 -0.98596007 -2.244394 0.28027484 1.8329796 1.8476056 0.03430918 0.18161815 0.10245657 1.4606086 -0.23117739 -0.4601085 1.2837622 0.18417071 -1.1918513
M157+M153 -1.4727048 3.212313 -0.98333067 -2.1640074 -4.540035 1.3878925 3.4884837 -0.33261022 -0.94162184 2.973404 0.088251986 -1.5142717 -0.532141 1.1220843 1.090902 0.9008465
M175+M387 1.4454479 1.0864649 0.5378028 -3.5879574 -2.5916462 3.8763134 1.6347964 2.965774 0.24317306 -0.630366 -0.5044486 -0.18584397 -2.6280134 0.15875934 3.5193357 -1.6618683
M327+M365 -2.149058 1.1422125 3.071621 -3.489855 -1.2383882 0.34272626 0.8547757 2.3609383 3.087795 -2.0281298 2.7556517 -2.3379636 1.5143089 -0.9409501 -2.2309382 -2.4972758
M362+M099 0.024861513 -0.76870865 0.9813861 -2.9640298 0.1165342 3.165245 1.5107591 0.014865405 0.8854289 0.3453266 2.4587116 -1.0606124 0.97386354 0.39958754 0.5021264 -2.1027398
M362+M244 0.5521688 -0.30832976 0.38223553 -4.69256 0.774672 3.2553403 0.1850343 -0.23361325 -0.7431211 0.34796137 1.3891028 -2.8717067 0.8335478 1.4044241 0.66937613 -0.92528653
M362+M158 -0.05634309 1.6833316 1.9269245 -3.4435935 -0.023485519 0.4935044 2.8484192 0.10122097 -0.4825169 -0.07117247 -0.44884974 -2.1492074 1.1041955 1.147297 -0.54526275 -0.7255916
M362+M026 -0.2974631 2.1222777 1.0780387 -3.4142203 1.5371922 1.5774499 3.101481 -0.048014946 0.22518861 0.021726526 -0.48465148 -1.1667078 1.3319967 1.4183024 -1.5468098 -0.7186362
M362+M383 -0.9271928 1.7222825 0.83993286 -2.0937147 -1.0079898 1.4702935 1.461025 0.5611762 1.8526927 -1.519945 0.751802 -2.7925713 0.6927577 0.40143338 -0.29180744 -0.37793303
M260+M266 0.66429955 2.3346457 -1.6083724 -2.1632648 -0.9024597 0.5339131 2.3480039 0.04461549 -0.032938715 -0.4997796 3.094407 -1.0020844 -1.2054378 2.0796938 -1.7967482 -2.2288558
M264+1(N24) -2.37059 -1.7722672 -2.3247225 -3.7011988 -3.0338888 1.6268246 2.3630826 -0.27456418 1.1361114 -1.2306035 3.4996002 1.2702022 -0.55164057 0.88996464 1.2102474 -1.6091046
M351+M342 -0.014229216 -0.34234163 0.18097252 -4.1589494 0.3189177 1.8458613 1.5783789 1.06097 3.0316484 0.7110773 0.40391138 -1.9292451 0.86175084 -0.7635264 1.0184789 -0.44272092
M175+M286 0.20280021 -0.19283761 -0.45936674 -3.7858458 0.35838673 2.3709817 0.34661642 1.4933317 -0.0300712 2.0214534 2.114575 -2.746927 -0.100272134 -1.0474128 -0.8958021 -0.21823986
M195+UNK -2.978553 1.0274185 -1.314472 -1.5574119 -1.6527671 1.466123 1.5197128 -1.5184637 -1.259944 -0.8308391 -0.60578376 -2.6045654 0.71861196 0.24521491 1.81437 -0.90836334
M036+1(N30C)+1(N39C) -1.1552756 2.203638 0.57002217 -2.1640465 -0.5665257 0.5097395 1.593941 0.14358896 1.5714316 0.5925653 0.008136816 -2.754126 1.5601485 -1.4937187 -1.0163169 -0.88040346
M201 -0.02676068 2.3532789 -1.4947984 -3.1734653 -0.71997124 0.8818581 -0.7675663 -0.8153288 0.98761547 0.13638572 2.688683 0.0831023 0.91829073 1.35027 -0.18117563 -0.8173809
M305+M111 1.5371146 0.38917685 0.015428727 -0.98377186 -0.40089726 1.688556 0.5930824 1.991406 0.9711955 -1.2354705 2.1760552 -1.3010331 1.0864029 1.3951324 -1.1130866 -0.9266929
M305+M324 2.4335608 0.8576762 -1.0796003 -1.2389477 -0.48655888 2.9295464 -0.6065691 1.5045573 0.26436692 -0.10785348 2.0725703 -2.326817 -0.2412884 3.5790293 -0.9651683 -0.6043555
M218+M099 0.2496279 1.505954 -1.3256824 -3.4840832 1.9239202 0.8886342 0.5563664 -0.05181908 0.114962235 1.5495366 -0.6276899 -0.46708903 0.7583826 1.2518243 2.7697759 -3.0186737
M218+M218 -0.12170635 1.8466214 1.1001484 -2.344669 0.78264254 1.4354028 1.8875492 -0.10814568 -0.55359495 -0.08660522 -0.77534646 -1.1179465 1.5050288 0.9839622 -1.3851616 -0.36463118
M325+M342 -0.0012322204 -0.030303668 0.011478076 -0.006506029 0.01385357 0.005506195 -0.021998797 -0.01326123 -0.030161621 -0.0029071346 0.010195279 -0.019097999 -0.02395164 0.014694263 -0.019639444 0.020433703
M325+UNK 1.9232134 0.10794101 -0.7934658 -2.5106955 -0.7552946 -0.067690864 1.1506928 1.6576898 2.2391198 -0.12878498 -0.56712747 -3.5052855 -0.49510697 1.3213338 1.7004886 -0.7381364
M297+UNK 1.9075037 1.6954896 -0.30792508 -2.418881 -0.10981207 1.0353383 2.1226761 0.1742863 0.68763137 0.70224345 -0.9500604 -1.3502054 -0.8604471 0.3009626 1.0896848 -1.0852582
M305+M288 -0.45717123 1.7560222 1.1167176 -1.2779913 -1.0184003 1.7573628 0.6495679 -1.3977214 -1.034552 -0.08610821 1.3119463 -0.24822405 0.5261827 0.107169144 -0.7483205 -2.8315914
M304+M342 -1.2147087 0.334308 -1.2872756 -0.72773635 0.090229206 2.771528 2.3625126 0.6500106 0.75256306 0.23493041 0.83009195 -2.7596302 -1.2545847 -1.0010936 -0.6414725 -3.0861185
M297+M296 -0.7163769 4.8918533 -0.76241016 -1.819913 1.0588636 1.5497721 2.0104346 -1.142248 -0.11598496 -1.0406991 -3.3261375 -2.0462067 -1.1978499 0.11175863 1.0677241 -4.030495
M157+M111 1.2563676 -0.39917397 -1.2805461 -1.6218548 -0.7923925 2.4437518 2.3113558 -1.2534224 1.6483591 -1.0153426 -1.3907652 -2.8194864 -2.4179401 -1.9436729 -1.779463 -2.4191828
M347+1(N14) 2.9509513 1.6041903 -1.263212 -2.0784578 -0.53092134 2.94557 -0.2535092 -0.38356742 0.66713583 -1.2897863 -0.13702795 -4.1505365 -2.754796 3.125783 -1.6240968 -1.1495026
M157+M136 0.0039851563 -0.026242476 0.01645505 0.01838069 0.0037078462 -0.022082511 0.004048569 0.026183894 0.0066698845 -0.0020166798 -0.0041694483 -0.0010048101 0.0008008913 -0.0209166 -0.022842081 0.006943245
M036+1(N39B) -1.9142815 0.54884124 -0.04830487 -1.643927 -1.9370581 2.0557013 4.0153584 -0.49991328 -0.09394541 -1.9167671 -1.0411755 0.71335274 0.13739383 0.47703984 -1.4605942 -1.5721698
M036+1(N24)+M343 -0.24066454 -0.6858315 -1.6554661 -1.3102258 1.2233585 1.7749826 3.2466676 0.49941093 2.2325933 -0.33965677 1.3078487 -1.794436 1.11334 -0.3496061 -1.7763156 -2.040379
M175+M381 -2.5966582 1.3345715 -2.7071638 -1.456545 -2.3177981 1.4802711 5.02579 -1.5548495 1.4622283 -0.39272928 0.91818565 1.4270204 2.226991 -0.02167547 0.07013931 -0.9706772
M362+M384 -1.467686 1.9428371 0.79282033 -3.7169638 0.30442613 2.8254983 -0.2468766 0.14541975 -0.47185203 0.26494074 -0.5587197 -5.2406683 0.880733 2.0654426 0.5820338 -1.0449568
M362+M312 0.3611125 0.57314897 0.40305185 -2.3387675 1.2462624 3.7746124 1.3495929 -0.16136332 0.65707093 0.33997318 1.2549993 -0.1703207 1.6055723 -0.3118751 -0.47295907 -1.5563745
M362+M123 -0.1715231 0.7855941 0.044236064 -1.4724004 0.76024157 3.4409578 1.6189414 0.2699369 1.9237072 -0.81298 1.034429 -0.9552663 1.4360749 -0.1684887 -0.8991019 -0.949869
M157+M367 -0.85238814 2.066553 1.3104438 -3.4944053 -1.2948059 -0.07412507 1.1408073 0.6548576 0.3538244 -0.92857575 0.6741394 -3.6209369 0.34795862 0.73820615 0.18876521 -0.86051524
M054+M393+M054 0.024309283 -0.019376056 -0.028455438 -0.016074928 -7.360292e-06 -0.0013808032 0.000258278 -0.028194116 -0.0062421206 0.00037275077 0.029643519 0.0020164307 0.009748491 -0.020172205 -0.02669578 0.019194374
M260+UNK 1.1411542 -0.77362996 -0.30599666 -2.6667082 0.2975402 0.8385697 2.6877835 0.06970869 2.395255 -1.5243232 0.49212363 0.18408994 -0.4663479 -0.04335291 -0.7337244 -3.3074076
M305+M038 1.6440899 1.2078267 0.44468638 0.29200044 -1.0036427 2.4645126 1.4575598 -1.355229 -1.5171297 -0.5242955 1.2835169 -3.662686 2.0327127 1.2772439 -2.2413306 -2.6718767
M348+M288 -0.53392404 0.73717105 0.29696178 -2.8128326 -0.43364978 0.4166385 1.077691 0.3481009 0.4447795 -0.18029553 1.0624427 -1.491312 -0.42129388 1.0613712 0.589576 -0.6508157
M362+M317 -0.39253587 0.0737001 -0.08625392 -2.7911253 -0.8298873 2.1921637 1.172462 0.007007652 1.8413571 1.3982025 0.24972945 -0.18758652 -0.42557076 0.6426157 1.6844794 -1.0442963
M175+M388 -0.408229 0.84664273 0.71523947 -2.3934171 -0.48686463 0.41641474 1.8239543 0.24890159 0.89661855 0.053652953 0.8437717 -1.5356998 -0.1635153 0.42624918 0.41522607 -1.025641
M175+M203 2.2706392 -0.32098836 2.2956402 -2.8068352 0.3861475 0.9688311 1.2173209 -0.69038814 1.1623139 0.7913757 1.823261 -2.2342896 3.0410447 -0.5372441 -1.6655159 -3.607541
M260+1(N30C) 0.17460251 0.93725437 -1.2162361 -2.0563629 0.7250202 1.7866006 1.0456781 0.30289006 0.28734696 -0.18003888 1.3950846 -0.10640842 -0.39902607 1.4103584 0.051492788 -0.9736742
M096+M029 1.2786418 2.3506382 -0.3675768 -4.282716 -0.06359908 1.5593549 1.2213159 -1.5493131 3.4330592 0.63680327 0.10168589 1.1679986 -1.098307 1.6224816 -0.9953436 -1.9357823
M305+M365 -0.4335028 1.8414297 -0.505578 -2.6784208 -1.4259573 -0.30507216 4.2794695 -1.1923442 0.2965866 0.57963717 -0.8615706 -2.4908285 1.3841833 1.028535 0.29269782 0.1145431
M153+M205 -1.0770056 -0.022932276 -2.8853438 -1.2131249 0.17821391 3.9696527 1.1810919 -0.11773139 -0.7992083 0.45993173 1.4227176 -0.9438761 -1.7708248 1.1947314 -1.4972883 -1.3240093
M305+M209 -0.030079495 0.02101916 0.0141806 0.0042769248 0.025782952 0.023092352 0.020547634 6.41053e-05 -0.009689946 0.029413449 0.029009022 -0.015249889 -0.016725445 0.013623588 -0.029186554 -0.026490254
M057+UNK -0.5200015 0.30115375 -1.7932934 -1.6467295 -0.33933142 0.91508245 2.140141 -2.0374882 -0.3534584 -1.0676534 -0.42793685 -1.3116642 -1.5556856 1.9656248 -1.0794511 -2.8636956
M029+1(N08A) 1.3019176 -2.3911517 -2.5535595 -1.7756932 -3.3943012 3.2835376 2.1131644 -2.6164985 1.5485535 -0.09238075 2.5370476 1.1666095 -0.010109029 2.4095585 1.3293288 -3.1620817
M153+M377+M153 -1.2815746 -0.589135 1.9124814 -1.8607947 -1.8706989 2.2230961 0.8149782 -0.95845485 1.0352887 1.2013167 0.181125 0.9561274 1.479237 0.23138313 0.9298785 -2.8832862
M278+1(N24) 0.5396876 0.68574345 0.09451971 -2.3256419 1.4595038 3.5567915 1.321521 -0.27410936 0.8061949 0.382957 1.122245 0.030298196 1.5398446 0.06441148 -0.5107584 -1.3803414
M002+M379 1.1606592 0.64497155 -0.7234223 -0.46517277 -1.8580954 3.5015185 1.4973915 0.66639966 0.37876132 -1.4437898 -0.85014594 0.45155883 1.6276708 0.4560011 -2.3658571 0.5108081
M327+M044 0.02631817 0.29796377 1.2651628 -1.6008371 -1.1661255 0.25379238 1.3760126 -0.47107834 0.40874273 -0.27397975 0.115228176 -0.8610315 1.448338 0.15769495 0.8002897 -0.9172233
M260+1(N14) -1.9837157 0.08161293 0.6214274 -1.9528617 -1.8823009 0.09896205 2.1930208 0.7617399 0.5170028 -0.5404202 -1.4167092 -0.2101018 0.3318376 0.8000922 -1.4820027 -1.605068
M327+M057 -0.5680586 -0.41556734 0.5378154 -1.9305034 -0.8956222 1.8780686 0.06908509 1.0927386 0.95000553 -2.2835786 1.0654746 -1.6228517 0.55477977 2.7778409 1.1239783 -1.3813404
M054+M384+M054 0.4320785 2.3456118 0.4261979 -3.931534 0.47963718 1.8706352 2.8736372 2.8428605 -0.23661685 1.6608995 0.24831825 -0.42231706 2.462737 -0.4679088 -0.86922914 1.0104014
M387+M340+M387 0.0009871274 -0.014598782 0.02315729 0.0029507042 0.023653526 0.021954527 0.023401862 -0.026683096 -0.027598161 -0.023609806 0.016981676 -0.012464227 -0.015582535 0.00092224067 0.023772756 -0.012255747
M157+M066 0.026400948 -0.016281176 -0.017497798 0.019559521 -0.0235202 -0.0050635133 0.0013284857 0.022258671 -0.005901915 0.0067714886 -0.006424631 0.019727932 0.009478082 0.026787778 0.005163657 0.00041779663
M106+UNK 0.8754017 -0.082801424 -0.6228117 -0.95369875 -1.5841261 1.8654901 -0.9712602 1.0910568 -1.2348179 1.1256721 -1.0534171 -1.9378628 0.47754675 2.2381945 -0.5085895 -1.3732721
M057+M291 1.8811382 -0.29703677 -1.7626901 -1.0241513 -0.028379714 2.8595576 -0.8541723 -1.6380296 3.3030405 2.302825 1.4430981 -3.070832 0.3009433 1.702165 -0.9657629 -1.9977521
M157+M377+M377 0.7754813 2.4804018 -1.3613122 -1.7291086 -1.2620926 0.8475577 0.012568813 -0.1374348 0.19030221 -0.9171265 2.3566828 -1.0714716 -1.8376399 0.9931997 -2.6654398 -2.8444223
M317+M260 -0.86953884 2.3086395 -0.9328168 -2.8343086 -0.99863636 1.2517893 2.31044 1.0427258 -2.5301857 0.2903743 2.185256 1.0967199 0.17605926 0.6997109 1.706903 -2.681844
M157+M057 0.08576196 1.1136929 -0.57973844 0.28490987 -2.3313851 1.3122207 3.3051581 0.3337179 -0.5072805 1.617829 0.3318537 -1.5596184 -0.25884393 2.1650023 1.1347358 -2.737579
M153+M029 -0.007900031 0.0029364473 0.008246616 0.004404221 0.011979259 -0.010900743 -0.004584748 -0.010967979 0.026792161 0.0063270773 -0.014399931 0.02760908 -0.025403561 0.008612339 -0.011978294 -0.0109622935
M348+UNK 0.53941405 0.7781918 -1.0262423 -0.95382905 -1.2399276 1.5229323 2.6934223 0.7257086 1.2160205 0.4609135 1.1845435 -0.8527473 -1.9589685 -1.3238738 1.7223371 -5.5266314
M305+M180 -0.10306021 -0.0270167 -0.6555959 -3.257025 -0.5691372 0.75385875 -0.0066461503 0.8510326 0.6765723 -1.7922508 2.3250291 -0.5376531 1.4190103 0.014300482 1.1673932 -1.6437247
M343+M354 1.3837016 2.2985826 -2.0045123 -3.449532 0.32118252 1.4206592 -0.5153076 0.060467973 2.9542246 1.037429 1.7233573 -0.21779345 -0.71804947 -0.11940715 -2.1224916 -1.6227082
M059+M038 -1.0176468 -1.4046935 -0.89491755 -1.7705612 -3.12537 1.4691368 4.5667396 -2.2451878 1.4522506 -0.6707644 0.5035485 -1.4886079 0.024990434 -1.2216756 -0.94991165 -2.5878544
M347+M038 3.3746657 1.972458 0.07668163 -1.8154548 -0.96490604 0.08025178 1.2304186 -1.500242 -0.33334395 0.4715149 1.4964147 -2.6243975 0.4515541 0.6151724 -3.2398627 -2.99055
M305+M157 2.8474855 -0.8721638 -0.79011554 -0.907979 -0.82994145 2.705672 -0.36496073 -0.23133595 2.1879 -1.4053202 2.065682 -1.1608537 1.8029811 1.9006798 -2.1152484 -1.8041356
M036+M035 2.1602626 3.492738 2.2632186 -5.233737 0.28789178 2.526499 0.21962504 2.5316873 1.1315113 0.38854432 -1.4778764 -0.6139213 -1.604428 1.625704 -1.4810808 0.5041228
M347+UNK 0.17602132 1.7729625 0.23965412 -2.830229 1.3987975 0.52503365 1.5696498 0.6152982 1.1079924 2.9934146 -0.4439503 -0.18951291 -0.3211263 1.6643071 -0.29291326 -1.3344965
M036+1(N) 0.07197261 0.6422509 -0.0022026903 -1.3050244 0.39654994 1.2395494 1.4437094 0.072446294 0.6108232 0.013461628 0.7405092 -0.6205959 0.06610836 0.5671229 -0.3782259 -0.8067489
M370+M046 -0.023457862 0.69074357 -0.19256 -1.4921095 0.8025018 1.4001329 1.296737 0.13957782 0.8504514 -0.012819073 0.70905656 -0.63821256 0.112763084 0.8192874 -0.6452254 -0.6579266
M305+M387 -0.35526744 0.45230818 -1.2350397 -2.9368958 -1.9733948 1.3248534 1.040994 -0.11597169 1.4278711 0.9136644 2.993669 -1.1124058 -0.75965476 0.95099956 -0.3390693 -0.0917278
M157+M080 -0.6931144 -0.291088 -0.49613276 -0.63266015 -0.25592187 0.6390748 1.5334024 -0.8340707 0.097324915 0.9192903 0.5671657 -1.4424388 1.7688558 1.1541643 0.82529527 -2.452821
M157+M348 0.009768503 0.8727162 1.1778752 -3.794386 -0.101292506 0.15056428 1.0446534 0.65942425 0.010179172 -2.6501932 1.4222289 -1.1104006 3.6912277 -0.04625088 -0.0003663894 -1.2997905
M157+M342 -0.15562972 -0.13964674 -0.16458355 -3.0251877 -0.3104117 0.54897004 0.475506 0.72822213 0.98333675 -1.8919888 2.0770886 -0.8860745 1.9123755 -0.08149306 0.5846223 -1.5836508
M157+M059 0.63682187 -0.6314985 -0.4634326 -1.4181463 -2.756672 0.04392485 -0.5291497 1.659216 1.1268927 -0.31817985 -0.12221218 -2.775721 -1.1055198 1.5154322 -2.0024421 -1.94766
M327+M074 -0.78173506 0.75151545 -2.151838 -2.9263513 -1.1227802 2.6951065 -0.28479955 3.0081837 -1.0061744 -0.14645928 0.34279928 0.47796914 0.21412906 -0.34022874 0.9100279 -0.22453412
M175+M325 -0.012438514 0.012755044 -0.024894293 -0.021402495 -0.021205591 0.017751148 -0.02767489 0.0040098634 0.02986538 -0.021580186 0.0003453881 0.016547998 -0.0075458707 -0.017456396 -0.023664981 0.012965084
M096+M139 -0.31069732 1.613969 -3.7846596 -1.4260701 -1.3806322 2.7581723 1.6519543 -2.7175248 1.1781573 1.3784405 0.75667435 -0.38906294 -1.0792947 0.7775695 -0.26788595 -2.3210008
M377+M383+M377 -1.2128406 2.684919 -0.066159874 -4.180632 -3.252927 0.37780112 0.94670326 -2.5658445 -1.5010304 1.7290733 2.1762934 -0.7592855 2.2187858 -2.0639684 0.7452727 -1.8450774
M305+M332 0.89639723 -0.46340838 0.19827518 -1.7497348 -1.4449642 -0.030937202 2.0644982 0.2994382 0.30600703 -0.29351926 -0.6079558 -1.380292 -0.18334186 1.9016491 -1.7985424 -0.96087813
M036+1(N39B)+M343 -0.08864828 0.68872035 -0.8800142 -1.5313355 0.4966686 1.0282332 0.86363053 0.065999426 0.27583945 0.039132938 0.9392372 -0.039961156 -0.17306541 0.7947692 0.030008178 -0.6638584
M036+1(N30D)+M343 -0.11501187 0.68000627 -0.25537392 -1.5539862 0.61687696 1.2293956 1.1708119 0.1567255 0.9514074 -0.16361746 0.7401784 -0.68836766 0.0483758 0.6325986 -0.52138513 -0.6538704
M136+M387 -0.43944886 0.8506173 0.11502378 -0.8079761 0.35204324 2.3937404 1.3148142 0.44635862 1.8598475 -0.9487526 0.4933821 -1.1256906 1.0784625 0.29668868 -0.90115166 -0.47813916
M386+M111 0.25292197 0.56868076 0.12287595 -1.7701414 0.9927453 2.5604115 0.97107345 -0.04530614 0.4669588 0.19295672 0.8031946 -0.3527257 1.0972971 -0.03998309 -0.46758273 -0.99914515
M036+M010 0.71308607 -0.82746845 0.2949101 -1.8717767 -2.104223 0.23468599 1.7977266 0.7243998 0.34271097 -0.1205074 -1.5342435 -1.1474762 0.010081457 2.35824 -2.5962508 -1.1596884
M362+M041 1.7521337 0.43705112 -0.117589876 -2.36627 1.3111242 5.205369 -0.15466876 -0.07031429 1.293438 1.371244 0.25531873 -1.5073541 1.2492572 -0.62417686 -0.1252826 -1.3529352
M167+M131 -1.1580939 0.59762293 0.81392294 -0.93127185 -0.7872535 1.7112355 1.1642654 -0.3902172 -1.2499205 0.31451735 0.7958858 -0.16049854 0.9600301 0.5055283 -0.25642478 -2.5802672
M260+M265 -2.0122802 1.193907 -1.9569628 -2.220645 -0.032659713 2.536797 1.1281753 0.48266643 0.721191 0.54113185 -0.17499718 -1.3122745 -2.2583082 1.3673809 -0.01002552 -0.5188985
M362+M005 1.6791655 0.35555935 -0.06549494 -2.387241 1.2018236 5.128435 -0.259054 -0.19485745 1.2810225 1.219203 0.049184598 -1.4992977 1.0064702 -0.56818134 -0.15073286 -1.3553042
M362+M207 -0.5357448 1.9118092 0.25924537 -2.7087317 1.8433679 0.52566296 3.2057621 -0.6787865 -0.096146464 0.9770161 -0.1025877 -2.2634866 4.0834436 0.77558404 0.6753106 -2.585467
M036+UNK -0.063357174 -0.5395579 -0.35845017 -0.9149447 -1.8313347 3.0077908 1.9805596 1.1813649 -0.87022126 0.8790819 -0.3866411 -0.19827756 0.7046808 1.2324961 -1.2517525 0.1391333
M157+M340 -0.52308446 2.6733785 0.85099053 -1.0024923 -0.6120341 2.0463152 0.65902805 0.39532173 0.6604161 -1.3241812 -1.3528191 -0.15413164 -0.6087625 1.2308537 1.272637 -2.3831313
M291+UNK -0.4065143 -0.96217877 1.5147877 -1.9319044 -1.2944583 0.8821019 0.3458285 0.6650572 0.8986219 0.020283014 1.5745724 -1.8492087 0.43844262 1.0699093 -0.024852147 -1.6455655
M317+M269 0.55542386 0.10679466 0.78563356 -0.930121 -1.7276602 0.5032277 2.251067 -0.35966393 -0.28649202 0.123037554 0.0012148861 -1.7842733 -0.5033006 1.9002951 1.0719182 -2.1493595
M305+M029 0.010225149 -0.016956216 0.023918979 0.007748102 -0.015803115 0.0303589 0.0049057584 0.027262151 -0.0076212296 0.0058394154 -0.029504223 0.0010572636 0.028111747 -0.026970714 0.026951041 0.020578358
M351+M380 0.81575286 1.0170095 0.58804 -0.7348944 -1.7012082 2.169092 2.1541407 -0.009778707 1.3522273 -0.47459894 -0.122000046 1.0420253 1.5606899 -0.8722472 0.7045271 -1.7568069
M175+M380 1.9333342 1.0159223 -1.8506504 -2.648186 -0.033799488 0.9645078 1.0021086 0.14672022 0.96593046 -1.4278 1.5073408 0.070258126 -0.17675394 -0.55475116 -0.43010414 -2.7504835
M009+M320 -0.06716127 1.5175308 -1.132081 -2.6521437 -1.3408666 -0.44845027 2.6199276 -0.9112016 -0.63963956 1.8904194 1.0439259 1.2658765 0.9509949 -0.31928125 0.33086973 -2.3685353
M304+M041 0.034126263 1.5688183 1.878246 -2.3439736 -2.9876542 1.0654279 2.5594506 1.729993 1.1094942 -0.36925414 1.1131612 -0.81772244 0.32394686 -0.6814595 0.5678808 -1.1160897
M370+M373+M370 0.06044291 0.75947326 -1.0332355 -1.6072812 0.5994219 1.1472329 0.83365136 -0.025334515 0.363119 -0.12524027 0.9734448 -0.05314668 -0.19598411 1.0868529 -0.05633461 -0.7436555
M106+M096 -0.91085887 1.559097 1.172835 -3.0946894 -0.93681955 0.79015344 1.9801582 -1.050584 0.348383 0.3822203 -1.1626693 -0.69303703 0.52149075 -0.20941503 1.417496 -1.2556567
M288+M376 0.5688835 -0.020582113 0.38157865 -1.5070475 -0.38148132 2.342881 1.4552796 -0.11448319 0.047451895 0.61485744 -1.8391217 -0.8805123 2.176503 -0.81328005 0.7667071 -1.1259259
M175+M157 -0.50207233 1.3722867 1.8686792 -3.345224 -0.062063754 0.3164864 1.9481579 0.2544155 -0.23347981 -0.16529049 -0.3009187 -2.2131522 1.0019906 1.0011461 -0.4578299 -0.34992874
M136+M195 -0.51660585 0.41702121 0.96765435 -2.0963128 -0.948785 -0.10919263 0.84125406 0.4169806 0.12873587 -0.18539277 0.34130004 -1.8059478 -0.013933046 0.5857004 0.37176463 -0.60070544
M377+UNK+M377 0.0057961135 -0.017670369 0.0039211726 0.015295556 0.012486517 0.029259158 -0.005102522 0.022448441 -0.012814547 -0.006583631 -0.0023268722 -0.011302163 0.02384713 0.028161185 0.02581709 0.031049449
M305+M340 1.2859931 2.9070914 1.4174813 -3.974801 -0.076936476 2.9056778 -0.6549835 -1.7909795 -0.056254774 1.5670182 -1.7099597 -0.94301724 0.95806473 -0.7794015 0.4601977 -1.551766
M305+M041 -0.005101527 -0.029660331 0.020622995 0.02561296 -0.021298036 0.0003662948 0.003340368 -0.011579298 0.01260844 -0.002847714 0.004381956 0.018918658 -0.009927109 -0.0078255525 -0.030187162 -0.021011816
M305+M153 0.8254012 -0.67765266 -0.41246247 -3.1308622 0.98082924 1.8469132 1.0544896 1.8116899 -1.0649585 0.37644455 1.1030834 -1.2785037 -0.096238226 2.1700425 0.50091654 -2.0880175
M304+M304 0.6886182 -0.777439 0.42227367 -1.7402399 0.12101974 1.5541897 0.77898467 1.7934791 -0.5815631 -0.72424006 2.3920758 0.22146459 0.4695196 0.538868 -1.8089296 -2.8494735
M278+M124 0.3152663 -0.25859755 -0.45378417 -1.651684 -0.9853359 2.1585739 2.762497 0.973515 0.33265424 0.4350583 -0.84773314 0.28586861 0.39483136 1.7430907 -0.66668767 0.39040473
M377+M377+M377 -0.030567404 0.015662558 -0.009707217 0.010974785 -0.02719441 -0.002864599 0.015727434 0.017891575 -0.025136055 -0.025170797 0.0006966667 0.022426678 -0.009596555 -0.024890807 -0.012045403 -0.001279913
M387+M387 -0.005284517 0.022890907 -0.030990526 -0.025108268 -0.005028436 -0.021837479 -0.00019532783 -0.0074297567 0.026100166 -0.0133121805 -0.004556548 0.001463443 -0.025196083 0.008644003 -0.01208295 -0.0045111184
M157+M029 0.2108192 0.3332018 1.513232 -1.8965875 -1.1868898 0.28451902 1.4889129 -0.73856944 0.35248876 -0.35394892 -0.08134863 -0.8389658 1.4585059 -0.03623809 0.72701603 -1.2024282
M362+M247 0.16652335 0.31771016 -0.0007894818 -0.6792809 -0.2513557 0.42432567 0.8417344 -0.15581042 0.07212693 0.011184284 0.203703 -0.40309966 -0.0059060543 0.17813177 0.102688305 -0.67047
M362+M365 1.3173792 -0.408468 -3.6110165 -2.3460763 -1.2602334 1.3615451 2.028366 1.6993862 -0.55481744 0.12403926 0.21601467 -3.316646 -0.46454498 1.0929439 0.75988245 0.72288
M305+M075 0.020098988 0.35740575 0.06004822 -0.5429605 -0.2759913 0.54459745 0.8679203 -0.17820697 0.07653701 0.018197063 0.13695163 -0.33545604 0.11752949 0.10054665 0.21218824 -0.62698084
UNK+UNK 0.0016940071 0.016482068 0.009123721 -0.029345378 0.026164943 0.030187162 0.021801483 0.009968227 -0.0014949022 0.026526514 -0.005360091 0.017181994 -0.021535976 -0.00837031 0.006257865 -0.018793607
M218+M388 0.10969434 2.3537052 0.007929368 -1.3782077 -0.16990978 2.2492075 0.45891994 -1.0035212 2.2858617 -1.0378196 0.3213736 -1.2963309 0.3129552 -0.32772803 -1.5971327 -0.77623594
M327+M320 -0.006785704 -0.02401119 -0.014324774 -0.0033694804 -0.013067972 0.024918683 0.016775915 0.0015476529 0.015217426 0.017081274 -0.01811511 0.019672465 0.0099794 0.028869482 -0.020239357 -0.0069968463
M362+M367 0.11206376 -0.14089707 -1.2000605 -2.2847643 1.3471092 1.935526 0.5530417 1.5362614 1.7670422 -0.20863867 0.34935206 -2.192394 2.1625779 -0.14842145 -1.5778093 -0.77952874
M327+M348 0.8963743 1.7206395 3.8381484 -2.644445 -1.5309517 2.265005 1.6358213 -0.4558517 -0.37714106 2.3437755 0.56727654 -3.0642784 1.4998703 -0.56829476 -2.421564 -1.8642515
M175+M376 0.016458929 -0.009903821 -0.019055365 -0.016022239 -0.014807686 0.029845877 0.012481951 -0.008059789 0.02999335 -0.0054721003 -0.0061196885 0.030975623 0.0023353135 -0.030160133 -0.0056133526 0.023771431
M228+M288 1.4754391 1.1276295 -0.7075158 -1.6626207 -0.8498252 0.54224783 2.1393545 -0.13562761 -0.012644142 -0.36723515 1.0385586 -0.71940583 0.20504 -0.6387373 0.41025782 -2.2837722
M348+M346 1.595194 0.3945468 -0.3156995 -0.33691406 -2.0565188 2.7741263 0.8235689 0.46605644 0.5312726 -1.0492055 -0.89431095 0.126118 1.3739616 -0.2501053 -1.483769 0.21331793
M327+M367 0.2771477 0.7345168 -0.74806607 -1.5322971 0.30925298 1.1818867 0.7552892 0.17980744 0.28243575 -0.23568247 0.86408156 -0.044168595 -0.27434337 0.9321449 -0.039140962 -0.6492951
UNK+M131 -0.478989 0.198787 0.8885541 -2.1693723 -1.0261916 0.19132896 0.69563985 0.41353604 0.21432175 -0.07231396 0.4129051 -1.7721249 -0.007772264 0.56152093 0.48250347 -0.4179596
M288+1(N39B) 0.24928927 0.79803777 -0.15791811 -1.1494809 -1.7466297 2.332528 2.3254268 -0.68194133 -0.048310626 -0.65381354 -0.0335964 0.14136252 -0.17391217 -0.5316419 0.49899495 -1.4146092
M153+M320+M153 -1.5714855 4.0282364 -0.055646185 -0.48521787 -0.91262406 2.7392087 -0.58174 -0.9107394 0.39547065 -0.6715438 0.4422672 -3.4461944 2.1289353 0.3478523 -0.009019578 -2.5979087
M343+1(N30C) 0.49565405 1.3010027 -0.41472742 -0.74711204 -0.63981676 2.22636 1.6848253 1.0096556 2.8530202 -1.0925195 0.82684624 1.6066655 1.6778932 0.72788745 0.46047324 -1.2297201
M153+M075+M153 0.23265657 0.8281485 -0.7305548 -1.5562044 0.32045406 1.1667701 1.1351006 -0.032369744 0.2316935 -0.048755515 0.94472456 -0.25151366 -0.228477 0.8507801 0.114252664 -0.9054534
M009+M346+M009 0.13068618 2.4154909 -1.2713153 -1.176934 -1.0448043 1.2077725 -0.53982747 -1.9771454 1.0126581 -0.29686734 2.6019394 -0.40634474 1.7147758 2.0296865 0.13280816 -2.1212082
M127+M127 0.389896 2.3079808 -0.25886318 -0.47652468 -0.2369282 1.8586596 -0.30366325 0.516088 2.363849 -0.087983094 2.545535 -0.5675376 -0.4279922 -0.77274096 -0.43911022 -4.553692
M003+M379 0.35355884 0.51817536 0.53800964 -0.7275498 -1.9943944 2.6264064 2.755842 0.86667943 0.27255115 0.09868702 -0.7996275 1.1869394 -0.1721535 0.3359951 0.16589129 -1.6076632
M325+M044 0.32025078 0.7497899 0.62431544 -1.0136745 -0.91931146 2.3569474 -0.19396445 1.2191293 -0.03324776 0.73349875 0.3363548 -3.6190956 1.0183672 1.630583 1.9091682 -1.6654861
M136+M153 2.0685842 1.3534586 -1.4227488 -2.090157 -0.17405821 0.49742 1.3720528 0.3456527 0.74821216 -1.1400237 1.4902418 -0.6432353 0.38829 -0.5280479 -0.8699986 -1.9693114
UNK+M383+UNK 0.0045343507 0.026090711 0.026398862 -0.002788446 0.023812752 -0.028722761 -0.02697391 -0.00557282 0.013450641 -0.017823232 0.0051791174 0.015085872 0.022289317 0.023553517 0.006465882 -0.02381322
M175+M377+M377 2.2014177 0.16214287 1.888905 -1.7016144 -1.6560869 0.939419 0.70314115 -0.48466176 0.6715884 0.2232894 1.5596097 -0.8707251 1.9437921 1.0738122 -0.37186158 -1.2375402
M297+M388 0.096254416 0.8056765 -0.39719355 -1.580338 0.6203828 1.3075382 1.1061774 0.20034023 1.0175263 -0.29143798 0.97537726 -0.43730083 0.1118622 0.94309825 -0.5844441 -0.6757604
M136+M353 0.0023163217 0.420711 0.05321882 -0.5503825 -0.2883788 0.44323298 0.82229406 -0.069012016 0.00079671066 0.11755169 0.24869883 -0.39020613 0.06929294 0.11780125 0.13520819 -0.60465485
M105+UNK 0.16187681 0.13998488 -1.1736338 -0.26271623 0.070895344 2.3161905 1.6914952 0.6873345 0.30274162 0.07930461 0.93078 -2.1370668 -1.2529099 -0.52332133 -0.3507342 -2.7157893
M362+M600 -0.36428842 -0.7840072 1.2695669 -1.6440985 -1.3768312 0.8694623 0.4248047 0.63542783 0.75061274 0.20807903 1.6585925 -1.9198813 0.73736686 1.3118572 0.33109492 -1.5542151
M327+M324 -0.00853593 0.009153256 -0.005311093 -0.0070598423 -0.021245813 0.031164186 0.029877542 0.004287411 0.005899653 -0.029619869 0.024805117 -0.003942689 0.0038328618 -0.013839556 0.02330536 0.02233889
M009+M140 0.38944855 -1.4637197 -0.25419375 0.7202985 -1.6294798 3.732115 2.357486 1.49506 1.7354378 -1.8111033 1.7743313 -2.0091603 0.5129953 0.7613331 0.44909278 -2.4321508
M136+M071 -1.206029 2.448194 -0.46827975 -0.693038 -1.1790555 1.2713608 1.0839399 -1.2435813 -1.0816063 1.371828 0.043001268 -5.687092 -1.3746223 0.64831525 -0.9152572 -2.8204186
