530 16
UNK 0.5583813 -0.339154 -0.43815368 0.13840689 0.3037938 0.42798516 0.510776 -0.62244165 0.25205663 -0.7045851 -0.4643128 1.3715004 0.13747081 -0.28021908 0.19177695 1.0067525
1(N01) -0.14873149 -0.3634307 1.8323392 -1.3943217 -0.95694965 0.604973 3.0361664 -2.79648 1.2112565 -0.62056565 -0.6718782 3.0917504 0.2373574 -1.5778434 1.0072747 0.87258863
2(N01) -0.114081435 -0.7490556 1.3237015 -1.4411047 -0.66473025 1.326424 1.9485878 -1.776266 2.024391 -0.5427938 -0.01078191 1.7787527 -0.20870219 -1.8485143 0.14608736 0.28503197
1(N14) 0.41044185 2.0656292 -0.09467239 0.78278184 3.7689157 1.0692582 -0.039111067 0.78716964 -1.0808998 -0.8744985 -1.9784664 2.2303638 0.9676707 -1.2275348 0.12912267 -1.0842125
M288 -0.99123764 -2.3548162 -3.0702505 0.3442773 -0.7727236 0.22615308 -1.2573107 -0.89588803 0.91501516 -1.5214833 0.80255955 1.1612489 -0.8695714 -0.59926873 -0.93701583 1.1767042
3(N01) -0.0007105783 -1.5705678 0.017042566 -1.7358527 -0.67563295 1.695906 1.8722196 -2.626871 1.7834791 -0.73438203 0.47629315 1.1967841 0.30196887 -1.5139852 -0.26749033 -0.112240694
M388 3.627818 -1.1790308 0.9830236 1.0137998 2.6306603 2.299373 1.6785063 -4.1599407 -0.26871955 -2.1531353 -1.9434967 3.3392146 0.70508236 0.21505234 0.52208817 2.5460756
1(N24) -1.3228863 1.0724206 -4.008325 1.3589758 -3.57427 0.825098 1.6157094 2.7547686 -0.5096589 -0.77352095 1.186335 -0.23569034 0.9671284 -0.24687417 -1.6674209 2.0971322
M218 1.4253757 -1.3590406 1.8880261 1.8951033 1.4543198 -1.4216229 1.9293753 -4.5349393 -0.5033378 -2.511142 -2.5137734 5.239195 -0.0005553449 0.5453159 -0.14025968 1.4688337
M387 1.7337915 0.52635115 0.19701533 0.50750744 0.14875095 -0.57370895 2.5315378 0.04572502 -0.9798899 0.12594451 -1.9299799 0.9821856 -1.3215295 -1.0192719 -0.34042528 1.0876055
4(N01) -0.17566106 -1.4988935 1.0493993 -2.000114 -1.2581519 1.7416406 1.5854882 -1.9804327 2.8104498 0.25929624 1.0983838 -0.037343256 0.26114097 -1.7873539 -1.4809055 -0.45271638
1(N39B) 1.0692862 -0.116309814 -0.9437127 -1.4266316 -2.1975112 -2.433732 1.1437452 1.5310818 1.6304541 1.2890487 1.3384272 2.4201307 -0.110026404 1.1909288 -3.5448751 1.2988616
2(N39B) 0.49838877 -0.7300991 -3.06965 -1.3552437 -1.6624548 -2.736714 0.54342335 1.118913 1.0707043 0.31313714 1.0885568 1.5938674 -0.76534915 0.7434272 -3.3367388 1.3423944
5(N01) 1.0911967 -0.68235016 0.19633724 -2.3774097 -0.60229075 2.5245044 0.5140315 -0.832283 2.9357204 -0.5160935 0.67483413 -0.09011264 -0.20271546 -3.1755478 0.18193933 -0.014355215
M297 -0.046021752 0.13934965 -2.0683906 1.4106377 -0.78598344 0.2978223 1.1644892 1.6140661 0.75033695 -1.1536787 -0.048646327 0.57109636 0.68612653 0.58122313 -0.48955113 3.0633433
M263 2.1652133 -3.43618 0.5292746 1.472352 1.3951452 -0.060459252 1.1721809 -3.4368522 -0.8853931 -2.3581147 -2.236913 4.685734 -1.3340036 0.85025984 1.7421254 2.804441
2(N14) -1.7594669 1.6284913 -0.61859816 1.2568219 3.9422357 0.9535219 -0.30839333 1.6759146 -1.592671 -1.7698698 -1.3448434 2.028346 1.4382713 -0.82329315 -1.868112 -2.1183057
M157 -2.7735386 -1.5519874 0.92729104 0.15589981 0.80360144 1.1083765 -0.5839709 -1.596846 1.1556773 -2.0874505 0.70122105 1.409857 1.3375527 0.16176364 -0.99038255 -0.9532123
M371 1.5236163 1.9611629 2.8275912 2.0981655 2.685816 2.6042995 1.5463371 -1.748019 -1.8419042 -2.6961296 -2.297623 3.8201308 -0.5048187 3.210954 3.0754826 2.8504558
1(N30C) -2.0313103 1.6842518 -1.655551 0.4051856 -3.7996914 1.31117 2.5274155 3.6689544 1.7004246 -1.0742061 1.952904 0.42602688 -0.99029106 1.7760036 -1.4379765 1.2376966
M124 1.7345171 -1.2560045 1.6846211 0.7033822 -0.86960083 -1.7664708 1.2670885 -2.9433243 1.192074 0.681522 -0.62901956 5.945535 1.6370966 2.3206232 2.0382571 0.47112593
M054 2.7918146 -1.5472677 -0.6156171 -2.1692855 2.4150386 1.1768605 -0.6889053 -0.24028264 -0.22826591 0.20528123 -0.24828637 -0.9956388 1.8367777 1.2518353 1.3417748 2.909938
M346 1.5710747 -1.8634583 -0.42666647 0.26370957 1.8931856 1.2512982 0.68970233 -2.0815372 -2.6351786 1.4170235 -1.1099595 -1.373236 1.5926591 0.4086089 -1.3002269 1.6663826
M066 0.76499075 2.193848 3.1095421 1.8641951 0.96110326 -1.2431605 1.3990315 -4.9601035 -3.1600633 -0.6619932 -3.347924 4.9832973 -0.9110988 -1.7091775 -0.3155364 1.3204011
2(N30C) -2.247963 1.3002762 -1.7336116 0.8136092 -4.9600115 3.0278466 2.4038715 2.550494 2.0474322 1.5020046 2.697336 -0.013540338 -1.1717236 1.6728488 -1.3846962 1.8866938
M009 2.8468657 -0.6362004 3.2999868 1.3448683 1.0052503 -0.530192 2.2791512 -1.1486399 -0.8312817 -0.41892478 -2.1701267 2.519524 0.057547435 2.897002 2.4319723 0.29746628
3(N39B) 0.15044573 -1.9184227 -2.2795677 -1.7233263 -1.4611901 -1.3538121 0.14298905 1.9539754 1.1542207 -0.070529975 1.5916874 0.6985194 -2.98143 1.4392476 -3.6112669 1.5429888
M096 0.950571 0.30562624 -0.29325774 0.7651104 0.7765189 -0.4453635 0.34220135 -3.0719507 2.6572351 -2.4334679 -2.8903959 2.5744889 -1.1529502 -3.4669027 4.5828066 4.8878236
6(N01) 1.6728278 -0.4986846 2.6274383 -2.8214095 0.6980316 4.5972238 0.91679096 -3.6861608 3.1814604 0.6688064 0.79487646 -1.007546 0.11100199 -1.7161453 0.3115602 -1.7243426
M376 -1.9940023 0.12748058 -1.5254943 -1.7821172 2.510583 3.4353387 -2.8238788 -3.8943655 -0.71367395 0.9769829 1.3154343 1.6324421 -0.08365491 6.631424 6.3656187 -0.95889896
1(N34) 2.484163 -3.9591842 -2.92534 -0.7084269 -2.415525 1.4529036 -1.7120012 0.21843725 -0.5411814 -1.9690983 1.0223677 -1.9660724 0.4733166 -5.7528634 -2.7654572 -3.1857197
1(N30D) -0.05031286 -0.9330598 -6.401956 1.2777523 -4.1929126 -0.41999367 2.3032432 5.4482164 0.46917033 -0.30063626 1.0365596 -0.28124663 0.16034651 -0.945818 -1.7472996 1.3605727
3(N14) -1.7481743 2.2154639 -1.1053172 1.4189539 4.1047277 1.4123405 -0.75847995 2.4886 -1.3811167 -1.4533389 -1.984848 2.5707772 1.231511 -2.94679 -0.37017465 -2.5496
M057 0.7002008 0.37194338 0.833424 3.3436253 1.2142402 1.8446525 0.25413826 -3.0116012 1.3904028 -1.1286817 -2.638692 1.7105479 -0.05401743 -2.909372 2.0345364 3.8793998
4(N14) -1.1729991 3.0668125 -2.0778987 2.4103026 5.4048133 2.5868175 -1.1473206 4.493406 -0.92126775 -1.1688143 -1.8557438 2.1725135 1.4697529 -2.0342147 -0.80001134 -3.729776
M367 1.3489436 -0.52722377 -1.1552472 1.4560424 0.8166629 1.9798292 1.2480464 -2.8661377 -0.56358373 3.4663448 -1.1145341 -4.8437653 4.7741175 -0.16481043 0.499071 2.5896206
M001 2.4635432 -2.3647983 -2.0082917 2.3029628 -0.09419273 2.0074465 0.36949357 0.6224067 -0.59202033 1.4238802 -1.5294256 1.5267115 -0.12366134 -2.7961266 1.6895618 -0.36798146
M305 -3.7907553 2.8856792 0.2961463 1.3170327 5.392361 -2.399481 1.1937448 0.9783166 -0.6470539 1.6696984 -4.4210453 3.3921964 -1.8725004 -3.1443639 -1.5720646 4.347721
M036 2.6476223 -1.5786439 -0.43690482 2.1344576 -1.7849026 -0.10132459 -0.29351068 7.5972896 -0.9118661 -8.218326 1.030339 -0.20931011 -1.1367034 3.8846369 -3.0323098 3.5221665
M370 -2.1341927 3.7303932 3.1783214 -0.45411316 0.376454 -3.9894392 1.114668 1.6989748 0.05524251 -1.2998233 -2.96036 1.7520766 0.4416396 -0.9824068 5.7084 -3.0542603
M032 0.08654543 -2.8485265 1.8275338 -0.017523922 3.4708269 -4.3868723 -1.9599185 -4.6546926 2.5699782 -3.4124615 -1.273351 2.4229648 1.8085757 1.6249683 -0.41027495 -2.5175738
1(N45) -3.4366777 -1.2813666 -10.010278 -1.3284501 -1.1918525 0.72449726 -1.5744731 -3.5960853 0.3881386 -1.3701549 3.6229036 -5.5352755 1.711405 3.6456738 -3.06927 0.6239769
8(N01) 0.53458863 -4.1047163 4.443914 -2.9211366 1.0996977 2.2240245 2.3434289 -4.182351 4.927417 -0.66076803 -0.41801316 -3.439117 -0.91163474 -3.039068 -0.12746967 -3.182419
7(N01) 0.76426345 0.5156822 1.4249132 -2.7820234 0.4209843 4.992793 0.8764795 -4.0851736 2.3591444 0.88760585 0.31269708 -2.5607 -1.7185618 -1.8727729 2.3740761 -1.759305
M003 3.0127769 -2.7479222 0.9771313 0.28442553 2.2033968 -0.20678896 1.4568483 -0.57438093 1.946384 0.41743934 -3.0783036 0.58456725 -1.4411386 -0.6884708 4.8629513 2.3656087
M004 -4.4991994 1.1999536 7.7675757 3.3970802 2.6875906 -1.436247 0.22890377 -5.09488 -0.26238996 -1.9427012 -3.9019363 3.610312 -0.80784273 -1.4781401 -0.08363367 3.864727
M377 2.3609486 1.3488524 2.6836677 1.4076174 0.3448127 2.8590765 -0.4867796 -3.0809903 1.0543678 -3.5254061 0.4423231 4.087446 2.270024 2.025702 -1.0666784 5.9210625
M354 6.4027863 -2.7241225 -1.3758639 0.4438886 3.3465016 2.8161643 -3.5957758 1.3623878 2.4201434 0.19320752 1.4751707 -6.375355 -1.9136988 4.2167754 -5.558114 1.8439441
4(N39B) -1.0808874 -1.3937762 -2.0699482 -1.9634701 -1.1485914 -5.638006 1.3880575 2.0177858 0.16932836 1.8146785 0.20956789 2.3054132 -2.3472862 0.67547315 -4.941756 -0.09737329
M352 -2.6830895 -2.9015248 2.3091955 -1.3492684 0.29655266 1.3657808 -1.6697189 -5.011497 -3.0209804 0.20543654 0.03387316 4.6536093 -5.586655 1.9656832 -0.7498558 7.769713
5(N14) -1.6940256 3.838621 -2.3863773 0.3386733 5.937691 -0.54438245 -0.5692975 1.7111735 -3.4850173 -4.8954387 -2.3478956 -0.7126036 2.8778257 -1.7849063 -2.904951 -3.4570243
M072 4.4730864 -0.6527568 -1.1528344 -2.024686 -0.06881351 -1.363376 -4.22264 1.7552226 1.9937179 0.026144015 1.2858518 1.0662007 3.534647 2.5863345 4.2852545 0.17187276
M036+1(N30D) 7.9359746 -0.37173158 -3.264354 -0.74227095 0.31719202 -0.7703716 -0.5556009 0.18419422 -3.0654118 -0.09150092 0.2074695 -2.91395 0.69413286 2.792343 -4.388155 1.9738431
M269 -1.5833755 -2.0235782 -2.0944037 0.5939221 0.80008537 -2.0984113 3.238416 2.6253374 -0.086591855 -2.0845234 -0.5051692 -1.633666 -1.2397755 6.1792026 1.4990573 -4.2502494
M136 2.694533 -2.6714137 -0.3140477 2.347014 -0.6149736 -2.2002 1.9685441 -1.071521 3.192838 2.457164 -1.3604621 -0.56399375 3.0234342 -1.87712 -1.5500352 -1.5172406
M206 0.09625437 2.3355393 -6.108433 2.003007 1.3367149 2.1377442 -2.5844314 -5.099354 -0.51203454 0.9265727 -0.134383 -3.3071966 -2.1888177 1.6671321 2.00069 -5.1770535
M219 -2.1809049 -1.9061741 -0.28100136 3.3652341 -5.6746464 -0.19773501 3.4941418 -5.5204134 -0.9059851 -4.173249 -0.85956484 0.18581161 -1.198277 0.51913863 3.6695466 1.3610007
M056 -0.71106523 -4.1634526 -6.4239883 0.37087077 0.07781083 5.066174 -5.928893 2.0174248 0.4705097 -1.9380968 3.9675658 -0.6543859 3.670365 0.14725631 -1.7447344 0.26186344
M347 5.7265844 0.5703871 -2.4409103 0.8737378 1.0394224 -3.708565 -2.7480912 -2.929518 10.033542 0.56915814 -3.4862812 0.851292 -6.103516 -4.5984488 6.064711 4.6919684
M038 -3.9257944 -1.0066835 1.0160575 0.18557711 -2.8261313 -3.8618114 0.072649054 -0.9096643 -2.9603903 2.3110757 -0.09915701 5.4211454 1.8880298 -1.7494462 -1.7505972 -3.4021275
M048 -1.8074352 0.75038606 0.19719946 1.1798176 -2.1578925 -2.7100065 4.782859 -3.9433334 -0.241966 -3.9964337 -2.8182807 1.3501277 -0.6428253 1.096616 4.7418776 5.3355646
M059 -1.5510688 -0.29814807 -1.9849925 -0.73959494 -0.17264764 0.60543495 0.020732196 -0.92073053 -0.6646662 2.4467003 0.9196767 -1.8561167 5.2252235 -0.035496842 -1.2737303 1.4551889
6(N14) -2.856467 7.755791 -3.965712 5.139445 7.2448616 2.171246 -1.9458401 4.111651 -1.4202188 -2.411915 -2.2203088 2.1914558 3.535508 0.6172433 -1.7013936 -3.6331687
M010 0.95442885 -0.6714428 -2.4035769 1.5532246 -4.4463267 -0.59931564 -2.90238 2.6746397 0.10582382 1.6183798 1.0841892 1.6569805 -2.9525518 -2.4465768 -1.8046261 3.1177356
9(N01) 1.2512993 -0.23727652 2.01443 -4.0665374 -1.04583 0.8929477 0.4794705 -3.0392756 4.4643464 2.845003 1.2174739 -4.636398 -1.0995727 -1.616974 0.25189537 -6.2614045
M386 -2.5811448 1.7477324 0.6666449 -1.1687722 0.5951044 -6.007553 -0.32041222 -2.2946932 1.9543608 -2.0918996 -2.8507879 7.9828286 -0.10526013 -0.15271732 6.016564 7.7515593
M262 3.3865182 -1.215458 -1.1909385 1.611035 1.5751287 0.4432911 2.583112 -5.3513575 -4.6643696 -0.10300049 -2.1580298 0.9308715 -3.596521 3.7090023 -3.0960722 5.311292
M373 2.8172238 1.4827077 7.9109178 -2.019283 -4.8488255 -2.1777902 -2.702546 -2.3740098 -3.285088 -0.81934285 0.42944607 0.89457166 -0.4102866 2.883015 5.0742707 -2.1952226
M102 2.1246731 -3.1369889 2.9352872 6.159497 -2.214124 0.94421726 -5.100391 -4.6582704 3.7777495 4.3306847 1.6012815 6.7558446 0.38940343 6.715281 1.4176784 3.9171
M259 -2.525443 -3.6589043 3.2407086 -1.0471559 -1.9970566 -5.319466 2.651567 -5.9334755 3.9715974 -2.6064494 -1.4595804 1.5635381 -6.0524063 0.78353816 0.7251784 1.1440976
M203 -1.3720893 -1.4435492 1.0556033 0.30628955 -0.6631682 0.35456583 -0.49578553 -4.4103 -0.52981097 4.277259 0.5049102 1.1420283 4.6043797 0.6676645 -0.0017347557 0.22558518
1(N08A) 3.3530598 -0.2941624 -4.463298 -2.046895 -2.601013 -6.353232 0.43835968 -5.269853 -6.750587 2.2328207 -1.1470147 5.236567 2.8225648 2.0166476 3.2293313 -6.9817524
M260 -4.480494 0.065939814 -0.56316483 2.8106081 0.83921134 0.10295114 4.439926 -1.7143635 -2.6882603 1.9894645 -2.8960693 -5.2211294 -4.366483 1.5788743 -0.86141986 1.1635864
M106 -2.4654443 -0.6103692 -2.1206136 0.4794213 -0.6505957 -2.7523746 0.86677736 2.4784467 -0.37421194 -0.49907905 -0.80086404 -1.6442419 1.7060716 -1.0557517 -0.44472378 0.41188785
M240 3.7372105 -1.1939496 2.1904545 4.770907 -6.5784035 -7.2788663 2.8973837 -7.549097 0.5517501 -4.198932 -0.49427244 5.155811 6.557846 6.518585 0.9490341 2.1815934
M005 -2.9228356 -1.3208588 2.8953717 0.15535583 -0.62068 0.8790683 -2.3991842 -3.1671667 -0.18838346 -3.806359 1.701596 -0.18075712 3.9528825 0.7939052 -1.120372 -2.8375657
M149 2.3020608 -2.3076165 0.48641673 -1.469584 2.228293 -0.9708669 -1.0729083 -2.0056627 -3.7714367 -2.9822657 -1.0091187 2.3706298 -1.0486792 2.3824923 0.90258723 -2.121027
2(N45) -6.0839024 -2.272837 -8.580763 -2.2906218 -1.6386228 -1.4590751 -5.611978 -4.8215094 5.968315 -0.066451415 4.420928 -4.5546775 -3.6528664 2.588586 -1.6174549 0.071598314
M024 0.33903223 -1.7040492 -2.110185 -3.550527 -1.3847085 -9.034013 4.7580724 -4.501684 -0.24435085 2.7137718 -2.1926372 5.3672996 -4.1634417 3.9723892 1.9406174 0.47307837
M317 1.1191437 -1.2138761 -2.408898 0.5786531 2.3591886 3.8770308 1.6616839 -3.8084636 -0.28975248 3.941996 -0.36438823 1.2126614 -1.9489369 5.4849257 2.6779068 2.6501737
M295 -3.1765783 1.1626815 -1.3724656 1.1770889 0.7571429 -4.4761257 -1.9189142 -1.4546778 6.2477307 -4.150095 -3.1972227 1.0167972 -9.36344 -1.3624109 7.694215 -1.5087343
M243 -1.8539355 0.94143456 -1.3718892 3.7100313 -2.4922035 1.2813483 0.63387614 1.6099048 0.5126437 -2.2317333 -0.49641666 2.775718 2.9913125 -1.8802384 1.8480775 4.1948137
M111 -0.17146559 3.664893 3.0889308 -0.08212949 4.7538524 2.7172995 -0.06837308 0.06522338 1.3337829 0.21175723 -1.148018 -2.4358237 -2.0809186 1.9417143 -2.9440522 6.792045
M365 -0.38864928 -3.0616364 -1.1684221 -1.7285954 2.9565806 -1.6465714 -1.0370743 2.1313024 5.970573 1.0577805 0.80750924 0.4180043 -2.9494765 5.289778 0.55965 3.0156183
M153 0.69819874 -0.2502925 -1.9257722 -2.315223 1.578983 -0.44974688 1.316385 -3.4035091 -1.296831 1.3805379 -0.9548794 -0.65474015 -0.7150831 0.36599165 -0.026049864 1.2447206
M264 3.3482292 -2.9552274 6.4183044 3.6414948 2.0310206 0.23057152 0.35372257 4.568832 1.3606285 1.751312 -1.9090264 -1.1221913 -8.200682 2.5720778 -3.893422 -6.798865
M304 -4.8396134 -0.48542902 0.29493445 -0.8602474 2.3912513 0.09891128 0.063326545 1.9396796 -3.4973915 -0.2983142 -0.5257742 2.558158 -0.8181132 -0.0701627 -3.482593 3.5903273
M309 1.7879878 -3.3128843 1.1637484 2.9502635 -1.9717097 2.1074374 -4.8529634 -0.7933666 1.9948801 -3.9804573 1.3085474 3.7815516 1.517636 2.4749386 5.349589 1.4128699
M146 -0.27520174 0.106953755 -0.7201748 3.5920036 0.9878462 2.7477725 2.4328592 -5.5132546 2.7297738 1.5723778 -2.0699775 -2.3515968 -2.700174 0.7787215 2.307309 1.1756372
M320 2.0380454 0.21443467 1.1540655 -1.3720956 -1.3865217 -2.6837213 -1.0003505 -0.054541018 -1.8220285 1.9150715 -1.0224729 4.46533 -5.5940175 -0.5080441 0.5233014 -0.37909192
M101 -3.1651866 -8.277725 3.0493147 0.83657855 -0.7539873 2.3114202 -3.2782013 -9.570774 -6.8844037 -6.4950724 -1.1313797 3.4000466 -1.5973845 -3.3611894 0.22547325 3.312703
2(N34) -2.0625796 -2.5563982 -6.4269643 1.7568125 -3.258202 0.881335 -3.4268782 0.071133435 1.3469031 -5.9132357 0.15370303 -6.6402287 2.2833207 -10.1150055 -0.46893108 -1.3840436
M292 3.7302537 -5.0462933 -0.0427553 1.1219317 1.8807988 -2.2689693 -1.8385379 -7.4503517 -1.5863155 -8.386284 -2.0929291 1.5884508 -0.66770643 1.2331041 1.7205979 -2.19475
M145 0.8152245 2.6311693 -2.2876022 1.0133932 1.2025677 -0.5394814 -3.641917 -1.3803598 4.1574492 3.016864 0.48766935 1.4950123 -4.515911 3.0959334 0.84351325 0.10102458
M242 -3.0188992 2.8290172 -2.1965725 0.35520443 1.2396772 1.3381454 3.62388 -10.138219 -3.847077 -2.3312864 -0.51901335 -1.1521876 -1.8786709 8.884574 0.78541565 4.227652
M362 1.3007233 -3.3231788 -1.6236271 0.36883274 1.3839935 4.7425623 -1.2928464 0.68764323 -1.2106293 3.2617054 1.520613 -6.9274116 7.7411056 -0.15257315 -3.1109617 -0.91799235
M318 4.2088785 -3.071445 2.8278503 3.8958435 -0.8007133 1.2326587 3.5567005 -1.3611584 6.6298804 2.3202057 -1.8131132 2.4251873 -1.3372424 2.7702603 4.4774637 3.2473428
M380 5.2531977 -4.0959587 3.9319837 -1.8565937 -3.8891735 -3.279305 3.4686031 -2.3514826 1.7592613 -3.6070042 -2.4059315 -0.22620167 -3.4364152 -4.340066 1.8327733 1.8025311
M097 -1.862216 0.78577083 2.9176075 3.6641269 0.6610994 -1.8896911 4.5045085 -6.3373933 3.5503886 -0.99045396 -3.8399577 -0.68915707 -1.2046564 -1.0804743 0.54436564 2.9095767
M131 -0.9706689 5.0634303 5.274473 6.819644 -1.538143 1.7672721 -0.64035827 -3.6845367 1.5826486 -1.464126 -1.2205061 1.9603229 -1.8476499 0.75339645 0.073955305 -4.0352883
M338 1.2587504 4.605635 5.591906 1.6271842 -2.3907778 2.041995 -2.3344295 -6.5257463 -1.782674 1.1890903 0.2076394 4.995163 -2.709802 2.6620603 1.9615847 -0.31995472
M006 2.4611993 -1.8523643 -0.04068664 1.0332019 -0.8570742 2.7730122 -5.8144464 2.8708985 3.4096968 2.7212555 1.6655673 0.8605219 1.5022397 -1.4169061 2.6322346 0.37105048
M002 -1.9423555 0.4040642 -4.6979246 4.181493 -4.8078594 -2.2653575 1.2293352 -1.9108667 -0.49025893 3.8683708 -0.45573592 -5.362316 -0.5218181 -3.3228114 -7.067437 5.8494096
M327 -2.02147 -5.5839553 -0.7851232 -3.3990536 2.8049848 -1.4912008 -3.2082686 0.79075277 -1.765806 -4.5460978 -0.7214981 -2.8683279 1.2721951 -6.255756 -3.2169073 -0.6094031
M223 1.4495827 -4.0883617 -3.1056306 1.7477312 -0.94056946 0.35725564 -1.0900036 -7.5368195 -0.39576268 -2.8950326 0.9924002 4.6252027 -1.3998493 5.805259 0.20250627 4.3524876
M325 0.85009164 0.90742344 -1.4113091 3.5784235 -0.15211967 -2.0194404 0.6070217 -1.9933249 2.3354266 -1.7420557 -1.9642872 -1.4065499 -2.766183 0.22586557 0.6941417 -2.4474075
M254 2.7023716 1.8299149 -5.5853148 -1.0079589 -3.0527081 0.5723679 -1.7850507 -4.9985595 -5.147861 -1.1628826 -0.32249185 -0.7141285 -7.8044047 0.63296664 2.4135828 1.0749094
M210 2.6795588 -1.4880917 0.5925474 3.1332638 -3.3769698 0.9328749 2.3763804 -2.5784898 -1.8623997 1.2888352 -1.318916 -5.0811257 6.2830167 -3.5674262 -1.079335 2.338811
M075 -2.1420484 0.46587184 3.6757114 2.6499462 -0.49318823 1.2563474 -6.5190425 0.39351085 6.10186 2.9100463 2.9560072 -0.2951573 -1.9538826 1.6809716 -4.0264764 -1.769801
M348 0.7119633 -2.968005 -4.441196 4.1229353 -1.9974942 -1.7958628 -1.6844442 -6.4643793 0.6711224 -1.2634721 -1.2901088 -0.87608576 2.0807219 -4.223126 0.0035338213 -3.182363
M341 -0.6567199 -3.6982653 1.0845829 2.4548132 -1.6179034 1.43584 0.81236315 2.9933958 1.9721075 -2.3179924 0.307283 0.004273478 3.0123963 -0.7493112 1.3346024 -2.7545338
M384 -5.7301393 0.89186037 1.947871 -2.3650525 -0.4683975 -0.9335111 1.8561314 -2.2908158 -3.048577 -1.2377803 0.38309184 -7.6933413 -2.3122056 4.1753793 -0.8325849 -2.9271462
M136+M365 -1.3587561 -1.6914972 0.7618474 -3.941566 3.8301427 -9.952269 -2.5740166 0.16385621 7.451883 7.914699 -2.6067643 -0.66354966 -1.6274245 -4.401082 -1.5218221 -1.8674142
M314 -1.849585 3.514768 4.0974965 0.72349495 -1.6086481 0.6099498 -7.4381466 -3.392025 -2.5652158 -3.235753 0.60043687 6.967463 0.6574177 -2.2420518 1.7588168 3.4985435
M099 5.271145 1.739741 4.3407383 -1.5475365 -0.62938905 -6.1753874 0.33726117 -2.0299332 2.4541304 0.29822344 -1.5734698 1.0563279 -4.17823 2.0743492 -2.7111025 5.1287484
7(N14) -3.0136912 4.835027 -2.0588405 1.2841941 4.2724843 -3.158231 -1.2083528 4.3199167 -2.4122841 -5.3929415 -1.2668179 3.0610774 7.6105843 -0.114853136 -2.1199517 -4.8894825
M033 4.3677177 -2.6329522 2.309188 3.3753314 -7.1395755 -2.874887 7.3652935 1.6345658 1.3541971 -0.7112219 -3.8947136 0.47252348 -2.5480134 -2.8714793 6.438951 1.4265285
M217 0.1385712 -0.12446495 2.9583285 3.7915242 -0.033838436 2.1832185 -5.2434444 -2.1442008 8.861278 0.6877176 1.0674238 6.2111535 -1.9692644 2.0510778 4.670744 0.41552138
1(N39C) -6.8485303 1.1734163 -9.88049 -7.4697695 -5.2661796 -0.9620318 -7.8657312 9.749931 -2.658919 -0.47953036 5.8421755 -6.5823827 -2.1931193 -2.1577544 -2.0368993 5.736332
M081 -0.07288484 1.974297 0.26542234 2.2327585 -0.226345 1.9032823 3.6176167 3.9958804 0.50761616 3.8297284 -2.154502 -4.8449154 -1.4039016 -3.0356631 -1.597994 2.6543622
M329 -6.01383 0.30788806 3.2586694 1.6644784 1.0688164 4.56863 -4.3982897 -5.5706005 -0.81635296 -5.407886 0.36733887 6.5765986 -3.9015706 1.1159217 2.8541968 4.6556525
N -0.93343806 0.11676963 0.46547908 -3.869685 -1.4948435 -0.28955916 -2.6068974 2.6047573 0.95774674 0.28281423 2.069849 -0.91303056 -2.3790739 -0.56739175 -1.4123831 2.6977255
M128 3.340034 4.6546607 5.4907265 0.76657104 -6.365462 -1.2498229 -4.6520505 -9.226973 -0.25360048 1.5663329 1.7437086 -1.0825833 3.9316912 -1.2874656 -3.4275622 7.795393
M139 -3.2802837 0.6268071 1.113951 2.7531512 4.1499724 1.0315083 -1.011251 -5.26806 -1.9074638 -3.5535526 -2.612475 5.5838194 -1.2573676 1.0225592 1.9128084 0.17517026
M301 2.5197167 3.1633523 3.0186262 4.8873806 -1.9934286 0.7443426 -3.6960962 -3.2091434 -0.8833686 -5.435567 -2.3815718 -3.2250316 -6.9075527 -5.7088165 -2.01378 -3.1459446
1(N23) -5.1156693 -6.3239126 4.1779327 -7.299101 7.9625587 1.9297773 -0.23105957 -6.5791245 0.85034907 4.269553 -0.73393077 -7.946768 -4.214921 2.9971995 -1.7630584 5.8157673
8(N14) -1.066697 4.1255493 -3.6618333 1.817477 6.1943893 1.2715125 -1.7076502 5.177996 -2.1559536 -4.310722 -2.0013766 -0.9004454 1.7218648 -1.8432866 -2.3104112 -3.700305
M029 0.43836933 1.0070829 -1.8542193 1.8177068 2.1428804 1.1596105 -0.08656363 -2.191524 -0.20710315 2.2068813 -1.24727 5.720057 -0.21221833 2.1259158 2.5494957 1.0619333
M372 3.6935415 7.9689736 3.6142373 -3.218642 -0.84460217 -1.8194221 -2.4733398 -5.44689 -5.331116 -4.023818 -0.75010246 -0.49810892 1.5440993 -0.091487706 0.68645775 -0.6146218
M332 5.663844 -3.282823 3.280432 4.9462423 -0.58123904 -0.3072111 -1.9818997 -3.2413015 5.3539925 -2.8665392 -2.9218347 2.6569924 -0.76798034 -3.9180832 4.219299 -0.1421683
M265 -2.2509387 3.21842 -0.046956066 -4.65096 -0.23112305 -1.1939818 -1.6189982 3.8181648 -1.3335377 1.5924464 0.04982816 -2.986572 -4.5708237 2.0545893 3.8329012 5.9098153
M218+M288 -0.7866432 -3.3133113 -3.4969895 3.460714 0.7099602 1.1894046 -1.3762304 -3.6236193 -0.70514256 -4.1324515 -0.6411836 3.375227 -6.6021643 1.7450389 -1.265517 0.202595
M041 -12.438396 0.2908625 3.4342303 2.3928158 -1.6542232 1.6075532 2.7188625 -4.7501044 0.5151142 -5.0015507 3.1858237 -6.3203874 5.04093 6.859951 -5.55124 -1.6012017
M046 0.17561573 -0.8231461 7.799841 -3.194386 -3.4540186 -0.3688984 -2.2700446 -0.1442587 -9.55025 -4.0776143 -0.030733878 -3.016177 -1.3851961 0.5570096 -0.41565403 3.9605715
M175 -4.006775 -5.67822 0.77091837 4.550651 -1.2800349 3.5687773 0.29320458 0.63915855 -0.89311343 -2.308774 -0.84189713 4.7429523 0.17006223 -1.8525959 1.6586034 4.700349
M327+M342 -1.0403111 1.6385728 1.1241719 8.148728 -1.7368177 -1.3168383 -3.641666 -1.2067183 -6.4408712 -2.176424 -2.073908 6.2634683 0.7493546 -1.6877048 -1.9053117 -7.1276574
M266 2.268495 0.3595612 1.716531 6.0727816 -5.0354548 0.07173232 8.29043 2.3123395 -0.29015166 2.8515725 -3.215314 -2.006807 3.2847912 0.24507962 1.950156 7.183562
M051 0.090900764 -2.4118612 2.9773886 -1.6597496 0.17787203 -3.7390118 2.7359633 1.9880074 -2.468558 -2.2596595 -2.8280375 -1.4873437 -0.2504597 -1.1347791 1.1663346 1.8270496
1(N30C@B) 1.5553092 1.1521192 2.6263945 1.873718 -8.9151945 1.8704083 2.2641673 9.658603 3.3101504 -2.7658854 1.3323696 -1.1113988 -4.336134 -3.6961434 -0.6573842 2.5056944
M296 -0.93271077 -3.332761 2.4706752 5.2847137 -4.747304 3.8887947 -0.07195833 3.9930491 1.784069 0.17528573 -0.98073095 1.8117567 0.18394735 -6.3798504 3.7451634 1.8633059
M391 -2.6609268 -1.4414556 -3.6553302 4.75164 -0.9635342 0.84825855 0.19008604 -1.2144593 -1.9414223 -0.8610259 -0.42161974 1.9429249 2.8991976 1.7560314 2.1864426 -3.2252886
M195+M057 6.14147 -7.647834 -3.3935237 -4.9830265 8.503825 -2.9724615 -1.898522 -6.204662 -4.3335123 -1.640994 -3.585611 6.3474426 -2.9515097 -1.9474058 -2.3788555 -0.4715412
M281 -4.4455905 7.5571694 3.459672 2.4343781 -3.006171 0.6448826 0.6877639 -6.848304 -4.4953637 -2.633151 -1.2694086 5.7602763 -1.9223036 2.7680864 4.7462664 0.67919546
M390 1.0794371 -0.9256705 3.433662 3.2707336 -0.024314366 3.2225235 -1.306421 -2.4217918 -0.20143051 -1.6343569 -2.507749 5.1130433 -1.423052 -3.3720095 4.9164762 3.7518075
M106+M288 -1.6034906 -3.4548178 -4.949941 2.7739253 1.4155294 -0.69877154 0.63704664 -3.3585413 3.8753707 -0.23199475 -1.278938 0.3756017 -5.565582 3.7896688 2.1255014 4.126161
M246 1.8428395 -2.8402178 1.0373973 1.5554482 -0.093871824 -0.7333733 -1.0598229 0.52682906 2.1030905 -0.66089433 0.31076336 2.5883677 -3.5866058 3.9271734 -0.1549709 -0.24120355
M195 6.5187106 -2.8688655 -1.9873997 -2.0668116 -0.78305954 -3.3274703 -4.0974283 -2.8624837 3.3315248 -1.2332036 1.3756475 3.2963853 -3.1276581 0.15367213 -1.9695994 -6.4985385
M207 2.9285016 -1.6294513 -4.4449778 -1.9230933 2.6217144 -7.138804 2.1827261 -5.5107274 -1.1743969 -1.1329286 -2.9347987 -1.1793643 3.250349 -0.3923134 -1.3437797 -1.7947536
M247 -1.5505064 0.7737428 -0.21335891 -1.3780711 -4.6758924 -7.244404 -8.178226 -1.7638224 6.1809454 3.4612541 3.7073395 4.42531 3.6029754 0.92978334 0.16972178 -0.9030239
M147 6.029698 3.903714 -0.08529135 11.727084 -0.47034824 2.7947013 9.744052 -5.37613 -5.2450294 -9.89418 -7.8227525 -5.7540855 -0.75741017 -0.5614009 3.8761873 -9.562579
M105 -6.8635774 0.7859079 1.7104863 -1.9306945 -3.151475 0.93345356 -1.9155037 0.109776005 -7.541529 1.9623859 0.5878438 -2.1326327 0.060532674 -2.5557396 -0.8596749 5.2563086
M351+1(N14) -5.0888724 0.4394716 4.822153 -3.843825 -1.4862117 -2.1560264 -1.2151579 0.27441674 -2.7967324 -4.071587 0.9191303 -1.9495465 -6.640153 3.4012322 -0.6112119 1.3231629
9(N14) -4.090883 3.5351958 -5.019221 1.7569039 6.7637057 2.3606038 -4.4509664 4.0999594 -0.8759829 -3.1950703 -1.1976552 0.7983228 -0.039993174 -2.2014625 -1.5783044 -1.1591808
M383 -3.2283654 0.84120417 -4.821306 1.0515984 3.0243466 -1.2386678 0.6473212 -1.3670826 2.1523955 5.509292 -1.85057 -2.5433414 0.50160795 -1.9678277 -1.738941 2.5741704
M296+M296 4.3387556 6.7100844 1.8231518 -0.06640834 2.84728 -4.1804643 -3.52292 -4.3523903 0.35259202 8.051159 -1.7761381 0.116686285 -3.824991 0.2167001 -6.152834 0.033082888
M250 -0.46489727 -1.6443595 -0.76821154 2.666805 2.104348 0.17454344 0.724208 -3.9360433 -1.8248628 -1.549061 -3.0626462 2.201974 -3.8644483 -1.43603 -1.7351172 6.345226
M122 6.916645 0.72293675 -4.166704 -2.213481 -0.0023904913 -1.1291885 -3.3959162 -0.43165815 4.9923797 2.191915 -0.26288405 -4.94631 -1.6456568 -1.9122385 3.5040755 0.580563
M374 -1.5096258 -3.1425169 -0.7297617 3.9580681 -2.4731297 4.3874226 -7.1334023 3.9475365 2.6913915 1.0596306 2.2241614 6.3575535 -1.9560772 0.9479736 7.8462734 -6.943387
M321 0.3116974 1.3798575 2.7854764 7.3825035 1.8776413 0.9707386 1.430305 -0.43323454 2.2591734 -4.543159 -2.9936225 -0.12916628 4.546939 1.5434719 3.5368378 -3.712633
M340 6.071096 4.5323386 -0.747393 0.87504005 -0.53087455 -0.8337445 -2.206261 4.4587994 0.9309164 -2.468419 -2.3962104 -3.5514085 -1.0742415 -3.1210554 5.0893507 0.5161016
M110 6.4119663 -1.7454009 -2.0364048 4.460991 -1.4546533 1.1149482 1.8538126 -2.9335985 -0.7464804 -2.1918876 -1.9925765 3.0815113 2.2153578 0.8491237 2.688474 3.3178515
M251 3.841232 -2.5073473 -2.0404022 0.76794887 -1.8821645 -1.6024879 1.3767858 -2.0765452 2.3413715 1.1774019 -2.182494 1.231895 -1.3280617 -1.5900159 6.323781 -0.07966376
M103 7.1605744 5.043267 3.0669057 2.0403247 -2.171686 0.6439427 -0.06871684 -4.965258 -4.1657963 2.665978 -0.60193646 6.2186193 2.8415937 0.72197056 -1.9844387 -2.1627598
M112 0.09750446 7.1586213 4.7235904 2.3471065 1.558471 -4.521866 2.8127003 4.086275 -1.8868774 0.672541 -3.6062078 0.15737754 -0.13647646 1.1936743 -3.0633414 1.9980006
M228 7.206544 -3.2822545 1.6192355 1.5024939 -1.0007936 2.2601163 2.0489304 -0.6746721 -3.631887 0.2857524 -1.1413288 1.835803 -1.2867343 -0.9467226 -2.7694485 -2.739438
M230 1.2760699 4.438642 -0.12678641 2.8317862 -0.31275898 -2.8648093 1.7885066 -3.087797 2.4165914 -5.477243 -2.8233123 0.981916 -3.1304715 3.8518121 6.1155787 0.15256527
M417 0.10407356 2.9964223 2.5463111 -0.3504402 2.8701673 1.7894473 -0.687202 -0.66236854 -2.3841047 4.351989 -1.8677146 0.7778365 -2.4778533 1.0373063 2.2054698 0.18017057
M131+M388 0.7630816 0.070913084 -2.533849 9.192652 -4.321812 1.3899735 1.1733204 -8.25806 2.7906606 -4.7565546 -4.4823127 0.82175875 -5.772766 -1.1356251 12.560514 -1.2647055
M039 -7.0260916 -2.442851 -4.226797 -2.370455 0.22440554 0.39512247 -3.7232983 -0.9806714 -0.947121 -1.2784668 1.646234 -0.07756354 -0.54691815 -2.0385408 -0.91190624 3.1223893
M248 -0.5866258 0.687839 0.7819005 5.140357 -1.6849728 1.189922 3.234262 3.145024 -1.123647 1.9934353 -1.5171523 2.975868 -2.1086829 -0.1550822 -3.5120764 4.079182
M305+M342 -1.9029695 -0.63557166 5.124466 -1.3390383 5.123077 -2.5982275 -0.43962646 1.6718371 -2.051712 1.9660488 -3.1310809 3.119439 -6.142406 0.8504083 -1.4416658 -0.60020274
M049 -1.1023074 2.8332205 -0.08123494 0.65133977 0.37137112 -3.735887 1.7035385 -5.33333 -1.6076367 1.3135872 -4.06336 4.39684 -0.052118916 -2.4270403 3.8615494 4.212038
2(N30C@B) 0.122517645 -0.15911917 2.9858534 2.5244102 -7.6209245 -3.0722444 4.736605 3.484533 2.3199673 -3.328999 2.8524842 -0.7710037 3.619071 3.4687538 -8.1914215 -1.8258313
1(N24@B) 5.301844 3.5211964 -5.0244417 1.6167713 -13.017809 5.681532 0.79387164 5.7826853 -1.6873251 -7.220073 4.3679037 -2.610559 -0.9542221 -3.2769587 -2.5700207 3.2314065
M125 1.3884499 2.8657525 7.044042 1.0419955 2.4112403 -2.222629 2.1765854 2.2891076 2.220916 2.8079977 -2.3261418 2.9392009 0.6418273 2.8608065 0.79501635 -2.5621083
M302 0.79303604 -0.4730085 -0.6928966 0.4427951 0.53779554 3.821746 1.1727158 0.32989493 -0.9999107 4.2761755 -0.06160575 0.18788353 -1.8320284 1.8436201 0.99671596 0.74343127
M305+UNK 2.7133622 -1.6986967 0.6513478 3.2054355 -7.320285 2.5936005 2.749704 -0.19529003 2.1292002 2.6243656 0.21091674 -0.015697422 4.248089 -3.2609782 4.6328297 1.7014717
M319 -6.9184074 -6.252136 -4.6142845 4.8950353 -0.3245753 -0.25564626 -3.8290827 -3.2588608 5.6441927 -3.375904 2.0062895 3.492568 1.2623073 2.3599885 -1.1771169 3.3107204
M323 4.777019 8.632878 3.6245115 1.3404356 1.2024686 2.23494 -1.9353747 -1.5111711 1.5108924 2.2370412 -0.33418936 0.015864352 2.8086107 2.4888208 1.4878291 -0.15372081
M220 -4.7671537 -1.1755866 0.04602978 1.0761217 -5.4933276 -0.7582602 -1.5092854 -5.068644 -8.267565 -3.2847261 0.32200706 3.0845366 4.068102 -3.0552263 -0.6805396 4.458133
M069 -0.39911565 1.23645 2.7693765 -1.9487563 -2.1888535 -0.972391 -0.32956102 6.7463984 -0.27942732 4.942778 1.3402587 -1.1548079 -8.163036 7.420505 1.2883646 0.64640254
M379 -1.010237 0.17318961 0.82306945 2.8180215 -3.8787396 0.0163504 3.4640172 5.5246463 -0.6526709 -1.704182 -0.049361564 -0.78306395 6.3180456 -2.3345938 -3.5761888 5.126673
M050 2.6746001 -1.8880842 -5.41871 5.850918 -10.312286 -2.4757574 1.1611719 6.4948535 -3.5610719 2.781876 0.5483777 4.3961987 1.6735376 -1.8957441 -0.4883305 -0.14315625
M153+M342 7.529767 -0.8104288 -2.8686023 -0.155245 3.596068 0.7710013 -4.857014 -1.7637522 2.4053226 -1.0862298 -1.6775138 1.6507558 -2.7897303 -3.541515 0.8256522 -0.19371912
M073 6.477421 1.4364619 1.2536987 -1.9071065 -0.982298 -6.828928 3.5728972 -2.5554078 -2.5321596 -5.8044753 -2.7178526 -1.4509705 2.7876265 2.0079987 0.863154 -0.78999007
M261 -3.2935958 -7.0105753 0.4482954 2.9859657 1.7371445 5.23494 -2.2717612 7.9001775 0.69551545 2.723588 1.4283739 3.2023609 -8.752116 7.1307926 -0.29999158 4.2076173
1(N14@B) 4.6620235 8.700195 6.0081444 -1.6836563 -5.108963 10.404341 -3.110422 4.0959463 -6.1516356 2.4002802 2.7269902 -4.4726796 1.3962401 -4.3854146 -2.0494123 4.127546
M418 -2.0954525 -0.22801416 -2.671878 1.4891706 3.2720942 3.1893663 -1.32329 3.3740914 -0.10294464 8.100551 -1.4991491 -8.188228 -1.0865295 -1.1075304 0.851081 -1.9771186
M205 -2.8148642 2.6327746 0.31504023 -0.14521906 1.9366891 -2.103829 2.2333193 2.5108032 -1.9926032 -6.6599455 -2.522293 -1.3355441 -0.11669855 1.9510615 4.434279 -3.3951983
M260+1(N24) -0.054989334 -0.65167075 -1.8812555 0.8142111 -0.9490262 -7.095963 5.6694617 -5.330313 -1.2866601 2.218378 -3.3324125 1.1246147 1.0200989 3.7047184 1.4755868 3.189289
M286 -5.3817663 1.1927243 0.11054765 -4.592662 -0.8603778 -3.640729 -1.3071227 4.9257584 -4.0807953 4.3266873 1.6630682 4.2883053 -4.309648 3.3759997 -2.654279 -0.14377497
M080 -1.5449095 0.5625877 -3.099192 0.5326027 3.9382257 0.6842937 -0.38717976 -2.2210631 -1.4340687 4.4474144 -2.5691504 8.517059 -3.4446356 -0.59721965 2.9178877 -0.3787028
M278 -0.60890967 -6.0698423 0.792843 1.8449328 0.069550835 -0.6322962 -1.3523477 4.7783246 -0.33600587 -2.3328273 0.06971848 -0.4758563 -5.326241 2.1036735 -2.8491766 -1.5394369
4(N34) -3.0899973 -4.713567 -2.4992237 0.16895273 0.50497353 0.9702127 -4.787484 1.3186847 0.4098488 -3.3932948 3.096833 -2.973678 5.675952 -1.5386964 -6.4824405 -2.6016638
M036+1(N14) 3.7371442 -3.1462383 -3.4009695 0.3136269 -2.973266 1.9478043 0.55864406 0.18789575 -1.9910439 3.9856958 0.41006505 -3.919093 -7.004334 3.7810633 -0.9514395 10.267352
M327+UNK 0.098580845 -3.3739913 -1.5966992 2.6393762 -0.95831263 2.2930582 0.72581184 -4.5994153 -2.624624 -8.554253 -2.6089878 -9.855887 -6.9427447 0.025309777 5.0845222 -4.389743
1(N51) -1.2222888 3.7733264 0.6634183 0.2558375 9.091979 8.818198 -7.343726 0.4162259 5.703131 3.4311504 -0.011843117 -9.129406 -0.35979187 -1.7750635 -0.3955747 2.0324843
M316 3.0496297 0.72811174 -4.387197 3.0034552 -3.0315728 2.4554243 -1.3720945 -0.9506725 -2.86182 4.614082 1.3517824 -0.43840304 2.7308974 0.17707121 -3.3049815 1.6394893
M044 -4.872419 8.854903 -3.1812186 -3.6203926 0.8270576 -8.977431 -1.2366477 1.8914517 -2.1047618 -0.6321128 -0.8311846 1.8103123 -1.1000241 0.79620427 -2.2169783 -2.7607803
M109 -4.983823 5.3925414 6.245836 4.563329 -4.2958436 -3.5548496 -7.084883 -8.545498 -1.3578343 -1.4287736 -0.85863155 3.8706412 -5.239995 1.884474 2.9772995 3.5976634
M291 3.452838 1.2732129 -2.562296 -1.3248726 -0.3649955 1.5977141 0.1500764 -1.9190329 1.3454142 4.122861 -2.0239592 -5.904793 -3.4911184 -2.8863876 5.434549 3.36422
M136+UNK -1.6395967 -0.010327192 2.549516 2.6508245 -3.3118153 -1.0938547 1.7163827 -3.9180171 3.177711 4.7395244 -0.12509878 -7.094498 0.6914502 -1.0763124 -3.6869652 0.05400275
M328 -3.7115612 3.762912 -2.7469075 6.647926 -3.028013 3.393218 -2.476473 -2.3380506 2.9020147 4.451596 1.5004494 -3.9660943 -4.100857 2.1128416 -0.31366655 -7.172368
M193 -3.0698535 -1.4020374 0.6034984 -9.384955 0.6865473 -14.68819 1.8253927 -1.1249182 2.1655579 2.8296125 -2.7789812 1.5449702 -2.3441608 0.90235424 4.1338825 1.6081656
M249 -0.6420074 2.3247206 3.1025057 2.7984009 -2.102519 3.546011 -4.8447175 -3.2815504 -5.0539594 -3.8309777 2.6960104 1.4939412 -3.5001514 3.398532 -6.7482057 -2.10538
M158 -0.46060288 -1.7641305 1.4480435 0.06482576 2.3547297 0.09833486 -0.11280341 -1.835752 -1.1938113 -0.5274533 -1.3047673 1.9333987 0.06384856 -1.5016001 -2.4071314 0.44019842
M370+M072 -4.85322 -0.48448387 1.4092128 0.23546468 -2.2095635 0.7419991 -3.3486755 -0.7806539 -2.8855534 5.8900743 2.269263 -1.0620121 1.4500583 4.5790577 -0.21479362 2.818242
M285 1.0471779 0.583705 1.5035056 -1.7883308 0.30482945 -4.178429 3.29364 -2.9321566 0.7594352 1.3145826 -0.852964 -1.7396985 -0.5321736 5.13191 -1.5786314 3.6978767
M369 -1.9776129 -3.5871758 0.21137212 -4.017523 0.48472652 -1.7308149 -2.4234707 -1.7813942 -0.2152796 -1.5650024 0.21746105 1.000772 -1.9243526 0.86856174 3.1045766 3.9517531
2(N23) -1.9347783 -5.716963 3.1179204 -4.0592084 3.3349273 -3.6321514 -0.6953667 -1.9916004 9.145088 5.403095 0.8761572 -5.3802834 2.9067783 0.6292539 -3.5634968 0.13631822
M209 -1.8549466 4.5565042 0.7171571 -2.5012066 -2.5076323 -4.575062 -0.36793587 -1.8278283 -6.209387 3.340651 -2.0223103 -3.8283556 -0.09970451 -5.017044 -1.7900666 1.4567823
M221 -0.90571535 8.244054 3.1938758 1.7403184 3.5489185 -1.4175195 3.0401387 0.7925115 -5.257121 -4.0781126 -2.192079 0.69921654 -0.5435809 8.881926 -2.556531 3.959582
M195+M038 0.69331354 -0.6216368 -7.409026 -0.31530702 2.734124 -4.178354 -6.050301 -6.989168 1.0887269 1.509098 0.40215364 0.881724 -2.8967874 -3.7520757 -10.747611 -3.9349573
M315 11.108556 3.3714707 -2.463338 7.1440635 -4.631452 -4.8404527 0.4630268 0.9123577 -0.72950065 1.8491555 -4.0899763 3.9849946 -7.0943446 -2.4723613 0.24329908 -7.4282084
1(N8B) -2.780315 -5.6393976 -4.5046487 -2.0934126 -0.7823156 -3.3330355 -0.3819547 -0.24619022 1.428219 3.554926 2.2383986 0.0029700177 4.1312194 3.5782318 0.640512 -9.3914175
M252 0.28599027 -1.7120515 -0.5393986 -2.7229779 3.7910345 -4.0245485 -2.3512576 -0.072975345 2.2489963 2.0572298 -0.6827219 -2.9908998 -0.26593637 0.23797642 -2.7064893 0.075104326
M377+M320+M377 -6.7467227 -1.8434983 -2.178685 0.67673635 0.66602373 -1.4847089 -0.79011214 -4.046375 2.136289 0.79352015 -0.53105 -1.1883258 -0.30341524 -1.9939938 -0.052459057 -2.4958055
M006@G -4.577709 1.4050645 2.0443854 -3.530622 2.2207248 -3.5912645 -2.9537508 0.99483126 -2.1432128 4.1417704 -0.56858766 -3.950346 -0.56187 0.858139 -0.27046964 -0.9747857
3(N34) -2.9560053 -1.4496144 -0.37656578 2.6251445 -6.1279716 1.3154032 -5.885581 2.5994003 -4.7288985 -0.7299537 2.6717432 -3.0396404 7.5188704 -8.235879 -4.9444504 -6.4442954
1(N08) 3.6508427 2.600421 -7.6782336 0.12791188 0.63458073 0.99188447 -0.21217406 -1.3682636 -9.779079 2.1813014 -0.6866491 5.4300385 1.7837913 5.6697097 5.056419 -7.9851184
M381 0.72198844 -1.601023 -1.5664457 3.919589 -0.6915669 0.8627392 0.63450795 5.9720416 5.342372 7.8187566 -2.184791 2.386859 -11.026962 -1.244071 3.1758013 -0.22860558
1(N01@B) 8.305149 4.8002934 0.9935815 4.341397 -2.7082798 -1.6884052 -2.6076493 1.0956067 2.0235174 0.23807842 -0.45635256 0.4944077 3.130774 -4.2457113 -6.3361397 -2.4106517
M157+M131 -0.7042279 4.0769334 5.866714 -1.820703 -7.496479 -2.6803358 -3.6123188 0.20233256 -0.042246137 -0.18650523 4.340363 -0.59114003 2.9384463 5.1202383 0.4449418 -2.231323
M370+M388 -1.5194801 1.0835776 -1.3435358 0.908497 -1.7966486 -2.2459784 -2.627525 -0.06195582 -1.0318537 0.83416647 0.43708086 -1.0402759 -1.3775778 2.2435935 0.757021 -0.2886014
1(N39B@B) 1.4146845 3.0382147 -3.289165 -2.7122219 -13.561696 -6.124665 1.8179778 -2.1876602 0.25940585 -5.642139 2.7461739 -2.8811417 1.3989571 -2.4997203 1.1181206 -0.35107848
M293 -0.2737712 -0.18307741 -4.946067 1.043093 -4.447622 -4.901491 -1.3494408 3.2146533 4.627082 0.81280524 1.425717 -1.5827619 2.491109 -0.30247456 0.76151234 -2.2413688
2(N1@B) 7.5924196 -0.9381596 -4.72069 -2.2075624 0.4065913 3.2467506 -2.5537937 4.905378 0.55262053 4.2897997 0.5824617 -4.281124 5.483378 -5.1820564 -0.29215074 1.6005458
M180 6.1306252 0.63899493 1.3092787 3.6639576 -2.1832714 -2.3875842 1.5020404 1.762556 -1.9908266 -2.5698705 -1.4667026 0.6824064 2.2658055 -1.2091864 -3.6571684 -5.71521
M036+1(N30C) 0.54271555 -7.0490866 -2.1275258 -0.3057561 -4.8273864 0.66835994 -1.4694085 5.979406 -5.528024 -2.923662 3.7396023 -1.5692403 -2.1229603 2.4673543 -8.133261 -0.08794513
M324 0.2717445 -0.9200754 -2.6428962 -0.14087348 1.3015088 3.362592 1.2766997 -3.6476483 -2.9006913 -0.12942351 0.672323 0.61833215 2.193062 2.70122 -0.63171905 -3.3890188
M277 -2.7465973 3.4012969 2.183727 1.010832 1.3314165 0.49055278 -0.41211745 -1.6560346 -0.8217242 8.126851 0.02834574 -2.0622866 -0.33909273 4.7085834 -2.7923489 4.692624
M134 0.23971364 0.20869611 0.47311383 1.007416 -0.5278137 5.4074826 -1.7473598 1.942022 2.7242467 -0.60416156 2.2427764 -3.9004545 -0.38860333 4.3249893 2.480376 1.8018991
M222 0.9828938 -2.8881938 -4.097978 1.3551701 -1.3909563 -2.2285817 3.9797409 -3.971172 -2.0122652 -1.6483778 -0.7204436 -1.9777055 2.6785731 1.9460816 -2.5636601 0.79785526
M053 0.17403409 -0.65753704 0.57936084 -5.042891 -0.9604893 -1.8997667 -6.6929994 -2.9981074 2.0380797 -0.8772642 2.2379224 -8.885594 3.6797023 0.7525677 1.5374429 8.461263
1(N48) -4.7203145 -1.2555994 -9.104283 -1.4489586 6.5114098 -2.5522907 -2.9870074 7.579071 5.796552 -4.531428 0.24555445 -4.411505 -0.054890428 -3.8074877 -6.0702066 -6.152841
M311 -2.474632 2.6403387 -3.8215294 -2.1531413 -5.3148913 -3.0536115 -0.3308726 -0.9986439 2.6590269 -0.5830483 2.165342 -2.33415 -1.9443601 2.9560368 4.777388 -3.6887903
M361 -1.1711869 4.3660583 3.4625669 0.33793852 -5.738738 -2.1281083 -8.007156 -4.542474 1.3339912 5.5923395 2.421291 5.302326 1.683579 -4.521884 -1.4195676 0.14084412
M218+M320 1.6461068 0.021666573 -4.765846 7.20634 -2.443331 4.8564944 2.8177493 -6.102418 2.8477917 -2.3433685 0.5034411 -0.8353981 -8.751735 8.086 -1.1353035 3.0047233
M144 1.0476546 0.23955409 -9.496105 4.8314743 -1.700231 0.18029508 2.8010254 -2.9470747 1.4726063 3.6589472 -0.30962443 -0.25843403 -0.83606964 4.194483 1.5920506 -3.332855
M217+M388 -2.1951706 2.5158532 -0.68906045 2.7472818 -0.24564268 -0.6556295 -3.5767353 -9.588077 -4.085919 0.35767552 -1.8661345 4.382208 -0.8497547 2.7431052 4.759267 6.727988
M362+UNK 0.92319316 -6.675561 -2.6653278 -3.584882 1.2981265 -1.2407117 -2.4963396 3.262652 0.27884677 5.249654 -0.047087543 -4.230753 -0.8593244 -1.197375 0.9383557 -1.119766
2(N51) -1.7981535 2.8022695 4.0956283 -0.40793467 6.744281 5.7368555 -7.1118417 0.2861237 5.65483 -3.0090556 3.4819574 -9.590317 2.1702044 4.6767616 -6.668495 -1.9653584
M151 -0.1600801 0.8007647 3.0933166 2.007175 2.4554121 -4.2535853 1.7244562 -2.5810714 0.2762928 1.1303128 -2.8630643 0.27357718 0.99282867 0.2658789 -2.7460861 -4.1609397
5(N34) -1.1518353 5.3062677 -2.1743093 -3.0330195 1.1425447 -2.213751 -7.577994 1.7200596 2.5639803 -0.83852875 1.8813494 0.3368905 2.4030604 -3.6832585 -2.200606 -2.401778
M152 0.69830143 -0.9640051 -0.22043188 3.3192296 2.0755239 -2.1496055 3.249359 -3.1509964 -3.7098188 3.8937638 -2.3859003 6.8496246 3.9156394 4.544586 -3.0758994 7.4278584
M310 -0.36784452 -0.4196585 -0.5579493 -3.464492 -3.544962 -0.84996873 -4.23887 -2.2436013 -2.7168055 -2.0838046 -0.27263385 -2.5733874 4.2967877 -2.391535 10.944313 2.1377912
M175+M288 -0.96721774 -0.7478571 -1.1238241 5.1344323 -2.252459 -1.4855086 4.441299 0.091884725 4.1318417 -7.681635 -1.2619545 -1.3580722 1.077194 2.7345724 3.859187 -7.288468
M035 -3.460965 1.5213417 -0.7553867 -0.7944489 -4.8189526 -5.13954 -4.535577 -5.755242 3.4718766 11.460181 -1.072209 5.548732 -5.449315 -5.0026217 4.246847 9.12075
M370+M072+M370 -0.5123392 0.26159745 -0.9296538 0.22904411 -2.286895 -2.1867962 -2.3440816 -0.24062063 -0.85540193 1.3534714 0.63496983 -1.9193463 -1.5425127 2.010324 0.3345881 0.17891723
N(N01) -1.3722458 -0.3880347 3.601729 -2.473563 -0.70878184 3.610179 -0.41947368 -0.49409658 -2.8682075 -2.3711364 1.5603057 -1.0311084 -3.6881819 3.0693076 -0.030737884 -0.88550305
1(N02) -3.677947 0.19913507 9.351489 -2.314099 -3.9906108 -7.0404243 2.212155 -5.0631113 2.680831 -3.3492165 -1.2609358 -4.136757 0.9699559 -1.7671155 -1.6706967 2.8795266
M377+M377 2.564287 0.957418 -0.28715143 -4.125061 4.909643 -3.0569382 0.16777468 -7.724167 1.8850013 0.29843256 -2.4129949 -1.12611 2.8028967 -1.92367 0.19564891 -0.8414378
M312 5.7570543 7.45934 -2.1872559 6.4761653 -6.8077254 5.616404 -1.570902 3.1891625 0.99049306 4.2648797 1.031375 -6.3112674 -2.502466 0.9063758 4.1939783 -3.680625
M382 0.5086501 -0.814902 1.4147747 6.295416 -1.9240434 -1.3723612 1.1009495 1.0664202 1.7737389 3.2342637 -3.9024737 -1.8144598 -4.6184106 -4.2714405 1.1119511 -0.4162435
M061 0.97902614 -0.25757235 -3.740798 -1.1571864 -0.82318145 1.2949876 -1.2111201 4.488739 -3.585041 0.33638474 -0.5954648 -3.2742174 -3.7105713 -0.40284893 3.3882344 1.2797363
1(N) 2.1148088 1.8954742 -2.2829916 -3.3298092 -1.5246016 -0.95033944 -4.737663 1.2800162 2.1352408 4.915498 2.5433533 -0.09386007 4.096973 -0.24255845 1.4856453 0.37918037
M123 -3.8510146 0.91175985 -3.1081097 -4.304032 5.882601 -2.26066 -5.2595263 -3.091841 5.0922194 1.4061006 -0.21571295 -5.3683734 0.25287217 -0.6484286 0.40504232 4.3872676
4(N1@B) 8.835582 0.8773368 -2.313045 0.7656129 -8.626675 -0.036615945 -7.7146697 4.03095 -1.2302094 -5.321136 3.2742746 0.7309688 4.965981 -6.1011424 -0.17463553 -3.2813237
M058 6.019233 3.716311 0.37170777 6.725297 -6.3972754 -6.1611714 0.882896 -9.489187 -2.3925123 3.571095 -4.1730494 -2.535393 -6.516841 -5.476895 -6.904016 -1.423038
M327+M059 -3.923555 -1.128377 0.6765838 4.770161 -3.7139444 3.3560085 -0.104530185 3.067044 0.18802463 -2.6394253 0.7171483 -1.2917699 -7.132218 1.4421661 0.0454361 -1.9435532
M036+1(N24) -2.1728826 4.3830566 -2.6238952 13.379912 -1.0771376 -2.2147367 -4.569339 3.7088416 2.7147787 5.64208 -1.388617 -0.35628182 -1.038831 -1.1641012 -8.338805 -7.600426
M375 1.8989865 1.8749733 -2.9541826 -0.022600695 -1.7887738 1.1828178 -3.5411015 -3.7370248 -1.8001033 5.5706234 0.13958885 -4.0455775 4.1529226 -0.87221944 5.046616 -1.8642069
1(N30D@B) 3.7708309 -1.135713 -0.27252096 6.2677646 -3.7733097 1.0127606 3.8958836 3.0548768 0.90168 -1.8329926 -0.7502223 -2.1785138 -3.6749887 0.7713159 -5.6767025 -0.97133505
M305+M136 -1.298757 -3.2244005 6.582123 0.15886967 -3.6707675 -0.2520614 1.0331814 1.5116243 -5.120891 -1.8099433 0.8560191 -2.314651 -0.3503913 -0.9500192 -6.422133 -6.6242523
M226 -2.7008066 -0.7396575 -0.54256094 7.0415897 -6.487429 1.3673426 5.478908 -9.924429 0.8362543 9.137213 -4.805257 1.5578793 -1.5629725 -6.982173 8.086568 2.5725484
M214 7.731193 -6.2792277 3.8265352 1.0828416 -6.222594 0.7036035 -3.3000593 -3.7739341 -0.41895336 -0.32033008 4.3423543 4.5786424 4.0932913 4.0681586 -4.8712115 -0.7321057
M370+M046+M370 -1.2168671 1.2284613 -1.738106 0.52778727 -1.642885 -2.1507874 -2.5596547 0.29520208 -1.1653427 1.286676 0.5220929 -0.9056484 -1.535005 2.5984316 0.7458691 0.72301173
M370+M388+M370 -1.0061535 1.8382771 0.71411246 0.27008072 -1.1547265 -3.4399624 -1.2335633 0.7885387 -1.2340077 -0.78358066 -1.1841629 -3.2508297 -2.326666 1.2090924 1.4219518 0.69351023
M115 2.0175111 -0.71662366 2.9572809 -0.96608984 -4.054976 -3.5400152 -3.1954868 -1.3526242 0.9029054 -11.155646 -0.51923144 -1.9862803 -4.956639 -1.759319 2.008426 4.4000897
M298 -1.4047897 -0.45658597 0.8453671 1.5338867 -1.3746444 -2.5031111 -0.060017187 2.447107 5.0651116 3.8461547 0.26641855 -1.0655153 -5.5494084 3.8757405 -0.48865017 2.2266326
M175+M136 4.3262057 0.06597485 4.8223715 3.05317 -5.637418 -0.9481665 2.8147378 5.1835475 -0.6970207 -4.5097833 0.4267969 7.0397024 0.90234363 2.5588422 0.17447554 -4.211974
M461 8.180037 -5.358653 0.19116853 2.5025177 -3.4674802 1.8737376 1.7655476 -8.856199 -4.8647275 0.1563646 -1.105834 -1.7025987 -4.890089 5.320668 1.0438924 4.8162894
M064 -0.19193147 4.196457 -0.095946245 5.4949994 -4.2018886 4.591182 4.130568 -3.9542353 -3.543331 2.9928322 -2.226696 -4.9959016 1.7636747 -0.47642145 4.9871993 1.0148685
M026 -1.6012808 -2.5965645 -1.3865349 -1.3165308 1.050208 -4.0991855 3.8869867 -0.03471961 -2.338154 -0.5027359 -3.052838 -4.9977546 0.8153151 -0.09813857 1.4612797 0.9131911
M288+1(N01) 0.08830263 1.7248138 -2.329127 1.1427196 2.970559 -9.278719 3.5572464 -4.2227035 1.0740714 -1.045508 -6.0311766 8.638643 7.399313 -4.980443 1.8433887 4.794228
6(N34) -2.3040025 -3.668938 -2.2083411 -2.171497 -3.4346845 4.1213784 -2.086457 4.6703773 -0.14561144 0.81156015 4.836291 -2.938772 5.801545 -2.4305098 -5.6604686 0.43342623
2(N02) 2.1764252 2.2338517 3.7413118 -4.686907 1.5180503 -7.8550806 4.3888545 -2.5612261 -4.3718295 -5.432197 -4.521693 2.7148204 1.6240407 -3.9697134 -1.825988 -0.22113556
M047 -3.0153058 0.12738386 -3.7542872 3.885102 0.8002763 -5.428949 4.2831173 -1.5710447 -3.1841013 -8.171496 -3.8768802 0.46510395 1.6053061 2.6468194 1.3812766 0.6396192
M143 5.4863 -0.390955 1.1271777 -5.1444726 1.5613154 -1.2143219 -4.873764 2.5006447 -3.6207902 -0.39717275 1.0614148 2.6004 -5.0359216 2.103681 -2.78465 0.06009558
2(N39B@B) 1.2753537 3.0721064 -0.6559466 -2.473883 -7.147056 -7.397559 -3.5201216 4.332129 -3.5950084 -5.4138823 2.5538268 -1.5257143 -1.4996513 1.7093208 -4.0823717 -1.002775
M208 -1.8444854 -0.91737187 -4.072383 -2.0317106 -0.64222527 -1.0300875 -1.4594826 2.7789333 0.6487169 2.1683962 0.50311637 -2.033409 -0.2732259 -0.44053456 3.054546 -0.47059676
3(N23) -10.735175 -7.4829583 1.8342865 -3.478324 -0.040661853 4.7329373 -3.0366228 -1.7596475 1.6286072 -2.2620468 0.7982558 -6.3495183 -4.0956306 -6.075412 3.9969444 0.78266346
M351 -12.980693 0.5903685 -5.2518473 -6.06899 7.5156975 -4.243678 -8.214946 3.2753212 5.05126 6.647198 1.0909013 1.654032 3.2352335 -5.243451 -3.6113946 3.963841
7(N34) 0.36140886 1.7773945 -3.682311 -4.2846794 -3.8590543 -0.31636703 -10.401638 4.8679504 3.805408 -0.6120853 6.5032926 -7.083785 1.057073 -0.66200995 -2.657902 -6.8438115
M218+M101 8.032713 -7.158865 -4.2423077 9.336367 -0.10487621 7.807903 0.19477744 -0.004532972 6.2811694 7.5396423 -5.2939324 -2.698144 -5.5139894 -10.092391 6.058303 7.960034
M153+UNK 4.4089813 2.8578088 3.964817 -0.32034397 -1.725444 1.5131023 -0.76439905 -2.9686606 -1.5728879 1.8929316 0.6216617 1.0242177 -0.14452273 3.157233 0.5791159 -0.9943805
M290 5.6363606 -0.23388581 1.8682265 -0.8920406 2.036195 1.7269787 -2.2419927 0.03534894 -0.9044967 1.021156 -0.34853473 1.1264651 2.8914995 1.7542363 1.4482944 3.4405506
M270 0.4198429 -1.3859768 0.56691164 -0.9283642 -2.9591076 1.113792 0.80555177 2.6193736 -2.584593 -2.159016 2.3427343 0.42778754 -0.78077805 8.048739 0.8970467 5.6470847
M037 0.6348626 -2.866804 4.0898333 1.8040001 -0.86992043 -4.3858347 -1.3526663 0.5569059 7.047157 5.7290235 -0.7382798 3.7611346 -3.2297206 -1.1173339 -1.7897197 -2.0667048
M176 -1.5055461 1.5599747 2.3963466 -0.41736415 -1.3657821 -2.1148198 -1.7108061 3.2458851 1.5027059 3.7573633 -0.11171263 1.0750743 1.9846863 -1.3916304 0.058004703 6.207946
M268 0.8284594 2.9966862 -1.6143641 -1.759705 3.4665027 -2.2248197 -0.23573117 6.559757 -1.8321598 0.031317003 -3.5947256 -7.0016627 -3.048096 -1.7404789 2.3613353 1.6855841
M356 3.2855158 3.1083682 2.609645 -3.1936426 -1.966723 2.9153183 -2.5899246 -0.7949244 0.10310928 1.7937176 4.040476 -0.30052346 0.501008 4.952697 -4.491267 5.7765045
2(N14@B) 3.5734453 3.2403986 6.1044674 -2.0237947 -4.984654 1.8524152 0.021490443 -3.4637215 2.5435414 2.8051243 2.0666807 -4.059766 -4.97225 -1.3284012 -5.0802093 -2.6242695
M393 -0.8334885 -0.045300215 1.1634035 -4.2672353 4.958202 -8.407203 1.4530644 3.3883934 -5.091678 -14.677796 -3.7374928 0.97379667 4.2992764 0.35090658 1.6290927 -6.0566325
2(N30D) -1.331463 2.2133472 -2.690664 -3.3343053 -4.741655 2.1328192 0.39238086 2.8221238 -4.778799 2.8054569 3.6400895 -0.51362586 0.42866138 0.8423833 -4.924418 1.900191
M342 -7.685622 0.117804036 -0.06584712 -5.732181 -5.2361107 -4.1696515 -2.852683 1.2771057 -4.204 -5.0678334 5.4420586 1.6683073 3.1876242 6.1423984 -1.672502 -1.6121172
M175+M175 -3.1118731 1.8165492 -1.7064202 -0.5074898 0.8127277 -2.0328584 -2.7949045 0.6132374 1.8699995 -2.7669306 1.8932438 -0.81187826 1.2391427 3.5723753 -1.4865273 -3.9517336
M224 -3.1030653 0.7819549 0.07595022 4.33719 2.591267 0.17506965 2.8077326 0.8312672 -2.468914 -4.3023863 -4.8211956 1.0068058 -4.9278774 -4.0867615 -0.5784208 0.27523026
5(N23) 1.2599802 -1.7244278 -2.621068 -4.9487457 1.903109 -6.7469583 -3.837202 -4.586956 9.93855 5.013917 -0.7518133 -4.8689165 2.26631 -5.9642773 -0.5371591 5.6540804
M294 -1.4534523 -1.1677526 -3.1382465 -2.9597247 -7.423472 -0.99890125 0.8440911 8.462854 -4.2810564 0.3531707 3.7901073 1.9252725 -4.288983 4.702644 -1.6598806 -0.47652063
M036+1(N39C) -0.059174668 -2.7738912 0.3274747 0.021489814 -4.217372 -0.7771134 2.0898955 4.172926 -1.0592136 -5.4195714 2.0906262 -3.7173843 -6.2856035 3.8902016 -6.931056 0.38140947
1(N39B@C) -2.5388727 1.5265007 -0.44934088 4.204059 -4.3278313 5.4343953 0.934132 -0.15419935 3.473877 1.7713438 3.3124874 3.2944388 1.0663142 5.9230847 1.3985454 1.5241256
M188 2.1487684 -1.2131075 1.4853663 -0.54852164 -2.5599544 0.23046634 -1.8617042 0.63290495 -0.7492483 -2.17818 1.6550461 -4.3528256 4.599892 0.8158303 -0.93078524 0.7918202
M052 0.55631965 0.8874911 -2.5134552 1.0495888 -3.2954526 0.7531903 0.33649144 4.225292 -1.6682875 3.342599 1.7096918 -4.440588 0.87203455 4.422963 0.52161455 -2.8592103
M076 -0.07246756 -4.2813377 -7.856717 -2.7606192 -3.2777843 3.263164 -1.6870011 1.9990022 -2.382645 0.028951216 3.0676851 0.66598034 -4.670348 3.4962306 2.417384 5.306936
M351+UNK 5.462517 -6.3632736 3.8516214 -4.22406 0.90106857 -1.9652876 -7.42084 1.6659639 5.0699067 -4.9633656 2.394688 -5.9608955 -3.9662206 -1.9867439 -6.915624 -2.5907767
M218+UNK 2.8593857 0.35127032 0.6027675 -2.195783 1.6365494 -3.929832 -1.8774185 -2.38837 -0.15124747 -2.0608509 -1.3425391 3.1780233 3.1164207 -2.125785 0.29757917 -1.0854725
M150 3.3042023 0.6014649 6.4137497 5.4404197 -3.940277 -3.8633983 3.4556499 1.3910122 2.2106397 -5.3892097 -0.6320957 9.176861 0.4554245 7.698284 0.9711923 -2.7473104
M007 2.7471058 7.075208 1.4656606 -4.737387 6.8025475 -5.4669337 -10.843856 -7.8442364 -5.2213216 1.7920494 0.47871226 2.301704 1.0989171 6.1150455 -6.1537414 3.4673235
M157+M288 -1.6647213 -0.16073819 -2.3056097 0.79214704 -3.9711087 -0.11929798 3.9327636 -2.0144432 -2.348826 9.183491 -0.19535866 -1.0897536 -2.679086 3.2635756 1.4906864 -1.3512505
M016 -0.19556712 -3.3269794 -2.836172 1.7233552 -0.28741002 0.03869405 3.8764603 3.2573767 -1.885197 1.271026 -1.043673 -1.9943056 1.5382489 0.3574759 -2.3236067 0.34366402
M014 1.2971587 -0.42380196 -2.9375615 2.133755 -2.4147277 -1.7149916 2.6789083 3.7881668 -0.6860861 1.3045373 -1.6905698 0.5904963 -2.047473 -5.313586 -6.9255924 5.818655
M228+M101 -2.5038042 6.455939 1.459469 7.2754602 -0.5305369 1.2839793 -0.068771966 -3.6182013 0.4289548 -0.07136865 -1.571064 0.9432514 -2.8719215 4.6823235 2.427634 -3.6643124
M228+M320 11.713467 -6.1234536 -1.8102918 -1.1403745 9.71925 -5.856062 -4.588158 -3.5027993 8.8448 1.2828376 -4.510861 5.3367767 -4.1982927 1.546114 6.4157357 -8.996168
M305+M009 -11.746814 -3.0479534 7.788358 1.3892384 -5.7058167 -2.2627134 2.7482855 0.93044215 2.717196 0.45425853 0.25083563 3.5531127 -1.3371321 -3.674727 -1.7796662 2.5361242
M141 -0.094187915 -3.9113195 -4.7644196 4.309925 -3.5961974 1.0340133 2.2101593 -4.1862173 -3.1317384 10.005173 -0.7889345 3.4281693 -3.635323 1.1458457 -1.614568 3.0791175
M305+M320 -1.1646789 -1.9264708 -3.633792 3.6734276 -3.457494 3.438737 0.9138982 0.216401 2.179968 4.7511306 -0.46732682 5.783391 -3.6330078 -4.266708 3.5415373 -3.0506263
M359 -5.402045 -6.261923 3.104757 -2.2501442 -0.32670003 -2.8337133 -2.9306333 2.4063737 2.8286731 8.233206 -0.09602826 0.9453935 -2.621097 -1.7456228 1.9370601 1.0163478
M271 3.9317014 -2.7582333 1.7695847 0.49324802 0.82211053 -3.33096 2.5840764 4.5046306 -4.030364 0.56434226 -3.7793698 3.9185479 -3.469416 -0.18755122 0.87629855 -0.6509805
M175+M153 -0.16138935 0.733668 -1.7892493 -1.129933 -0.60796475 -2.102325 1.3393084 6.425401 -0.060368042 -1.6750667 -3.2128494 -4.617181 -0.66369605 -5.1825104 4.6532335 4.4801507
M385 -0.53264815 -0.6296381 -3.2720196 -0.80414623 1.1552033 0.42277083 -5.7875214 0.7309814 -0.054005794 2.6579106 1.7107427 -3.9398837 -3.378763 1.563919 -2.5115547 -1.3224975
M244 -0.6724719 1.0426327 -1.8026081 -5.2873964 -1.4670914 -1.3313336 -5.4513125 -1.3645437 -2.46306 -1.6273793 1.8457434 -3.8899941 -0.7055874 -1.3979114 1.2590309 -2.2154117
M126 -0.36575744 2.732677 0.75686395 -0.65372086 0.53741294 -3.7032573 1.4048177 1.9724718 2.322634 1.5202583 -0.118376486 -2.1656363 -0.62243605 6.4698334 1.4124179 -3.6694942
M157+UNK 1.3316153 9.090954 6.4129434 -1.8490207 0.010534951 3.774176 3.435781 1.4602757 -2.8329966 -4.3865113 -3.4608345 -1.4927828 -9.882559 -0.8192411 5.8249655 -0.6651414
M343 3.6262116 4.2099442 1.2240062 1.5633448 -2.575274 -5.761638 3.3310049 -4.3510876 8.896583 5.3990684 -0.1823509 -6.890385 -2.517885 6.5064607 0.18819216 -8.309449
M086 3.0845392 -2.745371 2.9677186 0.26534888 0.14445575 -4.8856125 -1.4539796 -2.036663 1.3424896 5.063595 -1.0194477 4.1013207 1.6656805 -2.8233206 -5.84724 -2.0643775
M153+M106 4.390079 4.0507054 -0.4166947 2.0556061 5.529647 1.4702818 2.4111078 0.18832487 3.075768 -0.46419728 -3.1633005 -0.34679565 -2.1842663 0.031167157 -0.9393242 -2.9828975
M063 -5.1505117 2.582062 -2.03101 2.4032543 -2.9759 4.0635753 1.0106838 -0.87389034 -3.092572 -2.319347 0.92525834 -5.4637547 -6.4819484 1.8238524 -1.0293156 -4.822795
M039+1(N30D) 9.0221 -5.7852616 -4.759189 -0.1570022 -0.82005244 -3.6898742 -4.5854487 1.9570804 -8.019807 -0.18847317 0.84851146 3.9285367 -2.2064776 2.173914 -6.6927447 -7.7796006
M034 -11.532743 -0.61806315 1.9785292 4.8416696 -0.84611255 -3.035139 6.5271044 -0.13294388 0.458843 5.004464 -2.750056 -1.5226997 -0.647047 1.4615619 0.22343497 -8.949719
M317+UNK -1.8414421 -2.1592786 -2.9279087 1.0539156 -6.6552105 2.6660466 -1.4276394 -2.3890991 0.41233632 2.1278577 4.130328 -0.14995997 0.20925398 2.1492186 -0.16149317 -2.2867217
4(N23) 1.7169604 -2.62721 2.7861114 -4.1191664 0.33887157 -2.6844838 -6.734031 0.21263789 1.3655459 -4.3665414 -0.10299837 -8.925393 -1.5878644 -5.621144 -1.6393162 1.666974
5(N1@B) 2.5272188 3.489542 -2.9435043 -3.3744648 -3.7095325 2.3661506 -1.6633234 1.7807786 2.666239 3.1786656 4.3188105 -3.634691 3.2717652 2.1308458 -0.2726147 -0.9084306
M358 1.740078 1.8297528 3.659378 -1.4662932 -2.232474 -1.0059142 -0.124834225 2.4442387 -2.1855886 -5.390356 0.07255485 -2.9646313 -4.1189375 4.700313 2.999165 -1.0688628
4(N39B@B) 6.0220995 2.658903 2.8053973 -5.5340214 -10.213771 -9.779592 -0.9284977 5.110665 -6.713963 -7.6701884 1.2086378 -2.5154798 -5.1696925 -3.1803916 -7.4334426 -1.8419633
M351+3(N01) 5.490894 0.5510987 -0.8984709 7.463072 0.21387558 2.3603516 0.6187151 3.4126723 5.365653 2.8332806 -0.22130644 3.3762474 3.7538252 -0.11723858 -4.814709 -1.4573965
6(N23) -1.9510874 2.300549 -2.1323013 -6.943281 1.9686662 -4.7782736 -2.6421955 -0.2654736 2.0811505 2.508736 -0.6633438 -6.2934566 -5.475138 -3.1433587 -0.9056413 1.6975385
M368 2.3057585 0.74674124 -1.4317487 3.0559132 -2.7926285 2.820146 -4.640052 2.5228872 1.5604289 3.847536 1.3794007 2.278396 3.5670233 -1.1311586 3.2273157 1.5797316
N(N@B) 4.4079633 4.159655 2.7648046 3.0270593 -6.9129796 3.3464043 -0.025941797 3.1845086 0.7007387 4.406346 1.197665 -3.3431826 -1.0720332 -1.9136928 -0.571418 0.14880654
M362+M059 5.1816573 2.6683128 -0.022058632 -2.3671408 -0.40073746 3.152289 -10.289283 4.7797537 -2.590415 -4.50457 4.987324 -3.206391 -2.447343 5.8991528 -3.3437383 -2.5920844
M074 -1.5414329 9.735098 -3.4085634 -4.0636883 -3.351819 -6.181213 -3.0756478 -2.1023874 -5.9965277 1.5963032 -0.81373745 -7.0949197 1.5235238 -6.121149 -2.8309424 -1.0831883
2(N48) -5.458753 4.460762 -7.9363832 -2.7996674 5.0984607 -7.0541415 -3.755582 7.09514 1.6380954 -1.0880728 -1.2700032 0.77423763 -3.0398238 -3.2540553 -2.685562 -6.194159
M447 -4.427094 -3.827273 3.86987 -1.793357 -3.59322 -1.6830056 -0.112399906 -3.709712 -4.506008 -0.1870113 -0.0966993 -0.54899246 -4.057314 -1.1428564 -0.63610667 -1.2875888
M449 0.9517134 -0.12291222 -3.7213871 0.9452847 -2.4837902 0.9113839 -5.3886733 -0.06410518 0.8101615 4.2833776 1.4238428 -1.1991476 -2.6912034 -0.83449507 1.9272302 -2.7003393
1(N34@B) 9.53142 2.315911 0.63995045 -6.7094827 -4.525273 0.11604936 -5.9311075 4.4966483 -3.71092 0.33078817 3.042293 -4.4148984 -2.2394798 -4.1029897 -5.8631935 0.72234404
M054+M365+M054 -2.6000304 -4.698136 4.521078 -3.2083316 -1.8622869 -1.3795824 0.4565552 4.545872 -1.4280988 -6.3460245 0.9167469 -5.912677 0.52360564 2.6918786 0.82424134 0.58003914
M289 0.7446821 3.9659536 -2.5034013 4.0661864 -0.9967639 -2.7296517 -7.3532286 2.0396414 -1.6454169 -3.067688 -0.03877793 2.0124197 2.457454 -3.1323059 -2.804952 -0.64591825
3(N39B@B) 5.7075686 4.349132 -1.2519301 -2.7478664 -9.434132 -0.4563666 -3.351771 1.7362012 0.22604898 0.07186711 4.9494357 -2.8839307 -2.5150924 2.8461761 -1.7619642 1.2791281
M177 -2.9731216 3.1786935 -0.88680553 3.446223 -5.2915635 0.23075648 -3.043375 -2.923341 0.08258015 -0.43796954 1.9268835 -0.74304014 2.0901194 -0.11251208 0.26807746 -2.2147405
M175+M131 -0.48227972 1.8037115 1.5978413 2.8425562 -1.3179972 -1.3594338 -1.1884778 -3.4013503 -1.2322073 -1.2208809 -1.6598092 -4.541188 0.556148 -1.3911184 -0.3130756 1.1542848
M357 2.9040303 3.1838267 3.9398432 2.7566493 -1.1205703 -2.0817544 0.58435977 -2.2491095 -2.4963071 -6.286244 -2.180693 -0.51174545 -5.9802356 6.4126115 1.085636 4.7713437
3(N1@B) 2.3966866 -1.3241806 -1.6016937 -1.1603544 -5.2082157 -3.0540934 -2.5010831 0.6031913 0.8561023 -7.2363315 1.033693 0.013356887 3.0000114 -2.6703813 3.1741838 -2.0587485
M175+UNK 0.5843561 4.2056503 3.3614984 -3.1871533 -0.2710372 2.098777 -0.95750165 0.0077207936 -2.6277251 4.77922 0.59857434 -0.6407475 -2.5150464 0.80170584 -0.25302884 -0.28085095
M308 2.4280457 1.4317712 0.14936377 -0.7374096 -1.7174386 -1.7749109 -0.5979974 -2.6270466 0.41509184 0.27936533 0.4998463 0.08622968 -0.44573218 3.347374 0.96477675 1.3161441
M025 3.4717722 -2.077159 -2.851434 1.9704478 0.24506344 -0.9005326 -4.639363 -3.7292624 -1.3166617 -2.4551334 0.31728786 0.7301349 -5.439194 3.932129 -2.3351731 2.1711965
M068 5.7374144 2.045918 0.772471 0.71532965 -0.108146444 2.5232942 -1.6984653 -2.9707808 -3.338976 -3.0417378 -1.6556697 -2.9393933 -3.8602917 -3.4164457 -2.0887856 -1.0749646
M129 1.4083908 -2.7401915 -0.92245346 0.74592304 -3.4827216 -1.5698957 -3.0751114 -4.039183 3.9130757 -0.52744937 0.17940538 -1.3296121 -5.486333 0.6640301 4.3874917 1.169151
M283 0.25388843 1.7482845 -2.5920372 -1.1644435 1.9447278 -1.3736231 -3.100163 1.4642769 -1.3946191 0.36137363 0.14751671 -5.4066896 0.5377107 2.4458523 -0.6080414 -1.8421357
M217+M124 3.1749218 -1.01861 5.3893995 -0.6156203 2.2855124 -10.911044 -2.9974036 -7.7390623 2.956793 -1.281488 -3.7251997 1.5740447 0.24721485 0.089168996 0.05445724 -1.4382011
M098 -5.0588226 -1.1839788 -4.1980314 0.5427564 -3.6798396 6.0401964 -5.9335876 2.8563473 2.321228 3.6340551 4.270131 -3.6409693 1.8999624 -4.6483417 -2.9540832 8.198742
M284 -4.5111327 -0.90529054 -1.9728268 -1.619795 -1.216561 -5.064844 0.24136493 1.3187243 4.57187 -0.45308185 0.40671793 -3.1862156 2.3138728 -2.6795754 -1.0629208 -6.748012
M036+M343 -0.21031785 0.3786187 -2.7792065 5.387656 -2.1973052 -0.30862662 -0.760301 5.1699085 1.9363691 -0.98318905 0.8371092 -0.38439992 -5.938899 3.3811445 -5.1846766 0.6493369
1(N54) 3.3829012 1.9011043 4.763278 -2.3144505 -0.5497748 0.42197767 -7.4656167 1.2198741 2.8232982 2.1586707 1.9247271 -4.4272323 -0.60705465 -3.4938 -5.122078 1.4360247
M001+M379 2.8671687 3.360035 -4.5278263 -5.527797 -5.5574636 -1.629224 -3.5580344 4.7661705 -1.6111739 -1.0678005 3.309385 -6.374593 -3.2390609 0.060585897 0.24111769 -2.6211402
M104 -7.000785 -4.336661 -3.8978844 5.5941625 2.0857754 11.167533 0.79963166 -6.9997654 -11.608574 -4.128317 -2.0060487 1.3190471 -0.37661654 -3.9458883 -0.34837037 -0.7571548
M011 0.9812651 3.7658226 -1.1252804 1.1558539 0.3074243 -2.531979 -3.3488526 1.4504285 -2.729226 -0.9522012 0.06952595 1.3831077 3.0755029 0.19501609 -6.4722466 8.552474
M062 -2.9417636 2.2485735 -0.85441965 0.32643187 -2.728314 -0.3332802 -0.4772582 2.3253586 -0.28166 0.046466395 1.1617109 -1.8811812 -0.4580041 0.5569909 -0.9867451 0.8987364
7(N23) -4.285163 0.7549585 1.7890742 -6.4392133 -1.5769405 -0.9376795 -6.909951 -1.9223434 8.648319 -2.595503 0.19065629 -12.501175 2.4527807 -12.281757 5.4800043 9.444193
3(N14@B) 1.5398775 10.725454 4.051559 -4.7671237 -5.0460143 0.71376806 1.7712842 6.1758795 0.6260261 3.1088552 1.8006777 -2.382251 -4.6126933 -0.33553156 -1.3051628 -3.1326673
M030 1.1707679 0.11562121 -3.7972946 0.25481462 -1.942003 -1.9139953 -3.4038503 0.8515467 0.4617651 0.21250309 1.7065524 -2.1364949 0.81217414 1.2698376 -1.4838495 -0.9517211
1(N46) -0.7085349 1.6416903 -10.790998 -0.30358958 -5.512804 3.1402454 -5.1324477 6.2505546 -3.8074563 -1.9721837 4.020752 -3.7059221 6.1653237 -5.3682256 -0.78305835 -3.9439988
M012 -3.1682367 -1.1345736 -3.8145387 -0.11334642 -0.49205744 1.2945657 0.13548338 3.1675625 -6.925832 1.5438281 -1.1141394 -5.181841 -0.9973774 -1.0865101 0.67720014 0.93632853
M201+M377+M377 0.0047737495 -0.004115639 0.024004724 0.014408313 0.018665649 0.01995106 0.0253775 0.02792026 0.014643218 0.0077316198 0.007215894 0.018014913 0.013589732 -0.020434974 -0.0038552585 -0.02194934
M107 1.6339505 -1.9968629 3.9910002 2.1931238 -0.26610208 -3.3287823 1.5217825 2.4049826 0.4410008 6.690297 -2.8803725 -0.1133051 0.3909328 -3.2595778 -2.6715634 -0.86461467
M276 0.48853245 2.1227763 -2.6051724 -0.13340299 -0.5157764 -1.8273386 -2.632999 0.7100468 -1.2120663 -0.09250689 0.38785046 -3.2661867 -1.2065972 2.3401468 -0.13070238 -0.67584914
M482 -0.4878252 -1.2241435 -0.6917811 -2.8280904 0.18403463 1.5212263 -2.300986 -0.52383476 0.59169877 -0.37298408 2.122176 -4.9143047 -2.583643 1.9060801 -1.8874159 -1.631213
2(N51G) -0.5510771 18.125565 3.6929777 -5.47092 6.121051 2.4495015 -4.315799 -13.172939 -0.9543962 6.9623814 -0.44254804 0.60399354 0.9674313 1.6916085 -0.18787743 -1.3516982
M370+UNK+M370 -0.38875926 0.5347856 -1.4021765 0.6846784 -0.67415535 -1.1581845 -1.6884627 0.5439467 -0.67693365 0.5909925 0.3918459 -0.8760645 -0.5334437 1.086756 -1.2645601 -0.20422271
M175+M038 2.2011573 4.6162076 2.8168347 -1.7085756 0.6135454 -4.1628294 -3.6862018 -3.1522677 3.7508981 1.985065 -1.5896642 -1.5381178 -4.5494337 1.7141273 5.3424525 -1.5493246
M348+M004 -1.3976258 -0.51668495 -2.718623 3.3457727 1.9103582 3.037926 -3.9988785 -2.0728636 9.583695 -2.4015946 0.018920727 0.70223504 -9.542246 -1.6053839 0.42935032 -1.2906919
M157+M381 -0.71486837 1.7170444 -0.53391606 1.0802053 -2.3974285 -0.37192625 -0.38860044 1.431285 0.52639025 -1.1384484 0.47997227 -0.42874327 -0.044131145 -0.18366538 -0.053935252 0.25930417
M370+UNK -0.87195766 0.9721309 -1.4261584 0.25545838 -1.2918136 -1.589575 -1.7194244 0.26409683 -0.66540617 0.71087563 0.44923294 -0.6620532 -0.9370155 1.7637748 0.2950603 0.6104935
M157+M153 1.654149 4.9869175 -0.5113857 -5.0169587 -3.326363 -2.329452 1.1017044 2.8320568 0.23273523 3.240985 1.7785355 -4.746507 5.3199434 0.59648573 -0.33007133 0.9557831
M175+M387 5.186054 6.15965 0.98019224 -0.43651122 -5.392766 -6.5551553 0.69194126 5.6522145 0.13699536 1.6552663 -2.9461925 -0.9041732 2.6745465 -6.264682 4.6631145 -0.4104149
M327+M365 0.4725666 -3.4147575 2.1337333 2.5236886 1.0681487 -1.7674295 -7.3482428 3.0200691 2.8684995 3.6279383 0.28756788 -0.48539016 0.4769102 -5.5892744 -8.620413 2.1306574
M362+M099 -1.6308339 -0.4308207 -1.8657855 -0.17055102 -0.526106 -1.0279818 -3.4049401 -0.11087693 0.53119534 1.4321774 0.92924917 -2.8259177 -2.0632167 0.5036942 -1.069886 -0.76815504
M362+M244 -0.15930568 -1.6294063 -2.7990856 -2.5451126 0.74926287 -1.7226777 -2.8965266 -0.80294144 -0.047682606 1.1412821 0.92892975 -5.2923656 -0.27103174 2.6077697 0.31141457 -0.88702446
M362+M158 1.4070323 1.4110769 -1.1628375 -0.9551194 -0.7850062 -0.9310145 -2.9667144 0.5983506 -0.7513306 -1.6838267 1.0409256 -4.0891337 0.124623075 1.4045244 -0.8187297 -1.0167443
M362+M026 0.91987175 2.0160213 -1.8774029 -0.24003375 0.04429266 -1.2946254 -3.516232 1.0780745 -1.1756301 -0.700278 0.61171764 -3.5527298 -0.63999355 1.801079 -1.1721386 -0.6644296
M362+M383 0.9542983 0.5568652 -2.0539198 -0.07899473 0.27327213 -1.3727258 -3.5992613 0.6544721 -0.10436824 1.3949625 0.18588729 -3.159455 0.21287864 -0.29706237 -1.1576203 -0.13038309
M260+M266 1.5861359 0.5953273 -0.41480255 1.6550462 -1.2084343 -3.0429914 -0.21215135 -1.3645314 -2.045292 -0.13475756 -0.4690575 0.11324936 -1.3566568 3.5891256 -2.1395466 0.2932769
M264+1(N24) -6.6819673 -4.1116614 -2.6036685 -3.7053041 0.80934143 -3.417918 -2.8790343 -0.25839883 -0.23396286 2.9102662 0.49229148 4.413772 2.3276381 -1.7297564 1.151125 3.7574587
M351+M342 -1.0391555 -2.3496807 -2.8019655 0.83863544 0.7731461 0.9192804 -3.3154695 -0.24195524 2.1828766 4.2975717 1.0242231 -3.8699846 1.046653 0.33302626 -2.1744642 3.22854
M175+M286 0.9965031 1.5192982 -0.5328868 1.3440096 0.10594507 -3.411424 0.06810147 -1.3444102 2.071689 0.29227713 -2.6065474 -8.133416 3.135783 -2.9985597 1.536597 -1.461643
M195+UNK -0.9170807 0.16121997 2.55217 -4.145296 1.6931703 1.351212 -2.0615256 -6.39778 -8.110729 3.1018095 0.8537316 -3.2077901 1.2248561 3.4510508 -2.816595 -2.7674615
M036+1(N30C)+1(N39C) 3.8874056 0.5959229 -0.735372 -1.8892089 0.8767713 -4.4380217 -6.139703 0.7107477 1.477766 -2.1910856 -0.26709822 -4.8235383 1.3900447 -3.8845398 -3.3788075 0.19522063
M201 3.3094292 0.7643551 0.8447297 -0.5132154 0.31993496 -3.880284 -0.089364976 -1.4215554 -3.6653802 3.6134412 -1.3594178 3.1005015 4.859337 -0.33171692 -3.0865927 1.3249888
M305+M111 -1.9914552 -2.443203 0.47162807 0.09782815 -0.9485968 -1.4339255 1.5174512 3.063482 -2.7680676 2.8729827 -0.728503 -2.8998542 0.32969162 0.048077807 -1.539921 -1.062942
M305+M324 -0.21665475 -3.130848 0.36049786 -1.9245021 -2.0625374 -0.5448059 1.199942 4.1726413 -4.038171 2.7554288 -0.34598127 -2.7350297 -4.287026 1.665483 1.4023397 -2.5327795
M218+M099 -4.4210987 -0.1862377 -1.7095059 -6.422717 1.4759976 -0.90746164 -0.24544553 -6.1340547 2.2444832 1.129979 -1.5259827 4.4799204 3.1983042 -0.59872305 13.239959 8.584386
M218+M218 0.4498443 1.633453 -1.4211452 -0.44483966 0.078505605 -0.656895 -2.1779132 0.9107584 -0.8871193 -0.68250746 0.42169395 -2.6935582 -0.5854933 1.046121 -0.8789517 -0.98259956
M325+M342 -0.0012322204 -0.030303668 0.011478076 -0.006506029 0.01385357 0.005506195 -0.021998797 -0.01326123 -0.030161621 -0.0029071346 0.010195279 -0.019097999 -0.02395164 0.014694263 -0.019639444 0.020433703
M325+UNK 3.546987 -3.2127588 2.6455414 -1.7251335 -3.007983 -0.7548729 -0.88004005 -0.87838584 3.9732046 4.2441072 0.3261119 -1.285326 -4.6787415 0.99538696 3.6164238 1.1802175
M297+UNK 2.3180292 0.5959669 -0.4605078 -0.35392988 -1.8086969 -1.6920128 -0.43626562 -0.45247293 1.1214341 0.87858456 -0.015745837 -0.8222532 -2.032745 1.7697248 1.8332326 0.26300505
M305+M288 -2.7683322 1.0464822 0.37614852 -0.8537283 -0.33375114 -1.270186 -0.6388829 -1.3643559 -0.3554005 -0.51732224 0.0278409 -0.8446827 -1.8651695 -0.86825013 -1.7002952 -3.4224927
M304+M342 -4.0838323 1.9752164 4.9179664 -2.1686292 -0.4914542 -1.3652775 -0.8731931 0.3490107 -0.6804961 4.529483 -0.9067683 -2.3787305 -3.4049613 -2.6122098 -0.29463854 -1.697821
M297+M296 8.380987 2.1475086 -1.463511 -3.3447552 7.6379027 0.5938611 -11.483599 1.5884266 -3.712393 5.103207 -6.429027 8.805507 -2.5940096 -15.274206 9.608434 2.4899404
M157+M111 -0.9917528 -0.15841182 3.499703 0.41033155 1.4946133 -0.093175456 1.9895458 -0.6347491 0.95407814 0.0065413327 -3.567591 -1.5991603 -8.381961 -3.5963748 0.35243434 -1.4735578
M347+1(N14) 3.712309 3.1557899 3.4198797 -2.7423928 0.44465977 -3.9548094 1.5686227 -4.0459185 -0.17331389 1.1401538 -1.5204316 -3.9113743 -11.084831 8.807303 2.4011192 -6.6200795
M157+M136 0.0039851563 -0.026242476 0.01645505 0.01838069 0.0037078462 -0.022082511 0.004048569 0.026183894 0.0066698845 -0.0020166798 -0.0041694483 -0.0010048101 0.0008008913 -0.0209166 -0.022842081 0.006943245
M036+1(N39B) 0.080098726 4.106357 -0.48867923 -1.8432076 -5.443158 -1.4688039 -2.1512227 5.552533 -2.830277 -3.9567914 2.1481595 2.274872 -1.5894337 -0.7849929 -2.114901 1.2469879
M036+1(N24)+M343 -4.853601 2.623967 -2.7460282 9.7165 2.4831452 0.18256459 -1.3148832 5.121372 1.1793115 1.231821 -1.7593315 0.48553857 -1.1815959 -0.08699984 -5.770497 -2.8690267
M175+M381 -10.533498 6.4546137 3.6674309 1.2287685 -3.6135623 -1.0538319 4.6425185 1.5305492 -1.6752715 -1.4727114 0.60304576 1.0459262 7.803471 -2.746324 -5.2888646 -1.315566
M362+M384 2.0946612 -1.5808482 -3.75574 -3.6326206 1.7033567 -0.81642276 -4.5727687 0.12095149 -0.8444347 2.0069475 1.4073125 -7.0462284 0.16537468 2.2870793 -1.1606488 -0.75829077
M362+M312 -1.6598024 1.4688114 -1.7987779 0.40796524 0.5341746 -1.0268198 -2.6711383 1.1882851 0.1693278 1.0352411 0.38113618 -1.9722407 -0.7945609 0.5590896 -1.4515581 -0.9447783
M362+M123 -1.0585226 1.0483593 -2.0394168 0.7596553 0.38922703 -1.3387437 -2.496536 1.7632817 0.31154737 1.5746566 0.19746211 -2.270418 -0.39790758 0.29507414 -1.7109188 -0.6665702
M157+M367 1.5976096 0.62306064 -1.730405 -1.4992003 -0.4075762 -0.7693486 -4.4531465 -0.44496 -0.62832355 1.0897801 0.98764753 -3.9384422 -0.008469222 -0.012966984 -0.6951188 0.22141033
M054+M393+M054 0.024309283 -0.019376056 -0.028455438 -0.016074928 -7.360292e-06 -0.0013808032 0.000258278 -0.028194116 -0.0062421206 0.00037275077 0.029643519 0.0020164307 0.009748491 -0.020172205 -0.02669578 0.019194374
M260+UNK -1.465032 -2.8829978 -0.7337628 5.383578 0.044547997 1.1100022 -0.20963086 0.3519935 -0.9893757 -1.8735088 -1.0948434 2.3185182 -1.299804 1.0677118 -1.3172951 0.20715141
M305+M038 3.3193645 1.0032275 -2.8882823 2.4567442 2.2694347 5.1065187 -3.7816846 4.5697885 -2.783342 2.0089521 -1.3242178 -1.251525 -3.7517223 -4.0087113 -0.0016329015 -1.5179424
M348+M288 -0.11398653 0.2390336 -0.7044573 -0.54637635 -1.3230585 -0.48097003 -1.9313848 -0.5668532 -0.40848717 0.2560533 0.79441935 -2.2134576 -0.55580837 0.8494645 0.10128233 0.02632802
M362+M317 -0.6240798 -1.3927498 -0.88440806 -1.8760698 -1.8447886 0.5373725 -1.8734771 -0.9484673 2.1658044 3.2860415 1.8478397 -1.825085 -0.19269954 -0.31337306 -0.85607636 2.0605376
M175+M388 0.106637895 0.48240077 -0.28354514 -0.5140685 -1.4671993 -0.8314254 -2.2821078 -0.62528837 0.012786013 0.61930627 0.9247656 -2.2161653 -0.38974386 0.6975213 -0.33605295 -0.10288138
M175+M203 -1.5726644 -2.8558836 1.670893 4.362228 -0.90763754 3.3358192 0.5595348 0.13855264 5.7364125 -8.995048 0.2621332 -8.284914 -0.5892743 1.0066197 0.4020088 -1.4582583
M260+1(N30C) -0.70763904 0.7387732 -1.4740825 0.20911928 -0.7591756 -1.6548641 -1.331844 0.39609313 -0.4355566 0.75441134 0.101523206 -0.95851547 -0.95652264 1.1973348 0.12748355 -0.005501344
M096+M029 -0.59824723 -0.7678058 -1.346546 2.3553894 -0.14479925 1.6946634 -1.9768221 -3.5245898 -1.1803505 -1.8609719 -0.06827653 1.3806888 -3.9421802 2.534836 -0.7589735 4.438009
M305+M365 1.2397156 4.773315 -2.0094461 0.3649397 -2.5661561 0.9555177 -0.5283644 0.04062777 -1.7464404 0.9409032 1.7950261 -2.845819 2.9252906 2.5185714 -1.4115083 -1.0851016
M153+M205 -1.9696127 -0.16239874 -2.8823342 -0.71760666 -0.7013602 -1.5620021 2.5167632 1.3041998 -0.7636161 3.7634346 -1.205904 -3.4732146 -0.7598119 0.30844232 2.1773472 -1.8815387
M305+M209 -0.030079495 0.02101916 0.0141806 0.0042769248 0.025782952 0.023092352 0.020547634 6.41053e-05 -0.009689946 0.029413449 0.029009022 -0.015249889 -0.016725445 0.013623588 -0.029186554 -0.026490254
M057+UNK 1.0334812 2.0495996 0.9672511 -0.90962756 2.8256848 -2.0948102 -0.6498889 -0.19646575 -4.2375093 0.86791134 -3.0198977 2.030651 -3.8859382 -1.0606779 -0.23909181 -1.626087
M029+1(N08A) -5.8710375 -5.0235157 -4.467663 2.2142181 -1.2347302 -3.7747574 4.0640635 -0.64290655 3.8400753 0.06829209 -2.1807206 3.7492037 -0.28180438 -5.1798944 -0.29314953 -1.0582259
M153+M377+M153 -4.7629924 -3.0378046 1.053239 -4.807239 -3.4899457 0.47621098 0.6901115 -2.0044823 0.95353484 2.853172 3.0525677 -1.4561718 -0.40501153 -2.3124242 -4.2761126 -4.238052
M278+1(N24) -1.2262093 0.86762244 -1.9881868 0.6880535 0.37711245 -1.2537209 -2.595985 1.4709098 -0.31585097 0.8748859 0.18689124 -0.99529296 -0.6544243 0.81781936 -0.8813835 -0.76538455
M002+M379 -0.1751714 0.5193498 -2.3907988 0.81803364 -2.6086786 -2.0186582 0.049893506 4.925997 0.7923406 -0.075921685 0.55090415 -0.9026143 2.3383114 -1.3353134 -1.6195804 -0.18871443
M327+M044 -0.13407701 -0.122100666 -0.3454799 -1.0505438 -1.667421 0.2270864 -0.9463618 -0.4786023 0.42703795 0.27739602 1.3407385 -1.6324595 0.2823652 0.005505901 -1.0200346 -0.9620828
M260+1(N14) 1.8384241 2.8472195 1.9351206 -3.2174206 -4.135062 -1.6366738 -0.7691709 0.90914786 -0.5910977 -1.1911191 1.7172382 -0.0008130266 -2.4909062 0.5089488 -1.9309137 -0.2313677
M327+M057 -2.1267567 -2.8029363 -2.5722733 0.8531881 -2.030192 0.54891956 0.014961589 -0.6867085 1.3659008 3.450609 1.0258714 -1.6651595 -2.048281 1.4697003 0.6523973 -4.456852
M054+M384+M054 3.1401522 1.3394884 1.8712742 1.1435298 -1.9254531 1.0961609 -1.8341849 2.8514094 -1.8904922 -1.7189242 0.74918014 -4.8508058 5.3532095 0.35109988 -1.2264109 0.84670126
M387+M340+M387 0.0009871274 -0.014598782 0.02315729 0.0029507042 0.023653526 0.021954527 0.023401862 -0.026683096 -0.027598161 -0.023609806 0.016981676 -0.012464227 -0.015582535 0.00092224067 0.023772756 -0.012255747
M157+M066 0.026400948 -0.016281176 -0.017497798 0.019559521 -0.0235202 -0.0050635133 0.0013284857 0.022258671 -0.005901915 0.0067714886 -0.006424631 0.019727932 0.009478082 0.026787778 0.005163657 0.00041779663
M106+UNK 0.2699474 -0.097798906 0.5432604 -2.4415004 -2.0250094 1.168837 -0.4022716 1.4484403 -2.3102286 0.47887984 0.42861915 -2.4530323 -3.5981178 1.2349234 2.7716396 -1.8481123
M057+M291 4.3979096 -4.062444 -3.5301554 -0.1448867 1.0858945 -1.1682489 2.8854 -7.940064 3.9898336 5.817874 -2.3330142 -1.3588046 -2.3892775 -0.5946325 1.9930918 -2.9453785
M157+M377+M377 2.0092492 0.43333474 -5.7066507 1.1042727 5.235437 -3.3706908 -1.9268879 -1.0454129 0.14494102 -0.35404328 -2.8551157 -0.5275592 -3.1017783 1.5576073 -0.9050308 3.6837637
M317+M260 -3.0631588 2.9773216 2.815702 -0.36848482 -4.1037426 -4.2188435 2.0793467 -2.0096579 1.4027447 -5.396376 0.17938358 -1.8023516 0.02744634 4.58874 3.846463 -1.8003769
M157+M057 -2.6861317 4.0067687 3.5677264 -1.115355 -5.6303215 -1.1983012 0.23017405 1.3748084 1.303352 1.5655262 2.3440223 -0.35857522 1.9264895 1.5578874 0.38525108 -1.0574127
M153+M029 -0.007900031 0.0029364473 0.008246616 0.004404221 0.011979259 -0.010900743 -0.004584748 -0.010967979 0.026792161 0.0063270773 -0.014399931 0.02760908 -0.025403561 0.008612339 -0.011978294 -0.0109622935
M348+UNK 1.3268971 -0.5553134 4.988641 -2.1060596 -3.8724298 -1.6035476 -1.5740414 -4.388487 0.9230474 2.5427442 0.0415457 0.5568589 -3.1368635 -1.827783 2.3635116 -2.0629673
M305+M180 -2.2197027 0.36805153 -0.8516565 2.3446362 -2.374484 0.61511993 -2.6821773 -3.310058 0.11964949 0.9231032 0.2525707 -0.86755276 2.5886188 -2.0864036 1.4207736 -0.7453857
M343+M354 1.5012457 -4.4622974 4.0104313 10.1439 -2.2916644 10.717662 2.248852 -10.654067 -2.494047 -1.5450281 1.1225526 -1.6309223 2.3693461 6.8857665 -5.911222 7.898229
M059+M038 -5.2716265 3.9927075 2.7458835 2.0816908 0.37462944 0.684511 7.737381 -3.5913134 1.8197099 0.3352713 -0.9027246 -0.2860301 3.490298 -2.67898 -8.9484215 -5.841453
M347+M038 5.494097 2.0938652 2.2847338 4.5952854 0.65475994 -4.7161794 2.567365 -0.7657753 0.21782973 -6.978552 -4.2037 -2.467679 -0.75931174 -1.5795487 -4.808626 -2.5420065
M305+M157 -0.7015211 -9.810467 -1.7297437 1.1628207 -1.3022935 -2.4760656 3.5851636 0.1727818 -2.496571 4.4079094 -1.5724273 -0.16733244 2.9811735 -5.9809246 -6.269065 -4.486133
M036+M035 11.044587 0.21766026 0.6121593 2.8059535 5.68318 -0.29465082 -0.48797378 4.0220084 5.390038 -6.949604 -1.4276621 0.24107158 1.5590106 11.610091 2.7455642 6.764366
M347+UNK 0.89548945 -2.902801 3.6271026 -2.5250447 -5.19731 6.7735376 -0.45014152 -2.3450243 -6.328484 -4.7361193 4.78002 -2.6803634 3.7222276 7.78322 -0.118595205 9.875673
M036+1(N) -0.14794071 0.5176822 -0.94105434 0.14726967 -0.75839823 -0.68065894 -1.4209055 0.9156603 -0.33232757 0.6469416 0.40947768 -1.3155868 -0.7306918 0.51854753 -0.7630619 -0.13060077
M370+M046 -0.13440718 0.5315907 -1.0848205 0.19237956 -0.45386517 -0.8641039 -1.6104687 0.8171884 -0.35519314 0.6184169 0.2721968 -1.3421916 -0.6935953 0.45125502 -0.90386075 -0.09789483
M305+M387 1.3872755 -1.2532089 0.19161923 2.2560577 -3.6065998 1.2364643 -0.24645083 -3.705588 0.20372918 1.257901 1.3102115 -3.0310543 -0.35936207 2.3718936 -2.3306632 2.0851538
M157+M080 1.7870021 -1.3921268 0.22078659 -0.15897149 -1.2649974 1.5786785 -0.6764064 -0.68888307 0.7932877 -2.7191944 1.8977886 -1.844927 1.0842696 2.7945945 -0.61647046 -5.7799435
M157+M348 -1.4447823 1.488143 -2.000026 2.9972043 -1.56672 1.3131018 -4.008163 -2.8021345 -0.39168432 -0.7169116 0.63785887 -3.030753 2.9852185 -1.6068856 0.23640183 -2.067804
M157+M342 -2.1398113 0.6150365 -1.1637152 2.2435396 -2.3206608 0.81339717 -3.3090463 -2.841381 -0.109192014 0.76166576 0.4583011 -1.5689563 2.1768377 -2.3977728 1.0001975 -1.2557632
M157+M059 2.247289 -2.2721448 1.638203 1.7158899 -2.1341758 -0.101713516 2.8165507 -1.5432565 -0.14342378 2.0233252 -0.35422188 -3.6524122 0.37613952 1.9869041 -1.9512179 -2.2240615
M327+M074 -1.9505651 2.0722497 1.5741055 1.1688675 -3.7928133 -1.0128938 1.377543 0.43597376 -1.7690452 1.7761158 -1.236011 -2.487863 2.146823 -1.4572287 3.3381758 0.6280425
M175+M325 -0.012438514 0.012755044 -0.024894293 -0.021402495 -0.021205591 0.017751148 -0.02767489 0.0040098634 0.02986538 -0.021580186 0.0003453881 0.016547998 -0.0075458707 -0.017456396 -0.023664981 0.012965084
M096+M139 2.5345583 3.8607764 0.38632175 -1.8259581 -0.35823846 -4.682939 2.8807545 -6.899505 -0.27038005 2.1628692 -3.5846372 2.5473998 -0.21772636 -3.8911602 1.9911715 -3.6158192
M377+M383+M377 4.4115524 0.3061286 1.9668671 -8.303736 1.2676531 -0.12886603 -10.723172 -0.75880957 1.4156266 -12.164779 1.843413 2.5340757 0.76745003 -8.257413 2.799557 -0.9151235
M305+M332 1.2033517 0.4807779 -0.06337168 -0.7832797 -4.321243 -0.5223905 2.4144778 1.7273946 -2.6688213 -1.684676 1.3084527 -1.6826305 -1.0639472 1.920998 -3.1485283 -0.69986767
M036+1(N39B)+M343 -0.5960088 0.55520755 -0.8396133 0.17616703 -0.65097517 -0.95977247 -1.1548436 0.36684126 -0.52189434 0.5599315 0.1876674 -0.77520496 -0.39669818 0.8196773 -0.119218975 0.14410806
M036+1(N30D)+M343 -0.06265547 0.5084539 -0.9165013 0.24537946 -0.3127989 -0.8713621 -1.5010694 0.44109112 -0.30494767 0.5960527 0.14183097 -1.0827839 -0.66909575 0.575918 -0.68837225 -0.072369985
M136+M387 -0.3603891 0.65517247 -1.679659 0.594841 0.0028007848 -1.1158843 -1.8109192 1.6177027 0.18669935 1.236528 0.19301592 -1.8462541 -0.03459348 0.33448744 -1.3330408 -0.41586715
M386+M111 -1.0456064 1.0589603 -1.3386842 0.41038752 0.12875661 -0.8242539 -1.9176898 0.8901161 0.07442287 0.6856318 0.24814491 -1.4760324 -0.6260057 0.5337233 -0.90666133 -0.7894022
M036+M010 1.0997949 0.4635195 -0.11111592 -0.75490683 -4.3239746 -0.3522485 2.6599877 2.004513 -2.4844775 -1.5287073 1.3108156 -1.6259674 -1.0086173 1.8223267 -3.2355072 -0.81153095
M362+M041 -3.7871811 2.4342344 -1.2826456 1.7806635 0.11105762 3.6821325 -3.396422 1.6355214 -0.5850514 2.2944624 0.21024537 -2.1295407 -2.982595 -1.4033238 0.8101265 0.2884279
M167+M131 -3.7172883 0.36508694 0.67722964 -1.7336065 -1.5129155 -0.41214174 -0.6743717 0.0072319075 -0.56691885 -0.05179249 1.3539748 -1.6184281 -0.8520999 -0.6861176 -2.385522 -4.836983
M260+M265 -0.098536715 1.2162758 0.2702125 -1.3807759 0.96628255 -3.3203187 2.2662551 -1.0830953 1.9069726 1.7396468 -1.2220705 -4.496417 0.43170372 3.4170585 1.2174621 -0.5927137
M362+M005 -3.80816 2.345597 -1.3480917 2.010161 0.0068256096 3.7695537 -3.4309955 1.7307006 -0.62492144 2.2460887 0.16875848 -2.055697 -3.194432 -1.430229 0.88303655 0.293087
M362+M207 -0.4029049 1.3351989 -3.3273747 -1.6463262 1.0783896 -1.4384352 -4.44438 -0.28150538 0.47104195 -3.8977234 0.09804484 -3.262383 3.1066375 -1.7740303 2.61634 -1.8822354
M036+UNK -2.191768 1.8077384 -0.28748554 -1.011726 -3.0927217 -0.7706172 1.1830105 3.2751465 -0.15714759 1.6743345 0.96884567 -1.6009018 -0.4770282 0.4993673 -0.5170894 -0.07100576
M157+M340 1.7112844 2.026676 1.341366 -0.2081064 -1.1632018 2.3769696 -1.3189203 -1.0437881 -3.7180357 -0.5710166 1.6427023 -0.26819536 2.8397572 3.221202 -1.4614791 -1.8661926
M291+UNK -0.14380231 -1.7795149 -0.28729573 -1.4518204 -1.663491 -0.2967211 -1.5004201 -0.74360424 0.87195927 1.4980477 1.0506896 -2.01477 -1.4778545 -0.54478574 -0.86011153 -0.45279786
M317+M269 0.45386374 0.7198959 0.3865798 -1.1426762 -2.9243743 -0.56168425 -0.7285641 0.01056299 0.2754266 -0.29024348 1.7035936 -1.5091231 -0.5938505 1.4927535 -0.87180567 -1.3619102
M305+M029 0.010225149 -0.016956216 0.023918979 0.007748102 -0.015803115 0.0303589 0.0049057584 0.027262151 -0.0076212296 0.0058394154 -0.029504223 0.0010572636 0.028111747 -0.026970714 0.026951041 0.020578358
M351+M380 -1.4882554 2.1761923 -0.907689 0.74906594 -2.197281 0.2429125 -0.9180974 1.9195944 1.0538206 -0.87650704 1.2784373 -0.069102876 0.9852179 -0.17210227 -0.7933453 -0.38235876
M175+M380 -1.2694353 0.189024 -0.06195611 2.5849545 -2.1437616 -1.2124351 0.6220754 -2.5040004 -0.5189626 -1.3560064 -1.3494196 1.2136079 -2.2400806 -0.6986032 0.995453 0.07409925
M009+M320 -3.828156 1.2240952 1.834494 -4.522349 1.9363389 -1.2302072 2.9504113 -4.868486 1.2472954 2.0332913 -0.54614776 0.65038174 2.6076708 0.5492143 -0.49962357 4.8706427
M304+M041 0.024598993 2.7814124 3.5905821 -0.043656543 -3.2089806 -0.5384017 -2.5978806 2.7391517 1.2012701 -0.6596491 1.0445049 -2.3435075 1.2923063 -3.6554115 -3.297239 1.912599
M370+M373+M370 -0.44541252 0.5292981 -1.1547666 0.29822546 -0.56855035 -0.99892575 -1.0710372 0.30560055 -0.44630274 0.3820828 0.08791731 -0.73183584 -0.5897344 0.9014515 -0.021183345 -0.027895933
M106+M096 2.2752106 3.2833195 -2.6749454 -2.5664096 -0.63931906 2.0280688 -2.7201445 -1.164924 0.9250525 0.73981065 0.97218865 -1.5145743 -1.077771 -0.25362754 3.1332226 0.9793032
M288+M376 -1.1501526 1.0112226 -0.39764202 -0.97159904 -0.82893026 1.1325622 -3.2762415 2.7560093 0.05116325 -0.45635208 1.1047767 -0.26164877 0.14710887 -2.861928 0.013520041 -3.9003541
M175+M157 0.62079865 0.9806882 -1.2739626 -0.9595681 -0.8275758 -0.53196687 -2.974025 0.04835522 -0.67889464 -0.6862052 1.0975354 -3.7739294 -0.27660093 1.034333 -0.72775495 -0.45060474
M136+M195 0.3429007 -0.21963017 0.046832006 -1.1697892 -1.3688279 -0.19102827 -1.4027448 -0.62975186 -0.12573333 0.25934398 0.8047476 -1.925054 -0.2989052 0.16089115 -0.11181106 -0.094100736
M377+UNK+M377 0.0057961135 -0.017670369 0.0039211726 0.015295556 0.012486517 0.029259158 -0.005102522 0.022448441 -0.012814547 -0.006583631 -0.0023268722 -0.011302163 0.02384713 0.028161185 0.02581709 0.031049449
M305+M340 0.9054675 6.170729 -2.955381 2.062502 2.093282 9.589482 -1.5315747 -2.4892366 -1.1998463 -3.2141776 -1.6523893 -3.303015 6.391136 -6.326847 4.7617702 8.701009
M305+M041 -0.005101527 -0.029660331 0.020622995 0.02561296 -0.021298036 0.0003662948 0.003340368 -0.011579298 0.01260844 -0.002847714 0.004381956 0.018918658 -0.009927109 -0.0078255525 -0.030187162 -0.021011816
M305+M153 -0.7953497 -3.4215798 0.9234743 -3.087018 -1.5653912 -2.4678965 -0.5010289 3.306162 0.18143266 0.51917166 0.7156434 -2.5238109 -2.2446616 2.4531875 1.8250273 -1.0738331
M304+M304 -3.455759 -1.5260074 2.5896149 -1.5387671 -1.5502849 -2.5487027 0.38869792 2.3579173 -0.91735727 -1.8295627 0.17834905 0.3333653 -2.867349 -0.24214986 -2.2168581 -2.6499147
M278+M124 0.26351348 0.74236894 -1.5456963 -1.0180547 -2.1276796 -1.7197824 0.8005467 3.6421025 0.08946574 0.6796872 0.5553382 -1.3356582 0.37425652 0.082685895 -1.106811 0.81651896
M377+M377+M377 -0.030567404 0.015662558 -0.009707217 0.010974785 -0.02719441 -0.002864599 0.015727434 0.017891575 -0.025136055 -0.025170797 0.0006966667 0.022426678 -0.009596555 -0.024890807 -0.012045403 -0.001279913
M387+M387 -0.005284517 0.022890907 -0.030990526 -0.025108268 -0.005028436 -0.021837479 -0.00019532783 -0.0074297567 0.026100166 -0.0133121805 -0.004556548 0.001463443 -0.025196083 0.008644003 -0.01208295 -0.0045111184
M157+M029 -0.077047765 0.27965164 -0.42377272 -0.9419311 -1.3909129 0.3657156 -1.2203783 -0.5360732 -0.1424453 -0.11811523 1.1500901 -0.9844546 0.39929265 0.0024741227 -0.5645663 -0.75818163
M362+M247 -0.1854309 0.28087854 0.092993855 -0.09781633 -0.7494003 -0.260351 -0.5106789 0.16283357 -0.08208509 0.16789299 0.30916134 -0.65234613 -0.04869832 0.20177151 -0.21774988 -0.28479353
M362+M365 2.3722632 -2.544494 2.675686 -2.733344 0.18442817 -1.2212584 0.8068966 4.7109637 -0.22444737 6.163877 -2.0675063 -0.8695737 -1.2850546 -1.3629584 4.345246 1.6312017
M305+M075 -0.28238967 0.31326514 -0.0054006646 -0.17039059 -0.7820782 -0.23361966 -0.5023415 0.057763565 0.041934114 0.24023102 0.29289538 -0.65674055 -0.20501234 0.07999156 -0.1129496 -0.3773338
UNK+UNK 0.0016940071 0.016482068 0.009123721 -0.029345378 0.026164943 0.030187162 0.021801483 0.009968227 -0.0014949022 0.026526514 -0.005360091 0.017181994 -0.021535976 -0.00837031 0.006257865 -0.018793607
M218+M388 -0.014567151 2.0100577 -1.4912957 1.5872625 1.3364486 -1.381351 -2.2009535 0.30020544 0.047298674 0.9941785 -1.0184244 -1.1206603 -1.0688763 -0.31765985 -1.333593 0.1580871
M327+M320 -0.006785704 -0.02401119 -0.014324774 -0.0033694804 -0.013067972 0.024918683 0.016775915 0.0015476529 0.015217426 0.017081274 -0.01811511 0.019672465 0.0099794 0.028869482 -0.020239357 -0.0069968463
M362+M367 -1.4838493 -0.083433606 -2.1079884 2.2236838 1.8383927 -0.8305049 -1.9623927 1.4917299 0.27639458 1.380922 -1.0042344 -3.5867696 0.006252938 0.3357666 -1.6321893 0.26089332
M327+M348 -0.19699663 0.06314572 2.8540833 -2.6874745 2.0823386 3.4877179 -6.022823 2.5830889 -0.07555184 -1.0088706 2.0361216 -5.9868584 -4.565936 -0.93603915 -5.008855 -0.7550672
M175+M376 0.016458929 -0.009903821 -0.019055365 -0.016022239 -0.014807686 0.029845877 0.012481951 -0.008059789 0.02999335 -0.0054721003 -0.0061196885 0.030975623 0.0023353135 -0.030160133 -0.0056133526 0.023771431
M228+M288 -0.3060018 0.84093195 0.11288659 1.1250637 -2.513523 -2.2749524 0.17998396 -1.984708 -1.2963399 -0.79467535 -0.91263604 0.51020783 -0.70037067 -0.66071814 1.0279193 -1.0792041
M348+M346 -0.60394996 0.99719757 -0.79418004 1.7313957 -2.417261 -0.014904341 0.019439831 2.4349582 1.7773634 -0.48543295 0.8040844 -0.53609467 1.3202206 -0.5749169 -1.1130636 -0.75502247
M327+M367 -0.31839007 0.5013753 -1.0790397 0.1292587 -0.79124 -1.0468746 -0.79498863 0.38260216 -0.30695948 0.61581916 0.13808759 -0.6879735 -0.6264446 0.7519296 -0.07255029 -0.11977925
UNK+M131 0.503357 -0.36763588 -0.2530271 -1.0438702 -1.3365492 -0.11246201 -1.1682016 -0.5094764 0.41371974 0.1828649 0.83388007 -2.128102 -0.63949394 0.33866212 -0.124630615 -0.0017010145
M288+1(N39B) -1.5008248 2.094622 -1.0099393 1.3772777 -2.2557523 0.026035361 -0.4354715 0.9530434 0.095785655 -1.1981016 0.46757415 -1.3063196 -0.39514902 0.14814405 0.0066788686 0.52072597
M153+M320+M153 0.8312831 2.4369364 -1.634156 -1.9857173 1.6961365 0.837359 -6.1009836 -0.8500437 -4.6517706 3.8401296 0.7162595 -0.9783758 2.387728 -2.012756 -2.6020007 -1.3544179
M343+1(N30C) -5.2200613 0.9694496 -2.0225255 5.332357 -3.1013215 -0.04357367 -0.25236967 1.2092985 2.375547 2.021717 1.0815167 1.9774632 4.104693 0.173356 -2.2493196 1.7679878
M153+M075+M153 -0.4959222 0.52399457 -0.77867967 0.19068085 -0.77488285 -1.1055539 -1.0166963 0.14937201 -0.34912196 0.25182167 0.14822368 -0.98169595 -0.64671916 0.7460226 -0.14553717 -0.21577609
M009+M346+M009 4.7829857 1.4549199 -0.6639472 -0.31547356 -1.3322417 -3.6622982 -0.43577373 -0.7875338 -4.5028534 3.8614569 -1.2599467 2.5431762 5.5014386 -2.5594938 -2.263846 -1.6213173
M127+M127 1.2968388 -0.27269208 9.062266 3.0480747 1.5223427 3.1171286 -5.797738 -3.6666663 1.5872772 6.0144854 1.9220965 6.594523 -3.106237 5.8057714 -3.5344849 -4.3048553
M003+M379 -1.5678775 2.0953884 -0.7802223 0.08798371 -2.8732886 -0.8717161 -0.3769378 3.6509726 1.4979562 -1.0104737 1.3019441 0.1425664 -0.19041078 0.21983781 -0.6832001 0.30569232
M325+M044 2.065791 -2.0241704 -0.7742893 -3.3236039 -3.7882526 0.10298474 -2.319441 -2.148211 0.32456478 2.6949074 2.0468664 -3.8918884 1.5288335 -0.6310426 2.952698 -3.944734
M136+M153 -0.19165365 0.9143901 -0.06605098 1.882236 -2.1531126 -1.5103706 0.41665155 -1.351942 -1.4415108 -0.58006626 -1.1364701 0.5397799 -0.707678 -0.86190206 0.42540014 -0.1551228
UNK+M383+UNK 0.0045343507 0.026090711 0.026398862 -0.002788446 0.023812752 -0.028722761 -0.02697391 -0.00557282 0.013450641 -0.017823232 0.0051791174 0.015085872 0.022289317 0.023553517 0.006465882 -0.02381322
M175+M377+M377 -0.16797036 -1.6288323 -1.2050719 -2.1838567 -2.3290424 -0.48420775 -1.0910534 -0.9300083 0.29287952 0.20603989 2.3839169 -1.480827 -0.9352699 2.096471 -1.9966462 -0.7724575
M297+M388 -0.3503035 0.41899934 -1.0125643 0.36950368 -0.2997497 -1.1672834 -1.4823399 0.7004277 -0.14939097 0.43046594 0.22296008 -0.9110422 -0.36594945 0.9764589 -0.8480015 0.07545402
M136+M353 -0.2429106 0.29736066 0.069634676 -0.22160272 -0.7120478 -0.20158581 -0.4853549 0.159143 -0.06781989 0.1515892 0.31071126 -0.6506131 -0.12184429 0.14948325 -0.20913622 -0.30954918
M105+UNK -2.2831604 0.9185729 1.6163812 0.27104723 -1.1798862 -0.3410428 -0.6891597 0.004653981 -0.4318509 1.9865916 -0.5459447 -1.8888994 -2.4416015 -1.5435828 0.0927078 -1.1797776
M362+M600 -0.053704273 -1.6933194 -0.3581576 -1.5751117 -2.331988 0.06487507 -1.8604302 -0.045043513 0.4036186 1.6427137 1.4731438 -1.9007158 -1.0256205 -0.55595917 -0.5068317 -0.5190198
M327+M324 -0.00853593 0.009153256 -0.005311093 -0.0070598423 -0.021245813 0.031164186 0.029877542 0.004287411 0.005899653 -0.029619869 0.024805117 -0.003942689 0.0038328618 -0.013839556 0.02330536 0.02233889
M009+M140 -5.544573 -1.0156882 -4.425478 1.650402 -5.0047584 -2.922242 -1.198567 5.1958866 3.0079317 4.9753604 0.68364024 -1.4133992 -5.156295 -3.6084104 0.33937994 -3.8650556
M136+M071 -2.9899786 4.1972437 7.9112134 -2.226431 -0.95029885 5.108465 -2.0236967 -1.2527821 -4.142997 -2.1940684 -1.1009624 -9.238944 -0.35730565 -5.2609878 3.3165383 6.19806
