530 32
UNK 0.06697795 0.14348319 -0.17534943 -0.2685916 -0.04051704 0.28047016 -0.2543153 -0.1500705 0.33220693 -0.16421694 -0.31329858 0.15845755 0.16078228 0.1437816 0.15307784 -0.13335024 -0.17999007 0.04030902 -0.06687072 0.017110102 0.2654063 0.059831306 -0.08452998 -0.16034243 0.31030104 0.12715216 0.37223053 0.20063886 -0.12580408 -0.12337447 0.065534525 -0.013313871
1(N01) -0.16996133 -0.15750225 -0.3404488 0.05852639 -0.17074297 -0.025426647 -0.578642 0.1279885 0.07719622 -0.048341792 -0.34733978 0.26609585 0.21309768 0.056390006 0.46822038 -0.19269289 -0.2514179 -0.253799 -0.16208175 -0.01754847 0.35028708 0.056234375 0.13583939 -0.34804925 0.7809208 0.35562673 0.65746105 0.79088765 -0.6695317 0.09938077 0.22161578 0.32123122
2(N01) -0.09451275 -0.093190365 -0.2979642 0.007518066 -0.22123533 0.09644457 -0.576728 -0.006839804 0.1160008 -0.016898172 -0.27929944 0.13778874 0.2720529 -0.1537187 0.60011715 -0.27126604 -0.21403283 -0.08543526 -0.11091788 -0.06696418 0.20497668 -0.018491568 0.03687811 -0.3464147 0.74467796 0.3341015 0.6704417 0.5466062 -0.71752316 0.08096651 0.2684156 0.39519092
1(N14) -0.14910387 0.87006235 -0.26355258 -0.26592144 0.08850497 0.42675307 -0.14848138 -0.21425942 0.2051264 -0.3832034 -0.3884963 0.16880016 0.40779078 0.060468115 -0.002643826 -0.17129412 0.015208748 0.14654505 -0.4376898 0.24393897 0.23133878 0.3289635 0.076601304 -0.38633224 0.23736627 0.34985167 0.23987061 0.21207325 -0.037942998 -0.25769493 0.22895743 -0.16178
M288 0.22308068 -0.0656907 0.048173774 -0.48322117 -0.092247695 0.50999695 -0.25891256 -0.21701036 0.39995128 -0.2417392 -0.34490138 0.49962935 0.22342095 0.17321098 0.11782337 -0.18005861 -0.1983465 0.11173912 0.15328418 -0.29898363 0.16802795 0.025975632 -0.2329363 -0.2128645 0.22772175 -0.07188295 0.48580432 0.07597905 0.00081225124 -0.14137244 0.1849781 -0.13050912
3(N01) -0.078082025 -0.20092365 -0.20457098 -0.2136343 -0.21610028 0.08405557 -0.48989582 -0.06055279 -0.008875307 0.12688152 -0.2560267 0.016561717 0.12116968 -0.12257367 0.71252626 -0.30013016 -0.29300758 -0.002164908 -0.13315289 -0.38769284 0.098210216 0.14071769 -0.015904512 -0.4096606 0.68741906 0.28090775 0.64442754 0.71487993 -0.77802664 0.03394408 0.42964157 0.28496534
M388 -0.027577505 0.2966597 -0.33808032 -0.398536 -0.113391265 0.040113542 -0.6713528 -0.17818761 0.43964502 -0.23850623 -0.541746 0.028156692 0.2270419 0.106573924 -0.25950933 -0.081757136 -0.21452835 -0.08623825 0.18502225 0.05887161 0.42884296 -0.08879682 -0.19087662 -0.23419155 0.41370705 0.14644042 0.37496626 0.22511388 -0.079291634 -0.3045529 0.023787582 -0.03575844
1(N24) 0.242528 0.01385523 0.15577665 -0.19149527 -0.82054865 0.8940577 0.06272844 -0.36061385 0.37446576 0.00976532 -0.5396875 0.4091494 -0.026951317 0.5398496 0.046986327 -0.410159 -0.2762812 0.3229538 -0.017521657 0.00023156234 0.04350477 0.40758714 0.09180993 0.002690078 0.346585 -0.05871379 0.60524577 0.0158696 0.13049288 0.15696022 0.27050984 0.45642778
M218 -0.09673918 0.07422834 -0.5000053 -0.4958015 0.10172982 0.0043598195 -0.1952706 -0.22177984 0.64404577 -0.30652148 -0.48757815 0.09925827 0.38074973 -0.00037300494 -0.17438728 -0.3767332 -0.067375995 -0.15663613 0.15158345 -0.21401384 0.38499075 0.11748776 0.09333367 -0.43813533 0.4718697 0.087123916 0.15374163 0.15212922 0.032210816 0.050111115 0.07797451 0.178966
M387 0.104257055 0.44064087 -0.54293823 -0.26937222 -0.27562377 0.33836797 -0.3774139 -0.19860934 0.07443422 -0.22234161 -0.39934027 -0.13902916 0.06910892 0.2854497 -0.16387321 -0.17440453 -0.12651332 -0.23210041 0.19289714 0.14332587 0.12889275 0.3446836 -0.10632112 -0.029786097 0.3862788 0.2231979 0.2833224 -0.17951661 -0.42589492 -0.27792004 0.085601985 0.12500682
4(N01) -0.07883654 -0.27210325 -0.1103745 -0.07291759 -0.6876817 0.03848519 -0.6632983 0.2225518 0.09912244 0.04800728 -0.26007068 0.0807364 0.3886653 -0.38502437 0.83700395 -0.38017902 -0.091100834 -0.15136153 -0.22956863 -0.15389451 -0.0449871 -0.2704111 -0.1298061 -0.35721886 0.762929 0.41675335 0.75810236 0.63423896 -0.7739396 0.017121017 0.4436421 0.58485997
1(N39B) -0.17600948 0.0018976997 0.41793737 -0.27222013 -0.7207302 0.42286798 0.6346074 -0.07892776 0.724348 -0.072882615 0.094848946 0.19065934 0.21020168 0.40734214 -0.12068198 -0.7804682 -0.35157806 -0.47671902 0.39447793 -0.10999319 0.4143185 0.63469267 -0.2923197 0.45754787 0.9458151 0.031982165 0.19701885 0.3530685 0.13797009 -0.52827007 0.19328113 0.6714367
2(N39B) -0.28575605 -0.2635067 0.41000757 -0.3339399 -0.99658394 0.4956341 0.52062935 -0.45626402 0.7324689 -0.005045852 0.07603904 0.24137859 0.2427377 0.30604982 -0.26870704 -0.8322826 -0.51928395 -0.13899347 0.19262527 -0.10163111 0.20641819 0.6067113 -0.085472696 0.35188642 0.6577085 -0.11619358 0.34476042 -0.056436908 0.32903183 -0.59393156 0.28213763 0.5197184
5(N01) -0.14433797 0.115601376 -0.27422664 -0.11279741 -0.24032551 0.13194917 -0.5985008 -0.13513358 0.06523789 0.38838753 -0.29555508 0.024272772 0.1946189 -0.083198324 0.7823777 -0.19714093 -0.09205823 0.004963118 -0.051718008 -0.25545287 -0.30469486 -0.06781543 0.14950186 -0.05948697 0.7129413 0.25000486 0.9142946 0.6929531 -0.8563273 -0.13721733 0.77815294 0.59309226
M297 0.044541206 0.11647005 -0.060554974 -0.03258828 -0.27182996 0.4660943 -0.09391444 -0.3219312 0.49911946 -0.365297 -0.5066321 0.39889833 0.34064895 0.6468199 -0.093304396 -0.36194316 -0.65387523 0.11241683 -0.21597566 0.2545545 0.16256954 -0.16131188 -0.0624051 -0.17135184 -0.086400546 -0.06893921 0.66722393 -0.11536172 -0.18318032 0.069607444 -0.14735779 0.4055823
M263 0.28769284 0.27098227 -0.5948746 -0.7808653 0.29640356 -0.15185359 -0.2728271 -0.19605598 0.4520331 -0.23911504 -0.28249007 -0.15129481 -0.07621333 0.3193444 -0.49359992 -0.4452062 -0.046945743 -0.06992853 0.068374954 0.020085903 0.47537836 0.49919656 0.12479347 -0.5423728 0.24501735 0.33285296 0.2888768 0.5143609 0.09905533 -0.21104097 -0.26648045 0.021474788
2(N14) -0.0725576 0.702399 -0.10539064 -0.4373504 0.18702199 0.68959206 -0.1705269 -0.43892998 -0.06570685 -0.26286435 -0.36808005 0.21387646 0.6351128 -0.2676014 0.06837941 -0.57328403 -0.066116504 0.3053971 -0.5891547 0.14663118 0.2615359 0.42764306 -0.08554773 -0.37501708 0.23090106 0.30434105 0.31248927 -0.03634265 0.0088241305 0.08841412 0.21541731 -0.2914263
M157 -0.22856995 0.024292832 -0.019731654 -0.4011963 -0.06667514 0.24129152 -0.29055247 -0.19130975 0.17334811 -0.3796814 -0.36149487 0.1583388 0.5415428 0.60376847 0.27330828 -0.46952105 -0.02999912 0.36999002 0.06978557 -0.008179909 0.33331653 -0.09893283 0.019178474 -0.6410873 -0.0069423523 0.26528987 0.065195486 0.29757205 -0.32557783 -0.3122553 -0.372191 -0.042295665
M371 0.10233325 0.6632221 -0.52490723 -0.27346674 0.052573975 0.1610774 -0.38692763 0.095482394 0.4559946 -0.0535058 -0.8940732 0.13691309 0.21235457 0.47917396 -0.2945672 0.009901583 -0.030028984 -0.39308026 0.10633579 -0.23059534 0.51254123 -0.34318417 0.16302256 -0.19681801 0.08626468 0.44794318 0.1622529 0.1508092 0.115539335 -0.15200813 0.05780635 0.009937973
1(N30C) 0.20025721 0.3081974 0.35686344 0.37318635 -1.0170928 1.1092706 0.5337051 0.063751444 0.20618057 0.9294399 -0.96549 0.6818409 -0.06496056 1.3981884 -0.12852193 -0.72995764 -0.29427314 0.03530111 -0.31878066 -0.08207596 0.15754636 -0.02534338 0.13635024 -0.29379883 0.09785794 0.2908795 0.5691799 -0.12875928 -0.37120777 -0.2085959 0.30841663 0.020618688
M124 0.035894606 0.020943858 -0.48884076 -0.4298301 0.11471846 0.081305586 -0.065792166 -0.10611526 0.6117115 0.11099602 -0.5264276 0.44847086 0.4404455 0.25259185 0.14763485 -0.34663084 -0.39909834 -0.5654942 0.014132816 0.08626071 0.6480376 0.015617506 0.30161077 0.040996563 0.43499926 -0.049769808 0.010679344 0.5292095 0.32619402 0.09030621 -0.1044633 -0.025139848
M054 -0.5470935 0.3707643 0.15710403 -0.8218767 0.050357588 0.40520576 -0.80840683 -0.046043802 0.040797796 0.10086009 -0.326805 -0.42030415 0.23715782 0.5707578 -0.3024337 0.14906643 -0.4322042 -0.37174618 0.040207565 0.42738822 0.39803332 -0.08665019 -0.20497444 0.37157813 0.2042346 -0.038525887 0.4539326 0.11921978 -0.17368726 -0.4495887 -0.05151175 -0.24416623
M346 -0.25091824 0.16976169 -0.45706695 -0.6832546 -0.07260008 0.68333924 -0.7513048 -0.2642051 0.50620544 -0.20071472 -0.22980475 -0.41249722 0.13350205 0.044412494 -0.14038917 -0.37260634 -0.3522362 -0.36980438 0.030455848 0.21543252 0.09238429 -0.18205892 -0.6941123 0.24765086 0.2704568 -0.40687504 0.15423746 0.048294153 0.38125446 -0.19944464 -0.2112362 0.011700653
M066 -0.239825 0.001306857 -0.7410329 -0.21950091 -0.13173483 -0.027672622 -0.46090987 -0.44468796 0.600229 -0.2954066 -0.24034652 0.015786165 0.3656781 0.044404607 -0.5445763 -0.4461821 0.2024903 0.12709485 -0.20433758 -0.30854058 0.5378195 -0.23047091 0.06658928 -0.31408447 0.81212854 -0.0015603398 0.3865531 0.052097842 0.5687782 -0.16579954 -0.086304516 0.13149308
2(N30C) 0.20281187 0.3587703 0.38362443 0.13603942 -1.3289609 1.174768 0.022503378 -0.25825948 0.28596058 0.8091514 -0.636415 0.45018533 -0.2387042 1.2020519 0.072755225 -0.92432374 -0.25861543 0.41863483 0.29818952 0.07242625 0.302701 0.13045295 0.37109944 -0.13209297 0.09599835 0.23597914 0.57602745 -0.15383735 -0.029783664 0.0935202 0.21495883 0.20378597
M009 0.27595273 0.33086804 -1.0468919 -0.9120198 0.12059458 0.30804038 -0.026080877 0.11226462 0.325665 -0.17719418 -1.0730789 -0.29489905 0.23763776 -0.17495827 0.2074749 -0.3306329 0.14214325 -0.18492378 0.11216436 -0.007674141 0.24200445 -0.3548792 0.093370065 -0.052158184 -0.15207557 0.75410503 -0.13164738 0.13962372 0.3918125 0.30207184 -0.3193813 0.44158325
3(N39B) 0.09905924 -0.000556926 0.8760422 -0.5914094 -0.90527344 0.8555758 0.102452345 -0.09244609 0.41222084 0.30527434 -0.11012679 0.37201396 -0.007578074 0.2955804 -0.47388685 -0.588958 -0.80822456 -0.14976647 0.66300094 -0.031086054 0.40729877 0.423943 -0.019731967 0.033123873 0.5208353 0.08403348 0.26112863 -0.14940877 0.49097756 -0.9080741 0.076352485 0.7273557
M096 -0.3687133 0.4679559 -0.62013143 -0.37152854 -0.25173014 0.02267853 -0.14476481 -0.40006173 0.027759522 0.017885244 -0.4735949 0.48736596 -0.00096639735 0.5800909 -0.19023941 -0.0016198051 0.14633015 -0.16648883 0.31514522 -0.36921448 0.6156348 -0.015928838 0.13988753 -0.47142676 0.6707707 -0.22921866 0.34620357 0.10495162 0.28641322 -0.38627806 0.08686463 -0.03488364
6(N01) -1.0651983 0.5220862 0.06355303 0.1757024 -0.9954723 -0.69686455 -1.2392445 0.05318758 0.11971065 0.052664895 0.10932679 -1.4128518 0.044254657 0.05842146 1.2484332 -1.822168 0.62495846 -0.5024557 -0.23737349 -0.023566864 0.37751403 -1.1633742 0.22162662 -0.59702694 1.0375977 0.7387947 0.6334117 0.889153 -0.6733106 -1.308559 0.42222375 -0.08941246
M376 -0.06867204 0.66332823 0.44440904 -1.4120356 0.72632176 -0.16580853 -1.0479248 -0.6622944 0.012320144 0.11234145 -0.702249 -0.5676975 0.2128337 0.99383277 0.6889733 -1.182227 -0.5232593 -2.0137572 -0.92733604 -0.30479717 0.26605278 -0.89792776 0.178984 -0.05372252 -0.3113868 -0.64862806 0.1828516 0.3650521 1.326195 -0.7158174 -0.30359805 -0.40314198
1(N34) 0.30145124 0.34736663 0.24822085 -0.4809564 0.26949406 1.4343282 -0.8394965 0.3120211 0.020140382 -0.19742073 0.19177434 -0.277632 1.2884872 0.34824523 0.31344375 -0.1557521 -0.52995634 0.67273223 0.364652 -0.8699187 -0.2487868 -0.2581345 -0.10710223 0.017279109 0.8680514 -1.0935417 0.31417862 -0.11997482 -0.37705654 -0.49336454 0.47956872 -0.4957175
1(N30D) 0.11895301 -0.72769326 0.734865 -0.38675112 -1.0988284 1.4134547 0.20541827 0.34997064 -0.11656278 0.3882417 -0.94238627 0.1537049 0.012323732 0.8749745 -0.421453 -0.30734605 -0.21374768 0.3202713 -0.46791855 0.48380765 0.5439084 0.180873 0.26386797 0.41592005 0.17895298 0.51981217 1.0457937 0.3400282 -0.041535895 0.42778617 0.57271963 0.1323312
3(N14) 0.21306889 0.9751839 -0.19896495 -0.055042166 0.69490826 1.2062489 -0.12192776 -0.09591701 -0.09084724 -0.51408106 -0.041578107 0.12490857 0.5355366 -0.20818275 0.005612775 -0.29690072 0.17670538 0.0045741824 -0.4076275 0.050349884 0.17788365 0.48027688 0.113180764 -0.4655323 0.3247942 0.07622451 0.55822325 0.42241082 -0.07184618 -0.22005953 0.4064773 -0.207138
M057 0.03649353 0.35473132 -0.5191372 -0.58942366 -0.022817869 -0.16204394 -0.245407 -0.68236315 0.5504029 0.13355689 -0.22091211 0.31000254 0.36653966 0.091175236 -0.39822477 -0.28126758 0.04125527 0.022721894 0.060236305 -0.28447825 0.36173007 -0.035991594 0.21078081 -0.11362848 0.4200662 0.17685184 0.0431652 0.33650327 -0.52839595 -0.35785544 -0.07353305 -0.3587505
4(N14) 0.16893113 1.1451261 -0.22787657 -0.17582005 0.50785106 1.3590775 0.0054939804 -0.048113596 0.1526601 0.034825444 -0.38844702 0.1334574 1.0362353 -0.7475801 0.12471857 -0.6947678 0.091508314 0.21359694 -0.60259324 -0.31047884 0.17446339 0.4740391 0.47471526 -0.18536578 -0.043299228 0.53376514 0.42025748 0.007668769 -0.09109967 0.08652271 0.6112894 -0.54266864
M367 -0.9177799 0.25863656 -0.5148458 -1.7544382 0.03714156 0.8416613 -0.36380845 -0.49499726 0.5945447 0.20079733 -0.5587289 -1.4032261 -0.71402127 -0.5045162 0.14307687 0.021440975 -0.34532195 0.40018216 0.04379652 0.39740595 0.48911786 -0.71622723 -0.27327836 0.2932144 0.1910448 -1.1658249 1.1280495 0.356881 0.24189807 1.3732016 -0.512299 -0.63678825
M001 0.6505814 0.043280765 -0.61056066 0.028037136 -0.7488201 1.102179 -0.64594597 0.12932341 -0.021133069 -0.19938442 -0.45467088 -0.080054924 0.2974827 0.08440358 -0.52492476 0.23962966 -0.31360108 -0.11329794 0.16673522 -0.20520715 0.4491634 -0.13391009 -0.040527035 0.09040646 -0.050233338 -0.5344711 0.27107742 0.73990816 -0.16167982 -0.66722137 -0.18009289 -0.73782504
M305 -0.8299742 0.0027402411 -0.9571976 -0.02397339 0.21836334 1.1585135 0.07432824 -0.29412308 -0.5895087 -0.95692986 0.4674043 -0.058068383 0.30851707 0.33596206 -1.4411147 -0.49167717 -0.22871193 -1.0354615 -0.08416926 -0.70423156 0.43101802 0.33563495 -0.024531249 -0.36204207 -0.10189712 0.6828422 0.51945204 0.0468592 -0.8429126 0.5413859 0.3072641 0.40569636
M036 1.1818693 0.74091274 -0.26011562 0.11288358 -0.93957144 0.7455722 1.3007802 0.9370337 0.8694273 -0.6956376 -1.1951188 0.62976664 -0.2440601 1.9987231 -1.0747284 -0.40542844 -1.0812415 -0.8901606 -0.7884892 -0.29830217 -1.8348608 -1.4413745 -0.53522325 0.7856696 0.30228266 -0.27017182 0.113536015 0.52535033 -1.1870849 -0.60125583 -0.11779451 -0.3154408
M370 -0.45163643 1.3235196 -0.7768793 0.6870603 1.6639264 0.86022425 0.7230779 0.45494092 0.6728912 -0.26394746 0.0032131472 -0.25480953 0.7083357 0.18557288 -1.0986437 -1.1320807 -0.35517928 -0.59080297 -1.1384376 0.68249613 0.4338106 -0.1433012 1.449882 -0.7448621 -0.08660405 0.23512478 1.154189 1.2598422 0.43691897 1.0986284 -2.8238628 1.460211
M032 -0.46535975 0.24153665 0.037947025 -1.1908499 -0.2841176 -0.37615785 0.21121514 -0.5779792 -0.04523194 -0.77381396 -0.29332736 -0.15619414 0.6544671 -0.2697008 -0.2754505 -0.76896316 0.35758626 -0.29235175 0.0024800997 0.56196076 -0.07443154 -0.0722587 -0.5923389 -0.66932976 0.285252 -0.25759277 -0.045424134 1.3124152 0.40645492 -0.33134416 -0.09502669 -0.04553314
1(N45) 0.52060527 -0.21317056 0.44157302 -1.2723522 -0.3321872 0.24140292 1.2512174 -0.1913612 -0.44405466 0.15344499 -0.8814224 -0.4262248 0.8788158 0.41865483 0.50172246 -0.49981302 -0.5676489 0.7344055 0.45310217 -0.95365256 0.16278243 0.0014394425 -1.1779726 -0.1872758 -0.53719825 -0.04733434 1.5711485 0.5048565 -0.04695794 0.09449084 0.1367097 -0.5258892
8(N01) -1.5187125 -0.26738667 -0.7690445 0.20120628 -0.9020297 0.27822876 -0.8159829 0.9706974 -0.098950624 1.0380448 0.24683249 -1.2042738 0.48899782 -0.5131681 0.8796543 -1.8308814 0.5595134 -1.3377179 0.42928115 0.19539484 0.07958301 -1.4092877 -0.7480731 -1.7311971 0.69581497 0.5738626 0.3649061 1.4852896 -0.34479237 -1.8552053 0.3480994 0.19989575
7(N01) -1.3388339 0.6936832 -1.3119155 -0.47944686 -0.12242795 0.11204525 -0.8044257 -0.11004901 -1.5150492 1.9920464 -0.378314 0.108933635 -1.0120656 0.1911405 1.225975 -1.1294252 0.24822946 -0.34199843 -0.60006905 -1.7360829 -0.5183066 -0.96362984 0.70087284 -0.69416046 -0.08929526 0.31722802 1.1154413 1.1843073 -0.5248077 -1.3547642 0.90608376 0.91520333
M003 -0.8375417 0.20434783 -1.0071061 -1.0634537 0.86406434 0.5404251 0.1584205 0.07801152 1.7281322 0.9335518 -0.10049654 0.0517955 0.10461123 0.021422176 -1.0206372 0.20612645 0.13885623 -0.53409237 0.5923328 1.0991507 0.3874861 -0.006164847 1.2866665 0.05948666 0.21775928 0.30381244 0.090602785 0.42572278 -0.9541252 -1.589579 -1.1975209 -0.32339913
M004 0.11087681 0.73890275 -1.5413998 -0.15859655 0.38677326 0.42703643 -0.49311718 -0.47467074 0.16450585 -0.28637838 0.34659618 -0.17071092 0.5448446 -0.08033796 -1.3627946 -1.0255216 0.14356637 -0.7500266 0.1687313 -0.8149992 0.1762861 -1.0841292 -0.07512095 -0.72883284 0.20627287 -0.26577502 -0.028059453 0.9402659 0.4250939 1.1183258 -0.20850483 0.6775122
M377 -0.19562079 0.3402218 0.25303364 -0.37487614 0.11668153 -0.08218796 0.22566532 0.076215625 -0.008524446 0.09522792 -1.0125507 0.4219515 0.6154677 -0.19757615 -0.29020053 -0.054590207 -0.34431112 -0.6486855 0.7447517 0.013842144 0.3761604 -0.3416608 0.2775231 -0.1713289 0.83850855 0.42524368 0.60706264 0.070019566 0.2694987 -0.07317802 0.5706174 -0.06553579
M354 0.24096027 0.8307833 0.80470115 -2.5954 -0.6608011 0.85538644 -0.027771493 -1.4444985 0.5102565 0.5981269 -0.60051703 -1.6203823 -1.7863903 -0.5636928 -0.40503928 -1.4732221 0.0062805973 0.32256442 0.5175652 2.4808528 -0.24467261 -1.6613708 -0.013560153 1.342769 0.12553744 -0.046334654 1.9580764 0.0014683529 -0.3881142 0.85191345 0.5119859 -1.0184028
4(N39B) -0.37917528 -0.5366899 1.354438 -0.94011146 -0.85720116 0.99032545 0.4041628 1.4545094 0.18577102 0.76510483 0.28640133 0.99039537 1.0309432 0.536903 -0.9225383 -1.1891112 -0.11360462 -0.6658983 0.72416574 -0.33582363 1.011005 1.3246503 -0.24640767 0.17090577 0.84391505 0.0036187915 0.39596513 -0.036784895 0.38044775 -0.44522417 -0.6284166 0.51738703
M352 0.3609527 -2.1437755 -0.5863164 -0.2916418 0.5238734 1.3417063 -0.60240734 -0.98690087 0.30081245 0.151201 -1.2947037 -0.57515574 0.24452887 0.56243116 -1.2673095 0.64981323 1.5209329 -0.47288236 0.5718482 -1.2653208 -1.0049222 -0.5682474 1.0150617 0.10863649 1.0993669 1.8148617 0.9433816 0.7004186 1.9180834 0.07450263 -0.29980808 0.16204762
5(N14) -1.2657945 0.7747207 0.40085834 -0.28208444 1.2765605 1.0989331 1.2731024 -0.5137834 0.22846013 -0.20825742 -0.8005061 -0.03013271 0.7077531 -0.47130945 -0.3042215 0.23922639 -0.46085906 0.79238576 -1.263081 -0.2044383 -0.034216363 -0.24258496 -0.040870085 -0.89993757 0.60879034 -0.021882758 1.0670328 0.16338009 0.094011344 -0.60469717 -0.6041671 0.28425148
M072 1.6395555 0.38133413 -0.46621424 -1.1154985 -1.0480101 0.3565631 1.2863641 -1.4772136 0.22171812 0.6219167 1.0290762 -1.5558267 0.67388797 1.3939784 0.4352913 0.8014081 -1.706545 -1.2234117 0.22790816 0.23544782 0.9168652 -1.3360947 0.520328 1.1814431 -0.05608635 1.1554189 0.1959477 1.3517723 -0.7083304 -0.7409945 -1.5249045 -0.8597819
M036+1(N30D) 0.804796 1.3699112 -0.6541602 -1.8826033 -0.84144706 0.57315004 1.4132456 0.44019756 -0.7594936 -1.0071007 -2.031397 -0.68289435 -1.5292733 -0.85869807 -0.42496505 -0.34720454 0.53385025 0.008726958 1.4790722 0.4546063 -0.9612138 0.5888517 -1.0919846 1.902263 1.5580308 0.5195561 1.1382902 -0.21601139 -0.97303957 -0.4506048 -0.90674853 -0.45185533
M269 -0.43601796 -1.4415799 0.9657544 -1.3739458 0.22304314 2.3332403 0.9363562 2.8814085 0.33478323 -0.52562684 -0.037446674 -1.3752477 1.9937584 0.4903378 0.37668255 -0.7573183 -0.39688402 -2.5628204 -2.587312 0.22000499 -0.18590188 0.09901439 1.2929114 -0.25868893 1.096828 -1.6683261 0.023194214 -1.5963907 -0.19094355 -0.53244656 -1.0327765 -0.8115884
M136 -0.6419474 0.46770918 0.17009352 -0.40308946 -0.5889018 0.68294305 -0.17765488 0.39897195 0.6491969 -0.38908583 -0.6386862 0.35419288 0.59461373 -0.38302362 0.32235107 -0.9123621 -1.220801 0.13615473 0.80184686 -0.057608694 -0.48715857 -0.39404884 0.81558514 -0.33871394 0.61168724 -0.7909895 -0.6277925 0.055763204 -0.45162803 0.4087474 0.034644343 -1.2477429
M206 0.9817359 0.3360304 -0.29598472 -0.2494494 -0.6321132 0.9539584 0.32653332 -1.2408931 -0.35226864 -0.3939871 -0.94866383 -0.75732505 -0.1375239 -0.11827028 1.2241458 -0.60069674 -0.18414873 -0.22291325 0.73078346 -1.6802036 0.6155849 -0.051330015 -0.07642818 -0.7447337 -0.53112113 -0.05293793 0.8501232 0.22889712 -0.11977523 -1.1936984 -2.8491058 -2.070249
M219 0.31841075 -0.56809586 -1.0150216 -0.6262989 -0.10336988 -0.4723658 0.8008591 -0.33847567 -0.320817 0.0025643136 -0.8915925 0.45989615 0.50383776 0.5611637 0.03598047 -0.7805459 0.3221443 -0.6521336 0.5758353 -0.43642777 0.49938342 0.086951755 -0.52792174 0.3061332 -0.25840864 -0.74979246 1.7240025 -0.5065481 -0.49046615 -0.34945 -0.5993996 0.09573976
M056 -0.48543867 0.2940769 1.1913716 -2.3613036 -1.0989169 0.6928612 0.105645895 -0.41932684 -0.6429161 0.42296275 0.24657808 0.47643018 2.0594523 -0.7281881 -0.3360711 -0.6256011 0.37828797 2.1118443 0.9984618 -0.36195046 -0.059297588 -0.94798136 -0.054924566 0.8753358 -1.7398297 0.13901007 2.0333865 2.2152104 0.107183695 0.9666826 -0.51178724 -1.4675466
M347 0.037996504 1.2870253 0.11736549 -1.1197304 -0.0119645605 -0.27034572 -0.3868072 -0.38772058 0.8599052 0.46565068 0.11386614 -0.3618141 0.9711531 0.6267928 -0.9757842 1.2246469 0.50371903 -0.27151266 1.8056073 -0.8713561 -0.7607366 -0.1615872 0.4916869 -0.6348207 0.85915637 0.33897194 0.9025013 0.6662495 -0.32617137 0.5249048 -0.8071029 0.523744
M038 0.47640347 0.7172362 -0.9308289 -0.40554032 -2.0430565 1.4390162 -0.41493472 -1.37321 -2.1527424 -0.24398671 -0.7769649 1.1022462 1.5377821 -0.4121122 -0.2461772 -1.0113237 0.5544133 -0.9876194 0.19133244 -0.484996 -0.48567852 0.92902535 0.9221282 -0.18512906 0.07610502 -0.71356535 -1.0559087 0.35956585 -0.24793772 -0.058007035 -1.1490574 -0.3283593
M048 0.7944049 0.30241886 -1.0489236 -1.3064127 0.06011432 -0.29153585 0.52205145 0.047553807 0.59004587 0.30614716 -0.13697785 0.2257752 -0.0011435667 0.6991668 0.00029385052 0.017392976 1.3917023 -0.25735196 0.4821434 0.20948885 0.37083644 0.04961547 0.46780032 -0.74932855 0.92125595 -0.3048463 0.77291536 -0.62599367 -0.47670338 -0.7213302 0.13744071 0.06244251
M059 -0.357798 0.9383826 0.8018968 -1.6298532 -1.2153466 0.9578331 -0.36892548 1.1115856 0.7466679 0.93233895 0.2372696 -0.75113195 1.7912364 0.83833957 -0.24788551 0.5543951 1.3896519 0.8428405 -0.69360375 -1.9469519 1.203741 -1.6633927 0.9395531 0.7936479 -0.6429933 -0.8782129 0.06538393 0.38517806 -1.6392293 1.0710995 -0.9022202 -0.14616314
6(N14) 0.7381328 1.9620134 0.07809195 0.89627373 -1.2348236 1.9304509 2.1557732 0.48032904 0.42057574 -0.44824287 -0.1046901 -1.027266 1.675377 -1.5473806 -0.7318437 -0.4131476 0.7145793 -1.4704949 -0.5357024 -1.488246 0.3301178 -1.02044 -0.7776849 -0.31706026 -1.1575605 0.5530257 1.8642559 1.2421297 0.8309215 0.12252859 0.38841215 -0.46608683
M010 0.51781136 -0.4470174 -0.7006351 -2.0106046 -1.256731 0.90424526 0.7160759 0.470736 0.046273362 -0.8112752 0.0069480618 1.908676 -0.7019584 -0.19751813 -0.9383161 0.016372556 -1.3336757 -0.25085023 0.38648713 -0.7323266 -0.7799233 -0.98753256 -0.17953195 0.74547243 -0.15436149 0.95705926 0.5809625 0.032956623 0.13637167 -0.37986773 0.906917 -0.17008117
9(N01) -1.1661772 0.47846118 0.9176238 -0.84474725 -2.0403209 0.50473106 -1.3800077 0.23536421 0.7990597 1.0405754 -0.5084539 -0.8628912 2.03675 -0.57334685 0.4652132 -1.7834357 0.96265894 -0.31757647 -0.8492501 -0.25812772 -2.6551883 -0.3948053 1.2183443 -0.2323234 -0.93928945 -0.48259717 0.43549994 0.34266362 -2.3469608 -0.60781044 -1.857551 0.57623345
M386 -0.26129588 -0.10351328 -1.1631796 -0.44580144 0.5505702 -0.42053568 1.2617341 -0.82878953 -0.20442112 -0.29831523 -0.18226151 0.06013667 0.45643687 0.4931758 -0.40276125 -0.32708415 -0.99689466 -0.43333462 0.32390004 0.024138818 1.2653961 -1.0940958 1.085267 -0.172079 0.77282715 -1.1288269 0.65940946 0.29892734 0.046382155 -0.4948866 0.13115506 0.98161286
M262 -0.20495398 -0.5385798 -1.3030924 -1.7048041 -0.2657062 -0.06897481 -0.11324797 0.52403873 -0.2223702 0.5602413 -1.4211075 -0.74282897 0.10524958 -1.1646857 -1.6902288 -0.772415 0.011346325 0.7419275 0.7503709 -0.6665435 0.41352633 -0.10709228 0.98327005 0.50795037 -0.5781215 0.22805448 1.5189705 -0.5627553 0.30053645 0.012026222 1.4892554 -0.35661036
M373 -1.8952011 1.2376212 -1.2975932 -0.6600766 1.9392862 0.8273984 -0.24755323 2.374916 -0.5780719 -1.2133429 0.5041635 0.31188625 -1.0359672 2.329643 -0.59777087 -1.2813742 0.43315345 -2.074119 -0.36616644 0.037166134 -0.78580004 0.8137953 0.849486 0.72873974 1.5207202 -0.539293 1.3254962 0.6285767 -0.27608237 0.08501801 -2.7723804 -1.6496779
M102 0.078821234 -1.7544646 0.7908317 -2.4358892 0.7552311 0.5417515 0.03540058 -0.6399758 0.7476785 -2.2502644 -0.4675593 1.2594925 0.50625366 0.37783152 -0.5749869 -1.721722 0.15319653 -2.2722807 1.5224288 1.1312271 -1.4430561 -2.4284017 1.9680915 0.44853207 0.44670206 1.3497257 -0.30093232 0.3876147 1.0764065 0.9383606 0.6917548 -0.98872805
M259 -0.047015958 -0.6042929 0.043568853 -2.015 0.04755474 0.14333488 0.28426722 1.2408645 0.74303603 -0.89688015 1.1457067 1.1491383 -0.41109267 0.11358153 -0.6437545 -0.8779312 1.2285727 -0.76569027 0.99111223 -0.8510874 0.3615577 -0.21201017 -0.28659305 -1.2519519 1.1149509 0.3594906 0.48084423 -0.22974257 -0.7063452 -0.0033731726 -1.2134266 1.277105
M203 -1.242693 -0.12650052 -0.4657225 -0.45314014 -0.18307857 1.6206493 -0.10180955 -1.0243745 -1.1666336 0.5771597 -1.266334 -0.4694522 0.70596313 -0.7875139 0.4268425 -0.4032951 -1.4233905 -0.34577557 0.772237 -1.3423752 0.43972257 -1.6103401 0.18115763 -1.3540183 0.287899 -0.6540454 -0.6408895 0.028622795 0.04703732 0.42049432 -2.1126802 -1.507488
1(N08A) 1.4797128 1.010988 -0.053778596 -1.5445918 -0.2353987 -0.9513291 0.22147429 -1.1642768 -0.5508802 -0.32642195 -0.13277595 -1.7102865 0.14159125 1.3921194 -0.012568156 -1.386108 -0.19052292 -2.525571 -0.792444 -0.96897465 -0.14621422 1.2736639 0.49329334 1.0830398 0.045499437 -1.163777 0.5068951 3.7725983 1.7919875 -0.8939449 -1.6847448 -0.30160686
M260 -0.099973604 0.6821235 -0.77689654 -1.908188 -0.92030746 1.1498237 0.34489426 0.5118828 -1.2382551 0.43377426 -0.56135213 -1.4523461 -1.904366 -0.44360182 -2.0306816 -1.3929051 1.6238668 0.9040715 0.5136153 0.24278079 0.7708908 -0.45599544 0.12588182 -2.545729 -0.020713333 -1.4509572 1.4339064 -0.32925057 1.0545422 0.33546445 1.2716275 -0.3327052
M106 -0.43758023 -0.28061292 0.20054084 -2.9700613 -1.6663913 0.65029556 0.89981455 0.60871154 -0.041152526 0.36440158 -2.043538 0.9773775 0.55879194 0.66802883 -1.13379 0.8214561 0.9138672 -0.5886027 -2.675509 -1.4451884 -1.4263496 -0.72119755 1.6489438 0.94646907 -0.8863554 -3.151499 -0.17397451 0.33205038 -2.6802635 -0.2953381 -1.560575 0.54905283
M240 -0.19628987 -0.18887746 -0.3056231 -0.54735976 -0.59735197 -1.1244192 1.1181911 -0.6697896 0.8241803 -0.0043879836 -0.6046154 0.107313715 0.74734414 0.5338938 -0.72435343 -1.0802352 -0.28760532 -1.6785895 -0.44357517 0.21765171 0.12793395 -0.28082466 0.065288514 -0.17241389 1.2012706 -1.0821273 0.14360726 0.7044724 0.34067398 0.37370625 0.29907045 -0.21521
M005 -0.6973741 -1.0347897 0.9207272 -0.47756872 0.8368166 0.46969798 0.78472954 -1.3962027 0.74330205 0.039032724 -1.4274838 0.5506448 2.3726492 1.1662247 -0.60960686 -1.3636477 1.8297695 0.32003608 0.3515607 -0.56722564 -0.8361539 -1.5773482 0.44190186 0.12588918 0.1961464 0.018639363 -0.2460812 0.37898427 -0.34946224 -0.68189174 -1.242633 0.22193918
M149 -0.2966123 0.4092878 -0.57741165 -1.6162363 1.1221907 0.88008 0.17219785 -0.050726008 -1.6498919 -1.0294309 -0.8729549 -1.296966 1.2546148 0.5418263 -0.236316 -1.0594136 -0.36879444 -1.4238112 1.7594632 -1.4802686 0.9630838 -0.6874775 1.2729329 0.9708211 -0.9475223 0.026807044 -0.24967116 -0.9684469 -0.23275347 -1.0806237 0.34120727 1.6796621
2(N45) 0.12420668 0.43579826 0.8472068 -1.8737614 -0.5396297 0.8602448 0.7572091 -1.2803876 -0.34125158 -0.12890042 0.82349485 0.0024246727 1.4854385 0.5622755 1.2068334 -0.33661684 0.7839314 0.71672875 2.446069 0.27223673 -0.63246197 -0.33941042 -0.013390106 -0.40871292 0.35220295 -0.5028879 2.4713705 -1.1909239 0.23948702 -0.28429094 0.1990796 -0.45222223
M024 0.06726136 -0.5416146 -1.9838406 -1.1291878 -1.1136537 0.9225837 0.4417133 0.6365511 0.20790806 -1.0204012 -0.2654121 -0.3418224 0.2779663 0.58385193 0.90585685 1.608419 -0.5065982 -0.86922413 0.10735638 -0.30588418 0.10677527 0.40950617 1.4491608 -0.8410662 0.25275895 0.452805 0.043796692 0.49451578 0.6951994 -0.051877454 -0.7141043 1.0619179
M317 -0.33112076 -0.33690572 0.8532478 -1.0617211 -0.88960165 0.27970666 -0.7671215 0.73205 -0.01630021 -1.6735831 -1.544893 -1.2003541 -0.71488285 -0.06956084 -0.65918845 0.26980138 -0.06918141 -0.654678 0.0016000282 -0.44924295 0.80901146 -0.51819986 1.3837879 -0.3182676 -0.9735864 -0.5824032 1.0805103 0.656015 -0.71053225 -0.016223017 -0.7670623 -0.29480028
M295 0.9070529 0.6088127 0.022337291 -0.19206841 0.3561906 0.12919143 -0.8939916 -0.57321876 0.2576284 0.55289334 1.6193708 0.5816958 -0.08215585 0.56024903 -0.9695304 -0.926273 -0.28917855 -0.21570598 0.31590933 -0.9226714 0.115126915 -0.8649515 2.7893956 -1.293658 0.65468746 -2.3380766 1.6155047 0.9764394 0.75549304 -0.1667711 -1.3926682 0.6780301
M243 1.3385442 1.9883236 0.6114743 -0.071465194 0.3595596 -0.20947587 0.029897252 0.06782379 -1.136275 0.40657398 0.6031664 0.81392175 0.6734654 1.6647719 -0.68057567 -0.5734271 -0.7061461 -1.4832623 0.5362137 -1.0033778 -1.742748 -1.2700512 -0.040864814 -1.2000866 1.3097721 -2.239253 2.726237 0.7083546 2.2545745 1.7233284 -0.45443645 1.1193078
M111 -0.6548142 1.6282501 0.5530564 -1.2322048 0.006617217 1.0313896 0.8457966 -0.98797035 -0.7783401 -0.26344174 -1.774985 -0.7711672 -1.1730405 0.048755545 -1.1287906 -0.6334393 -0.31096852 -0.4968481 1.6634147 -0.9198171 -0.82318085 -0.2756454 1.0774976 -0.90405846 0.89634347 -0.32827586 -0.6684207 -0.6488305 -1.940829 0.50098604 0.5570593 0.7852147
M365 0.22721414 -0.8301373 0.7603302 -1.3108239 1.8160658 1.9341505 2.096624 -0.44843683 1.4670533 0.5272202 -1.0643162 -1.2615827 -0.7497449 0.2827083 -0.0152485715 1.3172715 0.13886623 -2.4765067 0.66133475 0.81479174 -2.0066252 -0.60548025 0.874819 -1.1477357 0.98037666 0.4527892 0.95899916 0.49107423 -0.9234956 -0.07169331 0.4417553 -0.74616826
M153 -1.8705666 -0.07992407 0.30598435 -1.6718639 -0.40929025 -0.6873342 -0.070907764 -0.38276193 0.29842487 -1.1580975 -0.55634135 -1.259421 -0.5915463 1.2722493 -0.73152834 -1.3600409 -0.2537172 -0.59314 -0.9379127 -2.0715907 -0.39612547 0.6773671 1.2866089 0.076989844 -0.86199814 -0.68058985 0.64379436 -0.28852552 -0.8405721 -0.17182371 0.86274207 -0.54235643
M264 1.3261713 0.5861123 0.32350996 -1.4604601 0.15333118 1.8382812 -0.19926815 2.9979713 -1.950016 1.4581127 1.3669196 0.07944786 1.6887299 -1.8454953 -2.4133384 -4.074029 -0.76859045 -2.2582357 0.51894677 1.7629427 1.2145778 -0.13828543 -0.17704087 -0.8894186 0.51601994 -0.22509713 -0.13466316 0.9490929 0.3942839 -0.22881669 -1.3483223 -0.3413085
M304 0.26205117 -1.7374582 1.5857011 -1.7023149 -0.8551896 2.1578956 -0.668815 -1.3709354 -0.92645913 -0.43646476 0.77693355 0.24641977 -0.2940668 0.29789135 -2.3912134 1.1119094 0.27394393 -0.17106614 -1.3673182 1.4228549 0.15133639 -1.0479721 1.5274593 -0.12774213 1.0253336 0.6504234 1.0933751 0.08076588 -0.6071996 -0.91239333 0.5564174 -0.47725835
M309 0.88358027 -0.5822393 -0.7652288 -1.6828377 0.10618539 -2.0256834 1.1947837 0.017600618 0.17623125 -0.4330442 -0.104446866 0.34881854 1.7250707 1.913077 -0.93050134 -1.6263489 -0.12927084 0.8049659 1.752259 1.72424 -0.64652 -2.272602 1.7880981 0.61795014 -0.34458348 0.1522044 1.465917 1.9169806 0.4091378 0.33229187 -0.52037275 -2.7211168
M146 0.96842223 0.33637828 -0.43134102 0.044947464 -0.35978714 0.44388998 -0.42940107 -0.5224731 0.0039737774 0.18472733 -0.023879098 -0.10776867 -0.18756774 -0.40710342 -0.8584017 -0.11638783 -0.40575364 -1.207004 0.82545006 0.10362926 -0.10133064 -0.24380645 0.17183135 -0.8406124 0.11182445 -0.78608227 0.9050396 1.0437138 -1.0674964 -0.15106636 -0.9994468 -0.60293293
M320 -0.72369593 1.3256844 -1.0885229 0.53068894 -2.175347 0.47673032 0.051084433 -0.7341907 -0.2624581 -0.37279227 -0.8255215 0.7588626 0.59753513 0.5445531 -0.58227414 -0.2994075 0.27673015 -1.6258272 0.09664226 0.53997177 -1.9327136 -0.01374579 -0.052643247 -0.29641247 -0.569093 -0.5695642 1.4440233 -0.66300815 0.7933508 -1.4236683 -1.0860201 0.5635186
M101 -1.4778728 0.13877521 -1.7359294 -2.1711278 1.392142 0.5406772 -0.0411618 -0.94289476 0.22610417 0.29234165 0.12787303 -0.13352135 -0.06335553 1.3205549 -1.3315636 -1.2635888 1.118514 0.7107196 1.503779 -2.4148424 -1.6067275 0.3590118 0.2077931 -0.11120724 -0.5142495 0.10541412 -0.014976123 1.1932077 -0.5221075 0.37150642 -0.057414412 0.39902666
2(N34) -0.3096321 0.027476232 -0.70957345 -0.7205231 0.13248038 1.5969658 0.4294727 -0.35875598 -0.33501217 0.30815643 1.1203882 -0.3264639 2.2129843 0.30081877 -0.26457766 -0.40017205 -0.69504654 1.4126809 0.28702673 -1.9415302 -0.44680715 -2.5682 0.19799376 -0.034776144 -0.1692749 -2.0508363 1.2135335 -0.030056003 -0.32291767 -1.3900673 1.2772012 -0.007453193
M292 0.43106598 -0.9185883 -0.20339294 -1.3893776 0.32851312 -0.2163645 -0.107712515 -0.09493855 0.9517206 -0.7522271 -0.8416531 -0.40277877 1.6435871 0.75797784 -1.3673905 -0.36188936 0.5485678 0.58347946 0.3544325 -0.48114228 -1.0883452 -0.1810549 0.42957094 -1.0956833 -0.43375152 0.23456088 -0.017221276 0.3413888 -1.0291896 -1.2381439 -0.86751723 0.27239442
M145 -0.35294122 1.6177751 0.7349046 -0.94713974 -0.8254175 0.50351506 0.36514577 -0.5196612 1.5083867 -2.2580118 -0.66041565 -1.2773156 -0.46300223 -0.05542312 0.8729767 -0.74523914 0.19717424 -0.92806804 2.0383604 -1.517105 -0.19565494 -0.15467599 2.9277751 1.3304616 -1.2088044 -0.48512158 1.6430557 -1.2874871 -1.3475366 -0.12993456 -0.6464057 0.45433983
M242 0.5411915 0.30377313 0.54459935 -1.6063403 -0.63308674 -0.91153806 -0.28796205 -1.0368947 -0.12346214 0.1023236 -1.7079018 -1.1331043 -0.45759183 1.0589067 -0.83878535 -0.19252147 0.3688063 -0.8150297 -0.67281675 -1.6240964 -0.11568787 0.08785159 1.4711909 -1.6445128 0.9849302 -0.2858673 -0.29990935 0.6595765 0.8665374 0.5724868 0.436668 -0.98688763
M362 -0.3262402 0.20902976 -1.4924663 -2.0334044 -1.6995984 2.0654292 1.6724372 2.3250093 0.03229893 0.9425114 -0.71569496 -2.3875515 -0.15536764 0.4098212 -0.42907384 -0.119072706 -0.6691856 -0.11788124 -1.5263038 -0.9967996 -0.5681156 -1.6711458 -1.4528729 0.63186795 -1.2794789 0.35432208 0.7421294 1.5321723 -0.9551849 -1.4283519 -0.2695583 -3.3528588
M318 -0.4374298 0.73225206 -0.832117 -0.44780073 -0.8077295 0.1930759 0.4394656 2.5597265 0.84864926 0.37292117 -1.4605056 0.6796749 1.1279551 0.2741079 -0.4685961 -0.83710796 0.9284666 -0.66007644 1.6176004 0.3386055 0.37702537 -1.1397899 1.0105493 -0.05727462 -0.40640083 -1.2151232 0.2833012 0.40969077 -0.37974426 0.9079024 -0.0068605915 0.08764605
M380 -0.20827493 0.42044204 -1.8494879 -0.61898273 -0.6336044 -0.1721984 -0.222516 0.4536234 -0.48847818 1.5456979 -1.8908646 1.1904227 1.1704793 0.11698402 -0.85116553 0.10953146 -0.26722112 0.11391967 0.43780017 -0.30448875 -1.950579 -0.35855255 -0.026579278 0.004107249 1.5537225 -0.025095588 -0.24474786 -0.63254935 -0.8405486 -0.6844971 -2.198003 -0.03924856
M097 -0.835616 1.055525 -0.54826975 -1.0031813 -0.4768911 0.31427288 -0.509009 -0.8948662 -0.27499032 0.36729932 -0.021830961 0.72104776 0.08906806 -0.6233293 -1.2917638 -1.2377717 -0.25730762 -1.087111 0.9719478 -1.4346248 -0.5138368 -0.6780766 -0.5510325 -0.6400337 0.43178052 -0.40558898 0.36026603 -0.23840737 -0.6997902 1.756878 -1.8043935 1.3186775
M131 -0.6072699 -0.93219805 0.07482915 0.4302757 -0.4377174 0.33123672 -0.089973025 -0.12863141 0.11618147 -1.2418202 -0.113928474 0.20183136 1.0498289 -0.18767788 -1.3436767 0.26455027 -0.3141514 -1.3119932 -0.3128587 0.10092514 -0.6588107 -1.2164236 0.27663723 -1.5603591 0.34372193 1.0850995 1.7864649 -0.5255853 -0.444299 0.038284186 -1.0240431 -1.4936808
M338 0.21220623 0.42225942 -1.0414845 -1.5066979 -0.90999144 -0.67590487 -0.29593703 -0.78602725 -0.37808874 -1.3172408 -0.14874165 -0.46721667 0.2911792 1.2226967 0.38724697 -0.6346546 0.57960945 -0.60797536 -0.27046794 -1.6264606 0.4370325 -1.2946632 1.1581323 -0.6260202 -0.04170792 2.8389845 -0.0034578117 -0.8795846 1.2245702 -0.18730749 -0.72505 -0.2940833
M006 1.0322039 0.8540265 -1.3512866 -1.1502374 -1.298001 1.1907846 -0.07717546 -1.1316729 -0.87526476 1.8226331 1.5694934 0.7942868 1.7845007 0.66329 0.14070052 0.32416275 0.8715315 -0.9003207 -0.36324233 0.7704509 -1.2971419 -3.1613443 -0.053057883 0.557065 1.7497711 0.099200524 0.9954531 -1.1346495 1.3091825 -1.2591515 -0.89004374 -2.4409554
M002 -0.20057563 -1.4197193 -1.8219243 -2.2477553 -2.230149 1.9135668 2.115286 -0.3960467 -0.6476401 -1.8005501 1.1629403 -0.7580793 0.52513546 1.0633425 -1.4617912 -0.1946393 -0.3530696 1.098888 0.26814863 -0.17172553 0.8219626 -3.0977337 -1.5786132 -0.12225631 0.865616 0.09534479 -0.006372387 -0.32510278 -1.7148248 1.1366684 0.10751812 -0.13075992
M327 -1.3415729 -0.014708691 0.9438128 -1.8850398 1.5483605 2.0978184 2.440819 -1.2242014 0.47543138 1.4949166 -0.6031556 -0.46655732 0.54640484 -0.25670406 -1.7752963 -1.4829308 1.7339869 -0.5298611 1.1440495 -0.089247614 -1.5272788 -2.6551661 0.052337863 0.17372714 -0.01391051 0.6558856 -1.0389006 3.1785557 -0.60984296 -2.9635358 1.4172202 0.37238365
M223 1.399055 -1.0237446 0.29990768 -1.5726697 -0.6629999 -0.37214956 -0.19677879 -0.048924446 0.36638096 -0.89670765 -1.8837801 0.95550805 0.60906935 -0.10658694 -0.8712703 -0.21180606 0.06560802 0.06466775 1.4148036 -0.8756388 -0.57683986 -0.99960035 1.0803639 -0.40059403 0.60558665 0.22713727 0.05163441 0.9183445 1.23532 0.49817464 -0.5752538 -0.20578398
M325 0.02310182 0.029673157 0.7073071 -0.8089805 -0.032142777 0.1713021 -0.40568203 0.004961318 -0.41689208 -0.733992 1.7889832 0.27070817 1.560212 0.6821312 -0.8982909 -0.23620637 -0.8115484 -0.67417705 1.4740672 0.59104294 -0.6639965 0.1698116 0.7852 -1.7575809 0.28353179 -0.173614 1.9463094 -0.73037744 -1.0653596 0.2459854 -1.314868 -0.77220047
M254 1.8328735 -0.51790935 -0.4683401 -1.2430524 -0.67600393 0.14774643 -0.13083375 -0.38174304 -0.2190372 0.76472706 0.13348518 -0.7437353 -0.93168014 -0.68364596 -1.2550765 0.4010589 -1.674652 0.25179118 0.47529754 -2.6704595 -0.41919225 0.8080128 0.9879278 0.5057119 -0.10329611 1.3890095 2.9208965 0.43213072 0.8325283 -0.9817737 -2.6327465 0.20369905
M210 -1.2812415 0.826602 -0.8376927 -0.8483206 -0.23852801 1.3625507 0.47922668 1.9784586 -0.44987673 -0.5978903 -1.4528466 -2.6061103 0.99996847 0.027847158 -0.9609479 -0.05005472 0.13188575 0.23748285 1.9044101 0.18333851 -0.51884955 -0.79727054 -0.94452596 -0.8386283 0.7688436 -1.3880677 0.5995735 -0.18302289 -1.5843205 2.3165598 -1.0323273 -0.99068785
M075 -1.597609 -0.2074127 0.13731363 -1.9447579 -0.9791675 1.0235642 -0.13814415 -0.140323 0.75840694 -1.0945611 0.7769437 2.3591917 -0.9951731 -1.804603 0.36053935 -1.5259563 0.6220788 -0.52450293 0.38077164 -0.1822337 -0.31343916 -1.367437 1.7219436 1.6855614 -0.012280065 -0.0694487 1.6429281 -0.007890833 -1.7692859 1.5320376 -1.6000693 -2.7282991
M348 -1.2583784 -0.3374822 -1.1957189 -0.36975205 -1.2018857 0.10409131 1.0538012 0.49768913 1.7397217 -1.3389531 0.3008603 0.23452505 1.0596544 0.5092398 0.091603294 -1.6867745 0.69168216 -1.3098142 -0.036136806 -0.14732474 -2.0675476 0.37009376 -0.012265085 -0.42688072 -1.2918117 -1.9961399 1.555945 0.7638667 0.5196449 -0.86011916 0.15243131 -1.0870333
M341 1.0324914 -0.06448271 -1.9206672 -1.9688517 -0.1483036 0.29782173 2.711101 1.0343058 -0.010996243 1.551177 0.20807673 0.11022353 -0.0227778 0.43602076 1.4371138 -2.5976038 -2.4755914 1.0428596 1.1116371 2.6204455 -1.0905963 -2.266628 2.5352325 -2.3537064 -0.7975992 0.6792703 0.28970388 0.44296068 0.14930823 -0.13986123 0.322655 -2.0990403
M384 0.3655184 0.080468364 -0.025221333 -2.5878744 -1.9828264 0.81248826 0.28602555 0.07886116 -1.075292 0.52581537 1.1306363 -1.039119 0.69656414 0.12972721 0.40636748 -0.97598875 2.9037197 -0.49872378 -2.1930995 -1.3712094 1.1666496 -1.0657209 0.33263063 1.1575124 -0.9877041 0.37985194 2.0504684 -1.6061512 -0.9321878 -0.23055254 -1.9997917 -0.33827353
M136+M365 -1.945253 2.6703947 0.24966297 -3.1663811 -1.6368988 2.0660927 1.1470147 -0.7473977 -0.07634857 0.6654567 2.3716478 -1.7238939 0.44250128 0.38135085 1.3667785 0.6652181 -0.4415598 0.24588877 1.8616424 0.6591161 -1.2849094 1.382621 2.2322843 -1.1610732 1.564739 -0.21843298 -1.0593106 2.4286728 0.45771316 1.8534794 -0.14362079 -0.48322257
M314 -0.021288702 0.9909588 -0.034415975 -0.030043136 0.45026812 -0.4551732 1.2138385 -0.11799337 -0.46868542 -1.4832586 0.09560174 1.697478 -0.68338877 0.040011108 -1.9432169 -0.18913154 1.5857687 -0.009289903 0.9233953 -0.6421251 -0.59237033 -2.2629492 1.6525673 0.7770638 1.4239898 0.2588786 1.2461181 3.6690924 0.0873625 -0.91204184 -0.15534137 -0.41998687
M099 -0.28493333 0.012194782 -0.7062678 -1.4696485 -0.7738793 -1.1519486 1.4848734 -0.29232466 0.22328076 -0.09488848 -0.57446605 -0.10970569 -0.19787478 -0.7284851 -0.5828148 -1.5185665 0.14213283 -0.060407143 1.6126096 1.1102737 1.2485023 -1.5186721 1.0722569 0.73592365 0.6221462 0.11990425 1.9882152 -1.2396364 1.1551243 -0.6281514 0.39460924 1.145161
7(N14) 0.6892937 1.4795432 0.07455256 -0.95665675 -0.37830532 1.3687477 2.0669808 -0.20730157 0.048006907 0.56170565 0.17795108 0.58780587 2.3056545 -1.9940215 0.33439025 0.15387465 -0.35866687 -1.2008346 -2.0020492 -0.15481171 0.84401697 -1.5317245 0.39387655 -0.473936 -0.40133965 -0.117702134 1.2177918 -0.27804273 0.67630804 -0.87793195 0.7209896 0.13665202
M033 -0.049149502 -0.61105704 -3.9377337 -1.9397416 -1.6153065 0.5132205 2.1546755 1.5611213 1.4943907 2.6637337 -0.9240854 -0.27863362 -1.0934287 1.1753162 -0.62165034 0.05424482 -0.9586062 -0.11289943 -1.1450683 -0.05740566 -1.9907364 1.3133831 1.5408489 -1.8733668 -0.65978473 -0.7921506 0.29438797 0.6103179 0.53232217 -0.80354166 -0.73809206 0.3444345
M217 -0.46405116 0.08887699 -0.48632628 -0.40439314 -0.4898331 0.7164283 -0.0064936616 -0.41209635 0.034030456 0.6586991 -0.42291293 1.039554 0.080788895 0.057598356 0.58886147 -0.8004721 0.075018495 -0.9843296 1.1307249 -0.7675508 0.35430616 -0.20490238 1.1053177 -1.2335583 -0.19065985 0.26096585 -0.04534205 0.93874145 0.976894 0.21985431 -0.3898139 -1.0075592
1(N39C) -0.48063827 0.35209534 2.5684328 -1.3201592 -1.2986964 3.13436 0.5104645 0.30156526 -1.8018619 0.7640983 -0.97250134 -0.7262604 0.15372534 2.670885 -1.2912558 0.35250396 0.75297564 1.3825282 0.39375034 -0.42348415 -1.174135 0.029019788 1.3556038 0.9592653 0.66507614 -0.7929229 1.5396007 1.5772424 -0.26388112 0.7731143 0.68935966 -0.11651876
M081 1.1708496 0.91022277 -0.73676234 -0.56061745 -1.8276122 2.9525876 1.5538325 0.65618443 1.5822768 2.9892573 -0.9528632 -2.6803033 0.28722546 1.0749125 -1.4085678 -1.2268919 1.2991471 0.20448105 -0.64419186 -0.78002185 0.6507584 -1.253842 2.732049 0.6517519 1.0516443 -1.1056246 -1.5517479 -1.0558368 -2.6425347 0.77566797 1.2997955 -0.3057453
M329 0.77706975 0.4282433 0.024453415 0.09293682 1.77254 -0.019816728 0.8269476 -0.10038575 0.42299065 -1.4031166 -0.5146236 -0.79103106 0.003226734 0.99523 0.23566292 -0.3125657 1.7585015 -0.7069956 0.7197916 -1.821599 0.5070025 -1.2905711 1.5468496 0.7540944 2.2376199 -0.58370996 1.5259522 -0.31569174 0.17763777 -0.88038385 -0.3426708 -0.37944448
N 0.30839303 0.3990457 -0.13722593 -1.3073963 -0.14017257 2.071401 1.6719602 0.1037313 0.72007495 0.083139524 1.4725918 -0.35597005 0.21062794 1.4965987 0.6769127 1.225633 -0.42964706 -1.8801247 -0.58102936 -1.4563231 -2.6814897 -2.7160232 -0.059825104 -0.20154199 2.4500651 0.92391074 0.6063325 -2.1579719 -0.37340298 -0.3216282 -0.077278994 0.89614254
M128 -2.6466603 0.29671404 -1.1655886 -0.27828258 -1.3196009 -1.2420832 0.54064775 -0.49262348 -0.8490735 -0.21399339 0.078777775 0.41280305 2.4840422 0.86009276 -1.4578414 0.11629934 -0.03247004 -0.45580426 1.5430943 0.082977735 -1.6130109 -0.3081815 0.22198334 0.79964423 1.185687 0.08409333 2.177859 0.32795608 0.8283425 0.70460147 0.29248366 -1.6964948
M139 -0.3694371 -0.44151145 0.36217666 -0.58194226 -0.85274667 0.20172684 0.5039703 -1.8340076 -0.35975927 -1.3514462 -1.5589175 0.032919623 1.7101957 0.44204673 -1.3147936 -1.8037802 0.8515793 -1.5837768 -0.1608511 -0.6332864 -0.96227103 -0.5487078 1.7656908 -0.69514453 -1.491703 -0.7023588 -0.21919127 0.023817046 -1.7457893 -0.8091533 -0.30688897 1.5922071
M301 0.46599 0.6441435 -1.1438485 -1.4068775 -0.93964255 0.49743426 -0.0431973 0.7009807 0.9880095 -1.3497063 0.6977208 1.2540728 -1.303857 -1.0809367 -0.8996689 -1.026759 -0.9968764 0.024316413 -0.71821547 -2.6350858 -1.7613426 -0.8378689 -0.83855045 -1.5453553 0.7500723 0.96082664 0.8614356 -0.971092 -0.0890487 -1.0819458 -0.7278797 -2.3160872
1(N23) -1.2955827 -0.22178496 0.53086287 -2.5427153 0.5600199 2.4873395 -1.1674992 -1.5555001 1.1710328 2.2876217 -1.6061486 -2.3115215 -0.5983781 -0.21538953 -0.38749903 0.14829144 2.7000475 -1.5287375 -0.5186217 1.1206244 -1.7285811 -1.4321535 0.68187195 -0.41761053 0.8961154 -1.1799514 0.6407948 -0.34453627 -0.53247297 0.66462386 -1.3003826 0.4807966
8(N14) -1.6958165 2.4028318 0.36035126 -0.2531219 0.5657111 2.2047853 2.3186965 -0.22700939 1.3801111 -0.12351893 -0.25396782 0.24410582 0.5606465 -2.156892 -1.4360107 -0.6900654 -0.17605342 1.4354174 -1.3656442 0.29965022 -1.1519477 -1.642759 0.63575613 -0.86249095 -1.4052173 0.5256334 2.652281 1.402482 1.5659063 -0.4702177 -0.65404475 1.6650249
M029 -0.42395973 0.13905926 -0.45157406 -0.5640426 -0.36466846 0.2862971 -0.419894 -0.73102546 -0.4119313 0.1987565 -0.7649954 0.31989217 0.11055803 -0.2810112 0.16903105 -0.13876574 0.38807666 -0.8769924 -0.062408853 -0.26072645 0.38119954 0.18731028 1.0556761 -0.2838495 0.13761607 0.13672829 0.7483171 -0.06319257 0.5583904 -0.24469574 0.50942653 -0.42847335
M372 -1.8023329 1.5177125 0.62650657 -0.9621763 -0.63500524 -0.98998773 0.75659233 0.39189544 -0.18612486 0.049990732 -0.58511376 -0.029653704 1.5580024 0.46711695 -1.3527193 1.1392033 -0.39120367 -0.14754033 0.15092973 -1.210687 0.14086339 -1.0958043 0.7381916 -0.6695374 0.8569392 1.255676 0.35818338 1.0356117 0.49566722 -0.36390147 -0.30710897 -0.29005104
M332 -0.49172348 -0.34958357 -1.2147026 -0.5450685 0.28655496 -0.5072138 -0.18527722 0.7628322 0.66037935 -0.88813865 -1.0864636 -0.3453472 0.5405253 -1.0846384 -0.46140018 -1.1738446 -2.1620715 -0.22885321 1.2153156 0.64187795 -0.99481136 -2.6277654 1.6009811 -1.4501926 0.46626797 -1.2769854 0.38165572 0.5100302 0.35380426 0.40465182 -0.8137145 -0.96284014
M265 0.687105 1.9774555 -0.20561655 -1.8595402 0.1489553 1.2491173 0.045670133 -0.06355598 -1.8447987 0.24710934 0.10501049 -1.0229272 -0.07351107 1.4474838 -0.55914456 0.9894673 -0.14972374 -0.17412847 -1.0602443 0.5141426 -0.12916976 -2.0612798 2.0105276 0.8691679 1.4388152 -0.5819751 0.34774718 0.037972722 0.48186836 1.0211424 -0.6194686 2.0799558
M218+M288 0.3412545 -2.7845304 1.0231262 -1.6372477 0.4802686 1.4732851 -0.27468792 -0.79947966 -0.9162885 0.02113507 0.42941293 2.0461202 -1.279115 0.121685684 -2.1368444 -1.438148 -1.2710208 -1.011397 0.5966668 -2.0290658 0.41926172 -0.9293875 1.0493127 -2.700011 -0.49053416 0.42969835 1.0912526 0.76498926 -0.08814556 -0.20233618 -0.23780979 -0.9333
M041 -1.9257486 -0.92558527 0.14890401 -2.2253864 -1.3889065 1.6741506 2.882471 0.5315608 0.2757585 0.552473 0.27751708 1.4737871 -0.8130064 -0.30182704 0.11947603 0.41993567 2.0392382 -1.008215 -0.79214036 0.13849601 1.1023151 -1.4644904 -1.9305965 -1.8804191 0.98700213 -0.08163233 1.9304804 0.2163221 0.942084 0.34098354 -1.5529152 -0.061965548
M046 -2.154805 -0.7073836 -1.4714503 -2.7241948 1.7699379 0.50415844 0.6751914 2.2466269 -0.42565393 3.198023 0.24215311 0.014186153 -0.07387959 2.4919357 -2.5479596 -1.8523849 -0.5848948 0.6778176 -1.5864074 -0.4908257 -0.6307455 -0.57286793 0.58268684 2.0455403 1.928788 0.7862813 0.5470602 0.17905325 -0.06373061 -0.61300004 -1.8964789 -1.5493436
M175 1.3288342 -0.91624814 0.15578647 -1.1571543 0.7970388 1.9991404 0.80879164 -0.05866664 -0.8146733 -0.63521445 -0.005306707 0.740909 -0.90755886 -0.3624003 -2.1319096 -0.15452051 1.7388074 -1.5731916 1.1741428 1.2028584 -0.56137264 -0.55969065 -0.2038379 -0.63221115 0.68888617 0.6336846 1.4306322 1.9836003 -1.5764941 0.48002404 0.09733734 -1.7831883
M327+M342 -1.9038029 1.0952591 -1.8836688 -2.0087438 -0.39824638 1.5030556 3.0217452 -0.5863706 -2.069795 -2.8720071 -0.5016015 1.307233 -0.091276065 -0.11921564 -1.6261243 -1.634094 2.278196 0.3047444 0.121665515 0.7213063 -1.6193337 0.91048044 0.9088289 -2.240795 -0.87858766 1.2815918 0.86172384 2.1025677 1.6231966 -0.89283913 -1.5561372 0.36549023
M266 0.58708686 -0.026164081 -1.7023299 -1.3016955 0.14613087 0.25267506 0.8258451 1.0666559 0.10764044 0.64753443 0.4576992 -0.8156162 -0.05888994 2.139159 -1.1470108 -0.97066 -0.916644 -0.40982068 0.023389742 1.178814 0.54445326 -0.1337381 0.74080384 -0.7170777 -0.056557193 0.26479638 1.224332 -1.0679222 -1.2810823 1.3773686 0.46476907 -0.13656013
M051 0.61312664 0.07457199 -1.7867827 -2.3953454 -0.40227848 0.5547027 0.527849 0.93919885 -1.772026 0.89365584 -0.45634422 -0.3748709 1.556695 0.8886534 -1.2222637 -0.14754246 0.09322527 -0.12493704 -1.2633337 0.6573122 0.72707945 -1.0299932 0.57903504 0.23820035 -0.060798053 -1.6325861 -0.5554875 -0.18850908 -0.9257244 -0.7196008 0.6331734 0.92732537
1(N30C@B) 1.8162118 0.41651183 -1.4191514 -0.8603202 -0.13880707 1.1460165 1.4656538 2.2504556 -0.6410949 0.10582825 1.108842 1.798866 -0.8554989 0.908181 -1.2534074 -3.7640204 -0.15633827 1.1076108 -1.4718993 0.20849563 -2.1510851 -0.37502623 1.0579331 0.31930664 1.5910031 1.5378155 2.2254052 -0.37118575 -0.37816578 0.3441095 -1.2093709 1.6813055
M296 2.817886 1.546855 -1.1492035 -2.5720322 -0.25473034 0.60949814 1.0122856 -0.31982523 -0.8202472 1.1723495 1.1682326 0.71413213 2.1513593 1.2162236 -0.71546406 0.16487983 0.83433616 -0.62859774 -0.7615646 -0.30471823 -1.395641 -2.9945517 -0.3877278 -1.1520822 -0.0108620245 0.59346133 -0.49135688 0.29315466 -0.67053294 0.35363066 1.3773495 0.9341786
M391 -0.34533995 -0.4253026 0.48562858 -1.4576879 0.2468057 0.71404254 0.43167737 0.4736884 -1.1693592 -1.6215826 -0.98104846 0.2969554 1.9350783 0.9154887 1.1988086 -0.034971625 -0.7591817 -1.7909899 0.24533746 -0.0023139825 -0.2052111 -1.8264297 1.6260893 -0.16793753 -1.6420083 -1.0108521 0.9674942 -0.91056013 0.21926475 -0.8785968 -0.06125681 0.3968942
M195+M057 0.5385175 -0.29308176 -0.14021757 -2.552838 0.37572914 0.35152003 -0.8352909 0.28041586 0.45395187 -0.6228188 -0.6786804 0.24281831 2.1820953 -0.5747134 -0.80727947 -0.5469774 0.5074816 0.8284167 0.49251348 -0.9252145 -1.2266095 -0.40120077 0.31167245 0.030024344 0.44569987 0.62270755 -0.7167819 -0.16314426 0.1587619 -2.2245135 -0.012254755 0.995598
M281 1.0679766 0.38332602 -0.5634199 -0.63480324 0.43347538 -1.7544407 0.5386344 0.9910386 -0.2681851 -0.14577079 -0.8098241 0.46566874 0.92115533 0.59694386 -0.29415116 -1.3277458 1.292218 0.64152724 0.8045733 -1.5390993 0.9948715 -0.72490716 2.6243024 0.20181194 1.4578196 -1.4697857 2.0524843 -0.15870903 0.85288274 -0.057899155 -0.7098298 -0.28701642
M390 -1.4785786 -0.12600894 -0.723335 -0.593207 0.15263875 0.029802905 -0.18641545 -0.31468746 0.7612321 -0.5651758 -0.7927136 0.8013351 -0.68531805 -0.20233892 -1.0745085 -0.6737259 0.38594857 -1.0114814 0.12352902 -0.78255713 0.4595863 -1.4251981 0.36739397 0.8815049 -0.46362764 -0.7433157 1.5831852 0.019002603 -0.013013514 0.23921545 0.025907654 0.21451363
M106+M288 -1.8484206 -1.9224713 -0.8159427 -1.2382952 0.037884776 0.68794024 0.66058105 -0.9752812 0.28080636 0.4591973 -1.1160994 0.48591128 0.15004095 -1.0931834 -0.04854717 -0.288238 0.42628786 -0.012468985 0.23965254 -0.6887192 0.88156354 -0.2926031 2.6111045 -0.16206074 -0.23530667 -1.2612153 2.0455468 -0.58835703 -0.6386923 0.5779581 -1.9367251 -1.2187741
M246 1.4893613 -0.9057599 -2.3678389 -0.9026484 -1.5349804 1.637522 0.8486416 -0.41451308 0.673121 0.96942323 -0.8166734 -0.79812646 0.5878567 0.50999755 -0.14052334 0.09845128 2.764297 -1.1585393 0.89996696 0.5367585 -1.1084467 -0.6104028 1.1057467 -1.3651767 1.0974079 0.28298378 0.19560054 -1.5885986 1.2913206 0.028196314 0.22358628 -0.7500361
M195 -1.2600101 -0.27241105 -0.1561967 -0.8420349 0.11000436 0.44367036 -0.117478706 -0.032158695 0.22821966 -0.4032542 -0.81072587 -0.32039693 0.9214188 -0.83480585 0.029105306 -0.030281289 -0.923719 -0.5297571 0.6947028 -0.4567748 -2.4191291 0.6507005 0.9579612 0.26918116 0.1916974 0.8411724 1.0544922 0.7091733 0.116431355 -1.0731994 0.32861862 -0.5596094
M207 0.11227 0.13623418 0.54541904 -0.5645806 -0.6830472 0.34144104 1.2287223 -0.71590394 0.40017235 0.7410592 -0.14464876 -3.2663305 2.302383 -0.62758505 -1.0929363 -0.26037374 -1.3754337 -1.776713 0.81200975 -0.8229019 0.02696248 -0.09233392 -1.2677884 -0.77733624 -0.1359587 -0.5660335 1.1608715 1.3411351 1.0497487 -0.3531637 -1.1210629 0.6374124
M247 -0.40298977 -1.1336646 -0.41319945 -1.0177349 -0.5220701 1.1299964 2.583241 -3.6279507 -3.0072587 -0.13038814 -0.6653332 1.4839041 2.322705 0.06324232 1.1214852 -0.67019266 -1.6874648 -2.8157613 1.2777812 -0.54820615 -0.90061647 -0.46275622 1.6853355 0.7798099 0.95688283 0.3322463 -0.25240448 0.69773895 -0.5423519 0.46308088 -1.15343 -2.257414
M147 -0.0047475975 0.91263586 -0.13336669 -1.5475779 -1.5791937 -0.41101736 -0.16215149 -0.6108817 -1.0062405 -0.66713166 -2.2152395 0.04720053 -0.18924958 -0.32431 -0.7858891 -0.8185834 0.77485716 -0.82617813 -0.6769497 -1.1507229 -0.10392375 -0.24969022 0.124001004 -1.025283 -0.2678616 -0.8875584 0.0075839935 -0.53199 -0.9235811 -2.0787501 -1.0341798 -0.38704646
M105 -1.2168319 -1.1190963 -0.33602637 -0.92495686 0.08094683 2.5891323 0.09414618 -0.15376663 -0.97620094 -0.27878615 -1.0075521 -0.7376669 -1.0525242 -0.7087919 -1.3709128 -0.98662555 0.1436529 0.90502626 -0.8196334 -0.99537545 -0.04487909 -1.5917007 0.45263103 1.2741114 -0.056982785 -2.0097198 0.8473675 1.6128371 -0.6557098 0.6566803 -3.3093474 1.1800328
M351+1(N14) 0.2575472 -1.3813586 0.43259 -0.8250852 1.6718698 1.3736154 1.0623622 -0.5565948 -0.6628148 -0.78689355 -0.1642978 -1.1712794 0.33803734 0.998209 -0.41633642 -0.87798196 -0.367293 -0.5876771 -0.120071046 -0.5804153 -0.15857841 -1.4552974 1.4390306 -0.35842958 0.55661243 1.3837932 0.36368683 -1.0422238 -1.2088195 0.014941587 -1.3686223 0.88196325
9(N14) -0.6643087 1.4433004 0.43007034 -1.1008664 0.36448228 2.3125424 1.3303245 -0.34208792 -0.26027158 0.3035092 -0.8035467 -0.21042712 0.61132944 -1.2028061 0.2384933 0.783016 -0.13116965 0.41214702 0.8852422 -0.27662268 -0.8966036 -0.68786615 0.54910356 -1.1949313 -0.628594 -0.16411838 1.4123912 0.9822674 1.2321064 -0.5509122 0.7212244 0.7164231
M383 -1.0325813 -0.0032277151 0.90854335 -1.9881557 -2.59237 1.4923564 -0.24097003 -1.0900888 -0.6642701 0.055596374 2.4319756 -1.4233848 2.562872 0.75908977 -1.2675353 1.4946786 0.38792264 -0.43930644 -0.58641094 -0.43219632 0.22559252 -0.07156487 1.4755393 -1.186383 1.2534215 -0.32218283 1.0531675 -1.7534326 -1.0994658 0.9734924 0.35261694 -1.366136
M296+M296 -1.073728 1.03399 -1.1004694 -0.79399586 0.059522647 -0.601406 0.95944124 -1.2052919 0.61895406 0.73753643 -0.049902365 -0.5127332 0.8100234 -1.3758267 -1.2745397 -2.0744276 0.15144058 1.6025 0.18227649 0.16305277 -0.6391595 1.5247922 3.1896498 1.5481029 1.405568 0.42815664 1.7444767 -0.93120027 -0.53600895 0.20587492 -0.79975367 -0.46895093
M250 1.3199713 -0.18095383 -1.3370492 0.026634706 -0.47190696 -0.38475934 0.7986559 -1.4820204 -0.42241117 0.06796447 -0.33650193 -1.2015659 0.80760485 0.27473134 -1.8082633 -0.57516587 0.38263133 -0.14977501 0.5851668 -0.085890025 0.741219 -0.2973417 0.6750771 -0.6647299 1.156179 -0.5280922 1.2843909 -0.37972653 0.20969278 -0.98575693 0.37716183 -0.45163605
M122 -0.35835075 1.4139941 -0.30780277 -1.2691728 -1.664048 0.8606646 0.20113586 0.41440508 0.3021119 0.93285716 0.5670393 -1.0423172 0.3449433 -0.7879017 -0.5668911 1.2969791 0.8362006 -1.7851441 0.1105441 -1.2776922 -2.1273677 0.5771308 0.7995991 1.2531798 0.38996005 -0.97437716 3.2337062 -0.82547903 -0.6683301 -0.84683496 0.3363177 -1.4796093
M374 0.85148853 -0.095844716 -1.8096795 -1.5445838 1.5069556 3.0340278 0.3512372 0.17092118 -2.8742864 -1.5821404 0.39948863 0.3560076 1.2089711 1.6211859 2.0335414 0.15180919 -0.38106295 -2.5230193 0.49812597 -1.1763662 0.11342899 -1.4537392 1.9212731 0.47675794 -1.3963555 -0.9492963 0.7087139 -0.04279071 1.3268045 -0.9407677 0.16071491 0.9158211
M321 -0.15562071 1.1829695 -0.41883573 -2.0951462 1.7814255 0.52816755 1.3076853 0.2515908 1.0615827 -0.1344652 -0.18534613 -0.36272797 0.54513806 1.9991544 -0.25756404 -2.1482027 0.42294142 -2.0505261 0.36813125 0.24387322 -1.9579371 -1.1168276 1.3690782 -1.3622072 -0.11758383 0.14617896 -1.8518817 0.7564236 -0.5764229 -0.79426754 1.0322078 -0.3535291
M340 -1.0057528 1.5312986 -0.15529929 0.39048663 -0.9243101 0.5297854 1.4959043 1.3673284 0.29863957 -1.6494578 0.29577005 -0.23278543 -0.009436046 1.4310942 -1.9074674 1.6525784 0.6440362 -0.80527836 -1.8856541 0.3032537 -1.9135803 -0.29951355 2.4019835 0.70224816 0.5095305 -1.2669314 4.108944 -0.54955024 -1.1315671 -2.607829 -1.126197 -1.3746697
M110 1.7825896 -0.32779834 -0.806416 -1.1239761 -0.2805545 -0.72511446 -0.3239158 1.1898515 -0.4354208 0.46716303 -2.3205197 -2.6087806 0.38208348 0.34455985 -1.5745999 -0.023119334 0.01430982 -0.10968307 0.89617217 1.5699848 -0.30408582 -0.58281255 1.2640421 -2.971103 1.0490044 -1.76812 2.399384 -0.9667399 1.2391534 0.025756523 -0.9247263 -0.78595096
M251 -0.7917306 -0.5063206 -1.8439944 -1.6934744 0.023433197 1.0181333 -0.1700459 -0.17136532 -0.55548316 1.1466215 -1.4331958 1.148886 1.0548334 -0.7712383 -0.12507318 0.100082025 -0.32089424 -1.9628934 0.19950214 -0.5048786 -0.8021115 -0.38724035 1.672051 0.24769366 -1.5232868 -1.4650683 0.6214435 -0.4867538 -0.36590126 -0.7745957 -0.13926871 0.6053278
M103 -1.0070733 0.22398628 -1.6535586 -0.47026098 -0.53304774 -0.91551965 -0.7738011 0.69203067 0.7290243 -0.9090174 -0.10876891 0.12280895 1.2047907 0.21927954 -0.8969311 -1.1504991 -1.1276175 -0.71681035 -0.61627483 -0.27395126 -1.3704724 -0.32508788 0.8567782 0.94152725 1.6546147 -1.1706882 0.8729953 0.10597592 1.3582456 1.9061527 0.7765155 -1.5025643
M112 0.43398738 2.3604066 -1.3073633 -0.8694498 -3.0324574 0.88414013 2.5928907 -0.19932845 -0.7083734 -2.6343815 -0.2166844 0.66706216 -0.6998594 -1.2925704 -2.449778 -0.06285324 0.13257341 -1.6329924 -2.673677 0.21860392 0.5562106 -1.6222395 0.96680874 -0.21148764 1.787686 -0.8594817 -0.0042746165 -0.5386484 -0.6781014 0.35677174 -1.509483 1.3200413
M228 0.5534235 -0.87040323 -0.17405334 -1.22953 1.1214913 1.2989419 -0.74227434 0.47808433 -0.73232853 -0.17318739 0.02492649 2.1207125 -0.5842555 -1.8228658 -1.0239136 -2.5023446 -0.5411346 -2.283737 0.14506215 -0.44275317 -1.0616908 0.58171916 0.55095124 0.77919966 2.6258392 0.3811657 1.5486953 -2.3249822 -0.79544824 0.48143467 -1.9755728 -2.1401336
M230 -0.17210338 1.4313952 0.9200884 -2.490262 -0.9262304 -1.3644001 0.94719744 1.2353615 0.6575402 -0.28081125 0.33179045 1.5097536 -0.09643557 0.2334634 -0.61744404 0.81267846 0.06671925 -1.3948094 -1.3624237 -1.898452 -0.22975177 -1.1280504 0.6597432 -2.3043044 -0.09705292 0.22282046 1.8372353 -0.4340942 -0.39739737 -0.110207506 -1.26322 0.15286474
M417 -1.8352993 0.6278377 -0.49551347 -0.8599531 -0.48491618 1.6749845 -0.40216175 1.8066607 -0.48482397 -0.17371915 -0.5456396 0.64021254 0.74579525 -0.43375963 -0.51199603 0.388686 -0.45579967 0.2810909 -0.87317175 -0.85861015 0.8497808 -2.987223 2.0474405 -0.037699718 0.7617336 0.9661901 -0.62339026 -0.04802826 1.2012585 -0.54155946 -1.297189 -1.1346952
M131+M388 -1.1182247 -0.20715259 -0.9243574 -1.1186589 -0.057044562 -1.0537139 0.90168065 0.124936655 0.80788547 -1.153012 -0.6356713 0.140162 1.0773811 1.294558 -0.67907447 -0.73990077 0.9588944 -0.733389 0.102491766 -1.1051418 -0.08696228 0.5079667 2.2362568 -1.0141546 -1.9536561 -0.3353706 1.8271929 0.24266522 -0.9252172 -0.9110747 -0.8358027 -1.2110206
M039 -0.789195 -0.684627 0.027344424 -0.07483199 1.390514 3.300192 2.3360097 -1.7735938 -0.41776726 -0.8472785 -0.535076 -0.7044666 0.24902266 2.0738416 1.3479556 0.34090415 -0.346348 1.5103703 2.357433 -0.92182934 -2.005807 -1.5910561 0.52399576 -0.66179323 1.8988419 -1.3995279 1.4906812 0.12211185 1.4519854 -1.3177632 -1.1382508 -0.10039102
M248 0.4505193 -0.80456936 -2.0674276 0.34495994 -0.044037387 2.510837 1.9223093 0.16957703 0.5238233 1.6431136 0.16222684 -1.344413 0.6230487 1.4359171 -2.2881143 -0.7280384 -1.2483066 -0.5329792 1.1163126 -0.107848935 -1.3582909 0.93378216 2.1206098 -0.9617088 0.20921457 1.945283 0.48313543 -0.71304756 -1.5361117 -0.09419995 1.4023674 -1.1048588
M305+M342 1.3505384 -0.97699517 -1.1329546 -1.7740535 -0.24031328 2.385479 0.39769286 -0.5056416 -0.6517844 -0.7342632 -0.22898796 0.1354555 0.11518431 -2.6442325 -2.0390902 -1.2417188 -0.33734834 1.007668 -0.9763136 1.0912895 -0.4005422 -2.3604217 2.8048959 -0.32046807 1.3713056 -0.59028405 -1.4052297 0.8324158 -0.7075513 -1.5228457 -2.4353774 1.9976578
M049 1.6756226 1.2004306 -1.0622195 -0.83257943 -0.54494107 -0.9660866 0.42192912 -1.5271428 -1.1334519 -0.017706828 -0.39310893 -0.8977126 0.7000532 -0.56947726 -0.6706674 -0.0716731 -0.46012178 -0.22961095 0.78564215 -0.11437029 0.7477427 0.34806874 1.8965298 -0.8242317 -0.15407619 0.49934885 1.4473455 0.98812395 -0.5130243 -0.22578585 -2.8001077 0.43771103
2(N30C@B) -0.26641902 -1.2495276 -0.40729776 -0.81605613 -1.5415981 0.8678548 2.7183096 2.006281 -2.58865 -1.2055429 -1.353865 -0.17750706 1.5146903 2.0485175 -0.8832698 -2.7503638 -0.9599888 2.471715 -1.7640661 0.6630522 -1.2644237 -0.2724108 1.0137303 -1.5344453 2.2158458 0.90536743 0.096836336 0.49968165 -0.39891028 1.3273498 -1.1996864 1.5819678
1(N24@B) 1.6408677 0.3118843 0.16762283 -1.4723066 -2.7002935 2.4150727 1.5246797 1.4745512 -0.7539561 -0.9278413 -1.4838667 1.7763624 -0.076528236 1.3036743 0.51940763 -2.5884511 0.33105704 2.5544708 0.3523979 1.134451 -2.9324381 -1.363667 1.0545739 0.8088313 1.8229334 0.5349002 0.17343992 0.37264475 -0.0031784275 -1.4529138 -0.36077428 1.088284
M125 0.16863537 0.82838655 -1.3433186 -0.14286867 -0.6826198 1.6591581 0.80509096 1.0030134 -0.309422 0.8438261 -1.7500511 0.3738247 0.5309121 -1.727828 -0.4727344 -1.0659878 1.0760663 -1.6682485 0.99743325 1.4922482 0.05866968 0.047544666 1.9642658 1.5542034 1.8570276 0.21759845 -0.58441734 1.0382065 0.54515195 1.2834914 -0.833347 -0.32705593
M302 1.4556884 -0.051652513 0.96695304 -1.4855813 0.21675208 1.3201712 -1.188197 0.9262141 0.24993455 1.5724899 -0.28844836 -0.49329486 0.6698102 0.76182795 -0.44507256 -0.42760497 0.98495466 -2.2927442 -1.304925 0.76453286 -2.1740108 -1.1588975 0.881262 -1.9377161 0.6506546 0.26446798 1.4692198 -1.71158 0.88641745 0.70091474 0.770318 -0.9693992
M305+UNK 0.21120217 -0.24644503 -2.0339375 -2.1688335 -1.2648711 0.4063972 -0.12365166 -0.39404157 1.2133337 0.62733305 2.8278394 0.66109556 1.2807521 3.0454836 -0.808484 -0.5659091 -0.48445058 0.29734153 2.1838126 1.4081151 -0.07144427 -3.183045 1.9092001 -0.09496745 -1.8353761 2.120245 1.1493275 -1.1784956 -1.9203626 -0.30333942 -1.0826225 0.34648162
M319 1.0476444 -2.1532838 -0.22151753 -1.4808747 -1.866319 0.9510571 2.49682 -1.4611754 1.2428168 -1.099582 0.75729877 -0.004746314 1.3176736 0.08357371 0.7549012 -0.7153655 2.3523548 0.7560155 -0.4161841 0.19350508 1.1526852 -1.4565296 0.37404126 -0.6156292 0.3675528 -1.471163 0.83016294 1.9729522 0.04678211 -0.51685137 -1.298496 -1.2177764
M323 -0.71739686 3.3232038 0.14639565 0.62893337 -1.0657798 -0.33858836 -0.19134286 -0.9420191 0.8830643 -0.011782567 -1.3863614 0.06544506 -0.6141847 1.4646627 -0.7862482 -2.0882225 0.95128053 -1.3647661 0.52631545 1.4510684 -1.6443276 -1.7583277 2.1227942 1.1535032 0.55117154 -0.89976186 1.0020258 -0.24641593 -0.45504397 0.2584805 -1.6290474 -0.06970274
M220 -0.7836777 -0.64862037 -2.2896485 -0.6877001 0.7135578 -0.07621639 0.60897154 -0.33518523 -1.5151336 -0.31424385 -0.7550727 0.32255855 1.1666256 1.3416656 -1.1992509 -0.7005973 0.93152267 1.1867903 0.32662454 -1.2997613 0.21504568 -1.8496248 0.34943485 1.0401375 1.4951731 -2.9087808 1.1546532 -0.24723178 0.5410679 -0.1600869 -0.5259614 0.9024586
M069 0.24292766 1.6377803 -0.2605188 -3.7183905 -0.83463186 1.3586297 0.75759727 3.4243457 -3.5938854 1.369768 0.06424698 -0.35566399 0.5378545 2.3554044 -3.1242206 -2.8716145 0.75308067 2.6255658 0.24537042 1.3729118 0.15232658 1.6006217 3.9382138 1.623166 -0.6517291 0.8974741 2.0068202 0.31346542 -0.0126568675 0.87686217 -2.1034555 1.1249888
M379 0.05295363 0.46234167 -1.5182645 -0.42603627 -1.0673985 1.7807678 3.5191998 1.4118292 -0.37484473 0.2329618 -0.41890284 -0.09759314 0.8720198 0.12941682 -1.6343482 -0.35571292 -1.315126 -1.2917613 -0.9722516 0.4686167 0.11862413 -1.7280576 0.14454193 -0.56650066 0.9860805 1.257351 -0.14631252 -0.300444 -2.122655 1.2219808 0.69761044 -0.2907583
M050 1.4239708 0.75955623 -2.3120828 -1.896096 -0.5955695 0.6419898 1.4677653 0.7699697 -1.3277497 1.4443958 0.24092972 1.0792515 1.1051956 0.716382 -0.73845387 -2.024628 0.44780606 0.38183472 -1.0970876 1.0934249 -0.41135895 0.41727802 3.0615466 2.776193 1.0371463 0.17369042 1.7293038 1.3029377 0.30756217 1.7925757 -1.7427881 1.3148512
M153+M342 -1.5882694 1.4990728 0.46194866 -0.11105127 -1.1312028 0.7277016 0.8105129 -0.7033422 1.9049134 -0.6239708 0.5215954 -1.2908752 -0.35369143 -1.5162065 -1.9147283 -0.8759977 -1.7564719 -0.29155958 2.5144355 -1.5424244 -2.5607057 -0.47987717 1.5735867 1.0428044 -0.6031037 -0.3072484 3.355338 0.42101485 0.21900353 -1.8990304 -0.03980035 -0.13325389
M073 2.0411632 0.6928764 -0.5882637 -2.3903444 0.2773063 -0.25916603 1.7607031 2.0457287 0.311339 0.5866281 -1.3740529 -0.9052897 0.06265615 -1.426712 -0.3033627 -0.3271499 -1.7768475 -0.44125754 -0.19519839 -1.7184026 0.86125916 -0.86755276 3.8827746 2.0614867 2.6351342 -2.3520896 -0.48449013 -0.5149965 -0.9789022 -1.1686989 -0.3104379 -0.34294936
M261 3.522739 2.4516406 1.9429898 -2.0707197 -0.116842255 2.0442152 0.050055373 1.9547195 -3.3090844 -0.09201575 0.9150787 -0.18616313 0.3689922 1.8080301 -1.8491449 -3.6237164 1.9500417 -1.9292006 0.71153647 2.5387564 -0.42953348 -0.70657986 2.1069953 -0.82744163 1.311899 -0.14884241 -0.347889 2.0008364 -0.36342576 -0.8161801 -1.107167 -1.3459495
1(N14@B) 0.032901607 3.4444606 0.16450652 -2.4581764 0.9751815 1.3260689 2.2398794 1.8531712 -2.7491193 -1.1609435 -1.5580852 -0.1845634 -2.834469 -0.76904017 -0.50437677 -0.91796833 1.0103984 0.58232117 1.5492562 0.4925196 -1.3353776 -1.0754743 -1.1736023 0.008211273 1.8652557 -0.17613314 2.0332427 0.79283863 -1.2114878 -1.0736419 0.052455083 0.73837847
M418 -1.2829309 1.6636671 0.765904 -3.315284 -0.96841276 2.0175638 0.31108496 0.27138495 -0.8052049 0.3321659 -0.30131882 -3.7150006 -0.6725977 0.67160434 -0.9091434 -0.78275424 -0.10023568 -1.2212402 0.13648675 0.90057606 -1.0657586 0.33155072 1.7922921 -0.2813422 -1.4374427 -1.661296 0.89166915 3.6406796 -0.33960655 -0.26367813 -0.30938703 -3.0608506
M205 0.27272525 -0.61795706 -1.0320371 -0.9269251 1.0366285 1.735533 0.71742225 0.95046216 -1.2875894 -0.06324899 -1.3064096 0.33140427 1.7334217 2.3121965 0.5202828 -0.9632166 2.4859846 -0.8435383 -2.175696 -0.35885036 -0.16707061 -0.08204021 1.7950375 0.30184162 -1.7442716 0.7278422 1.1481624 -0.09997309 -0.8579054 -0.3991634 -2.5717838 -0.22288543
M260+1(N24) 1.0754184 0.06717819 -0.49207428 -2.5981467 -1.4300537 0.5368243 0.19337463 1.1569802 1.907339 -0.058893558 -0.7982073 -1.6762526 -0.43299776 0.4639068 -0.5969427 0.6595155 1.9414766 -0.9677866 1.3365988 -2.619439 0.8016259 0.7765364 2.1566896 -0.43338707 0.9704612 -0.68245083 0.36503583 -0.22043456 1.200925 1.8850623 -0.82846457 0.3516363
M286 0.12552689 0.45700863 -0.1871788 -3.7481961 -1.9045933 2.5554671 0.7168741 -1.0849599 -0.8329183 0.19963747 1.3136282 -0.21647042 -0.21694165 0.11232606 1.3165436 0.8052362 1.7552503 -1.0417902 -2.2177474 0.98009187 -0.45564508 0.6433933 3.2523518 1.599175 1.9195505 0.41376197 -0.55844945 0.019939417 -0.019852715 1.2166613 -0.60825163 1.3170094
M080 -0.965874 -0.07493594 0.6738897 -2.3437128 -1.5489221 0.4883618 -1.8583491 -0.0018399239 -0.3145579 -3.1443028 -0.62449974 -0.8628541 -1.6095523 1.9432118 -1.4670419 -1.3101815 -0.16914697 -0.99473083 -1.0248289 -1.4099907 -1.5040287 0.79813844 1.0500019 -1.0528249 -0.17951232 -0.06699397 0.008306452 -0.36017808 1.1824565 -1.0927576 0.031948783 -0.1616922
M278 0.5521417 -1.9980268 -1.321909 -2.474153 1.2998402 1.3748518 1.0111392 0.8690586 -2.7170186 -0.63916045 -0.61820316 -1.444564 0.919873 1.1920601 -0.96058714 -3.0876927 -1.1747894 2.4382238 0.03796704 2.0815265 0.23052299 -0.3695077 0.37233213 -0.68307936 -0.16477293 -0.92213786 1.3996942 -0.4539621 0.18387756 0.55054563 -1.5794058 -0.026220728
4(N34) -2.403531 -0.6669633 -0.2746485 -0.9738118 -1.8642391 2.410187 3.4176128 -0.58752036 -1.0542628 -1.2844526 0.5959551 -2.0411813 0.17676295 1.0588648 0.6715567 -0.69518924 0.02821613 0.33062047 -0.11099941 -1.5735371 -0.019282628 -1.2051862 0.22088774 -0.12821488 1.1343 -3.6180673 2.0440419 0.37128368 1.121648 -1.4651668 1.8240246 -2.1417797
M036+1(N14) 1.4126896 -0.49038482 -0.041447442 -1.4415138 2.1214235 2.1084762 -0.3414106 -0.18311515 -0.054824073 -0.3086155 -1.4137269 -0.44735855 1.551056 2.9234312 -0.099018574 -1.2034593 0.5085016 -2.3543313 1.3572313 0.24606156 -3.4147813 -2.2964585 1.4573741 1.7545754 1.0443213 1.4674916 0.3873234 -2.0909333 0.3214261 0.48294428 1.0131394 -0.44740385
M327+UNK 2.3463795 0.14580056 -0.08446144 -2.5308146 1.2983357 0.44935697 -0.33745363 -0.92519045 -0.68847436 -0.027391186 1.7234112 -3.45847 0.76140106 0.17276245 -1.3008033 -0.57234925 -0.6279989 -0.45339724 1.0677507 0.91772187 -0.83883804 -3.3291016 1.3707068 -2.4975429 0.85951316 -2.6695938 1.4058795 1.2990171 -0.6919997 -2.1989439 -2.8139896 0.7376261
1(N51) -2.2233627 2.272284 2.2225022 -3.1903603 0.79280007 1.6343411 -1.0295992 0.21999611 1.152959 1.5928588 0.8946933 -1.8482304 0.25050637 -1.2190652 0.20732328 -1.5165939 -0.70118695 -0.6340923 -0.9810905 -0.984152 -0.78607374 -3.2287977 2.176573 0.43299243 -0.4281567 -0.38257265 1.4521487 -0.44256288 -0.5867546 -0.5991602 0.30753553 -1.5816804
M316 -0.0012478238 -0.21793957 -1.3953711 0.494788 -1.9765375 1.3686577 1.8937073 2.022444 0.82455087 -1.5853139 0.7316811 -1.7844677 2.7073004 1.9031832 -1.8040551 -0.08913274 0.3608018 -0.58725506 1.0726784 -2.5264902 -2.4761634 -1.1394975 -0.63405114 2.3550515 0.40958315 1.6147798 2.1125288 1.347165 1.2350489 0.3223452 0.098480225 -3.2731755
M044 0.9969333 1.3842455 -0.12507588 -2.165785 -1.5336088 1.6087389 2.9246786 0.6652359 -0.82773626 -1.7156036 -0.06687447 0.254328 -0.3610354 -1.2600774 1.3488611 0.9169422 -0.2139612 -1.4857216 -0.3094425 -1.943599 -0.09242479 -0.50103927 -0.073824786 0.30637652 3.2295651 -0.18138663 1.201005 -2.8234968 0.074667215 -0.11097012 -0.4004083 0.17893533
M109 0.21926548 -1.6206903 -2.1865604 -2.7501068 -0.47301596 -0.2802241 -0.11178175 -1.1772196 -1.8853817 0.15742315 1.0453293 0.91847456 2.2467515 -0.364105 -1.6719072 -1.014364 0.92532164 -0.78961736 0.42338142 -1.4659315 1.2814324 -2.4878795 1.1201016 -0.50854415 0.27107164 1.7907968 1.1125269 -1.0615139 0.8974324 0.9257591 -1.4498315 -1.2754107
M291 0.32040417 2.0588386 0.8722774 -2.0023522 -0.924135 0.6236102 -1.402161 1.4102685 -0.09944329 1.895935 -0.587098 -1.6422836 1.0035337 0.29596597 -1.2163943 0.9478039 -2.683904 -0.7716515 -0.7464124 -0.42883763 -3.0301764 -1.414264 2.1507318 0.4901267 -0.3275411 -1.6777549 1.8535868 -0.4991884 2.3452804 -2.1629074 -0.25255638 2.5225217
M136+UNK -1.5660571 0.4567398 -1.0703956 -0.6931436 -1.1379213 2.500883 -0.08463974 -0.60179776 -0.1648989 0.8387197 1.1412692 -1.281277 1.409459 1.3761169 -0.4197937 -1.731598 1.9092636 -1.5687777 1.8170706 1.5194006 -2.8557725 -0.49618793 -1.0463392 -0.7477355 -0.29555735 -1.0584038 1.5560623 -1.041464 -0.3392876 1.1775188 -1.128954 0.49008545
M328 -0.07842963 2.4450948 -0.44676653 -1.2964978 -1.6672213 2.447244 1.1605778 0.08417466 -2.8906171 -1.1198995 -0.38933262 0.3423442 -2.833455 0.84768003 0.99931675 -2.249503 1.2082727 0.116314396 0.42175886 -0.70236385 -0.26145196 -0.7920159 1.3239379 -0.9526911 -0.6297884 -0.18672623 -0.20307572 0.24326457 -0.27064386 -1.5347975 -0.5214477 -0.20228349
M193 -0.79400975 1.3525484 0.33921626 -3.333576 0.15836903 0.5831648 0.32918298 1.2641443 -0.8047102 1.2116016 1.4389496 -0.9929168 0.6817593 1.6325566 -0.16304658 0.22952686 -0.6312317 -3.1016784 -0.22737038 -1.1847845 -0.40739274 2.329858 1.5919497 1.0239365 1.7315795 -0.5014601 0.10074351 1.490671 1.33125 2.2759953 -0.07676031 0.82801485
M249 1.8529564 0.1891192 -0.6770538 0.006946668 -2.0297694 1.8182918 0.33607784 -0.73692423 0.24904218 -2.5127635 0.52861094 -1.9829429 0.66901577 -0.41923323 -0.8567524 -2.108612 -0.066866264 0.14816214 0.7329401 -2.4205596 -0.7687043 -2.2547078 -0.42315134 0.17733492 0.83692855 0.97667736 0.106525294 -0.5610893 0.84180695 0.1505944 -2.8239644 1.009701
M158 -1.1743227 -0.65087265 -2.0277703 -0.9801458 0.6905542 1.3694302 -0.052980065 0.3128954 -3.7589035 -1.8010757 0.7469516 -2.0965757 0.4036479 1.3290458 -1.4168539 -1.3236471 -1.7104467 1.5523512 1.0578094 -0.34315398 -0.049606428 -1.7101568 0.3467346 -2.6871374 1.2532635 0.9334779 1.6905937 -2.298557 -0.18687518 0.58079916 -0.7153436 -1.2573186
M370+M072 -0.3593467 -0.4474321 0.6360622 -2.5907638 -0.08775126 3.4949756 0.098571315 2.1705265 -0.40520576 0.735157 0.0816338 -1.1125876 -1.5230893 0.7559249 -1.4862723 -1.1763111 -1.4587201 -1.7758107 1.2493663 -1.3239466 1.6173087 -2.9334013 0.52991116 1.1527283 -0.079983786 1.4950233 0.33282265 0.5786643 0.76225287 0.14573295 -3.0913935 -1.1496968
M285 -1.9065875 1.188549 0.63366675 -1.158456 -1.937597 -0.921796 0.46305025 0.32750794 -0.38397184 0.11743501 -0.64067477 0.7070748 0.4191429 0.9626827 -1.0391376 -0.21422608 0.18934578 -1.0839064 0.9463901 0.33546716 -0.5529373 0.24561623 0.8543985 -0.1859128 -0.34565052 -1.0842375 2.1243308 -0.546427 -0.085328 0.85878503 -0.97284347 0.7005654
M369 -0.67583805 -1.8851322 -1.5826166 -2.987763 2.249534 0.95865923 1.0726547 -0.9235765 0.54872715 0.7732551 -0.20114914 -1.0431979 -0.31991342 1.1990136 0.81531334 0.5204837 -0.44033945 -2.2191741 -1.0096062 0.6044788 -1.6771564 -0.3269016 1.3025205 0.59587276 0.30152056 0.3581889 1.8026783 -0.43824214 -0.054590784 1.2987412 -0.52726305 -0.6998439
2(N23) -1.7446004 -0.5419542 1.7767575 -0.7314686 -2.8856425 2.9440072 1.5799382 0.1341697 1.167735 2.3625824 -0.06054679 -3.2795584 1.087233 -1.1866649 -0.96722025 -0.91751313 0.06266671 -2.0165284 -0.3158452 -1.378695 1.6276367 -2.0496438 0.6677895 -0.4190571 0.65519804 -0.34329188 0.5975422 -0.6756933 -1.0747648 0.96637106 -1.0531783 -2.4956975
M209 -1.085232 0.12803335 -0.44713017 -1.4752092 -1.9594184 1.540265 -1.867663 -1.2119936 -2.1727653 -0.5303546 1.6397392 -1.2883068 0.31669053 1.1339059 -2.0596416 0.8040372 -0.707022 -0.02912937 -1.7709999 0.13614088 -1.8982427 0.82158154 2.1388297 0.16418919 1.4188766 -1.7875309 1.703969 0.46094653 1.4242387 0.8234633 -0.5331909 -0.27198586
M221 -0.12681064 2.5800717 -0.4076484 -0.63733953 -2.333793 -0.46385303 1.6233759 -1.1744348 -2.25708 -1.5434382 -2.1830125 -0.71623445 0.23446122 0.5109406 -2.6747131 0.4306378 -0.8735827 -2.022846 -0.8770003 -0.43526676 0.18031058 0.04122331 0.6842589 -1.0937707 0.8491477 1.0415003 0.47643852 -0.93494266 -1.2673547 1.150026 -1.8734471 0.54211736
M195+M038 -0.95596135 -1.3098063 -0.31735736 -0.2627366 -1.2765346 2.0020387 2.0356302 -0.84527117 1.1639805 -0.053355083 -0.904638 -1.2291987 2.332426 -1.9420297 -1.36376 -2.0516002 -0.009584736 -0.57318586 0.9170431 -3.7619739 -1.194134 -0.5648278 -0.21175289 -0.31003097 0.39806825 -0.66359234 0.18645096 0.5485447 1.0459614 -1.4269712 -0.76250184 -0.9956542
M315 0.69068336 1.957994 -1.535501 0.084023766 -2.42332 -0.81860846 0.45841354 -0.5373459 1.3243004 0.472876 1.0154353 1.0186886 0.36131775 1.0178744 -1.7248977 -1.1940666 -0.9066855 -0.032337744 -0.3672296 0.69813067 -2.5132318 0.042380936 2.9695454 -0.5031368 -0.5714521 -0.08137725 3.2225895 -1.0190194 1.6299627 -2.4304287 -1.6643615 0.039113697
1(N8B) -1.8375857 -0.976064 -0.23692787 0.3978771 -0.52035403 4.0775566 1.7775449 -0.38788265 0.89798635 2.0275755 0.006438953 0.21656431 0.79112965 1.9262601 2.5470424 -3.111264 2.4361527 -1.048545 1.3307207 0.78711003 0.59326774 -0.30125284 1.7906561 0.25352648 -1.0649533 0.5156279 0.6115735 1.8634951 -0.0356227 -1.2288107 -3.5869176 -4.159289
M252 -0.013493287 -0.10999759 -1.3783121 -2.119856 0.3890061 1.0897913 2.6413028 -2.042027 -1.6563244 1.130289 -0.4249745 -2.9243762 0.21642254 -0.81427157 -0.03133554 -1.3632535 0.41083145 -0.013743657 1.535829 -0.46139854 -0.14798482 -0.084529385 0.77235883 0.3929649 -1.2667202 0.38332406 1.6276563 1.5701841 -2.3392148 0.69628763 -0.84771603 -2.5336802
M377+M320+M377 -0.5943276 -0.15680255 -2.3072662 -2.1943214 0.77785945 2.8277798 1.8148919 -1.2070497 -0.34397405 -1.2171047 2.1976817 -1.1858826 1.4380918 0.89331734 1.8015937 -1.8528754 0.055068456 -0.009614244 0.4432583 -1.4797292 -0.9916796 -1.0329529 0.028398516 -0.7488421 0.9907876 -3.078096 0.053892523 -0.4328138 1.0349226 -0.3059321 -0.35465825 0.8030957
M006@G -2.1516995 0.82875943 -0.02427035 -3.1812472 -1.7546453 2.3503134 0.7905792 0.44975093 0.0042779157 1.0270172 0.33273268 -0.42846972 0.034667738 -0.09894644 -0.56872165 0.02740525 1.2137678 -0.6793285 -0.66123194 -0.16278452 0.582891 -0.81977296 1.7895424 1.0984958 0.6223958 -1.3121204 -0.37207657 1.6462975 1.2714931 -0.34983417 -1.5997819 -1.6381166
3(N34) -2.179728 1.4036984 -0.33615503 -1.9709942 -1.2204268 2.648187 1.7466927 1.1967794 -1.5563926 -2.0409088 0.79319245 -0.6660127 0.2291015 0.111851126 0.6633297 -0.34792587 -1.2248768 0.7655178 9.841274e-05 -2.2150824 -2.585211 -0.8462984 -0.1658553 -0.5125101 0.6815164 -2.6335232 1.4944321 0.2244324 -0.07991603 -0.26287153 1.1243074 -2.463472
1(N08) 3.4691274 -0.45392945 -0.697028 -1.4702796 1.4256881 1.2509146 -1.0515808 2.1052113 -2.093446 -1.4751409 -0.83498394 -3.5374887 1.9304543 0.3011382 -1.3959893 -1.3824203 -1.109904 -1.9204419 -2.3867996 -0.55919445 -1.5338135 -0.43008777 2.8333015 0.35837662 -0.3129441 -0.63927877 1.9594096 1.9894485 2.9130027 -0.8737041 -1.6849647 0.60117054
M381 2.640607 0.36909634 -1.6852618 -0.27183458 1.1746943 1.4890947 0.42345154 0.96805155 -1.3706106 -1.1716313 0.16830067 -0.9508049 1.4738804 1.7304847 -0.24622227 -4.0200725 -1.149907 -1.2287751 0.5345798 -0.5314737 -1.1836659 0.36483195 2.3511677 -0.7652242 -1.2956762 0.27433792 -0.08916771 -0.016129661 0.28664318 1.0639898 -2.3684394 2.4406347
1(N01@B) -0.45725262 1.4614751 -0.28111547 -0.39628878 -2.0740626 2.4390728 1.3616929 2.6963468 0.58311635 -2.5280147 0.10631421 -0.23886767 1.2840209 0.3721566 0.72385836 -1.1533884 -1.0663905 3.1465793 2.0332189 -0.45031694 -0.43629587 -2.0507689 3.571078 0.79986554 2.6870837 -0.36068195 -0.7552389 -0.77967477 -0.44095558 -0.30223826 -1.0909611 -1.7147546
M157+M131 1.2289816 -0.3170144 1.0433279 -2.0463896 -0.52796984 -0.8053954 3.306051 -2.571915 0.058092203 0.32814473 -0.956214 -2.274959 1.9883875 3.2862012 0.38182154 -2.3996658 -0.18951671 -0.67446876 -0.25713062 -1.3058691 -0.5798601 -1.6283947 1.7118344 0.003935938 -0.3055604 2.1943407 -0.8680376 0.3893875 -0.55351424 1.0105915 -1.9433357 0.54917526
M370+M388 -1.0033906 0.58554125 -0.1395466 -1.5879028 0.3457284 0.98284394 1.8991497 1.2404239 -1.0650485 0.39216036 0.615958 -0.4636523 -0.22555575 1.364814 -0.873358 -1.002713 -0.0835577 0.15411809 -0.31687793 -0.4585841 0.12765895 -1.1635268 1.9293834 -0.60185724 1.6265296 -0.2123767 0.35658732 0.8025626 1.635903 0.20876905 -2.0733871 -1.383721
1(N39B@B) -0.21835865 -0.48213497 -0.22368474 -1.020645 -1.8331455 2.0121212 2.501126 0.49599493 -1.1695205 -1.2941678 -2.2897277 1.1150652 0.6296589 1.6144348 1.3011618 -0.6048688 1.0716186 2.329932 1.5728842 0.62668514 -2.3288233 -0.05672065 1.1480463 0.9208063 2.3770874 -0.04494246 1.0041102 0.5496427 0.74401337 -1.0274839 -1.6747419 0.989397
M293 0.8764186 -0.60253537 -0.23245855 -3.5650733 -1.9094512 1.1845002 1.6818787 1.1064004 0.85615844 -0.6793179 -0.15917791 0.88624185 -0.41301647 -1.175159 1.1867697 1.2306359 -0.4877174 -1.1734172 -0.9943704 -1.4418218 -0.42962098 0.76845413 1.3463889 0.07464048 0.52720684 -2.3675706 0.8612816 -0.5697779 -1.9269527 0.14329848 -2.0212052 -0.9508993
2(N1@B) -0.93530864 1.3912064 3.8006225 -2.8244755 0.90414363 2.019708 1.330164 1.1205804 1.6375092 -0.806334 0.6427992 -1.6433214 0.9642258 2.8461058 -0.16970482 -2.7391217 -0.5052992 0.39747247 -1.719374 -1.9799894 -2.0107956 -2.6693614 1.3410535 -0.068399005 0.66588545 -1.6460592 -1.6393517 1.4892263 -3.7649806 1.8485597 -0.8646967 0.18120973
M180 0.7237618 -0.5219025 -2.1755872 -0.14733596 -0.17496479 0.5347725 3.241253 1.6111172 0.9469775 2.2971582 0.2474056 -1.9981446 2.9163544 -0.30334735 -1.6605268 -4.9557858 -2.0487044 -0.059544306 -0.43974042 -1.8086833 -1.9516183 0.72050756 -0.025948636 2.511497 2.2013888 0.20927876 -0.38079426 -0.61993027 -1.7278175 -0.15691312 -1.5245947 -2.0108771
M036+1(N30C) 1.1124833 -1.3250884 0.036417842 -1.677923 -2.0724916 2.610384 -0.6833747 -0.0046046753 -1.6584351 -0.7528827 -1.5412352 0.04978768 0.7017479 0.5091483 -1.3264304 -3.9847295 1.6539426 -0.31736767 -0.96313125 2.8365555 -1.9027253 -0.5650157 0.44349363 2.0291736 -0.43880248 -0.47064766 1.0900685 -0.9885592 -1.6670045 0.82251555 -1.6671157 -0.6607319
M324 1.3670499 1.6004623 1.9585752 -2.4729962 0.5176943 0.5357892 0.60441655 3.4825094 -1.5787252 -1.2331468 -2.214988 -1.4321501 2.8528745 0.47529346 1.7188599 -0.0129460655 0.92598826 -0.64814687 1.3041269 -2.4077427 -0.7253304 -1.5478339 -0.12768693 -0.81323254 0.08080937 0.94686615 1.1771239 -1.0929435 0.976697 -1.5052073 -2.1328065 -0.2870346
M277 -1.2744179 0.920532 -0.077166036 -3.3463104 -1.0440414 0.91259605 1.1747534 -0.9357273 0.8298319 -0.43042725 -0.6170686 -0.66966844 -2.2424226 -0.9795746 -0.40985182 -1.2241948 -0.054012757 -0.8226622 -1.4598403 0.23655877 -0.5198315 -2.5469134 0.57019955 -1.2432302 1.0041555 0.20242494 -0.004312738 0.14964454 1.7045481 2.174585 0.82870555 -1.9438235
M134 -0.8760019 1.729448 0.6348926 -1.5058061 -0.65259546 0.60761434 0.56682485 1.4819957 -1.37666 4.004277 -0.30476215 -0.2388473 1.693629 1.7595348 -2.0041394 -2.0021217 -0.89906496 -0.95117354 1.1378202 -0.9844878 -1.6004229 -0.035977557 0.18266807 -0.34859595 -0.9001792 0.7058433 1.1798227 -0.21877967 -1.2865868 1.0222496 -2.6065638 -0.84015733
M222 0.50238323 -1.7567266 -0.14726982 -0.98998123 -2.1083136 0.65864456 1.5389799 0.9981444 1.2409936 -1.0794526 -3.1396606 -2.8134205 1.7662554 -0.109071836 -0.8682089 -0.9825167 0.9253766 -0.10815223 0.72153556 0.086970046 -2.255857 -0.45161924 0.37866682 -2.395793 0.92956835 -1.6626136 -0.29471225 0.68979836 1.7678206 1.4783851 -0.5607814 0.4582451
M053 -0.77553344 0.2641186 0.6634696 -2.726328 0.2683596 1.3533337 0.33960754 -0.6092593 0.73550785 1.8908173 0.5944889 -2.1251323 1.8698963 0.13770662 -1.0365229 -0.1283744 -3.5303838 -1.3930148 -0.23799703 -1.06401 0.34235314 -3.03588 0.6425709 1.8226551 0.9102195 -0.46990898 -0.0525899 -0.06669307 0.2836728 -0.9266858 -1.978069 -0.79229796
1(N48) 0.5943339 0.8936413 1.1773103 -2.1100483 -0.734562 2.7232096 1.6204925 0.9258806 0.9626956 -0.057202943 0.97541827 0.27613127 -0.5692575 -0.54425144 0.73843884 -1.856811 0.49784356 -0.08915509 -0.3753002 -0.5378444 -1.5099499 -1.1114097 -0.9149135 -1.2913927 -0.9333454 -2.1507244 2.8258739 0.42093116 0.24765284 -0.057246383 1.1915503 0.64063984
M311 0.019989865 -1.1687999 -0.34686604 -0.23098499 0.22142282 0.93905824 3.9081876 -2.3398895 -0.29901785 -0.04478347 -0.024494879 -1.075443 0.8276086 1.9046633 1.6376004 -1.2744864 -0.8233791 -0.1256751 -0.14155743 0.31232503 -1.8923488 -1.0930009 0.72700614 -0.6246526 2.5842128 -3.4713085 2.2416477 -0.60427094 0.6438525 -1.0538038 -1.9488426 0.42334884
M361 -0.14988284 1.8565896 0.71357256 -3.3925352 -0.335502 0.3162938 0.7965465 2.4252877 -0.43801343 -2.472845 -0.3914546 1.8389754 0.61038095 -0.78204644 0.26068717 -0.14361465 2.1249962 -0.98674774 1.8444304 -2.5761604 -2.245082 -1.3708063 1.7566776 -1.3840432 2.2762854 -1.7326301 0.45630163 0.71211153 0.6439285 2.043638 -0.38042527 -2.2450347
M218+M320 1.5666567 -1.887075 1.2507211 -0.44233012 -1.4421446 0.32170334 0.6947473 1.3813207 0.48535734 0.9450754 -1.7318451 -0.96983474 0.7599156 -0.33908072 -2.015439 -0.26891407 -0.5896555 -1.1252601 1.6784288 -0.06516955 -0.34182805 -0.28268182 2.5459213 -3.441522 0.61861944 1.0741308 2.562452 -0.8836491 0.5136571 0.28277615 -1.2304839 -1.1257432
M144 -1.4572191 -0.8007734 0.83677197 -0.9815041 -0.55051315 1.7173394 1.374266 2.4551105 0.2528138 -0.0665374 0.22405629 -0.6472951 0.7297825 0.9592353 0.46238223 1.1863497 2.1136718 -0.08188026 1.6967244 0.04646193 1.1508732 1.0652361 2.6267285 -0.5534535 0.4360302 0.20719826 3.8353956 -0.535665 0.08247423 0.83050495 -0.52248996 -1.9048797
M217+M388 -2.6594596 -0.7156615 -3.2865324 -1.8580219 1.027407 -0.88069487 1.3648604 -2.0769334 -1.450669 0.7976625 -1.9940822 1.195587 1.0819411 1.0601449 -0.64439595 -0.32970062 0.65707815 -1.0281978 0.5002209 -1.4315287 0.17429654 -1.6902864 1.2340093 0.6834026 -0.9051869 -0.5349819 2.785767 0.31109536 1.4645829 0.43688458 -1.9368405 -1.6252304
M362+UNK -1.6575135 -1.8860248 -2.7465496 -3.2263196 -0.28066456 3.0354578 0.44920442 1.7281954 -0.6914527 0.025636496 2.0152135 -2.019953 1.3957272 1.554352 1.8495619 -1.0763012 0.33279175 0.7362363 -0.6381582 0.28115535 -0.6185501 -0.13460791 1.3335261 2.2191772 0.96292025 0.48532814 1.063722 0.31863594 0.5574909 0.13035823 -0.38356915 -2.5671937
2(N51) -0.52019155 1.2748466 2.1187031 -2.7126365 0.61479294 1.5695945 1.2686578 -1.298683 0.4779058 -0.9782951 2.0636456 -3.3133821 0.5391634 0.26522434 -0.3123005 -2.9486494 1.3391513 -1.6192507 0.2648842 1.0257403 -1.1830698 -2.2555697 -1.4476589 0.75787723 1.554756 -0.87294793 2.2043405 -0.660951 0.37572196 -3.0334089 0.571144 0.9168728
M151 -0.20297682 0.74336463 0.2504022 -4.45802 -2.4113204 0.2781495 1.7619344 -0.6291037 0.47687295 0.16171353 0.3129003 0.95505744 -0.22791852 -1.6093686 -1.1350245 1.9177157 -0.32066208 -1.2244215 -0.77959734 2.045463 -1.5230137 -1.2976054 -0.41617465 -2.8119404 -0.60386705 -1.1512042 0.9511212 1.9243785 -0.64712405 -0.09659183 -2.2966607 1.1429527
5(N34) -3.3393664 2.250907 1.896221 -1.6992021 -0.91740686 0.8344688 2.0431843 -1.0684907 -1.4981874 -0.6045154 -0.009332971 0.6351921 1.6030344 -0.054087445 0.5114531 -0.81243855 -1.3503548 -2.1621914 0.14703944 -2.175144 -0.687212 -2.7597656 2.1528378 1.8141098 -1.7979945 0.96405226 2.7008545 -0.2146044 0.60651445 1.1941724 1.0298241 -0.21805821
M152 0.43240026 0.6585603 0.13498424 -1.7398922 -1.918024 0.67830986 0.95049125 -1.9301286 -1.574226 -1.2131135 -3.4297383 -1.3577397 -0.4772484 -1.1059206 -2.7322695 -0.6965007 0.7736117 -2.5460637 0.9865966 -0.56854117 -1.1569749 -0.099740155 2.8353195 -0.14028744 2.5690281 -1.8212525 -1.8528599 1.4875287 0.33925718 1.1596485 -0.23572451 -1.084823
M310 -1.4412351 2.5039744 -2.7408533 -3.4293365 2.3681111 1.76418 0.8398828 -0.2974985 -1.234814 1.5207939 -0.24401301 -1.5823791 -0.8056871 2.9061644 1.0608661 0.1588765 -0.76729894 -0.64762324 -0.24578133 1.9642414 -1.2631909 -2.0822563 0.238383 0.06541518 -0.2552389 -0.57716376 0.869824 1.6202564 -0.9704389 1.367341 -3.8345013 0.6949256
M175+M288 -0.7116199 -0.78285176 1.1473341 -1.1312948 1.2521256 0.7527902 2.6227593 1.9526637 -1.5078956 0.21311335 -0.7974218 0.34683427 -0.074443445 2.464579 0.79170525 -0.50223666 -0.14323285 -1.6492349 0.07499223 -0.007880163 0.09860601 -0.31394932 2.3349328 -3.7076364 0.10048693 0.4507094 0.84393245 0.6709426 -1.027385 0.11992538 0.19743378 0.14334033
M035 -1.0456648 0.27702513 -3.1442842 -1.1437413 -2.9129686 1.6398519 -0.99644345 -0.80502087 -0.387404 -1.0544934 0.79609865 0.8632672 0.33076397 0.2701637 -1.4817632 -0.053457018 0.3903645 -0.5383265 2.2526565 -2.204137 0.56673664 -1.9149716 2.806642 0.820001 1.4457132 -0.78356135 -0.8130929 0.21527115 1.6201504 2.4226127 0.12431483 -0.5482774
M370+M072+M370 -1.156592 0.36482382 -0.39444688 -2.2462485 -0.4197404 0.53584695 1.0167522 1.596692 -1.3914915 0.08297477 -0.0017581487 -0.35059336 -0.7845686 1.2950218 -0.8887216 -1.1440356 -0.21948457 0.21311277 0.32198152 0.4721749 -0.39736173 -1.6591665 1.4622561 0.4094904 0.9794786 0.08124786 0.1310324 1.0241876 1.3105642 0.4743532 -1.5058135 -0.98822504
N(N01) 1.5626663 0.91360223 -2.0950842 -2.6643853 -0.33199278 0.51367664 0.17842568 1.7075133 -2.7959483 2.037625 1.3275698 -0.14884101 -0.8138437 -2.7392764 0.06253935 -1.3526454 -1.2769314 -0.534997 -0.9023445 -2.0341887 -0.8012182 -2.736946 0.5202308 0.13308667 -0.3054254 2.4363678 3.4371388 0.24677955 1.2588984 0.8678384 -0.44109645 0.80877304
1(N02) -1.4084098 0.21742406 -0.177608 -1.9673499 -0.4437102 -0.5329685 0.3398972 -1.3664818 0.50487065 2.981621 3.1245356 -3.131786 0.6917919 -0.26213074 -5.1208096 -1.6795956 0.37064233 -1.0823159 -1.3780746 0.34193215 0.6006315 -2.2557583 1.0527502 -0.265444 3.117893 -0.540569 1.5169729 2.638779 -0.49648026 -0.34733424 -2.6475954 1.1856617
M377+M377 -1.7890056 -0.8786422 -0.20947385 -3.010032 0.64934635 0.22575888 -0.32215667 -0.80740404 0.47485587 1.8410133 0.7615864 -2.4127154 1.751491 -1.8957742 -0.88424325 -0.29390982 -1.9809967 0.65181404 -0.010913476 -0.8098364 0.11588513 0.022828825 2.065798 -0.6751382 0.053310014 -0.68210185 0.7890732 0.69057125 -0.18208367 -0.92719567 -2.7161324 0.47694683
M312 1.1970673 1.2391158 -0.02744342 -2.0565367 -0.72768617 1.4730002 1.0226663 -0.57325447 1.3155001 -1.9137162 1.2486807 -0.95860666 0.84426576 1.4668897 0.8739407 -2.1993232 2.2433202 1.2808412 2.2491646 0.97477967 -2.3943017 -2.884611 2.5235271 2.2544186 -1.5205805 1.087299 2.276675 -0.56450534 -0.19143556 -0.74425095 -0.83532596 1.0363412
M382 1.4019614 1.9078667 -3.7474842 -0.6223906 -0.8121347 2.402428 0.5018504 1.5090452 -0.26317567 -1.1246121 3.5091736 -0.7701121 0.33457997 1.0042516 -1.431455 -1.0556828 -1.2531217 -3.3576202 -0.51348436 -0.5291824 -2.393046 -2.4937751 -0.5020752 -1.3292139 -0.56090724 0.7952542 1.324152 -0.6432227 -0.00911138 1.6105865 -0.3297696 -1.9095036
M061 0.11543723 -1.1297112 0.23779015 -0.8624862 -2.2337449 2.1528406 0.53713655 0.5735281 -0.7657063 -0.8390028 -1.4139678 -2.5755374 -0.6341696 0.56596106 -1.460429 0.64616215 -0.33069795 0.035543475 -2.4631305 -0.018650278 -0.40719032 -2.4452686 1.9430851 3.0300164 -2.1385431 -1.7695452 3.383438 4.373728 1.043484 0.09484307 -2.4830544 0.10351247
1(N) 2.0452635 0.20464025 -0.94338787 -2.316849 0.9533505 1.2358134 0.84782696 1.0623319 -0.4257523 0.57140905 -0.28155413 -1.0995663 2.313624 1.4587582 1.6374598 -0.051716633 -0.017719317 -2.2080834 -2.109781 -1.8225391 -3.8725486 -1.8770055 0.90210277 1.5684075 -0.9715787 1.882579 2.0248578 0.13168976 1.4520115 1.2124544 1.0441743 -0.64179474
M123 -2.7520545 -0.37635076 2.5452983 -2.6052458 -0.2727811 1.2631385 3.238213 -1.2595252 -0.36698702 1.2398219 0.16237523 -1.7779864 2.5237648 0.8990191 0.16222662 -0.12355202 1.7591007 -3.560781 0.3920267 1.263792 -1.0540814 -1.1124026 0.5312176 -1.622014 0.45900938 1.0003849 2.7978218 -1.4621596 -0.985846 0.45976573 0.29524603 -2.5605884
4(N1@B) 1.7014898 1.1962334 -0.96907306 -3.8859396 0.2562875 0.3108507 1.9478363 2.750743 -1.2183958 -1.4347695 1.0917484 0.60594314 0.98436457 -0.07843884 0.108319856 -2.9056513 0.13963117 2.7891214 -0.6486998 0.7337164 -2.5291932 -0.69873947 1.2177594 1.8904701 1.5402288 -0.7959358 1.7498796 1.1935856 1.9176944 -2.5643427 1.0562099 0.59139913
M058 -0.14550129 -1.1536505 -2.3530874 -1.8566557 -0.9404317 0.36738148 2.2412932 -2.072753 1.8413588 3.008644 2.7376034 -2.0462651 -0.23500863 -0.43761268 -2.1794012 -1.2255803 -3.8567395 -0.4392922 0.0035660383 -1.716931 -1.6601157 -1.1460606 0.6653687 0.03483726 1.8394088 1.2957622 1.5274912 0.8512115 0.555866 0.3631511 -2.9187891 -0.7974976
M327+M059 0.23575199 -0.7881246 -1.2605078 1.2700256 -1.9736385 3.9821227 0.6597212 1.3831277 -0.7522529 -0.09828613 -0.51332295 -0.85397005 -1.4624254 1.7843168 -1.3942312 -2.9589639 1.6503369 -0.18361829 0.58361375 -1.3564036 -0.4124962 -2.6553476 2.2155156 -0.36200935 -0.34002218 -2.0786426 0.5613184 -0.742505 -0.49398506 -0.9566423 -0.46943372 0.0015508399
M036+1(N24) 1.1997688 1.6081883 -0.84501046 -2.8042424 -1.2744403 1.9434613 1.5529546 0.18904705 0.5607385 -2.1427963 1.725967 0.15641633 1.4077189 -1.1438935 -1.393612 -5.3084383 -0.87548304 0.2118428 -1.164123 2.6931002 0.20132321 -1.5039878 2.3679469 -0.06190654 -1.0297444 0.9507609 -1.1355716 1.1896406 -0.4119461 1.2552698 -0.32602614 -0.7701971
M375 -0.7836562 2.0578816 -2.0511992 -2.261344 0.17557582 1.1633209 0.048767664 -0.18431692 -1.8893199 1.0353228 -1.2921612 -0.7790954 0.33901396 2.2337244 0.73994976 -0.49817288 0.79781336 0.5939742 0.4253299 0.6144505 -1.9962527 -2.4734833 1.1740545 1.3370173 1.3948139 -1.0321106 -0.25083426 -0.6507044 1.0419401 -0.71301943 -0.18748438 -0.45910394
1(N30D@B) 0.5018812 -0.9447921 -1.1531707 -1.4586519 -2.4466257 2.078321 2.9973853 2.4631238 0.9725738 -0.9132674 0.6332488 -0.0806085 -1.4904504 0.2911319 -0.8426292 -3.5660071 1.3042878 0.50644416 0.77651966 1.2865056 1.1640842 -1.8282923 0.29252455 0.05247762 2.5111516 -0.8193547 1.3185282 -2.0059218 0.34894165 -0.85535896 0.13877726 0.6290092
M305+M136 0.5288581 0.2336527 -0.34032425 -2.5605297 -0.14613351 1.1913712 1.5611734 -0.12835251 -2.129436 0.37245464 -0.28998318 0.21006085 0.19901785 0.10473335 -0.71194124 -2.6378787 0.99133825 -1.0375398 -0.9267687 -0.20832095 -1.5305893 -1.3958397 0.015649853 0.40053582 0.011279296 3.1420355 0.50822604 -1.7071569 -2.7780285 0.06800637 0.10836855 -1.579122
M226 -0.9489691 0.067605704 -2.844654 -1.2233415 -1.573293 1.0151364 0.4214512 0.44984147 -0.6594539 0.94571215 -0.20345274 -0.046531115 -0.17544915 1.868228 -0.23575176 -1.511567 1.8618435 -1.0125388 1.8188266 -1.0075111 -1.0191358 1.406116 1.8295578 -2.8448758 -1.2589754 -1.5660049 0.8332637 0.44292495 1.211421 0.1899333 0.2581931 -0.32118312
M214 -0.12419991 -0.086674444 -0.29306927 -0.65081346 -0.3867658 -0.23339903 1.6154233 0.7977152 1.4070746 -0.6918099 -0.9326947 -0.5907214 -1.3082756 -1.5089616 0.2842191 -1.5279568 -1.6015047 0.7455772 0.22644503 -1.9225491 0.7186255 -2.8523908 1.512641 1.6439363 3.3721118 -2.204441 2.2342973 1.0440408 1.9372809 2.5395567 -3.0173433 -0.70067245
M370+M046+M370 -1.0280458 0.481708 -0.40308404 -1.867704 0.0972109 0.93743527 1.5719606 1.0815649 -1.3440334 0.3499975 0.27320054 -0.29982188 -0.28119084 1.7725303 -1.1418651 -0.83700365 -0.445254 -0.008344488 0.19695689 0.21572761 0.46095264 -1.1291927 2.0019476 -0.42576572 0.95663685 0.3362591 0.21274057 0.659979 1.3503122 0.25566325 -2.3232627 -0.7732799
M370+M388+M370 -1.1078523 1.7148689 -0.3774745 -0.8696034 -0.005713057 1.1357471 0.78167665 1.8226247 -3.039205 0.20849693 0.12748988 -1.3779304 0.09141028 2.0955043 -2.763242 -1.5516462 0.30791736 -0.82585 0.20263354 1.6214037 1.1355116 -0.77208304 1.8439522 0.6358837 0.9066617 0.3420999 1.4846218 0.3539681 0.6410714 0.44627726 -2.0438051 -0.53461903
M115 -0.57900536 1.0278332 0.13163139 -2.455359 -1.0442518 -0.9983127 2.3551834 -1.1127387 -1.5353675 0.7053304 -2.0107095 2.520268 0.016656166 -0.5603471 -1.3162701 0.20547478 -1.7764574 -0.18906674 0.031062827 -1.0902374 -0.92225075 -2.1830628 0.42445922 -0.3292513 2.614009 -1.6487912 -0.28846332 -0.18920739 -0.37175378 0.07290617 -1.6306359 0.68864936
M298 1.2985158 0.71983975 0.13549608 -2.8654792 -2.158236 2.4966276 1.2778176 0.38184363 -0.46840745 2.3018923 1.7016728 0.38544732 -0.034504626 -0.9000258 -1.2716308 0.2698252 -0.12855297 -2.7272787 -0.2651459 0.4441772 -0.032131176 -1.5479661 1.4317535 0.12997039 0.59712154 1.9853749 0.727944 -1.2991016 0.58832115 0.7033483 -0.52902985 0.76975006
M175+M136 2.9971545 1.1283323 -0.80540675 -0.47881982 1.0563885 0.6815235 1.4078052 0.023373423 -0.9196786 0.7601225 0.05289537 -0.26182133 0.8449509 1.7133111 -2.0060976 -1.8245761 -1.7856851 -2.3698516 1.1040766 -0.022956163 -2.1506891 0.1366094 2.271736 -0.0049466854 2.3522792 1.1018461 0.12182221 0.02802559 -1.0283818 1.3793411 -0.491787 -0.8007437
M461 0.47522324 -0.058011703 -2.3064208 -1.6157556 0.23597808 -0.3134165 -0.43702504 -1.2948512 1.0549254 0.25611186 -1.3661013 -0.29474977 0.60606194 1.120006 -1.0439087 -0.85720265 -0.26586786 1.2842948 0.31928128 0.31431246 -1.437856 -2.8274732 2.2443073 0.21840061 0.22156148 -0.57703525 0.28198418 -1.4958701 -0.8873622 -0.9903821 -2.8650153 1.316204
M064 -0.37288365 0.26079288 -2.3335156 -1.2014438 -1.9995826 -0.23911238 0.6079745 1.3803617 0.04539854 1.6241564 -0.6913099 -1.3257152 1.8757033 1.9450202 -2.5508935 -1.1516825 1.3775567 -1.1961188 -2.4151032 -1.9188833 -0.9757834 -2.8345408 -1.411331 1.1020863 -0.73926044 -2.6447115 2.1784935 -1.4380915 -0.47841752 0.8910983 -0.0014155604 -0.3622713
M026 -2.1530464 -2.1101458 -0.17915909 -2.4098568 -0.0026100264 2.1360126 0.12828764 0.975366 -0.2896029 -0.22635417 -2.091965 -2.1435874 0.05496017 -0.87188214 -2.4790914 -0.84753567 1.5381944 0.645486 -2.3378737 0.7858978 -0.9017201 -0.34131292 2.826648 2.0519998 0.16232957 -1.6953393 1.5736623 0.006392326 -2.5384846 1.0978717 -3.1230276 -0.15175164
M288+1(N01) -1.787472 -1.1986598 -2.5923579 -3.2408288 -0.22911361 0.47625932 3.0738955 0.32273668 -2.5421267 -1.9720479 0.11073049 1.2139786 0.70112795 1.7866495 -1.1424649 1.5805817 -1.4910611 -2.9988613 2.586913 -0.7098117 2.1484184 -1.4955823 1.0800966 -1.3136487 1.2234133 -0.12173094 -0.17544661 0.03290884 -0.012108821 -1.2567819 0.67797303 0.37157702
6(N34) -1.9833299 1.3934021 2.262766 -1.5101026 -1.1377113 3.0412683 2.4903026 2.34354 -0.8816216 1.2909698 -0.34904706 0.05384878 -0.21751934 -0.23364016 -0.7135672 -1.6007627 1.2232922 0.5621948 1.4399892 -2.4623277 0.38044515 -2.8443635 -1.3000395 -0.94211113 1.2558584 -1.5617188 1.2348696 1.3136185 0.044723876 3.131625 0.2425597 -0.20493987
2(N02) -0.93535465 -1.8051176 -1.5551579 -0.6896095 2.0062306 -0.100151815 -0.4911256 -0.5993783 -2.1020062 1.9881597 0.09159142 -1.4652314 1.7379879 -1.7731757 -2.8791616 -1.9126798 -0.27562135 -2.127342 0.32554045 -0.03745316 -0.7434468 -0.28595522 2.094624 1.1930501 2.843125 -0.15398268 3.9684625 -0.028180702 0.24424067 -1.2353964 -1.0034442 2.1506038
M047 1.0360706 -1.3144583 0.105562806 -2.4003322 0.25477132 -0.7364913 3.8664503 -0.8000904 0.4742716 -1.1689082 -0.12728326 -2.0275033 1.0722239 1.6419162 -1.9009758 -2.1060286 -2.0546484 -0.22290437 -1.1854564 -2.4338245 0.47841617 -0.96178395 1.7929188 -2.3496103 0.28924692 -1.0885078 0.4476811 -1.3090218 -2.5768075 0.41781616 -1.8248128 0.3837666
M143 0.09294187 -0.35902813 -2.0183127 -1.563976 -2.1226766 2.5172825 0.07737895 -1.2380909 -3.7066326 0.56302977 -1.6035718 0.12959488 -0.46505973 -0.103001714 1.1061131 -2.2712579 -1.4340717 0.59096813 0.78077614 -1.8921357 -1.0829942 -0.16564456 2.5350194 -1.0142274 3.431062 0.60536915 -0.67352974 -3.3387094 3.8516037 -1.8191476 -1.5144644 -3.1093802
2(N39B@B) 1.4764796 -1.3143438 -0.3239798 -2.1379309 -1.0172259 0.5538609 3.3665063 -0.7246227 -0.16022311 0.13716239 -0.64581066 0.46725032 0.7246758 0.87057215 -0.16821207 -1.9093035 -1.8645334 0.9469121 -1.537738 0.06497154 -1.8741362 -1.0306028 0.44650623 0.5012247 0.54183364 1.1662891 0.8283458 -0.9532139 -1.4361961 -1.3596781 -1.686574 0.060303334
